{"learner":{"attributes":{"scikit_learn":"{\"_estimator_type\": \"regressor\"}"},"feature_names":["Prevailing Wind Magnitude (MPH)","Gust Wind Magnitude (MPH)","Vis (MI)","Cloud Height 1 (100s of ft)","Cloud Height 2 (100s of ft)","Cloud Height 3 (100s of ft)","Cloud Height 4 (100s of ft)","Air Temp (F)","Dewpoint (F)","6hr Max (F)","6hr Min (F)","Rel Hum","Wind Chill (F)","Heat Index (F)","Sea Level Pressure (MB)","Precip 1hr","Precip 3hr","Precip 6hr","cloud_code_1","cloud_code_2","cloud_code_3","cloud_code_4","prevailing_wind_dir_code","gust_wind_dir_code","weather_code"],"feature_types":["float","float","float","float","float","float","float","float","float","float","float","float","float","float","float","float","float","float","float","float","float","float","float","float","float"],"gradient_booster":{"model":{"cats":{"enc":[],"feature_segments":[],"sorted_idx":[]},"gbtree_model_param":{"num_parallel_tree":"1","num_trees":"10"},"iteration_indptr":[0,1,2,3,4,5,6,7,8,9,10],"tree_info":[0,0,0,0,0,0,0,0,0,0],"trees":[{"base_weights":[-8.85029E-6,-7.154224E0,6.247484E1,-1.9539255E1,2.1042287E0,8.6647415E1,3.0219553E1,4.4225974E0,-2.3355663E1,7.8029165E0,-1.6784075E1,8.0366104E1,1.0535376E0,-1.1155415E-1,3.8496147E1,2.9988058E0,1.3197626E-1,-8.630077E0,-2.6528446E1,1.1201387E1,-1.9137512E-1,-1.304321E1,-3.1669378E1,8.3476974E1,6.4623594E-1,6.4194256E-1,3.203153E1,8.670087E-3,4.1624818E-2,1.8156512E-2,-1.0122453E-1,-2.4849021E-1,-6.037829E-1,9.57064E-2,4.02724E-1,-2.5267333E-2,6.826169E-2,-7.626695E-2,-1.5425727E-1,-3.4601146E-1,-3.0326965E-1,8.0399936E-1,9.5528287E-1,3.6378345E-1,1.892642E-1],"categories":[],"categories_nodes":[],"categories_segments":[],"categories_sizes":[],"default_left":[1,0,0,0,1,0,0,0,0,0,0,0,0,0,0,0,0,0,1,0,1,0,0,0,0,0,1,0,0,0,0,0,0,0,0,0,0,0,0,0,0,0,0,0,0],"id":0,"left_children":[1,3,5,7,9,11,13,15,17,19,21,23,-1,-1,25,27,-1,29,31,33,35,37,39,41,-1,-1,43,-1,-1,-1,-1,-1,-1,-1,-1,-1,-1,-1,-1,-1,-1,-1,-1,-1,-1],"loss_changes":[2.1928678E7,5.047763E6,3.927818E6,1.7221655E6,2.7116532E6,3.30052E5,7.404504E5,3.2294414E4,7.58708E5,5.257916E5,3.2472525E5,1.00435E5,0E0,0E0,2.9714125E5,5.5234414E3,0E0,4.493014E4,7.58219E5,6.4340775E5,9.464434E4,6.0122625E4,3.56325E3,5.9105E4,0E0,0E0,8.1398875E4,0E0,0E0,0E0,0E0,0E0,0E0,0E0,0E0,0E0,0E0,0E0,0E0,0E0,0E0,0E0,0E0,0E0,0E0],"parents":[2147483647,0,0,1,1,2,2,3,3,4,4,5,5,6,6,7,7,8,8,9,9,10,10,11,11,14,14,15,15,17,17,18,18,19,19,20,20,21,21,22,22,23,23,26,26],"right_children":[2,4,6,8,10,12,14,16,18,20,22,24,-1,-1,26,28,-1,30,32,34,36,38,40,42,-1,-1,44,-1,-1,-1,-1,-1,-1,-1,-1,-1,-1,-1,-1,-1,-1,-1,-1,-1,-1],"split_conditions":[1.0256E3,4.5E1,3.31E1,1.0008E3,8E0,3E0,3E0,9E1,1.99E1,6.8E1,4.21E1,1.0273E3,1.0535376E0,-1.1155415E-1,3.09E1,9.963E2,1.3197626E-1,1E1,2.5E2,1.0176E3,1.8E2,1.4E1,8E0,3.09E1,6.4623594E-1,6.4194256E-1,3.5E1,8.670087E-3,4.1624818E-2,1.8156512E-2,-1.0122453E-1,-2.4849021E-1,-6.037829E-1,9.57064E-2,4.02724E-1,-2.5267333E-2,6.826169E-2,-7.626695E-2,-1.5425727E-1,-3.4601146E-1,-3.0326965E-1,8.0399936E-1,9.5528287E-1,3.6378345E-1,1.892642E-1],"split_indices":[14,3,7,14,22,24,3,4,8,11,7,14,0,0,8,14,0,0,4,14,3,0,0,8,0,0,12,0,0,0,0,0,0,0,0,0,0,0,0,0,0,0,0,0,0],"split_type":[0,0,0,0,0,0,0,0,0,0,0,0,0,0,0,0,0,0,0,0,0,0,0,0,0,0,0,0,0,0,0,0,0,0,0,0,0,0,0,0,0,0,0,0,0],"sum_hessian":[4.906E4,4.402E4,5.04E3,1.883E4,2.519E4,2.88E3,2.16E3,2.587E3,1.6243E4,1.9352E4,5.838E3,2.16E3,7.2E2,3.6E2,1.8E3,2.227E3,3.6E2,2.88E3,1.3363E4,1.3579E4,5.773E3,4.667E3,1.171E3,1.8E3,3.6E2,3.6E2,1.44E3,7.87E2,1.44E3,3.6E2,2.52E3,1.2733E4,6.3E2,1.2859E4,7.2E2,4.332E3,1.441E3,1.427E3,3.24E3,3.6E2,8.11E2,1.44E3,3.6E2,1.08E3,3.6E2],"tree_param":{"num_deleted":"0","num_feature":"25","num_nodes":"45","size_leaf_vector":"1"}},{"base_weights":[6.781345E-5,-7.0827003E0,6.1850998E1,-1.9343893E1,2.0831764E0,8.578215E1,2.9917864E1,4.3784404E0,-2.3122152E1,7.724918E0,-1.6616379E1,7.956356E1,1.0430169E0,-1.1044183E-1,3.8111855E1,2.9688406E0,1.3066004E-1,-8.543804E0,-2.626321E1,1.1089414E1,-1.8945454E-1,-1.2912823E1,-3.135323E1,8.264319E1,6.397914E-1,6.35541E-1,3.1711605E1,8.583527E-3,4.120885E-2,1.7975437E-2,-1.00212656E-1,-2.4600536E-1,-5.9775454E-1,9.474945E-2,3.9870247E-1,-2.5014708E-2,6.7579485E-2,-7.5504854E-2,-1.5271509E-1,-3.4256095E-1,-3.0024055E-1,7.959651E-1,9.4575644E-1,3.6014912E-1,1.8737674E-1],"categories":[],"categories_nodes":[],"categories_segments":[],"categories_sizes":[],"default_left":[1,0,0,0,1,0,0,0,0,0,0,0,0,0,0,0,0,0,1,0,1,0,0,0,0,0,1,0,0,0,0,0,0,0,0,0,0,0,0,0,0,0,0,0,0],"id":1,"left_children":[1,3,5,7,9,11,13,15,17,19,21,23,-1,-1,25,27,-1,29,31,33,35,37,39,41,-1,-1,43,-1,-1,-1,-1,-1,-1,-1,-1,-1,-1,-1,-1,-1,-1,-1,-1,-1,-1],"loss_changes":[2.1492876E7,4.9473215E6,3.849748E6,1.687908E6,2.65773E6,3.23494E5,7.257445E5,3.1653824E4,7.43612E5,5.1533125E5,3.182805E5,9.8428E4,0E0,0E0,2.9125375E5,5.4135664E3,0E0,4.403667E4,7.4317E5,6.306274E5,9.276183E4,5.8926E4,3.4935E3,5.7946E4,0E0,0E0,7.9777375E4,0E0,0E0,0E0,0E0,0E0,0E0,0E0,0E0,0E0,0E0,0E0,0E0,0E0,0E0,0E0,0E0,0E0,0E0],"parents":[2147483647,0,0,1,1,2,2,3,3,4,4,5,5,6,6,7,7,8,8,9,9,10,10,11,11,14,14,15,15,17,17,18,18,19,19,20,20,21,21,22,22,23,23,26,26],"right_children":[2,4,6,8,10,12,14,16,18,20,22,24,-1,-1,26,28,-1,30,32,34,36,38,40,42,-1,-1,44,-1,-1,-1,-1,-1,-1,-1,-1,-1,-1,-1,-1,-1,-1,-1,-1,-1,-1],"split_conditions":[1.0256E3,4.5E1,3.31E1,1.0008E3,8E0,3E0,3E0,9E1,1.99E1,6.8E1,4.21E1,1.0273E3,1.0430169E0,-1.1044183E-1,3.09E1,9.963E2,1.3066004E-1,1E1,2.5E2,1.0176E3,1.8E2,1.4E1,8E0,3.09E1,6.397914E-1,6.35541E-1,3.5E1,8.583527E-3,4.120885E-2,1.7975437E-2,-1.00212656E-1,-2.4600536E-1,-5.9775454E-1,9.474945E-2,3.9870247E-1,-2.5014708E-2,6.7579485E-2,-7.5504854E-2,-1.5271509E-1,-3.4256095E-1,-3.0024055E-1,7.959651E-1,9.4575644E-1,3.6014912E-1,1.8737674E-1],"split_indices":[14,3,7,14,22,24,3,4,8,11,7,14,0,0,8,14,0,0,4,14,3,0,0,8,0,0,12,0,0,0,0,0,0,0,0,0,0,0,0,0,0,0,0,0,0],"split_type":[0,0,0,0,0,0,0,0,0,0,0,0,0,0,0,0,0,0,0,0,0,0,0,0,0,0,0,0,0,0,0,0,0,0,0,0,0,0,0,0,0,0,0,0,0],"sum_hessian":[4.906E4,4.402E4,5.04E3,1.883E4,2.519E4,2.88E3,2.16E3,2.587E3,1.6243E4,1.9352E4,5.838E3,2.16E3,7.2E2,3.6E2,1.8E3,2.227E3,3.6E2,2.88E3,1.3363E4,1.3579E4,5.773E3,4.667E3,1.171E3,1.8E3,3.6E2,3.6E2,1.44E3,7.87E2,1.44E3,3.6E2,2.52E3,1.2733E4,6.3E2,1.2859E4,7.2E2,4.332E3,1.441E3,1.427E3,3.24E3,3.6E2,8.11E2,1.44E3,3.6E2,1.08E3,3.6E2],"tree_param":{"num_deleted":"0","num_feature":"25","num_nodes":"45","size_leaf_vector":"1"}},{"base_weights":[1.3540547E-4,-7.0118995E0,6.1233383E1,-1.9150494E1,2.0623283E0,8.4925514E1,2.9619188E1,4.334736E0,-2.289099E1,7.647694E0,-1.645037E1,7.876903E1,1.0326011E0,-1.0934046E-1,3.7731403E1,2.939184E0,1.293572E-1,-8.458388E0,-2.6000645E1,1.0978549E1,-1.8754195E-1,-1.2783748E1,-3.104025E1,8.1817726E1,6.334111E-1,6.292033E-1,3.1394876E1,8.497882E-3,4.0797148E-2,1.7796187E-2,-9.921086E-2,-2.4354555E-1,-5.917865E-1,9.380195E-2,3.9472088E-1,-2.4764521E-2,6.69043E-2,-7.475038E-2,-1.5118846E-1,-3.3914486E-1,-2.9724193E-1,7.88011E-1,9.363249E-1,3.8790444E-1,2.3955764E-1],"categories":[],"categories_nodes":[],"categories_segments":[],"categories_sizes":[],"default_left":[1,0,0,0,1,0,0,0,0,0,0,0,0,0,0,0,0,0,1,0,1,0,0,0,0,0,0,0,0,0,0,0,0,0,0,0,0,0,0,0,0,0,0,0,0],"id":2,"left_children":[1,3,5,7,9,11,13,15,17,19,21,23,-1,-1,25,27,-1,29,31,33,35,37,39,41,-1,-1,43,-1,-1,-1,-1,-1,-1,-1,-1,-1,-1,-1,-1,-1,-1,-1,-1,-1,-1],"loss_changes":[2.1065736E7,4.848881E6,3.773232E6,1.6543345E6,2.60488E6,3.17064E5,7.1133075E5,3.102605E4,7.28818E5,5.0507725E5,3.11964E5,9.646E4,0E0,0E0,2.85483E5,5.3059004E3,0E0,4.3160953E4,7.28421E5,6.181001E5,9.091699E4,5.775325E4,3.425125E3,5.6811E4,0E0,0E0,7.83495E4,0E0,0E0,0E0,0E0,0E0,0E0,0E0,0E0,0E0,0E0,0E0,0E0,0E0,0E0,0E0,0E0,0E0,0E0],"parents":[2147483647,0,0,1,1,2,2,3,3,4,4,5,5,6,6,7,7,8,8,9,9,10,10,11,11,14,14,15,15,17,17,18,18,19,19,20,20,21,21,22,22,23,23,26,26],"right_children":[2,4,6,8,10,12,14,16,18,20,22,24,-1,-1,26,28,-1,30,32,34,36,38,40,42,-1,-1,44,-1,-1,-1,-1,-1,-1,-1,-1,-1,-1,-1,-1,-1,-1,-1,-1,-1,-1],"split_conditions":[1.0256E3,4.5E1,3.31E1,1.0008E3,8E0,3E0,3E0,9E1,1.99E1,6.8E1,4.21E1,1.0273E3,1.0326011E0,-1.0934046E-1,3.09E1,9.963E2,1.293572E-1,1E1,2.5E2,1.0176E3,1.8E2,1.4E1,8E0,3.09E1,6.334111E-1,6.292033E-1,3.79E1,8.497882E-3,4.0797148E-2,1.7796187E-2,-9.921086E-2,-2.4354555E-1,-5.917865E-1,9.380195E-2,3.9472088E-1,-2.4764521E-2,6.69043E-2,-7.475038E-2,-1.5118846E-1,-3.3914486E-1,-2.9724193E-1,7.88011E-1,9.363249E-1,3.8790444E-1,2.3955764E-1],"split_indices":[14,3,7,14,22,24,3,4,8,11,7,14,0,0,8,14,0,0,4,14,3,0,0,8,0,0,7,0,0,0,0,0,0,0,0,0,0,0,0,0,0,0,0,0,0],"split_type":[0,0,0,0,0,0,0,0,0,0,0,0,0,0,0,0,0,0,0,0,0,0,0,0,0,0,0,0,0,0,0,0,0,0,0,0,0,0,0,0,0,0,0,0,0],"sum_hessian":[4.906E4,4.402E4,5.04E3,1.883E4,2.519E4,2.88E3,2.16E3,2.587E3,1.6243E4,1.9352E4,5.838E3,2.16E3,7.2E2,3.6E2,1.8E3,2.227E3,3.6E2,2.88E3,1.3363E4,1.3579E4,5.773E3,4.667E3,1.171E3,1.8E3,3.6E2,3.6E2,1.44E3,7.87E2,1.44E3,3.6E2,2.52E3,1.2733E4,6.3E2,1.2859E4,7.2E2,4.332E3,1.441E3,1.427E3,3.24E3,3.6E2,8.11E2,1.44E3,3.6E2,7.2E2,7.2E2],"tree_param":{"num_deleted":"0","num_feature":"25","num_nodes":"45","size_leaf_vector":"1"}},{"base_weights":[2.0455317E-4,-6.941805E0,6.0621944E1,-1.8959017E1,2.0416842E0,8.407743E1,2.9323524E1,4.291458E0,-2.2662125E1,7.571236E0,-1.628602E1,7.7982414E1,1.0222895E0,-1.0825004E-1,3.7354782E1,2.909816E0,1.2806714E-1,-8.373831E0,-2.5740686E1,1.0868791E1,-1.8566787E-1,-1.2655966E1,-3.0730392E1,8.1000496E1,6.2709445E-1,6.229286E-1,3.1081358E1,8.413151E-3,4.0389407E-2,1.761876E-2,-9.821913E-2,-2.4111013E-1,-5.8587795E-1,9.286391E-2,3.9077923E-1,-2.451708E-2,6.623581E-2,-7.4003525E-2,-1.4967708E-1,-3.3576283E-1,-2.9427317E-1,7.801362E-1,9.2698777E-1,3.5316962E-1,1.8311916E-1],"categories":[],"categories_nodes":[],"categories_segments":[],"categories_sizes":[],"default_left":[1,0,0,0,1,0,0,0,0,0,0,0,0,0,0,0,0,0,1,0,1,0,0,0,0,0,1,0,0,0,0,0,0,0,0,0,0,0,0,0,0,0,0,0,0],"id":3,"left_children":[1,3,5,7,9,11,13,15,17,19,21,23,-1,-1,25,27,-1,29,31,33,35,37,39,41,-1,-1,43,-1,-1,-1,-1,-1,-1,-1,-1,-1,-1,-1,-1,-1,-1,-1,-1,-1,-1],"loss_changes":[2.0647088E7,4.752391E6,3.698232E6,1.621427E6,2.55308E6,3.10764E5,6.97204E5,3.0410652E4,7.14316E5,4.9502888E5,3.0577225E5,9.4533E4,0E0,0E0,2.7982525E5,5.2003105E3,0E0,4.230272E4,7.13964E5,6.0582275E5,8.910925E4,5.6603688E4,3.35825E3,5.5696E4,0E0,0E0,7.7291625E4,0E0,0E0,0E0,0E0,0E0,0E0,0E0,0E0,0E0,0E0,0E0,0E0,0E0,0E0,0E0,0E0,0E0,0E0],"parents":[2147483647,0,0,1,1,2,2,3,3,4,4,5,5,6,6,7,7,8,8,9,9,10,10,11,11,14,14,15,15,17,17,18,18,19,19,20,20,21,21,22,22,23,23,26,26],"right_children":[2,4,6,8,10,12,14,16,18,20,22,24,-1,-1,26,28,-1,30,32,34,36,38,40,42,-1,-1,44,-1,-1,-1,-1,-1,-1,-1,-1,-1,-1,-1,-1,-1,-1,-1,-1,-1,-1],"split_conditions":[1.0256E3,4.5E1,3.31E1,1.0008E3,8E0,3E0,3E0,9E1,1.99E1,6.8E1,4.21E1,1.0273E3,1.0222895E0,-1.0825004E-1,3.09E1,9.963E2,1.2806714E-1,1E1,2.5E2,1.0176E3,1.8E2,1.4E1,8E0,3.09E1,6.2709445E-1,6.229286E-1,3.5E1,8.413151E-3,4.0389407E-2,1.761876E-2,-9.821913E-2,-2.4111013E-1,-5.8587795E-1,9.286391E-2,3.9077923E-1,-2.451708E-2,6.623581E-2,-7.4003525E-2,-1.4967708E-1,-3.3576283E-1,-2.9427317E-1,7.801362E-1,9.2698777E-1,3.5316962E-1,1.8311916E-1],"split_indices":[14,3,7,14,22,24,3,4,8,11,7,14,0,0,8,14,0,0,4,14,3,0,0,8,0,0,12,0,0,0,0,0,0,0,0,0,0,0,0,0,0,0,0,0,0],"split_type":[0,0,0,0,0,0,0,0,0,0,0,0,0,0,0,0,0,0,0,0,0,0,0,0,0,0,0,0,0,0,0,0,0,0,0,0,0,0,0,0,0,0,0,0,0],"sum_hessian":[4.906E4,4.402E4,5.04E3,1.883E4,2.519E4,2.88E3,2.16E3,2.587E3,1.6243E4,1.9352E4,5.838E3,2.16E3,7.2E2,3.6E2,1.8E3,2.227E3,3.6E2,2.88E3,1.3363E4,1.3579E4,5.773E3,4.667E3,1.171E3,1.8E3,3.6E2,3.6E2,1.44E3,7.87E2,1.44E3,3.6E2,2.52E3,1.2733E4,6.3E2,1.2859E4,7.2E2,4.332E3,1.441E3,1.427E3,3.24E3,3.6E2,8.11E2,1.44E3,3.6E2,1.08E3,3.6E2],"tree_param":{"num_deleted":"0","num_feature":"25","num_nodes":"45","size_leaf_vector":"1"}},{"base_weights":[2.7207987E-4,-6.8724084E0,6.0016594E1,-1.917598E1,1.7276782E0,8.3237816E1,2.9030771E1,-1.79846E1,-9.753843E-1,7.014666E0,-1.5085375E1,7.720366E1,1.012081E0,-1.0717058E-1,3.6981876E1,4.2486153E0,-2.1755518E1,1.0760138E1,-1.2785391E0,-1.1507111E1,-3.0423624E1,8.019142E1,6.208408E-1,6.167166E-1,3.0770912E1,2.8807458E-2,1.2678987E-1,-2.5531116E-1,-1.2068844E-1,9.193534E-2,3.8687685E-1,-1.7071012E-1,8.24832E-3,-2.6895285E-2,-1.388168E-1,-3.3241457E-1,-2.91334E-1,7.723401E-1,9.177434E-1,3.8050383E-1,2.3448762E-1],"categories":[],"categories_nodes":[],"categories_segments":[],"categories_sizes":[],"default_left":[1,0,0,0,1,0,0,0,0,0,0,0,0,0,0,0,1,0,0,0,0,0,0,0,0,0,0,0,0,0,0,0,0,0,0,0,0,0,0,0,0],"id":4,"left_children":[1,3,5,7,9,11,13,15,-1,17,19,21,-1,-1,23,25,27,29,31,33,35,37,-1,-1,39,-1,-1,-1,-1,-1,-1,-1,-1,-1,-1,-1,-1,-1,-1,-1,-1],"loss_changes":[2.023675E7,4.657973E6,3.624728E6,1.689078E6,2.3033452E6,3.0459E5,6.833569E5,1.4958755E6,0E0,6.123382E5,3.3987788E5,9.2641E4,0E0,0E0,2.74281E5,2.9807375E4,5.575765E5,5.937885E5,2.0376981E5,1.0523875E5,3.2925E3,5.4607E4,0E0,0E0,7.5915E4,0E0,0E0,0E0,0E0,0E0,0E0,0E0,0E0,0E0,0E0,0E0,0E0,0E0,0E0,0E0,0E0],"parents":[2147483647,0,0,1,1,2,2,3,3,4,4,5,5,6,6,7,7,9,9,10,10,11,11,14,14,15,15,16,16,17,17,18,18,19,19,20,20,21,21,24,24],"right_children":[2,4,6,8,10,12,14,16,-1,18,20,22,-1,-1,24,26,28,30,32,34,36,38,-1,-1,40,-1,-1,-1,-1,-1,-1,-1,-1,-1,-1,-1,-1,-1,-1,-1,-1],"split_conditions":[1.0256E3,4E1,3.31E1,3.5E1,8E0,3E0,3E0,1.0008E3,-9.753843E-1,6.8E1,4.21E1,1.0273E3,1.012081E0,-1.0717058E-1,3.09E1,9E1,1.2E2,1.0176E3,6E1,4.7E1,8E0,3.09E1,6.208408E-1,6.167166E-1,3.79E1,2.8807458E-2,1.2678987E-1,-2.5531116E-1,-1.2068844E-1,9.193534E-2,3.8687685E-1,-1.7071012E-1,8.24832E-3,-2.6895285E-2,-1.388168E-1,-3.3241457E-1,-2.91334E-1,7.723401E-1,9.177434E-1,3.8050383E-1,2.3448762E-1],"split_indices":[14,3,7,3,22,24,3,14,0,11,7,14,0,0,8,4,4,14,3,3,0,8,0,0,7,0,0,0,0,0,0,0,0,0,0,0,0,0,0,0,0],"split_type":[0,0,0,0,0,0,0,0,0,0,0,0,0,0,0,0,0,0,0,0,0,0,0,0,0,0,0,0,0,0,0,0,0,0,0,0,0,0,0,0,0],"sum_hessian":[4.906E4,4.402E4,5.04E3,1.811E4,2.591E4,2.88E3,2.16E3,1.784E4,2.7E2,1.9712E4,6.198E3,2.16E3,7.2E2,3.6E2,1.8E3,2.587E3,1.5253E4,1.3579E4,6.133E3,5.027E3,1.171E3,1.8E3,3.6E2,3.6E2,1.44E3,2.227E3,3.6E2,1.0974E4,4.279E3,1.2859E4,7.2E2,7.2E2,5.413E3,1.067E3,3.96E3,3.6E2,8.11E2,1.44E3,3.6E2,7.2E2,7.2E2],"tree_param":{"num_deleted":"0","num_feature":"25","num_nodes":"41","size_leaf_vector":"1"}},{"base_weights":[3.2380008E-4,-6.803725E0,5.941731E1,-1.8984285E1,1.7103788E0,8.2406586E1,2.8740984E1,-1.7804766E1,-9.6566653E-1,6.944529E0,-1.4934647E1,7.643269E1,1.0019741E0,-1.06101766E-1,3.661274E1,4.206187E0,-2.1537985E1,1.0652558E1,-1.265772E0,-1.1392069E1,-3.0119925E1,7.939045E1,6.146495E-1,6.1056644E-1,3.046363E1,2.8519502E-2,1.2552537E-1,-2.527583E-1,-1.1948175E-1,9.101591E-2,3.8301352E-1,-1.6900533E-1,8.165938E-3,-2.6626676E-2,-1.3742891E-1,-3.290995E-1,-2.8842437E-1,7.646221E-1,9.085913E-1,3.4632587E-1,1.789547E-1],"categories":[],"categories_nodes":[],"categories_segments":[],"categories_sizes":[],"default_left":[1,0,0,0,1,0,0,0,0,0,0,0,0,0,0,0,1,0,0,0,0,0,0,0,1,0,0,0,0,0,0,0,0,0,0,0,0,0,0,0,0],"id":5,"left_children":[1,3,5,7,9,11,13,15,-1,17,19,21,-1,-1,23,25,27,29,31,33,35,37,-1,-1,39,-1,-1,-1,-1,-1,-1,-1,-1,-1,-1,-1,-1,-1,-1,-1,-1],"loss_changes":[1.983459E7,4.5652985E6,3.55268E6,1.655617E6,2.2575365E6,2.98536E5,6.6978575E5,1.4661165E6,0E0,6.0015675E5,3.3313225E5,9.0789E4,0E0,0E0,2.6884475E5,2.9216184E4,5.46481E5,5.819939E5,1.9972022E5,1.03144375E5,3.228E3,5.3536E4,0E0,0E0,7.4883125E4,0E0,0E0,0E0,0E0,0E0,0E0,0E0,0E0,0E0,0E0,0E0,0E0,0E0,0E0,0E0,0E0],"parents":[2147483647,0,0,1,1,2,2,3,3,4,4,5,5,6,6,7,7,9,9,10,10,11,11,14,14,15,15,16,16,17,17,18,18,19,19,20,20,21,21,24,24],"right_children":[2,4,6,8,10,12,14,16,-1,18,20,22,-1,-1,24,26,28,30,32,34,36,38,-1,-1,40,-1,-1,-1,-1,-1,-1,-1,-1,-1,-1,-1,-1,-1,-1,-1,-1],"split_conditions":[1.0256E3,4E1,3.31E1,3.5E1,8E0,3E0,3E0,1.0008E3,-9.6566653E-1,6.8E1,4.21E1,1.0273E3,1.0019741E0,-1.06101766E-1,3.09E1,9E1,1.2E2,1.0176E3,6E1,4.7E1,8E0,3.09E1,6.146495E-1,6.1056644E-1,3.5E1,2.8519502E-2,1.2552537E-1,-2.527583E-1,-1.1948175E-1,9.101591E-2,3.8301352E-1,-1.6900533E-1,8.165938E-3,-2.6626676E-2,-1.3742891E-1,-3.290995E-1,-2.8842437E-1,7.646221E-1,9.085913E-1,3.4632587E-1,1.789547E-1],"split_indices":[14,3,7,3,22,24,3,14,0,11,7,14,0,0,8,4,4,14,3,3,0,8,0,0,12,0,0,0,0,0,0,0,0,0,0,0,0,0,0,0,0],"split_type":[0,0,0,0,0,0,0,0,0,0,0,0,0,0,0,0,0,0,0,0,0,0,0,0,0,0,0,0,0,0,0,0,0,0,0,0,0,0,0,0,0],"sum_hessian":[4.906E4,4.402E4,5.04E3,1.811E4,2.591E4,2.88E3,2.16E3,1.784E4,2.7E2,1.9712E4,6.198E3,2.16E3,7.2E2,3.6E2,1.8E3,2.587E3,1.5253E4,1.3579E4,6.133E3,5.027E3,1.171E3,1.8E3,3.6E2,3.6E2,1.44E3,2.227E3,3.6E2,1.0974E4,4.279E3,1.2859E4,7.2E2,7.2E2,5.413E3,1.067E3,3.96E3,3.6E2,8.11E2,1.44E3,3.6E2,1.08E3,3.6E2],"tree_param":{"num_deleted":"0","num_feature":"25","num_nodes":"41","size_leaf_vector":"1"}},{"base_weights":[3.7278395E-4,-6.7357273E0,5.8823994E1,-1.8794518E1,1.6932594E0,8.1583664E1,2.8454058E1,-1.762674E1,-9.560455E-1,6.8751035E0,-1.4785429E1,7.5669426E1,9.919682E-1,-1.0504361E-1,3.624725E1,4.1641726E0,-2.132264E1,1.0546079E1,-1.2531517E0,-1.1278184E1,-2.9819254E1,7.859747E1,6.0852E-1,6.044777E-1,3.0159369E1,2.823429E-2,1.2427366E-1,-2.5023106E-1,-1.18287265E-1,9.010595E-2,3.7918857E-1,-1.6731761E-1,8.084166E-3,-2.6360508E-2,-1.3605505E-1,-3.2581758E-1,-2.855437E-1,7.5698125E-1,8.995305E-1,3.7324584E-1,2.2952321E-1],"categories":[],"categories_nodes":[],"categories_segments":[],"categories_sizes":[],"default_left":[1,0,0,0,1,0,0,0,0,0,0,0,0,0,0,0,1,0,0,0,0,0,0,0,0,0,0,0,0,0,0,0,0,0,0,0,0,0,0,0,0],"id":6,"left_children":[1,3,5,7,9,11,13,15,-1,17,19,21,-1,-1,23,25,27,29,31,33,35,37,-1,-1,39,-1,-1,-1,-1,-1,-1,-1,-1,-1,-1,-1,-1,-1,-1,-1,-1],"loss_changes":[1.9440416E7,4.4744745E6,3.482066E6,1.622818E6,2.2126418E6,2.92604E5,6.564826E5,1.43695E6,0E0,5.882219E5,3.2652038E5,8.8975E4,0E0,0E0,2.63518E5,2.8636914E4,5.356065E5,5.70432E5,1.9575077E5,1.01092375E5,3.164875E3,5.2486E4,0E0,0E0,7.355675E4,0E0,0E0,0E0,0E0,0E0,0E0,0E0,0E0,0E0,0E0,0E0,0E0,0E0,0E0,0E0,0E0],"parents":[2147483647,0,0,1,1,2,2,3,3,4,4,5,5,6,6,7,7,9,9,10,10,11,11,14,14,15,15,16,16,17,17,18,18,19,19,20,20,21,21,24,24],"right_children":[2,4,6,8,10,12,14,16,-1,18,20,22,-1,-1,24,26,28,30,32,34,36,38,-1,-1,40,-1,-1,-1,-1,-1,-1,-1,-1,-1,-1,-1,-1,-1,-1,-1,-1],"split_conditions":[1.0256E3,4E1,3.31E1,3.5E1,8E0,3E0,3E0,1.0008E3,-9.560455E-1,6.8E1,4.21E1,1.0273E3,9.919682E-1,-1.0504361E-1,3.09E1,9E1,1.2E2,1.0176E3,6E1,4.7E1,8E0,3.09E1,6.0852E-1,6.044777E-1,3.79E1,2.823429E-2,1.2427366E-1,-2.5023106E-1,-1.18287265E-1,9.010595E-2,3.7918857E-1,-1.6731761E-1,8.084166E-3,-2.6360508E-2,-1.3605505E-1,-3.2581758E-1,-2.855437E-1,7.5698125E-1,8.995305E-1,3.7324584E-1,2.2952321E-1],"split_indices":[14,3,7,3,22,24,3,14,0,11,7,14,0,0,8,4,4,14,3,3,0,8,0,0,7,0,0,0,0,0,0,0,0,0,0,0,0,0,0,0,0],"split_type":[0,0,0,0,0,0,0,0,0,0,0,0,0,0,0,0,0,0,0,0,0,0,0,0,0,0,0,0,0,0,0,0,0,0,0,0,0,0,0,0,0],"sum_hessian":[4.906E4,4.402E4,5.04E3,1.811E4,2.591E4,2.88E3,2.16E3,1.784E4,2.7E2,1.9712E4,6.198E3,2.16E3,7.2E2,3.6E2,1.8E3,2.587E3,1.5253E4,1.3579E4,6.133E3,5.027E3,1.171E3,1.8E3,3.6E2,3.6E2,1.44E3,2.227E3,3.6E2,1.0974E4,4.279E3,1.2859E4,7.2E2,7.2E2,5.413E3,1.067E3,3.96E3,3.6E2,8.11E2,1.44E3,3.6E2,7.2E2,7.2E2],"tree_param":{"num_deleted":"0","num_feature":"25","num_nodes":"41","size_leaf_vector":"1"}},{"base_weights":[4.2332543E-4,-6.668408E0,5.823661E1,-1.8606628E1,1.6763018E0,8.076895E1,2.8170021E1,-1.7450476E1,-9.465202E-1,6.8063602E0,-1.4637703E1,7.491377E1,9.820622E-1,-1.03996105E-1,3.5885437E1,4.122596E0,-2.1109428E1,1.0440641E1,-1.2406476E0,-1.1165439E1,-2.952158E1,7.781241E1,6.024516E-1,5.984495E-1,2.9858187E1,2.7952129E-2,1.23034425E-1,-2.4772885E-1,-1.1710468E-1,8.920483E-2,3.7540203E-1,-1.6564664E-1,8.003309E-3,-2.6097082E-2,-1.3469492E-1,-3.225686E-1,-2.826917E-1,7.4941665E-1,8.9056E-1,3.3961546E-1,1.7488125E-1],"categories":[],"categories_nodes":[],"categories_segments":[],"categories_sizes":[],"default_left":[1,0,0,0,1,0,0,0,0,0,0,0,0,0,0,0,1,0,0,0,0,0,0,0,1,0,0,0,0,0,0,0,0,0,0,0,0,0,0,0,0],"id":7,"left_children":[1,3,5,7,9,11,13,15,-1,17,19,21,-1,-1,23,25,27,29,31,33,35,37,-1,-1,39,-1,-1,-1,-1,-1,-1,-1,-1,-1,-1,-1,-1,-1,-1,-1,-1],"loss_changes":[1.9054078E7,4.3854465E6,3.412856E6,1.590668E6,2.1686378E6,2.86786E5,6.434454E5,1.4083635E6,0E0,5.765214E5,3.2003938E5,8.7197E4,0E0,0E0,2.5829575E5,2.8068992E4,5.249465E5,5.591014E5,1.918602E5,9.9081125E4,3.103E3,5.1456E4,0E0,0E0,7.25495E4,0E0,0E0,0E0,0E0,0E0,0E0,0E0,0E0,0E0,0E0,0E0,0E0,0E0,0E0,0E0,0E0],"parents":[2147483647,0,0,1,1,2,2,3,3,4,4,5,5,6,6,7,7,9,9,10,10,11,11,14,14,15,15,16,16,17,17,18,18,19,19,20,20,21,21,24,24],"right_children":[2,4,6,8,10,12,14,16,-1,18,20,22,-1,-1,24,26,28,30,32,34,36,38,-1,-1,40,-1,-1,-1,-1,-1,-1,-1,-1,-1,-1,-1,-1,-1,-1,-1,-1],"split_conditions":[1.0256E3,4E1,3.31E1,3.5E1,8E0,3E0,3E0,1.0008E3,-9.465202E-1,6.8E1,4.21E1,1.0273E3,9.820622E-1,-1.03996105E-1,3.09E1,9E1,1.2E2,1.0176E3,6E1,4.7E1,8E0,3.09E1,6.024516E-1,5.984495E-1,3.5E1,2.7952129E-2,1.23034425E-1,-2.4772885E-1,-1.1710468E-1,8.920483E-2,3.7540203E-1,-1.6564664E-1,8.003309E-3,-2.6097082E-2,-1.3469492E-1,-3.225686E-1,-2.826917E-1,7.4941665E-1,8.9056E-1,3.3961546E-1,1.7488125E-1],"split_indices":[14,3,7,3,22,24,3,14,0,11,7,14,0,0,8,4,4,14,3,3,0,8,0,0,12,0,0,0,0,0,0,0,0,0,0,0,0,0,0,0,0],"split_type":[0,0,0,0,0,0,0,0,0,0,0,0,0,0,0,0,0,0,0,0,0,0,0,0,0,0,0,0,0,0,0,0,0,0,0,0,0,0,0,0,0],"sum_hessian":[4.906E4,4.402E4,5.04E3,1.811E4,2.591E4,2.88E3,2.16E3,1.784E4,2.7E2,1.9712E4,6.198E3,2.16E3,7.2E2,3.6E2,1.8E3,2.587E3,1.5253E4,1.3579E4,6.133E3,5.027E3,1.171E3,1.8E3,3.6E2,3.6E2,1.44E3,2.227E3,3.6E2,1.0974E4,4.279E3,1.2859E4,7.2E2,7.2E2,5.413E3,1.067E3,3.96E3,3.6E2,8.11E2,1.44E3,3.6E2,1.08E3,3.6E2],"tree_param":{"num_deleted":"0","num_feature":"25","num_nodes":"41","size_leaf_vector":"1"}},{"base_weights":[4.7604772E-4,-6.601756E0,5.7655083E1,-1.842062E1,1.6595249E0,7.996238E1,2.7888779E1,-1.7275978E1,-9.370898E-1,6.7383156E0,-1.4491445E1,7.4165665E1,9.722553E-1,-1.02958955E-1,3.552719E1,4.0814247E0,-2.0898352E1,1.0336271E1,-1.2282597E0,-1.105381E1,-2.9226885E1,7.7035194E1,5.9644383E-1,5.924816E-1,2.9559946E1,2.7672712E-2,1.21807374E-1,-2.4525167E-1,-1.15934E-1,8.831288E-2,3.7165323E-1,-1.6399246E-1,7.923368E-3,-2.5836403E-2,-1.3334821E-1,-3.193518E-1,-2.7986833E-1,7.419276E-1,8.8167906E-1,3.661268E-1,2.2466211E-1],"categories":[],"categories_nodes":[],"categories_segments":[],"categories_sizes":[],"default_left":[1,0,0,0,1,0,0,0,0,0,0,0,0,0,0,0,1,0,0,0,0,0,0,0,0,0,0,0,0,0,0,0,0,0,0,0,0,0,0,0,0],"id":8,"left_children":[1,3,5,7,9,11,13,15,-1,17,19,21,-1,-1,23,25,27,29,31,33,35,37,-1,-1,39,-1,-1,-1,-1,-1,-1,-1,-1,-1,-1,-1,-1,-1,-1,-1,-1],"loss_changes":[1.8675406E7,4.298195E6,3.345023E6,1.559156E6,2.1255095E6,2.8109E5,6.306651E5,1.380345E6,0E0,5.6505394E5,3.1368762E5,8.5452E4,0E0,0E0,2.5317825E5,2.751229E4,5.144975E5,5.479951E5,1.8804731E5,9.710931E4,3.0423125E3,5.045E4,0E0,0E0,7.1271E4,0E0,0E0,0E0,0E0,0E0,0E0,0E0,0E0,0E0,0E0,0E0,0E0,0E0,0E0,0E0,0E0],"parents":[2147483647,0,0,1,1,2,2,3,3,4,4,5,5,6,6,7,7,9,9,10,10,11,11,14,14,15,15,16,16,17,17,18,18,19,19,20,20,21,21,24,24],"right_children":[2,4,6,8,10,12,14,16,-1,18,20,22,-1,-1,24,26,28,30,32,34,36,38,-1,-1,40,-1,-1,-1,-1,-1,-1,-1,-1,-1,-1,-1,-1,-1,-1,-1,-1],"split_conditions":[1.0256E3,4E1,3.31E1,3.5E1,8E0,3E0,3E0,1.0008E3,-9.370898E-1,6.8E1,4.21E1,1.0273E3,9.722553E-1,-1.02958955E-1,3.09E1,9E1,1.2E2,1.0176E3,6E1,4.7E1,8E0,3.09E1,5.9644383E-1,5.924816E-1,3.79E1,2.7672712E-2,1.21807374E-1,-2.4525167E-1,-1.15934E-1,8.831288E-2,3.7165323E-1,-1.6399246E-1,7.923368E-3,-2.5836403E-2,-1.3334821E-1,-3.193518E-1,-2.7986833E-1,7.419276E-1,8.8167906E-1,3.661268E-1,2.2466211E-1],"split_indices":[14,3,7,3,22,24,3,14,0,11,7,14,0,0,8,4,4,14,3,3,0,8,0,0,7,0,0,0,0,0,0,0,0,0,0,0,0,0,0,0,0],"split_type":[0,0,0,0,0,0,0,0,0,0,0,0,0,0,0,0,0,0,0,0,0,0,0,0,0,0,0,0,0,0,0,0,0,0,0,0,0,0,0,0,0],"sum_hessian":[4.906E4,4.402E4,5.04E3,1.811E4,2.591E4,2.88E3,2.16E3,1.784E4,2.7E2,1.9712E4,6.198E3,2.16E3,7.2E2,3.6E2,1.8E3,2.587E3,1.5253E4,1.3579E4,6.133E3,5.027E3,1.171E3,1.8E3,3.6E2,3.6E2,1.44E3,2.227E3,3.6E2,1.0974E4,4.279E3,1.2859E4,7.2E2,7.2E2,5.413E3,1.067E3,3.96E3,3.6E2,8.11E2,1.44E3,3.6E2,7.2E2,7.2E2],"tree_param":{"num_deleted":"0","num_feature":"25","num_nodes":"41","size_leaf_vector":"1"}},{"base_weights":[5.228557E-4,-6.535779E0,5.7079384E1,-1.8236485E1,1.642911E0,7.916387E1,2.7610394E1,-1.7103237E1,-9.277533E-1,6.6709423E0,-1.434664E1,7.342505E1,9.625461E-1,-1.0193214E-1,3.5172577E1,4.0406637E0,-2.06894E1,1.0232938E1,-1.2160113E0,-1.0943291E1,-2.8935118E1,7.6265755E1,5.9049594E-1,5.865733E-1,2.9264757E1,2.7396044E-2,1.2059278E-1,-2.4279949E-1,-1.14774905E-1,8.742977E-2,3.6794198E-1,-1.6235471E-1,7.844037E-3,-2.557816E-2,-1.3201493E-1,-3.16167E-1,-2.7707303E-1,7.345136E-1,8.7288666E-1,3.330356E-1,1.7089663E-1],"categories":[],"categories_nodes":[],"categories_segments":[],"categories_sizes":[],"default_left":[1,0,0,0,1,0,0,0,0,0,0,0,0,0,0,0,1,0,0,0,0,0,0,0,1,0,0,0,0,0,0,0,0,0,0,0,0,0,0,0,0],"id":9,"left_children":[1,3,5,7,9,11,13,15,-1,17,19,21,-1,-1,23,25,27,29,31,33,35,37,-1,-1,39,-1,-1,-1,-1,-1,-1,-1,-1,-1,-1,-1,-1,-1,-1,-1,-1],"loss_changes":[1.8304278E7,4.212684E6,3.278536E6,1.528267E6,2.0832356E6,2.75504E5,6.181405E5,1.352885E6,0E0,5.538156E5,3.0746175E5,8.3744E4,0E0,0E0,2.48161E5,2.6966777E4,5.042605E5,5.371101E5,1.843097E5,9.5177E4,2.98275E3,4.946E4,0E0,0E0,7.028875E4,0E0,0E0,0E0,0E0,0E0,0E0,0E0,0E0,0E0,0E0,0E0,0E0,0E0,0E0,0E0,0E0],"parents":[2147483647,0,0,1,1,2,2,3,3,4,4,5,5,6,6,7,7,9,9,10,10,11,11,14,14,15,15,16,16,17,17,18,18,19,19,20,20,21,21,24,24],"right_children":[2,4,6,8,10,12,14,16,-1,18,20,22,-1,-1,24,26,28,30,32,34,36,38,-1,-1,40,-1,-1,-1,-1,-1,-1,-1,-1,-1,-1,-1,-1,-1,-1,-1,-1],"split_conditions":[1.0256E3,4E1,3.31E1,3.5E1,8E0,3E0,3E0,1.0008E3,-9.277533E-1,6.8E1,4.21E1,1.0273E3,9.625461E-1,-1.0193214E-1,3.09E1,9E1,1.2E2,1.0176E3,6E1,4.7E1,8E0,3.09E1,5.9049594E-1,5.865733E-1,3.5E1,2.7396044E-2,1.2059278E-1,-2.4279949E-1,-1.14774905E-1,8.742977E-2,3.6794198E-1,-1.6235471E-1,7.844037E-3,-2.557816E-2,-1.3201493E-1,-3.16167E-1,-2.7707303E-1,7.345136E-1,8.7288666E-1,3.330356E-1,1.7089663E-1],"split_indices":[14,3,7,3,22,24,3,14,0,11,7,14,0,0,8,4,4,14,3,3,0,8,0,0,12,0,0,0,0,0,0,0,0,0,0,0,0,0,0,0,0],"split_type":[0,0,0,0,0,0,0,0,0,0,0,0,0,0,0,0,0,0,0,0,0,0,0,0,0,0,0,0,0,0,0,0,0,0,0,0,0,0,0,0,0],"sum_hessian":[4.906E4,4.402E4,5.04E3,1.811E4,2.591E4,2.88E3,2.16E3,1.784E4,2.7E2,1.9712E4,6.198E3,2.16E3,7.2E2,3.6E2,1.8E3,2.587E3,1.5253E4,1.3579E4,6.133E3,5.027E3,1.171E3,1.8E3,3.6E2,3.6E2,1.44E3,2.227E3,3.6E2,1.0974E4,4.279E3,1.2859E4,7.2E2,7.2E2,5.413E3,1.067E3,3.96E3,3.6E2,8.11E2,1.44E3,3.6E2,1.08E3,3.6E2],"tree_param":{"num_deleted":"0","num_feature":"25","num_nodes":"41","size_leaf_vector":"1"}}]},"name":"gbtree"},"learner_model_param":{"base_score":"[4.1613474E2]","boost_from_average":"1","num_class":"0","num_feature":"25","num_target":"1"},"objective":{"name":"reg:squarederror","reg_loss_param":{"scale_pos_weight":"1"}}},"version":[3,1,3]}