{"learner":{"attributes":{"scikit_learn":"{\"_estimator_type\": \"regressor\"}"},"feature_names":["Prevailing Wind Magnitude (MPH)","Gust Wind Magnitude (MPH)","Vis (MI)","Cloud Height 1 (100s of ft)","Cloud Height 2 (100s of ft)","Cloud Height 3 (100s of ft)","Cloud Height 4 (100s of ft)","Air Temp (F)","Dewpoint (F)","6hr Max (F)","6hr Min (F)","Rel Hum","Wind Chill (F)","Heat Index (F)","Sea Level Pressure (MB)","Precip 1hr","Precip 3hr","Precip 6hr","cloud_code_1","cloud_code_2","cloud_code_3","cloud_code_4","prevailing_wind_dir_code","gust_wind_dir_code","weather_code"],"feature_types":["float","float","float","float","float","float","float","float","float","float","float","float","float","float","float","float","float","float","float","float","float","float","float","float","float"],"gradient_booster":{"model":{"cats":{"enc":[],"feature_segments":[],"sorted_idx":[]},"gbtree_model_param":{"num_parallel_tree":"1","num_trees":"5"},"iteration_indptr":[0,1,2,3,4,5],"tree_info":[0,0,0,0,0],"trees":[{"base_weights":[-8.85029E-6,-7.154224E0,6.247484E1,-1.9539255E1,2.1042287E0,8.6647415E1,3.0219553E1,4.4225974E0,-2.3355663E1,7.8029165E0,-1.6784075E1,8.0366104E1,1.0535376E0,-1.1155415E-1,3.8496147E1,2.9988058E0,1.3197626E-1,-8.630077E0,-2.6528446E1,1.1201387E1,-1.9137512E-1,-1.304321E1,-3.1669378E1,8.3476974E1,6.4623594E-1,6.4194256E-1,3.203153E1,8.6700875E-1,4.162482E0,1.8156512E-2,-1.0122453E1,-2.4849022E1,-6.037829E1,9.570641E0,4.02724E1,-2.5267334E0,6.8261695E0,-7.6266956E0,-1.5425728E1,-3.4601146E-1,-3.0326965E-1,8.039994E1,9.5528287E-1,3.6378345E1,1.892642E-1,1.239287E0,-3.0929856E-2,4.3796144E0,3.500757E-2,-1.0700724E1,-8.663941E0,-2.6919634E1,-1.5136558E1,-9.990886E-1,-3.053573E-1,1.5482326E1,8.182743E0,4.1794086E-1,3.8639152E-1,-1.5409401E-1,-1.3555355E0,1.0188075E1,3.4501328E0,-5.2465715E0,-9.953327E0,-1.5286058E-1,-1.6497646E-1,7.681576E1,9.090991E-1,4.3114528E-1,3.2955128E1,5.2816933E-3,1.9469716E-2,4.491728E-2,4.143564E-2,-1.1983948E-1,-1.0371823E1,-8.029096E-2,-9.274787E-2,-2.8946678E1,-2.3118286E1,-2.1423832E1,-3.7926865E0,1.3392611E1,1.8466188E1,6.913121E0,1.4252789E1,6.01186E0,-4.1501236E0,8.9675695E-2,1.1383739E-1,4.7539074E-2,2.1368012E-2,-3.8126875E-2,-6.6142865E-2,-1.0309905E-1,-9.569178E-2,7.1123874E-1,7.9559106E-1,3.580271E-1,3.0016255E-1,-1.0120756E-1,-1.10949025E-1,-2.8245965E-1,-3.265423E-1,-2.4478418E-1,-1.9856997E-1,-1.8249483E-1,-2.2464086E-1,-1.957747E-2,-2.0282668E-1,1.17375575E-1,1.5029088E-1,1.7402326E-1,2.1102023E-1,5.5664573E-2,1.0933711E-1,1.8797344E-1,1.12084985E-1,3.5227504E-1,5.654954E-2,-3.2217856E-2,-5.6929406E-2],"categories":[],"categories_nodes":[],"categories_segments":[],"categories_sizes":[],"default_left":[1,0,0,0,1,0,0,0,0,0,0,0,0,0,0,0,0,0,1,0,1,0,0,0,0,0,1,0,0,0,0,0,0,0,0,0,0,0,0,0,0,1,0,0,0,0,0,0,0,0,0,0,0,0,0,0,0,0,0,0,0,0,0,0,0,0,0,0,0,0,0,0,0,0,0,0,0,0,0,0,0,0,0,0,0,0,1,0,1,0,0,0,0,0,0,0,0,0,0,0,0,0,0,0,0,0,0,0,0,0,0,0,0,0,0,0,0,0,0,0,0,0,0],"id":0,"left_children":[1,3,5,7,9,11,13,15,17,19,21,23,-1,-1,25,27,-1,29,31,33,35,37,39,41,-1,-1,43,45,47,-1,49,51,53,55,57,59,61,63,65,-1,-1,67,-1,69,-1,71,-1,73,-1,75,77,79,81,-1,-1,83,85,-1,-1,-1,87,89,91,93,95,-1,-1,97,-1,-1,99,-1,-1,-1,-1,-1,101,-1,-1,103,105,107,109,111,113,115,117,119,121,-1,-1,-1,-1,-1,-1,-1,-1,-1,-1,-1,-1,-1,-1,-1,-1,-1,-1,-1,-1,-1,-1,-1,-1,-1,-1,-1,-1,-1,-1,-1,-1,-1,-1],"loss_changes":[2.1928678E7,5.047763E6,3.927818E6,1.7221655E6,2.7116532E6,3.30052E5,7.404504E5,3.2294414E4,7.58708E5,5.257916E5,3.2472525E5,1.00435E5,0E0,0E0,2.9714125E5,5.5234414E3,0E0,4.493014E4,7.58219E5,6.4340775E5,9.464434E4,6.0122625E4,3.56325E3,5.9105E4,0E0,0E0,8.1398875E4,1.1655183E3,1.9171289E2,0E0,2.0335156E3,2.55683E5,7.4133575E5,1.0538725E5,1.77E2,6.535609E4,1.633143E4,7.8555703E3,2.330625E2,0E0,0E0,4.7299E4,0E0,2.3506375E4,0E0,3.6181274E2,0E0,9.996094E0,0E0,6.358281E2,2.0513281E2,8.02E4,1.5968003E5,0E0,0E0,1.49920625E4,8.018181E4,0E0,0E0,0E0,8.182439E4,9.515469E2,1.2244014E3,1.3632734E3,1.09375E-1,0E0,0E0,1.12205E4,0E0,0E0,4.9591875E3,0E0,0E0,0E0,0E0,0E0,1.493125E2,0E0,0E0,1.685E4,1.5726875E4,4.3485E3,2.4166787E4,3.7264844E3,2.4481562E3,4.6594844E4,2.4706031E4,1.1197758E4,4.1079844E3,0E0,0E0,0E0,0E0,0E0,0E0,0E0,0E0,0E0,0E0,0E0,0E0,0E0,0E0,0E0,0E0,0E0,0E0,0E0,0E0,0E0,0E0,0E0,0E0,0E0,0E0,0E0,0E0,0E0,0E0,0E0,0E0,0E0,0E0],"parents":[2147483647,0,0,1,1,2,2,3,3,4,4,5,5,6,6,7,7,8,8,9,9,10,10,11,11,14,14,15,15,17,17,18,18,19,19,20,20,21,21,22,22,23,23,26,26,27,27,28,28,30,30,31,31,32,32,33,33,34,34,35,35,36,36,37,37,38,38,41,41,43,43,45,45,47,47,49,49,50,50,51,51,52,52,55,55,56,56,60,60,61,61,62,62,63,63,64,64,67,67,70,70,76,76,79,79,80,80,81,81,82,82,83,83,84,84,85,85,86,86,87,87,88,88],"right_children":[2,4,6,8,10,12,14,16,18,20,22,24,-1,-1,26,28,-1,30,32,34,36,38,40,42,-1,-1,44,46,48,-1,50,52,54,56,58,60,62,64,66,-1,-1,68,-1,70,-1,72,-1,74,-1,76,78,80,82,-1,-1,84,86,-1,-1,-1,88,90,92,94,96,-1,-1,98,-1,-1,100,-1,-1,-1,-1,-1,102,-1,-1,104,106,108,110,112,114,116,118,120,122,-1,-1,-1,-1,-1,-1,-1,-1,-1,-1,-1,-1,-1,-1,-1,-1,-1,-1,-1,-1,-1,-1,-1,-1,-1,-1,-1,-1,-1,-1,-1,-1,-1,-1],"split_conditions":[1.0256E3,4.5E1,3.31E1,1.0008E3,8E0,3E0,3E0,9E1,1.99E1,6.8E1,4.21E1,1.0273E3,1.0535376E0,-1.1155415E-1,3.09E1,9.963E2,1.3197626E-1,1E1,2.5E2,1.0176E3,1.8E2,1.4E1,8E0,3.09E1,6.4623594E-1,6.4194256E-1,3.5E1,2.2E1,4.3E1,1.8156512E-2,3.6E1,2E0,1E1,1.0027E3,7E0,6E1,2E2,2.4E1,5.4E1,-3.4601146E-1,-3.0326965E-1,5E0,9.5528287E-1,6E0,1.892642E-1,5E0,-3.0929856E-2,6E0,3.500757E-2,1.3E1,1.7E1,1.6E1,1.2E2,-9.990886E-1,-3.053573E-1,1.0023E3,1.0172E3,4.1794086E-1,3.8639152E-1,-1.5409401E-1,4.3E1,1E1,7E0,1.3E1,7E0,-1.5286058E-1,-1.6497646E-1,4E0,9.090991E-1,4.3114528E-1,8E0,5.2816933E-3,1.9469716E-2,4.491728E-2,4.143564E-2,-1.1983948E-1,1.6E1,-8.029096E-2,-9.274787E-2,4.5E1,1.7E1,4E0,1.5E1,6E0,3.4E1,1E0,9E0,9E1,1.5E1,8.9675695E-2,1.1383739E-1,4.7539074E-2,2.1368012E-2,-3.8126875E-2,-6.6142865E-2,-1.0309905E-1,-9.569178E-2,7.1123874E-1,7.9559106E-1,3.580271E-1,3.0016255E-1,-1.0120756E-1,-1.10949025E-1,-2.8245965E-1,-3.265423E-1,-2.4478418E-1,-1.9856997E-1,-1.8249483E-1,-2.2464086E-1,-1.957747E-2,-2.0282668E-1,1.17375575E-1,1.5029088E-1,1.7402326E-1,2.1102023E-1,5.5664573E-2,1.0933711E-1,1.8797344E-1,1.12084985E-1,3.5227504E-1,5.654954E-2,-3.2217856E-2,-5.6929406E-2],"split_indices":[14,3,7,14,22,24,3,4,8,11,7,14,0,0,8,14,0,0,4,14,3,0,0,8,0,0,12,3,7,0,7,19,0,14,0,3,3,1,11,0,0,0,0,0,0,0,0,0,0,0,0,3,4,0,0,14,14,0,0,0,7,0,0,0,0,0,0,3,0,0,0,0,0,0,0,0,0,0,0,12,0,2,0,0,8,19,0,3,0,0,0,0,0,0,0,0,0,0,0,0,0,0,0,0,0,0,0,0,0,0,0,0,0,0,0,0,0,0,0,0,0,0,0],"split_type":[0,0,0,0,0,0,0,0,0,0,0,0,0,0,0,0,0,0,0,0,0,0,0,0,0,0,0,0,0,0,0,0,0,0,0,0,0,0,0,0,0,0,0,0,0,0,0,0,0,0,0,0,0,0,0,0,0,0,0,0,0,0,0,0,0,0,0,0,0,0,0,0,0,0,0,0,0,0,0,0,0,0,0,0,0,0,0,0,0,0,0,0,0,0,0,0,0,0,0,0,0,0,0,0,0,0,0,0,0,0,0,0,0,0,0,0,0,0,0,0,0,0,0],"sum_hessian":[4.906E4,4.402E4,5.04E3,1.883E4,2.519E4,2.88E3,2.16E3,2.587E3,1.6243E4,1.9352E4,5.838E3,2.16E3,7.2E2,3.6E2,1.8E3,2.227E3,3.6E2,2.88E3,1.3363E4,1.3579E4,5.773E3,4.667E3,1.171E3,1.8E3,3.6E2,3.6E2,1.44E3,7.87E2,1.44E3,3.6E2,2.52E3,1.2733E4,6.3E2,1.2859E4,7.2E2,4.332E3,1.441E3,1.427E3,3.24E3,3.6E2,8.11E2,1.44E3,3.6E2,1.08E3,3.6E2,7.2E2,6.7E1,1.08E3,3.6E2,1.8E3,7.2E2,1.0494E4,2.239E3,2.7E2,3.6E2,2.443E3,1.0416E4,3.6E2,3.6E2,3.6E2,3.972E3,7.21E2,7.2E2,7.07E2,7.2E2,2.88E3,3.6E2,1.08E3,3.6E2,3.6E2,7.2E2,3.6E2,3.6E2,7.2E2,3.6E2,3.6E2,1.44E3,3.6E2,3.6E2,6.84E3,3.654E3,1.44E3,7.99E2,1.44E3,1.003E3,8.616E3,1.8E3,1.092E3,2.88E3,3.61E2,3.6E2,3.6E2,3.6E2,3.47E2,3.6E2,3.6E2,3.6E2,3.6E2,7.2E2,3.6E2,3.6E2,1.08E3,3.6E2,5.76E3,1.08E3,2.574E3,1.08E3,3.6E2,1.08E3,7.2E2,7.9E1,7.2E2,7.2E2,7.2E2,2.83E2,6.456E3,2.16E3,7.2E2,1.08E3,1.2E1,1.08E3,1.8E3,1.08E3],"tree_param":{"num_deleted":"0","num_feature":"25","num_nodes":"123","size_leaf_vector":"1"}},{"base_weights":[8.8674584E-5,-7.0827293E0,6.185145E1,-1.9344032E1,2.0832293E0,8.578271E1,2.9918188E1,4.378464E0,-2.3122316E1,7.7250085E0,-1.6616451E1,7.956429E1,1.0430169E0,-1.1044183E-1,3.8112247E1,2.968868E0,1.3066004E-1,-8.543949E0,-2.626338E1,1.1089514E1,-1.8938473E-1,-1.2912911E1,-3.135323E1,8.264407E1,6.397914E-1,6.35541E-1,3.1712093E1,8.583328E-1,4.1209383E0,1.7975437E-2,-1.0021432E1,-2.4600658E1,-5.9776573E1,9.475019E0,3.9870796E1,-2.5014286E0,6.7581015E0,-7.5506463E0,-1.5271566E1,-3.4256095E-1,-3.0024055E-1,7.959762E1,9.4575644E-1,3.6015564E1,1.8737674E-1,1.2269293E0,-3.062496E-2,4.3358927E0,3.4658507E-2,-1.0593904E1,-8.577544E0,-2.6650532E1,-1.498547E1,-9.8913467E-1,-3.0231217E-1,1.5327771E1,8.100958E0,4.1377306E-1,3.825384E-1,-1.5255743E-1,-1.3418994E0,1.0086487E1,3.4157264E0,-5.194264E0,-9.854069E0,-1.5133248E-1,-1.6333124E-1,7.604899E1,9.000334E-1,4.268457E-1,3.2626484E1,5.229044E-3,1.9275554E-2,4.446869E-2,4.102236E-2,-1.1864439E-1,-1.0268257E1,-7.949026E-2,-9.1823004E-2,-2.8657291E1,-2.2887224E1,-2.1209877E1,-3.755025E0,1.3258868E1,1.8281916E1,6.8440075E0,1.4110417E1,5.952116E0,-4.108653E0,8.8781565E-2,1.1270224E-1,4.7064926E-2,2.1154981E-2,-3.7746802E-2,-6.5483384E-2,-1.0207102E-1,-9.4737396E-2,7.04146E-1,7.876462E-1,3.544567E-1,2.9716915E-1,-1.0019653E-1,-1.0984248E-1,-2.7963543E-1,-3.2327992E-1,-2.4233732E-1,-1.9658601E-1,-1.8067493E-1,-2.2239654E-1,-1.9381817E-2,-2.0082384E-1,1.16203494E-1,1.4878997E-1,1.7228557E-1,2.0891738E-1,5.510802E-2,1.08244166E-1,1.8609615E-1,1.1096512E-1,3.490234E-1,5.598457E-2,-3.189577E-2,-5.636078E-2],"categories":[],"categories_nodes":[],"categories_segments":[],"categories_sizes":[],"default_left":[1,0,0,0,1,0,0,0,0,0,0,0,0,0,0,0,0,0,1,0,1,0,0,0,0,0,1,0,0,0,0,0,0,0,0,0,0,0,0,0,0,1,0,0,0,0,0,0,0,0,0,0,0,0,0,0,0,0,0,0,0,0,0,0,0,0,0,0,0,0,0,0,0,0,0,0,0,0,0,0,0,0,0,0,0,0,1,0,1,0,0,0,0,0,0,0,0,0,0,0,0,0,0,0,0,0,0,0,0,0,0,0,0,0,0,0,0,0,0,0,0,0,0],"id":1,"left_children":[1,3,5,7,9,11,13,15,17,19,21,23,-1,-1,25,27,-1,29,31,33,35,37,39,41,-1,-1,43,45,47,-1,49,51,53,55,57,59,61,63,65,-1,-1,67,-1,69,-1,71,-1,73,-1,75,77,79,81,-1,-1,83,85,-1,-1,-1,87,89,91,93,95,-1,-1,97,-1,-1,99,-1,-1,-1,-1,-1,101,-1,-1,103,105,107,109,111,113,115,117,119,121,-1,-1,-1,-1,-1,-1,-1,-1,-1,-1,-1,-1,-1,-1,-1,-1,-1,-1,-1,-1,-1,-1,-1,-1,-1,-1,-1,-1,-1,-1,-1,-1,-1,-1],"loss_changes":[2.1493178E7,4.94741E6,3.849778E6,1.68793E6,2.6577652E6,3.23474E5,7.257561E5,3.1653652E4,7.43614E5,5.1533412E5,3.1827738E5,9.8439E4,0E0,0E0,2.912445E5,5.4138086E3,0E0,4.4037906E4,7.43213E5,6.3064725E5,9.2764055E4,5.8924375E4,3.4935E3,5.7936E4,0E0,0E0,7.97835E4,1.1425779E3,1.8788477E2,0E0,1.9929531E3,2.50587E5,7.266435E5,1.032965E5,1.73375E2,6.4060266E4,1.6007375E4,7.699633E3,2.286875E2,0E0,0E0,4.6366E4,0E0,2.3039875E4,0E0,3.5463135E2,0E0,9.7890625E0,0E0,6.233281E2,2.010625E2,7.86025E4,1.5650275E5,0E0,0E0,1.46949375E4,7.8589125E4,0E0,0E0,0E0,8.020255E4,9.3264844E2,1.2000908E3,1.3362148E3,1.09375E-1,0E0,0E0,1.0994E4,0E0,0E0,4.8608125E3,0E0,0E0,0E0,0E0,0E0,1.464375E2,0E0,0E0,1.6517E4,1.5413125E4,4.2611875E3,2.3692479E4,3.6524219E3,2.4001562E3,4.566822E4,2.4215344E4,1.0995281E4,4.0264258E3,0E0,0E0,0E0,0E0,0E0,0E0,0E0,0E0,0E0,0E0,0E0,0E0,0E0,0E0,0E0,0E0,0E0,0E0,0E0,0E0,0E0,0E0,0E0,0E0,0E0,0E0,0E0,0E0,0E0,0E0,0E0,0E0,0E0,0E0],"parents":[2147483647,0,0,1,1,2,2,3,3,4,4,5,5,6,6,7,7,8,8,9,9,10,10,11,11,14,14,15,15,17,17,18,18,19,19,20,20,21,21,22,22,23,23,26,26,27,27,28,28,30,30,31,31,32,32,33,33,34,34,35,35,36,36,37,37,38,38,41,41,43,43,45,45,47,47,49,49,50,50,51,51,52,52,55,55,56,56,60,60,61,61,62,62,63,63,64,64,67,67,70,70,76,76,79,79,80,80,81,81,82,82,83,83,84,84,85,85,86,86,87,87,88,88],"right_children":[2,4,6,8,10,12,14,16,18,20,22,24,-1,-1,26,28,-1,30,32,34,36,38,40,42,-1,-1,44,46,48,-1,50,52,54,56,58,60,62,64,66,-1,-1,68,-1,70,-1,72,-1,74,-1,76,78,80,82,-1,-1,84,86,-1,-1,-1,88,90,92,94,96,-1,-1,98,-1,-1,100,-1,-1,-1,-1,-1,102,-1,-1,104,106,108,110,112,114,116,118,120,122,-1,-1,-1,-1,-1,-1,-1,-1,-1,-1,-1,-1,-1,-1,-1,-1,-1,-1,-1,-1,-1,-1,-1,-1,-1,-1,-1,-1,-1,-1,-1,-1,-1,-1],"split_conditions":[1.0256E3,4.5E1,3.31E1,1.0008E3,8E0,3E0,3E0,9E1,1.99E1,6.8E1,4.21E1,1.0273E3,1.0430169E0,-1.1044183E-1,3.09E1,9.963E2,1.3066004E-1,1E1,2.5E2,1.0176E3,1.8E2,1.4E1,8E0,3.09E1,6.397914E-1,6.35541E-1,3.5E1,2.2E1,4.3E1,1.7975437E-2,3.6E1,2E0,1E1,1.0027E3,7E0,6E1,2E2,2.4E1,5.4E1,-3.4256095E-1,-3.0024055E-1,5E0,9.4575644E-1,6E0,1.8737674E-1,5E0,-3.062496E-2,6E0,3.4658507E-2,1.3E1,1.7E1,1.6E1,1.2E2,-9.8913467E-1,-3.0231217E-1,1.0023E3,1.0172E3,4.1377306E-1,3.825384E-1,-1.5255743E-1,4.3E1,1E1,7E0,1.3E1,7E0,-1.5133248E-1,-1.6333124E-1,4E0,9.000334E-1,4.268457E-1,8E0,5.229044E-3,1.9275554E-2,4.446869E-2,4.102236E-2,-1.1864439E-1,1.6E1,-7.949026E-2,-9.1823004E-2,4.5E1,1.7E1,4E0,1.5E1,6E0,3.4E1,1E0,9E0,9E1,1.5E1,8.8781565E-2,1.1270224E-1,4.7064926E-2,2.1154981E-2,-3.7746802E-2,-6.5483384E-2,-1.0207102E-1,-9.4737396E-2,7.04146E-1,7.876462E-1,3.544567E-1,2.9716915E-1,-1.0019653E-1,-1.0984248E-1,-2.7963543E-1,-3.2327992E-1,-2.4233732E-1,-1.9658601E-1,-1.8067493E-1,-2.2239654E-1,-1.9381817E-2,-2.0082384E-1,1.16203494E-1,1.4878997E-1,1.7228557E-1,2.0891738E-1,5.510802E-2,1.08244166E-1,1.8609615E-1,1.1096512E-1,3.490234E-1,5.598457E-2,-3.189577E-2,-5.636078E-2],"split_indices":[14,3,7,14,22,24,3,4,8,11,7,14,0,0,8,14,0,0,4,14,3,0,0,8,0,0,12,3,7,0,7,19,0,14,0,3,3,1,11,0,0,0,0,0,0,0,0,0,0,0,0,3,4,0,0,14,14,0,0,0,7,0,0,0,0,0,0,3,0,0,0,0,0,0,0,0,0,0,0,12,0,2,0,0,8,19,0,3,0,0,0,0,0,0,0,0,0,0,0,0,0,0,0,0,0,0,0,0,0,0,0,0,0,0,0,0,0,0,0,0,0,0,0],"split_type":[0,0,0,0,0,0,0,0,0,0,0,0,0,0,0,0,0,0,0,0,0,0,0,0,0,0,0,0,0,0,0,0,0,0,0,0,0,0,0,0,0,0,0,0,0,0,0,0,0,0,0,0,0,0,0,0,0,0,0,0,0,0,0,0,0,0,0,0,0,0,0,0,0,0,0,0,0,0,0,0,0,0,0,0,0,0,0,0,0,0,0,0,0,0,0,0,0,0,0,0,0,0,0,0,0,0,0,0,0,0,0,0,0,0,0,0,0,0,0,0,0,0,0],"sum_hessian":[4.906E4,4.402E4,5.04E3,1.883E4,2.519E4,2.88E3,2.16E3,2.587E3,1.6243E4,1.9352E4,5.838E3,2.16E3,7.2E2,3.6E2,1.8E3,2.227E3,3.6E2,2.88E3,1.3363E4,1.3579E4,5.773E3,4.667E3,1.171E3,1.8E3,3.6E2,3.6E2,1.44E3,7.87E2,1.44E3,3.6E2,2.52E3,1.2733E4,6.3E2,1.2859E4,7.2E2,4.332E3,1.441E3,1.427E3,3.24E3,3.6E2,8.11E2,1.44E3,3.6E2,1.08E3,3.6E2,7.2E2,6.7E1,1.08E3,3.6E2,1.8E3,7.2E2,1.0494E4,2.239E3,2.7E2,3.6E2,2.443E3,1.0416E4,3.6E2,3.6E2,3.6E2,3.972E3,7.21E2,7.2E2,7.07E2,7.2E2,2.88E3,3.6E2,1.08E3,3.6E2,3.6E2,7.2E2,3.6E2,3.6E2,7.2E2,3.6E2,3.6E2,1.44E3,3.6E2,3.6E2,6.84E3,3.654E3,1.44E3,7.99E2,1.44E3,1.003E3,8.616E3,1.8E3,1.092E3,2.88E3,3.61E2,3.6E2,3.6E2,3.6E2,3.47E2,3.6E2,3.6E2,3.6E2,3.6E2,7.2E2,3.6E2,3.6E2,1.08E3,3.6E2,5.76E3,1.08E3,2.574E3,1.08E3,3.6E2,1.08E3,7.2E2,7.9E1,7.2E2,7.2E2,7.2E2,2.83E2,6.456E3,2.16E3,7.2E2,1.08E3,1.2E1,1.08E3,1.8E3,1.08E3],"tree_param":{"num_deleted":"0","num_feature":"25","num_nodes":"123","size_leaf_vector":"1"}},{"base_weights":[1.8131464E-4,-7.011952E0,6.1234287E1,-1.9150763E1,2.0624375E0,8.492661E1,2.9619835E1,4.3347774E0,-2.2891308E1,7.6478753E0,-1.64505E1,7.877049E1,1.0326011E0,-1.0934046E-1,3.7732178E1,2.9392319E0,1.293572E-1,-8.458678E0,-2.6000969E1,1.0978754E1,-1.8741791E-1,-1.2783911E1,-3.104025E1,8.181948E1,6.334111E-1,6.292033E-1,3.1395845E1,8.4974253E-1,4.0798135E0,1.7796187E-2,-9.921417E0,-2.4354786E1,-5.918086E1,9.380351E0,3.9473186E1,-2.4763808E0,6.6907125E0,-7.4753475E0,-1.5118944E1,-3.3914486E-1,-2.9724193E-1,7.88033E1,9.363249E-1,3.56564E1,1.8550815E-1,1.2146934E0,-3.0323068E-2,4.292618E0,3.4312785E-2,-1.04881525E1,-8.492E0,-2.6384127E1,-1.4835902E1,-9.7927976E-1,-2.9929745E-1,1.5174755E1,8.019988E0,4.0964663E-1,3.7872362E-1,-1.5103608E-1,-1.3284056E0,9.985905E0,3.3816702E0,-5.142462E0,-9.755802E0,-1.4981964E-1,-1.6170245E-1,7.528988E1,8.910581E-1,4.2258903E-1,3.2301113E1,5.177004E-3,1.9083217E-2,4.402466E-2,4.0613342E-2,-1.17461145E-1,-1.0165729E1,-7.869748E-2,-9.0907276E-2,-2.837081E1,-2.2658468E1,-2.0998072E1,-3.7177515E0,1.3126453E1,1.8099483E1,6.775581E0,1.39694805E1,5.8929505E0,-4.0675983E0,8.789626E-2,1.11578345E-1,4.6595648E-2,2.094408E-2,-3.7370384E-2,-6.4830296E-2,-1.0105304E-1,-9.379275E-2,6.971242E-1,7.797805E-1,3.509219E-1,2.942056E-1,-9.919556E-2,-1.0874719E-1,-2.7683958E-1,-3.2005018E-1,-2.3991485E-1,-1.9462188E-1,-1.7887329E-1,-2.2017479E-1,-1.9188302E-2,-1.9884059E-1,1.15043E-1,1.47304E-1,1.7056523E-1,2.0683551E-1,9.7235404E-2,4.997431E-2,1.8423778E-1,1.09856516E-1,3.4580156E-1,5.5425093E-2,-3.157704E-2,-5.5797644E-2],"categories":[],"categories_nodes":[],"categories_segments":[],"categories_sizes":[],"default_left":[1,0,0,0,1,0,0,0,0,0,0,0,0,0,0,0,0,0,1,0,1,0,0,0,0,0,1,0,0,0,0,0,0,0,0,0,0,0,0,0,0,1,0,0,0,0,0,0,0,0,0,0,0,0,0,0,0,0,0,0,0,0,0,0,0,0,0,0,0,0,0,0,0,0,0,0,0,0,0,0,0,0,0,0,0,0,1,0,1,0,0,0,0,0,0,0,0,0,0,0,0,0,0,0,0,0,0,0,0,0,0,0,0,0,0,0,0,0,0,0,0,0,0],"id":2,"left_children":[1,3,5,7,9,11,13,15,17,19,21,23,-1,-1,25,27,-1,29,31,33,35,37,39,41,-1,-1,43,45,47,-1,49,51,53,55,57,59,61,63,65,-1,-1,67,-1,69,-1,71,-1,73,-1,75,77,79,81,-1,-1,83,85,-1,-1,-1,87,89,91,93,95,-1,-1,97,-1,-1,99,-1,-1,-1,-1,-1,101,-1,-1,103,105,107,109,111,113,115,117,119,121,-1,-1,-1,-1,-1,-1,-1,-1,-1,-1,-1,-1,-1,-1,-1,-1,-1,-1,-1,-1,-1,-1,-1,-1,-1,-1,-1,-1,-1,-1,-1,-1,-1,-1],"loss_changes":[2.1066326E7,4.849053E6,3.773294E6,1.654379E6,2.6049472E6,3.17026E5,7.113534E5,3.102575E4,7.2882E5,5.0508488E5,3.1195838E5,9.6479E4,0E0,0E0,2.8546525E5,5.306377E3,0E0,4.316339E4,7.28502E5,6.181386E5,9.092119E4,5.7749938E4,3.425125E3,5.6792E4,0E0,0E0,7.82E4,1.1200883E3,1.8414648E2,0E0,1.9532031E3,2.455925E5,7.12242E5,1.01247125E5,1.7E2,6.279E4,1.5689699E4,7.5468438E3,2.244375E2,0E0,0E0,4.5451E4,0E0,2.258275E4,0E0,3.4758252E2,0E0,9.583984E0,0E0,6.110781E2,1.9707812E2,7.7038E4,1.533886E5,0E0,0E0,1.440375E4,7.702856E4,0E0,0E0,0E0,7.8612625E4,9.141406E2,1.1762764E3,1.3096914E3,1.015625E-1,0E0,0E0,1.07715E4,0E0,0E0,4.76425E3,0E0,0E0,0E0,0E0,0E0,1.43625E2,0E0,0E0,1.61905E4,1.5105875E4,4.17575E3,2.3227383E4,3.5797969E3,2.3530312E3,4.5120938E4,2.3734438E4,1.0796453E4,3.9463867E3,0E0,0E0,0E0,0E0,0E0,0E0,0E0,0E0,0E0,0E0,0E0,0E0,0E0,0E0,0E0,0E0,0E0,0E0,0E0,0E0,0E0,0E0,0E0,0E0,0E0,0E0,0E0,0E0,0E0,0E0,0E0,0E0,0E0,0E0],"parents":[2147483647,0,0,1,1,2,2,3,3,4,4,5,5,6,6,7,7,8,8,9,9,10,10,11,11,14,14,15,15,17,17,18,18,19,19,20,20,21,21,22,22,23,23,26,26,27,27,28,28,30,30,31,31,32,32,33,33,34,34,35,35,36,36,37,37,38,38,41,41,43,43,45,45,47,47,49,49,50,50,51,51,52,52,55,55,56,56,60,60,61,61,62,62,63,63,64,64,67,67,70,70,76,76,79,79,80,80,81,81,82,82,83,83,84,84,85,85,86,86,87,87,88,88],"right_children":[2,4,6,8,10,12,14,16,18,20,22,24,-1,-1,26,28,-1,30,32,34,36,38,40,42,-1,-1,44,46,48,-1,50,52,54,56,58,60,62,64,66,-1,-1,68,-1,70,-1,72,-1,74,-1,76,78,80,82,-1,-1,84,86,-1,-1,-1,88,90,92,94,96,-1,-1,98,-1,-1,100,-1,-1,-1,-1,-1,102,-1,-1,104,106,108,110,112,114,116,118,120,122,-1,-1,-1,-1,-1,-1,-1,-1,-1,-1,-1,-1,-1,-1,-1,-1,-1,-1,-1,-1,-1,-1,-1,-1,-1,-1,-1,-1,-1,-1,-1,-1,-1,-1],"split_conditions":[1.0256E3,4.5E1,3.31E1,1.0008E3,8E0,3E0,3E0,9E1,1.99E1,6.8E1,4.21E1,1.0273E3,1.0326011E0,-1.0934046E-1,3.09E1,9.963E2,1.293572E-1,1E1,2.5E2,1.0176E3,1.8E2,1.4E1,8E0,3.09E1,6.334111E-1,6.292033E-1,3.5E1,2.2E1,4.3E1,1.7796187E-2,3.6E1,2E0,1E1,1.0027E3,7E0,6E1,2E2,2.4E1,5.4E1,-3.3914486E-1,-2.9724193E-1,5E0,9.363249E-1,6E0,1.8550815E-1,5E0,-3.0323068E-2,6E0,3.4312785E-2,1.3E1,1.7E1,1.6E1,1.2E2,-9.7927976E-1,-2.9929745E-1,1.0023E3,1.0172E3,4.0964663E-1,3.7872362E-1,-1.5103608E-1,4.3E1,1E1,7E0,1.3E1,7E0,-1.4981964E-1,-1.6170245E-1,4E0,8.910581E-1,4.2258903E-1,8E0,5.177004E-3,1.9083217E-2,4.402466E-2,4.0613342E-2,-1.17461145E-1,1.6E1,-7.869748E-2,-9.0907276E-2,4.5E1,1.7E1,4E0,1.5E1,6E0,3.4E1,1.0123E3,9E0,9E1,1.5E1,8.789626E-2,1.11578345E-1,4.6595648E-2,2.094408E-2,-3.7370384E-2,-6.4830296E-2,-1.0105304E-1,-9.379275E-2,6.971242E-1,7.797805E-1,3.509219E-1,2.942056E-1,-9.919556E-2,-1.0874719E-1,-2.7683958E-1,-3.2005018E-1,-2.3991485E-1,-1.9462188E-1,-1.7887329E-1,-2.2017479E-1,-1.9188302E-2,-1.9884059E-1,1.15043E-1,1.47304E-1,1.7056523E-1,2.0683551E-1,9.7235404E-2,4.997431E-2,1.8423778E-1,1.09856516E-1,3.4580156E-1,5.5425093E-2,-3.157704E-2,-5.5797644E-2],"split_indices":[14,3,7,14,22,24,3,4,8,11,7,14,0,0,8,14,0,0,4,14,3,0,0,8,0,0,12,3,7,0,7,19,0,14,0,3,3,1,11,0,0,0,0,0,0,0,0,0,0,0,0,3,4,0,0,14,14,0,0,0,7,0,0,0,0,0,0,3,0,0,0,0,0,0,0,0,0,0,0,12,0,2,0,0,8,14,0,3,0,0,0,0,0,0,0,0,0,0,0,0,0,0,0,0,0,0,0,0,0,0,0,0,0,0,0,0,0,0,0,0,0,0,0],"split_type":[0,0,0,0,0,0,0,0,0,0,0,0,0,0,0,0,0,0,0,0,0,0,0,0,0,0,0,0,0,0,0,0,0,0,0,0,0,0,0,0,0,0,0,0,0,0,0,0,0,0,0,0,0,0,0,0,0,0,0,0,0,0,0,0,0,0,0,0,0,0,0,0,0,0,0,0,0,0,0,0,0,0,0,0,0,0,0,0,0,0,0,0,0,0,0,0,0,0,0,0,0,0,0,0,0,0,0,0,0,0,0,0,0,0,0,0,0,0,0,0,0,0,0],"sum_hessian":[4.906E4,4.402E4,5.04E3,1.883E4,2.519E4,2.88E3,2.16E3,2.587E3,1.6243E4,1.9352E4,5.838E3,2.16E3,7.2E2,3.6E2,1.8E3,2.227E3,3.6E2,2.88E3,1.3363E4,1.3579E4,5.773E3,4.667E3,1.171E3,1.8E3,3.6E2,3.6E2,1.44E3,7.87E2,1.44E3,3.6E2,2.52E3,1.2733E4,6.3E2,1.2859E4,7.2E2,4.332E3,1.441E3,1.427E3,3.24E3,3.6E2,8.11E2,1.44E3,3.6E2,1.08E3,3.6E2,7.2E2,6.7E1,1.08E3,3.6E2,1.8E3,7.2E2,1.0494E4,2.239E3,2.7E2,3.6E2,2.443E3,1.0416E4,3.6E2,3.6E2,3.6E2,3.972E3,7.21E2,7.2E2,7.07E2,7.2E2,2.88E3,3.6E2,1.08E3,3.6E2,3.6E2,7.2E2,3.6E2,3.6E2,7.2E2,3.6E2,3.6E2,1.44E3,3.6E2,3.6E2,6.84E3,3.654E3,1.44E3,7.99E2,1.44E3,1.003E3,8.616E3,1.8E3,1.092E3,2.88E3,3.61E2,3.6E2,3.6E2,3.6E2,3.47E2,3.6E2,3.6E2,3.6E2,3.6E2,7.2E2,3.6E2,3.6E2,1.08E3,3.6E2,5.76E3,1.08E3,2.574E3,1.08E3,3.6E2,1.08E3,7.2E2,7.9E1,7.2E2,7.2E2,7.2E2,2.83E2,3.24E3,5.376E3,7.2E2,1.08E3,1.2E1,1.08E3,1.8E3,1.08E3],"tree_param":{"num_deleted":"0","num_feature":"25","num_nodes":"123","size_leaf_vector":"1"}},{"base_weights":[2.7066414E-4,-6.941884E0,6.0623283E1,-1.8959427E1,2.0418518E0,8.407908E1,2.9324455E1,4.2915196E0,-2.266261E1,7.5715127E0,-1.6286213E1,7.798461E1,1.0222895E0,-1.0825004E-1,3.73559E1,2.9098873E0,1.2806714E-1,-8.374262E0,-2.5741184E1,1.08691E1,-1.8546705E-1,-1.2656208E1,-3.0730392E1,8.100313E1,6.2709445E-1,6.229286E-1,3.1082754E1,8.412378E-1,4.0390935E0,1.761876E-2,-9.822406E0,-2.4111372E1,-5.8591084E1,9.286627E0,3.907955E1,-2.451578E0,6.623995E0,-7.400807E0,-1.4967858E1,-3.3576283E-1,-2.9427317E-1,7.8016914E1,9.2698777E-1,3.5300823E1,1.8365814E-1,1.2025795E0,-3.0024184E-2,4.24976E0,3.3970717E-2,-1.0383462E1,-8.40731E0,-2.612039E1,-1.4687813E1,-9.6952313E-1,-2.963129E-1,1.5023265E1,7.939825E0,4.0556163E-1,3.749469E-1,-1.4952996E-1,-1.3150403E0,9.886328E0,3.3479495E0,-5.0911803E0,-9.6585245E0,-1.4832206E-1,-1.6008982E-1,7.4538345E1,8.821723E-1,4.1837496E-1,3.197899E1,5.1252674E-3,1.889301E-2,4.358491E-2,4.0208276E-2,-1.1628977E-1,-1.0064229E1,-7.7912614E-2,-9.0000674E-2,-2.8087204E1,-2.2431995E1,-2.0788363E1,-3.6808388E0,1.2995364E1,1.7918863E1,6.707836E0,1.3829946E1,5.834393E0,-4.0269513E0,8.7019786E-2,1.1046571E-1,4.6130937E-2,2.0735309E-2,-3.699762E-2,-6.418389E-2,-1.0004539E-1,-9.285755E-2,6.9017243E-1,7.7199346E-1,3.474224E-1,2.9127154E-1,-9.820466E-2,-1.07662864E-1,-2.740718E-1,-3.1685278E-1,-2.5485566E-1,-2.1048324E-1,-1.7708962E-1,-2.1797498E-1,-1.8996611E-2,-1.9687693E-1,1.13894075E-1,1.4583296E-1,1.6886197E-1,2.047743E-1,5.39518E-2,1.0626907E-1,1.8239799E-1,1.08758904E-1,3.426096E-1,5.4871406E-2,-3.126136E-2,-5.5240296E-2],"categories":[],"categories_nodes":[],"categories_segments":[],"categories_sizes":[],"default_left":[1,0,0,0,1,0,0,0,0,0,0,0,0,0,0,0,0,0,1,0,1,0,0,0,0,0,1,0,0,0,0,0,0,0,0,0,0,0,0,0,0,1,0,0,0,0,0,0,0,0,0,0,0,0,0,0,0,0,0,0,0,0,0,0,0,0,0,0,0,0,0,0,0,0,0,0,0,0,0,0,0,0,0,0,0,0,1,0,1,0,0,0,0,0,0,0,0,0,0,0,0,0,0,0,0,0,0,0,0,0,0,0,0,0,0,0,0,0,0,0,0,0,0],"id":3,"left_children":[1,3,5,7,9,11,13,15,17,19,21,23,-1,-1,25,27,-1,29,31,33,35,37,39,41,-1,-1,43,45,47,-1,49,51,53,55,57,59,61,63,65,-1,-1,67,-1,69,-1,71,-1,73,-1,75,77,79,81,-1,-1,83,85,-1,-1,-1,87,89,91,93,95,-1,-1,97,-1,-1,99,-1,-1,-1,-1,-1,101,-1,-1,103,105,107,109,111,113,115,117,119,121,-1,-1,-1,-1,-1,-1,-1,-1,-1,-1,-1,-1,-1,-1,-1,-1,-1,-1,-1,-1,-1,-1,-1,-1,-1,-1,-1,-1,-1,-1,-1,-1,-1,-1],"loss_changes":[2.0647956E7,4.752653E6,3.69833E6,1.621493E6,2.5531808E6,3.10706E5,6.972365E5,3.041021E4,7.143215E5,4.9503838E5,3.0576425E5,9.456E4,0E0,0E0,2.7979975E5,5.2010586E3,0E0,4.2306312E4,7.14085E5,6.058794E5,8.9114805E4,5.6599062E4,3.35825E3,5.5669E4,0E0,0E0,7.664825E4,1.098043E3,1.8046094E2,0E0,1.91425E3,2.40698E5,6.98126E5,9.9238625E4,1.66625E2,6.154504E4,1.5378355E4,7.397117E3,2.203125E2,0E0,0E0,4.4555E4,0E0,2.2134625E4,0E0,3.4069507E2,0E0,9.384766E0,0E0,5.990469E2,1.9316406E2,7.5504E4,1.5033631E5,0E0,0E0,1.411825E4,7.5498875E4,0E0,0E0,0E0,7.705452E4,8.96E2,1.1529194E3,1.2837188E3,9.375E-2,0E0,0E0,1.05535E4,0E0,0E0,4.66975E3,0E0,0E0,0E0,0E0,0E0,1.40875E2,0E0,0E0,1.587E4,1.4906375E4,4.0919375E3,2.2771441E4,3.5086562E3,2.3069375E3,4.4271875E4,2.3263156E4,1.0601219E4,3.8680234E3,0E0,0E0,0E0,0E0,0E0,0E0,0E0,0E0,0E0,0E0,0E0,0E0,0E0,0E0,0E0,0E0,0E0,0E0,0E0,0E0,0E0,0E0,0E0,0E0,0E0,0E0,0E0,0E0,0E0,0E0,0E0,0E0,0E0,0E0],"parents":[2147483647,0,0,1,1,2,2,3,3,4,4,5,5,6,6,7,7,8,8,9,9,10,10,11,11,14,14,15,15,17,17,18,18,19,19,20,20,21,21,22,22,23,23,26,26,27,27,28,28,30,30,31,31,32,32,33,33,34,34,35,35,36,36,37,37,38,38,41,41,43,43,45,45,47,47,49,49,50,50,51,51,52,52,55,55,56,56,60,60,61,61,62,62,63,63,64,64,67,67,70,70,76,76,79,79,80,80,81,81,82,82,83,83,84,84,85,85,86,86,87,87,88,88],"right_children":[2,4,6,8,10,12,14,16,18,20,22,24,-1,-1,26,28,-1,30,32,34,36,38,40,42,-1,-1,44,46,48,-1,50,52,54,56,58,60,62,64,66,-1,-1,68,-1,70,-1,72,-1,74,-1,76,78,80,82,-1,-1,84,86,-1,-1,-1,88,90,92,94,96,-1,-1,98,-1,-1,100,-1,-1,-1,-1,-1,102,-1,-1,104,106,108,110,112,114,116,118,120,122,-1,-1,-1,-1,-1,-1,-1,-1,-1,-1,-1,-1,-1,-1,-1,-1,-1,-1,-1,-1,-1,-1,-1,-1,-1,-1,-1,-1,-1,-1,-1,-1,-1,-1],"split_conditions":[1.0256E3,4.5E1,3.31E1,1.0008E3,8E0,3E0,3E0,9E1,1.99E1,6.8E1,4.21E1,1.0273E3,1.0222895E0,-1.0825004E-1,3.09E1,9.963E2,1.2806714E-1,1E1,2.5E2,1.0176E3,1.8E2,1.4E1,8E0,3.09E1,6.2709445E-1,6.229286E-1,3.5E1,2.2E1,4.3E1,1.761876E-2,3.6E1,2E0,1E1,1.0027E3,7E0,6E1,2E2,2.4E1,5.4E1,-3.3576283E-1,-2.9427317E-1,5E0,9.2698777E-1,6E0,1.8365814E-1,5E0,-3.0024184E-2,6E0,3.3970717E-2,1.3E1,1.7E1,1.6E1,1.2E2,-9.6952313E-1,-2.963129E-1,1.0023E3,1.0172E3,4.0556163E-1,3.749469E-1,-1.4952996E-1,4.3E1,1E1,7E0,1.3E1,7E0,-1.4832206E-1,-1.6008982E-1,4E0,8.821723E-1,4.1837496E-1,8E0,5.1252674E-3,1.889301E-2,4.358491E-2,4.0208276E-2,-1.1628977E-1,1.6E1,-7.7912614E-2,-9.0000674E-2,4.5E1,1.7E2,4E0,1.5E1,6E0,3.4E1,1E0,9E0,9E1,1.5E1,8.7019786E-2,1.1046571E-1,4.6130937E-2,2.0735309E-2,-3.699762E-2,-6.418389E-2,-1.0004539E-1,-9.285755E-2,6.9017243E-1,7.7199346E-1,3.474224E-1,2.9127154E-1,-9.820466E-2,-1.07662864E-1,-2.740718E-1,-3.1685278E-1,-2.5485566E-1,-2.1048324E-1,-1.7708962E-1,-2.1797498E-1,-1.8996611E-2,-1.9687693E-1,1.13894075E-1,1.4583296E-1,1.6886197E-1,2.047743E-1,5.39518E-2,1.0626907E-1,1.8239799E-1,1.08758904E-1,3.426096E-1,5.4871406E-2,-3.126136E-2,-5.5240296E-2],"split_indices":[14,3,7,14,22,24,3,4,8,11,7,14,0,0,8,14,0,0,4,14,3,0,0,8,0,0,12,3,7,0,7,19,0,14,0,3,3,1,11,0,0,0,0,0,0,0,0,0,0,0,0,3,4,0,0,14,14,0,0,0,7,0,0,0,0,0,0,3,0,0,0,0,0,0,0,0,0,0,0,12,4,2,0,0,8,19,0,3,0,0,0,0,0,0,0,0,0,0,0,0,0,0,0,0,0,0,0,0,0,0,0,0,0,0,0,0,0,0,0,0,0,0,0],"split_type":[0,0,0,0,0,0,0,0,0,0,0,0,0,0,0,0,0,0,0,0,0,0,0,0,0,0,0,0,0,0,0,0,0,0,0,0,0,0,0,0,0,0,0,0,0,0,0,0,0,0,0,0,0,0,0,0,0,0,0,0,0,0,0,0,0,0,0,0,0,0,0,0,0,0,0,0,0,0,0,0,0,0,0,0,0,0,0,0,0,0,0,0,0,0,0,0,0,0,0,0,0,0,0,0,0,0,0,0,0,0,0,0,0,0,0,0,0,0,0,0,0,0,0],"sum_hessian":[4.906E4,4.402E4,5.04E3,1.883E4,2.519E4,2.88E3,2.16E3,2.587E3,1.6243E4,1.9352E4,5.838E3,2.16E3,7.2E2,3.6E2,1.8E3,2.227E3,3.6E2,2.88E3,1.3363E4,1.3579E4,5.773E3,4.667E3,1.171E3,1.8E3,3.6E2,3.6E2,1.44E3,7.87E2,1.44E3,3.6E2,2.52E3,1.2733E4,6.3E2,1.2859E4,7.2E2,4.332E3,1.441E3,1.427E3,3.24E3,3.6E2,8.11E2,1.44E3,3.6E2,1.08E3,3.6E2,7.2E2,6.7E1,1.08E3,3.6E2,1.8E3,7.2E2,1.0494E4,2.239E3,2.7E2,3.6E2,2.443E3,1.0416E4,3.6E2,3.6E2,3.6E2,3.972E3,7.21E2,7.2E2,7.07E2,7.2E2,2.88E3,3.6E2,1.08E3,3.6E2,3.6E2,7.2E2,3.6E2,3.6E2,7.2E2,3.6E2,3.6E2,1.44E3,3.6E2,3.6E2,6.84E3,3.654E3,1.44E3,7.99E2,1.44E3,1.003E3,8.616E3,1.8E3,1.092E3,2.88E3,3.61E2,3.6E2,3.6E2,3.6E2,3.47E2,3.6E2,3.6E2,3.6E2,3.6E2,7.2E2,3.6E2,3.6E2,1.08E3,3.6E2,5.76E3,1.08E3,1.134E3,2.52E3,3.6E2,1.08E3,7.2E2,7.9E1,7.2E2,7.2E2,7.2E2,2.83E2,6.456E3,2.16E3,7.2E2,1.08E3,1.2E1,1.08E3,1.8E3,1.08E3],"tree_param":{"num_deleted":"0","num_feature":"25","num_nodes":"123","size_leaf_vector":"1"}},{"base_weights":[3.6109844E-4,-6.8725133E0,6.001837E1,-1.8769999E1,2.0214734E0,8.323999E1,2.9032028E1,4.2486954E0,-2.243619E1,7.495915E0,-1.6123566E1,7.720656E1,1.012081E0,-1.0717058E-1,3.6983383E1,2.8808393E0,1.2678987E-1,-8.29068E0,-2.5483988E1,1.0760546E1,-1.8354179E-1,-1.252978E1,-3.0423624E1,8.01949E1,6.208408E-1,6.167166E-1,3.0772797E1,8.328187E-1,3.9987848E0,1.7443163E-2,-9.724374E0,-2.3870386E1,-5.8007175E1,9.193843E0,3.868985E1,-2.4270298E0,6.55794E0,-7.3270087E0,-1.481828E1,-3.3241457E-1,-2.91334E-1,7.7238365E1,9.177434E-1,3.4948803E1,1.8182667E-1,1.1905875E0,-2.9728306E-2,4.2073393E0,3.3632E-2,-1.0279802E1,-8.323472E0,-2.5859283E1,-1.4541206E1,-9.598638E-1,-2.9335785E-1,1.4873291E1,7.8604684E0,4.0151736E-1,3.7120786E-1,-1.4803873E-1,-1.3018175E0,9.787742E0,3.3145638E0,-5.0404196E0,-9.562207E0,-1.4683941E-1,-1.584933E-1,7.3794304E1,8.73375E-1,4.142029E-1,3.1660097E1,5.0741397E-3,1.870463E-2,4.3149717E-2,3.9807167E-2,-1.1512997E-1,-9.963728E0,-7.713566E-2,-8.910321E-2,-2.7309877E1,-2.0957819E1,-2.0580744E1,-3.6443143E0,1.2865587E1,1.7740053E1,6.6407757E0,1.3691802E1,5.7764134E0,-3.9867203E0,8.615213E-2,1.0936404E-1,4.567079E-2,2.0528669E-2,-3.662881E-2,-6.3543886E-2,-9.90478E-2,-9.193148E-2,6.8328965E-1,7.6428413E-1,3.439579E-1,2.88367E-1,-9.722352E-2,-1.0658919E-1,-2.681733E-1,-3.2310188E-1,-2.4493837E-1,-1.9766201E-1,-1.7532358E-1,-2.1579711E-1,-1.8807055E-2,-1.9493283E-1,1.12756744E-1,1.4437655E-1,1.6717578E-1,2.0273378E-1,9.543352E-2,4.8900057E-2,1.8057647E-1,1.0767226E-1,3.3944696E-1,5.432321E-2,-2.8350048E-2,-5.1356692E-2],"categories":[],"categories_nodes":[],"categories_segments":[],"categories_sizes":[],"default_left":[1,0,0,0,1,0,0,0,0,0,0,0,0,0,0,0,0,0,1,0,1,0,0,0,0,0,1,0,0,0,0,0,0,0,0,0,0,0,0,0,0,1,0,0,0,0,0,0,0,0,0,0,0,0,0,0,0,0,0,0,0,0,0,0,0,0,0,0,0,0,0,0,0,0,0,0,0,0,0,0,0,0,0,0,0,0,1,0,1,0,0,0,0,0,0,0,0,0,0,0,0,0,0,0,0,0,0,0,0,0,0,0,0,0,0,0,0,0,0,0,0,0,0],"id":4,"left_children":[1,3,5,7,9,11,13,15,17,19,21,23,-1,-1,25,27,-1,29,31,33,35,37,39,41,-1,-1,43,45,47,-1,49,51,53,55,57,59,61,63,65,-1,-1,67,-1,69,-1,71,-1,73,-1,75,77,79,81,-1,-1,83,85,-1,-1,-1,87,89,91,93,95,-1,-1,97,-1,-1,99,-1,-1,-1,-1,-1,101,-1,-1,103,105,107,109,111,113,115,117,119,121,-1,-1,-1,-1,-1,-1,-1,-1,-1,-1,-1,-1,-1,-1,-1,-1,-1,-1,-1,-1,-1,-1,-1,-1,-1,-1,-1,-1,-1,-1,-1,-1,-1,-1],"loss_changes":[2.0237892E7,4.658168E6,3.62485E6,1.5892605E6,2.5024425E6,3.04516E5,6.834E5,2.98068E4,7.00111E5,4.8519312E5,2.99693E5,9.2679E4,0E0,0E0,2.7424725E5,5.0978438E3,0E0,4.1466234E4,6.99952E5,5.9386275E5,8.734439E4,5.5471188E4,3.2925E3,5.4568E4,0E0,0E0,7.512725E4,1.0764352E3,1.7686133E2,0E0,1.8760156E3,2.359005E5,6.8429025E5,9.726975E4,1.63375E2,6.032458E4,1.5073176E4,7.2502812E3,2.161875E2,0E0,0E0,4.3676E4,0E0,2.169525E4,0E0,3.3393585E2,0E0,9.191406E0,0E0,5.872969E2,1.8933203E2,7.40475E4,1.4734425E5,0E0,0E0,1.38385E4,7.399931E4,0E0,0E0,0E0,7.552736E4,8.781953E2,1.1300166E3,1.2582363E3,1.015625E-1,0E0,0E0,1.034E4,0E0,0E0,4.577125E3,0E0,0E0,0E0,0E0,0E0,1.3817188E2,0E0,0E0,1.90705E4,9.632625E3,4.009875E3,2.2324445E4,3.4388906E3,2.2617188E3,4.3742688E4,2.2801188E4,1.04095E4,3.7977578E3,0E0,0E0,0E0,0E0,0E0,0E0,0E0,0E0,0E0,0E0,0E0,0E0,0E0,0E0,0E0,0E0,0E0,0E0,0E0,0E0,0E0,0E0,0E0,0E0,0E0,0E0,0E0,0E0,0E0,0E0,0E0,0E0,0E0,0E0],"parents":[2147483647,0,0,1,1,2,2,3,3,4,4,5,5,6,6,7,7,8,8,9,9,10,10,11,11,14,14,15,15,17,17,18,18,19,19,20,20,21,21,22,22,23,23,26,26,27,27,28,28,30,30,31,31,32,32,33,33,34,34,35,35,36,36,37,37,38,38,41,41,43,43,45,45,47,47,49,49,50,50,51,51,52,52,55,55,56,56,60,60,61,61,62,62,63,63,64,64,67,67,70,70,76,76,79,79,80,80,81,81,82,82,83,83,84,84,85,85,86,86,87,87,88,88],"right_children":[2,4,6,8,10,12,14,16,18,20,22,24,-1,-1,26,28,-1,30,32,34,36,38,40,42,-1,-1,44,46,48,-1,50,52,54,56,58,60,62,64,66,-1,-1,68,-1,70,-1,72,-1,74,-1,76,78,80,82,-1,-1,84,86,-1,-1,-1,88,90,92,94,96,-1,-1,98,-1,-1,100,-1,-1,-1,-1,-1,102,-1,-1,104,106,108,110,112,114,116,118,120,122,-1,-1,-1,-1,-1,-1,-1,-1,-1,-1,-1,-1,-1,-1,-1,-1,-1,-1,-1,-1,-1,-1,-1,-1,-1,-1,-1,-1,-1,-1,-1,-1,-1,-1],"split_conditions":[1.0256E3,4.5E1,3.31E1,1.0008E3,8E0,3E0,3E0,9E1,1.99E1,6.8E1,4.21E1,1.0273E3,1.012081E0,-1.0717058E-1,3.09E1,9.963E2,1.2678987E-1,1E1,2.5E2,1.0176E3,1.8E2,1.4E1,8E0,3.09E1,6.208408E-1,6.167166E-1,3.5E1,2.2E1,4.3E1,1.7443163E-2,3.6E1,2E0,1E1,1.0027E3,7E0,6E1,2E2,2.4E1,5.4E1,-3.3241457E-1,-2.91334E-1,5E0,9.177434E-1,6E0,1.8182667E-1,5E0,-2.9728306E-2,6E0,3.3632E-2,1.3E1,1.7E1,1.0167E3,1.2E2,-9.598638E-1,-2.9335785E-1,1.0023E3,1.0172E3,4.0151736E-1,3.7120786E-1,-1.4803873E-1,4.3E1,1E1,7E0,1.3E1,7E0,-1.4683941E-1,-1.584933E-1,4E0,8.73375E-1,4.142029E-1,8E0,5.0741397E-3,1.870463E-2,4.3149717E-2,3.9807167E-2,-1.1512997E-1,1.6E1,-7.713566E-2,-8.910321E-2,5.11E1,1.7E2,4E0,1.5E1,6E0,3.4E1,1.0123E3,9E0,9E1,1.4E1,8.615213E-2,1.0936404E-1,4.567079E-2,2.0528669E-2,-3.662881E-2,-6.3543886E-2,-9.90478E-2,-9.193148E-2,6.8328965E-1,7.6428413E-1,3.439579E-1,2.88367E-1,-9.722352E-2,-1.0658919E-1,-2.681733E-1,-3.2310188E-1,-2.4493837E-1,-1.9766201E-1,-1.7532358E-1,-2.1579711E-1,-1.8807055E-2,-1.9493283E-1,1.12756744E-1,1.4437655E-1,1.6717578E-1,2.0273378E-1,9.543352E-2,4.8900057E-2,1.8057647E-1,1.0767226E-1,3.3944696E-1,5.432321E-2,-2.8350048E-2,-5.1356692E-2],"split_indices":[14,3,7,14,22,24,3,4,8,11,7,14,0,0,8,14,0,0,4,14,3,0,0,8,0,0,12,3,7,0,7,19,0,14,0,3,3,1,11,0,0,0,0,0,0,0,0,0,0,0,0,14,4,0,0,14,14,0,0,0,7,0,0,0,0,0,0,3,0,0,0,0,0,0,0,0,0,0,0,7,4,2,0,0,8,14,0,3,0,0,0,0,0,0,0,0,0,0,0,0,0,0,0,0,0,0,0,0,0,0,0,0,0,0,0,0,0,0,0,0,0,0,0],"split_type":[0,0,0,0,0,0,0,0,0,0,0,0,0,0,0,0,0,0,0,0,0,0,0,0,0,0,0,0,0,0,0,0,0,0,0,0,0,0,0,0,0,0,0,0,0,0,0,0,0,0,0,0,0,0,0,0,0,0,0,0,0,0,0,0,0,0,0,0,0,0,0,0,0,0,0,0,0,0,0,0,0,0,0,0,0,0,0,0,0,0,0,0,0,0,0,0,0,0,0,0,0,0,0,0,0,0,0,0,0,0,0,0,0,0,0,0,0,0,0,0,0,0,0],"sum_hessian":[4.906E4,4.402E4,5.04E3,1.883E4,2.519E4,2.88E3,2.16E3,2.587E3,1.6243E4,1.9352E4,5.838E3,2.16E3,7.2E2,3.6E2,1.8E3,2.227E3,3.6E2,2.88E3,1.3363E4,1.3579E4,5.773E3,4.667E3,1.171E3,1.8E3,3.6E2,3.6E2,1.44E3,7.87E2,1.44E3,3.6E2,2.52E3,1.2733E4,6.3E2,1.2859E4,7.2E2,4.332E3,1.441E3,1.427E3,3.24E3,3.6E2,8.11E2,1.44E3,3.6E2,1.08E3,3.6E2,7.2E2,6.7E1,1.08E3,3.6E2,1.8E3,7.2E2,1.0494E4,2.239E3,2.7E2,3.6E2,2.443E3,1.0416E4,3.6E2,3.6E2,3.6E2,3.972E3,7.21E2,7.2E2,7.07E2,7.2E2,2.88E3,3.6E2,1.08E3,3.6E2,3.6E2,7.2E2,3.6E2,3.6E2,7.2E2,3.6E2,3.6E2,1.44E3,3.6E2,3.6E2,8.094E3,2.4E3,1.44E3,7.99E2,1.44E3,1.003E3,8.616E3,1.8E3,1.092E3,2.88E3,3.61E2,3.6E2,3.6E2,3.6E2,3.47E2,3.6E2,3.6E2,3.6E2,3.6E2,7.2E2,3.6E2,3.6E2,1.08E3,3.6E2,7.374E3,7.2E2,6E2,1.8E3,3.6E2,1.08E3,7.2E2,7.9E1,7.2E2,7.2E2,7.2E2,2.83E2,3.24E3,5.376E3,7.2E2,1.08E3,1.2E1,1.08E3,1.44E3,1.44E3],"tree_param":{"num_deleted":"0","num_feature":"25","num_nodes":"123","size_leaf_vector":"1"}}]},"name":"gbtree"},"learner_model_param":{"base_score":"[4.1613474E2]","boost_from_average":"1","num_class":"0","num_feature":"25","num_target":"1"},"objective":{"name":"reg:squarederror","reg_loss_param":{"scale_pos_weight":"1"}}},"version":[3,1,3]}