{"learner":{"attributes":{"scikit_learn":"{\"_estimator_type\": \"regressor\"}"},"feature_names":["Prevailing Wind Magnitude (MPH)","Gust Wind Magnitude (MPH)","Vis (MI)","Cloud Height 1 (100s of ft)","Cloud Height 2 (100s of ft)","Cloud Height 3 (100s of ft)","Cloud Height 4 (100s of ft)","Air Temp (F)","Dewpoint (F)","6hr Max (F)","6hr Min (F)","Rel Hum","Wind Chill (F)","Heat Index (F)","Sea Level Pressure (MB)","Precip 1hr","Precip 3hr","Precip 6hr","cloud_code_1","cloud_code_2","cloud_code_3","cloud_code_4","prevailing_wind_dir_code","gust_wind_dir_code","weather_code"],"feature_types":["float","float","float","float","float","float","float","float","float","float","float","float","float","float","float","float","float","float","float","float","float","float","float","float","float"],"gradient_booster":{"model":{"cats":{"enc":[],"feature_segments":[],"sorted_idx":[]},"gbtree_model_param":{"num_parallel_tree":"1","num_trees":"5"},"iteration_indptr":[0,1,2,3,4,5],"tree_info":[0,0,0,0,0],"trees":[{"base_weights":[-8.85029E-6,-7.154224E0,6.247484E1,-1.9539255E1,2.1042287E0,8.6647415E1,3.0219553E1,4.4225974E0,-2.3355663E1,7.8029165E0,-1.6784075E1,8.0366104E1,1.0535377E1,-1.1155416E0,3.8496147E1,2.9988058E0,1.3197627E0,-8.630077E0,-2.6528446E1,1.1201387E1,-1.9137512E-1,-1.304321E1,-3.1669378E1,8.3476974E1,6.46236E0,6.419426E0,3.203153E1,8.6700875E-1,4.162482E0,1.8156514E-1,-1.0122453E1,-2.4849022E1,-6.037829E1,9.570641E0,4.02724E1,-2.5267334E0,6.8261695E0,-7.6266956E0,-1.5425728E1,-3.4601147E0,-3.0326967E0,8.039994E1,9.552829E0,3.6378345E1,1.892642E0,1.239287E0,-3.0929857E-1,4.3796144E0,3.5007572E-1,-1.0700724E1,-8.663941E0,-2.6919634E1,-1.5136558E1,-9.990886E0,-3.0535731E0,1.5482326E1,8.182743E0,4.1794086E0,3.8639152E0,-1.5409402E0,-1.3555355E0,1.0188075E1,3.4501328E0,-5.2465715E0,-9.953327E0,-1.5286058E0,-1.6497647E0,7.681576E1,9.090991E0,4.311453E0,3.2955128E1,5.2816935E-2,1.9469717E-1,4.4917282E-1,4.1435644E-1,-1.1983949E0,-1.0371823E1,-8.0290955E-1,-9.2747873E-1,-2.8946678E1,-2.3118286E1,-2.1423832E1,-3.7926865E0,1.3392611E1,1.8466188E1,6.913121E0,1.4252789E1,6.01186E0,-4.1501236E0,8.9675695E-1,1.138374E0,4.7539076E-1,2.1368013E-1,-3.8126874E-1,-6.614287E-1,-1.0309905E0,-9.5691776E-1,7.112388E0,7.9559107E0,3.5802712E0,3.0016258E0,-1.0120757E0,-1.1094903E0,-2.8245964E1,-3.265423E1,-2.4478418E1,-1.9856997E1,-1.8249483E0,-2.2464087E0,-1.957747E0,-2.028267E0,1.1737557E1,1.5029088E0,1.7402327E1,2.1102026E0,5.5664573E0,1.0933711E1,1.8797344E1,1.1208499E1,3.5227506E0,5.6549544E0,-3.2217858E0,-5.6929407E0,-2.7984812E1,-3.003269E0,-3.068461E0,-3.3595116E0,-2.5236197E1,-1.9761082E0,-2.190393E0,-1.8804567E1,-5.9901763E-2,-3.3110532E-1,1.0912402E0,1.25302E0,1.8405657E0,1.6350793E0,4.768417E0,9.530841E0,8.996471E0,1.2860836E1,2.0745971E0,1.6796646E0,1.029596E1,1.2999998E0,9.3009514E-1,3.8215842E0,-2.96187E0,-4.2503652E-1,-6.089755E-1,-4.8846427E-1,-2.814947E0,-2.57722E0,-2.414686E0,-2.7544773E0,-1.778305E0,-1.9773995E0,8.009567E0,3.1351821E0,5.4252505E-1,1.1573264E1,7.787449E-1,9.589343E-1,1.1833924E0,1.487619E0,1.1102465E0,9.460937E-1,4.8182684E-1,2.814314E-1,-3.2776543E-1,-2.853674E-1,7.4928565E0,8.7731665E-1,3.7406282E0,7.358895E-1,9.888875E-1,1.3225594E0,8.16487E-1,7.145991E-1,4.423487E0,2.5724747E0,9.745257E-2,4.9587972E-2,4.775673E0,3.0054197E-1,2.6994553E-1,2.5029168E-1,3.6357754E-1,5.1519237E0,5.509998E0,4.4224963E-1,5.7745516E-1,5.2301806E-1],"categories":[],"categories_nodes":[],"categories_segments":[],"categories_sizes":[],"default_left":[1,0,0,0,1,0,0,0,0,0,0,0,0,0,0,0,0,0,1,0,1,0,0,0,0,0,1,0,0,0,0,0,0,0,0,0,0,0,0,0,0,1,0,0,0,0,0,0,0,0,0,0,0,0,0,0,0,0,0,0,0,0,0,0,0,0,0,0,0,0,0,0,0,0,0,0,0,0,0,0,0,0,0,0,0,0,1,0,1,0,0,0,0,0,0,0,0,0,0,0,0,0,0,0,0,0,0,0,0,0,0,0,0,0,0,0,0,0,0,0,0,1,0,1,0,0,0,0,0,0,0,0,0,0,0,0,0,0,0,0,0,0,0,0,0,0,0,0,0,0,0,0,0,0,0,0,0,0,1,0,0,0,0,0,0,0,0,0,0,0,0,0,0,1,0,0,0,0,0,0,0,0,0,0,0,0,0,0,0,0,0,0,0],"id":0,"left_children":[1,3,5,7,9,11,13,15,17,19,21,23,-1,-1,25,27,-1,29,31,33,35,37,39,41,-1,-1,43,45,47,-1,49,51,53,55,57,59,61,63,65,-1,-1,67,-1,69,-1,71,-1,73,-1,75,77,79,81,-1,-1,83,85,-1,-1,-1,87,89,91,93,95,-1,-1,97,-1,-1,99,-1,-1,-1,-1,-1,101,-1,-1,103,105,107,109,111,113,115,117,119,121,-1,-1,-1,-1,-1,-1,-1,-1,-1,-1,-1,-1,-1,-1,123,125,127,129,-1,-1,131,-1,133,-1,135,-1,137,139,141,143,-1,145,147,149,151,-1,-1,-1,153,-1,-1,155,-1,-1,-1,-1,-1,-1,157,159,161,163,-1,-1,165,-1,-1,167,169,-1,-1,-1,-1,-1,-1,-1,-1,-1,171,173,-1,175,-1,-1,-1,-1,-1,-1,-1,-1,-1,-1,177,-1,179,181,-1,-1,-1,-1,183,185,-1,-1,187,-1,-1,-1,-1,189,191,-1,-1,-1],"loss_changes":[2.1928678E7,5.047763E6,3.927818E6,1.7221655E6,2.7116532E6,3.30052E5,7.404504E5,3.2294414E4,7.58708E5,5.257916E5,3.2472525E5,1.00435E5,0E0,0E0,2.9714125E5,5.5234414E3,0E0,4.493014E4,7.58219E5,6.4340775E5,9.464434E4,6.0122625E4,3.56325E3,5.9105E4,0E0,0E0,8.1398875E4,1.1655183E3,1.9171289E2,0E0,2.0335156E3,2.55683E5,7.4133575E5,1.0538725E5,1.77E2,6.535609E4,1.633143E4,7.8555703E3,2.330625E2,0E0,0E0,4.7299E4,0E0,2.3506375E4,0E0,3.6181274E2,0E0,9.996094E0,0E0,6.358281E2,2.0513281E2,8.02E4,1.5968003E5,0E0,0E0,1.49920625E4,8.018181E4,0E0,0E0,0E0,8.182439E4,9.515469E2,1.2244014E3,1.3632734E3,1.09375E-1,0E0,0E0,1.12205E4,0E0,0E0,4.9591875E3,0E0,0E0,0E0,0E0,0E0,1.493125E2,0E0,0E0,1.685E4,1.5726875E4,4.3485E3,2.4166787E4,3.7264844E3,2.4481562E3,4.6594844E4,2.4706031E4,1.1197758E4,4.1079844E3,0E0,0E0,0E0,0E0,0E0,0E0,0E0,0E0,0E0,0E0,0E0,0E0,0E0,0E0,1.848E3,9.72375E2,8.706125E3,1.9168438E3,0E0,0E0,1.3237747E3,0E0,3.3483594E2,0E0,4.5973438E2,0E0,2.0382797E4,7.9519688E3,2.4624375E3,1.6334062E3,0E0,7.1903594E3,4.6889844E2,3.1697266E2,1.111E3,0E0,0E0,0E0,4.905125E3,0E0,0E0,3.6234375E2,0E0,0E0,0E0,0E0,0E0,0E0,2.843836E4,9.001781E3,7.001719E2,2.0611875E3,0E0,0E0,3.8051562E2,0E0,0E0,7.1027344E2,3.988086E1,0E0,0E0,0E0,0E0,0E0,0E0,0E0,0E0,0E0,6.448594E2,5.1933516E3,0E0,1.875875E3,0E0,0E0,0E0,0E0,0E0,0E0,0E0,0E0,0E0,0E0,1.9363281E2,0E0,2.2668086E3,4.0869293E1,0E0,0E0,0E0,0E0,8.8510547E2,2.5703125E0,0E0,0E0,5.992969E2,0E0,0E0,0E0,0E0,2.5797656E2,2.3171875E1,0E0,0E0,0E0],"parents":[2147483647,0,0,1,1,2,2,3,3,4,4,5,5,6,6,7,7,8,8,9,9,10,10,11,11,14,14,15,15,17,17,18,18,19,19,20,20,21,21,22,22,23,23,26,26,27,27,28,28,30,30,31,31,32,32,33,33,34,34,35,35,36,36,37,37,38,38,41,41,43,43,45,45,47,47,49,49,50,50,51,51,52,52,55,55,56,56,60,60,61,61,62,62,63,63,64,64,67,67,70,70,76,76,79,79,80,80,81,81,82,82,83,83,84,84,85,85,86,86,87,87,88,88,103,103,104,104,105,105,106,106,109,109,111,111,113,113,115,115,116,116,117,117,118,118,120,120,121,121,122,122,123,123,127,127,130,130,137,137,138,138,139,139,140,140,143,143,146,146,147,147,157,157,158,158,160,160,171,171,173,173,174,174,179,179,180,180,183,183,188,188,189,189],"right_children":[2,4,6,8,10,12,14,16,18,20,22,24,-1,-1,26,28,-1,30,32,34,36,38,40,42,-1,-1,44,46,48,-1,50,52,54,56,58,60,62,64,66,-1,-1,68,-1,70,-1,72,-1,74,-1,76,78,80,82,-1,-1,84,86,-1,-1,-1,88,90,92,94,96,-1,-1,98,-1,-1,100,-1,-1,-1,-1,-1,102,-1,-1,104,106,108,110,112,114,116,118,120,122,-1,-1,-1,-1,-1,-1,-1,-1,-1,-1,-1,-1,-1,-1,124,126,128,130,-1,-1,132,-1,134,-1,136,-1,138,140,142,144,-1,146,148,150,152,-1,-1,-1,154,-1,-1,156,-1,-1,-1,-1,-1,-1,158,160,162,164,-1,-1,166,-1,-1,168,170,-1,-1,-1,-1,-1,-1,-1,-1,-1,172,174,-1,176,-1,-1,-1,-1,-1,-1,-1,-1,-1,-1,178,-1,180,182,-1,-1,-1,-1,184,186,-1,-1,188,-1,-1,-1,-1,190,192,-1,-1,-1],"split_conditions":[1.0256E3,4.5E1,3.31E1,1.0008E3,8E0,3E0,3E0,9E1,1.99E1,6.8E1,4.21E1,1.0273E3,1.0535377E1,-1.1155416E0,3.09E1,9.963E2,1.3197627E0,1E1,2.5E2,1.0176E3,1.8E2,1.4E1,8E0,3.09E1,6.46236E0,6.419426E0,3.5E1,2.2E1,4.3E1,1.8156514E-1,3.6E1,2E0,1E1,1.0027E3,7E0,6E1,2E2,2.4E1,5.4E1,-3.4601147E0,-3.0326967E0,5E0,9.552829E0,6E0,1.892642E0,5E0,-3.0929857E-1,6E0,3.5007572E-1,1.3E1,1.7E1,1.6E1,1.2E2,-9.990886E0,-3.0535731E0,1.0023E3,1.0172E3,4.1794086E0,3.8639152E0,-1.5409402E0,4.3E1,1E1,7E0,1.3E1,7E0,-1.5286058E0,-1.6497647E0,4E0,9.090991E0,4.311453E0,8E0,5.2816935E-2,1.9469717E-1,4.4917282E-1,4.1435644E-1,-1.1983949E0,1.6E1,-8.0290955E-1,-9.2747873E-1,4.5E1,1.7E1,4E0,1.5E1,6E0,3.4E1,1E0,9E0,9E1,1.5E1,8.9675695E-1,1.138374E0,4.7539076E-1,2.1368013E-1,-3.8126874E-1,-6.614287E-1,-1.0309905E0,-9.5691776E-1,7.112388E0,7.9559107E0,3.5802712E0,3.0016258E0,-1.0120757E0,-1.1094903E0,8E0,5E0,3.5E1,2.6E1,-1.8249483E0,-2.2464087E0,1.3E1,-2.028267E0,8E1,1.5029088E0,7E0,2.1102026E0,1.0168E3,2E2,9E0,6.5E1,3.5227506E0,7E0,1.4E1,1.7E1,5E-2,-3.003269E0,-3.068461E0,-3.3595116E0,4E1,-1.9761082E0,-2.190393E0,1.8E1,-5.9901763E-2,-3.3110532E-1,1.0912402E0,1.25302E0,1.8405657E0,1.6350793E0,1.0129E3,1E1,9E0,1.5E1,2.0745971E0,1.6796646E0,1E1,1.2999998E0,9.3009514E-1,1.2E2,1E1,-4.2503652E-1,-6.089755E-1,-4.8846427E-1,-2.814947E0,-2.57722E0,-2.414686E0,-2.7544773E0,-1.778305E0,-1.9773995E0,3.31E1,2.5E2,5.4252505E-1,1.2E1,7.787449E-1,9.589343E-1,1.1833924E0,1.487619E0,1.1102465E0,9.460937E-1,4.8182684E-1,2.814314E-1,-3.2776543E-1,-2.853674E-1,1E1,8.7731665E-1,1.8E2,9E0,9.888875E-1,1.3225594E0,8.16487E-1,7.145991E-1,3E0,1E1,9.745257E-2,4.9587972E-2,1E1,3.0054197E-1,2.6994553E-1,2.5029168E-1,3.6357754E-1,1.4E1,1.2E1,4.4224963E-1,5.7745516E-1,5.2301806E-1],"split_indices":[14,3,7,14,22,24,3,4,8,11,7,14,0,0,8,14,0,0,4,14,3,0,0,8,0,0,12,3,7,0,7,19,0,14,0,3,3,1,11,0,0,0,0,0,0,0,0,0,0,0,0,3,4,0,0,14,14,0,0,0,7,0,0,0,0,0,0,3,0,0,0,0,0,0,0,0,0,0,0,12,0,2,0,0,8,19,0,3,0,0,0,0,0,0,0,0,0,0,0,0,0,0,0,22,0,3,1,0,0,0,0,3,0,0,0,14,4,0,3,0,0,0,0,16,0,0,0,12,0,0,0,0,0,0,0,0,0,14,0,0,0,0,0,0,0,0,3,0,0,0,0,0,0,0,0,0,0,8,3,0,0,0,0,0,0,0,0,0,0,0,0,0,0,4,0,0,0,0,0,18,0,0,0,0,0,0,0,0,0,0,0,0,0],"split_type":[0,0,0,0,0,0,0,0,0,0,0,0,0,0,0,0,0,0,0,0,0,0,0,0,0,0,0,0,0,0,0,0,0,0,0,0,0,0,0,0,0,0,0,0,0,0,0,0,0,0,0,0,0,0,0,0,0,0,0,0,0,0,0,0,0,0,0,0,0,0,0,0,0,0,0,0,0,0,0,0,0,0,0,0,0,0,0,0,0,0,0,0,0,0,0,0,0,0,0,0,0,0,0,0,0,0,0,0,0,0,0,0,0,0,0,0,0,0,0,0,0,0,0,0,0,0,0,0,0,0,0,0,0,0,0,0,0,0,0,0,0,0,0,0,0,0,0,0,0,0,0,0,0,0,0,0,0,0,0,0,0,0,0,0,0,0,0,0,0,0,0,0,0,0,0,0,0,0,0,0,0,0,0,0,0,0,0,0,0,0,0,0,0],"sum_hessian":[4.906E4,4.402E4,5.04E3,1.883E4,2.519E4,2.88E3,2.16E3,2.587E3,1.6243E4,1.9352E4,5.838E3,2.16E3,7.2E2,3.6E2,1.8E3,2.227E3,3.6E2,2.88E3,1.3363E4,1.3579E4,5.773E3,4.667E3,1.171E3,1.8E3,3.6E2,3.6E2,1.44E3,7.87E2,1.44E3,3.6E2,2.52E3,1.2733E4,6.3E2,1.2859E4,7.2E2,4.332E3,1.441E3,1.427E3,3.24E3,3.6E2,8.11E2,1.44E3,3.6E2,1.08E3,3.6E2,7.2E2,6.7E1,1.08E3,3.6E2,1.8E3,7.2E2,1.0494E4,2.239E3,2.7E2,3.6E2,2.443E3,1.0416E4,3.6E2,3.6E2,3.6E2,3.972E3,7.21E2,7.2E2,7.07E2,7.2E2,2.88E3,3.6E2,1.08E3,3.6E2,3.6E2,7.2E2,3.6E2,3.6E2,7.2E2,3.6E2,3.6E2,1.44E3,3.6E2,3.6E2,6.84E3,3.654E3,1.44E3,7.99E2,1.44E3,1.003E3,8.616E3,1.8E3,1.092E3,2.88E3,3.61E2,3.6E2,3.6E2,3.6E2,3.47E2,3.6E2,3.6E2,3.6E2,3.6E2,7.2E2,3.6E2,3.6E2,1.08E3,3.6E2,5.76E3,1.08E3,2.574E3,1.08E3,3.6E2,1.08E3,7.2E2,7.9E1,7.2E2,7.2E2,7.2E2,2.83E2,6.456E3,2.16E3,7.2E2,1.08E3,1.2E1,1.08E3,1.8E3,1.08E3,5.04E3,7.2E2,3.6E2,7.2E2,2.214E3,3.6E2,3.6E2,7.2E2,3.6E2,3.6E2,3.6E2,3.6E2,3.6E2,3.6E2,5.376E3,1.08E3,1.08E3,1.08E3,3.6E2,3.6E2,7.2E2,3.6E2,3.6E2,7.2E2,1.44E3,3.6E2,7.2E2,3.6E2,4.68E3,3.6E2,1.512E3,7.02E2,3.6E2,3.6E2,1.8E3,3.576E3,3.6E2,7.2E2,3.6E2,7.2E2,7.2E2,3.6E2,3.6E2,3.6E2,3.6E2,3.6E2,3.6E2,1.08E3,1.08E3,7.2E2,2.855E3,7.21E2,3.6E2,3.6E2,3.6E2,7.2E2,1.8E3,1.055E3,3.6E2,3.61E2,1.44E3,3.6E2,3.6E2,6.95E2,3.6E2,1.08E3,7.2E2,3.6E2,3.6E2,3.6E2],"tree_param":{"num_deleted":"0","num_feature":"25","num_nodes":"193","size_leaf_vector":"1"}},{"base_weights":[9.609233E-4,-6.439285E0,5.6241005E1,-1.758798E1,1.8949429E0,7.8000275E1,2.7205969E1,3.9812946E0,-2.1023323E1,7.024764E0,-1.5107853E1,7.2348076E1,9.483301E0,-1.0042967E0,3.4657196E1,2.6994443E0,1.188152E0,-7.768755E0,-2.3879158E1,1.0083983E1,-1.714981E-1,-1.174023E1,-2.8507988E1,7.5147995E1,5.8179126E0,5.779261E0,2.883725E1,7.8022283E-1,3.7470827E0,1.6345748E-1,-9.112204E0,-2.2366827E1,-5.4361145E1,8.615839E0,3.625631E1,-2.2737024E0,6.1454387E0,-6.866155E0,-1.3884147E1,-3.1150618E0,-2.729802E0,7.237671E1,8.600192E0,3.275059E1,1.7039025E0,1.1156946E0,-2.7882385E-1,3.942458E0,3.1516597E-1,-1.00658245E1,-8.390498E0,-2.4230337E1,-1.3625802E1,-8.995486E0,-2.7490633E0,1.3937954E1,7.366356E0,3.7626252E0,3.4785936E0,-1.3872715E0,-1.2192054E0,9.172089E0,3.1060674E0,-4.7233887E0,-8.960763E0,-1.3757994E0,-1.4852465E0,6.9148125E1,8.184409E0,3.881501E0,2.9668753E1,4.7548976E-2,1.752809E-1,4.0431938E-1,3.7303445E-1,-1.0788873E0,-9.6898377E-1,-7.2284025E-1,-8.770819E0,-2.6054184E1,-2.0810045E1,-1.928428E1,-3.4164362E0,1.2056022E1,1.6625134E1,6.2232647E0,1.2831459E1,5.4154444E0,-3.73585E0,8.073288E-1,1.0248526E0,4.2798218E-1,1.923709E-1,-3.432527E-1,-5.9546816E-1,-9.281785E-1,-8.61492E-1,6.403118E0,7.1614237E0,3.2232368E0,2.7022953E0,-8.9694226E-1,-8.349866E-1,-2.542283E1,-2.9394766E1,-2.2033358E1,-1.7876804E1,-1.6429586E0,-2.0219767E0,-1.7625073E0,-1.8279765E0,1.0567049E1,1.3528274E0,1.5666913E1,1.8999256E0,5.011069E0,9.842389E0,1.6922827E1,1.0090749E1,3.197575E0,5.0910234E0,-2.900181E0,-5.12466E0,-2.4790312E1,-2.6046526E1,-2.7624657E0,-3.0240276E0,-2.2714916E1,-1.7790451E0,-1.97196E0,-1.6929335E1,-5.3927757E-2,-2.9808548E-1,9.824176E-1,1.128065E0,1.657018E0,1.472025E0,4.292554E0,8.580396E0,8.098438E0,1.1577234E1,1.8677132E0,1.5121642E0,9.269204E0,1.1703612E0,8.373443E-1,3.4404762E0,-2.6661081E0,-3.8264936E-1,-5.4816216E-1,-4.3975312E-1,-2.4374104E0,-2.6003397E0,-2.779781E0,-2.5785415E0,-2.1733784E1,-2.4794204E0,-1.6009687E0,-1.7802086E0,7.2099442E0,2.8224635E0,4.884242E-1,1.0419135E1,7.010858E-1,8.6317503E-1,1.0652184E0,1.3392701E0,9.9952805E-1,8.517451E-1,4.337761E-1,2.5336608E-1,-2.9508033E-1,-2.568568E-1,-2.2791183E0,-2.1383865E0,6.744983E0,7.897064E-1,3.3675146E0,6.6250765E-1,8.902723E-1,1.1906686E0,7.3506343E-1,6.4323825E-1,3.9823627E0,2.3157067E0,8.7735295E-2,4.4642564E-2,4.2994256E0,2.705715E-1,2.4302445E-1,2.2529712E-1,3.273196E-1,4.638158E0,4.960529E0,3.981461E-1,5.1986974E-1,4.708619E-1],"categories":[],"categories_nodes":[],"categories_segments":[],"categories_sizes":[],"default_left":[1,0,0,0,1,0,0,0,0,0,0,0,0,0,0,0,0,0,1,0,1,0,0,0,0,0,1,0,0,0,0,0,0,0,0,0,0,0,0,0,0,1,0,0,0,0,0,0,0,0,0,0,0,0,0,0,0,0,0,0,0,0,0,0,0,0,0,0,0,0,0,0,0,0,0,0,0,0,0,0,0,0,0,0,0,0,1,0,1,0,0,0,0,0,0,0,0,0,0,0,0,0,0,0,0,0,0,0,0,0,0,0,0,0,0,0,0,0,0,0,0,1,0,1,0,0,0,0,0,0,0,0,0,0,0,0,0,0,0,0,0,0,0,0,0,0,0,0,0,0,0,0,0,0,0,0,0,0,0,0,1,0,0,0,0,0,0,0,0,0,0,0,0,0,0,0,0,1,0,0,0,0,0,0,0,0,0,0,0,0,0,0,0,0,0,0,0],"id":1,"left_children":[1,3,5,7,9,11,13,15,17,19,21,23,-1,-1,25,27,-1,29,31,33,35,37,39,41,-1,-1,43,45,47,-1,49,51,53,55,57,59,61,63,65,-1,-1,67,-1,69,-1,71,-1,73,-1,75,77,79,81,-1,-1,83,85,-1,-1,-1,87,89,91,93,95,-1,-1,97,-1,-1,99,-1,-1,-1,-1,-1,-1,-1,101,103,105,107,109,111,113,115,117,119,121,-1,-1,-1,-1,-1,-1,-1,-1,-1,-1,-1,-1,-1,-1,123,125,127,129,-1,-1,131,-1,133,-1,135,-1,137,139,141,143,-1,145,147,149,151,153,-1,-1,155,-1,-1,157,-1,-1,-1,-1,-1,-1,159,161,163,165,-1,-1,167,-1,-1,169,171,-1,-1,-1,-1,-1,-1,-1,173,-1,-1,-1,175,177,-1,179,-1,-1,-1,-1,-1,-1,-1,-1,-1,-1,-1,-1,181,-1,183,185,-1,-1,-1,-1,187,189,-1,-1,191,-1,-1,-1,-1,193,195,-1,-1,-1],"loss_changes":[1.777024E7,4.0902788E6,3.182687E6,1.3954195E6,2.197298E6,2.67244E5,6.0013425E5,2.6176363E4,6.146965E5,4.26057E5,2.631595E5,8.1357E4,0E0,0E0,2.408325E5,4.4768057E3,0E0,3.6410234E4,6.148485E5,5.2149562E5,7.668976E4,4.8683438E4,2.8971875E3,4.7949E4,0E0,0E0,6.5973625E4,9.4643994E2,1.5520703E2,0E0,1.6505781E3,2.07094E5,6.010289E5,8.5415E4,1.43375E2,5.298055E4,1.3236641E4,6.3669062E3,1.91625E2,0E0,0E0,3.83865E4,0E0,1.905175E4,0E0,2.932506E2,0E0,8.017578E0,0E0,1.8933594E2,5.734844E2,6.49265E4,1.2933775E5,0E0,0E0,1.2159094E4,6.4996312E4,0E0,0E0,0E0,6.635764E4,7.712344E2,9.9236914E2,1.104877E3,8.203125E-2,0E0,0E0,9.0555E3,0E0,0E0,4.019375E3,0E0,0E0,0E0,0E0,0E0,0E0,0E0,1.54765625E1,1.36805E4,1.2721375E4,3.516E3,1.963409E4,3.0159375E3,1.986375E3,3.775422E4,2.0024312E4,9.255295E3,3.3287812E3,0E0,0E0,0E0,0E0,0E0,0E0,0E0,0E0,0E0,0E0,0E0,0E0,0E0,0E0,1.62725E3,7.824375E2,7.042125E3,1.5535938E3,0E0,0E0,1.0729124E3,0E0,2.713828E2,0E0,3.7260938E2,0E0,1.6522875E4,6.4443125E3,1.9957812E3,1.3238828E3,0E0,5.8278223E3,3.8029883E2,2.564746E2,8.2075E2,6.00625E2,0E0,0E0,3.979875E3,0E0,0E0,2.9367188E2,0E0,0E0,0E0,0E0,0E0,0E0,2.3040672E4,7.295867E3,5.664844E2,1.6727656E3,0E0,0E0,3.0841016E2,0E0,0E0,5.75667E2,3.2436523E1,0E0,0E0,0E0,0E0,0E0,0E0,0E0,7.25E1,0E0,0E0,0E0,5.221328E2,4.208924E3,0E0,1.5203906E3,0E0,0E0,0E0,0E0,0E0,0E0,0E0,0E0,0E0,0E0,0E0,0E0,1.5738281E2,0E0,1.8377598E3,3.3126617E1,0E0,0E0,0E0,0E0,7.1737305E2,2.112793E0,0E0,0E0,4.8573242E2,0E0,0E0,0E0,0E0,2.0909766E2,1.8779297E1,0E0,0E0,0E0],"parents":[2147483647,0,0,1,1,2,2,3,3,4,4,5,5,6,6,7,7,8,8,9,9,10,10,11,11,14,14,15,15,17,17,18,18,19,19,20,20,21,21,22,22,23,23,26,26,27,27,28,28,30,30,31,31,32,32,33,33,34,34,35,35,36,36,37,37,38,38,41,41,43,43,45,45,47,47,49,49,50,50,51,51,52,52,55,55,56,56,60,60,61,61,62,62,63,63,64,64,67,67,70,70,78,78,79,79,80,80,81,81,82,82,83,83,84,84,85,85,86,86,87,87,88,88,103,103,104,104,105,105,106,106,109,109,111,111,113,113,115,115,116,116,117,117,118,118,120,120,121,121,122,122,123,123,124,124,127,127,130,130,137,137,138,138,139,139,140,140,143,143,146,146,147,147,155,155,159,159,160,160,162,162,175,175,177,177,178,178,183,183,184,184,187,187,192,192,193,193],"right_children":[2,4,6,8,10,12,14,16,18,20,22,24,-1,-1,26,28,-1,30,32,34,36,38,40,42,-1,-1,44,46,48,-1,50,52,54,56,58,60,62,64,66,-1,-1,68,-1,70,-1,72,-1,74,-1,76,78,80,82,-1,-1,84,86,-1,-1,-1,88,90,92,94,96,-1,-1,98,-1,-1,100,-1,-1,-1,-1,-1,-1,-1,102,104,106,108,110,112,114,116,118,120,122,-1,-1,-1,-1,-1,-1,-1,-1,-1,-1,-1,-1,-1,-1,124,126,128,130,-1,-1,132,-1,134,-1,136,-1,138,140,142,144,-1,146,148,150,152,154,-1,-1,156,-1,-1,158,-1,-1,-1,-1,-1,-1,160,162,164,166,-1,-1,168,-1,-1,170,172,-1,-1,-1,-1,-1,-1,-1,174,-1,-1,-1,176,178,-1,180,-1,-1,-1,-1,-1,-1,-1,-1,-1,-1,-1,-1,182,-1,184,186,-1,-1,-1,-1,188,190,-1,-1,192,-1,-1,-1,-1,194,196,-1,-1,-1],"split_conditions":[1.0256E3,4.5E1,3.31E1,1.0008E3,8E0,3E0,3E0,9E1,1.99E1,6.8E1,4.21E1,1.0273E3,9.483301E0,-1.0042967E0,3.09E1,9.963E2,1.188152E0,1E1,2.5E2,1.0176E3,1.8E2,1.4E1,8E0,3.09E1,5.8179126E0,5.779261E0,3.5E1,2.2E1,4.3E1,1.6345748E-1,3.2E1,2E0,1E1,1.0027E3,7E0,6E1,2E2,2.4E1,5.4E1,-3.1150618E0,-2.729802E0,5E0,8.600192E0,6E0,1.7039025E0,5E0,-2.7882385E-1,6E0,3.1516597E-1,1.3E1,2.6E1,1.6E1,1.2E2,-8.995486E0,-2.7490633E0,1.0023E3,1.0172E3,3.7626252E0,3.4785936E0,-1.3872715E0,4.3E1,1E1,7E0,1.3E1,7E0,-1.3757994E0,-1.4852465E0,4E0,8.184409E0,3.881501E0,8E0,4.7548976E-2,1.752809E-1,4.0431938E-1,3.7303445E-1,-1.0788873E0,-9.6898377E-1,-7.2284025E-1,1.6E1,4.5E1,1.7E1,4E0,1.5E1,6E0,3.4E1,1E0,9E0,9E1,1.5E1,8.073288E-1,1.0248526E0,4.2798218E-1,1.923709E-1,-3.432527E-1,-5.9546816E-1,-9.281785E-1,-8.61492E-1,6.403118E0,7.1614237E0,3.2232368E0,2.7022953E0,-8.9694226E-1,-8.349866E-1,3E-2,5E0,3.5E1,2.6E1,-1.6429586E0,-2.0219767E0,1.3E1,-1.8279765E0,8E1,1.3528274E0,7E0,1.8999256E0,1.0168E3,2E2,9E0,6.5E1,3.197575E0,7E0,1.4E1,1.7E1,3E1,1.3E1,-2.7624657E0,-3.0240276E0,4E1,-1.7790451E0,-1.97196E0,1.8E1,-5.3927757E-2,-2.9808548E-1,9.824176E-1,1.128065E0,1.657018E0,1.472025E0,1.0129E3,1E1,9E0,1.5E1,1.8677132E0,1.5121642E0,1E1,1.1703612E0,8.373443E-1,1.2E2,1E1,-3.8264936E-1,-5.4816216E-1,-4.3975312E-1,-2.4374104E0,-2.6003397E0,-2.779781E0,-2.5785415E0,8E0,-2.4794204E0,-1.6009687E0,-1.7802086E0,3.31E1,2.5E2,4.884242E-1,1.2E1,7.010858E-1,8.6317503E-1,1.0652184E0,1.3392701E0,9.9952805E-1,8.517451E-1,4.337761E-1,2.5336608E-1,-2.9508033E-1,-2.568568E-1,-2.2791183E0,-2.1383865E0,1E1,7.897064E-1,1.8E2,9E0,8.902723E-1,1.1906686E0,7.3506343E-1,6.4323825E-1,3E0,1E1,8.7735295E-2,4.4642564E-2,1E1,2.705715E-1,2.4302445E-1,2.2529712E-1,3.273196E-1,1.4E1,1.2E1,3.981461E-1,5.1986974E-1,4.708619E-1],"split_indices":[14,3,7,14,22,24,3,4,8,11,7,14,0,0,8,14,0,0,4,14,3,0,0,8,0,0,12,3,7,0,7,19,0,14,0,3,3,1,11,0,0,0,0,0,0,0,0,0,0,0,1,3,4,0,0,14,14,0,0,0,7,0,0,0,0,0,0,3,0,0,0,0,0,0,0,0,0,0,0,12,0,2,0,0,8,19,0,3,0,0,0,0,0,0,0,0,0,0,0,0,0,0,0,15,0,3,1,0,0,0,0,3,0,0,0,14,4,0,3,0,0,0,0,1,4,0,0,12,0,0,0,0,0,0,0,0,0,14,0,0,0,0,0,0,0,0,3,0,0,0,0,0,0,0,0,2,0,0,0,8,3,0,0,0,0,0,0,0,0,0,0,0,0,0,0,0,0,4,0,0,0,0,0,18,0,0,0,0,0,0,0,0,0,0,0,0,0],"split_type":[0,0,0,0,0,0,0,0,0,0,0,0,0,0,0,0,0,0,0,0,0,0,0,0,0,0,0,0,0,0,0,0,0,0,0,0,0,0,0,0,0,0,0,0,0,0,0,0,0,0,0,0,0,0,0,0,0,0,0,0,0,0,0,0,0,0,0,0,0,0,0,0,0,0,0,0,0,0,0,0,0,0,0,0,0,0,0,0,0,0,0,0,0,0,0,0,0,0,0,0,0,0,0,0,0,0,0,0,0,0,0,0,0,0,0,0,0,0,0,0,0,0,0,0,0,0,0,0,0,0,0,0,0,0,0,0,0,0,0,0,0,0,0,0,0,0,0,0,0,0,0,0,0,0,0,0,0,0,0,0,0,0,0,0,0,0,0,0,0,0,0,0,0,0,0,0,0,0,0,0,0,0,0,0,0,0,0,0,0,0,0,0,0,0,0,0,0],"sum_hessian":[4.906E4,4.402E4,5.04E3,1.883E4,2.519E4,2.88E3,2.16E3,2.587E3,1.6243E4,1.9352E4,5.838E3,2.16E3,7.2E2,3.6E2,1.8E3,2.227E3,3.6E2,2.88E3,1.3363E4,1.3579E4,5.773E3,4.667E3,1.171E3,1.8E3,3.6E2,3.6E2,1.44E3,7.87E2,1.44E3,3.6E2,2.52E3,1.2733E4,6.3E2,1.2859E4,7.2E2,4.332E3,1.441E3,1.427E3,3.24E3,3.6E2,8.11E2,1.44E3,3.6E2,1.08E3,3.6E2,7.2E2,6.7E1,1.08E3,3.6E2,1.08E3,1.44E3,1.0494E4,2.239E3,2.7E2,3.6E2,2.443E3,1.0416E4,3.6E2,3.6E2,3.6E2,3.972E3,7.21E2,7.2E2,7.07E2,7.2E2,2.88E3,3.6E2,1.08E3,3.6E2,3.6E2,7.2E2,3.6E2,3.6E2,7.2E2,3.6E2,3.6E2,7.2E2,3.6E2,1.08E3,6.84E3,3.654E3,1.44E3,7.99E2,1.44E3,1.003E3,8.616E3,1.8E3,1.092E3,2.88E3,3.61E2,3.6E2,3.6E2,3.6E2,3.47E2,3.6E2,3.6E2,3.6E2,3.6E2,7.2E2,3.6E2,3.6E2,7.2E2,3.6E2,5.76E3,1.08E3,2.574E3,1.08E3,3.6E2,1.08E3,7.2E2,7.9E1,7.2E2,7.2E2,7.2E2,2.83E2,6.456E3,2.16E3,7.2E2,1.08E3,1.2E1,1.08E3,1.8E3,1.08E3,2.88E3,2.88E3,3.6E2,7.2E2,2.214E3,3.6E2,3.6E2,7.2E2,3.6E2,3.6E2,3.6E2,3.6E2,3.6E2,3.6E2,5.376E3,1.08E3,1.08E3,1.08E3,3.6E2,3.6E2,7.2E2,3.6E2,3.6E2,7.2E2,1.44E3,3.6E2,7.2E2,3.6E2,2.16E3,7.2E2,3.6E2,2.52E3,1.512E3,7.02E2,3.6E2,3.6E2,1.8E3,3.576E3,3.6E2,7.2E2,3.6E2,7.2E2,7.2E2,3.6E2,3.6E2,3.6E2,3.6E2,3.6E2,3.6E2,1.08E3,3.6E2,1.152E3,1.08E3,7.2E2,2.855E3,7.21E2,3.6E2,3.6E2,3.6E2,7.2E2,1.8E3,1.055E3,3.6E2,3.61E2,1.44E3,3.6E2,3.6E2,6.95E2,3.6E2,1.08E3,7.2E2,3.6E2,3.6E2,3.6E2],"tree_param":{"num_deleted":"0","num_feature":"25","num_nodes":"197","size_leaf_vector":"1"}},{"base_weights":[1.637007E-3,-5.7959027E0,5.062919E1,-1.5831831E1,1.7064742E0,7.0216095E1,2.449291E1,3.584022E0,-1.8924198E1,6.3242145E0,-1.359903E1,6.5130005E1,8.536285E0,-9.0414447E-1,3.1201078E1,2.4299603E0,1.069667E0,-6.993382E0,-2.1494818E1,9.078045E0,-1.5367736E-1,-1.0567407E1,-2.5662184E1,6.765004E1,5.237734E0,5.2029357E0,2.5961515E1,7.021238E-1,3.3731282E0,1.4715753E-1,-8.202765E0,-2.0132975E1,-4.894365E1,7.756291E0,3.2640713E1,-2.0460033E0,5.5325933E0,-6.18145E0,-1.2496619E1,-2.8044195E0,-2.457158E0,6.515413E1,7.742556E0,2.9484604E1,1.5339856E0,1.0044295E0,-2.51353E-1,3.5489218E0,2.8373778E-1,-9.06113E0,-7.553151E0,-2.1810179E1,-1.2265835E1,-8.0992565E0,-2.474919E0,1.2547641E1,6.631417E0,3.3874042E0,3.1316965E0,-1.2489289E0,-1.0965766E0,8.257417E0,2.7963169E0,-4.252376E0,-8.067168E0,-1.2382678E1,-1.337132E0,6.2245853E1,7.368235E0,3.4944265E0,2.6710094E1,4.2807505E-2,1.5780015E-1,3.639427E-1,3.358331E-1,-9.7129744E-1,-8.722187E-1,-6.5075654E-1,-7.8953376E0,-2.3451128E1,-1.8732874E1,-1.7358402E1,-3.0775146E0,1.0852832E1,1.4967631E1,5.6022468E0,1.1551866E1,4.8782244E0,-3.3629289E0,7.2681755E-1,9.226524E-1,3.8530287E-1,1.7318591E-1,-3.0902514E-1,-5.360872E-1,-8.356164E-1,-7.755825E-1,-1.2677052E1,-1.2199115E0,5.764581E0,6.4462733E0,2.901806E0,2.432814E0,-8.2772046E-1,-7.693189E-1,-2.2882347E1,-2.6460653E1,-1.9833382E1,-1.6094072E1,-1.4791193E0,-1.8199663E0,-1.5867413E0,-1.647464E0,9.513275E0,1.2177336E0,1.4104569E1,1.7106012E0,4.511094E0,8.859984E0,1.5235229E1,9.084469E0,2.9024148E0,4.583335E0,-2.610675E0,-4.61311E0,-1.2110212E0,-1.2943281E0,-2.231303E1,-2.3443724E1,-2.486986E0,-2.7220454E0,-2.0446531E1,-1.6016327E0,-1.7753108E0,-1.5241082E1,-4.8550237E-2,-2.683585E-1,8.844476E-1,1.0155723E0,1.4917755E0,1.3252312E0,3.8641803E0,7.724733E0,7.2900333E0,1.042174E1,1.68146E0,1.3613654E0,8.344844E0,1.0536505E0,7.538421E-1,3.0973856E0,-2.3998747E0,-3.4448937E-1,-4.9342248E-1,-3.9589912E-1,-2.1937824E1,-2.3406658E0,-2.5025728E0,-2.3207886E0,-1.9563318E1,-2.2318304E0,-1.441314E0,-1.6026806E0,6.4901476E0,2.5409398E0,4.3971616E-1,9.380113E0,6.3117194E-1,7.7697575E-1,9.5884466E-1,1.2057148E0,8.9985067E-1,7.6680654E-1,3.905186E-1,2.2810057E-1,-2.6565465E-1,-2.311939E-1,-2.0771472E0,-2.215943E0,-2.0518384E0,-1.9247324E0,6.071748E0,7.108456E-1,3.0316226E0,5.964365E-1,8.01493E-1,1.0719311E0,6.617594E-1,5.7900256E-1,3.5852323E0,2.0845747E0,7.89858E-2,4.0190175E-2,3.8706768E0,2.4358955E-1,2.1879064E-1,2.0279837E-1,2.946771E-1,4.1756344E0,4.4658546E0,3.584431E-1,4.6802709E-1,4.239068E-1],"categories":[],"categories_nodes":[],"categories_segments":[],"categories_sizes":[],"default_left":[1,0,0,0,1,0,0,0,0,0,0,0,0,0,0,0,0,0,1,0,1,0,0,0,0,0,1,0,0,0,0,0,0,0,0,0,0,0,0,0,0,1,0,0,0,0,0,0,0,0,0,0,0,0,0,0,0,0,0,0,0,0,0,0,0,0,0,0,0,0,0,0,0,0,0,0,0,0,0,0,0,0,0,0,0,0,1,0,1,0,0,0,0,0,0,0,0,0,0,0,0,0,0,0,0,0,0,0,0,0,0,0,0,0,0,0,0,0,0,0,0,0,0,1,0,0,0,1,0,0,0,0,0,0,0,0,0,0,0,0,0,0,0,0,0,0,0,0,0,0,0,0,0,0,0,0,0,0,0,0,0,0,0,0,1,0,0,0,0,0,0,0,0,0,0,0,0,0,0,0,0,0,0,1,0,0,0,0,0,0,0,0,0,0,0,0,0,0,0,0,0,0,0],"id":2,"left_children":[1,3,5,7,9,11,13,15,17,19,21,23,-1,-1,25,27,-1,29,31,33,35,37,39,41,-1,-1,43,45,47,-1,49,51,53,55,57,59,61,63,65,-1,-1,67,-1,69,-1,71,-1,73,-1,75,77,79,81,-1,-1,83,85,-1,-1,-1,87,89,91,93,95,97,-1,99,-1,-1,101,-1,-1,-1,-1,-1,-1,-1,103,105,107,109,111,113,115,117,119,121,123,-1,-1,-1,-1,-1,-1,-1,-1,125,-1,-1,-1,-1,-1,-1,-1,127,129,131,133,-1,-1,135,-1,137,-1,139,-1,141,143,145,147,-1,149,151,153,-1,-1,155,157,-1,-1,159,-1,-1,161,-1,-1,-1,-1,-1,-1,163,165,167,169,-1,-1,171,-1,-1,173,175,-1,-1,-1,177,-1,-1,-1,179,-1,-1,-1,181,183,-1,185,-1,-1,-1,-1,-1,-1,-1,-1,-1,-1,-1,-1,-1,-1,187,-1,189,191,-1,-1,-1,-1,193,195,-1,-1,197,-1,-1,-1,-1,199,201,-1,-1,-1],"loss_changes":[1.4400444E7,3.314514E6,2.578914E6,1.1306985E6,1.7805062E6,2.16386E5,4.8640788E5,2.1217441E4,4.980465E5,3.4523994E5,2.132665E5,6.5905E4,0E0,0E0,1.9519412E5,3.6284697E3,0E0,2.9505969E4,4.98574E5,4.2268312E5,6.214116E4,3.9420812E4,2.3555625E3,3.88975E4,0E0,0E0,5.3471438E4,7.685476E2,1.2564453E2,0E0,1.3372656E3,1.677555E5,4.8727675E5,6.9227875E4,1.163125E2,4.2948582E4,1.0728273E4,5.1603164E3,1.5740625E2,0E0,0E0,3.1154E4,0E0,1.54414375E4,0E0,2.3767316E2,0E0,6.4257812E0,0E0,1.5411719E2,4.641953E2,5.25575E4,1.0476097E5,0E0,0E0,9.861469E3,5.268675E4,0E0,0E0,0E0,5.381481E4,6.2510547E2,8.043257E2,8.954863E2,6.640625E-2,1.03125E0,0E0,7.308E3,0E0,0E0,3.25775E3,0E0,0E0,0E0,0E0,0E0,0E0,0E0,1.9765625E1,1.110425E4,1.0295E4,2.8429375E3,1.5951523E4,2.4408438E3,1.6116562E3,3.0590812E4,1.6229656E4,7.649541E3,2.6974004E3,0E0,0E0,0E0,0E0,0E0,0E0,0E0,0E0,6.390625E0,0E0,0E0,0E0,0E0,0E0,0E0,0E0,1.3185E3,6.29625E2,5.699125E3,1.2591875E3,0E0,0E0,8.695836E2,0E0,2.1997266E2,0E0,3.02E2,0E0,1.3393906E4,5.2225312E3,1.6176094E3,1.0730312E3,0E0,4.7234375E3,3.084453E2,2.0752734E2,0E0,0E0,6.685E2,4.94E2,0E0,0E0,3.2250625E3,0E0,0E0,2.3803125E2,0E0,0E0,0E0,0E0,0E0,0E0,1.8667445E4,5.913332E3,4.5829688E2,1.3575469E3,0E0,0E0,2.4996094E2,0E0,0E0,4.6657178E2,2.6382812E1,0E0,0E0,0E0,9.8375E1,0E0,0E0,0E0,6.16875E1,0E0,0E0,0E0,4.227578E2,3.4111309E3,0E0,1.2322539E3,0E0,0E0,0E0,0E0,0E0,0E0,0E0,0E0,0E0,0E0,0E0,0E0,0E0,0E0,1.2791797E2,0E0,1.4899141E3,2.6849396E1,0E0,0E0,0E0,0E0,5.8142773E2,1.7382812E0,0E0,0E0,3.9369922E2,0E0,0E0,0E0,0E0,1.694707E2,1.5219727E1,0E0,0E0,0E0],"parents":[2147483647,0,0,1,1,2,2,3,3,4,4,5,5,6,6,7,7,8,8,9,9,10,10,11,11,14,14,15,15,17,17,18,18,19,19,20,20,21,21,22,22,23,23,26,26,27,27,28,28,30,30,31,31,32,32,33,33,34,34,35,35,36,36,37,37,38,38,41,41,43,43,45,45,47,47,49,49,50,50,51,51,52,52,55,55,56,56,60,60,61,61,62,62,63,63,64,64,65,65,67,67,70,70,78,78,79,79,80,80,81,81,82,82,83,83,84,84,85,85,86,86,87,87,88,88,97,97,105,105,106,106,107,107,108,108,111,111,113,113,115,115,117,117,118,118,119,119,120,120,122,122,123,123,124,124,127,127,128,128,131,131,134,134,141,141,142,142,143,143,144,144,147,147,150,150,151,151,155,155,159,159,163,163,164,164,166,166,181,181,183,183,184,184,189,189,190,190,193,193,198,198,199,199],"right_children":[2,4,6,8,10,12,14,16,18,20,22,24,-1,-1,26,28,-1,30,32,34,36,38,40,42,-1,-1,44,46,48,-1,50,52,54,56,58,60,62,64,66,-1,-1,68,-1,70,-1,72,-1,74,-1,76,78,80,82,-1,-1,84,86,-1,-1,-1,88,90,92,94,96,98,-1,100,-1,-1,102,-1,-1,-1,-1,-1,-1,-1,104,106,108,110,112,114,116,118,120,122,124,-1,-1,-1,-1,-1,-1,-1,-1,126,-1,-1,-1,-1,-1,-1,-1,128,130,132,134,-1,-1,136,-1,138,-1,140,-1,142,144,146,148,-1,150,152,154,-1,-1,156,158,-1,-1,160,-1,-1,162,-1,-1,-1,-1,-1,-1,164,166,168,170,-1,-1,172,-1,-1,174,176,-1,-1,-1,178,-1,-1,-1,180,-1,-1,-1,182,184,-1,186,-1,-1,-1,-1,-1,-1,-1,-1,-1,-1,-1,-1,-1,-1,188,-1,190,192,-1,-1,-1,-1,194,196,-1,-1,198,-1,-1,-1,-1,200,202,-1,-1,-1],"split_conditions":[1.0256E3,4.5E1,3.31E1,1.0008E3,8E0,3E0,3E0,9E1,1.99E1,6.8E1,4.21E1,1.0273E3,8.536285E0,-9.0414447E-1,3.09E1,9.963E2,1.069667E0,1E1,2.5E2,1.0176E3,1.8E2,1.4E1,8E0,3.09E1,5.237734E0,5.2029357E0,3.5E1,2.2E1,4.3E1,1.4715753E-1,3.2E1,2E0,1E1,1.0027E3,7E0,6E1,2E2,2.4E1,5.4E1,-2.8044195E0,-2.457158E0,5E0,7.742556E0,6E0,1.5339856E0,5E0,-2.51353E-1,6E0,2.8373778E-1,1.3E1,2.6E1,1.6E1,1.2E2,-8.0992565E0,-2.474919E0,1.0023E3,1.0172E3,3.3874042E0,3.1316965E0,-1.2489289E0,4.3E1,1E1,7E0,1.3E1,7E0,3E1,-1.337132E0,4E0,7.368235E0,3.4944265E0,8E0,4.2807505E-2,1.5780015E-1,3.639427E-1,3.358331E-1,-9.7129744E-1,-8.722187E-1,-6.5075654E-1,1.5E1,4.5E1,1.7E1,4E0,1.5E1,6E0,3.4E1,1E0,9E0,9E1,1.5E1,7.2681755E-1,9.226524E-1,3.8530287E-1,1.7318591E-1,-3.0902514E-1,-5.360872E-1,-8.356164E-1,-7.755825E-1,2.89E1,-1.2199115E0,5.764581E0,6.4462733E0,2.901806E0,2.432814E0,-8.2772046E-1,-7.693189E-1,3E-2,5E0,3.5E1,2.6E1,-1.4791193E0,-1.8199663E0,1.3E1,-1.647464E0,8E1,1.2177336E0,7E0,1.7106012E0,1.0168E3,2E2,9E0,6.5E1,2.9024148E0,7E0,1.4E1,1.7E1,-1.2110212E0,-1.2943281E0,3E1,1.3E1,-2.486986E0,-2.7220454E0,4E1,-1.6016327E0,-1.7753108E0,1.8E1,-4.8550237E-2,-2.683585E-1,8.844476E-1,1.0155723E0,1.4917755E0,1.3252312E0,1.0129E3,1E1,9E0,1.5E1,1.68146E0,1.3613654E0,1E1,1.0536505E0,7.538421E-1,1.2E2,1E1,-3.4448937E-1,-4.9342248E-1,-3.9589912E-1,1.9E-1,-2.3406658E0,-2.5025728E0,-2.3207886E0,8E0,-2.2318304E0,-1.441314E0,-1.6026806E0,3.31E1,2.5E2,4.3971616E-1,1.2E1,6.3117194E-1,7.7697575E-1,9.5884466E-1,1.2057148E0,8.9985067E-1,7.6680654E-1,3.905186E-1,2.2810057E-1,-2.6565465E-1,-2.311939E-1,-2.0771472E0,-2.215943E0,-2.0518384E0,-1.9247324E0,1E1,7.108456E-1,1.8E2,9E0,8.01493E-1,1.0719311E0,6.617594E-1,5.7900256E-1,3E0,1E1,7.89858E-2,4.0190175E-2,1E1,2.4358955E-1,2.1879064E-1,2.0279837E-1,2.946771E-1,1.4E1,1.2E1,3.584431E-1,4.6802709E-1,4.239068E-1],"split_indices":[14,3,7,14,22,24,3,4,8,11,7,14,0,0,8,14,0,0,4,14,3,0,0,8,0,0,12,3,7,0,7,19,0,14,0,3,3,1,11,0,0,0,0,0,0,0,0,0,0,0,1,3,4,0,0,14,14,0,0,0,7,0,0,0,0,1,0,3,0,0,0,0,0,0,0,0,0,0,0,12,0,2,0,0,8,19,0,3,0,0,0,0,0,0,0,0,0,7,0,0,0,0,0,0,0,15,0,3,1,0,0,0,0,3,0,0,0,14,4,0,3,0,0,0,0,0,0,1,4,0,0,12,0,0,0,0,0,0,0,0,0,14,0,0,0,0,0,0,0,0,3,0,0,0,0,16,0,0,0,2,0,0,0,8,3,0,0,0,0,0,0,0,0,0,0,0,0,0,0,0,0,0,0,4,0,0,0,0,0,18,0,0,0,0,0,0,0,0,0,0,0,0,0],"split_type":[0,0,0,0,0,0,0,0,0,0,0,0,0,0,0,0,0,0,0,0,0,0,0,0,0,0,0,0,0,0,0,0,0,0,0,0,0,0,0,0,0,0,0,0,0,0,0,0,0,0,0,0,0,0,0,0,0,0,0,0,0,0,0,0,0,0,0,0,0,0,0,0,0,0,0,0,0,0,0,0,0,0,0,0,0,0,0,0,0,0,0,0,0,0,0,0,0,0,0,0,0,0,0,0,0,0,0,0,0,0,0,0,0,0,0,0,0,0,0,0,0,0,0,0,0,0,0,0,0,0,0,0,0,0,0,0,0,0,0,0,0,0,0,0,0,0,0,0,0,0,0,0,0,0,0,0,0,0,0,0,0,0,0,0,0,0,0,0,0,0,0,0,0,0,0,0,0,0,0,0,0,0,0,0,0,0,0,0,0,0,0,0,0,0,0,0,0,0,0,0,0,0,0],"sum_hessian":[4.906E4,4.402E4,5.04E3,1.883E4,2.519E4,2.88E3,2.16E3,2.587E3,1.6243E4,1.9352E4,5.838E3,2.16E3,7.2E2,3.6E2,1.8E3,2.227E3,3.6E2,2.88E3,1.3363E4,1.3579E4,5.773E3,4.667E3,1.171E3,1.8E3,3.6E2,3.6E2,1.44E3,7.87E2,1.44E3,3.6E2,2.52E3,1.2733E4,6.3E2,1.2859E4,7.2E2,4.332E3,1.441E3,1.427E3,3.24E3,3.6E2,8.11E2,1.44E3,3.6E2,1.08E3,3.6E2,7.2E2,6.7E1,1.08E3,3.6E2,1.08E3,1.44E3,1.0494E4,2.239E3,2.7E2,3.6E2,2.443E3,1.0416E4,3.6E2,3.6E2,3.6E2,3.972E3,7.21E2,7.2E2,7.07E2,7.2E2,2.88E3,3.6E2,1.08E3,3.6E2,3.6E2,7.2E2,3.6E2,3.6E2,7.2E2,3.6E2,3.6E2,7.2E2,3.6E2,1.08E3,6.84E3,3.654E3,1.44E3,7.99E2,1.44E3,1.003E3,8.616E3,1.8E3,1.092E3,2.88E3,3.61E2,3.6E2,3.6E2,3.6E2,3.47E2,3.6E2,3.6E2,3.6E2,1.08E3,1.8E3,3.6E2,7.2E2,3.6E2,3.6E2,3.6E2,7.2E2,5.76E3,1.08E3,2.574E3,1.08E3,3.6E2,1.08E3,7.2E2,7.9E1,7.2E2,7.2E2,7.2E2,2.83E2,6.456E3,2.16E3,7.2E2,1.08E3,1.2E1,1.08E3,1.8E3,1.08E3,3.6E2,7.2E2,2.88E3,2.88E3,3.6E2,7.2E2,2.214E3,3.6E2,3.6E2,7.2E2,3.6E2,3.6E2,3.6E2,3.6E2,3.6E2,3.6E2,5.376E3,1.08E3,1.08E3,1.08E3,3.6E2,3.6E2,7.2E2,3.6E2,3.6E2,7.2E2,1.44E3,3.6E2,7.2E2,3.6E2,2.16E3,7.2E2,3.6E2,2.52E3,1.512E3,7.02E2,3.6E2,3.6E2,1.8E3,3.576E3,3.6E2,7.2E2,3.6E2,7.2E2,7.2E2,3.6E2,3.6E2,3.6E2,3.6E2,3.6E2,3.6E2,1.08E3,3.6E2,1.8E3,3.6E2,1.152E3,1.08E3,7.2E2,2.855E3,7.21E2,3.6E2,3.6E2,3.6E2,7.2E2,1.8E3,1.055E3,3.6E2,3.61E2,1.44E3,3.6E2,3.6E2,6.95E2,3.6E2,1.08E3,7.2E2,3.6E2,3.6E2,3.6E2],"tree_param":{"num_deleted":"0","num_feature":"25","num_nodes":"203","size_leaf_vector":"1"}},{"base_weights":[2.076407E-3,-5.216907E0,4.5577335E1,-1.4251145E1,1.5366541E0,6.320875E1,2.2050407E1,3.2263842E0,-1.7034796E1,5.6935306E0,-1.2241315E1,5.8632076E1,7.683841E0,-8.139806E-1,2.8089617E1,2.1873724E0,9.629961E-1,-6.2954125E0,-1.9348707E1,8.172459E0,-1.3770276E-1,-9.512276E0,-2.310046E1,6.0900215E1,4.7154117E0,4.6840825E0,2.3372562E1,6.318394E-1,3.0364861E0,1.3248272E-1,-7.384112E0,-1.8122385E1,-4.406605E1,6.9824963E0,2.9385695E1,-1.8411049E0,4.980868E0,-5.565028E0,-1.1248516E1,-2.5247552E0,-2.2117455E0,5.865231E1,6.970445E0,2.6544323E1,1.3810109E0,9.042573E-1,-2.2658835E-1,3.1946661E0,2.5544116E-1,-7.8087935E0,-6.31305E0,-1.9631947E1,-1.1041592E1,-7.292321E0,-2.2281132E0,1.1296004E1,5.969806E0,3.0496035E0,2.8193958E0,-1.1243818E0,-9.862797E-1,7.4339724E0,2.5174532E0,-3.8283265E0,-7.2626977E0,-1.11456995E1,-1.2037896E0,5.6032574E1,6.6334534E0,3.1459527E0,2.4046495E1,3.8537752E-2,1.4206323E-1,3.2759795E-1,3.0234155E-1,-8.744382E-1,-7.56899E0,-5.8586115E-1,-6.7500013E-1,-2.1108448E1,-1.6863035E1,-1.5624842E1,-2.7722116E0,9.769707E0,1.3475385E1,5.0432034E0,1.0399881E1,4.394311E0,-3.0272377E0,6.543377E-1,8.3064425E-1,3.468781E-1,1.5591517E-1,-2.7821186E-1,-4.8262545E-1,-7.5228775E-1,-6.9824E-1,-1.1411652E1,-1.0979881E0,5.1897197E0,5.8025417E0,2.6124303E0,2.1902077E0,-7.3671716E-1,-8.152362E-1,-2.0596096E1,-2.38194E1,-1.785307E1,-1.4489122E1,-1.3316165E0,-1.638137E1,-1.4284986E0,-1.4847773E0,8.564581E0,1.0961282E0,1.26980295E1,1.5401435E0,4.0610065E0,7.975643E0,1.3715931E1,8.178538E0,2.6345003E0,4.1262693E0,-2.3500717E0,-4.1526294E0,-1.0902537E0,-1.1650735E0,-2.0398396E1,-2.1949797E0,-2.2389748E0,-2.4502184E0,-1.8404669E1,-1.441914E0,-1.5982726E0,-1.37211895E1,-1.6741418E0,-1.5616895E0,-4.370834E-2,-2.4159567E-1,7.962465E-1,9.142972E-1,1.3430127E0,1.1930758E0,3.4785593E0,6.954399E0,6.5623336E0,9.381575E0,1.51378E0,1.2256068E0,7.5126715E0,9.4857734E-1,6.786664E-1,2.788504E0,-2.1602263E0,-3.1013656E-1,-4.4415006E-1,-3.5641834E-1,-2.0525013E1,-1.8700079E0,-1.7609604E1,-2.0089633E0,-1.2975818E0,-1.4428552E0,5.842211E0,2.287501E0,3.9586517E-1,8.444705E0,5.6823033E-1,6.9938574E0,8.6309445E-1,1.0854769E0,8.101158E-1,6.903374E-1,3.5157344E-1,2.0535491E-1,-2.3916267E-1,-2.080952E-1,-2.065526E1,-1.9780997E0,-1.8472217E0,-1.732425E0,5.465711E0,6.398596E-1,2.7292387E0,5.3696036E-1,7.2156674E-1,9.650351E-1,6.719009E-1,7.249332E-1,-1.9502696E0,-2.0765069E0,5.957653E-1,5.211818E-1,3.227704E0,1.8765258E0,7.1109734E-2,3.6182113E-2,3.4846838E0,2.1929789E-1,1.9697317E-1,1.8254857E-1,2.6529098E-1,3.7592313E0,4.0205045E0,3.2269952E-1,4.2135492E-1,3.8163227E-1],"categories":[],"categories_nodes":[],"categories_segments":[],"categories_sizes":[],"default_left":[1,0,0,0,1,0,0,0,0,0,0,0,0,0,0,0,0,0,1,0,1,0,0,0,0,0,1,0,0,0,0,0,0,0,0,0,0,0,0,0,0,1,0,0,0,0,0,0,0,0,0,0,0,0,0,0,0,0,0,0,0,0,0,0,0,0,0,0,0,0,0,0,0,0,0,0,0,0,0,0,0,0,0,0,0,0,1,0,1,0,0,0,0,0,0,0,0,0,0,0,0,0,0,0,0,0,0,0,0,0,0,0,0,0,0,0,0,0,0,0,0,0,0,1,0,0,0,1,0,0,0,0,0,0,0,0,0,0,0,0,0,0,0,0,0,0,0,0,0,0,0,0,0,0,0,0,0,0,0,0,0,0,0,0,1,0,0,0,0,0,0,0,0,0,0,0,0,0,0,0,0,0,0,1,0,0,0,0,0,0,0,0,0,0,0,0,0,0,0,0,0,0,0,0,0,0,0],"id":3,"left_children":[1,3,5,7,9,11,13,15,17,19,21,23,-1,-1,25,27,-1,29,31,33,35,37,39,41,-1,-1,43,45,47,-1,49,51,53,55,57,59,61,63,65,-1,-1,67,-1,69,-1,71,-1,73,-1,75,77,79,81,-1,-1,83,85,-1,-1,-1,87,89,91,93,95,97,-1,99,-1,-1,101,-1,-1,-1,-1,-1,103,-1,-1,105,107,109,111,113,115,117,119,121,123,-1,-1,-1,-1,-1,-1,-1,-1,125,-1,-1,-1,-1,-1,-1,-1,127,129,131,133,-1,135,137,-1,139,-1,141,-1,143,145,147,149,-1,151,153,155,-1,-1,157,-1,-1,-1,159,-1,-1,161,-1,-1,-1,-1,-1,-1,-1,-1,163,165,167,169,-1,-1,171,-1,-1,173,175,-1,-1,-1,177,-1,179,-1,-1,-1,181,183,-1,185,-1,187,-1,-1,-1,-1,-1,-1,-1,-1,189,-1,-1,-1,191,-1,193,195,-1,-1,-1,-1,-1,-1,-1,-1,197,199,-1,-1,201,-1,-1,-1,-1,203,205,-1,-1,-1],"loss_changes":[1.1669717E7,2.685888E6,2.089678E6,9.162075E5,1.4428419E6,1.75208E5,3.9423288E5,1.719791E4,4.03542E5,2.7975275E5,1.7281925E5,5.3387E4,0E0,0E0,1.582045E5,2.940879E3,0E0,2.3910984E4,4.042835E5,3.425942E5,5.0352582E4,3.1928938E4,1.9151875E3,3.15555E4,0E0,0E0,4.333875E4,6.240896E2,1.0172168E2,0E0,1.0974062E3,1.358955E5,3.9505388E5,5.610825E4,9.41875E1,3.4816156E4,8.695309E3,4.1824336E3,1.28875E2,0E0,0E0,2.52835E4,0E0,1.251525E4,0E0,1.926347E2,0E0,5.1484375E0,0E0,3.378828E2,1.0362109E2,4.255075E4,8.4854125E4,0E0,0E0,7.998E3,4.27085E4,0E0,0E0,0E0,4.364304E4,5.0665234E2,6.5189746E2,7.257539E2,5.078125E-2,1.75E0,0E0,5.89725E3,0E0,0E0,2.640375E3,0E0,0E0,0E0,0E0,0E0,1.0959375E2,0E0,0E0,9.01125E3,8.3315E3,2.2986562E3,1.2959664E4,1.9754062E3,1.3076406E3,2.4786594E4,1.3154125E4,6.3221836E3,2.1857832E3,0E0,0E0,0E0,0E0,0E0,0E0,0E0,0E0,4.546875E0,0E0,0E0,0E0,0E0,0E0,0E0,0E0,1.094E3,5.065625E2,4.6120625E3,1.02059375E3,0E0,3.609375E1,7.047892E2,0E0,1.7828906E2,0E0,2.4478125E2,0E0,1.0857461E4,4.232375E3,1.3110781E3,8.696875E2,0E0,3.828338E3,2.5017578E2,1.6792188E2,0E0,0E0,7E2,0E0,0E0,0E0,2.6135625E3,0E0,0E0,1.9292188E2,0E0,0E0,0E0,0E0,0E0,0E0,0E0,0E0,1.5124211E4,4.7927812E3,3.7077734E2,1.1017031E3,0E0,0E0,2.0260156E2,0E0,0E0,3.781411E2,2.1457031E1,0E0,0E0,0E0,4.5125E1,0E0,5.2375E1,0E0,0E0,0E0,3.4229688E2,2.7645586E3,0E0,9.9873047E2,0E0,1.9140625E0,0E0,0E0,0E0,0E0,0E0,0E0,0E0,0E0,9.625E1,0E0,0E0,0E0,1.039668E2,0E0,1.2078789E3,2.176242E1,0E0,0E0,0E0,0E0,0E0,0E0,0E0,0E0,4.7125E2,1.4282227E0,0E0,0E0,3.190957E2,0E0,0E0,0E0,0E0,1.3734863E2,1.2338867E1,0E0,0E0,0E0],"parents":[2147483647,0,0,1,1,2,2,3,3,4,4,5,5,6,6,7,7,8,8,9,9,10,10,11,11,14,14,15,15,17,17,18,18,19,19,20,20,21,21,22,22,23,23,26,26,27,27,28,28,30,30,31,31,32,32,33,33,34,34,35,35,36,36,37,37,38,38,41,41,43,43,45,45,47,47,49,49,50,50,51,51,52,52,55,55,56,56,60,60,61,61,62,62,63,63,64,64,65,65,67,67,70,70,76,76,79,79,80,80,81,81,82,82,83,83,84,84,85,85,86,86,87,87,88,88,97,97,105,105,106,106,107,107,108,108,110,110,111,111,113,113,115,115,117,117,118,118,119,119,120,120,122,122,123,123,124,124,127,127,131,131,134,134,143,143,144,144,145,145,146,146,149,149,152,152,153,153,157,157,159,159,163,163,164,164,166,166,168,168,177,177,181,181,183,183,184,184,193,193,194,194,197,197,202,202,203,203],"right_children":[2,4,6,8,10,12,14,16,18,20,22,24,-1,-1,26,28,-1,30,32,34,36,38,40,42,-1,-1,44,46,48,-1,50,52,54,56,58,60,62,64,66,-1,-1,68,-1,70,-1,72,-1,74,-1,76,78,80,82,-1,-1,84,86,-1,-1,-1,88,90,92,94,96,98,-1,100,-1,-1,102,-1,-1,-1,-1,-1,104,-1,-1,106,108,110,112,114,116,118,120,122,124,-1,-1,-1,-1,-1,-1,-1,-1,126,-1,-1,-1,-1,-1,-1,-1,128,130,132,134,-1,136,138,-1,140,-1,142,-1,144,146,148,150,-1,152,154,156,-1,-1,158,-1,-1,-1,160,-1,-1,162,-1,-1,-1,-1,-1,-1,-1,-1,164,166,168,170,-1,-1,172,-1,-1,174,176,-1,-1,-1,178,-1,180,-1,-1,-1,182,184,-1,186,-1,188,-1,-1,-1,-1,-1,-1,-1,-1,190,-1,-1,-1,192,-1,194,196,-1,-1,-1,-1,-1,-1,-1,-1,198,200,-1,-1,202,-1,-1,-1,-1,204,206,-1,-1,-1],"split_conditions":[1.0256E3,4.5E1,3.31E1,1.0008E3,8E0,3E0,3E0,9E1,1.99E1,6.8E1,4.21E1,1.0273E3,7.683841E0,-8.139806E-1,3.09E1,9.963E2,9.629961E-1,1E1,2.5E2,1.0176E3,1.8E2,1.4E1,8E0,3.09E1,4.7154117E0,4.6840825E0,3.5E1,2.2E1,4.3E1,1.3248272E-1,3.6E1,2E0,1E1,1.0027E3,7E0,6E1,2E2,2.4E1,5.4E1,-2.5247552E0,-2.2117455E0,5E0,6.970445E0,6E0,1.3810109E0,5E0,-2.2658835E-1,6E0,2.5544116E-1,1.3E1,1.7E1,1.6E1,1.2E2,-7.292321E0,-2.2281132E0,1.0023E3,1.0172E3,3.0496035E0,2.8193958E0,-1.1243818E0,4.3E1,1E1,7E0,1.3E1,7E0,3E1,-1.2037896E0,4E0,6.6334534E0,3.1459527E0,8E0,3.8537752E-2,1.4206323E-1,3.2759795E-1,3.0234155E-1,-8.744382E-1,1.6E1,-5.8586115E-1,-6.7500013E-1,4.5E1,1.7E1,4E0,1.5E1,6E0,3.4E1,1E0,9E0,9E1,1.5E1,6.543377E-1,8.3064425E-1,3.468781E-1,1.5591517E-1,-2.7821186E-1,-4.8262545E-1,-7.5228775E-1,-6.9824E-1,2.89E1,-1.0979881E0,5.1897197E0,5.8025417E0,2.6124303E0,2.1902077E0,-7.3671716E-1,-8.152362E-1,8E0,5E0,3.5E1,2.6E1,-1.3316165E0,1.7E1,1.3E1,-1.4847773E0,8E1,1.0961282E0,7E0,1.5401435E0,1.0168E3,2E2,9E0,6.5E1,2.6345003E0,7E0,1.4E1,1.7E1,-1.0902537E0,-1.1650735E0,5E-2,-2.1949797E0,-2.2389748E0,-2.4502184E0,4E1,-1.441914E0,-1.5982726E0,1.8E1,-1.6741418E0,-1.5616895E0,-4.370834E-2,-2.4159567E-1,7.962465E-1,9.142972E-1,1.3430127E0,1.1930758E0,1.0129E3,1E1,9E0,1.5E1,1.51378E0,1.2256068E0,1E1,9.4857734E-1,6.786664E-1,1.2E2,1E1,-3.1013656E-1,-4.4415006E-1,-3.5641834E-1,1.2E1,-1.8700079E0,8E0,-2.0089633E0,-1.2975818E0,-1.4428552E0,3.31E1,2.5E2,3.9586517E-1,1.2E1,5.6823033E-1,1.2E1,8.6309445E-1,1.0854769E0,8.101158E-1,6.903374E-1,3.5157344E-1,2.0535491E-1,-2.3916267E-1,-2.080952E-1,3E0,-1.9780997E0,-1.8472217E0,-1.732425E0,1E1,6.398596E-1,1.8E2,9E0,7.2156674E-1,9.650351E-1,6.719009E-1,7.249332E-1,-1.9502696E0,-2.0765069E0,5.957653E-1,5.211818E-1,3E0,1E1,7.1109734E-2,3.6182113E-2,1E1,2.1929789E-1,1.9697317E-1,1.8254857E-1,2.6529098E-1,1.4E1,1.2E1,3.2269952E-1,4.2135492E-1,3.8163227E-1],"split_indices":[14,3,7,14,22,24,3,4,8,11,7,14,0,0,8,14,0,0,4,14,3,0,0,8,0,0,12,3,7,0,7,19,0,14,0,3,3,1,11,0,0,0,0,0,0,0,0,0,0,0,0,3,4,0,0,14,14,0,0,0,7,0,0,0,0,1,0,3,0,0,0,0,0,0,0,0,0,0,0,12,0,2,0,0,8,19,0,3,0,0,0,0,0,0,0,0,0,7,0,0,0,0,0,0,0,22,0,3,1,0,0,0,0,3,0,0,0,14,4,0,3,0,0,0,0,0,0,16,0,0,0,12,0,0,0,0,0,0,0,0,0,0,0,14,0,0,0,0,0,0,0,0,3,0,0,0,0,3,0,2,0,0,0,8,3,0,0,0,0,0,0,0,0,0,0,0,0,22,0,0,0,0,0,4,0,0,0,0,0,0,0,0,0,18,0,0,0,0,0,0,0,0,0,0,0,0,0],"split_type":[0,0,0,0,0,0,0,0,0,0,0,0,0,0,0,0,0,0,0,0,0,0,0,0,0,0,0,0,0,0,0,0,0,0,0,0,0,0,0,0,0,0,0,0,0,0,0,0,0,0,0,0,0,0,0,0,0,0,0,0,0,0,0,0,0,0,0,0,0,0,0,0,0,0,0,0,0,0,0,0,0,0,0,0,0,0,0,0,0,0,0,0,0,0,0,0,0,0,0,0,0,0,0,0,0,0,0,0,0,0,0,0,0,0,0,0,0,0,0,0,0,0,0,0,0,0,0,0,0,0,0,0,0,0,0,0,0,0,0,0,0,0,0,0,0,0,0,0,0,0,0,0,0,0,0,0,0,0,0,0,0,0,0,0,0,0,0,0,0,0,0,0,0,0,0,0,0,0,0,0,0,0,0,0,0,0,0,0,0,0,0,0,0,0,0,0,0,0,0,0,0,0,0,0,0,0,0],"sum_hessian":[4.906E4,4.402E4,5.04E3,1.883E4,2.519E4,2.88E3,2.16E3,2.587E3,1.6243E4,1.9352E4,5.838E3,2.16E3,7.2E2,3.6E2,1.8E3,2.227E3,3.6E2,2.88E3,1.3363E4,1.3579E4,5.773E3,4.667E3,1.171E3,1.8E3,3.6E2,3.6E2,1.44E3,7.87E2,1.44E3,3.6E2,2.52E3,1.2733E4,6.3E2,1.2859E4,7.2E2,4.332E3,1.441E3,1.427E3,3.24E3,3.6E2,8.11E2,1.44E3,3.6E2,1.08E3,3.6E2,7.2E2,6.7E1,1.08E3,3.6E2,1.8E3,7.2E2,1.0494E4,2.239E3,2.7E2,3.6E2,2.443E3,1.0416E4,3.6E2,3.6E2,3.6E2,3.972E3,7.21E2,7.2E2,7.07E2,7.2E2,2.88E3,3.6E2,1.08E3,3.6E2,3.6E2,7.2E2,3.6E2,3.6E2,7.2E2,3.6E2,3.6E2,1.44E3,3.6E2,3.6E2,6.84E3,3.654E3,1.44E3,7.99E2,1.44E3,1.003E3,8.616E3,1.8E3,1.092E3,2.88E3,3.61E2,3.6E2,3.6E2,3.6E2,3.47E2,3.6E2,3.6E2,3.6E2,1.08E3,1.8E3,3.6E2,7.2E2,3.6E2,3.6E2,1.08E3,3.6E2,5.76E3,1.08E3,2.574E3,1.08E3,3.6E2,1.08E3,7.2E2,7.9E1,7.2E2,7.2E2,7.2E2,2.83E2,6.456E3,2.16E3,7.2E2,1.08E3,1.2E1,1.08E3,1.8E3,1.08E3,3.6E2,7.2E2,5.04E3,7.2E2,3.6E2,7.2E2,2.214E3,3.6E2,3.6E2,7.2E2,7.2E2,3.6E2,3.6E2,3.6E2,3.6E2,3.6E2,3.6E2,3.6E2,5.376E3,1.08E3,1.08E3,1.08E3,3.6E2,3.6E2,7.2E2,3.6E2,3.6E2,7.2E2,1.44E3,3.6E2,7.2E2,3.6E2,4.68E3,3.6E2,1.512E3,7.02E2,3.6E2,3.6E2,1.8E3,3.576E3,3.6E2,7.2E2,3.6E2,7.2E2,7.2E2,3.6E2,3.6E2,3.6E2,3.6E2,3.6E2,3.6E2,1.08E3,3.96E3,7.2E2,3.6E2,1.152E3,1.08E3,7.2E2,2.855E3,7.21E2,3.6E2,3.6E2,3.6E2,3.6E2,3.6E2,3.6E3,3.6E2,7.2E2,1.8E3,1.055E3,3.6E2,3.61E2,1.44E3,3.6E2,3.6E2,6.95E2,3.6E2,1.08E3,7.2E2,3.6E2,3.6E2,3.6E2],"tree_param":{"num_deleted":"0","num_feature":"25","num_nodes":"207","size_leaf_vector":"1"}},{"base_weights":[2.3961395E-3,-4.6957684E0,4.1029556E1,-1.2828354E1,1.3837605E0,5.690071E1,1.9851475E1,2.9044433E0,-1.533412E1,5.1257772E0,-1.1019156E1,5.2782425E1,6.916523E0,-7.328065E-1,2.5288433E1,1.9690112E0,8.6696464E-1,-5.667102E0,-1.7416979E1,7.3572583E0,-1.233812E-1,-8.562497E0,-2.0794466E1,5.482384E1,4.245176E0,4.216972E0,2.1041775E1,5.6859654E-1,2.733451E0,1.1927175E-1,-6.6471605E0,-1.6312698E1,-3.9674526E1,6.2859497E0,2.645527E1,-1.6567171E0,4.484155E0,-5.0100737E0,-1.0125071E1,-2.2729795E0,-1.9908447E0,5.27993E1,6.27533E0,2.3897238E1,1.2432922E0,8.14081E-1,-2.0426229E-1,2.875778E0,2.2996867E-1,-7.3486648E0,-6.116298E0,-1.7671242E1,-9.9402685E0,-6.565779E0,-2.0059185E0,1.0169219E1,5.3742676E0,2.7454891E0,2.5382369E0,-1.0122542E0,-8.8706696E-1,6.69263E0,2.266398E0,-3.44657E0,-6.538438E0,-1.0032294E1,-1.0837435E0,5.0439476E1,5.971946E0,2.8322275E0,2.1648504E1,3.4694057E-2,1.2789665E-1,2.9488274E-1,2.721915E-1,-6.793553E-1,-7.616413E-1,-5.274388E-1,-6.391796E0,-1.8999762E1,-1.5179842E1,-1.4065537E1,-2.4972014E0,8.794683E0,1.2131906E1,4.540025E0,9.362768E0,3.9584205E0,-2.7250507E0,5.890857E-1,7.478085E-1,3.122849E-1,1.4036693E-1,-2.5047198E-1,-4.344956E-1,-6.7726725E-1,-6.286092E-1,-1.027258E1,-9.882499E-1,4.672184E0,5.223091E0,2.3519113E0,1.9717928E0,-6.717085E-1,-6.220061E-1,-1.8538239E1,-2.1441792E1,-1.6070488E1,-1.3044232E1,-1.1988249E0,-1.4746237E1,-1.286042E0,-1.3381561E0,7.710497E0,9.8666716E-1,1.1431737E1,1.3866727E0,3.6558259E0,7.1798844E0,1.2348125E1,7.3629484E0,2.3913167E0,3.7147849E0,-2.115479E0,-3.7381063E0,-9.815316E-1,-1.0487281E0,-2.0341198E0,-1.8414297E1,-2.0156968E0,-2.2055357E0,-1.6566723E1,-1.2981209E0,-1.4388885E0,-1.2352881E1,-1.5069607E0,-1.4059546E0,-3.9350327E-2,-2.1750183E-1,7.168437E-1,8.231198E-1,1.209083E0,1.0740978E0,3.1314204E0,6.2608886E0,5.9079103E0,8.445216E0,1.36282E0,1.1033846E0,6.763483E0,8.5398227E-1,6.109864E-1,2.5104322E0,-1.94451E0,-2.7920744E-1,-3.9979643E-1,-3.2087559E-1,-1.8523724E1,-1.6835264E0,-1.5851009E1,-1.8083519E0,-1.1681836E0,-1.2989709E0,5.2589655E0,2.0593379E0,3.5638744E-1,7.6025825E0,5.11564E-1,6.296401E0,7.7690434E-1,9.772296E-1,7.293283E-1,6.214948E-1,3.1651458E-1,1.848765E-1,-2.1531229E-1,-1.873045E-1,-1.8639254E1,-1.7805651E0,-1.6630106E0,-1.559333E0,4.9201756E0,5.759621E-1,2.4570134E0,4.8340893E-1,6.496109E-1,8.687997E-1,6.0489655E-1,6.526395E-1,-1.755784E0,-1.8733104E0,5.3635395E-1,4.691362E-1,2.9058309E0,1.689232E0,6.401883E-2,3.2572728E-2,3.137185E0,1.9742872E-1,1.7733169E-1,1.643192E-1,2.3883553E-1,3.3843546E0,3.6195722E0,2.9051962E-1,3.7933603E-1,3.4357575E-1],"categories":[],"categories_nodes":[],"categories_segments":[],"categories_sizes":[],"default_left":[1,0,0,0,1,0,0,0,0,0,0,0,0,0,0,0,0,0,1,0,1,0,0,0,0,0,1,0,0,0,0,0,0,0,0,0,0,0,0,0,0,1,0,0,0,0,0,0,0,0,0,0,0,0,0,0,0,0,0,0,0,0,0,0,0,0,0,0,0,0,0,0,0,0,0,0,0,0,0,0,0,0,0,0,0,0,1,0,1,0,0,0,0,0,0,0,0,0,0,0,0,0,0,0,0,0,0,0,0,0,0,0,0,0,0,0,0,0,0,0,0,0,0,1,0,0,0,0,1,0,0,0,0,0,0,0,0,0,0,0,0,0,0,0,0,0,0,0,0,0,0,0,0,0,0,0,0,0,0,0,0,0,0,0,1,0,0,0,0,0,0,0,0,0,0,0,0,0,0,0,0,0,0,1,0,0,0,0,0,0,0,0,0,0,0,0,0,0,0,0,0,0,0,0,0,0,0],"id":4,"left_children":[1,3,5,7,9,11,13,15,17,19,21,23,-1,-1,25,27,-1,29,31,33,35,37,39,41,-1,-1,43,45,47,-1,49,51,53,55,57,59,61,63,65,-1,-1,67,-1,69,-1,71,-1,73,-1,75,77,79,81,-1,-1,83,85,-1,-1,-1,87,89,91,93,95,97,-1,99,-1,-1,101,-1,-1,-1,-1,-1,-1,-1,103,105,107,109,111,113,115,117,119,121,123,-1,-1,-1,-1,-1,-1,-1,-1,125,-1,-1,-1,-1,-1,-1,-1,127,129,131,133,-1,135,137,-1,139,-1,141,-1,143,145,147,149,-1,151,153,155,-1,-1,-1,157,-1,-1,159,-1,-1,161,-1,-1,-1,-1,-1,-1,-1,-1,163,165,167,169,-1,-1,171,-1,-1,173,175,-1,-1,-1,177,-1,179,-1,-1,-1,181,183,-1,185,-1,187,-1,-1,-1,-1,-1,-1,-1,-1,189,-1,-1,-1,191,-1,193,195,-1,-1,-1,-1,-1,-1,-1,-1,197,199,-1,-1,201,-1,-1,-1,-1,203,205,-1,-1,-1],"loss_changes":[9.456817E6,2.1765168E6,1.693254E6,7.424135E5,1.1692192E6,1.41864E5,3.1952494E5,1.3939904E4,3.269745E5,2.2669025E5,1.4004325E5,4.32465E4,0E0,0E0,1.28224625E5,2.3835918E3,0E0,1.937696E4,3.278215E5,2.7767856E5,4.0800164E4,2.5860969E4,1.5571875E3,2.5599E4,0E0,0E0,3.5125938E4,5.0678177E2,8.234863E1,0E0,8.938828E2,1.100655E5,3.20285E5,4.547375E4,7.640625E1,2.8223646E4,7.047549E3,3.3898203E3,1.0546875E2,0E0,0E0,2.051975E4,0E0,1.01435625E4,0E0,1.5613348E2,0E0,4.1240234E0,0E0,1.0892578E2,3.0051953E2,3.4449E4,6.87433E4,0E0,0E0,6.486672E3,3.461875E4,0E0,0E0,0E0,3.539403E4,4.106328E2,5.283523E2,5.881885E2,4.1015625E-2,2.1875E0,0E0,4.759E3,0E0,0E0,2.1400312E3,0E0,0E0,0E0,0E0,0E0,0E0,0E0,1.8605469E1,7.3125E3,6.7425E3,1.8608125E3,1.0528947E4,1.5987109E3,1.0610156E3,2.0087219E4,1.0661359E4,5.224992E3,1.7711953E3,0E0,0E0,0E0,0E0,0E0,0E0,0E0,0E0,3.1953125E0,0E0,0E0,0E0,0E0,0E0,0E0,0E0,9.12625E2,4.07625E2,3.732375E3,8.271875E2,0E0,2.8171875E1,5.712186E2,0E0,1.444961E2,0E0,1.9839062E2,0E0,8.801359E3,3.4281719E3,1.0626172E3,7.048828E2,0E0,3.1028281E3,2.0290479E2,1.3586914E2,0E0,0E0,0E0,6.21375E2,0E0,0E0,2.1179375E3,0E0,0E0,1.5636719E2,0E0,0E0,0E0,0E0,0E0,0E0,0E0,0E0,1.225359E4,3.8845781E3,3.0051172E2,8.9409375E2,0E0,0E0,1.6420703E2,0E0,0E0,3.064873E2,1.7450195E1,0E0,0E0,0E0,8.65E1,0E0,4.44375E1,0E0,0E0,0E0,2.7714062E2,2.2405479E3,0E0,8.0946875E2,0E0,1.5527344E0,0E0,0E0,0E0,0E0,0E0,0E0,0E0,0E0,1.09625E2,0E0,0E0,0E0,8.450195E1,0E0,9.7925195E2,1.7640198E1,0E0,0E0,0E0,0E0,0E0,0E0,0E0,0E0,3.8195215E2,1.1743164E0,0E0,0E0,2.586289E2,0E0,0E0,0E0,0E0,1.1132031E2,9.999023E0,0E0,0E0,0E0],"parents":[2147483647,0,0,1,1,2,2,3,3,4,4,5,5,6,6,7,7,8,8,9,9,10,10,11,11,14,14,15,15,17,17,18,18,19,19,20,20,21,21,22,22,23,23,26,26,27,27,28,28,30,30,31,31,32,32,33,33,34,34,35,35,36,36,37,37,38,38,41,41,43,43,45,45,47,47,49,49,50,50,51,51,52,52,55,55,56,56,60,60,61,61,62,62,63,63,64,64,65,65,67,67,70,70,78,78,79,79,80,80,81,81,82,82,83,83,84,84,85,85,86,86,87,87,88,88,97,97,105,105,106,106,107,107,108,108,110,110,111,111,113,113,115,115,117,117,118,118,119,119,120,120,122,122,123,123,124,124,128,128,131,131,134,134,143,143,144,144,145,145,146,146,149,149,152,152,153,153,157,157,159,159,163,163,164,164,166,166,168,168,177,177,181,181,183,183,184,184,193,193,194,194,197,197,202,202,203,203],"right_children":[2,4,6,8,10,12,14,16,18,20,22,24,-1,-1,26,28,-1,30,32,34,36,38,40,42,-1,-1,44,46,48,-1,50,52,54,56,58,60,62,64,66,-1,-1,68,-1,70,-1,72,-1,74,-1,76,78,80,82,-1,-1,84,86,-1,-1,-1,88,90,92,94,96,98,-1,100,-1,-1,102,-1,-1,-1,-1,-1,-1,-1,104,106,108,110,112,114,116,118,120,122,124,-1,-1,-1,-1,-1,-1,-1,-1,126,-1,-1,-1,-1,-1,-1,-1,128,130,132,134,-1,136,138,-1,140,-1,142,-1,144,146,148,150,-1,152,154,156,-1,-1,-1,158,-1,-1,160,-1,-1,162,-1,-1,-1,-1,-1,-1,-1,-1,164,166,168,170,-1,-1,172,-1,-1,174,176,-1,-1,-1,178,-1,180,-1,-1,-1,182,184,-1,186,-1,188,-1,-1,-1,-1,-1,-1,-1,-1,190,-1,-1,-1,192,-1,194,196,-1,-1,-1,-1,-1,-1,-1,-1,198,200,-1,-1,202,-1,-1,-1,-1,204,206,-1,-1,-1],"split_conditions":[1.0256E3,4.5E1,3.31E1,1.0008E3,8E0,3E0,3E0,9E1,1.99E1,6.8E1,4.21E1,1.0273E3,6.916523E0,-7.328065E-1,3.09E1,9.963E2,8.6696464E-1,1E1,2.5E2,1.0176E3,1.8E2,1.4E1,8E0,3.09E1,4.245176E0,4.216972E0,3.5E1,2.2E1,4.3E1,1.1927175E-1,3.2E1,2E0,1E1,1.0027E3,7E0,6E1,2E2,2.4E1,5.4E1,-2.2729795E0,-1.9908447E0,5E0,6.27533E0,6E0,1.2432922E0,5E0,-2.0426229E-1,6E0,2.2996867E-1,1.2E1,2.6E1,1.6E1,1.2E2,-6.565779E0,-2.0059185E0,1.0023E3,1.0172E3,2.7454891E0,2.5382369E0,-1.0122542E0,4.3E1,1E1,7E0,1.3E1,7E0,3E1,-1.0837435E0,4E0,5.971946E0,2.8322275E0,8E0,3.4694057E-2,1.2789665E-1,2.9488274E-1,2.721915E-1,-6.793553E-1,-7.616413E-1,-5.274388E-1,1.5E1,4.5E1,1.7E1,4E0,1.5E1,6E0,3.4E1,1E0,9E0,9E1,1.5E1,5.890857E-1,7.478085E-1,3.122849E-1,1.4036693E-1,-2.5047198E-1,-4.344956E-1,-6.7726725E-1,-6.286092E-1,2.89E1,-9.882499E-1,4.672184E0,5.223091E0,2.3519113E0,1.9717928E0,-6.717085E-1,-6.220061E-1,1.3E1,5E0,3.5E1,2.6E1,-1.1988249E0,1.7E1,1.3E1,-1.3381561E0,8E1,9.8666716E-1,7E0,1.3866727E0,1.0168E3,2E2,9E0,6.5E1,2.3913167E0,7E0,1.4E1,1.7E1,-9.815316E-1,-1.0487281E0,-2.0341198E0,5E-2,-2.0156968E0,-2.2055357E0,4E1,-1.2981209E0,-1.4388885E0,1.8E1,-1.5069607E0,-1.4059546E0,-3.9350327E-2,-2.1750183E-1,7.168437E-1,8.231198E-1,1.209083E0,1.0740978E0,1.0129E3,1E1,9E0,1.5E1,1.36282E0,1.1033846E0,1E1,8.5398227E-1,6.109864E-1,1.2E2,1E1,-2.7920744E-1,-3.9979643E-1,-3.2087559E-1,1.2E1,-1.6835264E0,8E0,-1.8083519E0,-1.1681836E0,-1.2989709E0,3.31E1,2.5E2,3.5638744E-1,1.2E1,5.11564E-1,1.2E1,7.7690434E-1,9.772296E-1,7.293283E-1,6.214948E-1,3.1651458E-1,1.848765E-1,-2.1531229E-1,-1.873045E-1,3E0,-1.7805651E0,-1.6630106E0,-1.559333E0,1E1,5.759621E-1,1.8E2,9E0,6.496109E-1,8.687997E-1,6.0489655E-1,6.526395E-1,-1.755784E0,-1.8733104E0,5.3635395E-1,4.691362E-1,3E0,1E1,6.401883E-2,3.2572728E-2,1E1,1.9742872E-1,1.7733169E-1,1.643192E-1,2.3883553E-1,1.4E1,1.2E1,2.9051962E-1,3.7933603E-1,3.4357575E-1],"split_indices":[14,3,7,14,22,24,3,4,8,11,7,14,0,0,8,14,0,0,4,14,3,0,0,8,0,0,12,3,7,0,7,19,0,14,0,3,3,1,11,0,0,0,0,0,0,0,0,0,0,8,1,3,4,0,0,14,14,0,0,0,7,0,0,0,0,1,0,3,0,0,0,0,0,0,0,0,0,0,0,12,0,2,0,0,8,19,0,3,0,0,0,0,0,0,0,0,0,7,0,0,0,0,0,0,0,4,0,3,1,0,0,0,0,3,0,0,0,14,4,0,3,0,0,0,0,0,0,0,16,0,0,12,0,0,0,0,0,0,0,0,0,0,0,14,0,0,0,0,0,0,0,0,3,0,0,0,0,3,0,2,0,0,0,8,3,0,0,0,0,0,0,0,0,0,0,0,0,22,0,0,0,0,0,4,0,0,0,0,0,0,0,0,0,18,0,0,0,0,0,0,0,0,0,0,0,0,0],"split_type":[0,0,0,0,0,0,0,0,0,0,0,0,0,0,0,0,0,0,0,0,0,0,0,0,0,0,0,0,0,0,0,0,0,0,0,0,0,0,0,0,0,0,0,0,0,0,0,0,0,0,0,0,0,0,0,0,0,0,0,0,0,0,0,0,0,0,0,0,0,0,0,0,0,0,0,0,0,0,0,0,0,0,0,0,0,0,0,0,0,0,0,0,0,0,0,0,0,0,0,0,0,0,0,0,0,0,0,0,0,0,0,0,0,0,0,0,0,0,0,0,0,0,0,0,0,0,0,0,0,0,0,0,0,0,0,0,0,0,0,0,0,0,0,0,0,0,0,0,0,0,0,0,0,0,0,0,0,0,0,0,0,0,0,0,0,0,0,0,0,0,0,0,0,0,0,0,0,0,0,0,0,0,0,0,0,0,0,0,0,0,0,0,0,0,0,0,0,0,0,0,0,0,0,0,0,0,0],"sum_hessian":[4.906E4,4.402E4,5.04E3,1.883E4,2.519E4,2.88E3,2.16E3,2.587E3,1.6243E4,1.9352E4,5.838E3,2.16E3,7.2E2,3.6E2,1.8E3,2.227E3,3.6E2,2.88E3,1.3363E4,1.3579E4,5.773E3,4.667E3,1.171E3,1.8E3,3.6E2,3.6E2,1.44E3,7.87E2,1.44E3,3.6E2,2.52E3,1.2733E4,6.3E2,1.2859E4,7.2E2,4.332E3,1.441E3,1.427E3,3.24E3,3.6E2,8.11E2,1.44E3,3.6E2,1.08E3,3.6E2,7.2E2,6.7E1,1.08E3,3.6E2,1.08E3,1.44E3,1.0494E4,2.239E3,2.7E2,3.6E2,2.443E3,1.0416E4,3.6E2,3.6E2,3.6E2,3.972E3,7.21E2,7.2E2,7.07E2,7.2E2,2.88E3,3.6E2,1.08E3,3.6E2,3.6E2,7.2E2,3.6E2,3.6E2,7.2E2,3.6E2,3.6E2,7.2E2,3.6E2,1.08E3,6.84E3,3.654E3,1.44E3,7.99E2,1.44E3,1.003E3,8.616E3,1.8E3,1.092E3,2.88E3,3.61E2,3.6E2,3.6E2,3.6E2,3.47E2,3.6E2,3.6E2,3.6E2,1.08E3,1.8E3,3.6E2,7.2E2,3.6E2,3.6E2,3.6E2,7.2E2,5.76E3,1.08E3,2.574E3,1.08E3,3.6E2,1.08E3,7.2E2,7.9E1,7.2E2,7.2E2,7.2E2,2.83E2,6.456E3,2.16E3,7.2E2,1.08E3,1.2E1,1.08E3,1.8E3,1.08E3,3.6E2,7.2E2,3.6E2,5.4E3,3.6E2,7.2E2,2.214E3,3.6E2,3.6E2,7.2E2,7.2E2,3.6E2,3.6E2,3.6E2,3.6E2,3.6E2,3.6E2,3.6E2,5.376E3,1.08E3,1.08E3,1.08E3,3.6E2,3.6E2,7.2E2,3.6E2,3.6E2,7.2E2,1.44E3,3.6E2,7.2E2,3.6E2,5.04E3,3.6E2,1.512E3,7.02E2,3.6E2,3.6E2,1.8E3,3.576E3,3.6E2,7.2E2,3.6E2,7.2E2,7.2E2,3.6E2,3.6E2,3.6E2,3.6E2,3.6E2,3.6E2,1.08E3,4.32E3,7.2E2,3.6E2,1.152E3,1.08E3,7.2E2,2.855E3,7.21E2,3.6E2,3.6E2,3.6E2,3.6E2,3.6E2,3.96E3,3.6E2,7.2E2,1.8E3,1.055E3,3.6E2,3.61E2,1.44E3,3.6E2,3.6E2,6.95E2,3.6E2,1.08E3,7.2E2,3.6E2,3.6E2,3.6E2],"tree_param":{"num_deleted":"0","num_feature":"25","num_nodes":"207","size_leaf_vector":"1"}}]},"name":"gbtree"},"learner_model_param":{"base_score":"[4.1613474E2]","boost_from_average":"1","num_class":"0","num_feature":"25","num_target":"1"},"objective":{"name":"reg:squarederror","reg_loss_param":{"scale_pos_weight":"1"}}},"version":[3,1,3]}