{"learner":{"attributes":{"scikit_learn":"{\"_estimator_type\": \"regressor\"}"},"feature_names":["Prevailing Wind Magnitude (MPH)","Gust Wind Magnitude (MPH)","Vis (MI)","Cloud Height 1 (100s of ft)","Cloud Height 2 (100s of ft)","Cloud Height 3 (100s of ft)","Cloud Height 4 (100s of ft)","Air Temp (F)","Dewpoint (F)","6hr Max (F)","6hr Min (F)","Rel Hum","Wind Chill (F)","Heat Index (F)","Sea Level Pressure (MB)","Precip 1hr","Precip 3hr","Precip 6hr","cloud_code_1","cloud_code_2","cloud_code_3","cloud_code_4","prevailing_wind_dir_code","gust_wind_dir_code","weather_code"],"feature_types":["float","float","float","float","float","float","float","float","float","float","float","float","float","float","float","float","float","float","float","float","float","float","float","float","float"],"gradient_booster":{"model":{"cats":{"enc":[],"feature_segments":[],"sorted_idx":[]},"gbtree_model_param":{"num_parallel_tree":"1","num_trees":"500"},"iteration_indptr":[0,1,2,3,4,5,6,7,8,9,10,11,12,13,14,15,16,17,18,19,20,21,22,23,24,25,26,27,28,29,30,31,32,33,34,35,36,37,38,39,40,41,42,43,44,45,46,47,48,49,50,51,52,53,54,55,56,57,58,59,60,61,62,63,64,65,66,67,68,69,70,71,72,73,74,75,76,77,78,79,80,81,82,83,84,85,86,87,88,89,90,91,92,93,94,95,96,97,98,99,100,101,102,103,104,105,106,107,108,109,110,111,112,113,114,115,116,117,118,119,120,121,122,123,124,125,126,127,128,129,130,131,132,133,134,135,136,137,138,139,140,141,142,143,144,145,146,147,148,149,150,151,152,153,154,155,156,157,158,159,160,161,162,163,164,165,166,167,168,169,170,171,172,173,174,175,176,177,178,179,180,181,182,183,184,185,186,187,188,189,190,191,192,193,194,195,196,197,198,199,200,201,202,203,204,205,206,207,208,209,210,211,212,213,214,215,216,217,218,219,220,221,222,223,224,225,226,227,228,229,230,231,232,233,234,235,236,237,238,239,240,241,242,243,244,245,246,247,248,249,250,251,252,253,254,255,256,257,258,259,260,261,262,263,264,265,266,267,268,269,270,271,272,273,274,275,276,277,278,279,280,281,282,283,284,285,286,287,288,289,290,291,292,293,294,295,296,297,298,299,300,301,302,303,304,305,306,307,308,309,310,311,312,313,314,315,316,317,318,319,320,321,322,323,324,325,326,327,328,329,330,331,332,333,334,335,336,337,338,339,340,341,342,343,344,345,346,347,348,349,350,351,352,353,354,355,356,357,358,359,360,361,362,363,364,365,366,367,368,369,370,371,372,373,374,375,376,377,378,379,380,381,382,383,384,385,386,387,388,389,390,391,392,393,394,395,396,397,398,399,400,401,402,403,404,405,406,407,408,409,410,411,412,413,414,415,416,417,418,419,420,421,422,423,424,425,426,427,428,429,430,431,432,433,434,435,436,437,438,439,440,441,442,443,444,445,446,447,448,449,450,451,452,453,454,455,456,457,458,459,460,461,462,463,464,465,466,467,468,469,470,471,472,473,474,475,476,477,478,479,480,481,482,483,484,485,486,487,488,489,490,491,492,493,494,495,496,497,498,499,500],"tree_info":[0,0,0,0,0,0,0,0,0,0,0,0,0,0,0,0,0,0,0,0,0,0,0,0,0,0,0,0,0,0,0,0,0,0,0,0,0,0,0,0,0,0,0,0,0,0,0,0,0,0,0,0,0,0,0,0,0,0,0,0,0,0,0,0,0,0,0,0,0,0,0,0,0,0,0,0,0,0,0,0,0,0,0,0,0,0,0,0,0,0,0,0,0,0,0,0,0,0,0,0,0,0,0,0,0,0,0,0,0,0,0,0,0,0,0,0,0,0,0,0,0,0,0,0,0,0,0,0,0,0,0,0,0,0,0,0,0,0,0,0,0,0,0,0,0,0,0,0,0,0,0,0,0,0,0,0,0,0,0,0,0,0,0,0,0,0,0,0,0,0,0,0,0,0,0,0,0,0,0,0,0,0,0,0,0,0,0,0,0,0,0,0,0,0,0,0,0,0,0,0,0,0,0,0,0,0,0,0,0,0,0,0,0,0,0,0,0,0,0,0,0,0,0,0,0,0,0,0,0,0,0,0,0,0,0,0,0,0,0,0,0,0,0,0,0,0,0,0,0,0,0,0,0,0,0,0,0,0,0,0,0,0,0,0,0,0,0,0,0,0,0,0,0,0,0,0,0,0,0,0,0,0,0,0,0,0,0,0,0,0,0,0,0,0,0,0,0,0,0,0,0,0,0,0,0,0,0,0,0,0,0,0,0,0,0,0,0,0,0,0,0,0,0,0,0,0,0,0,0,0,0,0,0,0,0,0,0,0,0,0,0,0,0,0,0,0,0,0,0,0,0,0,0,0,0,0,0,0,0,0,0,0,0,0,0,0,0,0,0,0,0,0,0,0,0,0,0,0,0,0,0,0,0,0,0,0,0,0,0,0,0,0,0,0,0,0,0,0,0,0,0,0,0,0,0,0,0,0,0,0,0,0,0,0,0,0,0,0,0,0,0,0,0,0,0,0,0,0,0,0,0,0,0,0,0,0,0,0,0,0,0,0,0,0,0,0,0,0,0,0,0,0,0,0,0,0,0,0,0,0,0,0,0,0,0,0,0,0,0,0,0,0,0,0,0,0,0,0,0,0,0,0,0,0,0,0,0,0,0,0,0,0,0,0,0,0,0,0,0,0],"trees":[{"base_weights":[-8.85029E-6,-7.154224E0,6.247484E1,-1.9539255E-1,2.1042287E-2,8.6647415E-1,3.0219552E-1],"categories":[],"categories_nodes":[],"categories_segments":[],"categories_sizes":[],"default_left":[1,0,0,0,0,0,0],"id":0,"left_children":[1,3,5,-1,-1,-1,-1],"loss_changes":[2.1928678E7,5.047763E6,3.927818E6,0E0,0E0,0E0,0E0],"parents":[2147483647,0,0,1,1,2,2],"right_children":[2,4,6,-1,-1,-1,-1],"split_conditions":[1.0256E3,4.5E1,3.31E1,-1.9539255E-1,2.1042287E-2,8.6647415E-1,3.0219552E-1],"split_indices":[14,3,7,0,0,0,0],"split_type":[0,0,0,0,0,0,0],"sum_hessian":[4.906E4,4.402E4,5.04E3,1.883E4,2.519E4,2.88E3,2.16E3],"tree_param":{"num_deleted":"0","num_feature":"25","num_nodes":"7","size_leaf_vector":"1"}},{"base_weights":[8.087678E-6,-7.0826893E0,6.185032E1,-1.9762942E-1,1.780695E-2,8.5781235E-1,2.9917505E-1],"categories":[],"categories_nodes":[],"categories_segments":[],"categories_sizes":[],"default_left":[1,0,0,0,0,0,0],"id":1,"left_children":[1,3,5,-1,-1,-1,-1],"loss_changes":[2.1492444E7,4.9475535E6,3.849672E6,0E0,0E0,0E0,0E0],"parents":[2147483647,0,0,1,1,2,2],"right_children":[2,4,6,-1,-1,-1,-1],"split_conditions":[1.0256E3,4E1,3.31E1,-1.9762942E-1,1.780695E-2,8.5781235E-1,2.9917505E-1],"split_indices":[14,3,7,0,0,0,0],"split_type":[0,0,0,0,0,0,0],"sum_hessian":[4.906E4,4.402E4,5.04E3,1.811E4,2.591E4,2.88E3,2.16E3],"tree_param":{"num_deleted":"0","num_feature":"25","num_nodes":"7","size_leaf_vector":"1"}},{"base_weights":[3.6968686E-5,-7.0118566E0,6.1232048E1,-1.9154477E-1,2.0653812E-2,8.4923714E-1,2.961848E-1],"categories":[],"categories_nodes":[],"categories_segments":[],"categories_sizes":[],"default_left":[1,0,0,0,0,0,0],"id":2,"left_children":[1,3,5,-1,-1,-1,-1],"loss_changes":[2.1064886E7,4.852099E6,3.77308E6,0E0,0E0,0E0,0E0],"parents":[2147483647,0,0,1,1,2,2],"right_children":[2,4,6,-1,-1,-1,-1],"split_conditions":[1.0256E3,4.5E1,3.31E1,-1.9154477E-1,2.0653812E-2,8.4923714E-1,2.961848E-1],"split_indices":[14,3,7,0,0,0,0],"split_type":[0,0,0,0,0,0,0],"sum_hessian":[4.906E4,4.402E4,5.04E3,1.883E4,2.519E4,2.88E3,2.16E3],"tree_param":{"num_deleted":"0","num_feature":"25","num_nodes":"7","size_leaf_vector":"1"}},{"base_weights":[5.864033E-5,-6.9417396E0,6.0619957E1,-1.9373773E-1,1.7481413E-2,8.407476E-1,2.9322445E-1],"categories":[],"categories_nodes":[],"categories_segments":[],"categories_sizes":[],"default_left":[1,0,0,0,0,0,0],"id":3,"left_children":[1,3,5,-1,-1,-1,-1],"loss_changes":[2.0645832E7,4.75575E6,3.698018E6,0E0,0E0,0E0,0E0],"parents":[2147483647,0,0,1,1,2,2],"right_children":[2,4,6,-1,-1,-1,-1],"split_conditions":[1.0256E3,4E1,3.31E1,-1.9373773E-1,1.7481413E-2,8.407476E-1,2.9322445E-1],"split_indices":[14,3,7,0,0,0,0],"split_type":[0,0,0,0,0,0,0],"sum_hessian":[4.906E4,4.402E4,5.04E3,1.811E4,2.591E4,2.88E3,2.16E3],"tree_param":{"num_deleted":"0","num_feature":"25","num_nodes":"7","size_leaf_vector":"1"}},{"base_weights":[7.019149E-5,-6.8723345E0,6.001398E1,-1.8777288E-1,2.027236E-2,8.32343E-1,2.902937E-1],"categories":[],"categories_nodes":[],"categories_segments":[],"categories_sizes":[],"default_left":[1,0,0,0,0,0,0],"id":4,"left_children":[1,3,5,-1,-1,-1,-1],"loss_changes":[2.0235124E7,4.664018E6,3.624444E6,0E0,0E0,0E0,0E0],"parents":[2147483647,0,0,1,1,2,2],"right_children":[2,4,6,-1,-1,-1,-1],"split_conditions":[1.0256E3,4.5E1,3.31E1,-1.8777288E-1,2.027236E-2,8.32343E-1,2.902937E-1],"split_indices":[14,3,7,0,0,0,0],"split_type":[0,0,0,0,0,0,0],"sum_hessian":[4.906E4,4.402E4,5.04E3,1.883E4,2.519E4,2.88E3,2.16E3],"tree_param":{"num_deleted":"0","num_feature":"25","num_nodes":"7","size_leaf_vector":"1"}},{"base_weights":[9.4942196E-5,-6.803609E0,5.941407E1,-1.8992294E-1,1.7161734E-2,8.240224E-1,2.873922E-1],"categories":[],"categories_nodes":[],"categories_segments":[],"categories_sizes":[],"default_left":[1,0,0,0,0,0,0],"id":5,"left_children":[1,3,5,-1,-1,-1,-1],"loss_changes":[1.9832584E7,4.571391E6,3.552336E6,0E0,0E0,0E0,0E0],"parents":[2147483647,0,0,1,1,2,2],"right_children":[2,4,6,-1,-1,-1,-1],"split_conditions":[1.0256E3,4E1,3.31E1,-1.8992294E-1,1.7161734E-2,8.240224E-1,2.873922E-1],"split_indices":[14,3,7,0,0,0,0],"split_type":[0,0,0,0,0,0,0],"sum_hessian":[4.906E4,4.402E4,5.04E3,1.811E4,2.591E4,2.88E3,2.16E3],"tree_param":{"num_deleted":"0","num_feature":"25","num_nodes":"7","size_leaf_vector":"1"}},{"base_weights":[1.1399508E-4,-6.7355757E0,5.882015E1,-1.8407542E-1,1.9898228E-2,8.15785E-1,2.8451967E-1],"categories":[],"categories_nodes":[],"categories_segments":[],"categories_sizes":[],"default_left":[1,0,0,0,0,0,0],"id":6,"left_children":[1,3,5,-1,-1,-1,-1],"loss_changes":[1.9438046E7,4.483247E6,3.48166E6,0E0,0E0,0E0,0E0],"parents":[2147483647,0,0,1,1,2,2],"right_children":[2,4,6,-1,-1,-1,-1],"split_conditions":[1.0256E3,4.5E1,3.31E1,-1.8407542E-1,1.9898228E-2,8.15785E-1,2.8451967E-1],"split_indices":[14,3,7,0,0,0,0],"split_type":[0,0,0,0,0,0,0],"sum_hessian":[4.906E4,4.402E4,5.04E3,1.883E4,2.519E4,2.88E3,2.16E3],"tree_param":{"num_deleted":"0","num_feature":"25","num_nodes":"7","size_leaf_vector":"1"}},{"base_weights":[1.3442265E-4,-6.66822E0,5.823216E1,-1.8618321E-1,1.6847946E-2,8.076298E-1,2.8167585E-1],"categories":[],"categories_nodes":[],"categories_segments":[],"categories_sizes":[],"default_left":[1,0,0,0,0,0,0],"id":7,"left_children":[1,3,5,-1,-1,-1,-1],"loss_changes":[1.9051352E7,4.39418E6,3.412396E6,0E0,0E0,0E0,0E0],"parents":[2147483647,0,0,1,1,2,2],"right_children":[2,4,6,-1,-1,-1,-1],"split_conditions":[1.0256E3,4E1,3.31E1,-1.8618321E-1,1.6847946E-2,8.076298E-1,2.8167585E-1],"split_indices":[14,3,7,0,0,0,0],"split_type":[0,0,0,0,0,0,0],"sum_hessian":[4.906E4,4.402E4,5.04E3,1.811E4,2.591E4,2.88E3,2.16E3],"tree_param":{"num_deleted":"0","num_feature":"25","num_nodes":"7","size_leaf_vector":"1"}},{"base_weights":[1.5536652E-4,-6.6015387E0,5.765006E1,-1.8045053E-1,1.953081E-2,7.995565E-1,2.7886036E-1],"categories":[],"categories_nodes":[],"categories_segments":[],"categories_sizes":[],"default_left":[1,0,0,0,0,0,0],"id":8,"left_children":[1,3,5,-1,-1,-1,-1],"loss_changes":[1.867236E7,4.309467E6,3.34451E6,0E0,0E0,0E0,0E0],"parents":[2147483647,0,0,1,1,2,2],"right_children":[2,4,6,-1,-1,-1,-1],"split_conditions":[1.0256E3,4.5E1,3.31E1,-1.8045053E-1,1.953081E-2,7.995565E-1,2.7886036E-1],"split_indices":[14,3,7,0,0,0,0],"split_type":[0,0,0,0,0,0,0],"sum_hessian":[4.906E4,4.402E4,5.04E3,1.883E4,2.519E4,2.88E3,2.16E3],"tree_param":{"num_deleted":"0","num_feature":"25","num_nodes":"7","size_leaf_vector":"1"}},{"base_weights":[1.7160781E-4,-6.535527E0,5.707377E1,-1.8251702E-1,1.653976E-2,7.9156363E-1,2.7607298E-1],"categories":[],"categories_nodes":[],"categories_segments":[],"categories_sizes":[],"default_left":[1,0,0,0,0,0,0],"id":9,"left_children":[1,3,5,-1,-1,-1,-1],"loss_changes":[1.8300904E7,4.2238305E6,3.277973E6,0E0,0E0,0E0,0E0],"parents":[2147483647,0,0,1,1,2,2],"right_children":[2,4,6,-1,-1,-1,-1],"split_conditions":[1.0256E3,4E1,3.31E1,-1.8251702E-1,1.653976E-2,7.9156363E-1,2.7607298E-1],"split_indices":[14,3,7,0,0,0,0],"split_type":[0,0,0,0,0,0,0],"sum_hessian":[4.906E4,4.402E4,5.04E3,1.811E4,2.591E4,2.88E3,2.16E3],"tree_param":{"num_deleted":"0","num_feature":"25","num_nodes":"7","size_leaf_vector":"1"}},{"base_weights":[1.9144444E-4,-6.4701724E0,5.6503246E1,-1.7689706E-1,1.9170107E-2,7.836507E-1,2.7331364E-1],"categories":[],"categories_nodes":[],"categories_segments":[],"categories_sizes":[],"default_left":[1,0,0,0,0,0,0],"id":10,"left_children":[1,3,5,-1,-1,-1,-1],"loss_changes":[1.7936838E7,4.142423E6,3.212759E6,0E0,0E0,0E0,0E0],"parents":[2147483647,0,0,1,1,2,2],"right_children":[2,4,6,-1,-1,-1,-1],"split_conditions":[1.0256E3,4.5E1,3.31E1,-1.7689706E-1,1.9170107E-2,7.836507E-1,2.7331364E-1],"split_indices":[14,3,7,0,0,0,0],"split_type":[0,0,0,0,0,0,0],"sum_hessian":[4.906E4,4.402E4,5.04E3,1.883E4,2.519E4,2.88E3,2.16E3],"tree_param":{"num_deleted":"0","num_feature":"25","num_nodes":"7","size_leaf_vector":"1"}},{"base_weights":[2.1490133E-4,-6.4054656E0,5.5938416E1,-1.7892288E-1,1.6237201E-2,7.7581686E-1,2.7058172E-1],"categories":[],"categories_nodes":[],"categories_segments":[],"categories_sizes":[],"default_left":[1,0,0,0,0,0,0],"id":11,"left_children":[1,3,5,-1,-1,-1,-1],"loss_changes":[1.7580006E7,4.0600782E6,3.148843E6,0E0,0E0,0E0,0E0],"parents":[2147483647,0,0,1,1,2,2],"right_children":[2,4,6,-1,-1,-1,-1],"split_conditions":[1.0256E3,4E1,3.31E1,-1.7892288E-1,1.6237201E-2,7.7581686E-1,2.7058172E-1],"split_indices":[14,3,7,0,0,0,0],"split_type":[0,0,0,0,0,0,0],"sum_hessian":[4.906E4,4.402E4,5.04E3,1.811E4,2.591E4,2.88E3,2.16E3],"tree_param":{"num_deleted":"0","num_feature":"25","num_nodes":"7","size_leaf_vector":"1"}},{"base_weights":[2.3287187E-4,-6.341413E0,5.5379246E1,-1.7341354E-1,1.8816117E-2,7.6806134E-1,2.678773E-1],"categories":[],"categories_nodes":[],"categories_segments":[],"categories_sizes":[],"default_left":[1,0,0,0,0,0,0],"id":12,"left_children":[1,3,5,-1,-1,-1,-1],"loss_changes":[1.7230284E7,3.981855E6,3.086198E6,0E0,0E0,0E0,0E0],"parents":[2147483647,0,0,1,1,2,2],"right_children":[2,4,6,-1,-1,-1,-1],"split_conditions":[1.0256E3,4.5E1,3.31E1,-1.7341354E-1,1.8816117E-2,7.6806134E-1,2.678773E-1],"split_indices":[14,3,7,0,0,0,0],"split_type":[0,0,0,0,0,0,0],"sum_hessian":[4.906E4,4.402E4,5.04E3,1.883E4,2.519E4,2.88E3,2.16E3],"tree_param":{"num_deleted":"0","num_feature":"25","num_nodes":"7","size_leaf_vector":"1"}},{"base_weights":[2.3629927E-4,-6.2780156E0,5.4825653E1,-1.7539981E-1,1.5939984E-2,7.6038337E-1,2.6519972E-1],"categories":[],"categories_nodes":[],"categories_segments":[],"categories_sizes":[],"default_left":[1,0,0,0,0,0,0],"id":13,"left_children":[1,3,5,-1,-1,-1,-1],"loss_changes":[1.6887522E7,3.9026818E6,3.024799E6,0E0,0E0,0E0,0E0],"parents":[2147483647,0,0,1,1,2,2],"right_children":[2,4,6,-1,-1,-1,-1],"split_conditions":[1.0256E3,4E1,3.31E1,-1.7539981E-1,1.5939984E-2,7.6038337E-1,2.6519972E-1],"split_indices":[14,3,7,0,0,0,0],"split_type":[0,0,0,0,0,0,0],"sum_hessian":[4.906E4,4.402E4,5.04E3,1.811E4,2.591E4,2.88E3,2.16E3],"tree_param":{"num_deleted":"0","num_feature":"25","num_nodes":"7","size_leaf_vector":"1"}},{"base_weights":[2.6290986E-4,-6.215227E0,5.4277603E1,-1.6999872E-1,1.8468536E-2,7.527823E-1,2.6254895E-1],"categories":[],"categories_nodes":[],"categories_segments":[],"categories_sizes":[],"default_left":[1,0,0,0,0,0,0],"id":14,"left_children":[1,3,5,-1,-1,-1,-1],"loss_changes":[1.6551569E7,3.8275115E6,2.964622E6,0E0,0E0,0E0,0E0],"parents":[2147483647,0,0,1,1,2,2],"right_children":[2,4,6,-1,-1,-1,-1],"split_conditions":[1.0256E3,4.5E1,3.31E1,-1.6999872E-1,1.8468536E-2,7.527823E-1,2.6254895E-1],"split_indices":[14,3,7,0,0,0,0],"split_type":[0,0,0,0,0,0,0],"sum_hessian":[4.906E4,4.402E4,5.04E3,1.883E4,2.519E4,2.88E3,2.16E3],"tree_param":{"num_deleted":"0","num_feature":"25","num_nodes":"7","size_leaf_vector":"1"}},{"base_weights":[2.8688303E-4,-6.1530685E0,5.3735035E1,-1.7194572E-1,1.5648436E-2,7.452571E-1,2.5992474E-1],"categories":[],"categories_nodes":[],"categories_segments":[],"categories_sizes":[],"default_left":[1,0,0,0,0,0,0],"id":15,"left_children":[1,3,5,-1,-1,-1,-1],"loss_changes":[1.6222301E7,3.7513798E6,2.905645E6,0E0,0E0,0E0,0E0],"parents":[2147483647,0,0,1,1,2,2],"right_children":[2,4,6,-1,-1,-1,-1],"split_conditions":[1.0256E3,4E1,3.31E1,-1.7194572E-1,1.5648436E-2,7.452571E-1,2.5992474E-1],"split_indices":[14,3,7,0,0,0,0],"split_type":[0,0,0,0,0,0,0],"sum_hessian":[4.906E4,4.402E4,5.04E3,1.811E4,2.591E4,2.88E3,2.16E3],"tree_param":{"num_deleted":"0","num_feature":"25","num_nodes":"7","size_leaf_vector":"1"}},{"base_weights":[2.93545E-4,-6.09155E0,5.319788E1,-1.6665113E-1,1.8127363E-2,7.37807E-1,2.5732678E-1],"categories":[],"categories_nodes":[],"categories_segments":[],"categories_sizes":[],"default_left":[1,0,0,0,0,0,0],"id":16,"left_children":[1,3,5,-1,-1,-1,-1],"loss_changes":[1.5899588E7,3.6791502E6,2.847836E6,0E0,0E0,0E0,0E0],"parents":[2147483647,0,0,1,1,2,2],"right_children":[2,4,6,-1,-1,-1,-1],"split_conditions":[1.0256E3,4.5E1,3.31E1,-1.6665113E-1,1.8127363E-2,7.37807E-1,2.5732678E-1],"split_indices":[14,3,7,0,0,0,0],"split_type":[0,0,0,0,0,0,0],"sum_hessian":[4.906E4,4.402E4,5.04E3,1.883E4,2.519E4,2.88E3,2.16E3],"tree_param":{"num_deleted":"0","num_feature":"25","num_nodes":"7","size_leaf_vector":"1"}},{"base_weights":[3.1081887E-4,-6.0306354E0,5.2666107E1,-1.6855998E-1,1.5361967E-2,7.3043156E-1,2.5475472E-1],"categories":[],"categories_nodes":[],"categories_segments":[],"categories_sizes":[],"default_left":[1,0,0,0,0,0,0],"id":17,"left_children":[1,3,5,-1,-1,-1,-1],"loss_changes":[1.5583297E7,3.6059495E6,2.791181E6,0E0,0E0,0E0,0E0],"parents":[2147483647,0,0,1,1,2,2],"right_children":[2,4,6,-1,-1,-1,-1],"split_conditions":[1.0256E3,4E1,3.31E1,-1.6855998E-1,1.5361967E-2,7.3043156E-1,2.5475472E-1],"split_indices":[14,3,7,0,0,0,0],"split_type":[0,0,0,0,0,0,0],"sum_hessian":[4.906E4,4.402E4,5.04E3,1.811E4,2.591E4,2.88E3,2.16E3],"tree_param":{"num_deleted":"0","num_feature":"25","num_nodes":"7","size_leaf_vector":"1"}},{"base_weights":[3.2594672E-4,-5.97033E0,5.2139637E1,-1.6336958E-1,1.77926E-2,7.231298E-1,2.522083E-1],"categories":[],"categories_nodes":[],"categories_segments":[],"categories_sizes":[],"default_left":[1,0,0,0,0,0,0],"id":18,"left_children":[1,3,5,-1,-1,-1,-1],"loss_changes":[1.527329E7,3.5365495E6,2.735652E6,0E0,0E0,0E0,0E0],"parents":[2147483647,0,0,1,1,2,2],"right_children":[2,4,6,-1,-1,-1,-1],"split_conditions":[1.0256E3,4.5E1,3.31E1,-1.6336958E-1,1.77926E-2,7.231298E-1,2.522083E-1],"split_indices":[14,3,7,0,0,0,0],"split_type":[0,0,0,0,0,0,0],"sum_hessian":[4.906E4,4.402E4,5.04E3,1.883E4,2.519E4,2.88E3,2.16E3],"tree_param":{"num_deleted":"0","num_feature":"25","num_nodes":"7","size_leaf_vector":"1"}},{"base_weights":[3.3621027E-4,-5.9106336E0,5.1618427E1,-1.6173604E-1,1.7614689E-2,7.1590084E-1,2.4968748E-1],"categories":[],"categories_nodes":[],"categories_segments":[],"categories_sizes":[],"default_left":[1,0,0,0,0,0,0],"id":19,"left_children":[1,3,5,-1,-1,-1,-1],"loss_changes":[1.4969454E7,3.4661795E6,2.681224E6,0E0,0E0,0E0,0E0],"parents":[2147483647,0,0,1,1,2,2],"right_children":[2,4,6,-1,-1,-1,-1],"split_conditions":[1.0256E3,4.5E1,3.31E1,-1.6173604E-1,1.7614689E-2,7.1590084E-1,2.4968748E-1],"split_indices":[14,3,7,0,0,0,0],"split_type":[0,0,0,0,0,0,0],"sum_hessian":[4.906E4,4.402E4,5.04E3,1.883E4,2.519E4,2.88E3,2.16E3],"tree_param":{"num_deleted":"0","num_feature":"25","num_nodes":"7","size_leaf_vector":"1"}},{"base_weights":[3.544545E-4,-5.851524E0,5.110243E1,-1.6362374E-1,1.4954654E-2,7.0874417E-1,2.471917E-1],"categories":[],"categories_nodes":[],"categories_segments":[],"categories_sizes":[],"default_left":[1,0,0,0,0,0,0],"id":20,"left_children":[1,3,5,-1,-1,-1,-1],"loss_changes":[1.4671654E7,3.3994628E6,2.627884E6,0E0,0E0,0E0,0E0],"parents":[2147483647,0,0,1,1,2,2],"right_children":[2,4,6,-1,-1,-1,-1],"split_conditions":[1.0256E3,4E1,3.31E1,-1.6362374E-1,1.4954654E-2,7.0874417E-1,2.471917E-1],"split_indices":[14,3,7,0,0,0,0],"split_type":[0,0,0,0,0,0,0],"sum_hessian":[4.906E4,4.402E4,5.04E3,1.811E4,2.591E4,2.88E3,2.16E3],"tree_param":{"num_deleted":"0","num_feature":"25","num_nodes":"7","size_leaf_vector":"1"}},{"base_weights":[3.7236908E-4,-5.793007E0,5.0591595E1,-1.6198747E-1,1.4805123E-2,7.016592E-1,2.447209E-1],"categories":[],"categories_nodes":[],"categories_segments":[],"categories_sizes":[],"default_left":[1,0,0,0,0,0,0],"id":21,"left_children":[1,3,5,-1,-1,-1,-1],"loss_changes":[1.4379785E7,3.3318135E6,2.575605E6,0E0,0E0,0E0,0E0],"parents":[2147483647,0,0,1,1,2,2],"right_children":[2,4,6,-1,-1,-1,-1],"split_conditions":[1.0256E3,4E1,3.31E1,-1.6198747E-1,1.4805123E-2,7.016592E-1,2.447209E-1],"split_indices":[14,3,7,0,0,0,0],"split_type":[0,0,0,0,0,0,0],"sum_hessian":[4.906E4,4.402E4,5.04E3,1.811E4,2.591E4,2.88E3,2.16E3],"tree_param":{"num_deleted":"0","num_feature":"25","num_nodes":"7","size_leaf_vector":"1"}},{"base_weights":[3.870055E-4,-5.735078E0,5.0085865E1,-1.5699853E-1,1.7141074E-2,6.9464505E-1,2.4227484E-1],"categories":[],"categories_nodes":[],"categories_segments":[],"categories_sizes":[],"default_left":[1,0,0,0,0,0,0],"id":22,"left_children":[1,3,5,-1,-1,-1,-1],"loss_changes":[1.4093722E7,3.267682E6,2.524364E6,0E0,0E0,0E0,0E0],"parents":[2147483647,0,0,1,1,2,2],"right_children":[2,4,6,-1,-1,-1,-1],"split_conditions":[1.0256E3,4.5E1,3.31E1,-1.5699853E-1,1.7141074E-2,6.9464505E-1,2.4227484E-1],"split_indices":[14,3,7,0,0,0,0],"split_type":[0,0,0,0,0,0,0],"sum_hessian":[4.906E4,4.402E4,5.04E3,1.883E4,2.519E4,2.88E3,2.16E3],"tree_param":{"num_deleted":"0","num_feature":"25","num_nodes":"7","size_leaf_vector":"1"}},{"base_weights":[3.9992513E-4,-5.6777296E0,4.9585194E1,-1.5542848E-1,1.6969573E-2,6.877011E-1,2.3985317E-1],"categories":[],"categories_nodes":[],"categories_segments":[],"categories_sizes":[],"default_left":[1,0,0,0,0,0,0],"id":23,"left_children":[1,3,5,-1,-1,-1,-1],"loss_changes":[1.3813352E7,3.2026495E6,2.474144E6,0E0,0E0,0E0,0E0],"parents":[2147483647,0,0,1,1,2,2],"right_children":[2,4,6,-1,-1,-1,-1],"split_conditions":[1.0256E3,4.5E1,3.31E1,-1.5542848E-1,1.6969573E-2,6.877011E-1,2.3985317E-1],"split_indices":[14,3,7,0,0,0,0],"split_type":[0,0,0,0,0,0,0],"sum_hessian":[4.906E4,4.402E4,5.04E3,1.883E4,2.519E4,2.88E3,2.16E3],"tree_param":{"num_deleted":"0","num_feature":"25","num_nodes":"7","size_leaf_vector":"1"}},{"base_weights":[4.1059303E-4,-5.6209555E0,4.908951E1,-1.5724346E-1,1.4412246E-2,6.808263E-1,2.3745559E-1],"categories":[],"categories_nodes":[],"categories_segments":[],"categories_sizes":[],"default_left":[1,0,0,0,0,0,0],"id":24,"left_children":[1,3,5,-1,-1,-1,-1],"loss_changes":[1.3538552E7,3.1410078E6,2.424922E6,0E0,0E0,0E0,0E0],"parents":[2147483647,0,0,1,1,2,2],"right_children":[2,4,6,-1,-1,-1,-1],"split_conditions":[1.0256E3,4E1,3.31E1,-1.5724346E-1,1.4412246E-2,6.808263E-1,2.3745559E-1],"split_indices":[14,3,7,0,0,0,0],"split_type":[0,0,0,0,0,0,0],"sum_hessian":[4.906E4,4.402E4,5.04E3,1.811E4,2.591E4,2.88E3,2.16E3],"tree_param":{"num_deleted":"0","num_feature":"25","num_nodes":"7","size_leaf_vector":"1"}},{"base_weights":[4.3200963E-4,-5.5647388E0,4.8598804E1,-1.5567099E-1,1.4268207E-2,6.740205E-1,2.3508212E-1],"categories":[],"categories_nodes":[],"categories_segments":[],"categories_sizes":[],"default_left":[1,0,0,0,0,0,0],"id":25,"left_children":[1,3,5,-1,-1,-1,-1],"loss_changes":[1.3269222E7,3.078503E6,2.376682E6,0E0,0E0,0E0,0E0],"parents":[2147483647,0,0,1,1,2,2],"right_children":[2,4,6,-1,-1,-1,-1],"split_conditions":[1.0256E3,4E1,3.31E1,-1.5567099E-1,1.4268207E-2,6.740205E-1,2.3508212E-1],"split_indices":[14,3,7,0,0,0,0],"split_type":[0,0,0,0,0,0,0],"sum_hessian":[4.906E4,4.402E4,5.04E3,1.811E4,2.591E4,2.88E3,2.16E3],"tree_param":{"num_deleted":"0","num_feature":"25","num_nodes":"7","size_leaf_vector":"1"}},{"base_weights":[4.364074E-4,-5.5091033E0,4.8113003E1,-1.508758E-1,1.6513048E-2,6.6728276E-1,2.3273245E-1],"categories":[],"categories_nodes":[],"categories_segments":[],"categories_sizes":[],"default_left":[1,0,0,0,0,0,0],"id":26,"left_children":[1,3,5,-1,-1,-1,-1],"loss_changes":[1.3005262E7,3.019241E6,2.329399E6,0E0,0E0,0E0,0E0],"parents":[2147483647,0,0,1,1,2,2],"right_children":[2,4,6,-1,-1,-1,-1],"split_conditions":[1.0256E3,4.5E1,3.31E1,-1.508758E-1,1.6513048E-2,6.6728276E-1,2.3273245E-1],"split_indices":[14,3,7,0,0,0,0],"split_type":[0,0,0,0,0,0,0],"sum_hessian":[4.906E4,4.402E4,5.04E3,1.883E4,2.519E4,2.88E3,2.16E3],"tree_param":{"num_deleted":"0","num_feature":"25","num_nodes":"7","size_leaf_vector":"1"}},{"base_weights":[4.497749E-4,-5.4540124E0,4.7632046E1,-1.4936711E-1,1.6347954E-2,6.606121E-1,2.3040624E-1],"categories":[],"categories_nodes":[],"categories_segments":[],"categories_sizes":[],"default_left":[1,0,0,0,0,0,0],"id":27,"left_children":[1,3,5,-1,-1,-1,-1],"loss_changes":[1.274654E7,2.9591615E6,2.283057E6,0E0,0E0,0E0,0E0],"parents":[2147483647,0,0,1,1,2,2],"right_children":[2,4,6,-1,-1,-1,-1],"split_conditions":[1.0256E3,4.5E1,3.31E1,-1.4936711E-1,1.6347954E-2,6.606121E-1,2.3040624E-1],"split_indices":[14,3,7,0,0,0,0],"split_type":[0,0,0,0,0,0,0],"sum_hessian":[4.906E4,4.402E4,5.04E3,1.883E4,2.519E4,2.88E3,2.16E3],"tree_param":{"num_deleted":"0","num_feature":"25","num_nodes":"7","size_leaf_vector":"1"}},{"base_weights":[4.5028498E-4,-5.3994865E0,4.71559E1,-1.5111221E-1,1.3889289E-2,6.5400827E-1,2.2810324E-1],"categories":[],"categories_nodes":[],"categories_segments":[],"categories_sizes":[],"default_left":[1,0,0,0,0,0,0],"id":28,"left_children":[1,3,5,-1,-1,-1,-1],"loss_changes":[1.2492974E7,2.9022065E6,2.237636E6,0E0,0E0,0E0,0E0],"parents":[2147483647,0,0,1,1,2,2],"right_children":[2,4,6,-1,-1,-1,-1],"split_conditions":[1.0256E3,4E1,3.31E1,-1.5111221E-1,1.3889289E-2,6.5400827E-1,2.2810324E-1],"split_indices":[14,3,7,0,0,0,0],"split_type":[0,0,0,0,0,0,0],"sum_hessian":[4.906E4,4.402E4,5.04E3,1.811E4,2.591E4,2.88E3,2.16E3],"tree_param":{"num_deleted":"0","num_feature":"25","num_nodes":"7","size_leaf_vector":"1"}},{"base_weights":[4.6679995E-4,-5.345488E0,4.6684513E1,-1.4960107E-1,1.37504395E-2,6.474703E-1,2.2582342E-1],"categories":[],"categories_nodes":[],"categories_segments":[],"categories_sizes":[],"default_left":[1,0,0,0,0,0,0],"id":29,"left_children":[1,3,5,-1,-1,-1,-1],"loss_changes":[1.2244444E7,2.844453E6,2.193116E6,0E0,0E0,0E0,0E0],"parents":[2147483647,0,0,1,1,2,2],"right_children":[2,4,6,-1,-1,-1,-1],"split_conditions":[1.0256E3,4E1,3.31E1,-1.4960107E-1,1.37504395E-2,6.474703E-1,2.2582342E-1],"split_indices":[14,3,7,0,0,0,0],"split_type":[0,0,0,0,0,0,0],"sum_hessian":[4.906E4,4.402E4,5.04E3,1.811E4,2.591E4,2.88E3,2.16E3],"tree_param":{"num_deleted":"0","num_feature":"25","num_nodes":"7","size_leaf_vector":"1"}},{"base_weights":[4.6912013E-4,-5.2920456E0,4.6217846E1,-1.4499217E-1,1.5907908E-2,6.409979E-1,2.2356614E-1],"categories":[],"categories_nodes":[],"categories_segments":[],"categories_sizes":[],"default_left":[1,0,0,0,0,0,0],"id":30,"left_children":[1,3,5,-1,-1,-1,-1],"loss_changes":[1.2000867E7,2.789698E6,2.149487E6,0E0,0E0,0E0,0E0],"parents":[2147483647,0,0,1,1,2,2],"right_children":[2,4,6,-1,-1,-1,-1],"split_conditions":[1.0256E3,4.5E1,3.31E1,-1.4499217E-1,1.5907908E-2,6.409979E-1,2.2356614E-1],"split_indices":[14,3,7,0,0,0,0],"split_type":[0,0,0,0,0,0,0],"sum_hessian":[4.906E4,4.402E4,5.04E3,1.883E4,2.519E4,2.88E3,2.16E3],"tree_param":{"num_deleted":"0","num_feature":"25","num_nodes":"7","size_leaf_vector":"1"}},{"base_weights":[4.8259337E-4,-5.239125E0,4.575584E1,-1.4354235E-1,1.5748918E-2,5.6466156E-1,6.4687796E-2],"categories":[],"categories_nodes":[],"categories_segments":[],"categories_sizes":[],"default_left":[1,0,1,0,0,0,0],"id":31,"left_children":[1,3,5,-1,-1,-1,-1],"loss_changes":[1.1762129E7,2.7341895E6,2.120771E6,0E0,0E0,0E0,0E0],"parents":[2147483647,0,0,1,1,2,2],"right_children":[2,4,6,-1,-1,-1,-1],"split_conditions":[1.0256E3,4.5E1,3.1E1,-1.4354235E-1,1.5748918E-2,5.6466156E-1,6.4687796E-2],"split_indices":[14,3,12,0,0,0,0],"split_type":[0,0,0,0,0,0,0],"sum_hessian":[4.906E4,4.402E4,5.04E3,1.883E4,2.519E4,3.96E3,1.08E3],"tree_param":{"num_deleted":"0","num_feature":"25","num_nodes":"7","size_leaf_vector":"1"}},{"base_weights":[4.930435E-4,-5.18673E0,4.52984E1,-1.452199E-1,1.33853275E-2,6.289456E-1,2.1818611E-1],"categories":[],"categories_nodes":[],"categories_segments":[],"categories_sizes":[],"default_left":[1,0,0,0,0,0,0],"id":32,"left_children":[1,3,5,-1,-1,-1,-1],"loss_changes":[1.1528115E7,2.68156E6,2.081337E6,0E0,0E0,0E0,0E0],"parents":[2147483647,0,0,1,1,2,2],"right_children":[2,4,6,-1,-1,-1,-1],"split_conditions":[1.0256E3,4E1,3.31E1,-1.452199E-1,1.33853275E-2,6.289456E-1,2.1818611E-1],"split_indices":[14,3,7,0,0,0,0],"split_type":[0,0,0,0,0,0,0],"sum_hessian":[4.906E4,4.402E4,5.04E3,1.811E4,2.591E4,2.88E3,2.16E3],"tree_param":{"num_deleted":"0","num_feature":"25","num_nodes":"7","size_leaf_vector":"1"}},{"base_weights":[5.011797E-4,-5.134867E0,4.4845585E1,-1.4376765E-1,1.3251361E-2,5.538484E-1,6.1861433E-2],"categories":[],"categories_nodes":[],"categories_segments":[],"categories_sizes":[],"default_left":[1,0,1,0,0,0,0],"id":33,"left_children":[1,3,5,-1,-1,-1,-1],"loss_changes":[1.1298784E7,2.628191E6,2.053571E6,0E0,0E0,0E0,0E0],"parents":[2147483647,0,0,1,1,2,2],"right_children":[2,4,6,-1,-1,-1,-1],"split_conditions":[1.0256E3,4E1,3.1E1,-1.4376765E-1,1.3251361E-2,5.538484E-1,6.1861433E-2],"split_indices":[14,3,12,0,0,0,0],"split_type":[0,0,0,0,0,0,0],"sum_hessian":[4.906E4,4.402E4,5.04E3,1.811E4,2.591E4,3.96E3,1.08E3],"tree_param":{"num_deleted":"0","num_feature":"25","num_nodes":"7","size_leaf_vector":"1"}},{"base_weights":[5.086877E-4,-5.0835176E0,4.439724E1,-1.393377E-1,1.5325045E-2,6.1712164E-1,2.1292792E-1],"categories":[],"categories_nodes":[],"categories_segments":[],"categories_sizes":[],"default_left":[1,0,0,0,0,0,0],"id":34,"left_children":[1,3,5,-1,-1,-1,-1],"loss_changes":[1.1073987E7,2.5776038E6,2.015347E6,0E0,0E0,0E0,0E0],"parents":[2147483647,0,0,1,1,2,2],"right_children":[2,4,6,-1,-1,-1,-1],"split_conditions":[1.0256E3,4.5E1,3.31E1,-1.393377E-1,1.5325045E-2,6.1712164E-1,2.1292792E-1],"split_indices":[14,3,7,0,0,0,0],"split_type":[0,0,0,0,0,0,0],"sum_hessian":[4.906E4,4.402E4,5.04E3,1.883E4,2.519E4,2.88E3,2.16E3],"tree_param":{"num_deleted":"0","num_feature":"25","num_nodes":"7","size_leaf_vector":"1"}},{"base_weights":[5.228203E-4,-5.0326796E0,4.395343E1,-1.3794436E-1,1.5171853E-2,5.432436E-1,5.911617E-2],"categories":[],"categories_nodes":[],"categories_segments":[],"categories_sizes":[],"default_left":[1,0,1,0,0,0,0],"id":35,"left_children":[1,3,5,-1,-1,-1,-1],"loss_changes":[1.0853686E7,2.526312E6,1.988499E6,0E0,0E0,0E0,0E0],"parents":[2147483647,0,0,1,1,2,2],"right_children":[2,4,6,-1,-1,-1,-1],"split_conditions":[1.0256E3,4.5E1,3.1E1,-1.3794436E-1,1.5171853E-2,5.432436E-1,5.911617E-2],"split_indices":[14,3,12,0,0,0,0],"split_type":[0,0,0,0,0,0,0],"sum_hessian":[4.906E4,4.402E4,5.04E3,1.883E4,2.519E4,3.96E3,1.08E3],"tree_param":{"num_deleted":"0","num_feature":"25","num_nodes":"7","size_leaf_vector":"1"}},{"base_weights":[5.2795204E-4,-4.982355E0,4.3514015E1,-1.3955738E-1,1.2899582E-2,6.05522E-1,2.077893E-1],"categories":[],"categories_nodes":[],"categories_segments":[],"categories_sizes":[],"default_left":[1,0,0,0,0,0,0],"id":36,"left_children":[1,3,5,-1,-1,-1,-1],"loss_changes":[1.0637751E7,2.4776902E6,1.951447E6,0E0,0E0,0E0,0E0],"parents":[2147483647,0,0,1,1,2,2],"right_children":[2,4,6,-1,-1,-1,-1],"split_conditions":[1.0256E3,4E1,3.31E1,-1.3955738E-1,1.2899582E-2,6.05522E-1,2.077893E-1],"split_indices":[14,3,7,0,0,0,0],"split_type":[0,0,0,0,0,0,0],"sum_hessian":[4.906E4,4.402E4,5.04E3,1.811E4,2.591E4,2.88E3,2.16E3],"tree_param":{"num_deleted":"0","num_feature":"25","num_nodes":"7","size_leaf_vector":"1"}},{"base_weights":[5.308756E-4,-4.93254E0,4.3079033E1,2.6653701E-2,-1.22244604E-1,5.328432E-1,5.6449573E-2],"categories":[],"categories_nodes":[],"categories_segments":[],"categories_sizes":[],"default_left":[1,1,1,0,0,0,0],"id":37,"left_children":[1,3,5,-1,-1,-1,-1],"loss_changes":[1.0426131E7,2.438944E6,1.925492E6,0E0,0E0,0E0,0E0],"parents":[2147483647,0,0,1,1,2,2],"right_children":[2,4,6,-1,-1,-1,-1],"split_conditions":[1.0256E3,6.3E1,3.1E1,2.6653701E-2,-1.22244604E-1,5.328432E-1,5.6449573E-2],"split_indices":[14,11,12,0,0,0,0],"split_type":[0,0,0,0,0,0,0],"sum_hessian":[4.906E4,4.402E4,5.04E3,2.1558E4,2.2462E4,3.96E3,1.08E3],"tree_param":{"num_deleted":"0","num_feature":"25","num_nodes":"7","size_leaf_vector":"1"}},{"base_weights":[5.45206E-4,-4.688049E0,4.4453545E1,-1.3426723E-1,1.7525084E-2,5.875162E-1,1.2264432E-1],"categories":[],"categories_nodes":[],"categories_segments":[],"categories_sizes":[],"default_left":[1,0,1,0,0,0,0],"id":38,"left_children":[1,3,5,-1,-1,-1,-1],"loss_changes":[1.0225604E7,2.4978725E6,2.153673E6,0E0,0E0,0E0,0E0],"parents":[2147483647,0,0,1,1,2,2],"right_children":[2,4,6,-1,-1,-1,-1],"split_conditions":[1.0261E3,4.5E1,2.9E1,-1.3426723E-1,1.7525084E-2,5.875162E-1,1.2264432E-1],"split_indices":[14,3,12,0,0,0,0],"split_type":[0,0,0,0,0,0,0],"sum_hessian":[4.906E4,4.438E4,4.68E3,1.883E4,2.555E4,3.24E3,1.44E3],"tree_param":{"num_deleted":"0","num_feature":"25","num_nodes":"7","size_leaf_vector":"1"}},{"base_weights":[5.591769E-4,-4.641162E0,4.4009155E1,-1.3292454E-1,1.734992E-2,5.8164275E-1,1.2141868E-1],"categories":[],"categories_nodes":[],"categories_segments":[],"categories_sizes":[],"default_left":[1,0,1,0,0,0,0],"id":39,"left_children":[1,3,5,-1,-1,-1,-1],"loss_changes":[1.0022171E7,2.4481665E6,2.110823E6,0E0,0E0,0E0,0E0],"parents":[2147483647,0,0,1,1,2,2],"right_children":[2,4,6,-1,-1,-1,-1],"split_conditions":[1.0261E3,4.5E1,2.9E1,-1.3292454E-1,1.734992E-2,5.8164275E-1,1.2141868E-1],"split_indices":[14,3,12,0,0,0,0],"split_type":[0,0,0,0,0,0,0],"sum_hessian":[4.906E4,4.438E4,4.68E3,1.883E4,2.555E4,3.24E3,1.44E3],"tree_param":{"num_deleted":"0","num_feature":"25","num_nodes":"7","size_leaf_vector":"1"}},{"base_weights":[5.6204444E-4,-4.788867E0,4.182469E1,2.6502585E-2,-1.1928399E-1,5.176992E-1,5.3446982E-2],"categories":[],"categories_nodes":[],"categories_segments":[],"categories_sizes":[],"default_left":[1,1,1,0,0,0,0],"id":40,"left_children":[1,3,5,-1,-1,-1,-1],"loss_changes":[9.827791E6,2.3380695E6,1.828608E6,0E0,0E0,0E0,0E0],"parents":[2147483647,0,0,1,1,2,2],"right_children":[2,4,6,-1,-1,-1,-1],"split_conditions":[1.0256E3,6.3E1,3.1E1,2.6502585E-2,-1.1928399E-1,5.176992E-1,5.3446982E-2],"split_indices":[14,11,12,0,0,0,0],"split_type":[0,0,0,0,0,0,0],"sum_hessian":[4.906E4,4.402E4,5.04E3,2.1558E4,2.2462E4,3.96E3,1.08E3],"tree_param":{"num_deleted":"0","num_feature":"25","num_nodes":"7","size_leaf_vector":"1"}},{"base_weights":[5.764097E-4,-4.5514474E0,4.315874E1,-1.3355489E-1,1.518156E-2,5.706528E-1,1.1851137E-1],"categories":[],"categories_nodes":[],"categories_segments":[],"categories_sizes":[],"default_left":[1,0,1,0,0,0,0],"id":41,"left_children":[1,3,5,-1,-1,-1,-1],"loss_changes":[9.638572E6,2.3716095E6,2.03734E6,0E0,0E0,0E0,0E0],"parents":[2147483647,0,0,1,1,2,2],"right_children":[2,4,6,-1,-1,-1,-1],"split_conditions":[1.0261E3,4E1,2.9E1,-1.3355489E-1,1.518156E-2,5.706528E-1,1.1851137E-1],"split_indices":[14,3,12,0,0,0,0],"split_type":[0,0,0,0,0,0,0],"sum_hessian":[4.906E4,4.438E4,4.68E3,1.811E4,2.627E4,3.24E3,1.44E3],"tree_param":{"num_deleted":"0","num_feature":"25","num_nodes":"7","size_leaf_vector":"1"}},{"base_weights":[5.869158E-4,-4.505931E0,4.2727306E1,1.118456E-2,-1.3848388E-1,5.649481E-1,1.173272E-1],"categories":[],"categories_nodes":[],"categories_segments":[],"categories_sizes":[],"default_left":[1,1,1,0,0,0,0],"id":42,"left_children":[1,3,5,-1,-1,-1,-1],"loss_changes":[9.446826E6,2.332042E6,1.996804E6,0E0,0E0,0E0,0E0],"parents":[2147483647,0,0,1,1,2,2],"right_children":[2,4,6,-1,-1,-1,-1],"split_conditions":[1.0261E3,3.6E1,2.9E1,1.118456E-2,-1.3848388E-1,5.649481E-1,1.173272E-1],"split_indices":[14,8,12,0,0,0,0],"split_type":[0,0,0,0,0,0,0],"sum_hessian":[4.906E4,4.438E4,4.68E3,2.7703E4,1.6677E4,3.24E3,1.44E3],"tree_param":{"num_deleted":"0","num_feature":"25","num_nodes":"7","size_leaf_vector":"1"}},{"base_weights":[6.0262094E-4,-4.649429E0,4.0607433E1,2.6177978E-2,-1.1623986E-1,5.029964E-1,5.0556898E-2],"categories":[],"categories_nodes":[],"categories_segments":[],"categories_sizes":[],"default_left":[1,1,1,0,0,0,0],"id":43,"left_children":[1,3,5,-1,-1,-1,-1],"loss_changes":[9.264036E6,2.2312655E6,1.736747E6,0E0,0E0,0E0,0E0],"parents":[2147483647,0,0,1,1,2,2],"right_children":[2,4,6,-1,-1,-1,-1],"split_conditions":[1.0256E3,6.3E1,3.1E1,2.6177978E-2,-1.1623986E-1,5.029964E-1,5.0556898E-2],"split_indices":[14,11,12,0,0,0,0],"split_type":[0,0,0,0,0,0,0],"sum_hessian":[4.906E4,4.402E4,5.04E3,2.1558E4,2.2462E4,3.96E3,1.08E3],"tree_param":{"num_deleted":"0","num_feature":"25","num_nodes":"7","size_leaf_vector":"1"}},{"base_weights":[6.0430914E-4,-4.4188304E0,4.190168E1,-1.2743361E-1,1.7164933E-2,5.5427206E-1,1.14519015E-1],"categories":[],"categories_nodes":[],"categories_segments":[],"categories_sizes":[],"default_left":[1,0,1,0,0,0,0],"id":44,"left_children":[1,3,5,-1,-1,-1,-1],"loss_changes":[9.085255E6,2.2667232E6,1.927231E6,0E0,0E0,0E0,0E0],"parents":[2147483647,0,0,1,1,2,2],"right_children":[2,4,6,-1,-1,-1,-1],"split_conditions":[1.0261E3,4.5E1,2.9E1,-1.2743361E-1,1.7164933E-2,5.5427206E-1,1.14519015E-1],"split_indices":[14,3,12,0,0,0,0],"split_type":[0,0,0,0,0,0,0],"sum_hessian":[4.906E4,4.438E4,4.68E3,1.883E4,2.555E4,3.24E3,1.44E3],"tree_param":{"num_deleted":"0","num_feature":"25","num_nodes":"7","size_leaf_vector":"1"}},{"base_weights":[6.203452E-4,-4.3746333E0,4.148281E1,-1.2896432E-1,1.500388E-2,5.4873115E-1,1.1337448E-1],"categories":[],"categories_nodes":[],"categories_segments":[],"categories_sizes":[],"default_left":[1,0,1,0,0,0,0],"id":45,"left_children":[1,3,5,-1,-1,-1,-1],"loss_changes":[8.904512E6,2.2219872E6,1.8888905E6,0E0,0E0,0E0,0E0],"parents":[2147483647,0,0,1,1,2,2],"right_children":[2,4,6,-1,-1,-1,-1],"split_conditions":[1.0261E3,4E1,2.9E1,-1.2896432E-1,1.500388E-2,5.4873115E-1,1.1337448E-1],"split_indices":[14,3,12,0,0,0,0],"split_type":[0,0,0,0,0,0,0],"sum_hessian":[4.906E4,4.438E4,4.68E3,1.811E4,2.627E4,3.24E3,1.44E3],"tree_param":{"num_deleted":"0","num_feature":"25","num_nodes":"7","size_leaf_vector":"1"}},{"base_weights":[6.203327E-4,-4.514021E0,3.9425144E1,2.6013788E-2,-1.13428675E-1,4.8870912E-1,4.7774743E-2],"categories":[],"categories_nodes":[],"categories_segments":[],"categories_sizes":[],"default_left":[1,1,1,0,0,0,0],"id":46,"left_children":[1,3,5,-1,-1,-1,-1],"loss_changes":[8.732426E6,2.1390088E6,1.6495555E6,0E0,0E0,0E0,0E0],"parents":[2147483647,0,0,1,1,2,2],"right_children":[2,4,6,-1,-1,-1,-1],"split_conditions":[1.0256E3,6.3E1,3.1E1,2.6013788E-2,-1.13428675E-1,4.8870912E-1,4.7774743E-2],"split_indices":[14,11,12,0,0,0,0],"split_type":[0,0,0,0,0,0,0],"sum_hessian":[4.906E4,4.402E4,5.04E3,2.1558E4,2.2462E4,3.96E3,1.08E3],"tree_param":{"num_deleted":"0","num_feature":"25","num_nodes":"7","size_leaf_vector":"1"}},{"base_weights":[6.316525E-4,-4.2900777E0,4.068125E1,-1.2403567E-1,1.689704E-2,5.383599E-1,1.1066267E-1],"categories":[],"categories_nodes":[],"categories_segments":[],"categories_sizes":[],"default_left":[1,0,1,0,0,0,0],"id":47,"left_children":[1,3,5,-1,-1,-1,-1],"loss_changes":[8.563709E6,2.1532495E6,1.823016E6,0E0,0E0,0E0,0E0],"parents":[2147483647,0,0,1,1,2,2],"right_children":[2,4,6,-1,-1,-1,-1],"split_conditions":[1.0261E3,4.5E1,2.9E1,-1.2403567E-1,1.689704E-2,5.383599E-1,1.1066267E-1],"split_indices":[14,3,12,0,0,0,0],"split_type":[0,0,0,0,0,0,0],"sum_hessian":[4.906E4,4.438E4,4.68E3,1.883E4,2.555E4,3.24E3,1.44E3],"tree_param":{"num_deleted":"0","num_feature":"25","num_nodes":"7","size_leaf_vector":"1"}},{"base_weights":[6.2676327E-4,-4.425497E0,3.8652164E1,2.5801234E-2,-1.1148986E-1,4.793037E-1,4.6192043E-2],"categories":[],"categories_nodes":[],"categories_segments":[],"categories_sizes":[],"default_left":[1,1,1,0,0,0,0],"id":48,"left_children":[1,3,5,-1,-1,-1,-1],"loss_changes":[8.393355E6,2.0735156E6,1.5915485E6,0E0,0E0,0E0,0E0],"parents":[2147483647,0,0,1,1,2,2],"right_children":[2,4,6,-1,-1,-1,-1],"split_conditions":[1.0256E3,6.3E1,3.1E1,2.5801234E-2,-1.1148986E-1,4.793037E-1,4.6192043E-2],"split_indices":[14,11,12,0,0,0,0],"split_type":[0,0,0,0,0,0,0],"sum_hessian":[4.906E4,4.402E4,5.04E3,2.1558E4,2.2462E4,3.96E3,1.08E3],"tree_param":{"num_deleted":"0","num_feature":"25","num_nodes":"7","size_leaf_vector":"1"}},{"base_weights":[6.306796E-4,-4.207182E0,3.9895298E1,1.116071E-2,-1.3049442E-1,5.281863E-1,1.0801314E-1],"categories":[],"categories_nodes":[],"categories_segments":[],"categories_sizes":[],"default_left":[1,1,1,0,0,0,0],"id":49,"left_children":[1,3,5,-1,-1,-1,-1],"loss_changes":[8.2360035E6,2.0890098E6,1.759444E6,0E0,0E0,0E0,0E0],"parents":[2147483647,0,0,1,1,2,2],"right_children":[2,4,6,-1,-1,-1,-1],"split_conditions":[1.0261E3,3.6E1,2.9E1,1.116071E-2,-1.3049442E-1,5.281863E-1,1.0801314E-1],"split_indices":[14,8,12,0,0,0,0],"split_type":[0,0,0,0,0,0,0],"sum_hessian":[4.906E4,4.438E4,4.68E3,2.7703E4,1.6677E4,3.24E3,1.44E3],"tree_param":{"num_deleted":"0","num_feature":"25","num_nodes":"7","size_leaf_vector":"1"}},{"base_weights":[6.2910834E-4,-4.1651187E0,3.9496475E1,-1.23648E-1,1.4878293E-2,5.22906E-1,1.0693387E-1],"categories":[],"categories_nodes":[],"categories_segments":[],"categories_sizes":[],"default_left":[1,0,1,0,0,0,0],"id":50,"left_children":[1,3,5,-1,-1,-1,-1],"loss_changes":[8.0721585E6,2.0571832E6,1.7244375E6,0E0,0E0,0E0,0E0],"parents":[2147483647,0,0,1,1,2,2],"right_children":[2,4,6,-1,-1,-1,-1],"split_conditions":[1.0261E3,4E1,2.9E1,-1.23648E-1,1.4878293E-2,5.22906E-1,1.0693387E-1],"split_indices":[14,3,12,0,0,0,0],"split_type":[0,0,0,0,0,0,0],"sum_hessian":[4.906E4,4.438E4,4.68E3,1.811E4,2.627E4,3.24E3,1.44E3],"tree_param":{"num_deleted":"0","num_feature":"25","num_nodes":"7","size_leaf_vector":"1"}},{"base_weights":[6.2836194E-4,-4.296637E0,3.7526897E1,1.24068715E-1,-6.989018E-2,4.656949E-1,4.358307E-2],"categories":[],"categories_nodes":[],"categories_segments":[],"categories_sizes":[],"default_left":[1,0,1,0,0,0,0],"id":51,"left_children":[1,3,5,-1,-1,-1,-1],"loss_changes":[7.9117545E6,1.979808E6,1.511744E6,0E0,0E0,0E0,0E0],"parents":[2147483647,0,0,1,1,2,2],"right_children":[2,4,6,-1,-1,-1,-1],"split_conditions":[1.0256E3,1.0037E3,3.1E1,1.24068715E-1,-6.989018E-2,4.656949E-1,4.358307E-2],"split_indices":[14,14,12,0,0,0,0],"split_type":[0,0,0,0,0,0,0],"sum_hessian":[4.906E4,4.402E4,5.04E3,6.11E3,3.791E4,3.96E3,1.08E3],"tree_param":{"num_deleted":"0","num_feature":"25","num_nodes":"7","size_leaf_vector":"1"}},{"base_weights":[6.314161E-4,-4.0846353E0,3.873343E1,1.1484948E-2,-1.2777197E-1,5.1302284E-1,1.0437523E-1],"categories":[],"categories_nodes":[],"categories_segments":[],"categories_sizes":[],"default_left":[1,1,1,0,0,0,0],"id":52,"left_children":[1,3,5,-1,-1,-1,-1],"loss_changes":[7.7632675E6,2.018876E6,1.664249E6,0E0,0E0,0E0,0E0],"parents":[2147483647,0,0,1,1,2,2],"right_children":[2,4,6,-1,-1,-1,-1],"split_conditions":[1.0261E3,3.6E1,2.9E1,1.1484948E-2,-1.2777197E-1,5.1302284E-1,1.0437523E-1],"split_indices":[14,8,12,0,0,0,0],"split_type":[0,0,0,0,0,0,0],"sum_hessian":[4.906E4,4.438E4,4.68E3,2.7703E4,1.6677E4,3.24E3,1.44E3],"tree_param":{"num_deleted":"0","num_feature":"25","num_nodes":"7","size_leaf_vector":"1"}},{"base_weights":[6.4250757E-4,-4.043783E0,3.8346222E1,-1.7733236E-3,-1.5829688E-1,4.8582926E-1,4.2104945E-2],"categories":[],"categories_nodes":[],"categories_segments":[],"categories_sizes":[],"default_left":[1,1,1,0,0,0,0],"id":53,"left_children":[1,3,5,-1,-1,-1,-1],"loss_changes":[7.608822E6,2.0224228E6,1.635512E6,0E0,0E0,0E0,0E0],"parents":[2147483647,0,0,1,1,2,2],"right_children":[2,4,6,-1,-1,-1,-1],"split_conditions":[1.0261E3,8E0,3.1E1,-1.7733236E-3,-1.5829688E-1,4.8582926E-1,4.2104945E-2],"split_indices":[14,22,12,0,0,0,0],"split_type":[0,0,0,0,0,0,0],"sum_hessian":[4.906E4,4.438E4,4.68E3,3.3418E4,1.0962E4,3.6E3,1.08E3],"tree_param":{"num_deleted":"0","num_feature":"25","num_nodes":"7","size_leaf_vector":"1"}},{"base_weights":[6.3985644E-4,-4.171644E0,3.6435497E1,2.6375268E-2,-1.07066005E-1,4.5232332E-1,4.168419E-2],"categories":[],"categories_nodes":[],"categories_segments":[],"categories_sizes":[],"default_left":[1,1,1,0,0,0,0],"id":54,"left_children":[1,3,5,-1,-1,-1,-1],"loss_changes":[7.458237E6,1.958859E6,1.4306905E6,0E0,0E0,0E0,0E0],"parents":[2147483647,0,0,1,1,2,2],"right_children":[2,4,6,-1,-1,-1,-1],"split_conditions":[1.0256E3,6.3E1,3.1E1,2.6375268E-2,-1.07066005E-1,4.5232332E-1,4.168419E-2],"split_indices":[14,11,12,0,0,0,0],"split_type":[0,0,0,0,0,0,0],"sum_hessian":[4.906E4,4.402E4,5.04E3,2.1558E4,2.2462E4,3.96E3,1.08E3],"tree_param":{"num_deleted":"0","num_feature":"25","num_nodes":"7","size_leaf_vector":"1"}},{"base_weights":[6.3997094E-4,-3.9656463E0,3.7605373E1,-1.3018624E-3,-1.5657088E-1,4.985153E-1,1.0036037E-1],"categories":[],"categories_nodes":[],"categories_segments":[],"categories_sizes":[],"default_left":[1,1,1,0,0,0,0],"id":55,"left_children":[1,3,5,-1,-1,-1,-1],"loss_changes":[7.317653E6,1.9901332E6,1.579892E6,0E0,0E0,0E0,0E0],"parents":[2147483647,0,0,1,1,2,2],"right_children":[2,4,6,-1,-1,-1,-1],"split_conditions":[1.0261E3,8E0,2.9E1,-1.3018624E-3,-1.5657088E-1,4.985153E-1,1.0036037E-1],"split_indices":[14,22,12,0,0,0,0],"split_type":[0,0,0,0,0,0,0],"sum_hessian":[4.906E4,4.438E4,4.68E3,3.3418E4,1.0962E4,3.24E3,1.44E3],"tree_param":{"num_deleted":"0","num_feature":"25","num_nodes":"7","size_leaf_vector":"1"}},{"base_weights":[6.5330486E-4,-3.925982E0,3.722945E1,1.234101E-2,-1.2497214E-1,4.9353182E-1,9.9357344E-2],"categories":[],"categories_nodes":[],"categories_segments":[],"categories_sizes":[],"default_left":[1,1,1,0,0,0,0],"id":56,"left_children":[1,3,5,-1,-1,-1,-1],"loss_changes":[7.172075E6,1.9629102E6,1.5484605E6,0E0,0E0,0E0,0E0],"parents":[2147483647,0,0,1,1,2,2],"right_children":[2,4,6,-1,-1,-1,-1],"split_conditions":[1.0261E3,3.6E1,2.9E1,1.234101E-2,-1.2497214E-1,4.9353182E-1,9.9357344E-2],"split_indices":[14,8,12,0,0,0,0],"split_type":[0,0,0,0,0,0,0],"sum_hessian":[4.906E4,4.438E4,4.68E3,2.7703E4,1.6677E4,3.24E3,1.44E3],"tree_param":{"num_deleted":"0","num_feature":"25","num_nodes":"7","size_leaf_vector":"1"}},{"base_weights":[6.6225155E-4,-4.050267E0,3.537578E1,1.2425032E-1,-6.705868E-2,4.3949503E-1,3.927218E-2],"categories":[],"categories_nodes":[],"categories_segments":[],"categories_sizes":[],"default_left":[1,0,1,0,0,0,0],"id":57,"left_children":[1,3,5,-1,-1,-1,-1],"loss_changes":[7.030688E6,1.9260828E6,1.3590385E6,0E0,0E0,0E0,0E0],"parents":[2147483647,0,0,1,1,2,2],"right_children":[2,4,6,-1,-1,-1,-1],"split_conditions":[1.0256E3,1.0037E3,3.1E1,1.2425032E-1,-6.705868E-2,4.3949503E-1,3.927218E-2],"split_indices":[14,14,12,0,0,0,0],"split_type":[0,0,0,0,0,0,0],"sum_hessian":[4.906E4,4.402E4,5.04E3,6.11E3,3.791E4,3.96E3,1.08E3],"tree_param":{"num_deleted":"0","num_feature":"25","num_nodes":"7","size_leaf_vector":"1"}},{"base_weights":[6.600993E-4,-3.8501158E0,3.6510227E1,-5.531891E-4,-1.5417613E-1,4.8420456E-1,9.697207E-2],"categories":[],"categories_nodes":[],"categories_segments":[],"categories_sizes":[],"default_left":[1,1,1,0,0,0,0],"id":58,"left_children":[1,3,5,-1,-1,-1,-1],"loss_changes":[6.8976345E6,1.9481608E6,1.4944045E6,0E0,0E0,0E0,0E0],"parents":[2147483647,0,0,1,1,2,2],"right_children":[2,4,6,-1,-1,-1,-1],"split_conditions":[1.0261E3,8E0,2.9E1,-5.531891E-4,-1.5417613E-1,4.8420456E-1,9.697207E-2],"split_indices":[14,22,12,0,0,0,0],"split_type":[0,0,0,0,0,0,0],"sum_hessian":[4.906E4,4.438E4,4.68E3,3.3418E4,1.0962E4,3.24E3,1.44E3],"tree_param":{"num_deleted":"0","num_feature":"25","num_nodes":"7","size_leaf_vector":"1"}},{"base_weights":[6.5971864E-4,-3.8116214E0,3.6145256E1,-1.1756908E-1,1.6659359E-2,4.584776E-1,3.791083E-2],"categories":[],"categories_nodes":[],"categories_segments":[],"categories_sizes":[],"default_left":[1,0,1,0,0,0,0],"id":59,"left_children":[1,3,5,-1,-1,-1,-1],"loss_changes":[6.7604175E6,1.9315148E6,1.469269E6,0E0,0E0,0E0,0E0],"parents":[2147483647,0,0,1,1,2,2],"right_children":[2,4,6,-1,-1,-1,-1],"split_conditions":[1.0261E3,4E1,3.1E1,-1.1756908E-1,1.6659359E-2,4.584776E-1,3.791083E-2],"split_indices":[14,3,12,0,0,0,0],"split_type":[0,0,0,0,0,0,0],"sum_hessian":[4.906E4,4.438E4,4.68E3,1.811E4,2.627E4,3.6E3,1.08E3],"tree_param":{"num_deleted":"0","num_feature":"25","num_nodes":"7","size_leaf_vector":"1"}},{"base_weights":[6.660945E-4,-3.9324005E0,3.4346535E1,3.0922687E-2,-1.0042678E-1,4.2687115E-1,3.7532154E-2],"categories":[],"categories_nodes":[],"categories_segments":[],"categories_sizes":[],"default_left":[1,0,1,0,0,0,0],"id":60,"left_children":[1,3,5,-1,-1,-1,-1],"loss_changes":[6.6275205E6,1.8895302E6,1.2861315E6,0E0,0E0,0E0,0E0],"parents":[2147483647,0,0,1,1,2,2],"right_children":[2,4,6,-1,-1,-1,-1],"split_conditions":[1.0256E3,6.3E1,3.1E1,3.0922687E-2,-1.0042678E-1,4.2687115E-1,3.7532154E-2],"split_indices":[14,11,12,0,0,0,0],"split_type":[0,0,0,0,0,0,0],"sum_hessian":[4.906E4,4.402E4,5.04E3,2.0478E4,2.3542E4,3.96E3,1.08E3],"tree_param":{"num_deleted":"0","num_feature":"25","num_nodes":"7","size_leaf_vector":"1"}},{"base_weights":[6.733275E-4,-3.737955E0,3.544696E1,2.6390117E-4,-1.5212634E-1,4.705134E-1,9.3225665E-2],"categories":[],"categories_nodes":[],"categories_segments":[],"categories_sizes":[],"default_left":[1,1,1,0,0,0,0],"id":61,"left_children":[1,3,5,-1,-1,-1,-1],"loss_changes":[6.5017205E6,1.9170225E6,1.418641E6,0E0,0E0,0E0,0E0],"parents":[2147483647,0,0,1,1,2,2],"right_children":[2,4,6,-1,-1,-1,-1],"split_conditions":[1.0261E3,8E0,2.9E1,2.6390117E-4,-1.5212634E-1,4.705134E-1,9.3225665E-2],"split_indices":[14,22,12,0,0,0,0],"split_type":[0,0,0,0,0,0,0],"sum_hessian":[4.906E4,4.438E4,4.68E3,3.3418E4,1.0962E4,3.24E3,1.44E3],"tree_param":{"num_deleted":"0","num_feature":"25","num_nodes":"7","size_leaf_vector":"1"}},{"base_weights":[6.679083E-4,-3.700586E0,3.5092606E1,1.3538336E-2,-1.20963134E-1,4.6580967E-1,9.229399E-2],"categories":[],"categories_nodes":[],"categories_segments":[],"categories_sizes":[],"default_left":[1,1,1,0,0,0,0],"id":62,"left_children":[1,3,5,-1,-1,-1,-1],"loss_changes":[6.372377E6,1.8833476E6,1.3904165E6,0E0,0E0,0E0,0E0],"parents":[2147483647,0,0,1,1,2,2],"right_children":[2,4,6,-1,-1,-1,-1],"split_conditions":[1.0261E3,3.6E1,2.9E1,1.3538336E-2,-1.20963134E-1,4.6580967E-1,9.229399E-2],"split_indices":[14,8,12,0,0,0,0],"split_type":[0,0,0,0,0,0,0],"sum_hessian":[4.906E4,4.438E4,4.68E3,2.7703E4,1.6677E4,3.24E3,1.44E3],"tree_param":{"num_deleted":"0","num_feature":"25","num_nodes":"7","size_leaf_vector":"1"}},{"base_weights":[6.664005E-4,-3.817981E0,3.334736E1,1.2424832E-1,-6.436113E-2,4.147632E-1,3.5303686E-2],"categories":[],"categories_nodes":[],"categories_segments":[],"categories_sizes":[],"default_left":[1,0,1,0,0,0,0],"id":63,"left_children":[1,3,5,-1,-1,-1,-1],"loss_changes":[6.2475185E6,1.8721098E6,1.221697E6,0E0,0E0,0E0,0E0],"parents":[2147483647,0,0,1,1,2,2],"right_children":[2,4,6,-1,-1,-1,-1],"split_conditions":[1.0256E3,1.0037E3,3.1E1,1.2424832E-1,-6.436113E-2,4.147632E-1,3.5303686E-2],"split_indices":[14,14,12,0,0,0,0],"split_type":[0,0,0,0,0,0,0],"sum_hessian":[4.906E4,4.402E4,5.04E3,6.11E3,3.791E4,3.96E3,1.08E3],"tree_param":{"num_deleted":"0","num_feature":"25","num_nodes":"7","size_leaf_vector":"1"}},{"base_weights":[6.716629E-4,-3.6290777E0,3.4414665E1,9.535187E-4,-1.498209E-1,4.368699E-1,3.4950927E-2],"categories":[],"categories_nodes":[],"categories_segments":[],"categories_sizes":[],"default_left":[1,1,1,0,0,0,0],"id":64,"left_children":[1,3,5,-1,-1,-1,-1],"loss_changes":[6.128539E6,1.8765852E6,1.3418725E6,0E0,0E0,0E0,0E0],"parents":[2147483647,0,0,1,1,2,2],"right_children":[2,4,6,-1,-1,-1,-1],"split_conditions":[1.0261E3,8E0,3.1E1,9.535187E-4,-1.498209E-1,4.368699E-1,3.4950927E-2],"split_indices":[14,22,12,0,0,0,0],"split_type":[0,0,0,0,0,0,0],"sum_hessian":[4.906E4,4.438E4,4.68E3,3.3418E4,1.0962E4,3.6E3,1.08E3],"tree_param":{"num_deleted":"0","num_feature":"25","num_nodes":"7","size_leaf_vector":"1"}},{"base_weights":[6.753329E-4,-3.592787E0,3.407063E1,1.4208909E-2,-1.1920844E-1,4.526393E-1,8.8717684E-2],"categories":[],"categories_nodes":[],"categories_segments":[],"categories_sizes":[],"default_left":[1,1,1,0,0,0,0],"id":65,"left_children":[1,3,5,-1,-1,-1,-1],"loss_changes":[6.006617E6,1.85311E6,1.3199135E6,0E0,0E0,0E0,0E0],"parents":[2147483647,0,0,1,1,2,2],"right_children":[2,4,6,-1,-1,-1,-1],"split_conditions":[1.0261E3,3.6E1,2.9E1,1.4208909E-2,-1.1920844E-1,4.526393E-1,8.8717684E-2],"split_indices":[14,8,12,0,0,0,0],"split_type":[0,0,0,0,0,0,0],"sum_hessian":[4.906E4,4.438E4,4.68E3,2.7703E4,1.6677E4,3.24E3,1.44E3],"tree_param":{"num_deleted":"0","num_feature":"25","num_nodes":"7","size_leaf_vector":"1"}},{"base_weights":[6.6849304E-4,-3.7068775E0,3.237716E1,1.2341934E-1,-6.293741E-2,-2.2314665E-1,3.6588088E-1],"categories":[],"categories_nodes":[],"categories_segments":[],"categories_sizes":[],"default_left":[1,0,0,0,0,0,0],"id":66,"left_children":[1,3,5,-1,-1,-1,-1],"loss_changes":[5.889271E6,1.827657E6,1.1617765E6,0E0,0E0,0E0,0E0],"parents":[2147483647,0,0,1,1,2,2],"right_children":[2,4,6,-1,-1,-1,-1],"split_conditions":[1.0256E3,1.0037E3,3E0,1.2341934E-1,-6.293741E-2,-2.2314665E-1,3.6588088E-1],"split_indices":[14,14,3,0,0,0,0],"split_type":[0,0,0,0,0,0,0],"sum_hessian":[4.906E4,4.402E4,5.04E3,6.11E3,3.791E4,3.6E2,4.68E3],"tree_param":{"num_deleted":"0","num_feature":"25","num_nodes":"7","size_leaf_vector":"1"}},{"base_weights":[6.593989E-4,-3.523078E0,3.3409542E1,1.6201736E-3,-1.4756195E-1,4.444567E-1,8.5646465E-2],"categories":[],"categories_nodes":[],"categories_segments":[],"categories_sizes":[],"default_left":[1,1,1,0,0,0,0],"id":67,"left_children":[1,3,5,-1,-1,-1,-1],"loss_changes":[5.7757815E6,1.8371588E6,1.2831095E6,0E0,0E0,0E0,0E0],"parents":[2147483647,0,0,1,1,2,2],"right_children":[2,4,6,-1,-1,-1,-1],"split_conditions":[1.0261E3,8E0,2.9E1,1.6201736E-3,-1.4756195E-1,4.444567E-1,8.5646465E-2],"split_indices":[14,22,12,0,0,0,0],"split_type":[0,0,0,0,0,0,0],"sum_hessian":[4.906E4,4.438E4,4.68E3,3.3418E4,1.0962E4,3.24E3,1.44E3],"tree_param":{"num_deleted":"0","num_feature":"25","num_nodes":"7","size_leaf_vector":"1"}},{"base_weights":[6.607151E-4,-3.6342866E0,3.1743176E1,3.2749973E-2,-9.644209E-2,-2.2177532E-1,3.5894775E-1],"categories":[],"categories_nodes":[],"categories_segments":[],"categories_sizes":[],"default_left":[1,0,0,0,0,0,0],"id":68,"left_children":[1,3,5,-1,-1,-1,-1],"loss_changes":[5.66089E6,1.8279711E6,1.12926E6,0E0,0E0,0E0,0E0],"parents":[2147483647,0,0,1,1,2,2],"right_children":[2,4,6,-1,-1,-1,-1],"split_conditions":[1.0256E3,6.3E1,3E0,3.2749973E-2,-9.644209E-2,-2.2177532E-1,3.5894775E-1],"split_indices":[14,11,3,0,0,0,0],"split_type":[0,0,0,0,0,0,0],"sum_hessian":[4.906E4,4.402E4,5.04E3,2.0478E4,2.3542E4,3.6E2,4.68E3],"tree_param":{"num_deleted":"0","num_feature":"25","num_nodes":"7","size_leaf_vector":"1"}},{"base_weights":[6.543617E-4,-3.4547172E0,3.2761356E1,2.0222072E-3,-1.4602007E-1,4.3642512E-1,8.265454E-2],"categories":[],"categories_nodes":[],"categories_segments":[],"categories_sizes":[],"default_left":[1,1,1,0,0,0,0],"id":69,"left_children":[1,3,5,-1,-1,-1,-1],"loss_changes":[5.5538375E6,1.8091922E6,1.2473305E6,0E0,0E0,0E0,0E0],"parents":[2147483647,0,0,1,1,2,2],"right_children":[2,4,6,-1,-1,-1,-1],"split_conditions":[1.0261E3,8E0,2.9E1,2.0222072E-3,-1.4602007E-1,4.3642512E-1,8.265454E-2],"split_indices":[14,22,12,0,0,0,0],"split_type":[0,0,0,0,0,0,0],"sum_hessian":[4.906E4,4.438E4,4.68E3,3.3418E4,1.0962E4,3.24E3,1.44E3],"tree_param":{"num_deleted":"0","num_feature":"25","num_nodes":"7","size_leaf_vector":"1"}},{"base_weights":[6.623374E-4,-3.4201655E0,3.2433853E1,1.5251757E-2,-1.1634718E-1,4.1300097E-1,2.8688312E-2],"categories":[],"categories_nodes":[],"categories_segments":[],"categories_sizes":[],"default_left":[1,1,1,0,0,0,0],"id":70,"left_children":[1,3,5,-1,-1,-1,-1],"loss_changes":[5.443348E6,1.802941E6,1.2269155E6,0E0,0E0,0E0,0E0],"parents":[2147483647,0,0,1,1,2,2],"right_children":[2,4,6,-1,-1,-1,-1],"split_conditions":[1.0261E3,3.6E1,3.1E1,1.5251757E-2,-1.1634718E-1,4.1300097E-1,2.8688312E-2],"split_indices":[14,8,12,0,0,0,0],"split_type":[0,0,0,0,0,0,0],"sum_hessian":[4.906E4,4.438E4,4.68E3,2.7703E4,1.6677E4,3.6E3,1.08E3],"tree_param":{"num_deleted":"0","num_feature":"25","num_nodes":"7","size_leaf_vector":"1"}},{"base_weights":[6.5439026E-4,-3.528502E0,3.081934E1,1.2292528E-1,-6.078653E-2,-2.2067396E-1,3.4891394E-1],"categories":[],"categories_nodes":[],"categories_segments":[],"categories_sizes":[],"default_left":[1,0,0,0,0,0,0],"id":71,"left_children":[1,3,5,-1,-1,-1,-1],"loss_changes":[5.3361775E6,1.776147E6,1.086388E6,0E0,0E0,0E0,0E0],"parents":[2147483647,0,0,1,1,2,2],"right_children":[2,4,6,-1,-1,-1,-1],"split_conditions":[1.0256E3,1.0037E3,3E0,1.2292528E-1,-6.078653E-2,-2.2067396E-1,3.4891394E-1],"split_indices":[14,14,3,0,0,0,0],"split_type":[0,0,0,0,0,0,0],"sum_hessian":[4.906E4,4.402E4,5.04E3,6.11E3,3.791E4,3.6E2,4.68E3],"tree_param":{"num_deleted":"0","num_feature":"25","num_nodes":"7","size_leaf_vector":"1"}},{"base_weights":[6.5585825E-4,-3.353802E0,3.1804585E1,2.6453962E-3,-1.4383447E-1,4.2444548E-1,7.851824E-2],"categories":[],"categories_nodes":[],"categories_segments":[],"categories_sizes":[],"default_left":[1,1,1,0,0,0,0],"id":72,"left_children":[1,3,5,-1,-1,-1,-1],"loss_changes":[5.2341765E6,1.7712064E6,1.19265E6,0E0,0E0,0E0,0E0],"parents":[2147483647,0,0,1,1,2,2],"right_children":[2,4,6,-1,-1,-1,-1],"split_conditions":[1.0261E3,8E0,2.9E1,2.6453962E-3,-1.4383447E-1,4.2444548E-1,7.851824E-2],"split_indices":[14,22,12,0,0,0,0],"split_type":[0,0,0,0,0,0,0],"sum_hessian":[4.906E4,4.438E4,4.68E3,3.3418E4,1.0962E4,3.24E3,1.44E3],"tree_param":{"num_deleted":"0","num_feature":"25","num_nodes":"7","size_leaf_vector":"1"}},{"base_weights":[6.4932695E-4,-3.3202755E0,3.148665E1,1.5854243E-2,-1.1468985E-1,4.014867E-1,2.6028218E-2],"categories":[],"categories_nodes":[],"categories_segments":[],"categories_sizes":[],"default_left":[1,1,1,0,0,0,0],"id":73,"left_children":[1,3,5,-1,-1,-1,-1],"loss_changes":[5.1300525E6,1.7741544E6,1.1710455E6,0E0,0E0,0E0,0E0],"parents":[2147483647,0,0,1,1,2,2],"right_children":[2,4,6,-1,-1,-1,-1],"split_conditions":[1.0261E3,3.6E1,3.1E1,1.5854243E-2,-1.1468985E-1,4.014867E-1,2.6028218E-2],"split_indices":[14,8,12,0,0,0,0],"split_type":[0,0,0,0,0,0,0],"sum_hessian":[4.906E4,4.438E4,4.68E3,2.7703E4,1.6677E4,3.6E3,1.08E3],"tree_param":{"num_deleted":"0","num_feature":"25","num_nodes":"7","size_leaf_vector":"1"}},{"base_weights":[6.3922885E-4,-3.425799E0,2.9922327E1,3.351676E-2,-9.321074E-2,-2.1951596E-1,3.3916464E-1],"categories":[],"categories_nodes":[],"categories_segments":[],"categories_sizes":[],"default_left":[1,0,0,0,0,0,0],"id":74,"left_children":[1,3,5,-1,-1,-1,-1],"loss_changes":[5.030072E6,1.758894E6,1.0451975E6,0E0,0E0,0E0,0E0],"parents":[2147483647,0,0,1,1,2,2],"right_children":[2,4,6,-1,-1,-1,-1],"split_conditions":[1.0256E3,6.3E1,3E0,3.351676E-2,-9.321074E-2,-2.1951596E-1,3.3916464E-1],"split_indices":[14,11,3,0,0,0,0],"split_type":[0,0,0,0,0,0,0],"sum_hessian":[4.906E4,4.402E4,5.04E3,2.0478E4,2.3542E4,3.6E2,4.68E3],"tree_param":{"num_deleted":"0","num_feature":"25","num_nodes":"7","size_leaf_vector":"1"}},{"base_weights":[6.320033E-4,-3.25586E0,3.0875738E1,3.4215741E-3,-1.4223559E-1,4.1279808E-1,7.4541815E-2],"categories":[],"categories_nodes":[],"categories_segments":[],"categories_sizes":[],"default_left":[1,1,1,0,0,0,0],"id":75,"left_children":[1,3,5,-1,-1,-1,-1],"loss_changes":[4.9329165E6,1.751367E6,1.140356E6,0E0,0E0,0E0,0E0],"parents":[2147483647,0,0,1,1,2,2],"right_children":[2,4,6,-1,-1,-1,-1],"split_conditions":[1.0261E3,8E0,2.9E1,3.4215741E-3,-1.4223559E-1,4.1279808E-1,7.4541815E-2],"split_indices":[14,22,12,0,0,0,0],"split_type":[0,0,0,0,0,0,0],"sum_hessian":[4.906E4,4.438E4,4.68E3,3.3418E4,1.0962E4,3.24E3,1.44E3],"tree_param":{"num_deleted":"0","num_feature":"25","num_nodes":"7","size_leaf_vector":"1"}},{"base_weights":[6.355277E-4,-3.3586895E0,2.9336252E1,3.3689428E-2,-9.210612E-2,-2.180704E-1,3.3274168E-1],"categories":[],"categories_nodes":[],"categories_segments":[],"categories_sizes":[],"default_left":[1,0,0,0,0,0,0],"id":76,"left_children":[1,3,5,-1,-1,-1,-1],"loss_changes":[4.834956E6,1.7331196E6,1.015973E6,0E0,0E0,0E0,0E0],"parents":[2147483647,0,0,1,1,2,2],"right_children":[2,4,6,-1,-1,-1,-1],"split_conditions":[1.0256E3,6.3E1,3E0,3.3689428E-2,-9.210612E-2,-2.180704E-1,3.3274168E-1],"split_indices":[14,11,3,0,0,0,0],"split_type":[0,0,0,0,0,0,0],"sum_hessian":[4.906E4,4.402E4,5.04E3,2.0478E4,2.3542E4,3.6E2,4.68E3],"tree_param":{"num_deleted":"0","num_feature":"25","num_nodes":"7","size_leaf_vector":"1"}},{"base_weights":[6.2841416E-4,-3.1926892E0,3.0276772E1,3.7785943E-3,-1.407666E-1,4.053449E-1,7.184784E-2],"categories":[],"categories_nodes":[],"categories_segments":[],"categories_sizes":[],"default_left":[1,1,1,0,0,0,0],"id":77,"left_children":[1,3,5,-1,-1,-1,-1],"loss_changes":[4.74338E6,1.7247285E6,1.1085025E6,0E0,0E0,0E0,0E0],"parents":[2147483647,0,0,1,1,2,2],"right_children":[2,4,6,-1,-1,-1,-1],"split_conditions":[1.0261E3,8E0,2.9E1,3.7785943E-3,-1.407666E-1,4.053449E-1,7.184784E-2],"split_indices":[14,22,12,0,0,0,0],"split_type":[0,0,0,0,0,0,0],"sum_hessian":[4.906E4,4.438E4,4.68E3,3.3418E4,1.0962E4,3.24E3,1.44E3],"tree_param":{"num_deleted":"0","num_feature":"25","num_nodes":"7","size_leaf_vector":"1"}},{"base_weights":[6.286841E-4,-3.1607668E0,2.9974115E1,-1.062164E-1,1.9828152E-2,3.832481E-1,2.1287633E-2],"categories":[],"categories_nodes":[],"categories_segments":[],"categories_sizes":[],"default_left":[1,0,1,0,0,0,0],"id":78,"left_children":[1,3,5,-1,-1,-1,-1],"loss_changes":[4.6490195E6,1.7031692E6,1.0883815E6,0E0,0E0,0E0,0E0],"parents":[2147483647,0,0,1,1,2,2],"right_children":[2,4,6,-1,-1,-1,-1],"split_conditions":[1.0261E3,4E1,3.1E1,-1.062164E-1,1.9828152E-2,3.832481E-1,2.1287633E-2],"split_indices":[14,3,12,0,0,0,0],"split_type":[0,0,0,0,0,0,0],"sum_hessian":[4.906E4,4.438E4,4.68E3,1.811E4,2.627E4,3.6E3,1.08E3],"tree_param":{"num_deleted":"0","num_feature":"25","num_nodes":"7","size_leaf_vector":"1"}},{"base_weights":[6.1914214E-4,-3.2608776E0,2.8481941E1,1.2302147E-1,-5.769447E-2,-2.1682447E-1,3.2344547E-1],"categories":[],"categories_nodes":[],"categories_segments":[],"categories_sizes":[],"default_left":[1,0,0,0,0,0,0],"id":79,"left_children":[1,3,5,-1,-1,-1,-1],"loss_changes":[4.557454E6,1.7186915E6,9.7747225E5,0E0,0E0,0E0,0E0],"parents":[2147483647,0,0,1,1,2,2],"right_children":[2,4,6,-1,-1,-1,-1],"split_conditions":[1.0256E3,1.0037E3,3E0,1.2302147E-1,-5.769447E-2,-2.1682447E-1,3.2344547E-1],"split_indices":[14,14,3,0,0,0,0],"split_type":[0,0,0,0,0,0,0],"sum_hessian":[4.906E4,4.402E4,5.04E3,6.11E3,3.791E4,3.6E2,4.68E3],"tree_param":{"num_deleted":"0","num_feature":"25","num_nodes":"7","size_leaf_vector":"1"}},{"base_weights":[6.271539E-4,-3.0994372E0,2.939263E1,4.2513213E-3,-1.3843256E-1,3.9422804E-1,6.813033E-2],"categories":[],"categories_nodes":[],"categories_segments":[],"categories_sizes":[],"default_left":[1,1,1,0,0,0,0],"id":80,"left_children":[1,3,5,-1,-1,-1,-1],"loss_changes":[4.470387E6,1.6805959E6,1.059872E6,0E0,0E0,0E0,0E0],"parents":[2147483647,0,0,1,1,2,2],"right_children":[2,4,6,-1,-1,-1,-1],"split_conditions":[1.0261E3,8E0,2.9E1,4.2513213E-3,-1.3843256E-1,3.9422804E-1,6.813033E-2],"split_indices":[14,22,12,0,0,0,0],"split_type":[0,0,0,0,0,0,0],"sum_hessian":[4.906E4,4.438E4,4.68E3,3.3418E4,1.0962E4,3.24E3,1.44E3],"tree_param":{"num_deleted":"0","num_feature":"25","num_nodes":"7","size_leaf_vector":"1"}},{"base_weights":[6.334551E-4,-3.0684402E0,2.9098808E1,1.710075E-2,-1.1005897E-1,3.90287E-1,6.744965E-2],"categories":[],"categories_nodes":[],"categories_segments":[],"categories_sizes":[],"default_left":[1,1,1,0,0,0,0],"id":81,"left_children":[1,3,5,-1,-1,-1,-1],"loss_changes":[4.3814545E6,1.6833572E6,1.03878425E6,0E0,0E0,0E0,0E0],"parents":[2147483647,0,0,1,1,2,2],"right_children":[2,4,6,-1,-1,-1,-1],"split_conditions":[1.0261E3,3.6E1,2.9E1,1.710075E-2,-1.1005897E-1,3.90287E-1,6.744965E-2],"split_indices":[14,8,12,0,0,0,0],"split_type":[0,0,0,0,0,0,0],"sum_hessian":[4.906E4,4.438E4,4.68E3,2.7703E4,1.6677E4,3.24E3,1.44E3],"tree_param":{"num_deleted":"0","num_feature":"25","num_nodes":"7","size_leaf_vector":"1"}},{"base_weights":[6.3645456E-4,-3.1658938E0,2.7652655E1,1.2211643E-1,-5.6445666E-2,-2.1601404E-1,3.1445235E-1],"categories":[],"categories_nodes":[],"categories_segments":[],"categories_sizes":[],"default_left":[1,0,0,0,0,0,0],"id":82,"left_children":[1,3,5,-1,-1,-1,-1],"loss_changes":[4.2959155E6,1.6779681E6,9.42338E5,0E0,0E0,0E0,0E0],"parents":[2147483647,0,0,1,1,2,2],"right_children":[2,4,6,-1,-1,-1,-1],"split_conditions":[1.0256E3,1.0037E3,3E0,1.2211643E-1,-5.6445666E-2,-2.1601404E-1,3.1445235E-1],"split_indices":[14,14,3,0,0,0,0],"split_type":[0,0,0,0,0,0,0],"sum_hessian":[4.906E4,4.402E4,5.04E3,6.11E3,3.791E4,3.6E2,4.68E3],"tree_param":{"num_deleted":"0","num_feature":"25","num_nodes":"7","size_leaf_vector":"1"}},{"base_weights":[6.4058485E-4,-3.0088947E0,2.8534327E1,1.721911E-2,-1.08671054E-1,3.6584526E-1,1.6913123E-2],"categories":[],"categories_nodes":[],"categories_segments":[],"categories_sizes":[],"default_left":[1,1,1,0,0,0,0],"id":83,"left_children":[1,3,5,-1,-1,-1,-1],"loss_changes":[4.213108E6,1.649912E6,1.0114625E6,0E0,0E0,0E0,0E0],"parents":[2147483647,0,0,1,1,2,2],"right_children":[2,4,6,-1,-1,-1,-1],"split_conditions":[1.0261E3,3.6E1,3.1E1,1.721911E-2,-1.08671054E-1,3.6584526E-1,1.6913123E-2],"split_indices":[14,8,12,0,0,0,0],"split_type":[0,0,0,0,0,0,0],"sum_hessian":[4.906E4,4.438E4,4.68E3,2.7703E4,1.6677E4,3.6E3,1.08E3],"tree_param":{"num_deleted":"0","num_feature":"25","num_nodes":"7","size_leaf_vector":"1"}},{"base_weights":[6.4505416E-4,-2.9788027E0,2.8249067E1,5.1562022E-3,-1.3630734E-1,3.7958446E-1,6.391786E-2],"categories":[],"categories_nodes":[],"categories_segments":[],"categories_sizes":[],"default_left":[1,1,1,0,0,0,0],"id":84,"left_children":[1,3,5,-1,-1,-1,-1],"loss_changes":[4.129288E6,1.6519724E6,9.9316225E5,0E0,0E0,0E0,0E0],"parents":[2147483647,0,0,1,1,2,2],"right_children":[2,4,6,-1,-1,-1,-1],"split_conditions":[1.0261E3,8E0,2.9E1,5.1562022E-3,-1.3630734E-1,3.7958446E-1,6.391786E-2],"split_indices":[14,22,12,0,0,0,0],"split_type":[0,0,0,0,0,0,0],"sum_hessian":[4.906E4,4.438E4,4.68E3,3.3418E4,1.0962E4,3.24E3,1.44E3],"tree_param":{"num_deleted":"0","num_feature":"25","num_nodes":"7","size_leaf_vector":"1"}},{"base_weights":[6.4824644E-4,-3.0736728E0,2.684744E1,3.5105806E-2,-8.800889E-2,-2.1466586E-1,3.0567694E-1],"categories":[],"categories_nodes":[],"categories_segments":[],"categories_sizes":[],"default_left":[1,0,0,0,0,0,0],"id":85,"left_children":[1,3,5,-1,-1,-1,-1],"loss_changes":[4.0493642E6,1.6600385E6,9.06728E5,0E0,0E0,0E0,0E0],"parents":[2147483647,0,0,1,1,2,2],"right_children":[2,4,6,-1,-1,-1,-1],"split_conditions":[1.0256E3,6.3E1,3E0,3.5105806E-2,-8.800889E-2,-2.1466586E-1,3.0567694E-1],"split_indices":[14,11,3,0,0,0,0],"split_type":[0,0,0,0,0,0,0],"sum_hessian":[4.906E4,4.402E4,5.04E3,2.0478E4,2.3542E4,3.6E2,4.68E3],"tree_param":{"num_deleted":"0","num_feature":"25","num_nodes":"7","size_leaf_vector":"1"}},{"base_weights":[6.499807E-4,-2.9210012E0,2.7701097E1,5.468626E-3,-1.3491978E-1,3.7273413E-1,6.1524656E-2],"categories":[],"categories_nodes":[],"categories_segments":[],"categories_sizes":[],"default_left":[1,1,1,0,0,0,0],"id":86,"left_children":[1,3,5,-1,-1,-1,-1],"loss_changes":[3.970639E6,1.6269572E6,9.6532225E5,0E0,0E0,0E0,0E0],"parents":[2147483647,0,0,1,1,2,2],"right_children":[2,4,6,-1,-1,-1,-1],"split_conditions":[1.0261E3,8E0,2.9E1,5.468626E-3,-1.3491978E-1,3.7273413E-1,6.1524656E-2],"split_indices":[14,22,12,0,0,0,0],"split_type":[0,0,0,0,0,0,0],"sum_hessian":[4.906E4,4.438E4,4.68E3,3.3418E4,1.0962E4,3.24E3,1.44E3],"tree_param":{"num_deleted":"0","num_feature":"25","num_nodes":"7","size_leaf_vector":"1"}},{"base_weights":[6.52954E-4,-3.0134354E0,2.6321459E1,3.5222523E-2,-8.698409E-2,-2.1313873E-1,2.9989487E-1],"categories":[],"categories_nodes":[],"categories_segments":[],"categories_sizes":[],"default_left":[1,0,0,0,0,0,0],"id":87,"left_children":[1,3,5,-1,-1,-1,-1],"loss_changes":[3.8922472E6,1.6356401E6,8.8144125E5,0E0,0E0,0E0,0E0],"parents":[2147483647,0,0,1,1,2,2],"right_children":[2,4,6,-1,-1,-1,-1],"split_conditions":[1.0256E3,6.3E1,3E0,3.5222523E-2,-8.698409E-2,-2.1313873E-1,2.9989487E-1],"split_indices":[14,11,3,0,0,0,0],"split_type":[0,0,0,0,0,0,0],"sum_hessian":[4.906E4,4.402E4,5.04E3,2.0478E4,2.3542E4,3.6E2,4.68E3],"tree_param":{"num_deleted":"0","num_feature":"25","num_nodes":"7","size_leaf_vector":"1"}},{"base_weights":[6.448477E-4,-2.8643363E0,2.71638E1,1.21774405E-1,-5.2660875E-2,3.492395E-1,1.2882431E-2],"categories":[],"categories_nodes":[],"categories_segments":[],"categories_sizes":[],"default_left":[1,0,1,0,0,0,0],"id":88,"left_children":[1,3,5,-1,-1,-1,-1],"loss_changes":[3.818099E6,1.6033992E6,9.398915E5,0E0,0E0,0E0,0E0],"parents":[2147483647,0,0,1,1,2,2],"right_children":[2,4,6,-1,-1,-1,-1],"split_conditions":[1.0261E3,1.0037E3,3.1E1,1.21774405E-1,-5.2660875E-2,3.492395E-1,1.2882431E-2],"split_indices":[14,14,12,0,0,0,0],"split_type":[0,0,0,0,0,0,0],"sum_hessian":[4.906E4,4.438E4,4.68E3,6.11E3,3.827E4,3.6E3,1.08E3],"tree_param":{"num_deleted":"0","num_feature":"25","num_nodes":"7","size_leaf_vector":"1"}},{"base_weights":[6.578855E-4,-2.954844E0,2.5809853E1,3.5158318E-2,-8.583269E-2,-2.1114172E-1,2.9423133E-1],"categories":[],"categories_nodes":[],"categories_segments":[],"categories_sizes":[],"default_left":[1,0,0,0,0,0,0],"id":89,"left_children":[1,3,5,-1,-1,-1,-1],"loss_changes":[3.7424065E6,1.6032625E6,8.55321E5,0E0,0E0,0E0,0E0],"parents":[2147483647,0,0,1,1,2,2],"right_children":[2,4,6,-1,-1,-1,-1],"split_conditions":[1.0256E3,6.3E1,3E0,3.5158318E-2,-8.583269E-2,-2.1114172E-1,2.9423133E-1],"split_indices":[14,11,3,0,0,0,0],"split_type":[0,0,0,0,0,0,0],"sum_hessian":[4.906E4,4.402E4,5.04E3,2.0478E4,2.3542E4,3.6E2,4.68E3],"tree_param":{"num_deleted":"0","num_feature":"25","num_nodes":"7","size_leaf_vector":"1"}},{"base_weights":[6.603425E-4,-2.8087502E0,2.6636946E1,6.3315677E-3,-1.3300611E-1,3.5957718E-1,5.6548025E-2],"categories":[],"categories_nodes":[],"categories_segments":[],"categories_sizes":[],"default_left":[1,1,1,0,0,0,0],"id":90,"left_children":[1,3,5,-1,-1,-1,-1],"loss_changes":[3.6714202E6,1.6026956E6,9.15259E5,0E0,0E0,0E0,0E0],"parents":[2147483647,0,0,1,1,2,2],"right_children":[2,4,6,-1,-1,-1,-1],"split_conditions":[1.0261E3,8E0,2.9E1,6.3315677E-3,-1.3300611E-1,3.5957718E-1,5.6548025E-2],"split_indices":[14,22,12,0,0,0,0],"split_type":[0,0,0,0,0,0,0],"sum_hessian":[4.906E4,4.438E4,4.68E3,3.3418E4,1.0962E4,3.24E3,1.44E3],"tree_param":{"num_deleted":"0","num_feature":"25","num_nodes":"7","size_leaf_vector":"1"}},{"base_weights":[6.663327E-4,-2.7806573E0,2.6370657E1,6.268398E-3,-1.3167629E-1,3.5598242E-1,5.598293E-2],"categories":[],"categories_nodes":[],"categories_segments":[],"categories_sizes":[],"default_left":[1,1,1,0,0,0,0],"id":91,"left_children":[1,3,5,-1,-1,-1,-1],"loss_changes":[3.5983778E6,1.5708105E6,8.97049E5,0E0,0E0,0E0,0E0],"parents":[2147483647,0,0,1,1,2,2],"right_children":[2,4,6,-1,-1,-1,-1],"split_conditions":[1.0261E3,8E0,2.9E1,6.268398E-3,-1.3167629E-1,3.5598242E-1,5.598293E-2],"split_indices":[14,22,12,0,0,0,0],"split_type":[0,0,0,0,0,0,0],"sum_hessian":[4.906E4,4.438E4,4.68E3,3.3418E4,1.0962E4,3.24E3,1.44E3],"tree_param":{"num_deleted":"0","num_feature":"25","num_nodes":"7","size_leaf_vector":"1"}},{"base_weights":[6.7552633E-4,-2.8688211E0,2.505882E1,3.5712533E-2,-8.4706314E-2,-2.1015811E-1,2.8606755E-1],"categories":[],"categories_nodes":[],"categories_segments":[],"categories_sizes":[],"default_left":[1,0,0,0,0,0,0],"id":92,"left_children":[1,3,5,-1,-1,-1,-1],"loss_changes":[3.527767E6,1.5881351E6,8.2465225E5,0E0,0E0,0E0,0E0],"parents":[2147483647,0,0,1,1,2,2],"right_children":[2,4,6,-1,-1,-1,-1],"split_conditions":[1.0256E3,6.3E1,3E0,3.5712533E-2,-8.4706314E-2,-2.1015811E-1,2.8606755E-1],"split_indices":[14,11,3,0,0,0,0],"split_type":[0,0,0,0,0,0,0],"sum_hessian":[4.906E4,4.402E4,5.04E3,2.0478E4,2.3542E4,3.6E2,4.68E3],"tree_param":{"num_deleted":"0","num_feature":"25","num_nodes":"7","size_leaf_vector":"1"}},{"base_weights":[6.76753E-4,-2.7266998E0,2.585919E1,1.2102922E-1,-5.0945785E-2,3.3339587E-1,9.16761E-3],"categories":[],"categories_nodes":[],"categories_segments":[],"categories_sizes":[],"default_left":[1,0,1,0,0,0,0],"id":93,"left_children":[1,3,5,-1,-1,-1,-1],"loss_changes":[3.460142E6,1.5584892E6,8.73347E5,0E0,0E0,0E0,0E0],"parents":[2147483647,0,0,1,1,2,2],"right_children":[2,4,6,-1,-1,-1,-1],"split_conditions":[1.0261E3,1.0037E3,3.1E1,1.2102922E-1,-5.0945785E-2,3.3339587E-1,9.16761E-3],"split_indices":[14,14,12,0,0,0,0],"split_type":[0,0,0,0,0,0,0],"sum_hessian":[4.906E4,4.438E4,4.68E3,6.11E3,3.827E4,3.6E3,1.08E3],"tree_param":{"num_deleted":"0","num_feature":"25","num_nodes":"7","size_leaf_vector":"1"}},{"base_weights":[6.682747E-4,-2.813061E0,2.457182E1,3.5629433E-2,-8.359141E-2,-2.081538E-1,2.8066844E-1],"categories":[],"categories_nodes":[],"categories_segments":[],"categories_sizes":[],"default_left":[1,0,0,0,0,0,0],"id":94,"left_children":[1,3,5,-1,-1,-1,-1],"loss_changes":[3.3919782E6,1.5566931E6,8.0023475E5,0E0,0E0,0E0,0E0],"parents":[2147483647,0,0,1,1,2,2],"right_children":[2,4,6,-1,-1,-1,-1],"split_conditions":[1.0256E3,6.3E1,3E0,3.5629433E-2,-8.359141E-2,-2.081538E-1,2.8066844E-1],"split_indices":[14,11,3,0,0,0,0],"split_type":[0,0,0,0,0,0,0],"sum_hessian":[4.906E4,4.402E4,5.04E3,2.0478E4,2.3542E4,3.6E2,4.68E3],"tree_param":{"num_deleted":"0","num_feature":"25","num_nodes":"7","size_leaf_vector":"1"}},{"base_weights":[6.5386464E-4,-2.6738265E0,2.535765E1,7.0824223E-3,-1.2983292E-1,3.4342495E-1,5.1319495E-2],"categories":[],"categories_nodes":[],"categories_segments":[],"categories_sizes":[],"default_left":[1,1,1,0,0,0,0],"id":95,"left_children":[1,3,5,-1,-1,-1,-1],"loss_changes":[3.3272275E6,1.5474558E6,8.5047725E5,0E0,0E0,0E0,0E0],"parents":[2147483647,0,0,1,1,2,2],"right_children":[2,4,6,-1,-1,-1,-1],"split_conditions":[1.0261E3,8E0,2.9E1,7.0824223E-3,-1.2983292E-1,3.4342495E-1,5.1319495E-2],"split_indices":[14,22,12,0,0,0,0],"split_type":[0,0,0,0,0,0,0],"sum_hessian":[4.906E4,4.438E4,4.68E3,3.3418E4,1.0962E4,3.24E3,1.44E3],"tree_param":{"num_deleted":"0","num_feature":"25","num_nodes":"7","size_leaf_vector":"1"}},{"base_weights":[6.523544E-4,-2.6470919E0,2.5104164E1,1.909412E-2,-1.021579E-1,3.3999187E-1,5.0806545E-2],"categories":[],"categories_nodes":[],"categories_segments":[],"categories_sizes":[],"default_left":[1,1,1,0,0,0,0],"id":96,"left_children":[1,3,5,-1,-1,-1,-1],"loss_changes":[3.2610372E6,1.5305782E6,8.3355825E5,0E0,0E0,0E0,0E0],"parents":[2147483647,0,0,1,1,2,2],"right_children":[2,4,6,-1,-1,-1,-1],"split_conditions":[1.0261E3,3.6E1,2.9E1,1.909412E-2,-1.021579E-1,3.3999187E-1,5.0806545E-2],"split_indices":[14,8,12,0,0,0,0],"split_type":[0,0,0,0,0,0,0],"sum_hessian":[4.906E4,4.438E4,4.68E3,2.7703E4,1.6677E4,3.24E3,1.44E3],"tree_param":{"num_deleted":"0","num_feature":"25","num_nodes":"7","size_leaf_vector":"1"}},{"base_weights":[6.511588E-4,-2.7310882E0,2.3855818E1,1.2035954E-1,-5.1113646E-2,-2.0709655E-1,2.7287623E-1],"categories":[],"categories_nodes":[],"categories_segments":[],"categories_sizes":[],"default_left":[1,0,0,0,0,0,0],"id":97,"left_children":[1,3,5,-1,-1,-1,-1],"loss_changes":[3.1971792E6,1.5473841E6,7.7153575E5,0E0,0E0,0E0,0E0],"parents":[2147483647,0,0,1,1,2,2],"right_children":[2,4,6,-1,-1,-1,-1],"split_conditions":[1.0256E3,1.0037E3,3E0,1.2035954E-1,-5.1113646E-2,-2.0709655E-1,2.7287623E-1],"split_indices":[14,14,3,0,0,0,0],"split_type":[0,0,0,0,0,0,0],"sum_hessian":[4.906E4,4.402E4,5.04E3,6.11E3,3.791E4,3.6E2,4.68E3],"tree_param":{"num_deleted":"0","num_feature":"25","num_nodes":"7","size_leaf_vector":"1"}},{"base_weights":[6.485525E-4,-2.5957434E0,2.4617285E1,7.506843E-3,-1.279657E-1,3.1827757E-1,5.7515833E-3],"categories":[],"categories_nodes":[],"categories_segments":[],"categories_sizes":[],"default_left":[1,1,1,0,0,0,0],"id":98,"left_children":[1,3,5,-1,-1,-1,-1],"loss_changes":[3.13577E6,1.5150142E6,8.11457E5,0E0,0E0,0E0,0E0],"parents":[2147483647,0,0,1,1,2,2],"right_children":[2,4,6,-1,-1,-1,-1],"split_conditions":[1.0261E3,8E0,3.1E1,7.506843E-3,-1.279657E-1,3.1827757E-1,5.7515833E-3],"split_indices":[14,22,12,0,0,0,0],"split_type":[0,0,0,0,0,0,0],"sum_hessian":[4.906E4,4.438E4,4.68E3,3.3418E4,1.0962E4,3.6E3,1.08E3],"tree_param":{"num_deleted":"0","num_feature":"25","num_nodes":"7","size_leaf_vector":"1"}},{"base_weights":[6.456899E-4,-2.5697904E0,2.4371191E1,-9.59E-2,2.2699792E-2,3.306832E-1,4.7932792E-2],"categories":[],"categories_nodes":[],"categories_segments":[],"categories_sizes":[],"default_left":[1,0,1,0,0,0,0],"id":99,"left_children":[1,3,5,-1,-1,-1,-1],"loss_changes":[3.0733875E6,1.5079195E6,7.96883E5,0E0,0E0,0E0,0E0],"parents":[2147483647,0,0,1,1,2,2],"right_children":[2,4,6,-1,-1,-1,-1],"split_conditions":[1.0261E3,4E1,2.9E1,-9.59E-2,2.2699792E-2,3.306832E-1,4.7932792E-2],"split_indices":[14,3,12,0,0,0,0],"split_type":[0,0,0,0,0,0,0],"sum_hessian":[4.906E4,4.438E4,4.68E3,1.811E4,2.627E4,3.24E3,1.44E3],"tree_param":{"num_deleted":"0","num_feature":"25","num_nodes":"7","size_leaf_vector":"1"}},{"base_weights":[6.368944E-4,-2.6514633E0,2.3160347E1,1.1935609E-1,-5.002732E-2,-2.0556669E-1,2.6526868E-1],"categories":[],"categories_nodes":[],"categories_segments":[],"categories_sizes":[],"default_left":[1,0,0,0,0,0,0],"id":100,"left_children":[1,3,5,-1,-1,-1,-1],"loss_changes":[3.01348E6,1.5098976E6,7.424505E5,0E0,0E0,0E0,0E0],"parents":[2147483647,0,0,1,1,2,2],"right_children":[2,4,6,-1,-1,-1,-1],"split_conditions":[1.0256E3,1.0037E3,3E0,1.1935609E-1,-5.002732E-2,-2.0556669E-1,2.6526868E-1],"split_indices":[14,14,3,0,0,0,0],"split_type":[0,0,0,0,0,0,0],"sum_hessian":[4.906E4,4.402E4,5.04E3,6.11E3,3.791E4,3.6E2,4.68E3],"tree_param":{"num_deleted":"0","num_feature":"25","num_nodes":"7","size_leaf_vector":"1"}},{"base_weights":[6.273648E-4,-2.5199609E0,2.3898561E1,1.9694835E-2,-9.977273E-2,3.2472557E-1,4.5979194E-2],"categories":[],"categories_nodes":[],"categories_segments":[],"categories_sizes":[],"default_left":[1,1,1,0,0,0,0],"id":101,"left_children":[1,3,5,-1,-1,-1,-1],"loss_changes":[2.9553405E6,1.4858596E6,7.744795E5,0E0,0E0,0E0,0E0],"parents":[2147483647,0,0,1,1,2,2],"right_children":[2,4,6,-1,-1,-1,-1],"split_conditions":[1.0261E3,3.6E1,2.9E1,1.9694835E-2,-9.977273E-2,3.2472557E-1,4.5979194E-2],"split_indices":[14,8,12,0,0,0,0],"split_type":[0,0,0,0,0,0,0],"sum_hessian":[4.906E4,4.438E4,4.68E3,2.7703E4,1.6677E4,3.24E3,1.44E3],"tree_param":{"num_deleted":"0","num_feature":"25","num_nodes":"7","size_leaf_vector":"1"}},{"base_weights":[6.2845834E-4,-2.4947603E0,2.3659643E1,8.153648E-3,-1.2584934E-1,3.0645284E-1,3.6736326E-3],"categories":[],"categories_nodes":[],"categories_segments":[],"categories_sizes":[],"default_left":[1,1,1,0,0,0,0],"id":102,"left_children":[1,3,5,-1,-1,-1,-1],"loss_changes":[2.8965438E6,1.4823241E6,7.616415E5,0E0,0E0,0E0,0E0],"parents":[2147483647,0,0,1,1,2,2],"right_children":[2,4,6,-1,-1,-1,-1],"split_conditions":[1.0261E3,8E0,3.1E1,8.153648E-3,-1.2584934E-1,3.0645284E-1,3.6736326E-3],"split_indices":[14,22,12,0,0,0,0],"split_type":[0,0,0,0,0,0,0],"sum_hessian":[4.906E4,4.438E4,4.68E3,3.3418E4,1.0962E4,3.6E3,1.08E3],"tree_param":{"num_deleted":"0","num_feature":"25","num_nodes":"7","size_leaf_vector":"1"}},{"base_weights":[6.308731E-4,-2.5741658E0,2.2485283E1,3.6658347E-2,-8.0019526E-2,-2.0401186E-1,2.5787896E-1],"categories":[],"categories_nodes":[],"categories_segments":[],"categories_sizes":[],"default_left":[1,0,0,0,0,0,0],"id":103,"left_children":[1,3,5,-1,-1,-1,-1],"loss_changes":[2.8403665E6,1.4909941E6,7.1452025E5,0E0,0E0,0E0,0E0],"parents":[2147483647,0,0,1,1,2,2],"right_children":[2,4,6,-1,-1,-1,-1],"split_conditions":[1.0256E3,6.3E1,3E0,3.6658347E-2,-8.0019526E-2,-2.0401186E-1,2.5787896E-1],"split_indices":[14,11,3,0,0,0,0],"split_type":[0,0,0,0,0,0,0],"sum_hessian":[4.906E4,4.402E4,5.04E3,2.0478E4,2.3542E4,3.6E2,4.68E3],"tree_param":{"num_deleted":"0","num_feature":"25","num_nodes":"7","size_leaf_vector":"1"}},{"base_weights":[6.2692066E-4,-2.446368E0,2.3200815E1,8.386998E-3,-1.24601625E-1,3.1583765E-1,4.3303516E-2],"categories":[],"categories_nodes":[],"categories_segments":[],"categories_sizes":[],"default_left":[1,1,1,0,0,0,0],"id":104,"left_children":[1,3,5,-1,-1,-1,-1],"loss_changes":[2.7852862E6,1.4599676E6,7.403515E5,0E0,0E0,0E0,0E0],"parents":[2147483647,0,0,1,1,2,2],"right_children":[2,4,6,-1,-1,-1,-1],"split_conditions":[1.0261E3,8E0,2.9E1,8.386998E-3,-1.24601625E-1,3.1583765E-1,4.3303516E-2],"split_indices":[14,22,12,0,0,0,0],"split_type":[0,0,0,0,0,0,0],"sum_hessian":[4.906E4,4.438E4,4.68E3,3.3418E4,1.0962E4,3.24E3,1.44E3],"tree_param":{"num_deleted":"0","num_feature":"25","num_nodes":"7","size_leaf_vector":"1"}},{"base_weights":[6.2304916E-4,-2.5236974E0,2.2044485E1,3.6702726E-2,-7.911447E-2,-2.0240927E-1,2.5300837E-1],"categories":[],"categories_nodes":[],"categories_segments":[],"categories_sizes":[],"default_left":[1,0,0,0,0,0,0],"id":105,"left_children":[1,3,5,-1,-1,-1,-1],"loss_changes":[2.7300925E6,1.4690785E6,6.9463875E5,0E0,0E0,0E0,0E0],"parents":[2147483647,0,0,1,1,2,2],"right_children":[2,4,6,-1,-1,-1,-1],"split_conditions":[1.0256E3,6.3E1,3E0,3.6702726E-2,-7.911447E-2,-2.0240927E-1,2.5300837E-1],"split_indices":[14,11,3,0,0,0,0],"split_type":[0,0,0,0,0,0,0],"sum_hessian":[4.906E4,4.402E4,5.04E3,2.0478E4,2.3542E4,3.6E2,4.68E3],"tree_param":{"num_deleted":"0","num_feature":"25","num_nodes":"7","size_leaf_vector":"1"}},{"base_weights":[6.0552644E-4,-2.3989432E0,2.2750952E1,1.18830785E-1,-4.679391E-2,3.1015092E-1,4.1480135E-2],"categories":[],"categories_nodes":[],"categories_segments":[],"categories_sizes":[],"default_left":[1,0,1,0,0,0,0],"id":106,"left_children":[1,3,5,-1,-1,-1,-1],"loss_changes":[2.6783222E6,1.4455188E6,7.195155E5,0E0,0E0,0E0,0E0],"parents":[2147483647,0,0,1,1,2,2],"right_children":[2,4,6,-1,-1,-1,-1],"split_conditions":[1.0261E3,1.0037E3,2.9E1,1.18830785E-1,-4.679391E-2,3.1015092E-1,4.1480135E-2],"split_indices":[14,14,12,0,0,0,0],"split_type":[0,0,0,0,0,0,0],"sum_hessian":[4.906E4,4.438E4,4.68E3,6.11E3,3.827E4,3.24E3,1.44E3],"tree_param":{"num_deleted":"0","num_feature":"25","num_nodes":"7","size_leaf_vector":"1"}},{"base_weights":[5.996109E-4,-2.4746778E0,2.161619E1,3.6576744E-2,-7.808831E-2,1.6852954E-1,5.013258E-1],"categories":[],"categories_nodes":[],"categories_segments":[],"categories_sizes":[],"default_left":[1,0,0,0,0,0,0],"id":107,"left_children":[1,3,5,-1,-1,-1,-1],"loss_changes":[2.625042E6,1.4399955E6,6.8387525E5,0E0,0E0,0E0,0E0],"parents":[2147483647,0,0,1,1,2,2],"right_children":[2,4,6,-1,-1,-1,-1],"split_conditions":[1.0256E3,6.3E1,3E0,3.6576744E-2,-7.808831E-2,1.6852954E-1,5.013258E-1],"split_indices":[14,11,24,0,0,0,0],"split_type":[0,0,0,0,0,0,0],"sum_hessian":[4.906E4,4.402E4,5.04E3,2.0478E4,2.3542E4,4.32E3,7.2E2],"tree_param":{"num_deleted":"0","num_feature":"25","num_nodes":"7","size_leaf_vector":"1"}},{"base_weights":[6.048211E-4,-2.3517866E0,2.2303848E1,9.090749E-3,-1.2291801E-1,-2.0248474E-1,2.585374E-1],"categories":[],"categories_nodes":[],"categories_segments":[],"categories_sizes":[],"default_left":[1,1,0,0,0,0,0],"id":108,"left_children":[1,3,5,-1,-1,-1,-1],"loss_changes":[2.5740852E6,1.4385331E6,7.0761725E5,0E0,0E0,0E0,0E0],"parents":[2147483647,0,0,1,1,2,2],"right_children":[2,4,6,-1,-1,-1,-1],"split_conditions":[1.0261E3,8E0,3E0,9.090749E-3,-1.2291801E-1,-2.0248474E-1,2.585374E-1],"split_indices":[14,22,3,0,0,0,0],"split_type":[0,0,0,0,0,0,0],"sum_hessian":[4.906E4,4.438E4,4.68E3,3.3418E4,1.0962E4,3.6E2,4.32E3],"tree_param":{"num_deleted":"0","num_feature":"25","num_nodes":"7","size_leaf_vector":"1"}},{"base_weights":[5.960703E-4,-2.4261541E0,2.1192417E1,1.1780648E-1,-4.7161315E-2,1.6485183E-1,4.937378E-1],"categories":[],"categories_nodes":[],"categories_segments":[],"categories_sizes":[],"default_left":[1,0,0,0,0,0,0],"id":109,"left_children":[1,3,5,-1,-1,-1,-1],"loss_changes":[2.5231242E6,1.4322021E6,6.67906E5,0E0,0E0,0E0,0E0],"parents":[2147483647,0,0,1,1,2,2],"right_children":[2,4,6,-1,-1,-1,-1],"split_conditions":[1.0256E3,1.0037E3,3E0,1.1780648E-1,-4.7161315E-2,1.6485183E-1,4.937378E-1],"split_indices":[14,14,24,0,0,0,0],"split_type":[0,0,0,0,0,0,0],"sum_hessian":[4.906E4,4.402E4,5.04E3,6.11E3,3.791E4,4.32E3,7.2E2],"tree_param":{"num_deleted":"0","num_feature":"25","num_nodes":"7","size_leaf_vector":"1"}},{"base_weights":[5.965866E-4,-2.305552E0,2.1865408E1,2.067445E-2,-9.5694445E-2,2.8532407E-1,-3.6376112E-3],"categories":[],"categories_nodes":[],"categories_segments":[],"categories_sizes":[],"default_left":[1,1,1,0,0,0,0],"id":110,"left_children":[1,3,5,-1,-1,-1,-1],"loss_changes":[2.473878E6,1.4097814E6,6.93743E5,0E0,0E0,0E0,0E0],"parents":[2147483647,0,0,1,1,2,2],"right_children":[2,4,6,-1,-1,-1,-1],"split_conditions":[1.0261E3,3.6E1,3.1E1,2.067445E-2,-9.5694445E-2,2.8532407E-1,-3.6376112E-3],"split_indices":[14,8,12,0,0,0,0],"split_type":[0,0,0,0,0,0,0],"sum_hessian":[4.906E4,4.438E4,4.68E3,2.7703E4,1.6677E4,3.6E3,1.08E3],"tree_param":{"num_deleted":"0","num_feature":"25","num_nodes":"7","size_leaf_vector":"1"}},{"base_weights":[6.067015E-4,1.2170267E1,-4.0800157E0,2.480198E-1,3.3865273E-2,1.3187811E-2,-1.3516602E-1],"categories":[],"categories_nodes":[],"categories_segments":[],"categories_sizes":[],"default_left":[1,0,0,0,0,0,0],"id":111,"left_children":[1,3,5,-1,-1,-1,-1],"loss_changes":[2.4364085E6,1.3668655E6,1.8718835E6,0E0,0E0,0E0,0E0],"parents":[2147483647,0,0,1,1,2,2],"right_children":[2,4,6,-1,-1,-1,-1],"split_conditions":[7E0,3.2E1,3.6E1,2.480198E-1,3.3865273E-2,1.3187811E-2,-1.3516602E-1],"split_indices":[0,8,8,0,0,0,0],"split_type":[0,0,0,0,0,0,0],"sum_hessian":[4.906E4,1.2319E4,3.6741E4,5.052E3,7.267E3,2.3371E4,1.337E4],"tree_param":{"num_deleted":"0","num_feature":"25","num_nodes":"7","size_leaf_vector":"1"}},{"base_weights":[6.038924E-4,1.2048584E1,-4.0392175E0,2.4554014E-1,3.3526577E-2,1.3055981E-2,-1.338145E-1],"categories":[],"categories_nodes":[],"categories_segments":[],"categories_sizes":[],"default_left":[1,0,0,0,0,0,0],"id":112,"left_children":[1,3,5,-1,-1,-1,-1],"loss_changes":[2.3879302E6,1.3396721E6,1.8346376E6,0E0,0E0,0E0,0E0],"parents":[2147483647,0,0,1,1,2,2],"right_children":[2,4,6,-1,-1,-1,-1],"split_conditions":[7E0,3.2E1,3.6E1,2.4554014E-1,3.3526577E-2,1.3055981E-2,-1.338145E-1],"split_indices":[0,8,8,0,0,0,0],"split_type":[0,0,0,0,0,0,0],"sum_hessian":[4.906E4,1.2319E4,3.6741E4,5.052E3,7.267E3,2.3371E4,1.337E4],"tree_param":{"num_deleted":"0","num_feature":"25","num_nodes":"7","size_leaf_vector":"1"}},{"base_weights":[5.975706E-4,1.1928111E1,-3.99883E0,2.4308519E-1,3.3191234E-2,1.2925371E-2,-1.3247639E-1],"categories":[],"categories_nodes":[],"categories_segments":[],"categories_sizes":[],"default_left":[1,0,0,0,0,0,0],"id":113,"left_children":[1,3,5,-1,-1,-1,-1],"loss_changes":[2.340416E6,1.313019E6,1.7981282E6,0E0,0E0,0E0,0E0],"parents":[2147483647,0,0,1,1,2,2],"right_children":[2,4,6,-1,-1,-1,-1],"split_conditions":[7E0,3.2E1,3.6E1,2.4308519E-1,3.3191234E-2,1.2925371E-2,-1.3247639E-1],"split_indices":[0,8,8,0,0,0,0],"split_type":[0,0,0,0,0,0,0],"sum_hessian":[4.906E4,1.2319E4,3.6741E4,5.052E3,7.267E3,2.3371E4,1.337E4],"tree_param":{"num_deleted":"0","num_feature":"25","num_nodes":"7","size_leaf_vector":"1"}},{"base_weights":[5.877363E-4,1.1808851E1,-3.958854E0,2.4065495E-1,3.2859247E-2,1.2795982E-2,-1.3115174E-1],"categories":[],"categories_nodes":[],"categories_segments":[],"categories_sizes":[],"default_left":[1,0,0,0,0,0,0],"id":114,"left_children":[1,3,5,-1,-1,-1,-1],"loss_changes":[2.293851E6,1.2868986E6,1.7623446E6,0E0,0E0,0E0,0E0],"parents":[2147483647,0,0,1,1,2,2],"right_children":[2,4,6,-1,-1,-1,-1],"split_conditions":[7E0,3.2E1,3.6E1,2.4065495E-1,3.2859247E-2,1.2795982E-2,-1.3115174E-1],"split_indices":[0,8,8,0,0,0,0],"split_type":[0,0,0,0,0,0,0],"sum_hessian":[4.906E4,1.2319E4,3.6741E4,5.052E3,7.267E3,2.3371E4,1.337E4],"tree_param":{"num_deleted":"0","num_feature":"25","num_nodes":"7","size_leaf_vector":"1"}},{"base_weights":[5.909584E-4,1.1690777E1,-3.919258E0,2.7469164E-1,5.173614E-2,1.266812E-2,-1.2984018E-1],"categories":[],"categories_nodes":[],"categories_segments":[],"categories_sizes":[],"default_left":[1,0,0,0,0,0,0],"id":115,"left_children":[1,3,5,-1,-1,-1,-1],"loss_changes":[2.2482055E6,1.2667275E6,1.7272758E6,0E0,0E0,0E0,0E0],"parents":[2147483647,0,0,1,1,2,2],"right_children":[2,4,6,-1,-1,-1,-1],"split_conditions":[7E0,3.09E1,3.6E1,2.7469164E-1,5.173614E-2,1.266812E-2,-1.2984018E-1],"split_indices":[0,8,8,0,0,0,0],"split_type":[0,0,0,0,0,0,0],"sum_hessian":[4.906E4,1.2319E4,3.6741E4,3.6E3,8.719E3,2.3371E4,1.337E4],"tree_param":{"num_deleted":"0","num_feature":"25","num_nodes":"7","size_leaf_vector":"1"}},{"base_weights":[5.9598446E-4,-2.2677758E0,1.9809362E1,9.814525E-3,-1.20656386E-1,1.5210101E-1,4.7345558E-1],"categories":[],"categories_nodes":[],"categories_segments":[],"categories_sizes":[],"default_left":[1,1,0,0,0,0,0],"id":116,"left_children":[1,3,5,-1,-1,-1,-1],"loss_changes":[2.2045348E6,1.4014421E6,6.377029E5,0E0,0E0,0E0,0E0],"parents":[2147483647,0,0,1,1,2,2],"right_children":[2,4,6,-1,-1,-1,-1],"split_conditions":[1.0256E3,8E0,3E0,9.814525E-3,-1.20656386E-1,1.5210101E-1,4.7345558E-1],"split_indices":[14,22,24,0,0,0,0],"split_type":[0,0,0,0,0,0,0],"sum_hessian":[4.906E4,4.402E4,5.04E3,3.3058E4,1.0962E4,4.32E3,7.2E2],"tree_param":{"num_deleted":"0","num_feature":"25","num_nodes":"7","size_leaf_vector":"1"}},{"base_weights":[5.9481006E-4,1.1498878E1,-3.854907E0,2.700669E-1,5.0934732E-2,1.2887563E-2,-1.2845546E-1],"categories":[],"categories_nodes":[],"categories_segments":[],"categories_sizes":[],"default_left":[1,0,0,0,0,0,0],"id":117,"left_children":[1,3,5,-1,-1,-1,-1],"loss_changes":[2.1749995E6,1.2236549E6,1.699144E6,0E0,0E0,0E0,0E0],"parents":[2147483647,0,0,1,1,2,2],"right_children":[2,4,6,-1,-1,-1,-1],"split_conditions":[7E0,3.09E1,3.6E1,2.700669E-1,5.0934732E-2,1.2887563E-2,-1.2845546E-1],"split_indices":[0,8,8,0,0,0,0],"split_type":[0,0,0,0,0,0,0],"sum_hessian":[4.906E4,1.2319E4,3.6741E4,3.6E3,8.719E3,2.3371E4,1.337E4],"tree_param":{"num_deleted":"0","num_feature":"25","num_nodes":"7","size_leaf_vector":"1"}},{"base_weights":[5.946589E-4,1.1383912E1,-3.8163579E0,2.3240148E-1,3.1394225E-2,1.2758784E-2,-1.2717107E-1],"categories":[],"categories_nodes":[],"categories_segments":[],"categories_sizes":[],"default_left":[1,0,0,0,0,0,0],"id":118,"left_children":[1,3,5,-1,-1,-1,-1],"loss_changes":[2.1317232E6,1.20419E6,1.6653372E6,0E0,0E0,0E0,0E0],"parents":[2147483647,0,0,1,1,2,2],"right_children":[2,4,6,-1,-1,-1,-1],"split_conditions":[7E0,3.2E1,3.6E1,2.3240148E-1,3.1394225E-2,1.2758784E-2,-1.2717107E-1],"split_indices":[0,8,8,0,0,0,0],"split_type":[0,0,0,0,0,0,0],"sum_hessian":[4.906E4,1.2319E4,3.6741E4,5.052E3,7.267E3,2.3371E4,1.337E4],"tree_param":{"num_deleted":"0","num_feature":"25","num_nodes":"7","size_leaf_vector":"1"}},{"base_weights":[5.915419E-4,1.1270093E1,-3.7781973E0,2.6504356E-1,4.9776793E-2,-1.18971735E-1,1.7004985E-2],"categories":[],"categories_nodes":[],"categories_segments":[],"categories_sizes":[],"default_left":[1,0,0,0,0,0,0],"id":119,"left_children":[1,3,5,-1,-1,-1,-1],"loss_changes":[2.0893085E6,1.180867E6,1.6343562E6,0E0,0E0,0E0,0E0],"parents":[2147483647,0,0,1,1,2,2],"right_children":[2,4,6,-1,-1,-1,-1],"split_conditions":[7E0,3.09E1,4E1,2.6504356E-1,4.9776793E-2,-1.18971735E-1,1.7004985E-2],"split_indices":[0,8,3,0,0,0,0],"split_type":[0,0,0,0,0,0,0],"sum_hessian":[4.906E4,1.2319E4,3.6741E4,3.6E3,8.719E3,1.4803E4,2.1938E4],"tree_param":{"num_deleted":"0","num_feature":"25","num_nodes":"7","size_leaf_vector":"1"}},{"base_weights":[5.8901584E-4,1.1157419E1,-3.7404199E0,2.2804669E-1,3.058257E-2,1.2696492E-2,-1.2497551E-1],"categories":[],"categories_nodes":[],"categories_segments":[],"categories_sizes":[],"default_left":[1,0,0,0,0,0,0],"id":120,"left_children":[1,3,5,-1,-1,-1,-1],"loss_changes":[2.04774E6,1.1621126E6,1.6120279E6,0E0,0E0,0E0,0E0],"parents":[2147483647,0,0,1,1,2,2],"right_children":[2,4,6,-1,-1,-1,-1],"split_conditions":[7E0,3.2E1,3.6E1,2.2804669E-1,3.058257E-2,1.2696492E-2,-1.2497551E-1],"split_indices":[0,8,8,0,0,0,0],"split_type":[0,0,0,0,0,0,0],"sum_hessian":[4.906E4,1.2319E4,3.6741E4,5.052E3,7.267E3,2.3371E4,1.337E4],"tree_param":{"num_deleted":"0","num_feature":"25","num_nodes":"7","size_leaf_vector":"1"}},{"base_weights":[5.8446504E-4,1.1045864E1,-3.7030203E0,2.601139E-1,4.8644524E-2,-1.1690869E-1,1.68719E-2],"categories":[],"categories_nodes":[],"categories_segments":[],"categories_sizes":[],"default_left":[1,0,0,0,0,0,0],"id":121,"left_children":[1,3,5,-1,-1,-1,-1],"loss_changes":[2.0069962E6,1.139573E6,1.5819901E6,0E0,0E0,0E0,0E0],"parents":[2147483647,0,0,1,1,2,2],"right_children":[2,4,6,-1,-1,-1,-1],"split_conditions":[7E0,3.09E1,4E1,2.601139E-1,4.8644524E-2,-1.1690869E-1,1.68719E-2],"split_indices":[0,8,3,0,0,0,0],"split_type":[0,0,0,0,0,0,0],"sum_hessian":[4.906E4,1.2319E4,3.6741E4,3.6E3,8.719E3,1.4803E4,2.1938E4],"tree_param":{"num_deleted":"0","num_feature":"25","num_nodes":"7","size_leaf_vector":"1"}},{"base_weights":[5.8303E-4,-2.143962E0,1.8728022E1,1.0733856E-2,-1.1845699E-1,1.4236699E-1,4.561883E-1],"categories":[],"categories_nodes":[],"categories_segments":[],"categories_sizes":[],"default_left":[1,1,0,0,0,0,0],"id":122,"left_children":[1,3,5,-1,-1,-1,-1],"loss_changes":[1.97042E6,1.3740781E6,6.0817875E5,0E0,0E0,0E0,0E0],"parents":[2147483647,0,0,1,1,2,2],"right_children":[2,4,6,-1,-1,-1,-1],"split_conditions":[1.0256E3,8E0,3E0,1.0733856E-2,-1.1845699E-1,1.4236699E-1,4.561883E-1],"split_indices":[14,22,24,0,0,0,0],"split_type":[0,0,0,0,0,0,0],"sum_hessian":[4.906E4,4.402E4,5.04E3,3.3058E4,1.0962E4,4.32E3,7.2E2],"tree_param":{"num_deleted":"0","num_feature":"25","num_nodes":"7","size_leaf_vector":"1"}},{"base_weights":[5.8471446E-4,1.0863905E1,-3.6420069E0,2.2218762E-1,2.9680647E-2,1.29662715E-2,-1.22742794E-1],"categories":[],"categories_nodes":[],"categories_segments":[],"categories_sizes":[],"default_left":[1,0,0,0,0,0,0],"id":123,"left_children":[1,3,5,-1,-1,-1,-1],"loss_changes":[1.9414146E6,1.1044979E6,1.5663874E6,0E0,0E0,0E0,0E0],"parents":[2147483647,0,0,1,1,2,2],"right_children":[2,4,6,-1,-1,-1,-1],"split_conditions":[7E0,3.2E1,3.6E1,2.2218762E-1,2.9680647E-2,1.29662715E-2,-1.22742794E-1],"split_indices":[0,8,8,0,0,0,0],"split_type":[0,0,0,0,0,0,0],"sum_hessian":[4.906E4,1.2319E4,3.6741E4,5.052E3,7.267E3,2.3371E4,1.337E4],"tree_param":{"num_deleted":"0","num_feature":"25","num_nodes":"7","size_leaf_vector":"1"}},{"base_weights":[5.766666E-4,1.0755274E1,-3.6055925E0,2.5350472E-1,4.726826E-2,1.2836577E-2,-1.2151546E-1],"categories":[],"categories_nodes":[],"categories_segments":[],"categories_sizes":[],"default_left":[1,0,0,0,0,0,0],"id":124,"left_children":[1,3,5,-1,-1,-1,-1],"loss_changes":[1.9027842E6,1.0838725E6,1.5352179E6,0E0,0E0,0E0,0E0],"parents":[2147483647,0,0,1,1,2,2],"right_children":[2,4,6,-1,-1,-1,-1],"split_conditions":[7E0,3.09E1,3.6E1,2.5350472E-1,4.726826E-2,1.2836577E-2,-1.2151546E-1],"split_indices":[0,8,8,0,0,0,0],"split_type":[0,0,0,0,0,0,0],"sum_hessian":[4.906E4,1.2319E4,3.6741E4,3.6E3,8.719E3,2.3371E4,1.337E4],"tree_param":{"num_deleted":"0","num_feature":"25","num_nodes":"7","size_leaf_vector":"1"}},{"base_weights":[5.699598E-4,1.0647741E1,-3.5695448E0,2.1802412E-1,2.89111E-2,-1.1375799E-1,1.6981225E-2],"categories":[],"categories_nodes":[],"categories_segments":[],"categories_sizes":[],"default_left":[1,0,0,0,0,0,0],"id":125,"left_children":[1,3,5,-1,-1,-1,-1],"loss_changes":[1.8649264E6,1.0658964E6,1.5108779E6,0E0,0E0,0E0,0E0],"parents":[2147483647,0,0,1,1,2,2],"right_children":[2,4,6,-1,-1,-1,-1],"split_conditions":[7E0,3.2E1,4E1,2.1802412E-1,2.89111E-2,-1.1375799E-1,1.6981225E-2],"split_indices":[0,8,3,0,0,0,0],"split_type":[0,0,0,0,0,0,0],"sum_hessian":[4.906E4,1.2319E4,3.6741E4,5.052E3,7.267E3,1.4803E4,2.1938E4],"tree_param":{"num_deleted":"0","num_feature":"25","num_nodes":"7","size_leaf_vector":"1"}},{"base_weights":[5.791155E-4,1.0541293E1,-3.5338392E0,2.4879076E-1,4.6191726E-2,1.2764646E-2,-1.19418025E-1],"categories":[],"categories_nodes":[],"categories_segments":[],"categories_sizes":[],"default_left":[1,0,0,0,0,0,0],"id":126,"left_children":[1,3,5,-1,-1,-1,-1],"loss_changes":[1.8278192E6,1.0459774E6,1.4860402E6,0E0,0E0,0E0,0E0],"parents":[2147483647,0,0,1,1,2,2],"right_children":[2,4,6,-1,-1,-1,-1],"split_conditions":[7E0,3.09E1,3.6E1,2.4879076E-1,4.6191726E-2,1.2764646E-2,-1.19418025E-1],"split_indices":[0,8,8,0,0,0,0],"split_type":[0,0,0,0,0,0,0],"sum_hessian":[4.906E4,1.2319E4,3.6741E4,3.6E3,8.719E3,2.3371E4,1.337E4],"tree_param":{"num_deleted":"0","num_feature":"25","num_nodes":"7","size_leaf_vector":"1"}},{"base_weights":[5.790944E-4,-2.0448377E0,1.786237E1,1.1461893E-2,-1.1667214E-1,-2.104807E-1,2.0859338E-1],"categories":[],"categories_nodes":[],"categories_segments":[],"categories_sizes":[],"default_left":[1,1,0,0,0,0,0],"id":127,"left_children":[1,3,5,-1,-1,-1,-1],"loss_changes":[1.7924708E6,1.3516898E6,5.88287E5,0E0,0E0,0E0,0E0],"parents":[2147483647,0,0,1,1,2,2],"right_children":[2,4,6,-1,-1,-1,-1],"split_conditions":[1.0256E3,8E0,3E0,1.1461893E-2,-1.1667214E-1,-2.104807E-1,2.0859338E-1],"split_indices":[14,22,3,0,0,0,0],"split_type":[0,0,0,0,0,0,0],"sum_hessian":[4.906E4,4.402E4,5.04E3,3.3058E4,1.0962E4,3.6E2,4.68E3],"tree_param":{"num_deleted":"0","num_feature":"25","num_nodes":"7","size_leaf_vector":"1"}},{"base_weights":[5.6232314E-4,1.0369283E1,-3.4761846E0,2.4461249E-1,4.5486942E-2,1.294985E-2,-1.18157476E-1],"categories":[],"categories_nodes":[],"categories_segments":[],"categories_sizes":[],"default_left":[1,0,0,0,0,0,0],"id":128,"left_children":[1,3,5,-1,-1,-1,-1],"loss_changes":[1.7686565E6,1.0104189E6,1.4619601E6,0E0,0E0,0E0,0E0],"parents":[2147483647,0,0,1,1,2,2],"right_children":[2,4,6,-1,-1,-1,-1],"split_conditions":[7E0,3.09E1,3.6E1,2.4461249E-1,4.5486942E-2,1.294985E-2,-1.18157476E-1],"split_indices":[0,8,8,0,0,0,0],"split_type":[0,0,0,0,0,0,0],"sum_hessian":[4.906E4,1.2319E4,3.6741E4,3.6E3,8.719E3,2.3371E4,1.337E4],"tree_param":{"num_deleted":"0","num_feature":"25","num_nodes":"7","size_leaf_vector":"1"}},{"base_weights":[5.656243E-4,1.0265607E1,-3.4414167E0,2.1040632E-1,2.772973E-2,-1.1069745E-1,1.7061843E-2],"categories":[],"categories_nodes":[],"categories_segments":[],"categories_sizes":[],"default_left":[1,0,0,0,0,0,0],"id":129,"left_children":[1,3,5,-1,-1,-1,-1],"loss_changes":[1.733463E6,9.9457625E5,1.4427888E6,0E0,0E0,0E0,0E0],"parents":[2147483647,0,0,1,1,2,2],"right_children":[2,4,6,-1,-1,-1,-1],"split_conditions":[7E0,3.2E1,4E1,2.1040632E-1,2.772973E-2,-1.1069745E-1,1.7061843E-2],"split_indices":[0,8,3,0,0,0,0],"split_type":[0,0,0,0,0,0,0],"sum_hessian":[4.906E4,1.2319E4,3.6741E4,5.052E3,7.267E3,1.4803E4,2.1938E4],"tree_param":{"num_deleted":"0","num_feature":"25","num_nodes":"7","size_leaf_vector":"1"}},{"base_weights":[5.5809517E-4,1.0162959E1,-3.4070077E0,2.4006356E-1,4.4450417E-2,1.2870912E-2,-1.1611859E-1],"categories":[],"categories_nodes":[],"categories_segments":[],"categories_sizes":[],"default_left":[1,0,0,0,0,0,0],"id":130,"left_children":[1,3,5,-1,-1,-1,-1],"loss_changes":[1.6989704E6,9.7508775E5,1.4151105E6,0E0,0E0,0E0,0E0],"parents":[2147483647,0,0,1,1,2,2],"right_children":[2,4,6,-1,-1,-1,-1],"split_conditions":[7E0,3.09E1,3.6E1,2.4006356E-1,4.4450417E-2,1.2870912E-2,-1.1611859E-1],"split_indices":[0,8,8,0,0,0,0],"split_type":[0,0,0,0,0,0,0],"sum_hessian":[4.906E4,1.2319E4,3.6741E4,3.6E3,8.719E3,2.3371E4,1.337E4],"tree_param":{"num_deleted":"0","num_feature":"25","num_nodes":"7","size_leaf_vector":"1"}},{"base_weights":[5.513181E-4,1.0061346E1,-3.3729448E0,2.0646453E-1,2.7007785E-2,-1.0878192E-1,1.6916001E-2],"categories":[],"categories_nodes":[],"categories_segments":[],"categories_sizes":[],"default_left":[1,0,0,0,0,0,0],"id":131,"left_children":[1,3,5,-1,-1,-1,-1],"loss_changes":[1.665167E6,9.598251E5,1.3966062E6,0E0,0E0,0E0,0E0],"parents":[2147483647,0,0,1,1,2,2],"right_children":[2,4,6,-1,-1,-1,-1],"split_conditions":[7E0,3.2E1,4E1,2.0646453E-1,2.7007785E-2,-1.0878192E-1,1.6916001E-2],"split_indices":[0,8,3,0,0,0,0],"split_type":[0,0,0,0,0,0,0],"sum_hessian":[4.906E4,1.2319E4,3.6741E4,5.052E3,7.267E3,1.4803E4,2.1938E4],"tree_param":{"num_deleted":"0","num_feature":"25","num_nodes":"7","size_leaf_vector":"1"}},{"base_weights":[5.581406E-4,3.16748E0,-1.0554636E1,9.713928E-2,-6.2186264E-2,-6.4051606E-2,-3.1078538E-1],"categories":[],"categories_nodes":[],"categories_segments":[],"categories_sizes":[],"default_left":[1,0,0,0,0,0,0],"id":132,"left_children":[1,3,5,-1,-1,-1,-1],"loss_changes":[1.6400189E6,2.3189582E6,9.641066E5,0E0,0E0,0E0,0E0],"parents":[2147483647,0,0,1,1,2,2],"right_children":[2,4,6,-1,-1,-1,-1],"split_conditions":[8E0,3.6E1,4.21E1,9.713928E-2,-6.2186264E-2,-6.4051606E-2,