{"learner":{"attributes":{"scikit_learn":"{\"_estimator_type\": \"regressor\"}"},"feature_names":["Prevailing Wind Magnitude (MPH)","Gust Wind Magnitude (MPH)","Vis (MI)","Cloud Height 1 (100s of ft)","Cloud Height 2 (100s of ft)","Cloud Height 3 (100s of ft)","Cloud Height 4 (100s of ft)","Air Temp (F)","Dewpoint (F)","6hr Max (F)","6hr Min (F)","Rel Hum","Wind Chill (F)","Heat Index (F)","Sea Level Pressure (MB)","Precip 1hr","Precip 3hr","Precip 6hr","cloud_code_1","cloud_code_2","cloud_code_3","cloud_code_4","prevailing_wind_dir_code","gust_wind_dir_code","weather_code"],"feature_types":["float","float","float","float","float","float","float","float","float","float","float","float","float","float","float","float","float","float","float","float","float","float","float","float","float"],"gradient_booster":{"model":{"cats":{"enc":[],"feature_segments":[],"sorted_idx":[]},"gbtree_model_param":{"num_parallel_tree":"1","num_trees":"150"},"iteration_indptr":[0,1,2,3,4,5,6,7,8,9,10,11,12,13,14,15,16,17,18,19,20,21,22,23,24,25,26,27,28,29,30,31,32,33,34,35,36,37,38,39,40,41,42,43,44,45,46,47,48,49,50,51,52,53,54,55,56,57,58,59,60,61,62,63,64,65,66,67,68,69,70,71,72,73,74,75,76,77,78,79,80,81,82,83,84,85,86,87,88,89,90,91,92,93,94,95,96,97,98,99,100,101,102,103,104,105,106,107,108,109,110,111,112,113,114,115,116,117,118,119,120,121,122,123,124,125,126,127,128,129,130,131,132,133,134,135,136,137,138,139,140,141,142,143,144,145,146,147,148,149,150],"tree_info":[0,0,0,0,0,0,0,0,0,0,0,0,0,0,0,0,0,0,0,0,0,0,0,0,0,0,0,0,0,0,0,0,0,0,0,0,0,0,0,0,0,0,0,0,0,0,0,0,0,0,0,0,0,0,0,0,0,0,0,0,0,0,0,0,0,0,0,0,0,0,0,0,0,0,0,0,0,0,0,0,0,0,0,0,0,0,0,0,0,0,0,0,0,0,0,0,0,0,0,0,0,0,0,0,0,0,0,0,0,0,0,0,0,0,0,0,0,0,0,0,0,0,0,0,0,0,0,0,0,0,0,0,0,0,0,0,0,0,0,0,0,0,0,0,0,0,0,0,0,0],"trees":[{"base_weights":[9.235951E-6,2.1415498E3,-1.3690611E2,2.852923E3,1.4603625E3,-4.75754E2,2.3568777E2,2.6083767E3,1.7886522E2,1.1287423E2,1.2084275E3,-5.74127E2,6.8990497E2,-8.8880255E2,4.5617645E2,1.4536305E2,1.22755486E2,4.9795464E1,7.81804E1,-3.5323997E1,-1.3732968E1,4.014852E1,3.0951712E1,-4.7630337E1,-3.6959133E1,1.603639E1,1.0233266E2],"categories":[],"categories_nodes":[],"categories_segments":[],"categories_sizes":[],"default_left":[0,0,0,0,0,0,0,0,0,0,0,0,0,0,1,0,0,0,0,0,0,0,0,0,0,0,0],"id":0,"left_children":[1,3,5,7,9,11,13,15,-1,-1,17,19,21,23,25,-1,-1,-1,-1,-1,-1,-1,-1,-1,-1,-1,-1],"loss_changes":[1.438455E10,1.4243717E9,5.822127E9,2.459351E8,3.0011264E8,2.7697756E9,5.446102E9,4.2381824E7,0E0,0E0,8.509658E7,8.825656E8,1.4567424E7,3.367219E7,3.955462E9,0E0,0E0,0E0,0E0,0E0,0E0,0E0,0E0,0E0,0E0,0E0,0E0],"parents":[2147483647,0,0,1,1,2,2,3,3,4,4,5,5,6,6,7,7,10,10,11,11,12,12,13,13,14,14],"right_children":[2,4,6,8,10,12,14,16,-1,-1,18,20,22,24,26,-1,-1,-1,-1,-1,-1,-1,-1,-1,-1,-1,-1],"split_conditions":[1.0008E3,4E0,6.5E1,4.21E1,1.1E1,1.0239E3,2.1E1,6E0,1.7886522E2,1.1287423E2,2.2E1,4.4E1,6E0,3.51E1,2.5E2,1.4536305E2,1.22755486E2,4.9795464E1,7.81804E1,-3.5323997E1,-1.3732968E1,4.014852E1,3.0951712E1,-4.7630337E1,-3.6959133E1,1.603639E1,1.0233266E2],"split_indices":[14,22,3,7,3,14,8,0,0,0,3,3,0,7,5,0,0,0,0,0,0,0,0,0,0,0,0],"split_type":[0,0,0,0,0,0,0,0,0,0,0,0,0,0,0,0,0,0,0,0,0,0,0,0,0,0,0],"sum_hessian":[4.906E4,2.947E3,4.6113E4,1.44E3,1.507E3,2.415E4,2.1963E4,1.08E3,3.6E2,3.6E2,1.147E3,2.2271E4,1.879E3,3.6E3,1.8363E4,3.6E2,7.2E2,7.2E2,4.27E2,1.5444E4,6.827E3,7.2E2,1.159E3,2.52E3,1.08E3,1.6923E4,1.44E3],"tree_param":{"num_deleted":"0","num_feature":"25","num_nodes":"27","size_leaf_vector":"1"}},{"base_weights":[1.515774E-2,2.0347057E3,-1.300596E2,2.7105872E3,1.3875042E3,-4.5196542E2,2.2390494E2,2.478206E3,1.6994673E2,1.0724615E2,1.1481176E3,-5.4542285E2,6.554476E2,-6.854115E2,4.701608E2,1.3104985E2,1.0930774E2,4.7309143E1,7.428051E1,-3.355791E1,-1.3046424E1,3.8143875E1,2.9405462E1,-7.760296E0,-4.2219296E1,1.6802547E1,9.7219574E1],"categories":[],"categories_nodes":[],"categories_segments":[],"categories_sizes":[],"default_left":[0,0,0,0,0,0,0,0,0,0,0,0,0,0,1,0,0,0,0,0,0,0,0,0,0,0,0],"id":1,"left_children":[1,3,5,7,9,11,13,15,-1,-1,17,19,21,23,25,-1,-1,-1,-1,-1,-1,-1,-1,-1,-1,-1,-1],"loss_changes":[1.2984841E10,1.2857876E9,5.25448E9,2.2207693E8,2.709614E8,2.4998897E9,4.9185997E9,3.935027E7,0E0,0E0,7.683226E7,7.9651635E8,1.3151616E7,3.9442662E8,3.416546E9,0E0,0E0,0E0,0E0,0E0,0E0,0E0,0E0,0E0,0E0,0E0,0E0],"parents":[2147483647,0,0,1,1,2,2,3,3,4,4,5,5,6,6,7,7,10,10,11,11,12,12,13,13,14,14],"right_children":[2,4,6,8,10,12,14,16,-1,-1,18,20,22,24,26,-1,-1,-1,-1,-1,-1,-1,-1,-1,-1,-1,-1],"split_conditions":[1.0008E3,4E0,6.5E1,4.21E1,1.1E1,1.0239E3,2.19E1,9E1,1.6994673E2,1.0724615E2,2.2E1,4.4E1,6E0,1.3E1,2.5E2,1.3104985E2,1.0930774E2,4.7309143E1,7.428051E1,-3.355791E1,-1.3046424E1,3.8143875E1,2.9405462E1,-7.760296E0,-4.2219296E1,1.6802547E1,9.7219574E1],"split_indices":[14,22,3,7,3,14,8,4,0,0,3,3,0,0,5,0,0,0,0,0,0,0,0,0,0,0,0],"split_type":[0,0,0,0,0,0,0,0,0,0,0,0,0,0,0,0,0,0,0,0,0,0,0,0,0,0,0],"sum_hessian":[4.906E4,2.947E3,4.6113E4,1.44E3,1.507E3,2.415E4,2.1963E4,1.08E3,3.6E2,3.6E2,1.147E3,2.2271E4,1.879E3,4.68E3,1.7283E4,7.2E2,3.6E2,7.2E2,4.27E2,1.5444E4,6.827E3,7.2E2,1.159E3,1.08E3,3.6E3,1.5843E4,1.44E3],"tree_param":{"num_deleted":"0","num_feature":"25","num_nodes":"27","size_leaf_vector":"1"}},{"base_weights":[2.91521E-2,1.9331873E3,-1.23554794E2,2.5753425E3,1.3182806E3,-8.0630444E2,2.7186583E1,2.354518E3,1.6147295E2,1.018987E2,1.0908176E3,-8.6358185E2,-5.4728485E2,3.7612674E2,-4.9274088E2,1.3158069E2,1.10625626E2,4.494697E1,7.057516E1,-4.3842068E1,-3.118101E1,-1.1776585E1,-3.2220947E1,1.2812346E1,6.655347E1,-3.7923565E1,-1.3723864E1],"categories":[],"categories_nodes":[],"categories_segments":[],"categories_sizes":[],"default_left":[0,0,0,0,0,0,1,0,0,0,0,0,0,1,0,0,0,0,0,0,0,0,0,0,0,0,0],"id":2,"left_children":[1,3,5,7,9,11,13,15,-1,-1,17,19,21,23,25,-1,-1,-1,-1,-1,-1,-1,-1,-1,-1,-1,-1],"loss_changes":[1.1721269E10,1.1606692E9,4.7460116E9,2.0054118E8,2.4464205E8,1.2325888E8,6.8534615E9,3.6713984E7,0E0,0E0,6.93705E7,2.1178368E7,4.566467E7,2.5874417E9,8.796987E8,0E0,0E0,0E0,0E0,0E0,0E0,0E0,0E0,0E0,0E0,0E0,0E0],"parents":[2147483647,0,0,1,1,2,2,3,3,4,4,5,5,6,6,7,7,10,10,11,11,12,12,13,13,14,14],"right_children":[2,4,6,8,10,12,14,16,-1,-1,18,20,22,24,26,-1,-1,-1,-1,-1,-1,-1,-1,-1,-1,-1,-1],"split_conditions":[1.0008E3,4E0,2.1E1,4.21E1,1.1E1,1.99E1,3.51E1,6E0,1.6147295E2,1.018987E2,2.2E1,4.8000008E1,7E0,2.5E2,4.1E1,1.3158069E2,1.10625626E2,4.494697E1,7.057516E1,-4.3842068E1,-3.118101E1,-1.1776585E1,-3.2220947E1,1.2812346E1,6.655347E1,-3.7923565E1,-1.3723864E1],"split_indices":[14,22,8,7,3,8,8,0,0,0,3,0,0,5,7,0,0,0,0,0,0,0,0,0,0,0,0],"split_type":[0,0,0,0,0,0,0,0,0,0,0,0,0,0,0,0,0,0,0,0,0,0,0,0,0,0,0],"sum_hessian":[4.906E4,2.947E3,4.6113E4,1.44E3,1.507E3,8.339E3,3.7774E4,1.08E3,3.6E2,3.6E2,1.147E3,6.827E3,1.512E3,2.2604E4,1.517E4,3.6E2,7.2E2,7.2E2,4.27E2,6.467E3,3.6E2,3.6E2,1.152E3,2.0084E4,2.52E3,6.84E3,8.33E3],"tree_param":{"num_deleted":"0","num_feature":"25","num_nodes":"27","size_leaf_vector":"1"}},{"base_weights":[3.848251E-2,1.8367385E3,-1.1737904E2,2.4468557E3,1.2525107E3,-4.132903E2,2.0800204E2,2.2370164E3,1.5342166E2,9.681788E1,1.0363773E3,-4.9712878E2,5.801481E2,-6.2217773E2,4.3282635E2,1.18459694E2,9.834154E1,4.270274E1,6.705465E1,-3.043981E1,-1.2223159E1,3.425793E1,2.5718922E1,-8.012669E0,-3.8033604E1,1.5510402E1,8.9036606E1],"categories":[],"categories_nodes":[],"categories_segments":[],"categories_sizes":[],"default_left":[0,0,0,0,0,0,0,0,0,0,0,0,0,0,1,0,0,0,0,0,0,0,0,0,0,0,0],"id":3,"left_children":[1,3,5,7,9,11,13,15,-1,-1,17,19,21,23,25,-1,-1,-1,-1,-1,-1,-1,-1,-1,-1,-1,-1],"loss_changes":[1.0580748E10,1.04774246E9,4.4401234E9,1.8108723E8,2.2087885E8,2.0117855E9,4.0997317E9,3.39456E7,0E0,0E0,6.26336E7,6.28245E8,1.2631808E7,2.993399E8,2.8561119E9,0E0,0E0,0E0,0E0,0E0,0E0,0E0,0E0,0E0,0E0,0E0,0E0],"parents":[2147483647,0,0,1,1,2,2,3,3,4,4,5,5,6,6,7,7,10,10,11,11,12,12,13,13,14,14],"right_children":[2,4,6,8,10,12,14,16,-1,-1,18,20,22,24,26,-1,-1,-1,-1,-1,-1,-1,-1,-1,-1,-1,-1],"split_conditions":[1.0008E3,4E0,6.5E1,4.21E1,1.1E1,1.0239E3,2.19E1,9E1,1.5342166E2,9.681788E1,2.2E1,4.4E1,6E0,1.3E1,2.5E2,1.18459694E2,9.834154E1,4.270274E1,6.705465E1,-3.043981E1,-1.2223159E1,3.425793E1,2.5718922E1,-8.012669E0,-3.8033604E1,1.5510402E1,8.9036606E1],"split_indices":[14,22,3,7,3,14,8,4,0,0,3,3,0,0,5,0,0,0,0,0,0,0,0,0,0,0,0],"split_type":[0,0,0,0,0,0,0,0,0,0,0,0,0,0,0,0,0,0,0,0,0,0,0,0,0,0,0],"sum_hessian":[4.906E4,2.947E3,4.6113E4,1.44E3,1.507E3,2.415E4,2.1963E4,1.08E3,3.6E2,3.6E2,1.147E3,2.2271E4,1.879E3,4.68E3,1.7283E4,7.2E2,3.6E2,7.2E2,4.27E2,1.5444E4,6.827E3,7.2E2,1.159E3,1.08E3,3.6E3,1.5843E4,1.44E3],"tree_param":{"num_deleted":"0","num_feature":"25","num_nodes":"27","size_leaf_vector":"1"}},{"base_weights":[4.9870167E-2,1.7450973E3,-1.1150844E2,2.3247698E3,1.1900222E3,-2.3964815E2,5.720654E2,2.125366E3,1.4577184E2,9.1990395E1,9.8465405E2,-3.2534015E2,7.0314386E2,6.48522E2,2.819086E2,1.19113304E2,9.96895E1,4.057056E1,6.3709743E1,-2.5591368E1,-2.4750926E0,-6.0892534E0,1.17388626E2,3.9304886E1,2.9290243E1,2.1548704E1,5.805951E0],"categories":[],"categories_nodes":[],"categories_segments":[],"categories_sizes":[],"default_left":[0,0,0,0,0,0,1,0,0,0,0,0,0,0,1,0,0,0,0,0,0,0,0,0,0,0,0],"id":4,"left_children":[1,3,5,7,9,11,13,15,-1,-1,17,19,21,23,25,-1,-1,-1,-1,-1,-1,-1,-1,-1,-1,-1,-1],"loss_changes":[9.551121E9,9.457869E8,4.0393987E9,1.6352666E8,1.9942413E8,3.1376983E9,1.6131968E8,3.179008E7,0E0,0E0,5.6550784E7,1.8312499E9,4.3905725E9,4.924723E7,3.751447E7,0E0,0E0,0E0,0E0,0E0,0E0,0E0,0E0,0E0,0E0,0E0,0E0],"parents":[2147483647,0,0,1,1,2,2,3,3,4,4,5,5,6,6,7,7,10,10,11,11,12,12,13,13,14,14],"right_children":[2,4,6,8,10,12,14,16,-1,-1,18,20,22,24,26,-1,-1,-1,-1,-1,-1,-1,-1,-1,-1,-1,-1],"split_conditions":[1.0008E3,4E0,1.0241E3,4.21E1,1.1E1,1E0,3.3E1,6E0,1.4577184E2,9.1990395E1,2.2E1,4.1E1,1E2,2E0,2.5E2,1.19113304E2,9.96895E1,4.057056E1,6.3709743E1,-2.5591368E1,-2.4750926E0,-6.0892534E0,1.17388626E2,3.9304886E1,2.9290243E1,2.1548704E1,5.805951E0],"split_indices":[14,22,14,7,3,20,12,0,0,0,3,7,3,18,3,0,0,0,0,0,0,0,0,0,0,0,0],"split_type":[0,0,0,0,0,0,0,0,0,0,0,0,0,0,0,0,0,0,0,0,0,0,0,0,0,0,0],"sum_hessian":[4.906E4,2.947E3,4.6113E4,1.44E3,1.507E3,3.8834E4,7.279E3,1.08E3,3.6E2,3.6E2,1.147E3,3.5599E4,3.235E3,5.76E3,1.519E3,3.6E2,7.2E2,7.2E2,4.27E2,2.1239E4,1.436E4,2.155E3,1.08E3,1.8E3,3.96E3,7.99E2,7.2E2],"tree_param":{"num_deleted":"0","num_feature":"25","num_nodes":"27","size_leaf_vector":"1"}},{"base_weights":[6.2449727E-2,1.6580327E3,-1.0592914E2,2.2087842E3,1.1306512E3,-3.7824707E2,1.9350887E2,2.0193E3,1.3850343E2,8.740362E1,9.355122E2,-4.5436475E2,5.237056E2,-5.654928E2,3.9905695E2,1.07082436E2,8.8467415E1,3.8544846E1,6.0531704E1,-2.8111399E1,-1.051553E1,3.1084929E1,2.3117325E1,-6.3340225E0,-3.4853237E1,1.4466252E1,8.026491E1],"categories":[],"categories_nodes":[],"categories_segments":[],"categories_sizes":[],"default_left":[0,0,0,0,0,0,0,0,0,0,0,0,0,0,1,0,0,0,0,0,0,0,0,0,0,0,0],"id":5,"left_children":[1,3,5,7,9,11,13,15,-1,-1,17,19,21,23,25,-1,-1,-1,-1,-1,-1,-1,-1,-1,-1,-1,-1],"loss_changes":[8.621709E9,8.537677E8,3.7603167E9,1.4766285E8,1.80053E8,1.6583137E9,3.426859E9,2.9268992E7,0E0,0E0,5.105875E7,5.861801E8,1.1016544E7,2.7017126E8,2.2873E9,0E0,0E0,0E0,0E0,0E0,0E0,0E0,0E0,0E0,0E0,0E0,0E0],"parents":[2147483647,0,0,1,1,2,2,3,3,4,4,5,5,6,6,7,7,10,10,11,11,12,12,13,13,14,14],"right_children":[2,4,6,8,10,12,14,16,-1,-1,18,20,22,24,26,-1,-1,-1,-1,-1,-1,-1,-1,-1,-1,-1,-1],"split_conditions":[1.0008E3,4E0,6.5E1,4.21E1,1.1E1,1.0239E3,2.19E1,9E1,1.3850343E2,8.740362E1,2.2E1,4.4E1,6E0,1.3E1,2.5E2,1.07082436E2,8.8467415E1,3.8544846E1,6.0531704E1,-2.8111399E1,-1.051553E1,3.1084929E1,2.3117325E1,-6.3340225E0,-3.4853237E1,1.4466252E1,8.026491E1],"split_indices":[14,22,3,7,3,14,8,4,0,0,3,3,0,0,5,0,0,0,0,0,0,0,0,0,0,0,0],"split_type":[0,0,0,0,0,0,0,0,0,0,0,0,0,0,0,0,0,0,0,0,0,0,0,0,0,0,0],"sum_hessian":[4.906E4,2.947E3,4.6113E4,1.44E3,1.507E3,2.415E4,2.1963E4,1.08E3,3.6E2,3.6E2,1.147E3,2.2271E4,1.879E3,4.68E3,1.7283E4,7.2E2,3.6E2,7.2E2,4.27E2,1.5444E4,6.827E3,7.2E2,1.159E3,1.08E3,3.6E3,1.5843E4,1.44E3],"tree_param":{"num_deleted":"0","num_feature":"25","num_nodes":"27","size_leaf_vector":"1"}},{"base_weights":[7.131847E-2,1.5753076E3,-1.0063122E2,2.098577E3,1.0742424E3,-6.828208E2,2.7907808E1,1.918516E3,1.3159743E2,8.304555E1,8.8882294E2,-7.358332E2,-4.4313025E2,3.237789E2,-4.1294608E2,1.07834854E2,8.982998E1,3.662028E1,5.7512184E1,-3.5007946E1,-4.0627655E1,-8.779582E0,-2.6325565E1,1.1419032E1,5.418479E1,-3.200961E1,-1.131467E1],"categories":[],"categories_nodes":[],"categories_segments":[],"categories_sizes":[],"default_left":[0,0,0,0,0,0,1,0,0,0,0,0,0,1,0,0,0,0,0,0,0,0,0,0,0,0,0],"id":6,"left_children":[1,3,5,7,9,11,13,15,-1,-1,17,19,21,23,25,-1,-1,-1,-1,-1,-1,-1,-1,-1,-1,-1,-1],"loss_changes":[7.782719E9,7.706875E8,3.450918E9,1.3334374E8,1.6256358E8,1.0564634E8,4.9273503E9,2.7515648E7,0E0,0E0,4.6100224E7,1.8118912E7,3.3658976E7,1.6384968E9,6.4335E8,0E0,0E0,0E0,0E0,0E0,0E0,0E0,0E0,0E0,0E0,0E0,0E0],"parents":[2147483647,0,0,1,1,2,2,3,3,4,4,5,5,6,6,7,7,10,10,11,11,12,12,13,13,14,14],"right_children":[2,4,6,8,10,12,14,16,-1,-1,18,20,22,24,26,-1,-1,-1,-1,-1,-1,-1,-1,-1,-1,-1,-1],"split_conditions":[1.0008E3,4E0,2.1E1,4.21E1,1.1E1,1.99E1,3.51E1,6E0,1.3159743E2,8.304555E1,2.2E1,4E0,7E0,2.5E2,4.1E1,1.07834854E2,8.982998E1,3.662028E1,5.7512184E1,-3.5007946E1,-4.0627655E1,-8.779582E0,-2.6325565E1,1.1419032E1,5.418479E1,-3.200961E1,-1.131467E1],"split_indices":[14,22,8,7,3,8,8,0,0,0,3,24,0,5,7,0,0,0,0,0,0,0,0,0,0,0,0],"split_type":[0,0,0,0,0,0,0,0,0,0,0,0,0,0,0,0,0,0,0,0,0,0,0,0,0,0,0],"sum_hessian":[4.906E4,2.947E3,4.6113E4,1.44E3,1.507E3,8.339E3,3.7774E4,1.08E3,3.6E2,3.6E2,1.147E3,6.827E3,1.512E3,2.2604E4,1.517E4,3.6E2,7.2E2,7.2E2,4.27E2,4.667E3,2.16E3,3.6E2,1.152E3,2.0084E4,2.52E3,6.84E3,8.33E3],"tree_param":{"num_deleted":"0","num_feature":"25","num_nodes":"27","size_leaf_vector":"1"}},{"base_weights":[7.625933E-2,1.496714E3,-9.5601585E1,1.9938765E3,1.02064777E3,-2.6082797E2,3.2398364E2,1.8227731E3,1.2503578E2,7.890477E1,8.444638E2,-3.1482626E2,4.8289783E2,2.4910637E3,1.9702055E2,9.680098E1,7.957724E1,3.4791805E1,5.464329E1,-2.5482946E1,-5.9720955E0,2.8417774E1,2.0142195E1,1.5286928E2,9.5892075E1,-3.496789E1,1.9393232E1],"categories":[],"categories_nodes":[],"categories_segments":[],"categories_sizes":[],"default_left":[0,0,0,0,0,0,0,0,0,0,0,0,0,0,0,0,0,0,0,0,0,0,0,0,0,0,0],"id":7,"left_children":[1,3,5,7,9,11,13,15,-1,-1,17,19,21,23,25,-1,-1,-1,-1,-1,-1,-1,-1,-1,-1,-1,-1],"loss_changes":[7.0254367E9,6.957046E8,3.1970092E9,1.2040806E8,1.46773E8,1.3288832E9,3.5842977E9,2.5225472E7,0E0,0E0,4.162304E7,1.1741993E9,1.5095328E7,2.2819328E8,2.1059535E9,0E0,0E0,0E0,0E0,0E0,0E0,0E0,0E0,0E0,0E0,0E0,0E0],"parents":[2147483647,0,0,1,1,2,2,3,3,4,4,5,5,6,6,7,7,10,10,11,11,12,12,13,13,14,14],"right_children":[2,4,6,8,10,12,14,16,-1,-1,18,20,22,24,26,-1,-1,-1,-1,-1,-1,-1,-1,-1,-1,-1,-1],"split_conditions":[1.0008E3,4E0,1.6E2,4.21E1,1.1E1,1.0239E3,2.2E2,9E1,1.2503578E2,7.890477E1,2.2E1,4.4E1,6E0,1.3E1,1.6E1,9.680098E1,7.957724E1,3.4791805E1,5.464329E1,-2.5482946E1,-5.9720955E0,2.8417774E1,2.0142195E1,1.5286928E2,9.5892075E1,-3.496789E1,1.9393232E1],"split_indices":[14,22,3,7,3,14,4,4,0,0,3,3,0,0,8,0,0,0,0,0,0,0,0,0,0,0,0],"split_type":[0,0,0,0,0,0,0,0,0,0,0,0,0,0,0,0,0,0,0,0,0,0,0,0,0,0,0],"sum_hessian":[4.906E4,2.947E3,4.6113E4,1.44E3,1.507E3,3.3085E4,1.3028E4,1.08E3,3.6E2,3.6E2,1.147E3,3.0846E4,2.239E3,7.2E2,1.2308E4,7.2E2,3.6E2,7.2E2,4.27E2,1.5444E4,1.5402E4,1.08E3,1.159E3,3.6E2,3.6E2,2.16E3,1.0148E4],"tree_param":{"num_deleted":"0","num_feature":"25","num_nodes":"27","size_leaf_vector":"1"}},{"base_weights":[8.7129146E-2,1.4220376E3,-9.081607E1,1.8943918E3,9.6972705E2,-6.2746375E2,2.7667906E1,1.7317976E3,1.1880131E2,7.497046E1,8.0231854E2,-6.756792E2,-4.0945795E2,2.9676993E2,-3.7329965E2,9.76314E1,8.094137E1,3.3054634E1,5.191751E1,-3.2062828E1,-3.7486168E1,-8.04404E0,-2.4346571E1,7.463061E0,3.6985683E1,-2.9238073E1,-9.98065E0],"categories":[],"categories_nodes":[],"categories_segments":[],"categories_sizes":[],"default_left":[0,0,0,0,0,0,1,0,0,0,0,0,0,1,0,0,0,0,0,0,0,0,0,0,0,0,0],"id":8,"left_children":[1,3,5,7,9,11,13,15,-1,-1,17,19,21,23,25,-1,-1,-1,-1,-1,-1,-1,-1,-1,-1,-1,-1],"loss_changes":[6.3417467E9,6.280054E8,2.932137E9,1.087319E8,1.3251622E8,8.738714E7,4.0760778E9,2.380672E7,0E0,0E0,3.75808E7,1.6922112E7,2.90592E7,1.4768564E9,5.5708506E8,0E0,0E0,0E0,0E0,0E0,0E0,0E0,0E0,0E0,0E0,0E0,0E0],"parents":[2147483647,0,0,1,1,2,2,3,3,4,4,5,5,6,6,7,7,10,10,11,11,12,12,13,13,14,14],"right_children":[2,4,6,8,10,12,14,16,-1,-1,18,20,22,24,26,-1,-1,-1,-1,-1,-1,-1,-1,-1,-1,-1,-1],"split_conditions":[1.0008E3,4E0,2.1E1,4.21E1,1.1E1,1.99E1,3.51E1,6E0,1.1880131E2,7.497046E1,2.2E1,4E0,7E0,2E2,4.1E1,9.76314E1,8.094137E1,3.3054634E1,5.191751E1,-3.2062828E1,-3.7486168E1,-8.04404E0,-2.4346571E1,7.463061E0,3.6985683E1,-2.9238073E1,-9.98065E0],"split_indices":[14,22,8,7,3,8,8,0,0,0,3,24,0,4,7,0,0,0,0,0,0,0,0,0,0,0,0],"split_type":[0,0,0,0,0,0,0,0,0,0,0,0,0,0,0,0,0,0,0,0,0,0,0,0,0,0,0],"sum_hessian":[4.906E4,2.947E3,4.6113E4,1.44E3,1.507E3,8.339E3,3.7774E4,1.08E3,3.6E2,3.6E2,1.147E3,6.827E3,1.512E3,2.2604E4,1.517E4,3.6E2,7.2E2,7.2E2,4.27E2,4.667E3,2.16E3,3.6E2,1.152E3,1.6958E4,5.646E3,6.84E3,8.33E3],"tree_param":{"num_deleted":"0","num_feature":"25","num_nodes":"27","size_leaf_vector":"1"}},{"base_weights":[9.013142E-2,1.351091E3,-8.627736E1,1.7998787E3,9.2134674E2,-1.8484871E2,5.1654065E2,1.6453729E3,1.128777E2,7.123232E1,7.622766E2,-2.9049176E2,3.3197693E2,5.6947E2,3.3102148E2,8.7509514E1,7.157354E1,3.140419E1,4.9327705E1,-3.271126E1,-1.1244322E1,9.891804E1,8.3762103E-1,3.7647243E1,2.4794563E1,1.4918845E1,2.1392876E1],"categories":[],"categories_nodes":[],"categories_segments":[],"categories_sizes":[],"default_left":[0,0,0,0,0,1,1,0,0,0,0,0,0,0,0,0,0,0,0,0,0,0,0,0,0,0,0],"id":9,"left_children":[1,3,5,7,9,11,13,15,-1,-1,17,19,21,23,25,-1,-1,-1,-1,-1,-1,-1,-1,-1,-1,-1,-1],"loss_changes":[5.7246787E9,5.669043E8,2.7402166E9,9.818368E7,1.1964454E8,2.164075E9,6.345101E7,2.1731072E7,0E0,0E0,3.393107E7,7.851315E8,3.4911485E9,6.767923E7,4.4276E6,0E0,0E0,0E0,0E0,0E0,0E0,0E0,0E0,0E0,0E0,0E0,0E0],"parents":[2147483647,0,0,1,1,2,2,3,3,4,4,5,5,6,6,7,7,10,10,11,11,12,12,13,13,14,14],"right_children":[2,4,6,8,10,12,14,16,-1,-1,18,20,22,24,26,-1,-1,-1,-1,-1,-1,-1,-1,-1,-1,-1,-1],"split_conditions":[1.0008E3,4E0,1.0253E3,4.21E1,1.1E1,2E2,3.1E1,9E1,1.128777E2,7.123232E1,2.2E1,1.99E1,5E2,2E0,7E0,8.7509514E1,7.157354E1,3.140419E1,4.9327705E1,-3.271126E1,-1.1244322E1,9.891804E1,8.3762103E-1,3.7647243E1,2.4794563E1,1.4918845E1,2.1392876E1],"split_indices":[14,22,14,7,3,4,12,4,0,0,3,8,5,18,22,0,0,0,0,0,0,0,0,0,0,0,0],"split_type":[0,0,0,0,0,0,0,0,0,0,0,0,0,0,0,0,0,0,0,0,0,0,0,0,0,0,0],"sum_hessian":[4.906E4,2.947E3,4.6113E4,1.44E3,1.507E3,3.9633E4,6.48E3,1.08E3,3.6E2,3.6E2,1.147E3,3.2907E4,6.726E3,5.04E3,1.44E3,7.2E2,3.6E2,7.2E2,4.27E2,5.027E3,2.788E4,1.08E3,5.646E3,1.44E3,3.6E3,1.08E3,3.6E2],"tree_param":{"num_deleted":"0","num_feature":"25","num_nodes":"27","size_leaf_vector":"1"}},{"base_weights":[9.739773E-2,1.2836802E3,-8.196016E1,1.7100734E3,8.753802E2,-2.2986731E2,2.9364334E2,1.5632515E3,1.0724945E2,6.7680565E1,7.242331E2,-2.7685904E2,4.1735785E2,2.2311404E3,1.8013054E2,8.840001E1,7.2928345E1,2.983616E1,4.6867077E1,-2.2458097E1,-5.2034173E0,2.0101784E1,4.130158E1,1.3847063E2,8.433438E1,-3.0262547E1,1.7367102E1],"categories":[],"categories_nodes":[],"categories_segments":[],"categories_sizes":[],"default_left":[0,0,0,0,0,0,0,0,0,0,0,0,1,0,0,0,0,0,0,0,0,0,0,0,0,0,0],"id":10,"left_children":[1,3,5,7,9,11,13,15,-1,-1,17,19,21,23,25,-1,-1,-1,-1,-1,-1,-1,-1,-1,-1,-1,-1],"loss_changes":[5.1675853E9,5.117394E8,2.5619052E9,8.866227E7,1.0802278E8,1.006401E9,2.8650747E9,2.0591104E7,0E0,0E0,3.0635776E7,9.183406E8,1.3694272E7,2.066281E8,1.6166871E9,0E0,0E0,0E0,0E0,0E0,0E0,0E0,0E0,0E0,0E0,0E0,0E0],"parents":[2147483647,0,0,1,1,2,2,3,3,4,4,5,5,6,6,7,7,10,10,11,11,12,12,13,13,14,14],"right_children":[2,4,6,8,10,12,14,16,-1,-1,18,20,22,24,26,-1,-1,-1,-1,-1,-1,-1,-1,-1,-1,-1,-1],"split_conditions":[1.0008E3,4E0,1.6E2,4.21E1,1.1E1,1.0239E3,2.2E2,6E0,1.0724945E2,6.7680565E1,2.2E1,4.4E1,1.5E1,1.3E1,1.6E1,8.840001E1,7.2928345E1,2.983616E1,4.6867077E1,-2.2458097E1,-5.2034173E0,2.0101784E1,4.130158E1,1.3847063E2,8.433438E1,-3.0262547E1,1.7367102E1],"split_indices":[14,22,3,7,3,14,4,0,0,0,3,3,0,0,8,0,0,0,0,0,0,0,0,0,0,0,0],"split_type":[0,0,0,0,0,0,0,0,0,0,0,0,0,0,0,0,0,0,0,0,0,0,0,0,0,0,0],"sum_hessian":[4.906E4,2.947E3,4.6113E4,1.44E3,1.507E3,3.3085E4,1.3028E4,1.08E3,3.6E2,3.6E2,1.147E3,3.0846E4,2.239E3,7.2E2,1.2308E4,3.6E2,7.2E2,7.2E2,4.27E2,1.5444E4,1.5402E4,2.16E3,7.9E1,3.6E2,3.6E2,2.16E3,1.0148E4],"tree_param":{"num_deleted":"0","num_feature":"25","num_nodes":"27","size_leaf_vector":"1"}},{"base_weights":[1.05898865E-1,1.2196362E3,-7.785688E1,1.6247561E3,8.317069E2,-5.559829E2,2.77063E1,1.4852382E3,1.01901825E2,6.4305916E1,6.8808826E2,-6.82284E0,-5.7489185E2,2.660112E2,-3.2737314E2,7.9112495E1,6.436846E1,2.834642E1,4.45292E1,-2.3931067E1,-3.0609562E1,6.8642244E0,3.262773E1,-2.618231E1,-8.308212E0],"categories":[],"categories_nodes":[],"categories_segments":[],"categories_sizes":[],"default_left":[0,0,0,0,0,0,1,0,0,0,0,0,0,1,0,0,0,0,0,0,0,0,0,0,0],"id":11,"left_children":[1,3,5,7,9,11,13,15,-1,-1,17,-1,19,21,23,-1,-1,-1,-1,-1,-1,-1,-1,-1,-1],"loss_changes":[4.6647153E9,4.6195046E8,2.3275046E9,8.006118E7,9.753011E7,6.6081024E7,3.1965007E9,1.87136E7,0E0,0E0,2.7660544E7,0E0,2.8361984E7,1.1247008E9,4.7993792E8,0E0,0E0,0E0,0E0,0E0,0E0,0E0,0E0,0E0,0E0],"parents":[2147483647,0,0,1,1,2,2,3,3,4,4,5,5,6,6,7,7,10,10,12,12,13,13,14,14],"right_children":[2,4,6,8,10,12,14,16,-1,-1,18,-1,20,22,24,-1,-1,-1,-1,-1,-1,-1,-1,-1,-1],"split_conditions":[1.0008E3,4E0,2.1E1,4.21E1,1.1E1,7E0,3.51E1,9E1,1.01901825E2,6.4305916E1,2.2E1,-6.82284E0,1.0097E3,2E2,4.1E1,7.9112495E1,6.436846E1,2.834642E1,4.45292E1,-2.3931067E1,-3.0609562E1,6.8642244E0,3.262773E1,-2.618231E1,-8.308212E0],"split_indices":[14,22,8,7,3,0,8,4,0,0,3,0,14,4,7,0,0,0,0,0,0,0,0,0,0],"split_type":[0,0,0,0,0,0,0,0,0,0,0,0,0,0,0,0,0,0,0,0,0,0,0,0,0],"sum_hessian":[4.906E4,2.947E3,4.6113E4,1.44E3,1.507E3,8.339E3,3.7774E4,1.08E3,3.6E2,3.6E2,1.147E3,3.6E2,7.979E3,2.2604E4,1.517E4,7.2E2,3.6E2,7.2E2,4.27E2,2.232E3,5.747E3,1.6958E4,5.646E3,6.84E3,8.33E3],"tree_param":{"num_deleted":"0","num_feature":"25","num_nodes":"25","size_leaf_vector":"1"}},{"base_weights":[1.0724831E-1,9.377034E2,-9.198596E1,1.5436886E3,6.4117615E2,-5.2819116E2,8.139074E0,1.7711373E3,1.3140988E3,6.109953E1,5.5991064E2,-5.4799915E2,-1.6521259E2,2.3690132E2,-3.1100674E2,8.0047585E1,9.682085E1,6.1158947E1,7.0068924E1,2.5619825E1,4.2580246E1,-2.2920288E1,-2.9079351E1,-6.4826446E0,-1.693997E1,4.875497E0,3.0996634E1,-2.4873384E1,-7.8928514E0],"categories":[],"categories_nodes":[],"categories_segments":[],"categories_sizes":[],"default_left":[1,0,0,0,0,1,0,0,0,0,1,0,0,1,0,0,0,0,0,0,0,0,0,0,0,0,0,0,0],"id":12,"left_children":[1,3,5,7,9,11,13,15,17,-1,19,21,23,25,27,-1,-1,-1,-1,-1,-1,-1,-1,-1,-1,-1,-1,-1,-1],"loss_changes":[4.236319E9,7.874949E8,1.9511436E9,7.29216E7,1.3846182E8,5.9873024E7,2.6528384E9,1.718016E7,4.007424E6,0E0,3.543232E7,2.3530496E7,2.628851E6,1.1299661E9,4.3315123E8,0E0,0E0,0E0,0E0,0E0,0E0,0E0,0E0,0E0,0E0,0E0,0E0,0E0,0E0],"parents":[2147483647,0,0,1,1,2,2,3,3,4,4,5,5,6,6,7,7,8,8,10,10,11,11,12,12,13,13,14,14],"right_children":[2,4,6,8,10,12,14,16,18,-1,20,22,24,26,28,-1,-1,-1,-1,-1,-1,-1,-1,-1,-1,-1,-1,-1,-1],"split_conditions":[1.0019E3,4E0,2.1E1,1.2E1,1.1E1,3.9E1,3.51E1,6E0,1E1,6.109953E1,1.1E2,1.0097E3,7E0,2E2,4.1E1,8.0047585E1,9.682085E1,6.1158947E1,7.0068924E1,2.5619825E1,4.2580246E1,-2.2920288E1,-2.9079351E1,-6.4826446E0,-1.693997E1,4.875497E0,3.0996634E1,-2.4873384E1,-7.8928514E0],"split_indices":[14,22,8,3,3,9,8,0,2,0,3,14,0,4,7,0,0,0,0,0,0,0,0,0,0,0,0,0,0],"split_type":[0,0,0,0,0,0,0,0,0,0,0,0,0,0,0,0,0,0,0,0,0,0,0,0,0,0,0,0,0],"sum_hessian":[4.906E4,4.387E3,4.4673E4,1.44E3,2.947E3,8.339E3,3.6334E4,7.2E2,7.2E2,3.6E2,2.587E3,7.907E3,4.32E2,2.1164E4,1.517E4,3.6E2,3.6E2,3.6E2,3.6E2,2.227E3,3.6E2,2.16E3,5.747E3,3.6E2,7.2E1,1.5518E4,5.646E3,6.84E3,8.33E3],"tree_param":{"num_deleted":"0","num_feature":"25","num_nodes":"29","size_leaf_vector":"1"}},{"base_weights":[1.0933357E-1,8.909179E2,-8.7388275E1,1.466718E3,6.091612E2,-2.1015704E2,2.4885896E2,1.6828258E3,1.2485759E3,5.805301E1,5.319414E2,-2.5209712E2,3.607525E2,2.0563562E3,1.3277968E2,7.605629E1,9.199322E1,5.8109474E1,6.657519E1,2.4339407E1,4.0457134E1,-1.5490447E1,5.2419906E0,1.721393E1,4.0062237E1,1.2839388E2,7.695694E1,1.863267E1,-1.4609118E1],"categories":[],"categories_nodes":[],"categories_segments":[],"categories_sizes":[],"default_left":[1,0,0,0,0,0,0,0,0,0,1,0,1,0,0,0,0,0,0,0,0,0,0,0,0,0,0,0,0],"id":13,"left_children":[1,3,5,7,9,11,13,15,17,-1,19,21,23,25,27,-1,-1,-1,-1,-1,-1,-1,-1,-1,-1,-1,-1,-1,-1],"loss_changes":[3.82407E9,7.109962E8,1.8442246E9,6.583091E7,1.2501875E8,7.8368205E8,2.5067822E9,1.550976E7,3.617664E6,0E0,3.1998976E7,6.2804864E8,1.5979008E7,1.8680115E8,1.144762E9,0E0,0E0,0E0,0E0,0E0,0E0,0E0,0E0,0E0,0E0,0E0,0E0,0E0,0E0],"parents":[2147483647,0,0,1,1,2,2,3,3,4,4,5,5,6,6,7,7,8,8,10,10,11,11,12,12,13,13,14,14],"right_children":[2,4,6,8,10,12,14,16,18,-1,20,22,24,26,28,-1,-1,-1,-1,-1,-1,-1,-1,-1,-1,-1,-1,-1,-1],"split_conditions":[1.0019E3,4E0,1.6E2,1.2E1,1.1E1,1.0239E3,2.2E2,6E0,1E1,5.805301E1,1.1E2,4.8E1,1.5E1,1.3E1,8E0,7.605629E1,9.199322E1,5.8109474E1,6.657519E1,2.4339407E1,4.0457134E1,-1.5490447E1,5.2419906E0,1.721393E1,4.0062237E1,1.2839388E2,7.695694E1,1.863267E1,-1.4609118E1],"split_indices":[14,22,3,3,3,14,4,0,2,0,3,7,0,0,22,0,0,0,0,0,0,0,0,0,0,0,0,0,0],"split_type":[0,0,0,0,0,0,0,0,0,0,0,0,0,0,0,0,0,0,0,0,0,0,0,0,0,0,0,0,0],"sum_hessian":[4.906E4,4.387E3,4.4673E4,1.44E3,2.947E3,3.2725E4,1.1948E4,7.2E2,7.2E2,3.6E2,2.587E3,3.0486E4,2.239E3,7.2E2,1.1228E4,3.6E2,3.6E2,3.6E2,3.6E2,2.227E3,3.6E2,2.6243E4,4.243E3,2.16E3,7.9E1,3.6E2,3.6E2,7.177E3,4.051E3],"tree_param":{"num_deleted":"0","num_feature":"25","num_nodes":"29","size_leaf_vector":"1"}},{"base_weights":[1.1755908E-1,8.4646674E2,-8.301313E1,1.3935852E3,5.787448E2,-4.865303E2,9.608761E0,1.5989176E3,1.1863201E3,5.5158398E1,5.0536942E2,-5.247763E2,-3.1360876E2,2.1976152E2,-2.8357513E2,7.2264E1,8.74063E1,5.5212055E1,6.3255642E1,2.3122984E1,3.8439877E1,-1.9768282E1,-2.6998316E1,-5.387034E0,-1.8889666E1,7.023371E0,4.030618E1,-2.285549E1,-7.052158E0],"categories":[],"categories_nodes":[],"categories_segments":[],"categories_sizes":[],"default_left":[1,0,0,0,0,0,0,0,0,0,1,1,0,1,0,0,0,0,0,0,0,0,0,0,0,0,0,0,0],"id":14,"left_children":[1,3,5,7,9,11,13,15,17,-1,19,21,23,25,27,-1,-1,-1,-1,-1,-1,-1,-1,-1,-1,-1,-1,-1,-1],"loss_changes":[3.4518838E9,6.4192896E8,1.6696741E9,5.9429376E7,1.1288077E8,5.499264E7,2.2387855E9,1.4001664E7,3.26592E6,0E0,2.8898304E7,1.3208576E7,1.9951408E7,9.839546E8,3.7517875E8,0E0,0E0,0E0,0E0,0E0,0E0,0E0,0E0,0E0,0E0,0E0,0E0,0E0,0E0],"parents":[2147483647,0,0,1,1,2,2,3,3,4,4,5,5,6,6,7,7,8,8,10,10,11,11,12,12,13,13,14,14],"right_children":[2,4,6,8,10,12,14,16,18,-1,20,22,24,26,28,-1,-1,-1,-1,-1,-1,-1,-1,-1,-1,-1,-1,-1,-1],"split_conditions":[1.0019E3,4E0,2.1E1,1.2E1,1.1E1,1.99E1,3.51E1,6E0,1E1,5.5158398E1,1.1E2,1.2E1,7E0,2.5E2,4.1E1,7.2264E1,8.74063E1,5.5212055E1,6.3255642E1,2.3122984E1,3.8439877E1,-1.9768282E1,-2.6998316E1,-5.387034E0,-1.8889666E1,7.023371E0,4.030618E1,-2.285549E1,-7.052158E0],"split_indices":[14,22,8,3,3,8,8,0,2,0,3,0,0,5,7,0,0,0,0,0,0,0,0,0,0,0,0,0,0],"split_type":[0,0,0,0,0,0,0,0,0,0,0,0,0,0,0,0,0,0,0,0,0,0,0,0,0,0,0,0,0],"sum_hessian":[4.906E4,4.387E3,4.4673E4,1.44E3,2.947E3,8.339E3,3.6334E4,7.2E2,7.2E2,3.6E2,2.587E3,6.827E3,1.512E3,2.1164E4,1.517E4,3.6E2,3.6E2,3.6E2,3.6E2,2.227E3,3.6E2,7.2E2,6.107E3,3.6E2,1.152E3,1.8644E4,2.52E3,6.84E3,8.33E3],"tree_param":{"num_deleted":"0","num_feature":"25","num_nodes":"29","size_leaf_vector":"1"}},{"base_weights":[1.1865786E-1,8.042334E2,-7.8863655E1,1.324099E3,5.498472E2,-1.934361E2,2.3493472E2,1.5191932E3,1.1271683E3,5.240812E1,4.801248E2,-2.3116638E2,3.2016956E2,1.9135729E3,1.27130554E2,6.866082E1,8.304809E1,5.2459095E1,6.0101624E1,2.1967356E1,3.6523212E1,-1.4178176E1,4.645038E0,1.5170939E1,3.843236E1,1.1998224E2,7.111002E1,-2.3794577E1,1.35403595E1],"categories":[],"categories_nodes":[],"categories_segments":[],"categories_sizes":[],"default_left":[1,0,0,0,0,0,0,0,0,0,1,0,1,0,0,0,0,0,0,0,0,0,0,0,0,0,0,0,0],"id":15,"left_children":[1,3,5,7,9,11,13,15,17,-1,19,21,23,25,27,-1,-1,-1,-1,-1,-1,-1,-1,-1,-1,-1,-1,-1,-1],"loss_changes":[3.1159688E9,5.795702E8,1.6061942E9,5.365069E7,1.0192134E8,6.3425434E8,2.1620982E9,1.2640256E7,2.948416E6,0E0,2.6098048E7,5.1770125E8,1.6594416E7,1.6879232E8,9.730116E8,0E0,0E0,0E0,0E0,0E0,0E0,0E0,0E0,0E0,0E0,0E0,0E0,0E0,0E0],"parents":[2147483647,0,0,1,1,2,2,3,3,4,4,5,5,6,6,7,7,8,8,10,10,11,11,12,12,13,13,14,14],"right_children":[2,4,6,8,10,12,14,16,18,-1,20,22,24,26,28,-1,-1,-1,-1,-1,-1,-1,-1,-1,-1,-1,-1,-1,-1],"split_conditions":[1.0019E3,4E0,1.6E2,1.2E1,1.1E1,1.0239E3,2.2E2,6E0,1E1,5.240812E1,1.1E2,4.8E1,1.5E1,1.3E1,1.6E1,6.866082E1,8.304809E1,5.2459095E1,6.0101624E1,2.1967356E1,3.6523212E1,-1.4178176E1,4.645038E0,1.5170939E1,3.843236E1,1.1998224E2,7.111002E1,-2.3794577E1,1.35403595E1],"split_indices":[14,22,3,3,3,14,4,0,2,0,3,7,0,0,8,0,0,0,0,0,0,0,0,0,0,0,0,0,0],"split_type":[0,0,0,0,0,0,0,0,0,0,0,0,0,0,0,0,0,0,0,0,0,0,0,0,0,0,0,0,0],"sum_hessian":[4.906E4,4.387E3,4.4673E4,1.44E3,2.947E3,3.2725E4,1.1948E4,7.2E2,7.2E2,3.6E2,2.587E3,3.0486E4,2.239E3,7.2E2,1.1228E4,3.6E2,3.6E2,3.6E2,3.6E2,2.227E3,3.6E2,2.6243E4,4.243E3,2.16E3,7.9E1,3.6E2,3.6E2,2.16E3,9.068E3],"tree_param":{"num_deleted":"0","num_feature":"25","num_nodes":"29","size_leaf_vector":"1"}},{"base_weights":[1.2495239E-1,7.6410724E2,-7.4915436E1,1.2580775E3,5.2239246E2,-1.8376294E2,2.232031E2,1.443444E3,1.0709661E3,4.9794968E1,4.561411E2,-2.1960837E2,3.0418503E2,1.8181593E3,1.2077307E2,6.523728E1,7.890719E1,4.984341E1,5.710487E1,2.086948E1,3.470211E1,-1.7371126E1,-4.418201E0,1.4412745E1,3.6534763E1,1.1399975E2,6.756436E1,1.6708418E1,-1.2864014E1],"categories":[],"categories_nodes":[],"categories_segments":[],"categories_sizes":[],"default_left":[1,0,0,0,0,0,0,0,0,0,1,0,1,0,0,0,0,0,0,0,0,0,0,0,0,0,0,0,0],"id":16,"left_children":[1,3,5,7,9,11,13,15,17,-1,19,21,23,25,27,-1,-1,-1,-1,-1,-1,-1,-1,-1,-1,-1,-1,-1,-1],"loss_changes":[2.8127012E9,5.2326938E8,1.449688E9,4.8434176E7,9.202598E7,5.724676E8,1.9519052E9,1.14112E7,2.661696E6,0E0,2.3569152E7,5.113851E8,1.5008752E7,1.5237965E8,9.059833E8,0E0,0E0,0E0,0E0,0E0,0E0,0E0,0E0,0E0,0E0,0E0,0E0,0E0,0E0],"parents":[2147483647,0,0,1,1,2,2,3,3,4,4,5,5,6,6,7,7,8,8,10,10,11,11,12,12,13,13,14,14],"right_children":[2,4,6,8,10,12,14,16,18,-1,20,22,24,26,28,-1,-1,-1,-1,-1,-1,-1,-1,-1,-1,-1,-1,-1,-1],"split_conditions":[1.0019E3,4E0,1.6E2,1.2E1,1.1E1,1.0239E3,2.2E2,6E0,1E1,4.9794968E1,1.1E2,4.4E1,1.5E1,1.3E1,8E0,6.523728E1,7.890719E1,4.984341E1,5.710487E1,2.086948E1,3.470211E1,-1.7371126E1,-4.418201E0,1.4412745E1,3.6534763E1,1.1399975E2,6.756436E1,1.6708418E1,-1.2864014E1],"split_indices":[14,22,3,3,3,14,4,0,2,0,3,3,0,0,22,0,0,0,0,0,0,0,0,0,0,0,0,0,0],"split_type":[0,0,0,0,0,0,0,0,0,0,0,0,0,0,0,0,0,0,0,0,0,0,0,0,0,0,0,0,0],"sum_hessian":[4.906E4,4.387E3,4.4673E4,1.44E3,2.947E3,3.2725E4,1.1948E4,7.2E2,7.2E2,3.6E2,2.587E3,3.0486E4,2.239E3,7.2E2,1.1228E4,3.6E2,3.6E2,3.6E2,3.6E2,2.227E3,3.6E2,1.5444E4,1.5042E4,2.16E3,7.9E1,3.6E2,3.6E2,7.177E3,4.051E3],"tree_param":{"num_deleted":"0","num_feature":"25","num_nodes":"29","size_leaf_vector":"1"}},{"base_weights":[1.3035981E-1,9.002681E2,-5.741412E1,1.1953478E3,6.177017E2,-1.2938718E2,3.8273984E2,1.3714717E3,1.01756604E3,4.2286298E2,7.9519037E2,-1.8046902E2,4.452288E2,5.080483E2,3.199825E2,6.1984455E1,7.497276E1,4.735814E1,5.4257534E1,2.3421278E1,1.8806454E1,4.731212E1,3.329632E1,-2.3438671E1,-5.6947575E0,-4.415195E0,7.544605E1,3.0870453E1,1.4438695E1,1.7521496E1,8.373535E0],"categories":[],"categories_nodes":[],"categories_segments":[],"categories_sizes":[],"default_left":[0,0,0,0,0,0,0,0,0,0,0,0,0,1,1,0,0,0,0,0,0,0,0,0,0,0,0,0,0,0,0],"id":17,"left_children":[1,3,5,7,9,11,13,15,17,19,21,23,25,27,29,-1,-1,-1,-1,-1,-1,-1,-1,-1,-1,-1,-1,-1,-1,-1,-1],"loss_changes":[2.5413115E9,2.4506445E8,1.4609055E9,4.3724544E7,5.181293E7,1.1634349E9,5.0804096E7,1.0301568E7,2.402816E6,1.359048E6,1.4756E7,6.985723E8,1.8366106E9,5.1642496E7,2.000624E7,0E0,0E0,0E0,0E0,0E0,0E0,0E0,0E0,0E0,0E0,0E0,0E0,0E0,0E0,0E0,0E0],"parents":[2147483647,0,0,1,1,2,2,3,3,4,4,5,5,6,6,7,7,8,8,9,9,10,10,11,11,12,12,13,13,14,14],"right_children":[2,4,6,8,10,12,14,16,18,20,22,24,26,28,30,-1,-1,-1,-1,-1,-1,-1,-1,-1,-1,-1,-1,-1,-1,-1,-1],"split_conditions":[1.0008E3,4E0,1.0253E3,1.2E1,5E1,1E0,2E0,6E0,1E1,5E0,6E0,1.99E1,1E2,5E0,6E0,6.1984455E1,7.497276E1,4.735814E1,5.4257534E1,2.3421278E1,1.8806454E1,4.731212E1,3.329632E1,-2.3438671E1,-5.6947575E0,-4.415195E0,7.544605E1,3.0870453E1,1.4438695E1,1.7521496E1,8.373535E0],"split_indices":[14,22,14,3,4,20,18,0,2,0,0,8,3,0,0,0,0,0,0,0,0,0,0,0,0,0,0,0,0,0,0],"split_type":[0,0,0,0,0,0,0,0,0,0,0,0,0,0,0,0,0,0,0,0,0,0,0,0,0,0,0,0,0,0,0],"sum_hessian":[4.906E4,2.947E3,4.6113E4,1.44E3,1.507E3,3.9633E4,6.48E3,7.2E2,7.2E2,7.2E2,7.87E2,3.6398E4,3.235E3,2.16E3,4.32E3,3.6E2,3.6E2,3.6E2,3.6E2,3.6E2,3.6E2,3.6E2,4.27E2,6.827E3,2.9571E4,2.155E3,1.08E3,1.44E3,7.2E2,3.6E3,7.2E2],"tree_param":{"num_deleted":"0","num_feature":"25","num_nodes":"31","size_leaf_vector":"1"}},{"base_weights":[1.334972E-1,6.640419E2,-7.100062E1,1.135746E3,4.583618E2,-1.741312E2,2.0835294E2,1.3030881E3,9.668287E2,4.495307E1,4.0424002E2,-2.0753734E2,2.7524408E2,1.6521617E3,1.1562923E2,5.8893818E1,7.123451E1,4.499679E1,5.1552166E1,1.865591E1,3.1311604E1,-1.2868662E1,4.8229403E0,1.296917E1,3.5012035E1,1.045537E2,6.043365E1,1.5565895E1,-1.1552806E1],"categories":[],"categories_nodes":[],"categories_segments":[],"categories_sizes":[],"default_left":[1,0,0,0,0,0,0,0,0,0,1,0,1,0,0,0,0,0,0,0,0,0,0,0,0,0,0,0,0],"id":18,"left_children":[1,3,5,7,9,11,13,15,17,-1,19,21,23,25,27,-1,-1,-1,-1,-1,-1,-1,-1,-1,-1,-1,-1,-1,-1],"loss_changes":[2.317028E9,4.6013107E8,1.276718E9,3.9472896E7,7.853709E7,4.8593197E8,1.5994848E9,9.29984E6,2.169152E6,0E0,2.0133504E7,4.5644646E8,1.4917632E7,1.3781722E8,7.6187424E8,0E0,0E0,0E0,0E0,0E0,0E0,0E0,0E0,0E0,0E0,0E0,0E0,0E0,0E0],"parents":[2147483647,0,0,1,1,2,2,3,3,4,4,5,5,6,6,7,7,8,8,10,10,11,11,12,12,13,13,14,14],"right_children":[2,4,6,8,10,12,14,16,18,-1,20,22,24,26,28,-1,-1,-1,-1,-1,-1,-1,-1,-1,-1,-1,-1,-1,-1],"split_conditions":[1.0021E3,4E0,1.6E2,1.2E1,1.1E1,1.0239E3,2.2E2,6E0,1E1,4.495307E1,1.1E2,4.8E1,1.5E1,1.3E1,8E0,5.8893818E1,7.123451E1,4.499679E1,5.1552166E1,1.865591E1,3.1311604E1,-1.2868662E1,4.8229403E0,1.296917E1,3.5012035E1,1.045537E2,6.043365E1,1.5565895E1,-1.1552806E1],"split_indices":[14,22,3,3,3,14,4,0,2,0,3,7,0,0,22,0,0,0,0,0,0,0,0,0,0,0,0,0,0],"split_type":[0,0,0,0,0,0,0,0,0,0,0,0,0,0,0,0,0,0,0,0,0,0,0,0,0,0,0,0,0],"sum_hessian":[4.906E4,4.747E3,4.4313E4,1.44E3,3.307E3,3.2365E4,1.1948E4,7.2E2,7.2E2,3.6E2,2.947E3,3.0126E4,2.239E3,7.2E2,1.1228E4,3.6E2,3.6E2,3.6E2,3.6E2,2.587E3,3.6E2,2.5883E4,4.243E3,2.16E3,7.9E1,3.6E2,3.6E2,7.177E3,4.051E3],"tree_param":{"num_deleted":"0","num_feature":"25","num_nodes":"29","size_leaf_vector":"1"}},{"base_weights":[1.3762993E-1,6.3090753E2,-6.744588E1,1.079116E3,4.354724E2,-1.8443814E2,1.5689963E2,1.2381141E3,9.186211E2,4.271164E1,3.84045E2,-2.277076E2,1.2281911E2,1.5697825E3,8.648389E1,5.5957287E1,6.768264E1,4.275318E1,4.8981693E1,1.7723476E1,2.9750364E1,-2.2302052E1,-8.942397E0,4.9406784E1,1.3124312E0,9.934049E1,5.7420338E1,-1.7722303E1,9.804532E0],"categories":[],"categories_nodes":[],"categories_segments":[],"categories_sizes":[],"default_left":[1,0,0,0,0,0,0,0,0,0,1,0,0,0,0,0,0,0,0,0,0,0,0,0,0,0,0,0,0],"id":19,"left_children":[1,3,5,7,9,11,13,15,17,-1,19,21,23,25,27,-1,-1,-1,-1,-1,-1,-1,-1,-1,-1,-1,-1,-1,-1],"loss_changes":[2.0914953E9,4.1543437E8,1.1631247E9,3.563456E7,7.091219E7,3.872539E8,1.5110056E9,8.39552E6,1.958208E6,0E0,1.818256E7,2.7227725E8,3.0047034E8,1.2441626E8,6.9934035E8,0E0,0E0,0E0,0E0,0E0,0E0,0E0,0E0,0E0,0E0,0E0,0E0,0E0,0E0],"parents":[2147483647,0,0,1,1,2,2,3,3,4,4,5,5,6,6,7,7,8,8,10,10,11,11,12,12,13,13,14,14],"right_children":[2,4,6,8,10,12,14,16,18,-1,20,22,24,26,28,-1,-1,-1,-1,-1,-1,-1,-1,-1,-1,-1,-1,-1,-1],"split_conditions":[1.0021E3,4E0,1.4E2,1.2E1,1.1E1,1E0,5E2,6E0,1E1,4.271164E1,1.1E2,1.99E1,2.1E1,1.3E1,2.19E1,5.5957287E1,6.768264E1,4.275318E1,4.8981693E1,1.7723476E1,2.9750364E1,-2.2302052E1,-8.942397E0,4.9406784E1,1.3124312E0,9.934049E1,5.7420338E1,-1.7722303E1,9.804532E0],"split_indices":[14,22,3,3,3,20,5,0,2,0,3,8,1,0,8,0,0,0,0,0,0,0,0,0,0,0,0,0,0],"split_type":[0,0,0,0,0,0,0,0,0,0,0,0,0,0,0,0,0,0,0,0,0,0,0,0,0,0,0,0,0],"sum_hessian":[4.906E4,4.747E3,4.4313E4,1.44E3,3.307E3,2.9125E4,1.5188E4,7.2E2,7.2E2,3.6E2,2.947E3,2.553E4,3.595E3,7.2E2,1.4468E4,3.6E2,3.6E2,3.6E2,3.6E2,2.587E3,3.6E2,4.667E3,2.0863E4,3.6E2,3.235E3,3.6E2,3.6E2,2.88E3,1.1588E4],"tree_param":{"num_deleted":"0","num_feature":"25","num_nodes":"29","size_leaf_vector":"1"}},{"base_weights":[1.4039369E-1,5.9942645E2,-6.40698E1,1.0253096E3,4.1372604E2,-2.142088E2,9.376537E1,1.1763799E3,8.7281726E2,4.0581974E1,3.6485886E2,-2.5620248E2,2.5123071E2,-2.896903E2,2.1045859E2,5.316717E1,6.4307884E1,4.0621445E1,4.6539394E1,1.6837643E1,2.8266972E1,-1.4952617E1,2.7575648E0,1.1614492E1,3.3724842E1,-5.107422E0,-1.8232893E1,2.6318796E1,4.3147278E-1],"categories":[],"categories_nodes":[],"categories_segments":[],"categories_sizes":[],"default_left":[1,0,0,0,0,0,0,0,0,0,1,0,1,0,0,0,0,0,0,0,0,0,0,0,0,0,0,0,0],"id":20,"left_children":[1,3,5,7,9,11,13,15,17,-1,19,21,23,25,27,-1,-1,-1,-1,-1,-1,-1,-1,-1,-1,-1,-1,-1,-1],"loss_changes":[1.8879191E9,3.7507942E8,1.0501385E9,3.21696E7,6.402765E7,4.439625E8,9.667682E8,7.5792E6,1.767872E6,0E0,1.6420704E7,2.7794586E8,1.4915328E7,7.083696E7,1.05613805E9,0E0,0E0,0E0,0E0,0E0,0E0,0E0,0E0,0E0,0E0,0E0,0E0,0E0,0E0],"parents":[2147483647,0,0,1,1,2,2,3,3,4,4,5,5,6,6,7,7,8,8,10,10,11,11,12,12,13,13,14,14],"right_children":[2,4,6,8,10,12,14,16,18,-1,20,22,24,26,28,-1,-1,-1,-1,-1,-1,-1,-1,-1,-1,-1,-1,-1,-1],"split_conditions":[1.0021E3,4E0,6E1,1.2E1,1.1E1,1.0239E3,2.19E1,6E0,1E1,4.0581974E1,1.1E2,4.69E1,1.5E1,1.3E1,3.09E1,5.316717E1,6.4307884E1,4.0621445E1,4.6539394E1,1.6837643E1,2.8266972E1,-1.4952617E1,2.7575648E0,1.1614492E1,3.3724842E1,-5.107422E0,-1.8232893E1,2.6318796E1,4.3147278E-1],"split_indices":[14,22,3,3,3,14,8,0,2,0,3,7,0,0,8,0,0,0,0,0,0,0,0,0,0,0,0,0,0],"split_type":[0,0,0,0,0,0,0,0,0,0,0,0,0,0,0,0,0,0,0,0,0,0,0,0,0,0,0,0,0],"sum_hessian":[4.906E4,4.747E3,4.4313E4,1.44E3,3.307E3,2.271E4,2.1603E4,7.2E2,7.2E2,3.6E2,2.947E3,2.0831E4,1.879E3,5.04E3,1.6563E4,3.6E2,3.6E2,3.6E2,3.6E2,2.587E3,3.6E2,1.8311E4,2.52E3,1.8E3,7.9E1,1.44E3,3.6E3,6.456E3,1.0107E4],"tree_param":{"num_deleted":"0","num_feature":"25","num_nodes":"29","size_leaf_vector":"1"}},{"base_weights":[1.4002965E-1,5.695163E2,-6.086549E1,9.741862E2,3.930656E2,-3.6659048E2,1.001171E1,1.1177239E3,8.2929736E2,3.8558495E1,3.466312E2,-2.0741446E0,-3.812518E2,2.4952074E2,-1.479783E2,5.0516174E1,6.1101406E1,3.8596004E1,4.4218872E1,1.5996085E1,2.6857533E1,-1.6264015E1,-2.1044727E1,4.8089596E1,6.1350393E0,-1.2147326E1,3.1625268E0],"categories":[],"categories_nodes":[],"categories_segments":[],"categories_sizes":[],"default_left":[1,0,0,0,0,0,0,0,0,0,1,0,1,0,1,0,0,0,0,0,0,0,0,0,0,0,0],"id":21,"left_children":[1,3,5,7,9,11,13,15,17,-1,19,-1,21,23,25,-1,-1,-1,-1,-1,-1,-1,-1,-1,-1,-1,-1],"loss_changes":[1.704173E9,3.386446E8,9.6024064E8,2.9041664E7,5.781139E7,3.973683E7,1.3613322E9,6.84224E6,1.595968E6,0E0,1.4829568E7,0E0,1.7569536E7,1.2915133E9,4.348566E8,0E0,0E0,0E0,0E0,0E0,0E0,0E0,0E0,0E0,0E0,0E0,0E0],"parents":[2147483647,0,0,1,1,2,2,3,3,4,4,5,5,6,6,7,7,8,8,10,10,12,12,13,13,14,14],"right_children":[2,4,6,8,10,12,14,16,18,-1,20,-1,22,24,26,-1,-1,-1,-1,-1,-1,-1,-1,-1,-1,-1,-1],"split_conditions":[1.0021E3,4E0,2.1E1,1.2E1,1.1E1,7E0,3.2E1,6E0,1E1,3.8558495E1,1.1E2,-2.0741446E0,1.5E2,1.0123E3,9E1,5.0516174E1,6.1101406E1,3.8596004E1,4.4218872E1,1.5996085E1,2.6857533E1,-1.6264015E1,-2.1044727E1,4.8089596E1,6.1350393E0,-1.2147326E1,3.1625268E0],"split_indices":[14,22,8,3,3,0,8,0,2,0,3,0,4,14,4,0,0,0,0,0,0,0,0,0,0,0,0],"split_type":[0,0,0,0,0,0,0,0,0,0,0,0,0,0,0,0,0,0,0,0,0,0,0,0,0,0,0],"sum_hessian":[4.906E4,4.747E3,4.4313E4,1.44E3,3.307E3,8.339E3,3.5974E4,7.2E2,7.2E2,3.6E2,2.947E3,3.6E2,7.979E3,1.4298E4,2.1676E4,3.6E2,3.6E2,3.6E2,3.6E2,2.587E3,3.6E2,3.312E3,4.667E3,2.16E3,1.2138E4,1.4953E4,6.723E3],"tree_param":{"num_deleted":"0","num_feature":"25","num_nodes":"27","size_leaf_vector":"1"}},{"base_weights":[1.3878691E-1,5.410986E2,-5.7822067E1,9.256118E2,3.7343695E2,-1.093717E2,3.4380814E2,1.0619926E3,7.879473E2,3.6635906E1,3.2931418E2,-1.765128E2,2.1550092E2,4.4232462E2,2.697929E2,4.7997368E1,5.80548E1,3.667155E1,4.201405E1,1.5196589E1,2.551838E1,-1.8625647E1,-6.717731E0,6.2878902E1,7.9894537E-1,2.507265E1,7.3056273E0,1.5969108E1,1.1000823E1],"categories":[],"categories_nodes":[],"categories_segments":[],"categories_sizes":[],"default_left":[1,0,0,0,0,1,0,0,0,0,1,0,0,0,0,0,0,0,0,0,0,0,0,0,0,0,0,0,0],"id":22,"left_children":[1,3,5,7,9,11,13,15,17,-1,19,21,23,25,27,-1,-1,-1,-1,-1,-1,-1,-1,-1,-1,-1,-1,-1,-1],"loss_changes":[1.5383139E9,3.05749E8,9.175097E8,2.6217856E7,5.219869E7,8.5669466E8,3.663827E7,6.176832E6,1.440736E6,0E0,1.3392608E7,2.6889434E8,1.3986396E9,3.777565E7,7.04112E6,0E0,0E0,0E0,0E0,0E0,0E0,0E0,0E0,0E0,0E0,0E0,0E0,0E0,0E0],"parents":[2147483647,0,0,1,1,2,2,3,3,4,4,5,5,6,6,7,7,8,8,10,10,11,11,12,12,13,13,14,14],"right_children":[2,4,6,8,10,12,14,16,18,-1,20,22,24,26,28,-1,-1,-1,-1,-1,-1,-1,-1,-1,-1,-1,-1,-1,-1],"split_conditions":[1.0021E3,4E0,1.0256E3,1.2E1,1.1E1,2E2,2E0,6E0,1E1,3.6635906E1,1.1E2,1.1E1,5E2,3.79E1,6E0,4.7997368E1,5.80548E1,3.667155E1,4.201405E1,1.5196589E1,2.551838E1,-1.8625647E1,-6.717731E0,6.2878902E1,7.9894537E-1,2.507265E1,7.3056273E0,1.5969108E1,1.1000823E1],"split_indices":[14,22,14,3,3,4,18,0,2,0,3,3,5,7,0,0,0,0,0,0,0,0,0,0,0,0,0,0,0],"split_type":[0,0,0,0,0,0,0,0,0,0,0,0,0,0,0,0,0,0,0,0,0,0,0,0,0,0,0,0,0],"sum_hessian":[4.906E4,4.747E3,4.4313E4,1.44E3,3.307E3,3.9273E4,5.04E3,7.2E2,7.2E2,3.6E2,2.947E3,3.2547E4,6.726E3,2.16E3,2.88E3,3.6E2,3.6E2,3.6E2,3.6E2,2.587E3,3.6E2,5.76E3,2.6787E4,1.08E3,5.646E3,1.8E3,3.6E2,1.44E3,1.44E3],"tree_param":{"num_deleted":"0","num_feature":"25","num_nodes":"29","size_leaf_vector":"1"}},{"base_weights":[1.391875E-1,5.140989E2,-5.4928753E1,8.794594E2,3.547885E2,-3.4317105E2,1.1895312E1,1.0090401E3,7.48659E2,3.4809177E1,3.1286234E2,-1.6357688E0,-3.571725E2,2.3184378E2,-1.3319188E2,4.560415E1,5.5160107E1,3.484305E1,3.991916E1,1.4437057E1,2.4246E1,-1.5115275E1,-1.9801825E1,4.473733E1,5.6906943E0,-1.1010462E1,3.0176113E0],"categories":[],"categories_nodes":[],"categories_segments":[],"categories_sizes":[],"default_left":[1,0,0,0,0,0,0,0,0,0,1,0,1,0,1,0,0,0,0,0,0,0,0,0,0,0,0],"id":23,"left_children":[1,3,5,7,9,11,13,15,17,-1,19,-1,21,23,25,-1,-1,-1,-1,-1,-1,-1,-1,-1,-1,-1,-1],"loss_changes":[1.3885873E9,2.7604864E8,8.5355923E8,2.3668352E7,4.713091E7,3.624077E7,1.1480545E9,5.57632E6,1.30064E6,0E0,1.209488E7,0E0,1.6896448E7,1.1186856E9,3.6509075E8,0E0,0E0,0E0,0E0,0E0,0E0,0E0,0E0,0E0,0E0,0E0,0E0],"parents":[2147483647,0,0,1,1,2,2,3,3,4,4,5,5,6,6,7,7,8,8,10,10,12,12,13,13,14,14],"right_children":[2,4,6,8,10,12,14,16,18,-1,20,-1,22,24,26,-1,-1,-1,-1,-1,-1,-1,-1,-1,-1,-1,-1],"split_conditions":[1.0021E3,4E0,2.1E1,1.2E1,1.1E1,7E0,3.2E1,6E0,1E1,3.4809177E1,1.1E2,-1.6357688E0,1.5E2,1.0123E3,9E1,4.560415E1,5.5160107E1,3.484305E1,3.991916E1,1.4437057E1,2.4246E1,-1.5115275E1,-1.9801825E1,4.473733E1,5.6906943E0,-1.1010462E1,3.0176113E0],"split_indices":[14,22,8,3,3,0,8,0,2,0,3,0,4,14,4,0,0,0,0,0,0,0,0,0,0,0,0],"split_type":[0,0,0,0,0,0,0,0,0,0,0,0,0,0,0,0,0,0,0,0,0,0,0,0,0,0,0],"sum_hessian":[4.906E4,4.747E3,4.4313E4,1.44E3,3.307E3,8.339E3,3.5974E4,7.2E2,7.2E2,3.6E2,2.947E3,3.6E2,7.979E3,1.4298E4,2.1676E4,3.6E2,3.6E2,3.6E2,3.6E2,2.587E3,3.6E2,3.312E3,4.667E3,2.16E3,1.2138E4,1.4953E4,6.723E3],"tree_param":{"num_deleted":"0","num_feature":"25","num_nodes":"27","size_leaf_vector":"1"}},{"base_weights":[1.3743001E-1,6.329203E2,-4.031545E1,8.356082E2,4.3881805E2,-9.58828E1,2.9950815E2,9.587278E2,7.113298E2,3.5600385E2,6.4695667E2,-1.560592E2,1.9851009E2,4.1453534E2,2.4191193E2,4.3330254E1,5.2409737E1,3.3105724E1,3.792873E1,1.5153442E1,2.3037054E1,3.3073544E1,2.8019464E1,-1.311249E1,-4.1307826E0,5.8197754E1,6.830346E-1,2.5225058E1,1.170768E1,1.3263269E1,6.246933E0],"categories":[],"categories_nodes":[],"categories_segments":[],"categories_sizes":[],"default_left":[0,0,0,0,1,1,0,0,0,0,0,0,0,1,1,0,0,0,0,0,0,0,0,0,0,0,0,0,0,0,0],"id":24,"left_children":[1,3,5,7,9,11,13,15,17,19,21,23,25,27,29,-1,-1,-1,-1,-1,-1,-1,-1,-1,-1,-1,-1,-1,-1,-1,-1],"loss_changes":[1.2558836E9,1.1561408E8,8.708039E8,2.1366976E7,2.5762848E7,7.021672E8,4.2837184E7,5.034112E6,1.174144E6,5.853696E6,1.67072E5,2.5662835E8,1.2004974E9,3.495101E7,1.1770656E7,0E0,0E0,0E0,0E0,0E0,0E0,0E0,0E0,0E0,0E0,0E0,0E0,0E0,0E0,0E0,0E0],"parents":[2147483647,0,0,1,1,2,2,3,3,4,4,5,5,6,6,7,7,8,8,9,9,10,10,11,11,12,12,13,13,14,14],"right_children":[2,4,6,8,10,12,14,16,18,20,22,24,26,28,30,-1,-1,-1,-1,-1,-1,-1,-1,-1,-1,-1,-1,-1,-1,-1,-1],"split_conditions":[1.0008E3,4E0,1.0253E3,1.2E1,5.5E1,2E2,2E0,6E0,1E1,2.2E1,6E0,3.1E1,5E2,5E0,6E0,4.3330254E1,5.2409737E1,3.3105724E1,3.792873E1,1.5153442E1,2.3037054E1,3.3073544E1,2.8019464E1,-1.311249E1,-4.1307826E0,5.8197754E1,6.830346E-1,2.5225058E1,1.170768E1,1.3263269E1,6.246933E0],"split_indices":[14,22,14,3,4,4,18,0,2,3,0,3,5,0,0,0,0,0,0,0,0,0,0,0,0,0,0,0,0,0,0],"split_type":[0,0,0,0,0,0,0,0,0,0,0,0,0,0,0,0,0,0,0,0,0,0,0,0,0,0,0,0,0,0,0],"sum_hessian":[4.906E4,2.947E3,4.6113E4,1.44E3,1.507E3,3.9633E4,6.48E3,7.2E2,7.2E2,1.08E3,4.27E2,3.2907E4,6.726E3,2.16E3,4.32E3,3.6E2,3.6E2,3.6E2,3.6E2,7.2E2,3.6E2,3.6E2,6.7E1,1.3453E4,1.9454E4,1.08E3,5.646E3,1.44E3,7.2E2,3.6E3,7.2E2],"tree_param":{"num_deleted":"0","num_feature":"25","num_nodes":"31","size_leaf_vector":"1"}},{"base_weights":[1.3797393E-1,4.664631E2,-4.9826187E1,7.9394354E2,3.2366812E2,-3.2052182E2,1.2929931E1,9.1092413E2,6.758618E2,3.1424452E1,2.8623123E2,-1.16133575E2,-3.3981885E2,1.9400531E2,-1.3541975E2,4.1169735E1,4.9796513E1,3.1455023E1,3.6037548E1,1.324914E1,2.1888388E1,-1.3482404E0,-1.0249032E1,-1.45281315E1,-1.9277903E1,7.2368097E0,6.2581074E1,-1.111835E1,2.3920531E0],"categories":[],"categories_nodes":[],"categories_segments":[],"categories_sizes":[],"default_left":[1,0,0,0,0,1,0,0,0,0,1,0,0,0,1,0,0,0,0,0,0,0,0,0,0,0,0,0,0],"id":25,"left_children":[1,3,5,7,9,11,13,15,17,-1,19,21,23,25,27,-1,-1,-1,-1,-1,-1,-1,-1,-1,-1,-1,-1,-1,-1],"loss_changes":[1.1431223E9,2.2177165E8,7.528018E8,1.928928E7,3.756957E7,3.2854336E7,9.664039E8,4.544576E6,1.06E6,0E0,9.376288E6,5.70651E6,1.705536E7,8.4401766E8,3.1510595E8,0E0,0E0,0E0,0E0,0E0,0E0,0E0,0E0,0E0,0E0,0E0,0E0,0E0,0E0],"parents":[2147483647,0,0,1,1,2,2,3,3,4,4,5,5,6,6,7,7,8,8,10,10,11,11,12,12,13,13,14,14],"right_children":[2,4,6,8,10,12,14,16,18,-1,20,22,24,26,28,-1,-1,-1,-1,-1,-1,-1,-1,-1,-1,-1,-1,-1,-1],"split_conditions":[1.0021E3,4E0,2.1E1,1.2E1,1.1E1,9E0,3.31E1,6E0,1E1,3.1424452E1,1.1E2,7E0,1.0139E3,2E0,9E1,4.1169735E1,4.9796513E1,3.1455023E1,3.6037548E1,1.324914E1,2.1888388E1,-1.3482404E0,-1.0249032E1,-1.45281315E1,-1.9277903E1,7.2368097E0,6.2581074E1,-1.111835E1,2.3920531E0],"split_indices":[14,22,8,3,3,0,8,0,2,0,3,0,14,20,4,0,0,0,0,0,0,0,0,0,0,0,0,0,0],"split_type":[0,0,0,0,0,0,0,0,0,0,0,0,0,0,0,0,0,0,0,0,0,0,0,0,0,0,0,0,0],"sum_hessian":[4.906E4,4.747E3,4.4313E4,1.44E3,3.307E3,8.339E3,3.5974E4,7.2E2,7.2E2,3.6E2,2.947E3,7.2E2,7.619E3,1.62E4,1.9774E4,3.6E2,3.6E2,3.6E2,3.6E2,2.587E3,3.6E2,3.6E2,3.6E2,3.672E3,3.947E3,1.548E4,7.2E2,1.3411E4,6.363E3],"tree_param":{"num_deleted":"0","num_feature":"25","num_nodes":"29","size_leaf_vector":"1"}},{"base_weights":[1.359746E-1,4.4318732E2,-4.733453E1,7.543563E2,3.0750482E2,-1.23321E2,1.5849234E2,8.655041E2,6.421623E2,2.9857574E1,2.7193158E2,-1.482806E2,2.1242944E2,4.748544E2,-7.0462944E1,3.9116955E1,4.731358E1,2.9886627E1,3.4240658E1,1.2586939E1,2.0796997E1,-9.666316E0,4.004974E0,9.802339E0,3.261555E1,4.604614E1,1.1517363E1,-1.5564608E1,1.9294227E0],"categories":[],"categories_nodes":[],"categories_segments":[],"categories_sizes":[],"default_left":[1,0,0,0,0,0,0,0,0,0,1,0,1,0,0,0,0,0,0,0,0,0,0,0,0,0,0,0,0],"id":26,"left_children":[1,3,5,7,9,11,13,15,17,-1,19,21,23,25,27,-1,-1,-1,-1,-1,-1,-1,-1,-1,-1,-1,-1,-1,-1],"loss_changes":[1.03186554E9,2.0022957E8,6.93093E8,1.7413632E7,3.3922176E7,2.712648E8,8.6553274E8,4.102656E6,9.5696E5,0E0,8.467888E6,3.099483E8,1.6014536E7,5.4697664E8,1.8209174E8,0E0,0E0,0E0,0E0,0E0,0E0,0E0,0E0,0E0,0E0,0E0,0E0,0E0,0E0],"parents":[2147483647,0,0,1,1,2,2,3,3,4,4,5,5,6,6,7,7,8,8,10,10,11,11,12,12,13,13,14,14],"right_children":[2,4,6,8,10,12,14,16,18,-1,20,22,24,26,28,-1,-1,-1,-1,-1,-1,-1,-1,-1,-1,-1,-1,-1,-1],"split_conditions":[1.0021E3,4E0,1.6E2,1.2E1,1.1E1,1.0239E3,7E0,6E0,1E1,2.9857574E1,1.1E2,4.69E1,1.5E1,2.89E1,1.6E1,3.9116955E1,4.731358E1,2.9886627E1,3.4240658E1,1.2586939E1,2.0796997E1,-9.666316E0,4.004974E0,9.802339E0,3.261555E1,4.604614E1,1.1517363E1,-1.5564608E1,1.9294227E0],"split_indices":[14,22,3,3,3,14,22,0,2,0,3,7,0,8,8,0,0,0,0,0,0,0,0,0,0,0,0,0,0],"split_type":[0,0,0,0,0,0,0,0,0,0,0,0,0,0,0,0,0,0,0,0,0,0,0,0,0,0,0,0,0],"sum_hessian":[4.906E4,4.747E3,4.4313E4,1.44E3,3.307E3,3.2365E4,1.1948E4,7.2E2,7.2E2,3.6E2,2.947E3,3.0126E4,2.239E3,5.016E3,6.932E3,3.6E2,3.6E2,3.6E2,3.6E2,2.587E3,3.6E2,2.5163E4,4.963E3,2.16E3,7.9E1,1.775E3,3.241E3,2.16E3,4.772E3],"tree_param":{"num_deleted":"0","num_feature":"25","num_nodes":"29","size_leaf_vector":"1"}},{"base_weights":[1.3517524E-1,4.2107297E2,-4.4965984E1,7.16743E2,2.921487E2,-8.7952415E1,2.8994653E2,8.223488E2,6.10143E2,2.8368826E1,2.583463E2,-1.4211908E2,1.7414133E2,3.7667743E2,2.2479018E2,3.7166527E1,4.495446E1,2.839643E1,3.2533367E1,1.1957836E1,1.9760023E1,-5.8036737E0,-1.8880138E1,5.156648E1,5.009867E-1,2.1568523E1,5.1387405E0,1.5471433E1,9.822361E0],"categories":[],"categories_nodes":[],"categories_segments":[],"categories_sizes":[],"default_left":[1,0,0,0,0,1,0,0,0,0,1,0,0,0,0,0,0,0,0,0,0,0,0,0,0,0,0,0,0],"id":27,"left_children":[1,3,5,7,9,11,13,15,17,-1,19,21,23,25,27,-1,-1,-1,-1,-1,-1,-1,-1,-1,-1,-1,-1,-1,-1],"loss_changes":[9.314314E8,1.8077978E8,6.380005E8,1.5720448E7,3.0628896E7,5.575877E8,2.8402336E7,3.703744E6,8.63872E5,0E0,7.647456E6,1.995833E8,9.46365E8,3.2328672E7,6.850464E6,0E0,0E0,0E0,0E0,0E0,0E0,0E0,0E0,0E0,0E0,0E0,0E0,0E0,0E0],"parents":[2147483647,0,0,1,1,2,2,3,3,4,4,5,5,6,6,7,7,8,8,10,10,11,11,12,12,13,13,14,14],"right_children":[2,4,6,8,10,12,14,16,18,-1,20,22,24,26,28,-1,-1,-1,-1,-1,-1,-1,-1,-1,-1,-1,-1,-1,-1],"split_conditions":[1.0021E3,4E0,1.0256E3,1.2E1,1.1E1,2E2,2E0,6E0,1E1,2.8368826E1,1.1E2,9.6E1,5E2,3.79E1,9.3E1,3.7166527E1,4.495446E1,2.839643E1,3.2533367E1,1.1957836E1,1.9760023E1,-5.8036737E0,-1.8880138E1,5.156648E1,5.009867E-1,2.1568523E1,5.1387405E0,1.5471433E1,9.822361E0],"split_indices":[14,22,14,3,3,4,18,0,2,0,3,11,5,7,11,0,0,0,0,0,0,0,0,0,0,0,0,0,0],"split_type":[0,0,0,0,0,0,0,0,0,0,0,0,0,0,0,0,0,0,0,0,0,0,0,0,0,0,0,0,0],"sum_hessian":[4.906E4,4.747E3,4.4313E4,1.44E3,3.307E3,3.9273E4,5.04E3,7.2E2,7.2E2,3.6E2,2.947E3,3.2547E4,6.726E3,2.16E3,2.88E3,3.6E2,3.6E2,3.6E2,3.6E2,2.587E3,3.6E2,2.9307E4,3.24E3,1.08E3,5.646E3,1.8E3,3.6E2,7.2E2,2.16E3],"tree_param":{"num_deleted":"0","num_feature":"25","num_nodes":"29","size_leaf_vector":"1"}},{"base_weights":[1.3417333E-1,4.000621E2,-4.2715893E1,6.8100507E2,2.775594E2,-2.8886615E2,1.434973E1,7.8134534E2,5.797203E2,2.6954313E1,2.4543973E2,-3.0282898E2,-3.3191715E1,1.9576796E2,-1.0532151E2,3.531335E1,4.2712967E1,2.698054E1,3.0911198E1,1.1360173E1,1.877476E1,-1.257008E1,-1.6923513E1,-5.09658E-1,-7.32348E0,3.862599E1,4.653887E0,-9.549506E0,2.3329594E0],"categories":[],"categories_nodes":[],"categories_segments":[],"categories_sizes":[],"default_left":[1,0,0,0,0,1,0,0,0,0,1,1,0,0,0,0,0,0,0,0,0,0,0,0,0,0,0,0,0],"id":28,"left_children":[1,3,5,7,9,11,13,15,17,-1,19,21,23,25,27,-1,-1,-1,-1,-1,-1,-1,-1,-1,-1,-1,-1,-1,-1],"loss_changes":[8.4077235E8,1.6321952E8,6.224704E8,1.4191808E7,2.7655392E7,2.9763328E7,7.810575E8,3.343584E6,7.79872E5,0E0,6.906528E6,1.4409792E7,1.1265708E6,8.468119E8,2.822429E8,0E0,0E0,0E0,0E0,0E0,0E0,0E0,0E0,0E0,0E0,0E0,0E0,0E0,0E0],"parents":[2147483647,0,0,1,1,2,2,3,3,4,4,5,5,6,6,7,7,8,8,10,10,11,11,12,12,13,13,14,14],"right_children":[2,4,6,8,10,12,14,16,18,-1,20,22,24,26,28,-1,-1,-1,-1,-1,-1,-1,-1,-1,-1,-1,-1,-1,-1],"split_conditions":[1.0021E3,4E0,2.1E1,1.2E1,1.1E1,3.9E1,3.2E1,6E0,1E1,2.6954313E1,1.1E2,1.5E2,7E0,1.0123E3,4.6E1,3.531335E1,4.2712967E1,2.698054E1,3.0911198E1,1.1360173E1,1.877476E1,-1.257008E1,-1.6923513E1,-5.09658E-1,-7.32348E0,3.862599E1,4.653887E0,-9.549506E0,2.3329594E0],"split_indices":[14,22,8,3,3,9,8,0,2,0,3,4,0,14,7,0,0,0,0,0,0,0,0,0,0,0,0,0,0],"split_type":[0,0,0,0,0,0,0,0,0,0,0,0,0,0,0,0,0,0,0,0,0,0,0,0,0,0,0,0,0],"sum_hessian":[4.906E4,4.747E3,4.4313E4,1.44E3,3.307E3,8.339E3,3.5974E4,7.2E2,7.2E2,3.6E2,2.947E3,7.907E3,4.32E2,1.4298E4,2.1676E4,3.6E2,3.6E2,3.6E2,3.6E2,2.587E3,3.6E2,3.24E3,4.667E3,3.6E2,7.2E1,2.16E3,1.2138E4,1.3862E4,7.814E3],"tree_param":{"num_deleted":"0","num_feature":"25","num_nodes":"29","size_leaf_vector":"1"}},{"base_weights":[1.3136777E-1,2.1715872E2,-7.264031E1,4.9228168E2,1.3060376E2,-1.0473373E2,3.6397885E2,6.4704926E2,3.4406396E2,-7.145083E1,2.5729922E2,-2.9778534E2,-5.341125E1,-7.991241E1,9.533071E2,3.711932E1,2.7540731E1,1.3922572E1,2.5448881E1,-1.3719579E1,7.592861E-1,1.8308498E1,1.038663E1,-1.26127615E1,-1.6754328E1,-7.1295524E0,6.501265E0,-1.553157E1,1.0215567E1,7.249593E1,3.5166744E1],"categories":[],"categories_nodes":[],"categories_segments":[],"categories_sizes":[],"default_left":[1,0,0,0,0,0,0,0,1,1,0,0,1,0,0,0,0,0,0,0,0,0,0,0,0,0,0,0,0,0,0],"id":29,"left_children":[1,3,5,7,9,11,13,15,17,19,21,23,25,27,29,-1,-1,-1,-1,-1,-1,-1,-1,-1,-1,-1,-1,-1,-1,-1,-1],"loss_changes":[7.7485805E8,2.93315E8,5.1488896E8,6.740243E7,2.3996157E8,3.3910128E8,6.5825594E8,1.281184E7,1.6175424E7,6.3528252E7,3.1012352E7,1.2123136E7,4.423614E8,9.423034E7,1.3317459E8,0E0,0E0,0E0,0E0,0E0,0E0,0E0,0E0,0E0,0E0,0E0,0E0,0E0,0E0,0E0,0E0],"parents":[2147483647,0,0,1,1,2,2,3,3,4,4,5,5,6,6,7,7,8,8,9,9,10,10,11,11,12,12,13,13,14,14],"right_children":[2,4,6,8,10,12,14,16,18,20,22,24,26,28,30,-1,-1,-1,-1,-1,-1,-1,-1,-1,-1,-1,-1,-1,-1,-1,-1],"split_conditions":[7E0,1.0008E3,2E0,4E0,1.0253E3,2.1E1,1E2,1.2E1,5.5E1,5E0,2E0,1.0139E3,1E2,3.4E1,1.3E1,3.711932E1,2.7540731E1,1.3922572E1,2.5448881E1,-1.3719579E1,7.592861E-1,1.8308498E1,1.038663E1,-1.26127615E1,-1.6754328E1,-7.1295524E0,6.501265E0,-1.553157E1,1.0215567E1,7.249593E1,3.5166744E1],"split_indices":[0,14,20,22,14,8,3,3,4,0,18,14,4,8,0,0,0,0,0,0,0,0,0,0,0,0,0,0,0,0,0],"split_type":[0,0,0,0,0,0,0,0,0,0,0,0,0,0,0,0,0,0,0,0,0,0,0,0,0,0,0,0,0,0,0],"sum_hessian":[4.906E4,1.2319E4,3.6741E4,2.947E3,9.372E3,3.4226E4,2.515E3,1.44E3,1.507E3,3.612E3,5.76E3,7.187E3,2.7039E4,1.435E3,1.08E3,7.2E2,7.2E2,1.08E3,4.27E2,1.08E3,2.532E3,1.8E3,3.96E3,3.24E3,3.947E3,1.8194E4,8.845E3,7.92E2,6.43E2,3.6E2,7.2E2],"tree_param":{"num_deleted":"0","num_feature":"25","num_nodes":"31","size_leaf_vector":"1"}},{"base_weights":[1.2872249E-1,2.063105E2,-6.900632E1,4.6770285E2,1.2407527E2,-9.949791E1,3.458206E2,3.200149E2,6.085189E2,-6.788187E1,2.4443927E2,-2.8290015E2,-5.07407E1,-7.592049E1,9.057414E2,2.426203E1,1.3227086E1,2.778739E1,3.873241E1,-8.622399E0,4.492446E0,1.7393583E1,9.867431E0,-1.1982319E1,-1.5916823E1,-6.773094E0,6.17624E0,-1.4755971E1,9.705581E0,6.888118E1,3.3410843E1],"categories":[],"categories_nodes":[],"categories_segments":[],"categories_sizes":[],"default_left":[1,0,0,1,0,0,0,0,0,1,0,0,1,0,0,0,0,0,0,0,0,0,0,0,0,0,0,0,0,0,0],"id":30,"left_children":[1,3,5,7,9,11,13,15,17,19,21,23,25,27,29,-1,-1,-1,-1,-1,-1,-1,-1,-1,-1,-1,-1,-1,-1,-1,-1],"loss_changes":[6.993487E8,2.6476851E8,4.6477408E8,6.1114304E7,2.1657723E8,3.0604966E8,5.942011E8,1.3079248E7,1.2789824E7,5.9605776E7,2.7991424E7,1.094112E7,3.992347E8,8.505519E7,1.2024179E8,0E0,0E0,0E0,0E0,0E0,0E0,0E0,0E0,0E0,0E0,0E0,0E0,0E0,0E0,0E0,0E0],"parents":[2147483647,0,0,1,1,2,2,3,3,4,4,5,5,6,6,7,7,8,8,9,9,10,10,11,11,12,12,13,13,14,14],"right_children":[2,4,6,8,10,12,14,16,18,20,22,24,26,28,30,-1,-1,-1,-1,-1,-1,-1,-1,-1,-1,-1,-1,-1,-1,-1,-1],"split_conditions":[7E0,1.0008E3,2E0,5E1,1.0253E3,2.1E1,1E2,1E1,4.3E1,3.8E1,2E0,1.0139E3,1E2,3.4E1,1.3E1,2.426203E1,1.3227086E1,2.778739E1,3.873241E1,-8.622399E0,4.492446E0,1.7393583E1,9.867431E0,-1.1982319E1,-1.5916823E1,-6.773094E0,6.17624E0,-1.4755971E1,9.705581E0,6.888118E1,3.3410843E1],"split_indices":[0,14,20,4,14,8,3,2,7,12,18,14,4,8,0,0,0,0,0,0,0,0,0,0,0,0,0,0,0,0,0],"split_type":[0,0,0,0,0,0,0,0,0,0,0,0,0,0,0,0,0,0,0,0,0,0,0,0,0,0,0,0,0,0,0],"sum_hessian":[4.906E4,1.2319E4,3.6741E4,2.947E3,9.372E3,3.4226E4,2.515E3,1.44E3,1.507E3,3.612E3,5.76E3,7.187E3,2.7039E4,1.435E3,1.08E3,3.6E2,1.08E3,1.147E3,3.6E2,2.172E3,1.44E3,1.8E3,3.96E3,3.24E3,3.947E3,1.8194E4,8.845E3,7.92E2,6.43E2,3.6E2,7.2E2],"tree_param":{"num_deleted":"0","num_feature":"25","num_nodes":"31","size_leaf_vector":"1"}},{"base_weights":[1.262678E-1,1.9600531E2,-6.555415E1,4.44353E2,1.17873985E2,-9.4523865E1,3.285682E2,5.851199E2,3.095457E2,-6.4488914E1,2.3222206E2,-2.6875903E2,-4.8203712E1,-7.212797E1,8.6054895E2,2.6709227E1,3.6801155E1,1.0586921E1,1.9932203E1,-1.2603514E1,7.7950066E-1,1.6524387E1,9.374184E0,-1.1383388E1,-1.5121184E1,7.4209986E0,-5.9621387E0,-1.4019103E1,9.221056E0,6.544666E1,3.1742615E1],"categories":[],"categories_nodes":[],"categories_segments":[],"categories_sizes":[],"default_left":[1,0,0,0,0,0,0,0,0,1,0,0,0,0,0,0,0,0,0,0,0,0,0,0,0,0,0,0,0,0,0],"id":31,"left_children":[1,3,5,7,9,11,13,15,17,19,21,23,25,27,29,-1,-1,-1,-1,-1,-1,-1,-1,-1,-1,-1,-1,-1,-1,-1,-1],"loss_changes":[6.3120314E8,2.3900166E8,4.1953696E8,5.576128E7,1.954687E8,2.7621942E8,5.363793E8,1.0682848E7,1.3057008E7,5.4275936E7,2.5264832E7,9.874496E6,3.7771142E8,7.677344E7,1.0856493E8,0E0,0E0,0E0,0E0,0E0,0E0,0E0,0E0,0E0,0E0,0E0,0E0,0E0,0E0,0E0,0E0],"parents":[2147483647,0,0,1,1,2,2,3,3,4,4,5,5,6,6,7,7,8,8,9,9,10,10,11,11,12,12,13,13,14,14],"right_children":[2,4,6,8,10,12,14,16,18,20,22,24,26,28,30,-1,-1,-1,-1,-1,-1,-1,-1,-1,-1,-1,-1,-1,-1,-1,-1],"split_conditions":[7E0,1.0008E3,2E0,4E0,1.0253E3,2.1E1,1E2,4.21E1,5E1,5E0,2E0,1.0139E3,6.1E1,3.4E1,1.3E1,2.6709227E1,3.6801155E1,1.0586921E1,1.9932203E1,-1.2603514E1,7.7950066E-1,1.6524387E1,9.374184E0,-1.1383388E1,-1.5121184E1,7.4209986E0,-5.9621387E0,-1.4019103E1,9.221056E0,6.544666E1,3.1742615E1],"split_indices":[0,14,20,22,14,8,3,7,4,0,18,14,11,8,0,0,0,0,0,0,0,0,0,0,0,0,0,0,0,0,0],"split_type":[0,0,0,0,0,0,0,0,0,0,0,0,0,0,0,0,0,0,0,0,0,0,0,0,0,0,0,0,0,0,0],"sum_hessian":[4.906E4,1.2319E4,3.6741E4,2.947E3,9.372E3,3.4226E4,2.515E3,1.44E3,1.507E3,3.612E3,5.76E3,7.187E3,2.7039E4,1.435E3,1.08E3,1.08E3,3.6E2,7.2E2,7.87E2,1.08E3,2.532E3,1.8E3,3.96E3,3.24E3,3.947E3,7.176E3,1.9863E4,7.92E2,6.43E2,3.6E2,7.2E2],"tree_param":{"num_deleted":"0","num_feature":"25","num_nodes":"31","size_leaf_vector":"1"}},{"base_weights":[1.2353303E-1,1.8621384E2,-6.227461E1,4.2216727E2,1.1198179E2,-8.97984E1,3.1217648E2,2.8709818E2,5.509553E2,-6.1267757E1,2.2061546E2,-1.5579695E2,2.2942522E1,-6.852493E1,8.176113E2,1.005831E1,1.8631598E1,3.201968E1,2.3421124E1,-7.8978615E0,4.22903E0,1.5698626E1,8.905595E0,-1.3108482E1,-4.2400665E0,1.7539682E1,-2.1883056E0,-1.3319033E1,8.760718E0,6.2183388E1,3.0157682E1],"categories":[],"categories_nodes":[],"categories_segments":[],"categories_sizes":[],"default_left":[1,0,0,1,0,0,0,0,0,1,0,0,0,0,0,0,0,0,0,0,0,0,0,0,0,0,0,0,0,0,0],"id":32,"left_children":[1,3,5,7,9,11,13,15,17,19,21,23,25,27,29,-1,-1,-1,-1,-1,-1,-1,-1,-1,-1,-1,-1,-1,-1,-1,-1],"loss_changes":[5.696927E8,2.1574131E8,3.7870256E8,5.1123104E7,1.7642026E8,2.546777E8,4.8418416E8,1.051652E7,1.0831456E7,5.096389E7,2.2803776E7,1.6301773E8,2.764366E8,6.929808E7,9.802195E7,0E0,0E0,0E0,0E0,0E0,0E0,0E0,0E0,0E0,0E0,0E0,0E0,0E0,0E0,0E0,0E0],"parents":[2147483647,0,0,1,1,2,2,3,3,4,4,5,5,6,6,7,7,8,8,9,9,10,10,11,11,12,12,13,13,14,14],"right_children":[2,4,6,8,10,12,14,16,18,20,22,24,26,28,30,-1,-1,-1,-1,-1,-1,-1,-1,-1,-1,-1,-1,-1,-1,-1,-1],"split_conditions":[7E0,1.0008E3,2E0,5E1,1.0253E3,4.21E1,1E2,5E1,2E0,3.8E1,2E0,3.1E1,2.61E1,3.4E1,1.3E1,1.005831E1,1.8631598E1,3.201968E1,2.3421124E1,-7.8978615E0,4.22903E0,1.5698626E1,8.905595E0,-1.3108482E1,-4.2400665E0,1.7539682E1,-2.1883056E0,-1.3319033E1,8.760718E0,6.2183388E1,3.0157682E1],"split_indices":[0,14,20,4,14,7,3,4,22,12,18,3,8,8,0,0,0,0,0,0,0,0,0,0,0,0,0,0,0,0,0],"split_type":[0,0,0,0,0,0,0,0,0,0,0,0,0,0,0,0,0,0,0,0,0,0,0,0,0,0,0,0,0,0,0],"sum_hessian":[4.906E4,1.2319E4,3.6741E4,2.947E3,9.372E3,3.4226E4,2.515E3,1.44E3,1.507E3,3.612E3,5.76E3,2.1588E4,1.2638E4,1.435E3,1.08E3,7.2E2,7.2E2,7.2E2,7.87E2,2.172E3,1.44E3,1.8E3,3.96E3,8.64E3,1.2948E4,2.136E3,1.0502E4,7.92E2,6.43E2,3.6E2,7.2E2],"tree_param":{"num_deleted":"0","num_feature":"25","num_nodes":"31","size_leaf_vector":"1"}},{"base_weights":[1.21247396E-1,1.7691165E2,-5.915854E1,4.010874E2,1.06384926E2,-8.7376274E1,2.7314648E2,5.2940326E2,2.7820657E2,-5.8205368E1,2.0958894E2,-1.5236986E2,2.1796621E1,-3.016092E1,7.7681616E2,2.41416E1,3.3369633E1,1.1236673E1,2.0630686E1,-1.4254931E1,-8.191975E-2,1.4914131E1,8.460425E0,-1.3231903E1,-4.0280795E0,1.6663109E1,-2.0789E0,-1.2653919E1,7.2969193E0,5.9082832E1,2.865189E1],"categories":[],"categories_nodes":[],"categories_segments":[],"categories_sizes":[],"default_left":[1,0,0,0,0,0,0,0,1,0,0,0,0,0,0,0,0,0,0,0,0,0,0,0,0,0,0,0,0,0,0],"id":33,"left_children":[1,3,5,7,9,11,13,15,17,19,21,23,25,27,29,-1,-1,-1,-1,-1,-1,-1,-1,-1,-1,-1,-1,-1,-1,-1,-1],"loss_changes":[5.141745E8,1.9474128E8,3.445498E8,4.6335456E7,1.5922554E8,2.4030789E8,4.393806E8,8.938112E6,1.074552E7,4.6371176E7,2.058248E7,1.7112237E8,2.494952E8,7.054002E7,8.850291E7,0E0,0E0,0E0,0E0,0E0,0E0,0E0,0E0,0E0,0E0,0E0,0E0,0E0,0E0,0E0,0E0],"parents":[2147483647,0,0,1,1,2,2,3,3,4,4,5,5,6,6,7,7,8,8,9,9,10,10,11,11,12,12,13,13,14,14],"right_children":[2,4,6,8,10,12,14,16,18,20,22,24,26,28,30,-1,-1,-1,-1,-1,-1,-1,-1,-1,-1,-1,-1,-1,-1,-1,-1],"split_conditions":[7E0,1.0008E3,1E0,4E0,1.0253E3,4.21E1,1E2,4.21E1,5.5E1,5E0,2E0,3.1E1,2.61E1,3.4E1,1.3E1,2.41416E1,3.3369633E1,1.1236673E1,2.0630686E1,-1.4254931E1,-8.191975E-2,1.4914131E1,8.460425E0,-1.3231903E1,-4.0280795E0,1.6663109E1,-2.0789E0,-1.2653919E1,7.2969193E0,5.9082832E1,2.865189E1],"split_indices":[0,14,20,22,14,7,3,7,4,0,18,3,8,8,0,0,0,0,0,0,0,0,0,0,0,0,0,0,0,0,0],"split_type":[0,0,0,0,0,0,0,0,0,0,0,0,0,0,0,0,0,0,0,0,0,0,0,0,0,0,0,0,0,0,0],"sum_hessian":[4.906E4,1.2319E4,3.6741E4,2.947E3,9.372E3,3.3866E4,2.875E3,1.44E3,1.507E3,3.612E3,5.76E3,2.1228E4,1.2638E4,1.795E3,1.08E3,1.08E3,3.6E2,1.08E3,4.27E2,7.2E2,2.892E3,1.8E3,3.96E3,8.28E3,1.2948E4,2.136E3,1.0502E4,7.92E2,1.003E3,3.6E2,7.2E2],"tree_param":{"num_deleted":"0","num_feature":"25","num_nodes":"31","size_leaf_vector":"1"}},{"base_weights":[1.1881273E-1,-2.1910257E2,4.501607E1,-8.885188E1,-2.3846646E2,-4.6395813E1,1.709396E2,2.668381E-1,-1.3588829E2,-1.9830441E2,-2.795135E2,-2.6810748E2,1.9419584E1,6.199463E2,1.4142912E2,-7.370445E0,-6.1995625E0,-1.1463431E1,-7.6973763E0,-1.3336588E1,-1.655651E1,-5.4050503E0,-1.7402925E1,-1.7275978E0,1.0668852E1,8.5778275E1,2.5390909E0,8.539764E0,-1.3279691E1],"categories":[],"categories_nodes":[],"categories_segments":[],"categories_sizes":[],"default_left":[0,1,1,0,0,0,0,0,0,0,0,0,0,0,0,0,0,0,0,0,0,0,0,0,0,0,0,0,0],"id":34,"left_children":[1,3,5,7,9,11,13,-1,15,17,19,21,23,25,27,-1,-1,-1,-1,-1,-1,-1,-1,-1,-1,-1,-1,-1,-1],"loss_changes":[4.8288973E8,2.1013632E7,4.6875514E8,4.789875E6,1.1912928E7,3.4430445E8,2.2686522E8,0E0,8.0543E4,5.009488E6,2.278848E6,6.905562E7,1.9047594E8,6.5842125E8,1.9216109E8,0E0,0E0,0E0,0E0,0E0,0E0,0E0,0E0,0E0,0E0,0E0,0E0,0E0,0E0],"parents":[2147483647,0,0,1,1,2,2,3,3,4,4,5,5,6,6,8,8,9,9,10,10,11,11,12,12,13,13,14,14],"right_children":[2,4,6,8,10,12,14,-1,16,18,20,22,24,26,28,-1,-1,-1,-1,-1,-1,-1,-1,-1,-1,-1,-1,-1,-1],"split_conditions":[2.1E1,1.2E1,4.5E1,7E0,1.0139E3,1.1E1,5.2E1,2.668381E-1,1E1,3.51E1,1.9E1,3.7E1,1.0253E3,1E1,1.8E2,-7.370445E0,-6.1995625E0,-1.1463431E1,-7.6973763E0,-1.3336588E1,-1.655651E1,-5.4050503E0,-1.7402925E1,-1.7275978E0,1.0668852E1,8.5778275E1,2.5390909E0,8.539764E0,-1.3279691E1],"split_indices":[8,0,4,0,14,3,11,0,0,7,8,8,14,0,3,0,0,0,0,0,0,0,0,0,0,0,0,0,0],"split_type":[0,0,0,0,0,0,0,0,0,0,0,0,0,0,0,0,0,0,0,0,0,0,0,0,0,0,0,0,0],"sum_hessian":[4.906E4,8.339E3,4.0721E4,1.08E3,7.259E3,2.3594E4,1.7127E4,3.6E2,7.2E2,3.672E3,3.587E3,5.4E3,1.8194E4,1.055E3,1.6072E4,3.6E2,3.6E2,2.16E3,1.512E3,2.88E3,7.07E2,1.8E3,3.6E3,1.4234E4,3.96E3,3.6E2,6.95E2,1.4991E4,1.081E3],"tree_param":{"num_deleted":"0","num_feature":"25","num_nodes":"29","size_leaf_vector":"1"}},{"base_weights":[1.1301186E-1,3.5577774E2,-2.560144E1,4.970042E2,2.4664333E2,-8.211719E1,1.1635572E2,5.711745E2,4.221446E2,1.9339746E1,2.129289E2,-1.0860663E2,6.605132E1,6.3548083E2,5.1796604E1,2.5758371E1,3.1279966E1,1.9673931E1,2.2482061E1,1.1983699E1,6.364408E0,-6.5563216E0,7.402355E0,2.1696846E1,-1.8178043E0,5.571107E1,2.3750875E1,1.0850014E1,-3.7153473E0],"categories":[],"categories_nodes":[],"categories_segments":[],"categories_sizes":[],"default_left":[0,0,0,0,0,0,0,0,0,0,0,0,0,0,1,0,0,0,0,0,0,0,0,0,0,0,0,0,0],"id":35,"left_children":[1,3,5,7,9,11,13,15,17,-1,19,21,23,25,27,-1,-1,-1,-1,-1,-1,-1,-1,-1,-1,-1,-1,-1,-1],"loss_changes":[4.4870742E8,5.086253E7,3.670854E8,7.75984E6,8.744192E6,1.284535E8,4.3662432E8,1.87544E6,3.91376E5,0E0,3.42352E6,1.6048384E8,1.8703056E8,1.1016883E8,2.4144709E8,0E0,0E0,0E0,0E0,0E0,0E0,0E0,0E0,0E0,0E0,0E0,0E0,0E0,0E0],"parents":[2147483647,0,0,1,1,2,2,3,3,4,4,5,5,6,6,7,7,8,8,10,10,11,11,12,12,13,13,14,14],"right_children":[2,4,6,8,10,12,14,16,18,-1,20,22,24,26,28,-1,-1,-1,-1,-1,-1,-1,-1,-1,-1,-1,-1,-1,-1],"split_conditions":[1.0019E3,4E0,1.6E2,1.2E1,1.1E1,4.69E1,1.8E2,6E0,1E1,1.9339746E1,4.1E1,1.0239E3,2.9E1,2.7E1,7E0,2.5758371E1,3.1279966E1,1.9673931E1,2.2482061E1,1.1983699E1,6.364408E0,-6.5563216E0,7.402355E0,2.1696846E1,-1.8178043E0,5.571107E1,2.3750875E1,1.0850014E1,-3.7153473E0],"split_indices":[14,22,3,3,3,7,3,0,2,0,8,14,1,8,22,0,0,0,0,0,0,0,0,0,0,0,0,0,0],"split_type":[0,0,0,0,0,0,0,0,0,0,0,0,0,0,0,0,0,0,0,0,0,0,0,0,0,0,0,0,0],"sum_hessian":[4.906E4,3.307E3,4.5753E4,1.44E3,1.867E3,3.2725E4,1.3028E4,7.2E2,7.2E2,3.6E2,1.507E3,2.7762E4,4.963E3,1.44E3,1.1588E4,3.6E2,3.6E2,3.6E2,3.6E2,1.147E3,3.6E2,2.5523E4,2.239E3,1.08E3,3.883E3,3.6E2,1.08E3,5.016E3,6.572E3],"tree_param":{"num_deleted":"0","num_feature":"25","num_nodes":"29","size_leaf_vector":"1"}},{"base_weights":[1.1234241E-1,-2.0233516E2,4.1574257E1,-7.7871315E1,-2.208397E2,-4.194658E1,1.5662753E2,5.804415E-1,-1.2256544E2,-1.628966E2,-2.4652907E2,-2.4815121E2,1.9265465E1,5.781929E2,1.2892084E2,-6.6760345E0,-5.5635333E0,-1.0567072E1,-6.985161E0,-1.3922488E1,-1.1132213E1,-4.807313E0,-1.6205296E1,-1.4749695E0,9.725561E0,8.096024E1,1.8706007E0,7.843007E0,-1.2916013E1],"categories":[],"categories_nodes":[],"categories_segments":[],"categories_sizes":[],"default_left":[0,1,1,0,0,0,0,0,0,0,0,0,0,0,0,0,0,0,0,0,0,0,0,0,0,0,0,0,0],"id":36,"left_children":[1,3,5,7,9,11,13,-1,15,17,19,21,23,25,27,-1,-1,-1,-1,-1,-1,-1,-1,-1,-1,-1,-1,-1,-1],"loss_changes":[4.1181962E8,1.9191104E7,3.9131837E8,4.324597E6,1.0766496E7,2.9782573E8,1.9998362E8,0E0,7.4358E4,2.479476E6,3.771456E6,6.232605E7,1.5549718E8,5.9442445E8,1.7393822E8,0E0,0E0,0E0,0E0,0E0,0E0,0E0,0E0,0E0,0E0,0E0,0E0,0E0,0E0],"parents":[2147483647,0,0,1,1,2,2,3,3,4,4,5,5,6,6,8,8,9,9,10,10,11,11,12,12,13,13,14,14],"right_children":[2,4,6,8,10,12,14,-1,16,18,20,22,24,26,28,-1,-1,-1,-1,-1,-1,-1,-1,-1,-1,-1,-1,-1,-1],"split_conditions":[2.1E1,1.2E1,4.5E1,7E0,1.0097E3,1.1E1,5.2E1,5.804415E-1,1E1,3.51E1,1.5E1,3.7E1,1.0253E3,1E1,1.8E2,-6.6760345E0,-5.5635333E0,-1.0567072E1,-6.985161E0,-1.3922488E1,-1.1132213E1,-4.807313E0,-1.6205296E1,-1.4749695E0,9.725561E0,8.096024E1,1.8706007E0,7.843007E0,-1.2916013E1],"split_indices":[8,0,4,0,14,3,11,0,0,7,0,8,14,0,3,0,0,0,0,0,0,0,0,0,0,0,0,0,0],"split_type":[0,0,0,0,0,0,0,0,0,0,0,0,0,0,0,0,0,0,0,0,0,0,0,0,0,0,0,0,0],"sum_hessian":[4.906E4,8.339E3,4.0721E4,1.08E3,7.259E3,2.3594E4,1.7127E4,3.6E2,7.2E2,2.232E3,5.027E3,5.4E3,1.8194E4,1.055E3,1.6072E4,3.6E2,3.6E2,7.2E2,1.512E3,2.147E3,2.88E3,1.8E3,3.6E3,1.4234E4,3.96E3,3.6E2,6.95E2,1.4991E4,1.081E3],"tree_param":{"num_deleted":"0","num_feature":"25","num_nodes":"29","size_leaf_vector":"1"}},{"base_weights":[1.0694007E-1,3.1472583E2,-2.5315409E1,4.6671317E2,2.1628394E2,-7.887671E1,1.07740875E2,4.2625024E2,2.9329245E1,1.7984367E1,1.8845476E2,-1.03966156E2,5.9641636E1,5.959243E2,4.7029846E1,2.408296E1,1.989581E1,8.425128E0,1.3563941E1,-6.251939E0,6.6404276E0,2.0376377E1,-1.8598893E0,5.2542164E1,2.2172642E1,9.782966E0,-3.3211155E0],"categories":[],"categories_nodes":[],"categories_segments":[],"categories_sizes":[],"default_left":[0,0,0,0,0,0,0,0,0,0,0,0,0,0,1,0,0,0,0,0,0,0,0,0,0,0,0],"id":37,"left_children":[1,3,5,7,9,11,13,15,-1,-1,17,19,21,23,25,-1,-1,-1,-1,-1,-1,-1,-1,-1,-1,-1,-1],"loss_changes":[3.9241504E8,5.477939E7,3.235164E8,6.739328E6,8.823712E6,1.1248936E8,3.8612704E8,1.505488E6,0E0,0E0,3.0412E6,1.3674288E8,1.672477E8,9.948486E7,1.9543056E8,0E0,0E0,0E0,0E0,0E0,0E0,0E0,0E0,0E0,0E0,0E0,0E0],"parents":[2147483647,0,0,1,1,2,2,3,3,4,4,5,5,6,6,7,7,10,10,11,11,12,12,13,13,14,14],"right_children":[2,4,6,8,10,12,14,16,-1,-1,18,20,22,24,26,-1,-1,-1,-1,-1,-1,-1,-1,-1,-1,-1,-1],"split_conditions":[1.0021E3,4E0,1.6E2,4.21E1,1.1E1,4.69E1,1.8E2,6E0,2.9329245E1,1.7984367E1,9E1,1.0239E3,2.9E1,2.7E1,7E0,2.408296E1,1.989581E1,8.425128E0,1.3563941E1,-6.251939E0,6.6404276E0,2.0376377E1,-1.8598893E0,5.2542164E1,2.2172642E1,9.782966E0,-3.3211155E0],"split_indices":[14,22,3,7,3,7,3,0,0,0,3,14,1,8,22,0,0,0,0,0,0,0,0,0,0,0,0],"split_type":[0,0,0,0,0,0,0,0,0,0,0,0,0,0,0,0,0,0,0,0,0,0,0,0,0,0,0],"sum_hessian":[4.906E4,3.667E3,4.5393E4,1.44E3,2.227E3,3.2365E4,1.3028E4,1.08E3,3.6E2,3.6E2,1.867E3,2.7402E4,4.963E3,1.44E3,1.1588E4,3.6E2,7.2E2,1.507E3,3.6E2,2.5163E4,2.239E3,1.08E3,3.883E3,3.6E2,1.08E3,5.016E3,6.572E3],"tree_param":{"num_deleted":"0","num_feature":"25","num_nodes":"27","size_leaf_vector":"1"}},{"base_weights":[1.0595434E-1,2.9902042E2,-2.404742E1,4.4342844E2,2.0548766E2,-7.493228E1,1.0236008E2,4.0497845E2,2.7866852E1,1.708764E1,1.7904375E2,-9.8767815E1,5.6663254E1,5.6617993E2,4.4678936E1,2.2882145E1,1.8902401E1,8.0041485E0,1.2887621E1,-5.9393535E0,6.3085566E0,1.9358498E1,-1.76692E0,4.992233E1,2.1065037E1,-1.1148361E1,5.3024993E0],"categories":[],"categories_nodes":[],"categories_segments":[],"categories_sizes":[],"default_left":[0,0,0,0,0,0,0,0,0,0,0,0,0,0,0,0,0,0,0,0,0,0,0,0,0,0,0],"id":38,"left_children":[1,3,5,7,9,11,13,15,-1,-1,17,19,21,23,25,-1,-1,-1,-1,-1,-1,-1,-1,-1,-1,-1,-1],"loss_changes":[3.5421744E8,4.945216E7,2.919922E8,6.085568E6,7.967136E6,1.0152643E8,3.4854816E8,1.360128E6,0E0,0E0,2.7465E6,1.2341373E8,1.5095483E8,8.98241E7,1.9038139E8,0E0,0E0,0E0,0E0,0E0,0E0,0E0,0E0,0E0,0E0,0E0,0E0],"parents":[2147483647,0,0,1,1,2,2,3,3,4,4,5,5,6,6,7,7,10,10,11,11,12,12,13,13,14,14],"right_children":[2,4,6,8,10,12,14,16,-1,-1,18,20,22,24,26,-1,-1,-1,-1,-1,-1,-1,-1,-1,-1,-1,-1],"split_conditions":[1.0021E3,4E0,1.6E2,4.21E1,1.1E1,4.69E1,1.8E2,6E0,2.7866852E1,1.708764E1,9E1,1.0239E3,2.9E1,2.7E1,1.0109E3,2.2882145E1,1.8902401E1,8.0041485E0,1.2887621E1,-5.9393535E0,6.3085566E0,1.9358498E1,-1.76692E0,4.992233E1,2.1065037E1,-1.1148361E1,5.3024993E0],"split_indices":[14,22,3,7,3,7,3,0,0,0,3,14,1,8,14,0,0,0,0,0,0,0,0,0,0,0,0],"split_type":[0,0,0,0,0,0,0,0,0,0,0,0,0,0,0,0,0,0,0,0,0,0,0,0,0,0,0],"sum_hessian":[4.906E4,3.667E3,4.5393E4,1.44E3,2.227E3,3.2365E4,1.3028E4,1.08E3,3.6E2,3.6E2,1.867E3,2.7402E4,4.963E3,1.44E3,1.1588E4,3.6E2,7.2E2,1.507E3,3.6E2,2.5163E4,2.239E3,1.08E3,3.883E3,3.6E2,1.08E3,2.161E3,9.427E3],"tree_param":{"num_deleted":"0","num_feature":"25","num_nodes":"27","size_leaf_vector":"1"}},{"base_weights":[1.0454194E-1,-1.8157536E2,3.7313183E1,-6.180852E1,-1.993834E2,1.0445888E2,-7.543661E1,1.1593753E0,-1.0427975E2,-1.4220651E2,-2.2473674E2,-2.0990324E2,1.246814E2,-2.617638E2,-9.7677965E0,-5.7352805E0,-4.6782513E0,-9.373855E0,-6.0269713E0,-1.2736173E1,-1.0115071E1,-6.9870543E0,-1.8663132E1,1.1450561E1,2.8990831E0,-2.1796017E0,-1.55109E1,2.575569E1,-1.3591274E0],"categories":[],"categories_nodes":[],"categories_segments":[],"categories_sizes":[],"default_left":[0,1,1,0,0,0,0,0,0,0,0,0,0,0,0,0,0,0,0,0,0,0,0,0,0,0,0,0,0],"id":39,"left_children":[1,3,5,7,9,11,13,-1,15,17,19,21,23,25,27,-1,-1,-1,-1,-1,-1,-1,-1,-1,-1,-1,-1,-1,-1],"loss_changes":[3.3166218E8,1.7775328E7,3.0830038E8,3.9047045E6,1.049232E7,1.6228086E8,1.859829E8,0E0,6.98105E4,2.167712E6,3.331136E6,1.763316E7,1.6686502E8,4.185952E7,1.0275526E8,0E0,0E0,0E0,0E0,0E0,0E0,0E0,0E0,0E0,0E0,0E0,0E0,0E0,0E0],"parents":[2147483647,0,0,1,1,2,2,3,3,4,4,5,5,6,6,8,8,9,9,10,10,11,11,12,12,13,13,14,14],"right_children":[2,4,6,8,10,12,14,-1,16,18,20,22,24,26,28,-1,-1,-1,-1,-1,-1,-1,-1,-1,-1,-1,-1,-1,-1],"split_conditions":[2.1E1,1.2E1,3E0,7E0,1.0097E3,4.5E1,8E0,1.1593753E0,1E1,3.51E1,1.5E1,1.1E1,1.0129E3,3.9E1,2.1E1,-5.7352805E0,-4.6782513E0,-9.373855E0,-6.0269713E0,-1.2736173E1,-1.0115071E1,-6.9870543E0,-1.8663132E1,1.1450561E1,2.8990831E0,-2.1796017E0,-1.55109E1,2.575569E1,-1.3591274E0],"split_indices":[8,0,18,0,14,4,3,0,0,7,0,3,14,7,1,0,0,0,0,0,0,0,0,0,0,0,0,0,0],"split_type":[0,0,0,0,0,0,0,0,0,0,0,0,0,0,0,0,0,0,0,0,0,0,0,0,0,0,0,0,0],"sum_hessian":[4.906E4,8.339E3,4.0721E4,1.08E3,7.259E3,2.5522E4,1.5199E4,3.6E2,7.2E2,2.232E3,5.027E3,1.542E3,2.398E4,3.96E3,1.1239E4,3.6E2,3.6E2,7.2E2,1.512E3,2.147E3,2.88E3,1.08E3,4.62E2,9.351E3,1.4629E4,7.2E2,3.24E3,3.6E2,1.0879E4],"tree_param":{"num_deleted":"0","num_feature":"25","num_nodes":"29","size_leaf_vector":"1"}},{"base_weights":[9.826362E-2,2.9138657E2,-2.0961792E1,4.1306305E2,1.973677E2,-5.2859108E1,1.4761928E2,3.775943E2,2.5906431E1,1.5664688E1,1.694853E2,-9.3436386E1,8.2247665E1,9.899328E1,2.3510799E2,2.1170275E1,1.7706663E1,9.790254E0,4.2658734E0,-3.7515056E0,-1.2152432E1,4.5779538E-1,3.0502075E1,9.170081E0,3.6813438E0,-1.9346533E0,1.395645E1],"categories":[],"categories_nodes":[],"categories_segments":[],"categories_sizes":[],"default_left":[0,0,0,0,0,1,1,0,0,0,0,0,0,0,0,0,0,0,0,0,0,0,0,0,0,0,0],"id":40,"left_children":[1,3,5,7,9,11,13,15,-1,-1,17,19,21,23,25,-1,-1,-1,-1,-1,-1,-1,-1,-1,-1,-1,-1],"loss_changes":[3.0097315E8,3.776157E7,2.4604003E8,5.174304E6,5.984832E6,2.1093782E8,3.0947488E7,1.011888E6,0E0,0E0,3.323936E6,8.146403E7,3.4283155E8,1.0009156E7,3.1348624E7,0E0,0E0,0E0,0E0,0E0,0E0,0E0,0E0,0E0,0E0,0E0,0E0],"parents":[2147483647,0,0,1,1,2,2,3,3,4,4,5,5,6,6,7,7,10,10,11,11,12,12,13,13,14,14],"right_children":[2,4,6,8,10,12,14,16,-1,-1,18,20,22,24,26,-1,-1,-1,-1,-1,-1,-1,-1,-1,-1,-1,-1],"split_conditions":[1.0019E3,4E0,1.0241E3,4.21E1,1.1E1,1.8E2,2E0,6E0,2.5906431E1,1.5664688E1,4.1E1,9.6E1,1E0,6E0,7.7E1,2.1170275E1,1.7706663E1,9.790254E0,4.2658734E0,-3.7515056E0,-1.2152432E1,4.5779538E-1,3.0502075E1,9.170081E0,3.6813438E0,-1.9346533E0,1.395645E1],"split_indices":[14,22,14,7,3,4,24,0,0,0,8,11,20,0,11,0,0,0,0,0,0,0,0,0,0,0,0],"split_type":[0,0,0,0,0,0,0,0,0,0,0,0,0,0,0,0,0,0,0,0,0,0,0,0,0,0,0],"sum_hessian":[4.906E4,3.307E3,4.5753E4,1.44E3,1.867E3,3.8474E4,7.279E3,1.08E3,3.6E2,3.6E2,1.507E3,2.9588E4,8.886E3,4.68E3,2.599E3,3.6E2,7.2E2,1.147E3,3.6E2,2.6348E4,3.24E3,7.806E3,1.08E3,1.08E3,3.6E3,3.6E2,2.239E3],"tree_param":{"num_deleted":"0","num_feature":"25","num_nodes":"27","size_leaf_vector":"1"}},{"base_weights":[9.608867E-2,-1.700231E2,3.4937057E1,-5.497861E1,-1.871296E2,9.633023E1,-6.815326E1,1.2886244E0,-9.533391E1,-1.3271048E2,-2.112606E2,-1.9371559E2,1.1498852E2,-2.3958482E2,-7.7343497E0,-5.262255E0,-4.2579317E0,-8.823585E0,-5.5884476E0,-1.2017993E1,-9.474582E0,-6.3107376E0,-1.7544819E1,1.0596621E1,2.6505392E0,-1.8834584E0,-1.4221476E1,2.295059E1,-1.1610173E0],"categories":[],"categories_nodes":[],"categories_segments":[],"categories_sizes":[],"default_left":[0,1,1,0,0,0,0,0,0,0,0,0,0,0,0,0,0,0,0,0,0,0,0,0,0,0,0,0,0],"id":41,"left_children":[1,3,5,7,9,11,13,-1,15,17,19,21,23,25,27,-1,-1,-1,-1,-1,-1,-1,-1,-1,-1,-1,-1,-1,-1],"loss_changes":[2.9079626E8,1.6402896E7,2.5773781E8,3.5251492E6,9.505712E6,1.3814656E8,1.574353E8,0E0,6.37495E4,2.026656E6,3.139504E6,1.6326684E7,1.4407533E8,3.585552E7,8.125371E7,0E0,0E0,0E0,0E0,0E0,0E0,0E0,0E0,0E0,0E0,0E0,0E0,0E0,0E0],"parents":[2147483647,0,0,1,1,2,2,3,3,4,4,5,5,6,6,8,8,9,9,10,10,11,11,12,12,13,13,14,14],"right_children":[2,4,6,8,10,12,14,-1,16,18,20,22,24,26,28,-1,-1,-1,-1,-1,-1,-1,-1,-1,-1,-1,-1,-1,-1],"split_conditions":[2.1E1,1.2E1,3E0,7E0,1.0097E3,4.5E1,8E0,1.2886244E0,1E1,3.51E1,1.5E1,1.1E1,1.0129E3,3.9E1,2.1E1,-5.262255E0,-4.2579317E0,-8.823585E0,-5.5884476E0,-1.2017993E1,-9.474582E0,-6.3107376E0,-1.7544819E1,1.0596621E1,2.6505392E0,-1.8834584E0,-1.4221476E1,2.295059E1,-1.1610173E0],"split_indices":[8,0,18,0,14,4,3,0,0,7,0,3,14,7,1,0,0,0,0,0,0,0,0,0,0,0,0,0,0],"split_type":[0,0,0,0,0,0,0,0,0,0,0,0,0,0,0,0,0,0,0,0,0,0,0,0,0,0,0,0,0],"sum_hessian":[4.906E4,8.339E3,4.0721E4,1.08E3,7.259E3,2.5522E4,1.5199E4,3.6E2,7.2E2,2.232E3,5.027E3,1.542E3,2.398E4,3.96E3,1.1239E4,3.6E2,3.6E2,7.2E2,1.512E3,2.147E3,2.88E3,1.08E3,4.62E2,9.351E3,1.4629E4,7.2E2,3.24E3,3.6E2,1.0879E4],"tree_param":{"num_deleted":"0","num_feature":"25","num_nodes":"29","size_leaf_vector":"1"}},{"base_weights":[9.0280585E-2,-1.6152724E2,3.319008E1,-5.2237293E1,-1.7777806E2,9.15133E1,-6.4745224E1,1.2243712E0,-9.058041E1,-1.3153236E2,-2.0342871E2,1.5559714E2,1.4885957E1,-2.2760965E2,-7.345695E0,-4.999871E0,-4.0456247E0,-8.344437E0,-5.3092103E0,-1.1417373E1,-9.105811E0,3.0704243E1,5.179031E0,-4.9453034E0,7.941227E0,-1.7894163E0,-1.351062E1,2.1806234E1,-1.1029717E0],"categories":[],"categories_nodes":[],"categories_segments":[],"categories_sizes":[],"default_left":[0,1,1,0,0,1,0,0,0,0,0,0,0,0,0,0,0,0,0,0,0,0,0,0,0,0,0,0,0],"id":42,"left_children":[1,3,5,7,9,11,13,-1,15,17,19,21,23,25,27,-1,-1,-1,-1,-1,-1,-1,-1,-1,-1,-1,-1,-1,-1],"loss_changes":[2.6245755E8,1.480296E7,2.3260598E8,3.1823735E6,8.585296E6,1.2533027E8,1.4209312E8,0E0,5.7551E4,2.306176E6,2.437504E6,3.3141274E8,1.904223E8,3.2360096E7,7.335182E7,0E0,0E0,0E0,0E0,0E0,0E0,0E0,0E0,0E0,0E0,0E0,0E0,0E0,0E0],"parents":[2147483647,0,0,1,1,2,2,3,3,4,4,5,5,6,6,8,8,9,9,10,10,11,11,12,12,13,13,14,14],"right_children":[2,4,6,8,10,12,14,-1,16,18,20,22,24,26,28,-1,-1,-1,-1,-1,-1,-1,-1,-1,-1,-1,-1,-1,-1],"split_conditions":[2.1E1,1.2E1,3E0,7E0,1.0102E3,7E0,8E0,1.2243712E0,1E1,3.51E1,1.5E1,2.7E1,1E1,3.9E1,2.1E1,-4.999871E0,-4.0456247E0,-8.344437E0,-5.3092103E0,-1.1417373E1,-9.105811E0,3.0704243E1,5.179031E0,-4.9453034E0,7.941227E0,-1.7894163E0,-1.351062E1,2.1806234E1,-1.1029717E0],"split_indices":[8,0,18,0,14,22,3,0,0,7,0,8,0,7,1,0,0,0,0,0,0,0,0,0,0,0,0,0,0],"split_type":[0,0,0,0,0,0,0,0,0,0,0,0,0,0,0,0,0,0,0,0,0,0,0,0,0,0,0,0,0],"sum_hessian":[4.906E4,8.339E3,4.0721E4,1.08E3,7.259E3,2.5522E4,1.5199E4,3.6E2,7.2E2,2.592E3,4.667E3,1.3898E4,1.1624E4,3.96E3,1.1239E4,3.6E2,3.6E2,1.08E3,1.512E3,2.147E3,2.52E3,1.415E3,1.2483E4,6.492E3,5.132E3,7.2E2,3.24E3,3.6E2,1.0879E4],"tree_param":{"num_deleted":"0","num_feature":"25","num_nodes":"29","size_leaf_vector":"1"}},{"base_weights":[8.58073E-2,2.8212018E2,-1.7944235E1,1.0376588E2,3.3971054E2,-4.652569E1,1.3452536E2,7.0956473E0,3.266568E0,3.1308148E2,2.3828096E1,-8.109704E1,6.998426E1,8.8554306E1,2.172392E2,1.7449865E1,1.3170692E1,-9.482416E0,-3.139617E0,2.0557009E-1,2.728272E1,8.4894705E0,3.2071702E0,-2.2285817E0,1.2966792E1],"categories":[],"categories_nodes":[],"categories_segments":[],"categories_sizes":[],"default_left":[0,0,0,0,0,1,1,0,0,0,0,0,0,0,0,0,0,0,0,0,0,0,0,0,0],"id":43,"left_children":[1,3,5,7,9,11,13,-1,-1,15,-1,17,19,21,23,-1,-1,-1,-1,-1,-1,-1,-1,-1,-1],"loss_changes":[2.4948472E8,3.0245104E7,2.0096195E8,1.0478325E6,7.970128E6,1.564294E8,2.7662544E7,0E0,0E0,3.240304E6,0E0,5.949672E7,2.7846083E8,9.271636E6,2.866708E7,0E0,0E0,0E0,0E0,0E0,0E0,0E0,0E0,0E0,0E0],"parents":[2147483647,0,0,1,1,2,2,3,3,4,4,5,5,6,6,9,9,11,11,12,12,13,13,14,14],"right_children":[2,4,6,8,10,12,14,-1,-1,16,-1,18,20,22,24,-1,-1,-1,-1,-1,-1,-1,-1,-1,-1],"split_conditions":[1.0008E3,5E1,1.0241E3,5E0,4.3E1,1.8E2,2E0,7.0956473E0,3.266568E0,4.21E1,2.3828096E1,8E0,1E0,6E0,7.7E1,1.7449865E1,1.3170692E1,-9.482416E0,-3.139617E0,2.0557009E-1,2.728272E1,8.4894705E0,3.2071702E0,-2.2285817E0,1.2966792E1],"split_indices":[14,4,14,0,7,4,24,0,0,7,0,3,20,0,11,0,0,0,0,0,0,0,0,0,0],"split_type":[0,0,0,0,0,0,0,0,0,0,0,0,0,0,0,0,0,0,0,0,0,0,0,0,0],"sum_hessian":[4.906E4,2.947E3,4.6113E4,7.2E2,2.227E3,3.8834E4,7.279E3,3.6E2,3.6E2,1.867E3,3.6E2,2.9948E4,8.886E3,4.68E3,2.599E3,1.08E3,7.87E2,4.32E3,2.5628E4,7.806E3,1.08E3,1.08E3,3.6E3,3.6E2,2.239E3],"tree_param":{"num_deleted":"0","num_feature":"25","num_nodes":"25","size_leaf_vector":"1"}},{"base_weights":[8.359531E-2,-1.5132745E2,3.1093077E1,-4.6495956E1,-1.6691582E2,8.4432236E1,-5.847314E1,1.319867E0,-8.2928665E1,-1.22751465E2,-1.9141266E2,-1.8068985E2,1.0148736E2,-2.06753E2,-6.2137985E0,-4.594023E0,-3.6873577E0,-7.8264666E0,-4.9268456E0,-1.0773959E1,-8.541552E0,-5.7602034E0,-1.6659704E1,9.47964E0,2.2580202E0,-1.2266054E0,-1.2361323E1,1.9358591E1,-9.63291E-1],"categories":[],"categories_nodes":[],"categories_segments":[],"categories_sizes":[],"default_left":[0,1,1,0,0,0,0,0,0,0,0,0,0,0,0,0,0,0,0,0,0,0,0,0,0,0,0,0,0],"id":44,"left_children":[1,3,5,7,9,11,13,-1,15,17,19,21,23,25,27,-1,-1,-1,-1,-1,-1,-1,-1,-1,-1,-1,-1,-1,-1],"loss_changes":[2.3035483E8,1.3621072E7,1.945497E8,2.8730012E6,7.831008E6,1.1542542E8,1.1778363E8,0E0,5.2484E4,2.105432E6,2.275376E6,1.5371336E7,1.1900218E8,2.9206752E7,5.7718984E7,0E0,0E0,0E0,0E0,0E0,0E0,0E0,0E0,0E0,0E0,0E0,0E0,0E0,0E0],"parents":[2147483647,0,0,1,1,2,2,3,3,4,4,5,5,6,6,8,8,9,9,10,10,11,11,12,12,13,13,14,14],"right_children":[2,4,6,8,10,12,14,-1,16,18,20,22,24,26,28,-1,-1,-1,-1,-1,-1,-1,-1,-1,-1,-1,-1,-1,-1],"split_conditions":[2.1E1,1.2E1,3E0,7E0,1.0102E3,4.5E1,8E0,1.319867E0,1E1,3.51E1,1.5E1,1.1E1,1.0129E3,3.9E1,2.1E1,-4.594023E0,-3.6873577E0,-7.8264666E0,-4.9268456E0,-1.0773959E1,-8.541552E0,-5.7602034E0,-1.6659704E1,9.47964E0,2.2580202E0,-1.2266054E0,-1.2361323E1,1.9358591E1,-9.63291E-1],"split_indices":[8,0,18,0,14,4,3,0,0,7,0,3,14,7,1,0,0,0,0,0,0,0,0,0,0,0,0,0,0],"split_type":[0,0,0,0,0,0,0,0,0,0,0,0,0,0,0,0,0,0,0,0,0,0,0,0,0,0,0,0,0],"sum_hessian":[4.906E4,8.339E3,4.0721E4,1.08E3,7.259E3,2.5522E4,1.5199E4,3.6E2,7.2E2,2.592E3,4.667E3,1.542E3,2.398E4,3.96E3,1.1239E4,3.6E2,3.6E2,1.08E3,1.512E3,2.147E3,2.52E3,1.08E3,4.62E2,9.351E3,1.4629E4,7.2E2,3.24E3,3.6E2,1.0879E4],"tree_param":{"num_deleted":"0","num_feature":"25","num_nodes":"29","size_leaf_vector":"1"}},{"base_weights":[7.8500845E-2,2.4558786E2,-1.7671751E1,3.5530164E2,1.6082173E2,-4.4776382E1,1.2557939E2,3.2557037E2,2.2167328E1,8.912544E1,2.0571042E2,-7.7239944E1,6.3315117E1,8.187153E1,2.0422206E2,1.7985348E1,1.5401343E1,6.2691774E0,2.6310227E0,1.2278159E1,5.907447E0,-4.480848E0,2.7843795E0,1.0304147E-1,2.5281803E1,7.9525886E0,2.9339857E0,-2.2300487E0,1.221157E1],"categories":[],"categories_nodes":[],"categories_segments":[],"categories_sizes":[],"default_left":[0,0,0,0,0,1,1,0,0,0,1,0,0,0,0,0,0,0,0,0,0,0,0,0,0,0,0,0,0],"id":45,"left_children":[1,3,5,7,9,11,13,15,-1,17,19,21,23,25,27,-1,-1,-1,-1,-1,-1,-1,-1,-1,-1,-1,-1,-1,-1],"loss_changes":[2.1380498E8,3.0707312E7,1.7765784E8,3.627744E6,5.993548E6,1.35015E8,2.500684E7,5.36592E5,0E0,9.477185E5,3.977008E6,4.868613E7,2.407838E8,8.369422E6,2.589452E7,0E0,0E0,0E0,0E0,0E0,0E0,0E0,0E0,0E0,0E0,0E0,0E0,0E0,0E0],"parents":[2147483647,0,0,1,1,2,2,3,3,4,4,5,5,6,6,7,7,9,9,10,10,11,11,12,12,13,13,14,14],"right_children":[2,4,6,8,10,12,14,16,-1,18,20,22,24,26,28,-1,-1,-1,-1,-1,-1,-1,-1,-1,-1,-1,-1,-1,-1],"split_conditions":[1.0019E3,4E0,1.0241E3,4.21E1,5E1,1.8E2,2E0,6E0,2.2167328E1,5E0,1.1E2,4.3E1,1E0,6E0,7.7E1,1.7985348E1,1.5401343E1,6.2691774E0,2.6310227E0,1.2278159E1,5.907447E0,-4.480848E0,2.7843795E0,1.0304147E-1,2.5281803E1,7.9525886E0,2.9339857E0,-2.2300487E0,1.221157E1],"split_indices":[14,22,14,7,4,4,24,0,0,0,4,8,20,0,11,0,0,0,0,0,0,0,0,0,0,0,0,0,0],"split_type":[0,0,0,0,0,0,0,0,0,0,0,0,0,0,0,0,0,0,0,0,0,0,0,0,0,0,0,0,0],"sum_hessian":[4.906E4,3.307E3,4.5753E4,1.44E3,1.867E3,3.8474E4,7.279E3,1.08E3,3.6E2,7.2E2,1.147E3,2.9588E4,8.886E3,4.68E3,2.599E3,3.6E2,7.2E2,3.6E2,3.6E2,7.87E2,3.6E2,2.7068E4,2.52E3,7.806E3,1.08E3,1.08E3,3.6E3,3.6E2,2.239E3],"tree_param":{"num_deleted":"0","num_feature":"25","num_nodes":"29","size_leaf_vector":"1"}},{"base_weights":[7.7167444E-2,-1.5868849E2,2.5744919E1,-7.431909E1,-1.6862163E2,7.5382614E1,-5.630543E1,-4.141537E0,-3.2800782E0,-2.0626842E2,-1.5300464E2,-1.6719196E2,9.048846E1,-1.9193907E2,-1.1380585E1,-9.875812E0,-1.2015892E1,-5.57429E0,-8.063757E0,-5.2486253E0,-1.5604958E1,7.653852E0,1.3580338E0,-9.416299E-1,-1.1519475E1,1.2645729E1,-1.4166512E0],"categories":[],"categories_nodes":[],"categories_segments":[],"categories_sizes":[],"default_left":[0,1,1,0,0,0,0,0,0,0,0,0,0,0,0,0,0,0,0,0,0,0,0,0,0,0,0],"id":46,"left_children":[1,3,5,7,9,11,13,-1,-1,15,17,19,21,23,25,-1,-1,-1,-1,-1,-1,-1,-1,-1,-1,-1,-1],"loss_changes":[1.999354E8,5.709696E6,1.7201445E8,4.8065E4,3.55952E6,9.644104E7,9.700349E7,0E0,0E0,4.85376E5,1.465768E6,1.3878996E7,9.818602E7,2.6360128E7,5.359332E7,0E0,0E0,0E0,0E0,0E0,0E0,0E0,0E0,0E0,0E0,0E0,0E0],"parents":[2147483647,0,0,1,1,2,2,3,3,4,4,5,5,6,6,9,9,10,10,11,11,12,12,13,13,14,14],"right_children":[2,4,6,8,10,12,14,-1,-1,16,18,20,22,24,26,-1,-1,-1,-1,-1,-1,-1,-1,-1,-1,-1,-1],"split_conditions":[1.99E1,1.2E1,3E0,1E1,1.4E1,4.5E1,8E0,-4.141537E0,-3.2800782E0,3E0,2.8E1,1.1E1,7E0,3.9E1,1.0005E3,-9.875812E0,-1.2015892E1,-5.57429E0,-8.063757E0,-5.2486253E0,-1.5604958E1,7.653852E0,1.3580338E0,-9.416299E-1,-1.1519475E1,1.2645729E1,-1.4166512E0],"split_indices":[8,0,18,0,0,4,3,0,0,18,1,3,22,7,14,0,0,0,0,0,0,0,0,0,0,0,0],"split_type":[0,0,0,0,0,0,0,0,0,0,0,0,0,0,0,0,0,0,0,0,0,0,0,0,0,0,0],"sum_hessian":[4.906E4,6.827E3,4.2233E4,7.2E2,6.107E3,2.6314E4,1.5919E4,3.6E2,3.6E2,1.787E3,4.32E3,1.542E3,2.4772E4,3.96E3,1.1959E4,1.427E3,3.6E2,7.2E2,3.6E3,1.08E3,4.62E2,1.2458E4,1.2314E4,7.2E2,3.24E3,7.2E2,1.1239E4],"tree_param":{"num_deleted":"0","num_feature":"25","num_nodes":"27","size_leaf_vector":"1"}},{"base_weights":[7.217295E-2,-1.3445813E2,2.7624422E1,-3.9778248E1,-1.4853726E2,1.2031524E2,-1.5532879E1,1.0958433E0,-7.061342E1,-1.1925901E2,-1.7846773E2,6.158939E2,4.0162823E1,2.1281616E2,-5.025939E1,-3.9350338E0,-3.1165283E0,-7.033001E0,-4.4306693E0,-1.0292557E1,-8.339809E0,7.264848E1,2.0288094E1,-6.805096E-1,6.2494106E0,1.6433973E1,6.889197E0,-3.7918813E0,5.500245E0],"categories":[],"categories_nodes":[],"categories_segments":[],"categories_sizes":[],"default_left":[0,1,1,0,0,0,0,0,0,0,0,0,0,0,0,0,0,0,0,0,0,0,0,0,0,0,0,0,0],"id":47,"left_children":[1,3,5,7,9,11,13,-1,15,17,19,21,23,25,27,-1,-1,-1,-1,-1,-1,-1,-1,-1,-1,-1,-1,-1,-1],"loss_changes":[1.8185382E8,1.1111408E7,1.6290149E8,2.0580198E6,6.340736E6,5.1385654E8,2.2034718E8,0E0,4.339125E4,2.39646E6,1.112416E6,3.1619987E8,5.080108E7,3.18424E7,9.88788E7,0E0,0E0,0E0,0E0,0E0,0E0,0E0,0E0,0E0,0E0,0E0,0E0,0E0,0E0],"parents":[2147483647,0,0,1,1,2,2,3,3,4,4,5,5,6,6,8,8,9,9,10,10,11,11,12,12,13,13,14,14],"right_children":[2,4,6,8,10,12,14,-1,16,18,20,22,24,26,28,-1,-1,-1,-1,-1,-1,-1,-1,-1,-1,-1,-1,-1,-1],"split_conditions":[2.1E1,1.2E1,3.09E1,7E0,1.0139E3,1.0123E3,1.0021E3,1.0958433E0,1E1,3.51E1,2.4E1,1E1,4E1,4E0,1.0241E3,-3.9350338E0,-3.1165283E0,-7.033001E0,-4.4306693E0,-1.0292557E1,-8.339809E0,7.264848E1,2.0288094E1,-6.805096E-1,6.2494106E0,1.6433973E1,6.889197E0,-3.7918813E0,5.500245E0],"split_indices":[8,0,8,0,14,14,14,0,0,7,1,0,12,22,14,0,0,0,0,0,0,0,0,0,0,0,0,0,0],"split_type":[0,0,0,0,0,0,0,0,0,0,0,0,0,0,0,0,0,0,0,0,0,0,0,0,0,0,0,0,0],"sum_hessian":[4.906E4,8.339E3,4.0721E4,1.08E3,7.259E3,1.2936E4,2.7785E4,3.6E2,7.2E2,3.672E3,3.587E3,1.8E3,1.1136E4,3.667E3,2.4118E4,3.6E2,3.6E2,2.16E3,1.512E3,1.067E3,2.52E3,3.6E2,1.44E3,6.816E3,4.32E3,1.44E3,2.227E3,2.0799E4,3.319E3],"tree_param":{"num_deleted":"0","num_feature":"25","num_nodes":"29","size_leaf_vector":"1"}},{"base_weights":[7.0342354E-2,-1.27739555E2,2.624623E1,-3.7794846E1,-1.4111455E2,1.143071E2,-1.47553425E1,1.0412039E0,-6.709254E1,-1.1329919E2,-1.6954953E2,5.851508E2,3.815518E1,2.021817E2,-4.7746357E1,-3.7388275E0,-2.961134E0,-6.6815143E0,-4.209283E0,-9.778411E0,-7.9229846E0,5.39854E1,1.2737611E1,-6.464896E-1,5.937013E0,1.5612839E1,6.5448937E0,-3.6022966E0,5.2253156E0],"categories":[],"categories_nodes":[],"categories_segments":[],"categories_sizes":[],"default_left":[0,1,1,0,0,0,0,0,0,0,0,0,0,0,0,0,0,0,0,0,0,0,0,0,0,0,0,0,0],"id":48,"left_children":[1,3,5,7,9,11,13,-1,15,17,19,21,23,25,27,-1,-1,-1,-1,-1,-1,-1,-1,-1,-1,-1,-1,-1,-1],"loss_changes":[1.6413875E8,1.0027792E7,1.4703392E8,1.8579055E6,5.722928E6,4.6384224E8,1.9887331E8,0E0,3.917175E4,2.162832E6,1.004312E6,2.940101E8,4.584908E7,2.8740352E7,8.9239976E7,0E0,0E0,0E0,0E0,0E0,0E0,0E0,0E0,0E0,0E0,0E0,0E0,0E0,0E0],"parents":[2147483647,0,0,1,1,2,2,3,3,4,4,5,5,6,6,8,8,9,9,10,10,11,11,12,12,13,13,14,14],"right_children":[2,4,6,8,10,12,14,-1,16,18,20,22,24,26,28,-1,-1,-1,-1,-1,-1,-1,-1,-1,-1,-1,-1,-1,-1],"split_conditions":[2.1E1,1.2E1,3.09E1,7E0,1.0139E3,1.0123E3,1.0021E3,1.0412039E0,1E1,3.51E1,2.4E1,1.3E1,4E1,4E0,1.0241E3,-3.7388275E0,-2.961134E0,-6.6815143E0,-4.209283E0,-9.778411E0,-7.9229846E0,5.39854E1,1.2737611E1,-6.464896E-1,5.937013E0,1.5612839E1,6.5448937E0,-3.6022966E0,5.2253156E0],"split_indices":[8,0,8,0,14,14,14,0,0,7,1,0,12,22,14,0,0,0,0,0,0,0,0,0,0,0,0,0,0],"split_type":[0,0,0,0,0,0,0,0,0,0,0,0,0,0,0,0,0,0,0,0,0,0,0,0,0,0,0,0,0],"sum_hessian":[4.906E4,8.339E3,4.0721E4,1.08E3,7.259E3,1.2936E4,2.7785E4,3.6E2,7.2E2,3.672E3,3.587E3,1.8E3,1.1136E4,3.667E3,2.4118E4,3.6E2,3.6E2,2.16E3,1.512E3,1.067E3,2.52E3,7.2E2,1.08E3,6.816E3,4.32E3,1.44E3,2.227E3,2.0799E4,3.319E3],"tree_param":{"num_deleted":"0","num_feature":"25","num_nodes":"29","size_leaf_vector":"1"}},{"base_weights":[6.807711E-2,-1.2135668E2,2.4936266E1,-3.591034E1,-1.3406276E2,1.08597305E2,-1.4016725E1,9.8928803E-1,-6.3747208E1,-1.0763719E2,-1.61077E2,5.5593036E2,3.62479E1,1.9207866E2,-4.535898E1,-3.5524037E0,-2.813488E0,-6.347593E0,-3.9989572E0,-8.723157E0,-7.050571E0,6.6334335E1,1.8122715E1,-6.1417013E-1,5.6402316E0,1.4832741E1,6.2177944E0,-4.4826045E0,1.7023853E0],"categories":[],"categories_nodes":[],"categories_segments":[],"categories_sizes":[],"default_left":[0,1,1,0,0,0,0,0,0,0,0,0,0,0,0,0,0,0,0,0,0,0,0,0,0,0,0,0,0],"id":49,"left_children":[1,3,5,7,9,11,13,-1,15,17,19,21,23,25,27,-1,-1,-1,-1,-1,-1,-1,-1,-1,-1,-1,-1,-1,-1],"loss_changes":[1.481483E8,9.049824E6,1.327083E8,1.6772491E6,5.165336E6,4.1867654E8,1.794922E8,0E0,3.536275E4,1.951988E6,9.39136E5,2.6808947E8,4.1379772E7,2.5940592E7,8.483364E7,0E0,0E0,0E0,0E0,0E0,0E0,0E0,0E0,0E0,0E0,0E0,0E0,0E0,0E0],"parents":[2147483647,0,0,1,1,2,2,3,3,4,4,5,5,6,6,8,8,9,9,10,10,11,11,12,12,13,13,14,14],"right_children":[2,4,6,8,10,12,14,-1,16,18,20,22,24,26,28,-1,-1,-1,-1,-1,-1,-1,-1,-1,-1,-1,-1,-1,-1],"split_conditions":[2.1E1,1.2E1,3.09E1,7E0,1.0139E3,1.0123E3,1.0021E3,9.8928803E-1,1E1,3.51E1,1.5E1,1E1,4E1,4E0,4E1,-3.5524037E0,-2.813488E0,-6.347593E0,-3.9989572E0,-8.723157E0,-7.050571E0,6.6334335E1,1.8122715E1,-6.1417013E-1,5.6402316E0,1.4832741E1,6.2177944E0,-4.4826045E0,1.7023853E0],"split_indices":[8,0,8,0,14,14,14,0,0,7,0,0,12,22,12,0,0,0,0,0,0,0,0,0,0,0,0,0,0],"split_type":[0,0,0,0,0,0,0,0,0,0,0,0,0,0,0,0,0,0,0,0,0,0,0,0,0,0,0,0,0],"sum_hessian":[4.906E4,8.339E3,4.0721E4,1.08E3,7.259E3,1.2936E4,2.7785E4,3.6E2,7.2E2,3.672E3,3.587E3,1.8E3,1.1136E4,3.667E3,2.4118E4,3.6E2,3.6E2,2.16E3,1.512E3,2.147E3,1.44E3,3.6E2,1.44E3,6.816E3,4.32E3,1.44E3,2.227E3,1.5482E4,8.636E3],"tree_param":{"num_deleted":"0","num_feature":"25","num_nodes":"29","size_leaf_vector":"1"}},{"base_weights":[6.622198E-2,-1.15292625E2,2.3692093E1,-3.4119793E1,-1.2736322E2,9.232944E1,-1.9547853E1,9.399622E-1,-6.0568687E1,-1.0225814E2,-1.5302754E2,3.629673E2,3.1687088E1,1.9309708E2,-5.1997448E1,-3.3752759E0,-2.673204E0,-6.0303597E0,-3.7991414E0,-8.854199E0,-7.1387773E0,6.3026806E1,1.17147E1,-1.6258262E0,6.563291E0,1.409162E1,6.2271047E0,-4.982591E0,1.6271557E0],"categories":[],"categories_nodes":[],"categories_segments":[],"categories_sizes":[],"default_left":[0,1,1,0,0,0,0,0,0,0,0,0,0,0,0,0,0,0,0,0,0,0,0,0,0,0,0,0,0],"id":50,"left_children":[1,3,5,7,9,11,13,-1,15,17,19,21,23,25,27,-1,-1,-1,-1,-1,-1,-1,-1,-1,-1,-1,-1,-1,-1],"loss_changes":[1.3371619E8,8.167216E6,1.2085961E8,1.5141601E6,4.662008E6,2.5829877E8,1.7240568E8,0E0,3.192425E4,1.761688E6,8.59616E5,3.3244035E8,8.221589E7,2.008828E7,8.733397E7,0E0,0E0,0E0,0E0,0E0,0E0,0E0,0E0,0E0,0E0,0E0,0E0,0E0,0E0],"parents":[2147483647,0,0,1,1,2,2,3,3,4,4,5,5,6,6,8,8,9,9,10,10,11,11,12,12,13,13,14,14],"right_children":[2,4,6,8,10,12,14,-1,16,18,20,22,24,26,28,-1,-1,-1,-1,-1,-1,-1,-1,-1,-1,-1,-1,-1,-1],"split_conditions":[2.1E1,1.2E1,3.2E1,7E0,1.0139E3,1.0129E3,1.0019E3,9.399622E-1,1E1,3.51E1,2.4E1,1E1,7.7E1,4E0,4.6E1,-3.3752759E0,-2.673204E0,-6.0303597E0,-3.7991414E0,-8.854199E0,-7.1387773E0,6.3026806E1,1.17147E1,-1.6258262E0,6.563291E0,1.409162E1,6.2271047E0,-4.982591E0,1.6271557E0],"split_indices":[8,0,8,0,14,14,14,0,0,7,1,0,11,22,7,0,0,0,0,0,0,0,0,0,0,0,0,0,0],"split_type":[0,0,0,0,0,0,0,0,0,0,0,0,0,0,0,0,0,0,0,0,0,0,0,0,0,0,0,0,0],"sum_hessian":[4.906E4,8.339E3,4.0721E4,1.08E3,7.259E3,1.5738E4,2.4983E4,3.6E2,7.2E2,3.672E3,3.587E3,2.88E3,1.2858E4,3.307E3,2.1676E4,3.6E2,3.6E2,2.16E3,1.512E3,1.067E3,2.52E3,3.6E2,2.52E3,7.818E3,5.04E3,1.44E3,1.867E3,1.3862E4,7.814E3],"tree_param":{"num_deleted":"0","num_feature":"25","num_nodes":"29","size_leaf_vector":"1"}},{"base_weights":[6.4260386E-2,-1.095317E2,2.2509874E1,-3.2418518E1,-1.2099862E2,9.863816E1,-1.2935825E1,8.930953E-1,-5.7548634E1,-9.714791E1,-1.4538063E2,5.0621582E2,3.2718616E1,1.7262903E2,-4.1155857E1,-3.2069795E0,-2.5399132E0,-5.728981E0,-3.6093102E0,-7.012857E0,-9.539561E0,4.7315437E1,1.0610828E1,2.369734E0,-8.968317E0,1.3387529E1,5.551498E0,-3.2075276E0,5.1459827E0],"categories":[],"categories_nodes":[],"categories_segments":[],"categories_sizes":[],"default_left":[0,1,1,0,0,0,0,0,0,0,0,0,1,0,0,0,0,0,0,0,0,0,0,0,0,0,0,0,0],"id":51,"left_children":[1,3,5,7,9,11,13,-1,15,17,19,21,23,25,27,-1,-1,-1,-1,-1,-1,-1,-1,-1,-1,-1,-1,-1,-1],"loss_changes":[1.2069001E8,7.370728E6,1.0988635E8,1.3669286E6,4.207768E6,3.4756614E8,1.4551258E8,0E0,2.882E4,1.589944E6,8.08032E5,2.3282506E8,3.467321E7,2.1462544E7,7.991216E7,0E0,0E0,0E0,0E0,0E0,0E0,0E0,0E0,0E0,0E0,0E0,0E0,0E0,0E0],"parents":[2147483647,0,0,1,1,2,2,3,3,4,4,5,5,6,6,8,8,9,9,10,10,11,11,12,12,13,13,14,14],"right_children":[2,4,6,8,10,12,14,-1,16,18,20,22,24,26,28,-1,-1,-1,-1,-1,-1,-1,-1,-1,-1,-1,-1,-1,-1],"split_conditions":[2.1E1,1.2E1,3.09E1,7E0,1.0139E3,1.0123E3,1.0021E3,8.930953E-1,1E1,3.51E1,3E0,1.3E1,1.1E1,4E0,1.0241E3,-3.2069795E0,-2.5399132E0,-5.728981E0,-3.6093102E0,-7.012857E0,-9.539561E0,4.7315437E1,1.0610828E1,2.369734E0,-8.968317E0,1.3387529E1,5.551498E0,-3.2075276E0,5.1459827E0],"split_indices":[8,0,8,0,14,14,14,0,0,7,18,0,24,22,14,0,0,0,0,0,0,0,0,0,0,0,0,0,0],"split_type":[0,0,0,0,0,0,0,0,0,0,0,0,0,0,0,0,0,0,0,0,0,0,0,0,0,0,0,0,0],"sum_hessian":[4.906E4,8.339E3,4.0721E4,1.08E3,7.259E3,1.2936E4,2.7785E4,3.6E2,7.2E2,3.672E3,3.587E3,1.8E3,1.1136E4,3.667E3,2.4118E4,3.6E2,3.6E2,2.16E3,1.512E3,3.227E3,3.6E2,7.2E2,1.08E3,1.0416E4,7.2E2,1.44E3,2.227E3,2.0799E4,3.319E3],"tree_param":{"num_deleted":"0","num_feature":"25","num_nodes":"29","size_leaf_vector":"1"}},{"base_weights":[6.188444E-2,1.8682152E2,-1.1877385E1,4.565152E1,2.324215E2,-3.1869635E1,9.477247E1,4.007789E0,5.510399E-1,2.1161235E2,1.6972748E1,-5.5232296E1,4.6865623E1,5.5569572E1,1.653163E2,1.2999306E1,9.994591E0,-3.3024285E0,3.1236434E0,-1.7238821E1,5.0572824E0,6.416889E0,1.6854765E0,-2.9872897E0,1.0075684E1],"categories":[],"categories_nodes":[],"categories_segments":[],"categories_sizes":[],"default_left":[0,0,0,0,0,1,1,0,0,0,0,0,0,0,0,0,0,0,0,0,0,0,0,0,0],"id":52,"left_children":[1,3,5,7,9,11,13,-1,-1,15,-1,17,19,21,23,-1,-1,-1,-1,-1,-1,-1,-1,-1,-1],"loss_changes":[1.09397144E8,1.8966696E7,9.832594E7,8.606449E5,4.890536E6,7.143822E7,2.012382E7,0E0,0E0,1.007128E6,0E0,3.813312E7,1.8895771E8,7.441816E6,2.1193336E7,0E0,0E0,0E0,0E0,0E0,0E0,0E0,0E0,0E0,0E0],"parents":[2147483647,0,0,1,1,2,2,3,3,4,4,5,5,6,6,9,9,11,11,12,12,13,13,14,14],"right_children":[2,4,6,8,10,12,14,-1,-1,16,-1,18,20,22,24,-1,-1,-1,-1,-1,-1,-1,-1,-1,-1],"split_conditions":[1.0008E3,5E1,1.0241E3,5E0,4.3E1,1.8E2,2E0,4.007789E0,5.510399E-1,5.5E1,1.6972748E1,4.3E1,1.0045E3,6E0,7.7E1,1.2999306E1,9.994591E0,-3.3024285E0,3.1236434E0,-1.7238821E1,5.0572824E0,6.416889E0,1.6854765E0,-2.9872897E0,1.0075684E1],"split_indices":[14,4,14,0,7,4,24,0,0,4,0,8,14,0,11,0,0,0,0,0,0,0,0,0,0],"split_type":[0,0,0,0,0,0,0,0,0,0,0,0,0,0,0,0,0,0,0,0,0,0,0,0,0],"sum_hessian":[4.906E4,2.947E3,4.6113E4,7.2E2,2.227E3,3.8834E4,7.279E3,3.6E2,3.6E2,1.867E3,3.6E2,2.9948E4,8.886E3,4.68E3,2.599E3,3.6E2,1.507E3,2.7428E4,2.52E3,1.081E3,7.805E3,1.08E3,3.6E3,3.6E2,2.239E3],"tree_param":{"num_deleted":"0","num_feature":"25","num_nodes":"25","size_leaf_vector":"1"}},{"base_weights":[5.9749547E-2,-1.16533585E2,1.8909473E1,-1.2862212E2,-7.125288E1,5.510851E1,-4.092699E1,-1.547955E2,-1.15590546E2,-5.963782E1,-5.2918153E0,-1.387866E2,6.718315E1,-1.5898186E2,-1.8253013E0,-7.4412417E0,-8.899241E0,-3.9039574E0,-6.246902E0,-2.5690665E0,-3.798137E0,-3.9220395E0,-1.3969034E1,6.3036795E0,1.4370388E0,2.7223143E-1,-9.775574E0,1.7313831E1,-6.329158E-1],"categories":[],"categories_nodes":[],"categories_segments":[],"categories_sizes":[],"default_left":[0,0,1,0,1,0,0,0,0,1,0,0,0,0,0,0,0,0,0,0,0,0,0,0,0,0,0,0,0],"id":53,"left_children":[1,3,5,7,9,11,13,15,17,19,-1,21,23,25,27,-1,-1,-1,-1,-1,-1,-1,-1,-1,-1,-1,-1,-1,-1],"loss_changes":[1.0782612E8,3.728328E6,9.148204E7,1.819848E6,5.725215E5,6.161835E7,7.348874E7,2.21072E5,1.252892E6,1.418015E5,0E0,1.3069306E7,5.6079696E7,2.3792568E7,4.5105464E7,0E0,0E0,0E0,0E0,0E0,0E0,0E0,0E0,0E0,0E0,0E0,0E0,0E0,0E0],"parents":[2147483647,0,0,1,1,2,2,3,3,4,4,5,5,6,6,7,7,8,8,9,9,11,11,12,12,13,13,14,14],"right_children":[2,4,6,8,10,12,14,16,18,20,-1,22,24,26,28,-1,-1,-1,-1,-1,-1,-1,-1,-1,-1,-1,-1,-1,-1],"split_conditions":[1.99E1,3.7E1,3E0,1.4E1,3.8E1,4.5E1,8E0,3E0,2.8E1,2.4E1,-5.2918153E0,1.1E1,1.0129E3,3.9E1,2.1E1,-7.4412417E0,-8.899241E0,-3.9039574E0,-6.246902E0,-2.5690665E0,-3.798137E0,-3.9220395E0,-1.3969034E1,6.3036795E0,1.4370388E0,2.7223143E-1,-9.775574E0,1.7313831E1,-6.329158E-1],"split_indices":[8,1,18,0,1,4,3,18,1,0,0,3,14,7,1,0,0,0,0,0,0,0,0,0,0,0,0,0,0],"split_type":[0,0,0,0,0,0,0,0,0,0,0,0,0,0,0,0,0,0,0,0,0,0,0,0,0,0,0,0,0],"sum_hessian":[4.906E4,6.827E3,4.2233E4,5.387E3,1.44E3,2.6314E4,1.5919E4,1.787E3,3.6E3,1.08E3,3.6E2,1.542E3,2.4772E4,3.96E3,1.1959E4,1.427E3,3.6E2,7.2E2,2.88E3,7.2E2,3.6E2,1.08E3,4.62E2,9.783E3,1.4989E4,7.2E2,3.24E3,3.6E2,1.1599E4],"tree_param":{"num_deleted":"0","num_feature":"25","num_nodes":"29","size_leaf_vector":"1"}},{"base_weights":[5.592997E-2,-9.885088E1,2.031237E1,-2.6270138E1,-1.096444E2,9.019182E1,-1.2223826E1,9.415782E-1,-4.881583E1,-8.7524925E1,-1.3225732E2,4.695825E2,2.8831238E1,1.5221521E2,-3.7231087E1,-2.754314E0,-2.120508E0,-5.093803E0,-3.3484757E0,-7.1055145E0,-5.463769E0,4.4385685E1,9.513252E0,2.1209137E0,-8.375704E0,1.1866216E1,4.8550506E0,-3.8288612E0,1.6653267E0],"categories":[],"categories_nodes":[],"categories_segments":[],"categories_sizes":[],"default_left":[0,1,1,0,0,0,0,0,0,0,0,0,1,0,0,0,0,0,0,0,0,0,0,0,0,0,0,0,0],"id":54,"left_children":[1,3,5,7,9,11,13,-1,15,17,19,21,23,25,27,-1,-1,-1,-1,-1,-1,-1,-1,-1,-1,-1,-1,-1,-1],"loss_changes":[9.829571E7,6.530688E6,9.258712E7,1.100133E6,3.619776E6,3.0115507E8,1.14266424E8,0E0,2.662375E4,1.07669E6,7.9694E5,2.1017235E8,2.9717844E7,1.7182512E7,6.694201E7,0E0,0E0,0E0,0E0,0E0,0E0,0E0,0E0,0E0,0E0,0E0,0E0,0E0,0E0],"parents":[2147483647,0,0,1,1,2,2,3,3,4,4,5,5,6,6,8,8,9,9,10,10,11,11,12,12,13,13,14,14],"right_children":[2,4,6,8,10,12,14,-1,16,18,20,22,24,26,28,-1,-1,-1,-1,-1,-1,-1,-1,-1,-1,-1,-1,-1,-1],"split_conditions":[2.1E1,1.2E1,3.09E1,7E0,1.0139E3,1.0123E3,1.0021E3,9.415782E-1,1E1,2E0,1.6E1,1.3E1,1.1E1,4E0,4E1,-2.754314E0,-2.120508E0,-5.093803E0,-3.3484757E0,-7.1055145E0,-5.463769E0,4.4385685E1,9.513252E0,2.1209137E0,-8.375704E0,1.1866216E1,