{"learner":{"attributes":{"scikit_learn":"{\"_estimator_type\": \"regressor\"}"},"feature_names":["Prevailing Wind Magnitude (MPH)_current","Gust Wind Magnitude (MPH)_current","Vis (MI)_current","Cloud Height 1 (100s of ft)_current","Cloud Height 2 (100s of ft)_current","Cloud Height 3 (100s of ft)_current","Cloud Height 4 (100s of ft)_current","Air Temp (F)_current","Dewpoint (F)_current","6hr Max (F)_current","6hr Min (F)_current","Rel Hum_current","Wind Chill (F)_current","Heat Index (F)_current","Sea Level Pressure (MB)_current","Precip 1hr_current","Precip 3hr_current","Precip 6hr_current","cloud_code_1_current","cloud_code_2_current","cloud_code_3_current","cloud_code_4_current","prevailing_wind_dir_code_current","gust_wind_dir_code_current","weather_code_current","Prevailing Wind Magnitude (MPH)_h1","Gust Wind Magnitude (MPH)_h1","Vis (MI)_h1","Cloud Height 1 (100s of ft)_h1","Cloud Height 2 (100s of ft)_h1","Cloud Height 3 (100s of ft)_h1","Cloud Height 4 (100s of ft)_h1","Air Temp (F)_h1","Dewpoint (F)_h1","6hr Max (F)_h1","6hr Min (F)_h1","Rel Hum_h1","Wind Chill (F)_h1","Heat Index (F)_h1","Sea Level Pressure (MB)_h1","Precip 1hr_h1","Precip 3hr_h1","Precip 6hr_h1","cloud_code_1_h1","cloud_code_2_h1","cloud_code_3_h1","cloud_code_4_h1","prevailing_wind_dir_code_h1","gust_wind_dir_code_h1","weather_code_h1","Prevailing Wind Magnitude (MPH)_h2","Gust Wind Magnitude (MPH)_h2","Vis (MI)_h2","Cloud Height 1 (100s of ft)_h2","Cloud Height 2 (100s of ft)_h2","Cloud Height 3 (100s of ft)_h2","Cloud Height 4 (100s of ft)_h2","Air Temp (F)_h2","Dewpoint (F)_h2","6hr Max (F)_h2","6hr Min (F)_h2","Rel Hum_h2","Wind Chill (F)_h2","Heat Index (F)_h2","Sea Level Pressure (MB)_h2","Precip 1hr_h2","Precip 3hr_h2","Precip 6hr_h2","cloud_code_1_h2","cloud_code_2_h2","cloud_code_3_h2","cloud_code_4_h2","prevailing_wind_dir_code_h2","gust_wind_dir_code_h2","weather_code_h2","Prevailing Wind Magnitude (MPH)_h3","Gust Wind Magnitude (MPH)_h3","Vis (MI)_h3","Cloud Height 1 (100s of ft)_h3","Cloud Height 2 (100s of ft)_h3","Cloud Height 3 (100s of ft)_h3","Cloud Height 4 (100s of ft)_h3","Air Temp (F)_h3","Dewpoint (F)_h3","6hr Max (F)_h3","6hr Min (F)_h3","Rel Hum_h3","Wind Chill (F)_h3","Heat Index (F)_h3","Sea Level Pressure (MB)_h3","Precip 1hr_h3","Precip 3hr_h3","Precip 6hr_h3","cloud_code_1_h3","cloud_code_2_h3","cloud_code_3_h3","cloud_code_4_h3","prevailing_wind_dir_code_h3","gust_wind_dir_code_h3","weather_code_h3","Prevailing Wind Magnitude (MPH)_h4","Gust Wind Magnitude (MPH)_h4","Vis (MI)_h4","Cloud Height 1 (100s of ft)_h4","Cloud Height 2 (100s of ft)_h4","Cloud Height 3 (100s of ft)_h4","Cloud Height 4 (100s of ft)_h4","Air Temp (F)_h4","Dewpoint (F)_h4","6hr Max (F)_h4","6hr Min (F)_h4","Rel Hum_h4","Wind Chill (F)_h4","Heat Index (F)_h4","Sea Level Pressure (MB)_h4","Precip 1hr_h4","Precip 3hr_h4","Precip 6hr_h4","cloud_code_1_h4","cloud_code_2_h4","cloud_code_3_h4","cloud_code_4_h4","prevailing_wind_dir_code_h4","gust_wind_dir_code_h4","weather_code_h4"],"feature_types":["float","float","float","float","float","float","float","float","float","float","float","float","float","float","float","float","float","float","float","float","float","float","float","float","float","float","float","float","float","float","float","float","float","float","float","float","float","float","float","float","float","float","float","float","float","float","float","float","float","float","float","float","float","float","float","float","float","float","float","float","float","float","float","float","float","float","float","float","float","float","float","float","float","float","float","float","float","float","float","float","float","float","float","float","float","float","float","float","float","float","float","float","float","float","float","float","float","float","float","float","float","float","float","float","float","float","float","float","float","float","float","float","float","float","float","float","float","float","float","float","float","float","float","float","float"],"gradient_booster":{"model":{"cats":{"enc":[],"feature_segments":[],"sorted_idx":[]},"gbtree_model_param":{"num_parallel_tree":"1","num_trees":"25"},"iteration_indptr":[0,1,2,3,4,5,6,7,8,9,10,11,12,13,14,15,16,17,18,19,20,21,22,23,24,25],"tree_info":[0,0,0,0,0,0,0,0,0,0,0,0,0,0,0,0,0,0,0,0,0,0,0,0,0],"trees":[{"base_weights":[4.452138E-5,5.601267E2,-5.434055E2,1.7713926E3,1.8050499E2,-8.9194196E2,-2.2164893E2,2.2111917E3,5.2464526E2,3.7047006E2,-6.3364545E2,-5.1195813E2,-9.306805E2,-9.515498E2,-6.7663605E1,3.6540344E2,2.6064883E3,1.6530329E1,2.981752E2,-4.2339966E1,6.9065106E2,-6.5907733E2,9.386561E0,-2.6217657E2,-6.295589E2,-7.4838574E2,-9.5443304E2,-6.7930064E0,-9.853333E2,1.7029495E1,-1.1026049E2,1.0053256E1,-9.136804E0,2.841877E1,2.0162897E1,4.9937186E0,1.6370623E0,-1.8702905E0,1.8915024E0,5.8440213E0,1.7699963E1,-7.708639E0,-4.431585E0,-2.5283349E0,-2.8277707E0,-6.869422E0,-5.132074E0,-8.401306E0,-7.248824E0,-6.407912E0,-9.627971E0,-1.00642805E1,-9.20741E0,-2.100767E-1,-5.0081E0],"categories":[],"categories_nodes":[],"categories_segments":[],"categories_sizes":[],"default_left":[1,0,0,0,0,0,0,0,0,0,0,0,0,0,0,0,0,0,0,0,1,0,0,0,1,0,0,0,0,0,0,0,0,0,0,0,0,0,0,0,0,0,0,0,0,0,0,0,0,0,0,0,0,0,0],"id":0,"left_children":[1,3,5,7,9,11,13,15,17,19,21,23,25,27,29,31,33,-1,35,37,39,41,-1,43,45,47,49,-1,51,-1,53,-1,-1,-1,-1,-1,-1,-1,-1,-1,-1,-1,-1,-1,-1,-1,-1,-1,-1,-1,-1,-1,-1,-1,-1],"loss_changes":[2.1453636E10,1.5959213E10,4.011862E9,4.5400105E9,4.0874383E9,2.5231053E8,2.0909137E9,4.4658647E9,5.51742E8,2.832252E9,2.005522E8,4.656979E7,6.6758656E7,2.9139968E7,1.1589807E9,8.857323E8,6.947369E8,0E0,4.864379E7,3.135737E8,1.3829146E9,1.1843571E8,0E0,2.6856E4,6.864928E6,3.274496E6,3.554099E7,0E0,2.99904E6,0E0,5.2299366E8,0E0,0E0,0E0,0E0,0E0,0E0,0E0,0E0,0E0,0E0,0E0,0E0,0E0,0E0,0E0,0E0,0E0,0E0,0E0,0E0,0E0,0E0,0E0,0E0],"parents":[2147483647,0,0,1,1,2,2,3,3,4,4,5,5,6,6,7,7,8,8,9,9,10,10,11,11,12,12,13,13,14,14,15,15,16,16,18,18,19,19,20,20,21,21,23,23,24,24,25,25,26,26,28,28,30,30],"right_children":[2,4,6,8,10,12,14,16,18,20,22,24,26,28,30,32,34,-1,36,38,40,42,-1,44,46,48,50,-1,52,-1,54,-1,-1,-1,-1,-1,-1,-1,-1,-1,-1,-1,-1,-1,-1,-1,-1,-1,-1,-1,-1,-1,-1,-1,-1],"split_conditions":[1.2E1,1.0028E3,2.1E1,4.6E1,3.51E1,8E0,5E0,3.7E1,2.8E1,2.5E1,1.023E3,2.3E2,1.6E2,3.9E1,4E-2,7E0,1.2E2,1.6530329E1,1.0014E3,2.19E1,1.7E1,1E0,9.386561E0,7E0,9E0,1E1,8E0,-6.7930064E0,1.0074E3,1.7029495E1,1.0174E3,1.0053256E1,-9.136804E0,2.841877E1,2.0162897E1,4.9937186E0,1.6370623E0,-1.8702905E0,1.8915024E0,5.8440213E0,1.7699963E1,-7.708639E0,-4.431585E0,-2.5283349E0,-2.8277707E0,-6.869422E0,-5.132074E0,-8.401306E0,-7.248824E0,-6.407912E0,-9.627971E0,-1.00642805E1,-9.20741E0,-2.100767E-1,-5.0081E0],"split_indices":[100,114,8,57,8,22,22,62,1,108,14,4,79,7,67,0,104,0,14,8,0,69,0,0,0,0,47,0,14,0,114,0,0,0,0,0,0,0,0,0,0,0,0,0,0,0,0,0,0,0,0,0,0,0,0],"split_type":[0,0,0,0,0,0,0,0,0,0,0,0,0,0,0,0,0,0,0,0,0,0,0,0,0,0,0,0,0,0,0,0,0,0,0,0,0,0,0,0,0,0,0,0,0,0,0,0,0,0,0,0,0,0,0],"sum_hessian":[7.0482E4,3.4707E4,3.5775E4,8.281E3,2.6426E4,1.7172E4,1.8603E4,6.121E3,2.16E3,2.1427E4,4.999E3,1.59E3,1.5582E4,3.24E3,1.5363E4,1.08E3,5.041E3,3.6E2,1.8E3,9.36E3,1.2067E4,4.92E3,7.9E1,5.1E2,1.08E3,1.8E3,1.3782E4,3.6E2,2.88E3,3.6E2,1.5003E4,7.2E2,3.6E2,3.601E3,1.44E3,7.2E2,1.08E3,5.76E3,3.6E3,1.0987E4,1.08E3,3.24E3,1.68E3,3.6E2,1.5E2,7.2E2,3.6E2,3.6E2,1.44E3,3.6E2,1.3422E4,2.16E3,7.2E2,1.2213E4,2.79E3],"tree_param":{"num_deleted":"0","num_feature":"125","num_nodes":"55","size_leaf_vector":"1"}},{"base_weights":[4.616453E-4,5.5452814E2,-5.3797327E2,1.7536874E3,1.7870073E2,-8.830254E2,-2.194332E2,2.1890876E3,5.1940955E2,3.6676645E2,-6.273095E2,-5.068495E2,-9.2137573E2,-9.420423E2,-6.6986206E1,3.617503E2,2.5804329E3,1.6365484E1,2.951971E2,-4.1916584E1,6.837465E2,-6.52489E2,9.293869E0,-2.595653E2,-6.232744E2,-7.409106E2,-9.4488995E2,-6.7252645E0,-9.7548663E2,1.6859673E1,-1.0915824E2,9.952863E0,-9.045689E0,2.8134657E1,1.9961409E1,4.9438505E0,1.6207066E0,-1.8515913E0,1.8725927E0,5.7855864E0,1.7523127E1,-7.631577E0,-4.387295E0,-2.5031219E0,-2.7996805E0,-6.800823E0,-5.080895E0,-8.317525E0,-7.1763864E0,-6.34401E0,-9.531698E0,-9.890732E0,-8.779044E0,-2.0797604E-1,-4.9580374E0],"categories":[],"categories_nodes":[],"categories_segments":[],"categories_sizes":[],"default_left":[1,0,0,0,0,0,0,0,0,0,0,0,0,0,0,0,0,0,0,0,1,0,0,0,1,0,0,0,0,0,0,0,0,0,0,0,0,0,0,0,0,0,0,0,0,0,0,0,0,0,0,0,0,0,0],"id":1,"left_children":[1,3,5,7,9,11,13,15,17,19,21,23,25,27,29,31,33,-1,35,37,39,41,-1,43,45,47,49,-1,51,-1,53,-1,-1,-1,-1,-1,-1,-1,-1,-1,-1,-1,-1,-1,-1,-1,-1,-1,-1,-1,-1,-1,-1,-1,-1],"loss_changes":[2.102688E10,1.5641782E10,3.9320515E9,4.4496507E9,4.0061115E9,2.472786E8,2.0493458E9,4.3770307E9,5.407964E8,2.7759058E9,1.9659072E8,4.564317E7,6.5427456E7,2.8557568E7,1.1359772E9,8.68142E8,6.809006E8,0E0,4.7677296E7,3.0733514E8,1.3554309E9,1.1607885E8,0E0,2.6392E4,6.727872E6,3.21056E6,3.482931E7,0E0,2.951168E6,0E0,5.1258995E8,0E0,0E0,0E0,0E0,0E0,0E0,0E0,0E0,0E0,0E0,0E0,0E0,0E0,0E0,0E0,0E0,0E0,0E0,0E0,0E0,0E0,0E0,0E0,0E0],"parents":[2147483647,0,0,1,1,2,2,3,3,4,4,5,5,6,6,7,7,8,8,9,9,10,10,11,11,12,12,13,13,14,14,15,15,16,16,18,18,19,19,20,20,21,21,23,23,24,24,25,25,26,26,28,28,30,30],"right_children":[2,4,6,8,10,12,14,16,18,20,22,24,26,28,30,32,34,-1,36,38,40,42,-1,44,46,48,50,-1,52,-1,54,-1,-1,-1,-1,-1,-1,-1,-1,-1,-1,-1,-1,-1,-1,-1,-1,-1,-1,-1,-1,-1,-1,-1,-1],"split_conditions":[1.2E1,1.0028E3,2.1E1,4.6E1,3.51E1,8E0,5E0,3.7E1,2.8E1,2.5E1,1.023E3,2.3E2,1.6E2,3.9E1,4E-2,7E0,1.2E2,1.6365484E1,1.0014E3,2.19E1,1.7E1,1E0,9.293869E0,7E0,9E0,1E1,8E0,-6.7252645E0,1.0079E3,1.6859673E1,1.0174E3,9.952863E0,-9.045689E0,2.8134657E1,1.9961409E1,4.9438505E0,1.6207066E0,-1.8515913E0,1.8725927E0,5.7855864E0,1.7523127E1,-7.631577E0,-4.387295E0,-2.5031219E0,-2.7996805E0,-6.800823E0,-5.080895E0,-8.317525E0,-7.1763864E0,-6.34401E0,-9.531698E0,-9.890732E0,-8.779044E0,-2.0797604E-1,-4.9580374E0],"split_indices":[100,114,8,57,8,22,22,62,1,108,14,4,79,7,67,0,104,0,14,8,0,69,0,0,0,0,47,0,14,0,114,0,0,0,0,0,0,0,0,0,0,0,0,0,0,0,0,0,0,0,0,0,0,0,0],"split_type":[0,0,0,0,0,0,0,0,0,0,0,0,0,0,0,0,0,0,0,0,0,0,0,0,0,0,0,0,0,0,0,0,0,0,0,0,0,0,0,0,0,0,0,0,0,0,0,0,0,0,0,0,0,0,0],"sum_hessian":[7.0482E4,3.4707E4,3.5775E4,8.281E3,2.6426E4,1.7172E4,1.8603E4,6.121E3,2.16E3,2.1427E4,4.999E3,1.59E3,1.5582E4,3.24E3,1.5363E4,1.08E3,5.041E3,3.6E2,1.8E3,9.36E3,1.2067E4,4.92E3,7.9E1,5.1E2,1.08E3,1.8E3,1.3782E4,3.6E2,2.88E3,3.6E2,1.5003E4,7.2E2,3.6E2,3.601E3,1.44E3,7.2E2,1.08E3,5.76E3,3.6E3,1.0987E4,1.08E3,3.24E3,1.68E3,3.6E2,1.5E2,7.2E2,3.6E2,3.6E2,1.44E3,3.6E2,1.3422E4,2.52E3,3.6E2,1.2213E4,2.79E3],"tree_param":{"num_deleted":"0","num_feature":"125","num_nodes":"55","size_leaf_vector":"1"}},{"base_weights":[8.935459E-4,5.4898553E2,-5.325952E2,1.7361592E3,1.7691447E2,-8.7419794E2,-2.1723958E2,2.1672048E3,5.14226E2,3.6309985E2,-6.210369E2,-5.0179178E2,-9.1216394E2,-9.326297E2,-6.631556E1,3.581336E2,2.5546382E3,1.6202282E1,2.9224878E2,-4.149742E1,6.769109E2,-6.4596655E2,9.202093E0,-2.5697998E2,-6.170527E2,-7.3351013E2,-9.3544214E2,-6.658199E0,-9.657383E2,1.6691542E1,-1.0806698E2,9.853472E0,-8.9554825E0,2.785339E1,1.9761932E1,4.89448E0,1.6045142E0,-1.833079E0,1.8538723E0,5.7277355E0,1.7348057E1,-7.555285E0,-4.3434477E0,-2.4781592E0,-2.771869E0,-6.732909E0,-5.030226E0,-8.23458E0,-7.104673E0,-6.2807455E0,-9.436388E0,-9.864822E0,-9.022244E0,-2.0589614E-1,-4.908475E0],"categories":[],"categories_nodes":[],"categories_segments":[],"categories_sizes":[],"default_left":[1,0,0,0,0,0,0,0,0,0,0,0,0,0,0,0,0,0,0,0,1,0,0,0,1,0,0,0,0,0,0,0,0,0,0,0,0,0,0,0,0,0,0,0,0,0,0,0,0,0,0,0,0,0,0],"id":2,"left_children":[1,3,5,7,9,11,13,15,17,19,21,23,25,27,29,31,33,-1,35,37,39,41,-1,43,45,47,49,-1,51,-1,53,-1,-1,-1,-1,-1,-1,-1,-1,-1,-1,-1,-1,-1,-1,-1,-1,-1,-1,-1,-1,-1,-1,-1,-1],"loss_changes":[2.060861E10,1.5330668E10,3.853829E9,4.361087E9,3.9264023E9,2.4234803E8,2.0086039E9,4.289964E9,5.300679E8,2.7206792E9,1.9270784E8,4.473507E7,6.411981E7,2.7986944E7,1.1134303E9,8.5090125E8,6.6733875E8,0E0,4.6730064E7,3.0122064E8,1.3284941E9,1.1376858E8,0E0,2.5936E4,6.593632E6,3.14784E6,3.413197E7,0E0,2.905856E6,0E0,5.0239334E8,0E0,0E0,0E0,0E0,0E0,0E0,0E0,0E0,0E0,0E0,0E0,0E0,0E0,0E0,0E0,0E0,0E0,0E0,0E0,0E0,0E0,0E0,0E0,0E0],"parents":[2147483647,0,0,1,1,2,2,3,3,4,4,5,5,6,6,7,7,8,8,9,9,10,10,11,11,12,12,13,13,14,14,15,15,16,16,18,18,19,19,20,20,21,21,23,23,24,24,25,25,26,26,28,28,30,30],"right_children":[2,4,6,8,10,12,14,16,18,20,22,24,26,28,30,32,34,-1,36,38,40,42,-1,44,46,48,50,-1,52,-1,54,-1,-1,-1,-1,-1,-1,-1,-1,-1,-1,-1,-1,-1,-1,-1,-1,-1,-1,-1,-1,-1,-1,-1,-1],"split_conditions":[1.2E1,1.0028E3,2.1E1,4.6E1,3.51E1,8E0,5E0,3.7E1,2.8E1,2.5E1,1.023E3,2.3E2,1.6E2,3.9E1,4E-2,7E0,1.2E2,1.6202282E1,1.0014E3,2.19E1,1.7E1,1E0,9.202093E0,7E0,9E0,1E1,8E0,-6.658199E0,1.0074E3,1.6691542E1,1.0174E3,9.853472E0,-8.9554825E0,2.785339E1,1.9761932E1,4.89448E0,1.6045142E0,-1.833079E0,1.8538723E0,5.7277355E0,1.7348057E1,-7.555285E0,-4.3434477E0,-2.4781592E0,-2.771869E0,-6.732909E0,-5.030226E0,-8.23458E0,-7.104673E0,-6.2807455E0,-9.436388E0,-9.864822E0,-9.022244E0,-2.0589614E-1,-4.908475E0],"split_indices":[100,114,8,57,8,22,22,62,1,108,14,4,79,7,67,0,104,0,14,8,0,69,0,0,0,0,47,0,14,0,114,0,0,0,0,0,0,0,0,0,0,0,0,0,0,0,0,0,0,0,0,0,0,0,0],"split_type":[0,0,0,0,0,0,0,0,0,0,0,0,0,0,0,0,0,0,0,0,0,0,0,0,0,0,0,0,0,0,0,0,0,0,0,0,0,0,0,0,0,0,0,0,0,0,0,0,0,0,0,0,0,0,0],"sum_hessian":[7.0482E4,3.4707E4,3.5775E4,8.281E3,2.6426E4,1.7172E4,1.8603E4,6.121E3,2.16E3,2.1427E4,4.999E3,1.59E3,1.5582E4,3.24E3,1.5363E4,1.08E3,5.041E3,3.6E2,1.8E3,9.36E3,1.2067E4,4.92E3,7.9E1,5.1E2,1.08E3,1.8E3,1.3782E4,3.6E2,2.88E3,3.6E2,1.5003E4,7.2E2,3.6E2,3.601E3,1.44E3,7.2E2,1.08E3,5.76E3,3.6E3,1.0987E4,1.08E3,3.24E3,1.68E3,3.6E2,1.5E2,7.2E2,3.6E2,3.6E2,1.44E3,3.6E2,1.3422E4,2.16E3,7.2E2,1.2213E4,2.79E3],"tree_param":{"num_deleted":"0","num_feature":"125","num_nodes":"55","size_leaf_vector":"1"}},{"base_weights":[1.3119342E-3,5.434983E2,-5.27271E2,1.7188063E3,1.751461E2,-8.6545874E2,-2.1506792E2,2.1455408E3,5.0909427E2,3.594699E2,-6.148271E2,-4.9678455E2,-9.030443E2,-9.233113E2,-6.565163E1,3.5455307E2,2.5291013E3,1.6040709E1,2.893299E2,-4.1082417E1,6.701437E2,-6.395093E2,9.111221E0,-2.5442047E2,-6.1089307E2,-7.2618353E2,-9.2608887E2,-6.591801E0,-9.560874E2,1.652509E1,-1.06986626E2,9.755074E0,-8.866176E0,2.7574934E1,1.956445E1,4.845603E0,1.5884842E0,-1.8147508E0,1.8353387E0,5.670463E0,1.7174738E1,-7.479755E0,-4.3000383E0,-2.4534464E0,-2.744334E0,-6.6656737E0,-4.980063E0,-8.152462E0,-7.033676E0,-6.218112E0,-9.3420315E0,-9.694457E0,-8.601525E0,-2.0383699E-1,-4.8594084E0],"categories":[],"categories_nodes":[],"categories_segments":[],"categories_sizes":[],"default_left":[1,0,0,0,0,0,0,0,0,0,0,0,0,0,0,0,0,0,0,0,1,0,0,0,1,0,0,0,0,0,0,0,0,0,0,0,0,0,0,0,0,0,0,0,0,0,0,0,0,0,0,0,0,0,0],"id":3,"left_children":[1,3,5,7,9,11,13,15,17,19,21,23,25,27,29,31,33,-1,35,37,39,41,-1,43,45,47,49,-1,51,-1,53,-1,-1,-1,-1,-1,-1,-1,-1,-1,-1,-1,-1,-1,-1,-1,-1,-1,-1,-1,-1,-1,-1,-1,-1],"loss_changes":[2.0198662E10,1.5025739E10,3.7771612E9,4.2742886E9,3.8482796E9,2.3751475E8,1.9686723E9,4.204628E9,5.195522E8,2.6665516E9,1.8890163E8,4.384496E7,6.2838784E7,2.742784E7,1.0913308E9,8.340028E8,6.540472E8,0E0,4.5801616E7,2.952276E8,1.3020928E9,1.1150438E8,0E0,2.5484E4,6.462016E6,3.086272E6,3.344896E7,0E0,2.85824E6,0E0,4.9239955E8,0E0,0E0,0E0,0E0,0E0,0E0,0E0,0E0,0E0,0E0,0E0,0E0,0E0,0E0,0E0,0E0,0E0,0E0,0E0,0E0,0E0,0E0,0E0,0E0],"parents":[2147483647,0,0,1,1,2,2,3,3,4,4,5,5,6,6,7,7,8,8,9,9,10,10,11,11,12,12,13,13,14,14,15,15,16,16,18,18,19,19,20,20,21,21,23,23,24,24,25,25,26,26,28,28,30,30],"right_children":[2,4,6,8,10,12,14,16,18,20,22,24,26,28,30,32,34,-1,36,38,40,42,-1,44,46,48,50,-1,52,-1,54,-1,-1,-1,-1,-1,-1,-1,-1,-1,-1,-1,-1,-1,-1,-1,-1,-1,-1,-1,-1,-1,-1,-1,-1],"split_conditions":[1.2E1,1.0028E3,2.1E1,4.6E1,3.51E1,8E0,5E0,3.7E1,2.8E1,2.5E1,1.023E3,2.3E2,1.6E2,3.9E1,4E-2,7E0,1.2E2,1.6040709E1,1.0014E3,2.19E1,1.7E1,1E0,9.111221E0,7E0,9E0,1E1,8E0,-6.591801E0,1.0079E3,1.652509E1,1.0174E3,9.755074E0,-8.866176E0,2.7574934E1,1.956445E1,4.845603E0,1.5884842E0,-1.8147508E0,1.8353387E0,5.670463E0,1.7174738E1,-7.479755E0,-4.3000383E0,-2.4534464E0,-2.744334E0,-6.6656737E0,-4.980063E0,-8.152462E0,-7.033676E0,-6.218112E0,-9.3420315E0,-9.694457E0,-8.601525E0,-2.0383699E-1,-4.8594084E0],"split_indices":[100,114,8,57,8,22,22,62,1,108,14,4,79,7,67,0,104,0,14,8,0,69,0,0,0,0,47,0,14,0,114,0,0,0,0,0,0,0,0,0,0,0,0,0,0,0,0,0,0,0,0,0,0,0,0],"split_type":[0,0,0,0,0,0,0,0,0,0,0,0,0,0,0,0,0,0,0,0,0,0,0,0,0,0,0,0,0,0,0,0,0,0,0,0,0,0,0,0,0,0,0,0,0,0,0,0,0,0,0,0,0,0,0],"sum_hessian":[7.0482E4,3.4707E4,3.5775E4,8.281E3,2.6426E4,1.7172E4,1.8603E4,6.121E3,2.16E3,2.1427E4,4.999E3,1.59E3,1.5582E4,3.24E3,1.5363E4,1.08E3,5.041E3,3.6E2,1.8E3,9.36E3,1.2067E4,4.92E3,7.9E1,5.1E2,1.08E3,1.8E3,1.3782E4,3.6E2,2.88E3,3.6E2,1.5003E4,7.2E2,3.6E2,3.601E3,1.44E3,7.2E2,1.08E3,5.76E3,3.6E3,1.0987E4,1.08E3,3.24E3,1.68E3,3.6E2,1.5E2,7.2E2,3.6E2,3.6E2,1.44E3,3.6E2,1.3422E4,2.52E3,3.6E2,1.2213E4,2.79E3],"tree_param":{"num_deleted":"0","num_feature":"125","num_nodes":"55","size_leaf_vector":"1"}},{"base_weights":[1.7244885E-3,5.380659E2,-5.22E2,1.7016266E3,1.7339542E2,-8.5680695E2,-2.1291795E2,2.124093E3,5.0401373E2,3.558763E2,-6.086794E2,-4.918273E2,-8.940158E2,-9.140858E2,-6.4994354E1,3.5100833E2,2.5038196E3,1.5880747E1,2.8644016E2,-4.067162E1,6.634442E2,-6.331166E2,9.021249E0,-2.518864E2,-6.0479486E2,-7.189301E2,-9.168291E2,-6.5260663E0,-9.465329E2,1.6360296E1,-1.0591709E2,9.657658E0,-8.77776E0,2.729926E1,1.936894E1,4.797214E0,1.572614E0,-1.796607E0,1.8169905E0,5.613764E0,1.700315E1,-7.404981E0,-4.2570634E0,-2.4289794E0,-2.7170718E0,-6.59911E0,-4.9304E0,-8.071163E0,-6.963388E0,-6.1561027E0,-9.248618E0,-9.669319E0,-8.840795E0,-2.0179859E-1,-4.810832E0],"categories":[],"categories_nodes":[],"categories_segments":[],"categories_sizes":[],"default_left":[1,0,0,0,0,0,0,0,0,0,0,0,0,0,0,0,0,0,0,0,1,0,0,0,1,0,0,0,0,0,0,0,0,0,0,0,0,0,0,0,0,0,0,0,0,0,0,0,0,0,0,0,0,0,0],"id":4,"left_children":[1,3,5,7,9,11,13,15,17,19,21,23,25,27,29,31,33,-1,35,37,39,41,-1,43,45,47,49,-1,51,-1,53,-1,-1,-1,-1,-1,-1,-1,-1,-1,-1,-1,-1,-1,-1,-1,-1,-1,-1,-1,-1,-1,-1,-1,-1],"loss_changes":[1.9796873E10,1.4726875E10,3.702019E9,4.1892188E9,3.7717115E9,2.3277773E8,1.9295338E9,4.1209856E9,5.0924512E8,2.6135017E9,1.8517056E8,4.297261E7,6.158336E7,2.6879744E7,1.06966976E9,8.1743974E8,6.41024E8,0E0,4.489163E7,2.8935395E8,1.2762153E9,1.0928538E8,0E0,2.5042E4,6.333056E6,3.026048E6,3.2780288E7,0E0,2.815488E6,0E0,4.826045E8,0E0,0E0,0E0,0E0,0E0,0E0,0E0,0E0,0E0,0E0,0E0,0E0,0E0,0E0,0E0,0E0,0E0,0E0,0E0,0E0,0E0,0E0,0E0,0E0],"parents":[2147483647,0,0,1,1,2,2,3,3,4,4,5,5,6,6,7,7,8,8,9,9,10,10,11,11,12,12,13,13,14,14,15,15,16,16,18,18,19,19,20,20,21,21,23,23,24,24,25,25,26,26,28,28,30,30],"right_children":[2,4,6,8,10,12,14,16,18,20,22,24,26,28,30,32,34,-1,36,38,40,42,-1,44,46,48,50,-1,52,-1,54,-1,-1,-1,-1,-1,-1,-1,-1,-1,-1,-1,-1,-1,-1,-1,-1,-1,-1,-1,-1,-1,-1,-1,-1],"split_conditions":[1.2E1,1.0028E3,2.1E1,4.6E1,3.51E1,8E0,5E0,3.7E1,2.8E1,2.5E1,1.023E3,2.3E2,1.6E2,3.9E1,4E-2,7E0,1.2E2,1.5880747E1,1.0014E3,2.19E1,1.7E1,1E0,9.021249E0,7E0,9E0,1E1,8E0,-6.5260663E0,1.0074E3,1.6360296E1,1.0174E3,9.657658E0,-8.77776E0,2.729926E1,1.936894E1,4.797214E0,1.572614E0,-1.796607E0,1.8169905E0,5.613764E0,1.700315E1,-7.404981E0,-4.2570634E0,-2.4289794E0,-2.7170718E0,-6.59911E0,-4.9304E0,-8.071163E0,-6.963388E0,-6.1561027E0,-9.248618E0,-9.669319E0,-8.840795E0,-2.0179859E-1,-4.810832E0],"split_indices":[100,114,8,57,8,22,22,62,1,108,14,4,79,7,67,0,104,0,14,8,0,69,0,0,0,0,47,0,14,0,114,0,0,0,0,0,0,0,0,0,0,0,0,0,0,0,0,0,0,0,0,0,0,0,0],"split_type":[0,0,0,0,0,0,0,0,0,0,0,0,0,0,0,0,0,0,0,0,0,0,0,0,0,0,0,0,0,0,0,0,0,0,0,0,0,0,0,0,0,0,0,0,0,0,0,0,0,0,0,0,0,0,0],"sum_hessian":[7.0482E4,3.4707E4,3.5775E4,8.281E3,2.6426E4,1.7172E4,1.8603E4,6.121E3,2.16E3,2.1427E4,4.999E3,1.59E3,1.5582E4,3.24E3,1.5363E4,1.08E3,5.041E3,3.6E2,1.8E3,9.36E3,1.2067E4,4.92E3,7.9E1,5.1E2,1.08E3,1.8E3,1.3782E4,3.6E2,2.88E3,3.6E2,1.5003E4,7.2E2,3.6E2,3.601E3,1.44E3,7.2E2,1.08E3,5.76E3,3.6E3,1.0987E4,1.08E3,3.24E3,1.68E3,3.6E2,1.5E2,7.2E2,3.6E2,3.6E2,1.44E3,3.6E2,1.3422E4,2.16E3,7.2E2,1.2213E4,2.79E3],"tree_param":{"num_deleted":"0","num_feature":"125","num_nodes":"55","size_leaf_vector":"1"}},{"base_weights":[2.1198734E-3,5.3268787E2,-5.167817E2,1.6846188E3,1.7166223E2,-8.482416E2,-2.1078952E2,2.1028599E3,4.989839E2,3.523186E2,-6.025931E2,-4.869195E2,-8.850776E2,-9.049527E2,-6.43437E1,3.4749902E2,2.4787905E3,1.572238E1,2.8357928E2,1.0284377E2,8.3482294E2,-6.267878E2,8.932163E0,-2.4937762E2,-5.9875757E2,-7.117492E2,-9.0766187E2,-6.4609857E0,-9.37074E2,1.6197145E1,-1.0485827E2,9.561214E0,-8.690226E0,2.7026342E1,1.9175386E1,4.7493086E0,1.5569022E0,4.1388375E-1,2.4460354E1,6.813573E0,1.45864935E1,-7.330953E0,-4.214518E0,-2.4047573E0,-2.6900814E0,-6.5332103E0,-4.8812323E0,-7.9906754E0,-6.893802E0,-6.0947123E0,-9.156138E0,-9.502079E0,-8.427585E0,-1.9978091E-1,-4.762741E0],"categories":[],"categories_nodes":[],"categories_segments":[],"categories_sizes":[],"default_left":[1,0,0,0,0,0,0,0,0,0,0,0,0,0,0,0,0,0,0,1,1,0,0,0,1,0,0,0,0,0,0,0,0,0,0,0,0,0,0,0,0,0,0,0,0,0,0,0,0,0,0,0,0,0,0],"id":5,"left_children":[1,3,5,7,9,11,13,15,17,19,21,23,25,27,29,31,33,-1,35,37,39,41,-1,43,45,47,49,-1,51,-1,53,-1,-1,-1,-1,-1,-1,-1,-1,-1,-1,-1,-1,-1,-1,-1,-1,-1,-1,-1,-1,-1,-1,-1,-1],"loss_changes":[1.9403071E10,1.4433956E10,3.62837E9,4.1058386E9,3.6966664E9,2.2813594E8,1.8911739E9,4.0390103E9,4.991426E8,2.5792594E9,1.8151322E8,4.211757E7,6.035251E7,2.6342656E7,1.04843885E9,8.012058E8,6.282588E8,0E0,4.399971E7,2.034068E9,6.9816576E8,1.0711053E8,0E0,2.4606E4,6.206624E6,2.966912E6,3.2124928E7,0E0,2.767872E6,0E0,4.7300422E8,0E0,0E0,0E0,0E0,0E0,0E0,0E0,0E0,0E0,0E0,0E0,0E0,0E0,0E0,0E0,0E0,0E0,0E0,0E0,0E0,0E0,0E0,0E0,0E0],"parents":[2147483647,0,0,1,1,2,2,3,3,4,4,5,5,6,6,7,7,8,8,9,9,10,10,11,11,12,12,13,13,14,14,15,15,16,16,18,18,19,19,20,20,21,21,23,23,24,24,25,25,26,26,28,28,30,30],"right_children":[2,4,6,8,10,12,14,16,18,20,22,24,26,28,30,32,34,-1,36,38,40,42,-1,44,46,48,50,-1,52,-1,54,-1,-1,-1,-1,-1,-1,-1,-1,-1,-1,-1,-1,-1,-1,-1,-1,-1,-1,-1,-1,-1,-1,-1,-1],"split_conditions":[1.2E1,1.0028E3,2.1E1,4.6E1,3.51E1,8E0,5E0,3.7E1,2.8E1,7.1E1,1.023E3,2.3E2,1.6E2,3.9E1,4E-2,7E0,1.2E2,1.572238E1,1.0014E3,1.7E1,1.5E1,1E0,8.932163E0,7E0,9E0,1E1,8E0,-6.4609857E0,1.0079E3,1.6197145E1,1.0174E3,9.561214E0,-8.690226E0,2.7026342E1,1.9175386E1,4.7493086E0,1.5569022E0,4.1388375E-1,2.4460354E1,6.813573E0,1.45864935E1,-7.330953E0,-4.214518E0,-2.4047573E0,-2.6900814E0,-6.5332103E0,-4.8812323E0,-7.9906754E0,-6.893802E0,-6.0947123E0,-9.156138E0,-9.502079E0,-8.427585E0,-1.9978091E-1,-4.762741E0],"split_indices":[100,114,8,57,8,22,22,62,1,61,14,4,79,7,67,0,104,0,14,0,25,69,0,0,0,0,47,0,14,0,114,0,0,0,0,0,0,0,0,0,0,0,0,0,0,0,0,0,0,0,0,0,0,0,0],"split_type":[0,0,0,0,0,0,0,0,0,0,0,0,0,0,0,0,0,0,0,0,0,0,0,0,0,0,0,0,0,0,0,0,0,0,0,0,0,0,0,0,0,0,0,0,0,0,0,0,0,0,0,0,0,0,0],"sum_hessian":[7.0482E4,3.4707E4,3.5775E4,8.281E3,2.6426E4,1.7172E4,1.8603E4,6.121E3,2.16E3,2.1427E4,4.999E3,1.59E3,1.5582E4,3.24E3,1.5363E4,1.08E3,5.041E3,3.6E2,1.8E3,1.4125E4,7.302E3,4.92E3,7.9E1,5.1E2,1.08E3,1.8E3,1.3782E4,3.6E2,2.88E3,3.6E2,1.5003E4,7.2E2,3.6E2,3.601E3,1.44E3,7.2E2,1.08E3,1.3765E4,3.6E2,5.862E3,1.44E3,3.24E3,1.68E3,3.6E2,1.5E2,7.2E2,3.6E2,3.6E2,1.44E3,3.6E2,1.3422E4,2.52E3,3.6E2,1.2213E4,2.79E3],"tree_param":{"num_deleted":"0","num_feature":"125","num_nodes":"55","size_leaf_vector":"1"}},{"base_weights":[2.8379604E-3,5.273642E2,-5.116155E2,1.6677809E3,1.699472E2,-8.397619E2,-2.0868231E2,2.081839E3,4.9400427E2,3.4879752E2,-5.965677E2,-4.8206067E2,-8.7622876E2,-8.959107E2,-6.3699497E1,3.4402484E2,2.4540117E3,1.5565591E1,2.80747E2,1.0181705E2,8.264776E2,-6.205223E2,8.843959E0,-2.468938E2,-5.927806E2,-7.0463995E2,-8.9858636E2,-6.396555E0,-9.277095E2,1.6035624E1,-1.0380999E2,9.465735E0,-8.603564E0,2.2696062E1,3.1276115E1,4.7018814E0,1.5413476E0,4.0974462E-1,2.4216427E1,6.7454486E0,1.444073E1,-7.257667E0,-4.172398E0,-2.380776E0,-2.663359E0,-6.4679685E0,-4.8325553E0,-7.9109893E0,-6.824912E0,-6.0339336E0,-9.064584E0,-9.477694E0,-8.662985E0,-3.3400795E-1,-5.4348583E0],"categories":[],"categories_nodes":[],"categories_segments":[],"categories_sizes":[],"default_left":[1,0,0,0,0,0,0,0,0,0,0,0,0,0,0,0,0,0,0,1,1,0,0,0,1,0,0,0,0,0,0,0,0,0,0,0,0,0,0,0,0,0,0,0,0,0,0,0,0,0,0,0,0,0,0],"id":6,"left_children":[1,3,5,7,9,11,13,15,17,19,21,23,25,27,29,31,33,-1,35,37,39,41,-1,43,45,47,49,-1,51,-1,53,-1,-1,-1,-1,-1,-1,-1,-1,-1,-1,-1,-1,-1,-1,-1,-1,-1,-1,-1,-1,-1,-1,-1,-1],"loss_changes":[1.901713E10,1.4146849E10,3.5561892E9,4.0241193E9,3.623123E9,2.2358733E8,1.8535767E9,3.9586632E9,4.8924032E8,2.527941E9,1.7792806E8,4.127955E7,5.914624E7,2.5816064E7,1.0276293E9,7.852944E8,6.1919846E8,0E0,4.312555E7,1.9937036E9,6.84288E8,1.0497894E8,0E0,2.4178E4,6.082784E6,2.908928E6,3.1481856E7,0E0,2.727936E6,0E0,4.64464E8,0E0,0E0,0E0,0E0,0E0,0E0,0E0,0E0,0E0,0E0,0E0,0E0,0E0,0E0,0E0,0E0,0E0,0E0,0E0,0E0,0E0,0E0,0E0,0E0],"parents":[2147483647,0,0,1,1,2,2,3,3,4,4,5,5,6,6,7,7,8,8,9,9,10,10,11,11,12,12,13,13,14,14,15,15,16,16,18,18,19,19,20,20,21,21,23,23,24,24,25,25,26,26,28,28,30,30],"right_children":[2,4,6,8,10,12,14,16,18,20,22,24,26,28,30,32,34,-1,36,38,40,42,-1,44,46,48,50,-1,52,-1,54,-1,-1,-1,-1,-1,-1,-1,-1,-1,-1,-1,-1,-1,-1,-1,-1,-1,-1,-1,-1,-1,-1,-1,-1],"split_conditions":[1.2E1,1.0028E3,2.1E1,4.6E1,3.51E1,8E0,5E0,3.7E1,2.8E1,7.1E1,1.023E3,2.3E2,1.6E2,3.9E1,4E-2,7E0,8E1,1.5565591E1,1.0014E3,1.7E1,1.5E1,1E0,8.843959E0,7E0,9E0,1E1,8E0,-6.396555E0,1.0074E3,1.6035624E1,1.0174E3,9.465735E0,-8.603564E0,2.2696062E1,3.1276115E1,4.7018814E0,1.5413476E0,4.0974462E-1,2.4216427E1,6.7454486E0,1.444073E1,-7.257667E0,-4.172398E0,-2.380776E0,-2.663359E0,-6.4679685E0,-4.8325553E0,-7.9109893E0,-6.824912E0,-6.0339336E0,-9.064584E0,-9.477694E0,-8.662985E0,-3.3400795E-1,-5.4348583E0],"split_indices":[100,114,8,57,8,22,22,62,1,61,14,4,79,7,67,0,78,0,14,0,25,69,0,0,0,0,47,0,14,0,64,0,0,0,0,0,0,0,0,0,0,0,0,0,0,0,0,0,0,0,0,0,0,0,0],"split_type":[0,0,0,0,0,0,0,0,0,0,0,0,0,0,0,0,0,0,0,0,0,0,0,0,0,0,0,0,0,0,0,0,0,0,0,0,0,0,0,0,0,0,0,0,0,0,0,0,0,0,0,0,0,0,0],"sum_hessian":[7.0482E4,3.4707E4,3.5775E4,8.281E3,2.6426E4,1.7172E4,1.8603E4,6.121E3,2.16E3,2.1427E4,4.999E3,1.59E3,1.5582E4,3.24E3,1.5363E4,1.08E3,5.041E3,3.6E2,1.8E3,1.4125E4,7.302E3,4.92E3,7.9E1,5.1E2,1.08E3,1.8E3,1.3782E4,3.6E2,2.88E3,3.6E2,1.5003E4,7.2E2,3.6E2,3.961E3,1.08E3,7.2E2,1.08E3,1.3765E4,3.6E2,5.862E3,1.44E3,3.24E3,1.68E3,3.6E2,1.5E2,7.2E2,3.6E2,3.6E2,1.44E3,3.6E2,1.3422E4,2.16E3,7.2E2,1.2933E4,2.07E3],"tree_param":{"num_deleted":"0","num_feature":"125","num_nodes":"55","size_leaf_vector":"1"}},{"base_weights":[3.6391597E-3,5.22094E2,-5.0650107E2,1.6511124E3,1.6824934E2,-8.3136694E2,-2.0659628E2,2.0610295E3,4.8907428E2,3.4531165E2,-5.9060254E2,-4.7725034E2,-8.674684E2,-8.8695917E2,-6.306186E1,3.4058542E2,2.4294824E3,1.5410367E1,2.7794296E2,-4.108854E1,6.450089E2,-6.1431934E2,8.756624E0,-2.4443477E2,-5.868632E2,-6.976017E2,-8.896016E2,-6.332766E0,-9.1843866E2,1.5875711E1,-1.027723E2,9.37121E0,-8.517768E0,2.6503532E1,1.8756962E1,4.6549277E0,1.5259482E0,-1.7868797E0,1.7905903E0,5.462972E0,1.6477835E1,-7.185112E0,-4.1306996E0,-2.3570344E0,-2.6369019E0,-6.403378E0,-4.7843637E0,-7.832098E0,-6.75671E0,-5.9737616E0,-8.973945E0,-9.313521E0,-8.257152E0,-1.9444323E-1,-4.673961E0],"categories":[],"categories_nodes":[],"categories_segments":[],"categories_sizes":[],"default_left":[1,0,0,0,0,0,0,0,0,0,0,0,0,0,0,0,0,0,0,0,1,0,0,0,1,0,0,0,0,0,0,0,0,0,0,0,0,0,0,0,0,0,0,0,0,0,0,0,0,0,0,0,0,0,0],"id":7,"left_children":[1,3,5,7,9,11,13,15,17,19,21,23,25,27,29,31,33,-1,35,37,39,41,-1,43,45,47,49,-1,51,-1,53,-1,-1,-1,-1,-1,-1,-1,-1,-1,-1,-1,-1,-1,-1,-1,-1,-1,-1,-1,-1,-1,-1,-1,-1],"loss_changes":[1.8638875E10,1.3865468E10,3.485443E9,3.9440343E9,3.5510426E9,2.1912678E8,1.8167269E9,3.8799258E9,4.7953456E8,2.481455E9,1.744137E8,4.045824E7,5.796659E7,2.5300224E7,1.0072329E9,7.696989E8,6.117417E8,0E0,4.2268736E7,2.8359712E8,1.1936579E9,1.0288973E8,0E0,2.376E4,5.961376E6,2.852096E6,3.0851072E7,0E0,2.680576E6,0E0,4.5586298E8,0E0,0E0,0E0,0E0,0E0,0E0,0E0,0E0,0E0,0E0,0E0,0E0,0E0,0E0,0E0,0E0,0E0,0E0,0E0,0E0,0E0,0E0,0E0,0E0],"parents":[2147483647,0,0,1,1,2,2,3,3,4,4,5,5,6,6,7,7,8,8,9,9,10,10,11,11,12,12,13,13,14,14,15,15,16,16,18,18,19,19,20,20,21,21,23,23,24,24,25,25,26,26,28,28,30,30],"right_children":[2,4,6,8,10,12,14,16,18,20,22,24,26,28,30,32,34,-1,36,38,40,42,-1,44,46,48,50,-1,52,-1,54,-1,-1,-1,-1,-1,-1,-1,-1,-1,-1,-1,-1,-1,-1,-1,-1,-1,-1,-1,-1,-1,-1,-1,-1],"split_conditions":[1.2E1,1.0028E3,2.1E1,4.6E1,3.51E1,8E0,5E0,3.7E1,2.8E1,2.5E1,1.023E3,2.3E2,1.6E2,3.9E1,4E-2,7E0,1.2E2,1.5410367E1,1.0014E3,2.19E1,1.7E1,1E0,8.756624E0,7E0,9E0,1E1,8E0,-6.332766E0,1.0079E3,1.5875711E1,1.0174E3,9.37121E0,-8.517768E0,2.6503532E1,1.8756962E1,4.6549277E0,1.5259482E0,-1.7868797E0,1.7905903E0,5.462972E0,1.6477835E1,-7.185112E0,-4.1306996E0,-2.3570344E0,-2.6369019E0,-6.403378E0,-4.7843637E0,-7.832098E0,-6.75671E0,-5.9737616E0,-8.973945E0,-9.313521E0,-8.257152E0,-1.9444323E-1,-4.673961E0],"split_indices":[100,114,8,57,8,22,22,62,1,108,14,4,79,7,67,0,104,0,14,8,0,69,0,0,0,0,47,0,14,0,114,0,0,0,0,0,0,0,0,0,0,0,0,0,0,0,0,0,0,0,0,0,0,0,0],"split_type":[0,0,0,0,0,0,0,0,0,0,0,0,0,0,0,0,0,0,0,0,0,0,0,0,0,0,0,0,0,0,0,0,0,0,0,0,0,0,0,0,0,0,0,0,0,0,0,0,0,0,0,0,0,0,0],"sum_hessian":[7.0482E4,3.4707E4,3.5775E4,8.281E3,2.6426E4,1.7172E4,1.8603E4,6.121E3,2.16E3,2.1427E4,4.999E3,1.59E3,1.5582E4,3.24E3,1.5363E4,1.08E3,5.041E3,3.6E2,1.8E3,9.36E3,1.2067E4,4.92E3,7.9E1,5.1E2,1.08E3,1.8E3,1.3782E4,3.6E2,2.88E3,3.6E2,1.5003E4,7.2E2,3.6E2,3.601E3,1.44E3,7.2E2,1.08E3,5.76E3,3.6E3,1.0987E4,1.08E3,3.24E3,1.68E3,3.6E2,1.5E2,7.2E2,3.6E2,3.6E2,1.44E3,3.6E2,1.3422E4,2.52E3,3.6E2,1.2213E4,2.79E3],"tree_param":{"num_deleted":"0","num_feature":"125","num_nodes":"55","size_leaf_vector":"1"}},{"base_weights":[4.004356E-3,5.1687555E2,-5.0143765E2,1.6346094E3,1.6656757E2,-8.230559E2,-2.04531E2,2.0404269E3,4.841935E2,3.4185953E2,-5.84697E2,-4.72488E2,-8.5879553E2,-8.78097E2,-6.2430515E1,3.3718036E2,2.4051965E3,1.5256689E1,2.7516696E2,9.894934E1,8.116675E2,-6.0817847E2,8.670153E0,-2.4200017E2,-5.8100494E2,-6.906338E2,-8.807066E2,-6.269614E0,-9.0926044E2,1.5717394E1,-1.01744896E2,9.277628E0,-8.432825E0,2.2232346E1,3.0698853E1,4.6084433E0,1.5107021E0,3.9095968E-1,2.3810616E1,6.6233845E0,1.4186795E1,-7.113284E0,-4.0894165E0,-2.3335292E0,-2.610707E0,-6.339434E0,-4.736652E0,-7.753994E0,-6.68919E0,-5.9141893E0,-8.884212E0,-9.28987E0,-8.488744E0,-3.2623032E-1,-5.3338194E0],"categories":[],"categories_nodes":[],"categories_segments":[],"categories_sizes":[],"default_left":[1,0,0,0,0,0,0,0,0,0,0,0,0,0,0,0,0,0,0,1,1,0,0,0,1,0,0,0,0,0,0,0,0,0,0,0,0,0,0,0,0,0,0,0,0,0,0,0,0,0,0,0,0,0,0],"id":8,"left_children":[1,3,5,7,9,11,13,15,17,19,21,23,25,27,29,31,33,-1,35,37,39,41,-1,43,45,47,49,-1,51,-1,53,-1,-1,-1,-1,-1,-1,-1,-1,-1,-1,-1,-1,-1,-1,-1,-1,-1,-1,-1,-1,-1,-1,-1,-1],"loss_changes":[1.8268107E10,1.3589682E10,3.416104E9,3.8655386E9,3.4803886E9,2.1475635E8,1.7806093E9,3.8027448E9,4.7002134E8,2.4453071E9,1.7096883E8,3.9653216E7,5.680947E7,2.479488E7,9.872412E8,7.5441306E8,6.029947E8,0E0,4.1428944E7,1.9294067E9,6.610376E8,1.0084186E8,0E0,2.3344E4,5.8424E6,2.796352E6,3.0234624E7,0E0,2.643456E6,0E0,4.476353E8,0E0,0E0,0E0,0E0,0E0,0E0,0E0,0E0,0E0,0E0,0E0,0E0,0E0,0E0,0E0,0E0,0E0,0E0,0E0,0E0,0E0,0E0,0E0,0E0],"parents":[2147483647,0,0,1,1,2,2,3,3,4,4,5,5,6,6,7,7,8,8,9,9,10,10,11,11,12,12,13,13,14,14,15,15,16,16,18,18,19,19,20,20,21,21,23,23,24,24,25,25,26,26,28,28,30,30],"right_children":[2,4,6,8,10,12,14,16,18,20,22,24,26,28,30,32,34,-1,36,38,40,42,-1,44,46,48,50,-1,52,-1,54,-1,-1,-1,-1,-1,-1,-1,-1,-1,-1,-1,-1,-1,-1,-1,-1,-1,-1,-1,-1,-1,-1,-1,-1],"split_conditions":[1.2E1,1.0028E3,2.1E1,4.6E1,3.51E1,8E0,5E0,3.7E1,2.8E1,7.1E1,1.023E3,2.3E2,1.6E2,3.9E1,4E-2,7E0,8E1,1.5256689E1,1.0014E3,1.7E1,1.5E1,1E0,8.670153E0,7E0,9E0,1E1,8E0,-6.269614E0,1.0074E3,1.5717394E1,1.0174E3,9.277628E0,-8.432825E0,2.2232346E1,3.0698853E1,4.6084433E0,1.5107021E0,3.9095968E-1,2.3810616E1,6.6233845E0,1.4186795E1,-7.113284E0,-4.0894165E0,-2.3335292E0,-2.610707E0,-6.339434E0,-4.736652E0,-7.753994E0,-6.68919E0,-5.9141893E0,-8.884212E0,-9.28987E0,-8.488744E0,-3.2623032E-1,-5.3338194E0],"split_indices":[100,114,8,57,8,22,22,62,1,61,14,4,79,7,67,0,78,0,14,0,25,69,0,0,0,0,47,0,14,0,64,0,0,0,0,0,0,0,0,0,0,0,0,0,0,0,0,0,0,0,0,0,0,0,0],"split_type":[0,0,0,0,0,0,0,0,0,0,0,0,0,0,0,0,0,0,0,0,0,0,0,0,0,0,0,0,0,0,0,0,0,0,0,0,0,0,0,0,0,0,0,0,0,0,0,0,0,0,0,0,0,0,0],"sum_hessian":[7.0482E4,3.4707E4,3.5775E4,8.281E3,2.6426E4,1.7172E4,1.8603E4,6.121E3,2.16E3,2.1427E4,4.999E3,1.59E3,1.5582E4,3.24E3,1.5363E4,1.08E3,5.041E3,3.6E2,1.8E3,1.4125E4,7.302E3,4.92E3,7.9E1,5.1E2,1.08E3,1.8E3,1.3782E4,3.6E2,2.88E3,3.6E2,1.5003E4,7.2E2,3.6E2,3.961E3,1.08E3,7.2E2,1.08E3,1.3765E4,3.6E2,5.862E3,1.44E3,3.24E3,1.68E3,3.6E2,1.5E2,7.2E2,3.6E2,3.6E2,1.44E3,3.6E2,1.3422E4,2.16E3,7.2E2,1.2933E4,2.07E3],"tree_param":{"num_deleted":"0","num_feature":"125","num_nodes":"55","size_leaf_vector":"1"}},{"base_weights":[4.768788E-3,5.1171017E2,-4.96425E2,1.6182725E3,1.6490347E2,-8.14828E2,-2.0248648E2,2.0200314E3,4.7936145E2,3.38443E2,-5.788505E2,-4.6777316E2,-8.502095E2,-8.693234E2,-6.18056E1,3.338094E2,2.381155E3,1.5104545E1,2.7241867E2,9.7961525E1,8.0355365E2,-6.0209894E2,8.584536E0,-2.3958986E2,-5.752051E2,-6.837354E2,-8.719007E2,-6.207091E0,-9.00174E2,1.5560656E1,-1.0072787E2,9.18498E0,-8.34873E0,2.5990923E1,1.8347355E1,4.562423E0,1.4956088E0,3.870501E-1,2.3573166E1,6.557162E0,1.4045025E1,-7.0421734E0,-4.0485463E0,-2.3102589E0,-2.5847726E0,-6.2761273E0,-4.6894164E0,-7.6766686E0,-6.622344E0,-5.8552117E0,-8.795377E0,-9.128705E0,-8.090156E0,-1.8923736E-1,-4.5868373E0],"categories":[],"categories_nodes":[],"categories_segments":[],"categories_sizes":[],"default_left":[1,0,0,0,0,0,0,0,0,0,0,0,0,0,0,0,0,0,0,1,1,0,0,0,1,0,0,0,0,0,0,0,0,0,0,0,0,0,0,0,0,0,0,0,0,0,0,0,0,0,0,0,0,0,0],"id":9,"left_children":[1,3,5,7,9,11,13,15,17,19,21,23,25,27,29,31,33,-1,35,37,39,41,-1,43,45,47,49,-1,51,-1,53,-1,-1,-1,-1,-1,-1,-1,-1,-1,-1,-1,-1,-1,-1,-1,-1,-1,-1,-1,-1,-1,-1,-1,-1],"loss_changes":[1.7904753E10,1.3319386E10,3.348144E9,3.7886054E9,3.411148E9,2.10475E8,1.7452101E9,3.727106E9,4.606968E8,2.3966538E9,1.6759206E8,3.8864224E7,5.567488E7,2.429952E7,9.6764646E8,7.3943085E8,5.9565875E8,0E0,4.0605856E7,1.8911191E9,6.478976E8,9.883494E7,0E0,2.2936E4,5.725792E6,2.741696E6,2.962944E7,0E0,2.596096E6,0E0,4.3934253E8,0E0,0E0,0E0,0E0,0E0,0E0,0E0,0E0,0E0,0E0,0E0,0E0,0E0,0E0,0E0,0E0,0E0,0E0,0E0,0E0,0E0,0E0,0E0,0E0],"parents":[2147483647,0,0,1,1,2,2,3,3,4,4,5,5,6,6,7,7,8,8,9,9,10,10,11,11,12,12,13,13,14,14,15,15,16,16,18,18,19,19,20,20,21,21,23,23,24,24,25,25,26,26,28,28,30,30],"right_children":[2,4,6,8,10,12,14,16,18,20,22,24,26,28,30,32,34,-1,36,38,40,42,-1,44,46,48,50,-1,52,-1,54,-1,-1,-1,-1,-1,-1,-1,-1,-1,-1,-1,-1,-1,-1,-1,-1,-1,-1,-1,-1,-1,-1,-1,-1],"split_conditions":[1.2E1,1.0028E3,2.1E1,4.6E1,3.51E1,8E0,5E0,3.7E1,2.8E1,7.1E1,1.023E3,2.3E2,1.6E2,3.9E1,4E-2,7E0,1.2E2,1.5104545E1,1.0014E3,1.7E1,1.5E1,1E0,8.584536E0,7E0,9E0,1E1,8E0,-6.207091E0,1.0079E3,1.5560656E1,1.0174E3,9.18498E0,-8.34873E0,2.5990923E1,1.8347355E1,4.562423E0,1.4956088E0,3.870501E-1,2.3573166E1,6.557162E0,1.4045025E1,-7.0421734E0,-4.0485463E0,-2.3102589E0,-2.5847726E0,-6.2761273E0,-4.6894164E0,-7.6766686E0,-6.622344E0,-5.8552117E0,-8.795377E0,-9.128705E0,-8.090156E0,-1.8923736E-1,-4.5868373E0],"split_indices":[100,114,8,57,8,22,22,62,1,61,14,4,79,7,67,0,104,0,14,0,25,69,0,0,0,0,47,0,14,0,114,0,0,0,0,0,0,0,0,0,0,0,0,0,0,0,0,0,0,0,0,0,0,0,0],"split_type":[0,0,0,0,0,0,0,0,0,0,0,0,0,0,0,0,0,0,0,0,0,0,0,0,0,0,0,0,0,0,0,0,0,0,0,0,0,0,0,0,0,0,0,0,0,0,0,0,0,0,0,0,0,0,0],"sum_hessian":[7.0482E4,3.4707E4,3.5775E4,8.281E3,2.6426E4,1.7172E4,1.8603E4,6.121E3,2.16E3,2.1427E4,4.999E3,1.59E3,1.5582E4,3.24E3,1.5363E4,1.08E3,5.041E3,3.6E2,1.8E3,1.4125E4,7.302E3,4.92E3,7.9E1,5.1E2,1.08E3,1.8E3,1.3782E4,3.6E2,2.88E3,3.6E2,1.5003E4,7.2E2,3.6E2,3.601E3,1.44E3,7.2E2,1.08E3,1.3765E4,3.6E2,5.862E3,1.44E3,3.24E3,1.68E3,3.6E2,1.5E2,7.2E2,3.6E2,3.6E2,1.44E3,3.6E2,1.3422E4,2.52E3,3.6E2,1.2213E4,2.79E3],"tree_param":{"num_deleted":"0","num_feature":"125","num_nodes":"55","size_leaf_vector":"1"}},{"base_weights":[5.4245014E-3,5.0659616E2,-4.9146237E2,1.6020977E3,1.6325601E2,-8.066824E2,-2.0046233E2,1.9998384E3,4.7457767E2,3.3506064E2,-5.7306256E2,-4.631054E2,-8.417093E2,-8.6063745E2,-6.1186874E1,3.304721E2,2.3573523E3,1.4953918E1,2.6969788E2,-4.1455677E1,6.27092E2,-5.9608026E2,8.499763E0,-2.3720352E2,-5.694632E2,-6.7690607E2,-8.6318274E2,-6.1451926E0,-8.911782E2,1.5405479E1,-9.972094E1,9.093259E0,-8.265474E0,2.1778015E1,3.013248E1,4.516863E0,1.4806666E0,-1.7767936E0,1.7649102E0,5.3164115E0,1.5967372E1,-6.9717736E0,-4.008085E0,-2.28722E0,-2.5590966E0,-6.213453E0,-4.642652E0,-7.6001143E0,-6.5561666E0,-5.7968216E0,-8.70743E0,-9.105769E0,-8.317999E0,-3.186289E-1,-5.234661E0],"categories":[],"categories_nodes":[],"categories_segments":[],"categories_sizes":[],"default_left":[1,0,0,0,0,0,0,0,0,0,0,0,0,0,0,0,0,0,0,0,1,0,0,0,1,0,0,0,0,0,0,0,0,0,0,0,0,0,0,0,0,0,0,0,0,0,0,0,0,0,0,0,0,0,0],"id":10,"left_children":[1,3,5,7,9,11,13,15,17,19,21,23,25,27,29,31,33,-1,35,37,39,41,-1,43,45,47,49,-1,51,-1,53,-1,-1,-1,-1,-1,-1,-1,-1,-1,-1,-1,-1,-1,-1,-1,-1,-1,-1,-1,-1,-1,-1,-1,-1],"loss_changes":[1.7548616E10,1.3054449E10,3.281536E9,3.7132022E9,3.343285E9,2.0627763E8,1.7105143E9,3.6529603E9,4.5155734E8,2.3561324E9,1.6428186E8,3.8090976E7,5.456179E7,2.3813888E7,9.4844045E8,7.2474605E8,5.872169E8,0E0,3.9799104E7,2.779548E8,1.1160858E9,9.68681E7,0E0,2.254E4,5.611488E6,2.688128E6,2.9036544E7,0E0,2.561024E6,0E0,4.3141606E8,0E0,0E0,0E0,0E0,0E0,0E0,0E0,0E0,0E0,0E0,0E0,0E0,0E0,0E0,0E0,0E0,0E0,0E0,0E0,0E0,0E0,0E0,0E0,0E0],"parents":[2147483647,0,0,1,1,2,2,3,3,4,4,5,5,6,6,7,7,8,8,9,9,10,10,11,11,12,12,13,13,14,14,15,15,16,16,18,18,19,19,20,20,21,21,23,23,24,24,25,25,26,26,28,28,30,30],"right_children":[2,4,6,8,10,12,14,16,18,20,22,24,26,28,30,32,34,-1,36,38,40,42,-1,44,46,48,50,-1,52,-1,54,-1,-1,-1,-1,-1,-1,-1,-1,-1,-1,-1,-1,-1,-1,-1,-1,-1,-1,-1,-1,-1,-1,-1,-1],"split_conditions":[1.2E1,1.0028E3,2.1E1,4.6E1,3.51E1,8E0,5E0,3.7E1,2.8E1,2.5E1,1.023E3,2.3E2,1.6E2,3.9E1,4E-2,7E0,8E1,1.4953918E1,1.0014E3,2.19E1,1.7E1,1E0,8.499763E0,7E0,9E0,1E1,8E0,-6.1451926E0,1.0074E3,1.5405479E1,1.0174E3,9.093259E0,-8.265474E0,2.1778015E1,3.013248E1,4.516863E0,1.4806666E0,-1.7767936E0,1.7649102E0,5.3164115E0,1.5967372E1,-6.9717736E0,-4.008085E0,-2.28722E0,-2.5590966E0,-6.213453E0,-4.642652E0,-7.6001143E0,-6.5561666E0,-5.7968216E0,-8.70743E0,-9.105769E0,-8.317999E0,-3.186289E-1,-5.234661E0],"split_indices":[100,114,8,57,8,22,22,62,1,108,14,4,79,7,67,0,78,0,14,8,0,69,0,0,0,0,47,0,14,0,64,0,0,0,0,0,0,0,0,0,0,0,0,0,0,0,0,0,0,0,0,0,0,0,0],"split_type":[0,0,0,0,0,0,0,0,0,0,0,0,0,0,0,0,0,0,0,0,0,0,0,0,0,0,0,0,0,0,0,0,0,0,0,0,0,0,0,0,0,0,0,0,0,0,0,0,0,0,0,0,0,0,0],"sum_hessian":[7.0482E4,3.4707E4,3.5775E4,8.281E3,2.6426E4,1.7172E4,1.8603E4,6.121E3,2.16E3,2.1427E4,4.999E3,1.59E3,1.5582E4,3.24E3,1.5363E4,1.08E3,5.041E3,3.6E2,1.8E3,9.36E3,1.2067E4,4.92E3,7.9E1,5.1E2,1.08E3,1.8E3,1.3782E4,3.6E2,2.88E3,3.6E2,1.5003E4,7.2E2,3.6E2,3.961E3,1.08E3,7.2E2,1.08E3,5.76E3,3.6E3,1.0987E4,1.08E3,3.24E3,1.68E3,3.6E2,1.5E2,7.2E2,3.6E2,3.6E2,1.44E3,3.6E2,1.3422E4,2.16E3,7.2E2,1.2933E4,2.07E3],"tree_param":{"num_deleted":"0","num_feature":"125","num_nodes":"55","size_leaf_vector":"1"}},{"base_weights":[5.857703E-3,5.0153287E2,-4.8654938E2,1.5860857E3,1.6162416E2,-7.986181E2,-1.9845847E2,1.9798488E3,4.6984155E2,3.3171103E2,-5.673324E2,-4.584842E2,-8.33294E2,-8.520383E2,-6.057439E1,3.2716815E2,2.333789E3,1.4804793E1,2.670042E2,9.519349E1,7.891552E2,-5.9012164E2,8.415828E0,-2.3484097E2,-5.6377856E2,-6.7014484E2,-8.5455194E2,-6.0839114E0,-8.8227246E2,1.5251851E1,-9.872412E1,9.002452E0,-8.183048E0,2.5488317E1,1.7946379E1,4.471757E0,1.4658731E0,3.6898628E-1,2.3178858E1,6.4384465E0,1.3798327E1,-6.9020767E0,-3.9680278E0,-2.264411E0,-2.5336754E0,-6.1514044E0,-4.5963535E0,-7.524324E0,-6.4906507E0,-5.7390137E0,-8.620361E0,-8.947557E0,-7.9265294E0,-1.8415965E-1,-4.5013404E0],"categories":[],"categories_nodes":[],"categories_segments":[],"categories_sizes":[],"default_left":[1,0,0,0,0,0,0,0,0,0,0,0,0,0,0,0,0,0,0,1,1,0,0,0,1,0,0,0,0,0,0,0,0,0,0,0,0,0,0,0,0,0,0,0,0,0,0,0,0,0,0,0,0,0,0],"id":11,"left_children":[1,3,5,7,9,11,13,15,17,19,21,23,25,27,29,31,33,-1,35,37,39,41,-1,43,45,47,49,-1,51,-1,53,-1,-1,-1,-1,-1,-1,-1,-1,-1,-1,-1,-1,-1,-1,-1,-1,-1,-1,-1,-1,-1,-1,-1,-1],"loss_changes":[1.7199546E10,1.2794812E10,3.2162524E9,3.6393021E9,3.2767647E9,2.0216422E8,1.6765084E9,3.5803054E9,4.4259907E8,2.3182968E9,1.6103706E8,3.7333056E7,5.3472256E7,2.3337984E7,9.2961574E8,7.1035296E8,5.799977E8,0E0,3.900839E7,1.830242E9,6.2594E8,9.494029E7,0E0,2.215E4,5.499552E6,2.635648E6,2.8455936E7,0E0,2.51392E6,0E0,4.2342086E8,0E0,0E0,0E0,0E0,0E0,0E0,0E0,0E0,0E0,0E0,0E0,0E0,0E0,0E0,0E0,0E0,0E0,0E0,0E0,0E0,0E0,0E0,0E0,0E0],"parents":[2147483647,0,0,1,1,2,2,3,3,4,4,5,5,6,6,7,7,8,8,9,9,10,10,11,11,12,12,13,13,14,14,15,15,16,16,18,18,19,19,20,20,21,21,23,23,24,24,25,25,26,26,28,28,30,30],"right_children":[2,4,6,8,10,12,14,16,18,20,22,24,26,28,30,32,34,-1,36,38,40,42,-1,44,46,48,50,-1,52,-1,54,-1,-1,-1,-1,-1,-1,-1,-1,-1,-1,-1,-1,-1,-1,-1,-1,-1,-1,-1,-1,-1,-1,-1,-1],"split_conditions":[1.2E1,1.0028E3,2.1E1,4.6E1,3.51E1,8E0,5E0,3.7E1,2.8E1,7.1E1,1.023E3,2.3E2,1.6E2,3.9E1,4E-2,7E0,1.2E2,1.4804793E1,1.0014E3,1.7E1,1.5E1,1E0,8.415828E0,7E0,9E0,1E1,8E0,-6.0839114E0,1.0079E3,1.5251851E1,1.0174E3,9.002452E0,-8.183048E0,2.5488317E1,1.7946379E1,4.471757E0,1.4658731E0,3.6898628E-1,2.3178858E1,6.4384465E0,1.3798327E1,-6.9020767E0,-3.9680278E0,-2.264411E0,-2.5336754E0,-6.1514044E0,-4.5963535E0,-7.524324E0,-6.4906507E0,-5.7390137E0,-8.620361E0,-8.947557E0,-7.9265294E0,-1.8415965E-1,-4.5013404E0],"split_indices":[100,114,8,57,8,22,22,62,1,61,14,4,79,7,67,0,104,0,14,0,25,69,0,0,0,0,47,0,14,0,114,0,0,0,0,0,0,0,0,0,0,0,0,0,0,0,0,0,0,0,0,0,0,0,0],"split_type":[0,0,0,0,0,0,0,0,0,0,0,0,0,0,0,0,0,0,0,0,0,0,0,0,0,0,0,0,0,0,0,0,0,0,0,0,0,0,0,0,0,0,0,0,0,0,0,0,0,0,0,0,0,0,0],"sum_hessian":[7.0482E4,3.4707E4,3.5775E4,8.281E3,2.6426E4,1.7172E4,1.8603E4,6.121E3,2.16E3,2.1427E4,4.999E3,1.59E3,1.5582E4,3.24E3,1.5363E4,1.08E3,5.041E3,3.6E2,1.8E3,1.4125E4,7.302E3,4.92E3,7.9E1,5.1E2,1.08E3,1.8E3,1.3782E4,3.6E2,2.88E3,3.6E2,1.5003E4,7.2E2,3.6E2,3.601E3,1.44E3,7.2E2,1.08E3,1.3765E4,3.6E2,5.862E3,1.44E3,3.24E3,1.68E3,3.6E2,1.5E2,7.2E2,3.6E2,3.6E2,1.44E3,3.6E2,1.3422E4,2.52E3,3.6E2,1.2213E4,2.79E3],"tree_param":{"num_deleted":"0","num_feature":"125","num_nodes":"55","size_leaf_vector":"1"}},{"base_weights":[6.5084947E-3,4.965206E2,-4.8168542E2,1.5702327E3,1.6000946E2,-7.906345E2,-1.9647452E2,1.9600575E3,4.6515274E2,3.283959E2,-5.6165955E2,-4.5390915E2,-8.249629E2,-8.43525E2,-5.9967922E1,3.2389722E2,2.31046E3,1.4657155E1,2.6433746E2,-4.1410133E1,6.152227E2,-5.8422266E2,8.332722E0,-2.3250195E2,-5.5815076E2,-6.6345123E2,-8.460075E2,-6.0232415E0,-8.734556E2,1.5099755E1,-9.773716E1,8.912552E0,-8.101444E0,2.1332882E1,2.9576786E1,4.427101E0,1.4512285E0,-1.7627189E0,1.7435771E0,5.218383E0,1.563875E1,-6.8330774E0,-3.9283712E0,-2.2418296E0,-2.5085063E0,-6.0899754E0,-4.5505176E0,-7.4492893E0,-6.42579E0,-5.6817822E0,-8.534164E0,-8.925319E0,-8.150681E0,-3.1119797E-1,-5.1373487E0],"categories":[],"categories_nodes":[],"categories_segments":[],"categories_sizes":[],"default_left":[1,0,0,0,0,0,0,0,0,0,0,0,0,0,0,0,0,0,0,0,1,0,0,0,1,0,0,0,0,0,0,0,0,0,0,0,0,0,0,0,0,0,0,0,0,0,0,0,0,0,0,0,0,0,0],"id":12,"left_children":[1,3,5,7,9,11,13,15,17,19,21,23,25,27,29,31,33,-1,35,37,39,41,-1,43,45,47,49,-1,51,-1,53,-1,-1,-1,-1,-1,-1,-1,-1,-1,-1,-1,-1,-1,-1,-1,-1,-1,-1,-1,-1,-1,-1,-1,-1],"loss_changes":[1.6857434E10,1.254031E10,3.1522698E9,3.5668685E9,3.211575E9,1.9813274E8,1.6431785E9,3.5090862E9,4.3381853E8,2.2728996E9,1.5785651E8,3.659024E7,5.2404224E7,2.2871552E7,9.111646E8,6.962457E8,5.7185075E8,0E0,3.823335E7,2.724249E8,1.0682803E9,9.305088E7,0E0,2.1764E4,5.389792E6,2.584192E6,2.7886592E7,0E0,2.481408E6,0E0,4.1578486E8,0E0,0E0,0E0,0E0,0E0,0E0,0E0,0E0,0E0,0E0,0E0,0E0,0E0,0E0,0E0,0E0,0E0,0E0,0E0,0E0,0E0,0E0,0E0,0E0],"parents":[2147483647,0,0,1,1,2,2,3,3,4,4,5,5,6,6,7,7,8,8,9,9,10,10,11,11,12,12,13,13,14,14,15,15,16,16,18,18,19,19,20,20,21,21,23,23,24,24,25,25,26,26,28,28,30,30],"right_children":[2,4,6,8,10,12,14,16,18,20,22,24,26,28,30,32,34,-1,36,38,40,42,-1,44,46,48,50,-1,52,-1,54,-1,-1,-1,-1,-1,-1,-1,-1,-1,-1,-1,-1,-1,-1,-1,-1,-1,-1,-1,-1,-1,-1,-1,-1],"split_conditions":[1.2E1,1.0028E3,2.1E1,4.6E1,3.51E1,8E0,5E0,3.7E1,2.8E1,2.5E1,1.023E3,2.3E2,1.6E2,3.9E1,4E-2,7E0,8E1,1.4657155E1,1.0014E3,2.19E1,1.7E1,1E0,8.332722E0,7E0,9E0,1E1,8E0,-6.0232415E0,1.0074E3,1.5099755E1,1.0174E3,8.912552E0,-8.101444E0,2.1332882E1,2.9576786E1,4.427101E0,1.4512285E0,-1.7627189E0,1.7435771E0,5.218383E0,1.563875E1,-6.8330774E0,-3.9283712E0,-2.2418296E0,-2.5085063E0,-6.0899754E0,-4.5505176E0,-7.4492893E0,-6.42579E0,-5.6817822E0,-8.534164E0,-8.925319E0,-8.150681E0,-3.1119797E-1,-5.1373487E0],"split_indices":[100,114,8,57,8,22,22,62,1,108,14,4,79,7,67,0,78,0,14,8,0,69,0,0,0,0,47,0,14,0,64,0,0,0,0,0,0,0,0,0,0,0,0,0,0,0,0,0,0,0,0,0,0,0,0],"split_type":[0,0,0,0,0,0,0,0,0,0,0,0,0,0,0,0,0,0,0,0,0,0,0,0,0,0,0,0,0,0,0,0,0,0,0,0,0,0,0,0,0,0,0,0,0,0,0,0,0,0,0,0,0,0,0],"sum_hessian":[7.0482E4,3.4707E4,3.5775E4,8.281E3,2.6426E4,1.7172E4,1.8603E4,6.121E3,2.16E3,2.1427E4,4.999E3,1.59E3,1.5582E4,3.24E3,1.5363E4,1.08E3,5.041E3,3.6E2,1.8E3,9.36E3,1.2067E4,4.92E3,7.9E1,5.1E2,1.08E3,1.8E3,1.3782E4,3.6E2,2.88E3,3.6E2,1.5003E4,7.2E2,3.6E2,3.961E3,1.08E3,7.2E2,1.08E3,5.76E3,3.6E3,1.0987E4,1.08E3,3.24E3,1.68E3,3.6E2,1.5E2,7.2E2,3.6E2,3.6E2,1.44E3,3.6E2,1.3422E4,2.16E3,7.2E2,1.2933E4,2.07E3],"tree_param":{"num_deleted":"0","num_feature":"125","num_nodes":"55","size_leaf_vector":"1"}},{"base_weights":[6.912993E-3,4.9155798E2,-4.7687018E2,1.5545391E3,1.5841005E2,-7.8273065E2,-1.9451053E2,1.9404653E3,4.6051074E2,3.2511295E2,-5.5604346E2,-4.4937973E2,-8.16715E2,-8.350969E2,-5.9367653E1,3.2065897E2,2.2873655E3,1.4510989E1,2.616974E2,9.2491776E1,7.7502136E2,-5.783826E2,8.250436E0,-2.3018622E2,-5.5257904E2,-6.5682446E2,-8.375484E2,-5.9631763E0,-8.64727E2,1.4949176E1,-9.6760185E1,8.82355E0,-8.020654E0,2.4995518E1,1.7553858E1,4.382891E0,1.4367301E0,3.514139E-1,2.2791756E1,6.321898E0,1.3556227E1,-6.764768E0,-3.8891113E0,-2.2194736E0,-2.4835868E0,-6.0291605E0,-4.5051384E0,-7.375003E0,-6.3615766E0,-5.625122E0,-8.448829E0,-8.770006E0,-7.766203E0,-1.7920645E-1,-4.4174385E0],"categories":[],"categories_nodes":[],"categories_segments":[],"categories_sizes":[],"default_left":[1,0,0,0,0,0,0,0,0,0,0,0,0,0,0,0,0,0,0,1,1,0,0,0,1,0,0,0,0,0,0,0,0,0,0,0,0,0,0,0,0,0,0,0,0,0,0,0,0,0,0,0,0,0,0],"id":13,"left_children":[1,3,5,7,9,11,13,15,17,19,21,23,25,27,29,31,33,-1,35,37,39,41,-1,43,45,47,49,-1,51,-1,53,-1,-1,-1,-1,-1,-1,-1,-1,-1,-1,-1,-1,-1,-1,-1,-1,-1,-1,-1,-1,-1,-1,-1,-1],"loss_changes":[1.6522115E10,1.2290896E10,3.0895585E9,3.4958848E9,3.1476751E9,1.9418112E8,1.6105115E9,3.4392863E9,4.2521226E8,2.2425446E9,1.5473869E8,3.586221E7,5.1357696E7,2.2414592E7,8.930799E8,6.824186E8,5.647483E8,0E0,3.7473704E7,1.7714214E9,6.0476826E8,9.119872E7,0E0,2.1384E4,5.282208E6,2.533696E6,2.7328512E7,0E0,2.434304E6,0E0,4.0807616E8,0E0,0E0,0E0,0E0,0E0,0E0,0E0,0E0,0E0,0E0,0E0,0E0,0E0,0E0,0E0,0E0,0E0,0E0,0E0,0E0,0E0,0E0,0E0,0E0],"parents":[2147483647,0,0,1,1,2,2,3,3,4,4,5,5,6,6,7,7,8,8,9,9,10,10,11,11,12,12,13,13,14,14,15,15,16,16,18,18,19,19,20,20,21,21,23,23,24,24,25,25,26,26,28,28,30,30],"right_children":[2,4,6,8,10,12,14,16,18,20,22,24,26,28,30,32,34,-1,36,38,40,42,-1,44,46,48,50,-1,52,-1,54,-1,-1,-1,-1,-1,-1,-1,-1,-1,-1,-1,-1,-1,-1,-1,-1,-1,-1,-1,-1,-1,-1,-1,-1],"split_conditions":[1.2E1,1.0028E3,2.1E1,4.6E1,3.51E1,8E0,5E0,3.7E1,2.8E1,7.1E1,1.023E3,2.3E2,1.6E2,3.9E1,4E-2,7E0,1.2E2,1.4510989E1,1.0014E3,1.7E1,1.5E1,1E0,8.250436E0,7E0,9E0,1E1,8E0,-5.9631763E0,1.0079E3,1.4949176E1,1.0174E3,8.82355E0,-8.020654E0,2.4995518E1,1.7553858E1,4.382891E0,1.4367301E0,3.514139E-1,2.2791756E1,6.321898E0,1.3556227E1,-6.764768E0,-3.8891113E0,-2.2194736E0,-2.4835868E0,-6.0291605E0,-4.5051384E0,-7.375003E0,-6.3615766E0,-5.625122E0,-8.448829E0,-8.770006E0,-7.766203E0,-1.7920645E-1,-4.4174385E0],"split_indices":[100,114,8,57,8,22,22,62,1,61,14,4,79,7,67,0,104,0,14,0,25,69,0,0,0,0,47,0,14,0,114,0,0,0,0,0,0,0,0,0,0,0,0,0,0,0,0,0,0,0,0,0,0,0,0],"split_type":[0,0,0,0,0,0,0,0,0,0,0,0,0,0,0,0,0,0,0,0,0,0,0,0,0,0,0,0,0,0,0,0,0,0,0,0,0,0,0,0,0,0,0,0,0,0,0,0,0,0,0,0,0,0,0],"sum_hessian":[7.0482E4,3.4707E4,3.5775E4,8.281E3,2.6426E4,1.7172E4,1.8603E4,6.121E3,2.16E3,2.1427E4,4.999E3,1.59E3,1.5582E4,3.24E3,1.5363E4,1.08E3,5.041E3,3.6E2,1.8E3,1.4125E4,7.302E3,4.92E3,7.9E1,5.1E2,1.08E3,1.8E3,1.3782E4,3.6E2,2.88E3,3.6E2,1.5003E4,7.2E2,3.6E2,3.601E3,1.44E3,7.2E2,1.08E3,1.3765E4,3.6E2,5.862E3,1.44E3,3.24E3,1.68E3,3.6E2,1.5E2,7.2E2,3.6E2,3.6E2,1.44E3,3.6E2,1.3422E4,2.52E3,3.6E2,1.2213E4,2.79E3],"tree_param":{"num_deleted":"0","num_feature":"125","num_nodes":"55","size_leaf_vector":"1"}},{"base_weights":[7.543434E-3,4.8664542E2,-4.72103E2,1.5390013E3,1.5682748E2,-7.749059E2,-1.9256607E2,1.9210677E3,4.55915E2,3.218638E2,-5.504835E2,-4.4489548E2,-8.085497E2,-8.2675287E2,-5.87733E1,3.174531E2,2.2645002E3,1.43662815E1,2.590836E2,9.1568474E1,7.6727386E2,-5.7260095E2,8.1689625E0,-2.2789354E2,-5.47063E2,-6.502638E2,-8.2917395E2,-5.9037094E0,-8.5608545E2,1.4800098E1,-9.579289E1,8.735436E0,-7.94067E0,2.0896763E1,2.9031569E1,4.3391223E0,1.4223758E0,3.4789976E-1,2.256447E1,6.2586894E0,1.3420757E1,-6.697141E0,-3.8502429E0,-2.1973403E0,-2.458915E0,-5.9689527E0,-4.460212E0,-7.301457E0,-6.298005E0,-5.5690265E0,-8.3643465E0,-8.748447E0,-7.9867206E0,-3.0393547E-1,-5.0418463E0],"categories":[],"categories_nodes":[],"categories_segments":[],"categories_sizes":[],"default_left":[1,0,0,0,0,0,0,0,0,0,0,0,0,0,0,0,0,0,0,1,1,0,0,0,1,0,0,0,0,0,0,0,0,0,0,0,0,0,0,0,0,0,0,0,0,0,0,0,0,0,0,0,0,0,0],"id":14,"left_children":[1,3,5,7,9,11,13,15,17,19,21,23,25,27,29,31,33,-1,35,37,39,41,-1,43,45,47,49,-1,51,-1,53,-1,-1,-1,-1,-1,-1,-1,-1,-1,-1,-1,-1,-1,-1,-1,-1,-1,-1,-1,-1,-1,-1,-1,-1],"loss_changes":[1.6193479E10,1.2046414E10,3.0280955E9,3.426306E9,3.085054E9,1.9030938E8,1.5784934E9,3.3708708E9,4.1677674E8,2.1979249E9,1.5168256E8,3.514867E7,5.033165E7,2.1966592E7,8.75354E8,6.688661E8,5.56884E8,0E0,3.6729176E7,1.7362687E9,5.927465E8,8.938381E7,0E0,2.1012E4,5.176768E6,2.484096E6,2.6781696E7,0E0,2.404352E6,0E0,4.0071984E8,0E0,0E0,0E0,0E0,0E0,0E0,0E0,0E0,0E0,0E0,0E0,0E0,0E0,0E0,0E0,0E0,0E0,0E0,0E0,0E0,0E0,0E0,0E0,0E0],"parents":[2147483647,0,0,1,1,2,2,3,3,4,4,5,5,6,6,7,7,8,8,9,9,10,10,11,11,12,12,13,13,14,14,15,15,16,16,18,18,19,19,20,20,21,21,23,23,24,24,25,25,26,26,28,28,30,30],"right_children":[2,4,6,8,10,12,14,16,18,20,22,24,26,28,30,32,34,-1,36,38,40,42,-1,44,46,48,50,-1,52,-1,54,-1,-1,-1,-1,-1,-1,-1,-1,-1,-1,-1,-1,-1,-1,-1,-1,-1,-1,-1,-1,-1,-1,-1,-1],"split_conditions":[1.2E1,1.0028E3,2.1E1,4.6E1,3.51E1,8E0,5E0,3.7E1,2.8E1,7.1E1,1.023E3,2.3E2,1.6E2,3.9E1,4E-2,7E0,8E1,1.43662815E1,1.0014E3,1.7E1,1.5E1,1E0,8.1689625E0,7E0,9E0,1E1,8E0,-5.9037094E0,1.0074E3,1.4800098E1,1.0174E3,8.735436E0,-7.94067E0,2.0896763E1,2.9031569E1,4.3391223E0,1.4223758E0,3.4789976E-1,2.256447E1,6.2586894E0,1.3420757E1,-6.697141E0,-3.8502429E0,-2.1973403E0,-2.458915E0,-5.9689527E0,-4.460212E0,-7.301457E0,-6.298005E0,-5.5690265E0,-8.3643465E0,-8.748447E0,-7.9867206E0,-3.0393547E-1,-5.0418463E0],"split_indices":[100,114,8,57,8,22,22,62,1,61,14,4,79,7,67,0,78,0,14,0,25,69,0,0,0,0,47,0,14,0,64,0,0,0,0,0,0,0,0,0,0,0,0,0,0,0,0,0,0,0,0,0,0,0,0],"split_type":[0,0,0,0,0,0,0,0,0,0,0,0,0,0,0,0,0,0,0,0,0,0,0,0,0,0,0,0,0,0,0,0,0,0,0,0,0,0,0,0,0,0,0,0,0,0,0,0,0,0,0,0,0,0,0],"sum_hessian":[7.0482E4,3.4707E4,3.5775E4,8.281E3,2.6426E4,1.7172E4,1.8603E4,6.121E3,2.16E3,2.1427E4,4.999E3,1.59E3,1.5582E4,3.24E3,1.5363E4,1.08E3,5.041E3,3.6E2,1.8E3,1.4125E4,7.302E3,4.92E3,7.9E1,5.1E2,1.08E3,1.8E3,1.3782E4,3.6E2,2.88E3,3.6E2,1.5003E4,7.2E2,3.6E2,3.961E3,1.08E3,7.2E2,1.08E3,1.3765E4,3.6E2,5.862E3,1.44E3,3.24E3,1.68E3,3.6E2,1.5E2,7.2E2,3.6E2,3.6E2,1.44E3,3.6E2,1.3422E4,2.16E3,7.2E2,1.2933E4,2.07E3],"tree_param":{"num_deleted":"0","num_feature":"125","num_nodes":"55","size_leaf_vector":"1"}},{"base_weights":[8.255404E-3,4.8178217E2,-4.6738354E2,1.5236199E3,1.5526073E2,-7.671593E2,-1.906411E2,1.9018654E3,4.5136517E2,3.1864716E2,-5.449791E2,-4.4045602E2,-8.0046594E2,-8.184924E2,-5.8184933E1,3.1427927E2,2.2418652E3,1.4223016E1,2.5649597E2,-4.1695297E1,5.98134E2,-5.668771E2,8.088294E0,-2.256237E2,-5.4160205E2,-6.4376874E2,-8.2088324E2,-5.844836E0,-8.475304E2,1.4652507E1,-9.48353E1,8.648203E0,-7.8614836E0,2.4512331E1,1.716962E1,4.2957916E0,1.4081655E0,-1.7520872E0,1.7191551E0,5.078607E0,1.5151778E1,-6.6301904E0,-3.8117635E0,-2.1754272E0,-2.4344893E0,-5.9093456E0,-4.4157333E0,-7.228645E0,-6.2350683E0,-5.5134907E0,-8.280709E0,-8.595978E0,-7.6091104E0,-1.743753E-1,-4.3351016E0],"categories":[],"categories_nodes":[],"categories_segments":[],"categories_sizes":[],"default_left":[1,0,0,0,0,0,0,0,0,0,0,0,0,0,0,0,0,0,0,0,1,0,0,0,1,0,0,0,0,0,0,0,0,0,0,0,0,0,0,0,0,0,0,0,0,0,0,0,0,0,0,0,0,0,0],"id":15,"left_children":[1,3,5,7,9,11,13,15,17,19,21,23,25,27,29,31,33,-1,35,37,39,41,-1,43,45,47,49,-1,51,-1,53,-1,-1,-1,-1,-1,-1,-1,-1,-1,-1,-1,-1,-1,-1,-1,-1,-1,-1,-1,-1,-1,-1,-1,-1],"loss_changes":[1.5871389E10,1.1806812E10,2.9678546E9,3.358118E9,3.0236782E9,1.865134E8,1.5471126E9,3.3038234E9,4.0850854E8,2.1580595E9,1.486866E8,3.4449344E7,4.932608E7,2.1527552E7,8.579799E8,6.555827E8,5.4989824E8,0E0,3.599943E7,2.67005E8,9.9827405E8,8.760486E7,0E0,2.0646E4,5.07344E6,2.435712E6,2.6246144E7,0E0,2.357376E6,0E0,3.932875E8,0E0,0E0,0E0,0E0,0E0,0E0,0E0,0E0,0E0,0E0,0E0,0E0,0E0,0E0,0E0,0E0,0E0,0E0,0E0,0E0,0E0,0E0,0E0,0E0],"parents":[2147483647,0,0,1,1,2,2,3,3,4,4,5,5,6,6,7,7,8,8,9,9,10,10,11,11,12,12,13,13,14,14,15,15,16,16,18,18,19,19,20,20,21,21,23,23,24,24,25,25,26,26,28,28,30,30],"right_children":[2,4,6,8,10,12,14,16,18,20,22,24,26,28,30,32,34,-1,36,38,40,42,-1,44,46,48,50,-1,52,-1,54,-1,-1,-1,-1,-1,-1,-1,-1,-1,-1,-1,-1,-1,-1,-1,-1,-1,-1,-1,-1,-1,-1,-1,-1],"split_conditions":[1.2E1,1.0028E3,2.1E1,4.6E1,3.51E1,8E0,5E0,3.7E1,2.8E1,2.5E1,1.023E3,2.3E2,1.6E2,3.9E1,4E-2,7E0,1.2E2,1.4223016E1,1.0014E3,2.19E1,1.7E1,1E0,8.088294E0,7E0,9E0,1E1,8E0,-5.844836E0,1.0079E3,1.4652507E1,1.0174E3,8.648203E0,-7.8614836E0,2.4512331E1,1.716962E1,4.2957916E0,1.4081655E0,-1.7520872E0,1.7191551E0,5.078607E0,1.5151778E1,-6.6301904E0,-3.8117635E0,-2.1754272E0,-2.4344893E0,-5.9093456E0,-4.4157333E0,-7.228645E0,-6.2350683E0,-5.5134907E0,-8.280709E0,-8.595978E0,-7.6091104E0,-1.743753E-1,-4.3351016E0],"split_indices":[100,114,8,57,8,22,22,62,1,108,14,4,79,7,67,0,104,0,14,8,0,69,0,0,0,0,47,0,14,0,114,0,0,0,0,0,0,0,0,0,0,0,0,0,0,0,0,0,0,0,0,0,0,0,0],"split_type":[0,0,0,0,0,0,0,0,0,0,0,0,0,0,0,0,0,0,0,0,0,0,0,0,0,0,0,0,0,0,0,0,0,0,0,0,0,0,0,0,0,0,0,0,0,0,0,0,0,0,0,0,0,0,0],"sum_hessian":[7.0482E4,3.4707E4,3.5775E4,8.281E3,2.6426E4,1.7172E4,1.8603E4,6.121E3,2.16E3,2.1427E4,4.999E3,1.59E3,1.5582E4,3.24E3,1.5363E4,1.08E3,5.041E3,3.6E2,1.8E3,9.36E3,1.2067E4,4.92E3,7.9E1,5.1E2,1.08E3,1.8E3,1.3782E4,3.6E2,2.88E3,3.6E2,1.5003E4,7.2E2,3.6E2,3.601E3,1.44E3,7.2E2,1.08E3,5.76E3,3.6E3,1.0987E4,1.08E3,3.24E3,1.68E3,3.6E2,1.5E2,7.2E2,3.6E2,3.6E2,1.44E3,3.6E2,1.3422E4,2.52E3,3.6E2,1.2213E4,2.79E3],"tree_param":{"num_deleted":"0","num_feature":"125","num_nodes":"55","size_leaf_vector":"1"}},{"base_weights":[8.531569E-3,4.7696664E2,-4.6271124E2,1.5083912E3,1.537088E2,-7.594902E2,-1.8873537E2,1.8828536E3,4.4686075E2,3.154616E2,-5.3952985E2,-4.3606085E2,-7.924631E2,-8.103142E2,-5.760247E1,3.111372E2,2.2194548E3,1.4081181E1,2.5393417E2,8.8960884E1,7.5353284E2,-5.6121045E2,8.008422E0,-2.2337651E2,-5.3619556E2,-6.373385E2,-8.126754E2,-5.7865496E0,-8.3906067E2,1.4506389E1,-9.38873E1,8.561841E0,-7.783086E0,2.0469473E1,2.8496626E1,4.2528934E0,1.3940964E0,3.3100525E-1,2.2188354E1,6.360927E0,1.4289039E1,-6.5639086E0,-3.7736685E0,-2.1537333E0,-2.410306E0,-5.850334E0,-4.371698E0,-7.1565585E0,-6.172761E0,-5.458508E0,-8.197908E0,-8.575084E0,-7.8260508E0,-2.968369E-1,-4.948122E0],"categories":[],"categories_nodes":[],"categories_segments":[],"categories_sizes":[],"default_left":[1,0,0,0,0,0,0,0,0,0,0,0,0,0,0,0,0,0,0,1,0,0,0,0,1,0,0,0,0,0,0,0,0,0,0,0,0,0,0,0,0,0,0,0,0,0,0,0,0,0,0,0,0,0,0],"id":16,"left_children":[1,3,5,7,9,11,13,15,17,19,21,23,25,27,29,31,33,-1,35,37,39,41,-1,43,45,47,49,-1,51,-1,53,-1,-1,-1,-1,-1,-1,-1,-1,-1,-1,-1,-1,-1,-1,-1,-1,-1,-1,-1,-1,-1,-1,-1,-1],"loss_changes":[1.5555674E10,1.1571974E10,2.9088123E9,3.2912814E9,2.963517E9,1.8279424E8,1.516355E9,3.238101E9,4.004044E8,2.1260928E9,1.4574989E8,3.3763904E7,4.834304E7,2.1097472E7,8.409508E8,6.4256314E8,5.423104E8,0E0,3.52842E7,1.6805752E9,5.7833344E8,8.586163E7,0E0,2.0286E4,4.972192E6,2.388032E6,2.5719808E7,0E0,2.329344E6,0E0,3.8620064E8,0E0,0E0,0E0,0E0,0E0,0E0,0E0,0E0,0E0,0E0,0E0,0E0,0E0,0E0,0E0,0E0,0E0,0E0,0E0,0E0,0E0,0E0,0E0,0E0],"parents":[2147483647,0,0,1,1,2,2,3,3,4,4,5,5,6,6,7,7,8,8,9,9,10,10,11,11,12,12,13,13,14,14,15,15,16,16,18,18,19,19,20,20,21,21,23,23,24,24,25,25,26,26,28,28,30,30],"right_children":[2,4,6,8,10,12,14,16,18,20,22,24,26,28,30,32,34,-1,36,38,40,42,-1,44,46,48,50,-1,52,-1,54,-1,-1,-1,-1,-1,-1,-1,-1,-1,-1,-1,-1,-1,-1,-1,-1,-1,-1,-1,-1,-1,-1,-1,-1],"split_conditions":[1.2E1,1.0028E3,2.1E1,4.6E1,3.51E1,8E0,5E0,3.7E1,2.8E1,7.1E1,1.023E3,2.3E2,1.6E2,3.9E1,4E-2,7E0,8E1,1.4081181E1,1.0014E3,1.7E1,1E1,1E0,8.008422E0,7E0,9E0,1E1,8E0,-5.7865496E0,1.0074E3,1.4506389E1,1.0174E3,8.561841E0,-7.783086E0,2.0469473E1,2.8496626E1,4.2528934E0,1.3940964E0,3.3100525E-1,2.2188354E1,6.360927E0,1.4289039E1,-6.5639086E0,-3.7736685E0,-2.1537333E0,-2.410306E0,-5.850334E0,-4.371698E0,-7.1565585E0,-6.172761E0,-5.458508E0,-8.197908E0,-8.575084E0,-7.8260508E0,-2.968369E-1,-4.948122E0],"split_indices":[100,114,8,57,8,22,22,62,1,61,14,4,79,7,67,0,78,0,14,0,24,69,0,0,0,0,47,0,14,0,64,0,0,0,0,0,0,0,0,0,0,0,0,0,0,0,0,0,0,0,0,0,0,0,0],"split_type":[0,0,0,0,0,0,0,0,0,0,0,0,0,0,0,0,0,0,0,0,0,0,0,0,0,0,0,0,0,0,0,0,0,0,0,0,0,0,0,0,0,0,0,0,0,0,0,0,0,0,0,0,0,0,0],"sum_hessian":[7.0482E4,3.4707E4,3.5775E4,8.281E3,2.6426E4,1.7172E4,1.8603E4,6.121E3,2.16E3,2.1427E4,4.999E3,1.59E3,1.5582E4,3.24E3,1.5363E4,1.08E3,5.041E3,3.6E2,1.8E3,1.4125E4,7.302E3,4.92E3,7.9E1,5.1E2,1.08E3,1.8E3,1.3782E4,3.6E2,2.88E3,3.6E2,1.5003E4,7.2E2,3.6E2,3.961E3,1.08E3,7.2E2,1.08E3,1.3765E4,3.6E2,6.222E3,1.08E3,3.24E3,1.68E3,3.6E2,1.5E2,7.2E2,3.6E2,3.6E2,1.44E3,3.6E2,1.3422E4,2.16E3,7.2E2,1.2933E4,2.07E3],"tree_param":{"num_deleted":"0","num_feature":"125","num_nodes":"55","size_leaf_vector":"1"}},{"base_weights":[9.233131E-3,4.7220013E2,-4.5808563E2,1.4933157E3,1.5217322E2,-7.518977E2,-1.8684868E2,1.8640332E3,4.4240128E2,3.1230896E2,-5.34135E2,-4.3170953E2,-7.8454016E2,-8.022179E2,-5.702581E1,3.0802652E2,2.19727E3,1.3940759E1,2.5139798E2,8.8072815E1,7.460003E2,-5.556004E2,7.929339E0,-2.2115172E2,-5.308431E2,-6.3097253E2,-8.045496E2,-5.7288446E0,-8.306758E2,1.4361727E1,-9.294874E1,8.47634E0,-7.705471E0,2.4038568E1,1.679349E1,4.210423E0,1.3801687E0,3.2769495E-1,2.1967085E1,6.2973275E0,1.414628E1,-6.49829E0,-3.7359543E0,-2.132256E0,-2.3863628E0,-5.791912E0,-4.328102E0,-7.0851917E0,-6.111076E0,-5.4040747E0,-8.115935E0,-8.4254055E0,-7.455186E0,-1.6966377E-1,-4.2543015E0],"categories":[],"categories_nodes":[],"categories_segments":[],"categories_sizes":[],"default_left":[1,0,0,0,0,0,0,0,0,0,0,0,0,0,0,0,0,0,0,1,0,0,0,0,1,0,0,0,0,0,0,0,0,0,0,0,0,0,0,0,0,0,0,0,0,0,0,0,0,0,0,0,0,0,0],"id":17,"left_children":[1,3,5,7,9,11,13,15,17,19,21,23,25,27,29,31,33,-1,35,37,39,41,-1,43,45,47,49,-1,51,-1,53,-1,-1,-1,-1,-1,-1,-1,-1,-1,-1,-1,-1,-1,-1,-1,-1,-1,-1,-1,-1,-1,-1,-1,-1],"loss_changes":[1.5246268E10,1.1341808E10,2.8509455E9,3.2257802E9,2.9045596E9,1.791488E8,1.486209E9,3.1736934E9,3.9246096E8,2.0837919E9,1.4287104E8,3.3092096E7,4.737536E7,2.0676096E7,8.2425946E8,6.298022E8,5.3543526E8,0E0,3.458317E7,1.6472251E9,5.6684186E8,8.41527E7,0E0,1.9934E4,4.87296E6,2.341376E6,2.5206784E7,0E0,2.282624E6,0E0,3.790347E8,0E0,0E0,0E0,0E0,0E0,0E0,0E0,0E0,0E0,0E0,0E0,0E0,0E0,0E0,0E0,0E0,0E0,0E0,0E0,0E0,0E0,0E0,0E0,0E0],"parents":[2147483647,0,0,1,1,2,2,3,3,4,4,5,5,6,6,7,7,8,8,9,9,10,10,11,11,12,12,13,13,14,14,15,15,16,16,18,18,19,19,20,20,21,21,23,23,24,24,25,25,26,26,28,28,30,30],"right_children":[2,4,6,8,10,12,14,16,18,20,22,24,26,28,30,32,34,-1,36,38,40,42,-1,44,46,48,50,-1,52,-1,54,-1,-1,-1,-1,-1,-1,-1,-1,-1,-1,-1,-1,-1,-1,-1,-1,-1,-1,-1,-1,-1,-1,-1,-1],"split_conditions":[1.2E1,1.0028E3,2.1E1,4.6E1,3.51E1,8E0,5E0,3.7E1,2.8E1,7.1E1,1.023E3,2.3E2,1.6E2,3.9E1,4E-2,7E0,1.2E2,1.3940759E1,1.0014E3,1.7E1,1E1,1E0,7.929339E0,7E0,9E0,1E1,8E0,-5.7288446E0,1.0079E3,1.4361727E1,1.0174E3,8.47634E0,-7.705471E0,2.4038568E1,1.679349E1,4.210423E0,1.3801687E0,3.2769495E-1,2.1967085E1,6.2973275E0,1.414628E1,-6.49829E0,-3.7359543E0,-2.132256E0,-2.3863628E0,-5.791912E0,-4.328102E0,-7.0851917E0,-6.111076E0,-5.4040747E0,-8.115935E0,-8.4254055E0,-7.455186E0,-1.6966377E-1,-4.2543015E0],"split_indices":[100,114,8,57,8,22,22,62,1,61,14,4,79,7,67,0,104,0,14,0,24,69,0,0,0,0,47,0,14,0,114,0,0,0,0,0,0,0,0,0,0,0,0,0,0,0,0,0,0,0,0,0,0,0,0],"split_type":[0,0,0,0,0,0,0,0,0,0,0,0,0,0,0,0,0,0,0,0,0,0,0,0,0,0,0,0,0,0,0,0,0,0,0,0,0,0,0,0,0,0,0,0,0,0,0,0,0,0,0,0,0,0,0],"sum_hessian":[7.0482E4,3.4707E4,3.5775E4,8.281E3,2.6426E4,1.7172E4,1.8603E4,6.121E3,2.16E3,2.1427E4,4.999E3,1.59E3,1.5582E4,3.24E3,1.5363E4,1.08E3,5.041E3,3.6E2,1.8E3,1.4125E4,7.302E3,4.92E3,7.9E1,5.1E2,1.08E3,1.8E3,1.3782E4,3.6E2,2.88E3,3.6E2,1.5003E4,7.2E2,3.6E2,3.601E3,1.44E3,7.2E2,1.08E3,1.3765E4,3.6E2,6.222E3,1.08E3,3.24E3,1.68E3,3.6E2,1.5E2,7.2E2,3.6E2,3.6E2,1.44E3,3.6E2,1.3422E4,2.52E3,3.6E2,1.2213E4,2.79E3],"tree_param":{"num_deleted":"0","num_feature":"125","num_nodes":"55","size_leaf_vector":"1"}},{"base_weights":[9.835771E-3,4.6748108E2,-4.5350626E2,1.4783899E3,1.5065305E2,-7.443811E2,-1.849808E2,1.8453997E3,4.379863E2,3.091879E2,-5.287941E2,-4.2740164E2,-7.766965E2,-7.942024E2,-5.64549E1,3.04947E2,2.1753054E3,1.3801737E1,2.4888712E2,-4.193696E1,5.815256E2,-5.500465E2,7.851037E0,-2.1894908E2,-5.2554395E2,-6.246701E2,-7.965051E2,-5.671715E0,-8.223745E2,1.4218508E1,-9.201955E1,8.391695E0,-7.6286297E0,2.0050838E1,2.797176E1,4.168377E0,1.3663803E0,-1.7411551E0,1.6953837E0,2.1748022E1,5.323494E0,-6.4333267E0,-3.6986165E0,-2.1109931E0,-2.3626573E0,-5.7340727E0,-4.2849407E0,-7.0145354E0,-6.050008E0,-5.3501835E0,-8.034782E0,-8.405157E0,-7.668606E0,-2.8989798E-1,-4.856143E0],"categories":[],"categories_nodes":[],"categories_segments":[],"categories_sizes":[],"default_left":[1,0,0,0,0,0,0,0,0,0,0,0,0,0,0,0,0,0,0,0,0,0,0,0,1,0,0,0,0,0,0,0,0,0,0,0,0,0,0,0,0,0,0,0,0,0,0,0,0,0,0,0,0,0,0],"id":18,"left_children":[1,3,5,7,9,11,13,15,17,19,21,23,25,27,29,31,33,-1,35,37,39,41,-1,43,45,47,49,-1,51,-1,53,-1,-1,-1,-1,-1,-1,-1,-1,-1,-1,-1,-1,-1,-1,-1,-1,-1,-1,-1,-1,-1,-1,-1,-1],"loss_changes":[1.4943013E10,1.1116202E10,2.7942292E9,3.1615775E9,2.8467758E9,1.7557709E8,1.4566624E9,3.1105618E9,3.846751E8,2.0490665E9,1.4004915E8,3.2433664E7,4.6429184E7,2.0262912E7,8.0789946E8,6.1729466E8,5.281157E8,0E0,3.389605E7,2.6169293E8,9.443848E8,8.247795E7,0E0,1.9584E4,4.77568E6,2.29568E6,2.4700928E7,0E0,2.256768E6,0E0,3.722078E8,0E0,0E0,0E0,0E0,0E0,0E0,0E0,0E0,0E0,0E0,0E0,0E0,0E0,0E0,0E0,0E0,0E0,0E0,0E0,0E0,0E0,0E0,0E0,0E0],"parents":[2147483647,0,0,1,1,2,2,3,3,4,4,5,5,6,6,7,7,8,8,9,9,10,10,11,11,12,12,13,13,14,14,15,15,16,16,18,18,19,19,20,20,21,21,23,23,24,24,25,25,26,26,28,28,30,30],"right_children":[2,4,6,8,10,12,14,16,18,20,22,24,26,28,30,32,34,-1,36,38,40,42,-1,44,46,48,50,-1,52,-1,54,-1,-1,-1,-1,-1,-1,-1,-1,-1,-1,-1,-1,-1,-1,-1,-1,-1,-1,-1,-1,-1,-1,-1,-1],"split_conditions":[1.2E1,1.0028E3,2.1E1,4.6E1,3.51E1,8E0,5E0,3.7E1,2.8E1,2.5E1,1.023E3,2.3E2,1.6E2,3.9E1,4E-2,7E0,8E1,1.3801737E1,1.0014E3,2.19E1,2.61E1,1E0,7.851037E0,7E0,9E0,1E1,8E0,-5.671715E0,1.0074E3,1.4218508E1,1.0174E3,8.391695E0,-7.6286297E0,2.0050838E1,2.797176E1,4.168377E0,1.3663803E0,-1.7411551E0,1.6953837E0,2.1748022E1,5.323494E0,-6.4333267E0,-3.6986165E0,-2.1109931E0,-2.3626573E0,-5.7340727E0,-4.2849407E0,-7.0145354E0,-6.050008E0,-5.3501835E0,-8.034782E0,-8.405157E0,-7.668606E0,-2.8989798E-1,-4.856143E0],"split_indices":[100,114,8,57,8,22,22,62,1,108,14,4,79,7,67,0,78,0,14,8,58,69,0,0,0,0,47,0,14,0,64,0,0,0,0,0,0,0,0,0,0,0,0,0,0,0,0,0,0,0,0,0,0,0,0],"split_type":[0,0,0,0,0,0,0,0,0,0,0,0,0,0,0,0,0,0,0,0,0,0,0,0,0,0,0,0,0,0,0,0,0,0,0,0,0,0,0,0,0,0,0,0,0,0,0,0,0,0,0,0,0,0,0],"sum_hessian":[7.0482E4,3.4707E4,3.5775E4,8.281E3,2.6426E4,1.7172E4,1.8603E4,6.121E3,2.16E3,2.1427E4,4.999E3,1.59E3,1.5582E4,3.24E3,1.5363E4,1.08E3,5.041E3,3.6E2,1.8E3,9.36E3,1.2067E4,4.92E3,7.9E1,5.1E2,1.08E3,1.8E3,1.3782E4,3.6E2,2.88E3,3.6E2,1.5003E4,7.2E2,3.6E2,3.961E3,1.08E3,7.2E2,1.08E3,5.76E3,3.6E3,3.6E2,1.1707E4,3.24E3,1.68E3,3.6E2,1.5E2,7.2E2,3.6E2,3.6E2,1.44E3,3.6E2,1.3422E4,2.16E3,7.2E2,1.2933E4,2.07E3],"tree_param":{"num_deleted":"0","num_feature":"125","num_nodes":"55","size_leaf_vector":"1"}},{"base_weights":[1.0303491E-2,4.6280896E2,-4.489727E2,1.4636143E3,1.4914746E2,-7.369397E2,-1.8313167E2,1.8269537E3,4.3361542E2,3.060973E2,-5.235066E2,-4.2313675E2,-7.689312E2,-7.862671E2,-5.5889744E1,3.018982E2,2.1535618E3,1.3664102E1,2.4640137E2,8.525733E1,7.332203E2,-5.445481E2,7.7735076E0,-2.1676836E2,-5.202978E2,-6.1843066E2,-7.885411E2,-5.6151547E0,-8.141564E2,1.4076717E1,-9.109968E1,8.307894E0,-7.5525556E0,2.3574047E1,1.6425303E1,4.1267514E0,1.3527296E0,3.1023592E-1,2.1531145E1,6.1811376E0,1.3951763E1,-6.3690133E0,-3.6616523E0,-2.089942E0,-2.339187E0,-5.676811E0,-4.2422104E0,-6.944585E0,-5.98955E0,-5.29683E0,-7.9544406E0,-8.321145E0,-7.5920267E0,-1.6506818E-1,-4.1750097E0],"categories":[],"categories_nodes":[],"categories_segments":[],"categories_sizes":[],"default_left":[1,0,0,0,0,0,0,0,0,0,0,0,0,0,0,0,0,0,0,1,0,0,0,0,1,0,0,0,0,0,0,0,0,0,0,0,0,0,0,0,0,0,0,0,0,0,0,0,0,0,0,0,0,0,0],"id":19,"left_children":[1,3,5,7,9,11,13,15,17,19,21,23,25,27,29,31,33,-1,35,37,39,41,-1,43,45,47,49,-1,51,-1,53,-1,-1,-1,-1,-1,-1,-1,-1,-1,-1,-1,-1,-1,-1,-1,-1,-1,-1,-1,-1,-1,-1,-1,-1],"loss_changes":[1.464578E10,1.0895114E10,2.7386404E9,3.0986547E9,2.7901368E9,1.72075E8,1.4277036E9,3.0486917E9,3.770437E8,2.0211511E9,1.3728294E8,3.178832E7,4.550349E7,1.985792E7,7.918643E8,6.050355E8,5.213532E8,0E0,3.3222592E7,1.5841306E9,5.555932E8,8.083648E7,0E0,1.9244E4,4.680352E6,2.250816E6,2.4206848E7,0E0,2.211456E6,0E0,3.652986E8,0E0,0E0,0E0,0E0,0E0,0E0,0E0,0E0,0E0,0E0,0E0,0E0,0E0,0E0,0E0,0E0,0E0,0E0,0E0,0E0,0E0,0E0,0E0,0E0],"parents":[2147483647,0,0,1,1,2,2,3,3,4,4,5,5,6,6,7,7,8,8,9,9,10,10,11,11,12,12,13,13,14,14,15,15,16,16,18,18,19,19,20,20,21,21,23,23,24,24,25,25,26,26,28,28,30,30],"right_children":[2,4,6,8,10,12,14,16,18,20,22,24,26,28,30,32,34,-1,36,38,40,42,-1,44,46,48,50,-1,52,-1,54,-1,-1,-1,-1,-1,-1,-1,-1,-1,-1,-1,-1,-1,-1,-1,-1,-1,-1,-1,-1,-1,-1,-1,-1],"split_conditions":[1.2E1,1.0028E3,2.1E1,4.6E1,3.51E1,8E0,5E0,3.7E1,2.8E1,7.1E1,1.023E3,2.3E2,1.6E2,3.9E1,4E-2,7E0,1.2E2,1.3664102E1,1.0014E3,1.7E1,1E1,1E0,7.7735076E0,7E0,9E0,1E1,8E0,-5.6151547E0,1.0074E3,1.4076717E1,1.0174E3,8.307894E0,-7.5525556E0,2.3574047E1,1.6425303E1,4.1267514E0,1.3527296E0,3.1023592E-1,2.1531145E1,6.1811376E0,1.3951763E1,-6.3690133E0,-3.6616523E0,-2.089942E0,-2.339187E0,-5.676811E0,-4.2422104E0,-6.944585E0,-5.98955E0,-5.29683E0,-7.9544406E0,-8.321145E0,-7.5920267E0,-1.6506818E-1,-4.1750097E0],"split_indices":[100,114,8,57,8,22,22,62,1,61,14,4,79,7,67,0,104,0,14,0,24,69,0,0,0,0,47,0,14,0,114,0,0,0,0,0,0,0,0,0,0,0,0,0,0,0,0,0,0,0,0,0,0,0,0],"split_type":[0,0,0,0,0,0,0,0,0,0,0,0,0,0,0,0,0,0,0,0,0,0,0,0,0,0,0,0,0,0,0,0,0,0,0,0,0,0,0,0,0,0,0,0,0,0,0,0,0,0,0,0,0,0,0],"sum_hessian":[7.0482E4,3.4707E4,3.5775E4,8.281E3,2.6426E4,1.7172E4,1.8603E4,6.121E3,2.16E3,2.1427E4,4.999E3,1.59E3,1.5582E4,3.24E3,1.5363E4,1.08E3,5.041E3,3.6E2,1.8E3,1.4125E4,7.302E3,4.92E3,7.9E1,5.1E2,1.08E3,1.8E3,1.3782E4,3.6E2,2.88E3,3.6E2,1.5003E4,7.2E2,3.6E2,3.601E3,1.44E3,7.2E2,1.08E3,1.3765E4,3.6E2,6.222E3,1.08E3,3.24E3,1.68E3,3.6E2,1.5E2,7.2E2,3.6E2,3.6E2,1.44E3,3.6E2,1.3422E4,2.16E3,7.2E2,1.2213E4,2.79E3],"tree_param":{"num_deleted":"0","num_feature":"125","num_nodes":"55","size_leaf_vector":"1"}},{"base_weights":[1.0881825E-2,4.5818375E2,-4.4448444E2,1.4489854E3,1.4765752E2,-7.2957263E2,-1.8130101E2,1.8086908E3,4.2928812E2,3.0303833E2,-5.1827203E2,-4.189144E2,-7.612435E2,-7.78411E2,-5.5330235E1,2.9887994E2,2.1320342E3,1.3527839E1,2.4394038E2,8.4406364E1,7.258908E2,-5.391047E2,7.6967435E0,-2.1460931E2,-5.15104E2,-6.1225354E2,-7.8065656E2,-5.559159E0,-8.060203E2,1.393634E1,-9.0188995E1,8.224931E0,-7.4772387E0,1.9640682E1,2.7456778E1,4.0855417E0,1.3392143E0,3.0713436E-1,2.1316431E1,6.1193366E0,1.3812375E1,-6.3053427E0,-3.6250582E0,-2.0691004E0,-2.3159497E0,-5.620122E0,-4.199906E0,-6.8753314E0,-5.929696E0,-5.2440085E0,-7.874902E0,-8.176081E0,-7.2286572E0,-2.8311652E-1,-4.765875E0],"categories":[],"categories_nodes":[],"categories_segments":[],"categories_sizes":[],"default_left":[1,0,0,0,0,0,0,0,0,0,0,0,0,0,0,0,0,0,0,1,0,0,0,0,1,0,0,0,0,0,0,0,0,0,0,0,0,0,0,0,0,0,0,0,0,0,0,0,0,0,0,0,0,0,0],"id":20,"left_children":[1,3,5,7,9,11,13,15,17,19,21,23,25,27,29,31,33,-1,35,37,39,41,-1,43,45,47,49,-1,51,-1,53,-1,-1,-1,-1,-1,-1,-1,-1,-1,-1,-1,-1,-1,-1,-1,-1,-1,-1,-1,-1,-1,-1,-1,-1],"loss_changes":[1.4354468E10,1.0678395E10,2.6841585E9,3.0369833E9,2.734629E9,1.6864358E8,1.3993203E9,2.9880463E9,3.695638E8,1.9809376E9,1.3457152E8,3.1155808E7,4.459315E7,1.9460992E7,7.761474E8,5.9301984E8,5.1428966E8,0E0,3.2562552E7,1.5526944E9,5.445532E8,7.922778E7,0E0,1.8908E4,4.586976E6,2.206784E6,2.372352E7,0E0,2.185088E6,0E0,3.5872186E8,0E0,0E0,0E0,0E0,0E0,0E0,0E0,0E0,0E0,0E0,0E0,0E0,0E0,0E0,0E0,0E0,0E0,0E0,0E0,0E0,0E0,0E0,0E0,0E0],"parents":[2147483647,0,0,1,1,2,2,3,3,4,4,5,5,6,6,7,7,8,8,9,9,10,10,11,11,12,12,13,13,14,14,15,15,16,16,18,18,19,19,20,20,21,21,23,23,24,24,25,25,26,26,28,28,30,30],"right_children":[2,4,6,8,10,12,14,16,18,20,22,24,26,28,30,32,34,-1,36,38,40,42,-1,44,46,48,50,-1,52,-1,54,-1,-1,-1,-1,-1,-1,-1,-1,-1,-1,-1,-1,-1,-1,-1,-1,-1,-1,-1,-1,-1,-1,-1,-1],"split_conditions":[1.2E1,1.0028E3,2.1E1,4.6E1,3.51E1,8E0,5E0,3.7E1,2.8E1,7.1E1,1.023E3,2.3E2,1.6E2,3.9E1,4E-2,7E0,8E1,1.3527839E1,1.0014E3,1.7E1,1E1,1E0,7.6967435E0,7E0,9E0,1E1,8E0,-5.559159E0,1.0079E3,1.393634E1,1.0174E3,8.224931E0,-7.4772387E0,1.9640682E1,2.7456778E1,4.0855417E0,1.3392143E0,3.0713436E-1,2.1316431E1,6.1193366E0,1.3812375E1,-6.3053427E0,-3.6250582E0,-2.0691004E0,-2.3159497E0,-5.620122E0,-4.199906E0,-6.8753314E0,-5.929696E0,-5.2440085E0,-7.874902E0,-8.176081E0,-7.2286572E0,-2.8311652E-1,-4.765875E0],"split_indices":[100,114,8,57,8,22,22,62,1,61,14,4,79,7,67,0,78,0,14,0,24,69,0,0,0,0,47,0,14,0,64,0,0,0,0,0,0,0,0,0,0,0,0,0,0,0,0,0,0,0,0,0,0,0,0],"split_type":[0,0,0,0,0,0,0,0,0,0,0,0,0,0,0,0,0,0,0,0,0,0,0,0,0,0,0,0,0,0,0,0,0,0,0,0,0,0,0,0,0,0,0,0,0,0,0,0,0,0,0,0,0,0,0],"sum_hessian":[7.0482E4,3.4707E4,3.5775E4,8.281E3,2.6426E4,1.7172E4,1.8603E4,6.121E3,2.16E3,2.1427E4,4.999E3,1.59E3,1.5582E4,3.24E3,1.5363E4,1.08E3,5.041E3,3.6E2,1.8E3,1.4125E4,7.302E3,4.92E3,7.9E1,5.1E2,1.08E3,1.8E3,1.3782E4,3.6E2,2.88E3,3.6E2,1.5003E4,7.2E2,3.6E2,3.961E3,1.08E3,7.2E2,1.08E3,1.3765E4,3.6E2,6.222E3,1.08E3,3.24E3,1.68E3,3.6E2,1.5E2,7.2E2,3.6E2,3.6E2,1.44E3,3.6E2,1.3422E4,2.52E3,3.6E2,1.2933E4,2.07E3],"tree_param":{"num_deleted":"0","num_feature":"125","num_nodes":"55","size_leaf_vector":"1"}},{"base_weights":[1.1524635E-2,4.5360498E2,-4.4004108E2,1.4345035E3,1.4618242E2,-7.222793E2,-1.7948866E2,1.7906117E3,4.25004E2,3.0000986E2,-5.130897E2,-4.147342E2,-7.536328E2,-7.706334E2,-5.4776382E1,2.9589178E2,2.1107231E3,1.3392936E1,2.4150397E2,-4.2134823E1,5.6538245E2,-5.3371564E2,7.6207376E0,-2.1247182E2,-5.0996207E2,-6.061381E2,-7.7285095E2,-5.503721E0,-7.9796545E2,1.3797363E1,-8.928747E1,8.142796E0,-7.4026737E0,2.3118586E1,1.6064894E1,4.0447426E0,1.3258343E0,-1.7299181E0,1.6722627E0,4.7995014E0,1.4332499E1,-6.2423086E0,-3.58883E0,-2.0484667E0,-2.2929437E0,-5.5639987E0,-4.1580234E0,-6.8067684E0,-5.87044E0,-5.191714E0,-7.796159E0,-8.156249E0,-7.439295E0,1.7349676E0,-1.7953287E0],"categories":[],"categories_nodes":[],"categories_segments":[],"categories_sizes":[],"default_left":[1,0,0,0,0,0,0,0,0,0,0,0,0,0,0,0,0,0,0,0,1,0,0,0,1,0,0,0,0,0,0,0,0,0,0,0,0,0,0,0,0,0,0,0,0,0,0,0,0,0,0,0,0,0,0],"id":21,"left_children":[1,3,5,7,9,11,13,15,17,19,21,23,25,27,29,31,33,-1,35,37,39,41,-1,43,45,47,49,-1,51,-1,53,-1,-1,-1,-1,-1,-1,-1,-1,-1,-1,-1,-1,-1,-1,-1,-1,-1,-1,-1,-1,-1,-1,-1,-1],"loss_changes":[1.4068957E10,1.0466E10,2.630761E9,2.9765448E9,2.6802255E9,1.6527974E8,1.3715005E9,2.9286113E9,3.6223222E8,1.9455968E9,1.319136E8,3.0535904E7,4.370227E7,1.9072384E7,7.6074246E8,5.8124275E8,5.0764186E8,0E0,3.1915592E7,2.5648629E8,8.940805E8,7.765107E7,0E0,1.8578E4,4.495424E6,2.163712E6,2.3248896E7,0E0,2.142464E6,0E0,3.558521E8,0E0,0E0,0E0,0E0,0E0,0E0,0E0,0E0,0E0,0E0,0E0,0E0,0E0,0E0,0E0,0E0,0E0,0E0,0E0,0E0,0E0,0E0,0E0,0E0],"parents":[2147483647,0,0,1,1,2,2,3,3,4,4,5,5,6,6,7,7,8,8,9,9,10,10,11,11,12,12,13,13,14,14,15,15,16,16,18,18,19,19,20,20,21,21,23,23,24,24,25,25,26,26,28,28,30,30],"right_children":[2,4,6,8,10,12,14,16,18,20,22,24,26,28,30,32,34,-1,36,38,40,42,-1,44,46,48,50,-1,52,-1,54,-1,-1,-1,-1,-1,-1,-1,-1,-1,-1,-1,-1,-1,-1,-1,-1,-1,-1,-1,-1,-1,-1,-1,-1],"split_conditions":[1.2E1,1.0028E3,2.1E1,4.6E1,3.51E1,8E0,5E0,3.7E1,2.8E1,2.5E1,1.023E3,2.3E2,1.6E2,3.9E1,4E-2,7E0,1.2E2,1.3392936E1,1.0014E3,2.19E1,1.7E1,1E0,7.6207376E0,7E0,9E0,1E1,8E0,-5.503721E0,1.0074E3,1.3797363E1,5.9E1,8.142796E0,-7.4026737E0,2.3118586E1,1.6064894E1,4.0447426E0,1.3258343E0,-1.7299181E0,1.6722627E0,4.7995014E0,1.4332499E1,-6.2423086E0,-3.58883E0,-2.0484667E0,-2.2929437E0,-5.5639987E0,-4.1580234E0,-6.8067684E0,-5.87044E0,-5.191714E0,-7.796159E0,-8.156249E0,-7.439295E0,1.7349676E0,-1.7953287E0],"split_indices":[100,114,8,57,8,22,22,62,1,108,14,4,79,7,67,0,104,0,14,8,0,69,0,0,0,0,47,0,14,0,11,0,0,0,0,0,0,0,0,0,0,0,0,0,0,0,0,0,0,0,0,0,0,0,0],"split_type":[0,0,0,0,0,0,0,0,0,0,0,0,0,0,0,0,0,0,0,0,0,0,0,0,0,0,0,0,0,0,0,0,0,0,0,0,0,0,0,0,0,0,0,0,0,0,0,0,0,0,0,0,0,0,0],"sum_hessian":[7.0482E4,3.4707E4,3.5775E4,8.281E3,2.6426E4,1.7172E4,1.8603E4,6.121E3,2.16E3,2.1427E4,4.999E3,1.59E3,1.5582E4,3.24E3,1.5363E4,1.08E3,5.041E3,3.6E2,1.8E3,9.36E3,1.2067E4,4.92E3,7.9E1,5.1E2,1.08E3,1.8E3,1.3782E4,3.6E2,2.88E3,3.6E2,1.5003E4,7.2E2,3.6E2,3.601E3,1.44E3,7.2E2,1.08E3,5.76E3,3.6E3,1.0987E4,1.08E3,3.24E3,1.68E3,3.6E2,1.5E2,7.2E2,3.6E2,3.6E2,1.44E3,3.6E2,1.3422E4,2.16E3,7.2E2,3.835E3,1.1168E4],"tree_param":{"num_deleted":"0","num_feature":"125","num_nodes":"55","size_leaf_vector":"1"}},{"base_weights":[1.179119E-2,4.4907108E2,-4.35642E2,1.4201656E3,1.4472119E2,-7.150588E2,-1.776942E2,1.7727122E3,4.2076263E2,2.9701062E2,-5.079593E2,-4.1059567E2,-7.4609814E2,-7.629336E2,-5.4227753E1,2.9293353E2,2.0896238E3,1.32593775E1,2.390919E2,8.1981094E1,7.128959E2,-5.283805E2,7.545483E0,-2.1035559E2,-5.048714E2,-6.000838E2,-7.651234E2,-5.4488363E0,-7.899912E2,1.3659771E1,-8.839462E1,8.06148E0,-7.328852E0,1.9238834E1,2.695149E1,4.0043507E0,1.3125885E0,2.915701E-1,2.0960928E1,6.0046496E0,1.359468E1,-6.1799054E0,-3.5529628E0,-2.0280387E0,-2.270166E0,-5.508436E0,-4.1165586E0,-6.7388897E0,-5.8117766E0,-5.1399407E0,-7.718203E0,-8.013846E0,-7.0823846E0,-1.5372044E-1,-4.0792503E0],"categories":[],"categories_nodes":[],"categories_segments":[],"categories_sizes":[],"default_left":[1,0,0,0,0,0,0,0,0,0,0,0,0,0,0,0,0,0,0,1,0,0,0,0,1,0,0,0,0,0,0,0,0,0,0,0,0,0,0,0,0,0,0,0,0,0,0,0,0,0,0,0,0,0,0],"id":22,"left_children":[1,3,5,7,9,11,13,15,17,19,21,23,25,27,29,31,33,-1,35,37,39,41,-1,43,45,47,49,-1,51,-1,53,-1,-1,-1,-1,-1,-1,-1,-1,-1,-1,-1,-1,-1,-1,-1,-1,-1,-1,-1,-1,-1,-1,-1,-1],"loss_changes":[1.3789093E10,1.0257832E10,2.5784264E9,2.9173023E9,2.626898E9,1.6198451E8,1.3442359E9,2.870354E9,3.550461E8,1.9161962E9,1.2930816E8,2.9928368E7,4.2829824E7,1.8691072E7,7.456429E8,5.6969946E8,5.0082816E8,0E0,3.1281448E7,1.5028549E9,5.3007283E8,7.61056E7,0E0,1.8254E4,4.405664E6,2.121408E6,2.2783488E7,0E0,2.115968E6,0E0,3.5008115E8,0E0,0E0,0E0,0E0,0E0,0E0,0E0,0E0,0E0,0E0,0E0,0E0,0E0,0E0,0E0,0E0,0E0,0E0,0E0,0E0,0E0,0E0,0E0,0E0],"parents":[2147483647,0,0,1,1,2,2,3,3,4,4,5,5,6,6,7,7,8,8,9,9,10,10,11,11,12,12,13,13,14,14,15,15,16,16,18,18,19,19,20,20,21,21,23,23,24,24,25,25,26,26,28,28,30,30],"right_children":[2,4,6,8,10,12,14,16,18,20,22,24,26,28,30,32,34,-1,36,38,40,42,-1,44,46,48,50,-1,52,-1,54,-1,-1,-1,-1,-1,-1,-1,-1,-1,-1,-1,-1,-1,-1,-1,-1,-1,-1,-1,-1,-1,-1,-1,-1],"split_conditions":[1.2E1,1.0028E3,2.1E1,4.6E1,3.51E1,8E0,5E0,3.7E1,2.8E1,7.1E1,1.023E3,2.3E2,1.6E2,3.9E1,4E-2,7E0,8E1,1.32593775E1,1.0014E3,1.7E1,1E1,1E0,7.545483E0,7E0,9E0,1E1,8E0,-5.4488363E0,1.0079E3,1.3659771E1,1.0174E3,8.06148E0,-7.328852E0,1.9238834E1,2.695149E1,4.0043507E0,1.3125885E0,2.915701E-1,2.0960928E1,6.0046496E0,1.359468E1,-6.1799054E0,-3.5529628E0,-2.0280387E0,-2.270166E0,-5.508436E0,-4.1165586E0,-6.7388897E0,-5.8117766E0,-5.1399407E0,-7.718203E0,-8.013846E0,-7.0823846E0,-1.5372044E-1,-4.0792503E0],"split_indices":[100,114,8,57,8,22,22,62,1,61,14,4,79,7,67,0,78,0,14,0,24,69,0,0,0,0,47,0,14,0,114,0,0,0,0,0,0,0,0,0,0,0,0,0,0,0,0,0,0,0,0,0,0,0,0],"split_type":[0,0,0,0,0,0,0,0,0,0,0,0,0,0,0,0,0,0,0,0,0,0,0,0,0,0,0,0,0,0,0,0,0,0,0,0,0,0,0,0,0,0,0,0,0,0,0,0,0,0,0,0,0,0,0],"sum_hessian":[7.0482E4,3.4707E4,3.5775E4,8.281E3,2.6426E4,1.7172E4,1.8603E4,6.121E3,2.16E3,2.1427E4,4.999E3,1.59E3,1.5582E4,3.24E3,1.5363E4,1.08E3,5.041E3,3.6E2,1.8E3,1.4125E4,7.302E3,4.92E3,7.9E1,5.1E2,1.08E3,1.8E3,1.3782E4,3.6E2,2.88E3,3.6E2,1.5003E4,7.2E2,3.6E2,3.961E3,1.08E3,7.2E2,1.08E3,1.3765E4,3.6E2,6.222E3,1.08E3,3.24E3,1.68E3,3.6E2,1.5E2,7.2E2,3.6E2,3.6E2,1.44E3,3.6E2,1.3422E4,2.52E3,3.6E2,1.2213E4,2.79E3],"tree_param":{"num_deleted":"0","num_feature":"125","num_nodes":"55","size_leaf_vector":"1"}},{"base_weights":[1.2414146E-2,-3.7616547E2,5.0998547E2,-6.5046875E2,-5.2102715E1,8.6246E2,-1.2538808E2,-7.076962E2,-2.8601315E2,-6.024529E2,7.946558E1,1.6912435E3,4.7578867E2,-3.223978E2,1.3042079E2,-7.218623E2,2.5171727E-1,-7.289416E2,-2.0455269E2,-3.6954367E2,-7.5842114E2,1.82325E1,1.2823716E3,1.968166E3,3.9805743E2,1.9627865E3,3.8931644E2,-4.4417328E2,-1.042131E2,7.8583703E0,7.518616E1,-7.565744E0,-6.4421477E0,-6.4591026E0,-1.0128769E1,-2.483596E0,-1.8690175E0,-2.0078142E0,-4.2555995E0,-6.7814617E0,-7.973359E0,5.243249E0,-7.20323E-1,1.3605905E1,1.1993003E1,1.794048E1,3.0091784E1,7.5084405E0,2.2086737E0,1.8449461E1,2.07519E1,-3.589007E0,4.876192E0,-2.8885903E0,-5.7902446E0,-2.0482771E0,-3.595136E-2,1.1462977E0,-1.2000265E0],"categories":[],"categories_nodes":[],"categories_segments":[],"categories_sizes":[],"default_left":[0,0,1,0,0,0,0,1,0,0,0,0,0,0,0,0,0,0,0,0,0,1,0,0,0,0,0,0,0,0,0,0,0,0,0,0,0,0,0,0,0,0,0,0,0,0,0,0,0,0,0,0,0,0,0,0,0,0,0],"id":23,"left_children":[1,3,5,7,9,11,13,15,17,19,21,23,25,27,29,31,-1,33,35,37,39,41,43,45,47,49,51,53,55,-1,57,-1,-1,-1,-1,-1,-1,-1,-1,-1,-1,-1,-1,-1,-1,-1,-1,-1,-1,-1,-1,-1,-1,-1,-1,-1,-1,-1,-1],"loss_changes":[1.3521692E10,3.6056714E9,6.7010063E9,4.5798195E8,1.3465587E9,6.166581E9,5.38129E8,1.9712717E8,1.0748101E8,1.3005914E8,1.1055043E9,2.1915791E9,1.6867722E9,1.6022125E8,1.6813392E8,4.9716224E7,0E0,1.0261216E7,1.902904E6,1.3536976E7,6.169344E6,6.5251846E8,3.091968E6,9.085092E8,6.740778E7,5.7216E6,9.125119E8,8.09081E7,2.188657E7,0E0,3.301147E7,0E0,0E0,0E0,0E0,0E0,0E0,0E0,0E0,0E0,0E0,0E0,0E0,0E0,0E0,0E0,0E0,0E0,0E0,0E0,0E0,0E0,0E0,0E0,0E0,0E0,0E0,0E0,0E0],"parents":[2147483647,0,0,1,1,2,2,3,3,4,4,5,5,6,6,7,7,8,8,9,9,10,10,11,11,12,12,13,13,14,14,15,15,17,17,18,18,19,19,20,20,21,21,22,22,23,23,24,24,25,25,26,26,27,27,28,28,30,30],"right_children":[2,4,6,8,10,12,14,16,18,20,22,24,26,28,30,32,-1,34,36,38,40,42,44,46,48,50,52,54,56,-1,58,-1,-1,-1,-1,-1,-1,-1,-1,-1,-1,-1,-1,-1,-1,-1,-1,-1,-1,-1,-1,-1,-1,-1,-1,-1,-1,-1,-1],"split_conditions":[3.6E1,1.016E3,1.2E1,4.1E1,3.2E1,1.0023E3,4.4E1,4.5E1,1E1,1E0,9E0,4.4E1,5.2E1,4.4E1,4.5E1,1.1E1,2.5171727E-1,5E0,1.3E2,7E0,1.3E1,1.6E1,1.8E1,6E1,7E0,1E1,3.7E1,1.3E1,1.5E2,7.8583703E0,4.8E1,-7.565744E0,-6.4421477E0,-6.4591026E0,-1.0128769E1,-2.483596E0,-1.8690175E0,-2.0078142E0,-4.2555995E0,-6.7814617E0,-7.973359E0,5.243249E0,-7.20323E-1,1.3605905E1,1.1993003E1,1.794048E1,3.0091784E1,7.5084405E0,2.2086737E0,1.8449461E1,2.07519E1,-3.589007E0,4.876192E0,-2.8885903E0,-5.7902446E0,-2.0482771E0,-3.595136E-2,1.1462977E0,-1.2000265E0],"split_indices":[112,64,100,7,76,114,62,59,0,19,22,37,61,3,32,74,0,0,4,0,0,28,0,53,0,0,112,3,3,0,83,0,0,0,0,0,0,0,0,0,0,0,0,0,0,0,0,0,0,0,0,0,0,0,0,0,0,0,0],"split_type":[0,0,0,0,0,0,0,0,0,0,0,0,0,0,0,0,0,0,0,0,0,0,0,0,0,0,0,0,0,0,0,0,0,0,0,0,0,0,0,0,0,0,0,0,0,0,0,0,0,0,0,0,0,0,0,0,0,0,0],"sum_hessian":[7.0482E4,4.0562E4,2.992E4,2.1967E4,1.8595E4,1.9244E4,1.0676E4,1.8985E4,2.982E3,3.587E3,1.5008E4,6.121E3,1.3123E4,6.031E3,4.645E3,1.8625E4,3.6E2,4.62E2,2.52E3,1.44E3,2.147E3,1.4282E4,7.26E2,5.041E3,1.08E3,7.2E2,1.2403E4,3.87E3,2.161E3,3.6E2,4.285E3,1.2865E4,5.76E3,3.6E2,1.02E2,7.2E2,1.8E3,3.6E2,1.08E3,7.07E2,1.44E3,2.161E3,1.2121E4,3.66E2,3.6E2,4.321E3,7.2E2,3.6E2,7.2E2,3.6E2,3.6E2,1.44E3,1.0963E4,1.8E3,2.07E3,1.08E3,1.081E3,3.565E3,7.2E2],"tree_param":{"num_deleted":"0","num_feature":"125","num_nodes":"59","size_leaf_vector":"1"}},{"base_weights":[1.327902E-2,-3.7240445E2,5.048888E2,-6.439657E2,-5.1581192E1,8.538405E2,-1.2413446E2,-7.0062E2,-2.8316003E2,6.2177925E1,-6.754534E2,1.6743406E3,4.710338E2,-3.1917563E2,1.2911832E2,-7.146445E2,2.4920712E-1,-7.21688E2,-2.0250887E2,3.666582E0,1.269583E3,-7.5084375E2,-4.4991403E2,1.9484939E3,3.9408588E2,1.943213E3,3.8542337E2,-4.3973383E2,-1.0317193E2,7.7800035E0,7.443433E1,-7.4900928E0,-6.3777375E0,-6.3946905E0,-1.0028464E1,-2.4587939E0,-1.8503376E0,5.1908402E0,-8.310621E-1,1.3470216E1,1.18734045E1,-6.713743E0,-7.893681E0,-4.033068E0,-4.952749E0,1.7761116E1,2.9791283E1,7.4335637E0,2.1866183E0,1.8265476E1,2.0544952E1,-3.5531416E0,4.827434E0,-2.8597207E0,-5.7323704E0,-2.027814E0,-3.5591587E-2,1.1348386E0,-1.1880425E0],"categories":[],"categories_nodes":[],"categories_segments":[],"categories_sizes":[],"default_left":[0,0,1,0,1,0,0,1,0,0,0,0,0,0,0,0,0,0,0,1,0,0,0,0,0,0,0,0,0,0,0,0,0,0,0,0,0,0,0,0,0,0,0,0,0,0,0,0,0,0,0,0,0,0,0,0,0,0,0],"id":24,"left_children":[1,3,5,7,9,11,13,15,17,19,21,23,25,27,29,31,-1,33,35,37,39,41,43,45,47,49,51,53,55,-1,57,-1,-1,-1,-1,-1,-1,-1,-1,-1,-1,-1,-1,-1,-1,-1,-1,-1,-1,-1,-1,-1,-1,-1,-1,-1,-1,-1,-1],"loss_changes":[1.3252725E10,3.5339428E9,6.5677286E9,4.48854E8,1.3198217E9,6.0439296E9,5.274286E8,1.932073E8,1.0535594E8,1.1112003E9,4.842829E7,2.147969E9,1.6533204E9,1.5703405E8,1.647982E8,4.872499E7,0E0,1.0061664E7,1.865184E6,6.7104045E8,3.030656E6,6.04608E6,1.324544E6,8.904827E8,6.60708E7,5.607936E6,8.943589E8,7.929875E7,2.1451458E7,0E0,3.2355096E7,0E0,0E0,0E0,0E0,0E0,0E0,0E0,0E0,0E0,0E0,0E0,0E0,0E0,0E0,0E0,0E0,0E0,0E0,0E0,0E0,0E0,0E0,0E0,0E0,0E0,0E0,0E0,0E0],"parents":[2147483647,0,0,1,1,2,2,3,3,4,4,5,5,6,6,7,7,8,8,9,9,10,10,11,11,12,12,13,13,14,14,15,15,17,17,18,18,19,19,20,20,21,21,22,22,23,23,24,24,25,25,26,26,27,27,28,28,30,30],"right_children":[2,4,6,8,10,12,14,16,18,20,22,24,26,28,30,32,-1,34,36,38,40,42,44,46,48,50,52,54,56,-1,58,-1,-1,-1,-1,-1,-1,-1,-1,-1,-1,-1,-1,-1,-1,-1,-1,-1,-1,-1,-1,-1,-1,-1,-1,-1,-1,-1,-1],"split_conditions":[3.6E1,1.016E3,1.2E1,4.1E1,2.3E1,1.0023E3,4.4E1,4.5E1,1E1,9E0,1.9E2,4.4E1,5.2E1,4.4E1,4.5E1,1.1E1,2.4920712E-1,5E0,1.3E2,1.6E1,1.8E1,1.3E1,1E1,6E1,7E0,1E1,3.7E1,1.3E1,1.5E2,7.7800035E0,4.8E1,-7.4900928E0,-6.3777375E0,-6.3946905E0,-1.0028464E1,-2.4587939E0,-1.8503376E0,5.1908402E0,-8.310621E-1,1.3470216E1,1.18734045E1,-6.713743E0,-7.893681E0,-4.033068E0,-4.952749E0,1.7761116E1,2.9791283E1,7.4335637E0,2.1866183E0,1.8265476E1,2.0544952E1,-3.5531416E0,4.827434E0,-2.8597207E0,-5.7323704E0,-2.027814E0,-3.5591587E-2,1.1348386E0,-1.1880425E0],"split_indices":[112,64,100,7,76,114,62,59,0,22,4,37,61,3,32,74,0,0,4,28,0,0,0,53,0,0,112,3,3,0,83,0,0,0,0,0,0,0,0,0,0,0,0,0,0,0,0,0,0,0,0,0,0,0,0,0,0,0,0],"split_type":[0,0,0,0,0,0,0,0,0,0,0,0,0,0,0,0,0,0,0,0,0,0,0,0,0,0,0,0,0,0,0,0,0,0,0,0,0,0,0,0,0,0,0,0,0,0,0,0,0,0,0,0,0,0,0,0,0,0,0],"sum_hessian":[7.0482E4,4.0562E4,2.992E4,2.1967E4,1.8595E4,1.9244E4,1.0676E4,1.8985E4,2.982E3,1.5728E4,2.867E3,6.121E3,1.3123E4,6.031E3,4.645E3,1.8625E4,3.6E2,4.62E2,2.52E3,1.5002E4,7.26E2,2.147E3,7.2E2,5.041E3,1.08E3,7.2E2,1.2403E4,3.87E3,2.161E3,3.6E2,4.285E3,1.2865E4,5.76E3,3.6E2,1.02E2,7.2E2,1.8E3,2.161E3,1.2841E4,3.66E2,3.6E2,7.07E2,1.44E3,3.6E2,3.6E2,4.321E3,7.2E2,3.6E2,7.2E2,3.6E2,3.6E2,1.44E3,1.0963E4,1.8E3,2.07E3,1.08E3,1.081E3,3.565E3,7.2E2],"tree_param":{"num_deleted":"0","num_feature":"125","num_nodes":"59","size_leaf_vector":"1"}}]},"name":"gbtree"},"learner_model_param":{"base_score":"[1.1087793E3]","boost_from_average":"1","num_class":"0","num_feature":"125","num_target":"1"},"objective":{"name":"reg:squarederror","reg_loss_param":{"scale_pos_weight":"1"}}},"version":[3,1,3]}