{"learner":{"attributes":{"scikit_learn":"{\"_estimator_type\": \"regressor\"}"},"feature_names":["Prevailing Wind Magnitude (MPH)_current","Gust Wind Magnitude (MPH)_current","Vis (MI)_current","Cloud Height 1 (100s of ft)_current","Cloud Height 2 (100s of ft)_current","Cloud Height 3 (100s of ft)_current","Cloud Height 4 (100s of ft)_current","Air Temp (F)_current","Dewpoint (F)_current","6hr Max (F)_current","6hr Min (F)_current","Rel Hum_current","Wind Chill (F)_current","Heat Index (F)_current","Sea Level Pressure (MB)_current","Precip 1hr_current","Precip 3hr_current","Precip 6hr_current","cloud_code_1_current","cloud_code_2_current","cloud_code_3_current","cloud_code_4_current","prevailing_wind_dir_code_current","gust_wind_dir_code_current","weather_code_current","Prevailing Wind Magnitude (MPH)_h1","Gust Wind Magnitude (MPH)_h1","Vis (MI)_h1","Cloud Height 1 (100s of ft)_h1","Cloud Height 2 (100s of ft)_h1","Cloud Height 3 (100s of ft)_h1","Cloud Height 4 (100s of ft)_h1","Air Temp (F)_h1","Dewpoint (F)_h1","6hr Max (F)_h1","6hr Min (F)_h1","Rel Hum_h1","Wind Chill (F)_h1","Heat Index (F)_h1","Sea Level Pressure (MB)_h1","Precip 1hr_h1","Precip 3hr_h1","Precip 6hr_h1","cloud_code_1_h1","cloud_code_2_h1","cloud_code_3_h1","cloud_code_4_h1","prevailing_wind_dir_code_h1","gust_wind_dir_code_h1","weather_code_h1","Prevailing Wind Magnitude (MPH)_h2","Gust Wind Magnitude (MPH)_h2","Vis (MI)_h2","Cloud Height 1 (100s of ft)_h2","Cloud Height 2 (100s of ft)_h2","Cloud Height 3 (100s of ft)_h2","Cloud Height 4 (100s of ft)_h2","Air Temp (F)_h2","Dewpoint (F)_h2","6hr Max (F)_h2","6hr Min (F)_h2","Rel Hum_h2","Wind Chill (F)_h2","Heat Index (F)_h2","Sea Level Pressure (MB)_h2","Precip 1hr_h2","Precip 3hr_h2","Precip 6hr_h2","cloud_code_1_h2","cloud_code_2_h2","cloud_code_3_h2","cloud_code_4_h2","prevailing_wind_dir_code_h2","gust_wind_dir_code_h2","weather_code_h2","Prevailing Wind Magnitude (MPH)_h3","Gust Wind Magnitude (MPH)_h3","Vis (MI)_h3","Cloud Height 1 (100s of ft)_h3","Cloud Height 2 (100s of ft)_h3","Cloud Height 3 (100s of ft)_h3","Cloud Height 4 (100s of ft)_h3","Air Temp (F)_h3","Dewpoint (F)_h3","6hr Max (F)_h3","6hr Min (F)_h3","Rel Hum_h3","Wind Chill (F)_h3","Heat Index (F)_h3","Sea Level Pressure (MB)_h3","Precip 1hr_h3","Precip 3hr_h3","Precip 6hr_h3","cloud_code_1_h3","cloud_code_2_h3","cloud_code_3_h3","cloud_code_4_h3","prevailing_wind_dir_code_h3","gust_wind_dir_code_h3","weather_code_h3","Prevailing Wind Magnitude (MPH)_h4","Gust Wind Magnitude (MPH)_h4","Vis (MI)_h4","Cloud Height 1 (100s of ft)_h4","Cloud Height 2 (100s of ft)_h4","Cloud Height 3 (100s of ft)_h4","Cloud Height 4 (100s of ft)_h4","Air Temp (F)_h4","Dewpoint (F)_h4","6hr Max (F)_h4","6hr Min (F)_h4","Rel Hum_h4","Wind Chill (F)_h4","Heat Index (F)_h4","Sea Level Pressure (MB)_h4","Precip 1hr_h4","Precip 3hr_h4","Precip 6hr_h4","cloud_code_1_h4","cloud_code_2_h4","cloud_code_3_h4","cloud_code_4_h4","prevailing_wind_dir_code_h4","gust_wind_dir_code_h4","weather_code_h4"],"feature_types":["float","float","float","float","float","float","float","float","float","float","float","float","float","float","float","float","float","float","float","float","float","float","float","float","float","float","float","float","float","float","float","float","float","float","float","float","float","float","float","float","float","float","float","float","float","float","float","float","float","float","float","float","float","float","float","float","float","float","float","float","float","float","float","float","float","float","float","float","float","float","float","float","float","float","float","float","float","float","float","float","float","float","float","float","float","float","float","float","float","float","float","float","float","float","float","float","float","float","float","float","float","float","float","float","float","float","float","float","float","float","float","float","float","float","float","float","float","float","float","float","float","float","float","float","float"],"gradient_booster":{"model":{"cats":{"enc":[],"feature_segments":[],"sorted_idx":[]},"gbtree_model_param":{"num_parallel_tree":"1","num_trees":"15"},"iteration_indptr":[0,1,2,3,4,5,6,7,8,9,10,11,12,13,14,15],"tree_info":[0,0,0,0,0,0,0,0,0,0,0,0,0,0,0],"trees":[{"base_weights":[-7.3872993E-6,-5.395144E0,6.560319E1,7.838866E-1,-1.8080383E1,8.97753E1,3.3347073E1,9.063824E0,-1.5355442E1,-9.679144E-1,-1.7002598E1,1.0375378E2,8.133526E1,7.015519E0,4.6498844E1,-1.9762236E-1,1.02544636E-1,-4.0575014E-3,-2.2825432E-1,-2.6545012E-1,-1.3573785E-1,1.0847839E0,9.403021E-1,7.694147E-1,9.864859E-1,2.204672E-1,-8.035116E-2,6.731456E-1,3.9504418E-1],"categories":[],"categories_nodes":[],"categories_segments":[],"categories_sizes":[],"default_left":[0,0,0,0,0,0,0,0,0,0,1,0,0,0,0,0,0,0,0,0,0,0,0,0,0,0,0,0,0],"id":0,"left_children":[1,3,5,7,9,11,13,15,17,-1,19,21,23,25,27,-1,-1,-1,-1,-1,-1,-1,-1,-1,-1,-1,-1,-1,-1],"loss_changes":[2.3479552E7,4.8046255E6,3.927466E6,5.508476E6,1.701644E6,3.31458E5,7.4804225E5,9.3525675E5,1.5608588E6,0E0,6.47741E5,3.946E4,1.29415E5,1.6328833E5,2.0714175E5,0E0,0E0,0E0,0E0,0E0,0E0,0E0,0E0,0E0,0E0,0E0,0E0,0E0,0E0],"parents":[2147483647,0,0,1,1,2,2,3,3,4,4,5,5,6,6,7,7,8,8,10,10,11,11,12,12,13,13,14,14],"right_children":[2,4,6,8,10,12,14,16,18,-1,20,22,24,26,28,-1,-1,-1,-1,-1,-1,-1,-1,-1,-1,-1,-1,-1,-1],"split_conditions":[1.0256E3,9E0,3.31E1,7.7E1,2E1,1.5E2,4.89E1,1.6001E-1,1.004E3,-9.679144E-1,1.7E1,5E0,3.09E1,6E0,3.09E1,-1.9762236E-1,1.02544636E-1,-4.0575014E-3,-2.2825432E-1,-2.6545012E-1,-1.3573785E-1,1.0847839E0,9.403021E-1,7.694147E-1,9.864859E-1,2.204672E-1,-8.035116E-2,6.731456E-1,3.9504418E-1],"split_indices":[14,22,7,111,101,28,84,15,14,0,62,0,8,0,8,0,0,0,0,0,0,0,0,0,0,0,0,0,0],"split_type":[0,0,0,0,0,0,0,0,0,0,0,0,0,0,0,0,0,0,0,0,0,0,0,0,0,0,0,0,0],"sum_hessian":[6.6336E4,6.1296E4,5.04E3,4.1219E4,2.0077E4,2.88E3,2.16E3,2.7243E4,1.3976E4,2.7E2,1.9807E4,1.08E3,1.8E3,7.2E2,1.44E3,1.08E3,2.6163E4,4.657E3,9.319E3,5.234E3,1.4573E4,7.2E2,3.6E2,1.44E3,3.6E2,3.6E2,3.6E2,3.6E2,1.08E3],"tree_param":{"num_deleted":"0","num_feature":"125","num_nodes":"29","size_leaf_vector":"1"}},{"base_weights":[4.333103E-5,-5.3412194E0,6.494814E1,7.7604073E-1,-1.7899647E1,8.887886E1,3.3014156E1,8.973188E0,-1.5201913E1,-9.5827085E-1,-1.6832592E1,1.0271811E2,8.052289E1,6.9455633E0,4.6034588E1,1.1863983E-1,-2.720111E-2,-4.016922E-3,-2.2597215E-1,-2.627962E-1,-1.3438052E-1,1.0739511E0,9.3092513E-1,7.6172596E-1,9.766484E-1,2.182687E-1,-7.954986E-2,6.6643274E-1,3.9109734E-1],"categories":[],"categories_nodes":[],"categories_segments":[],"categories_sizes":[],"default_left":[0,0,0,0,0,0,0,0,0,0,1,0,0,0,0,0,0,0,0,0,0,0,0,0,0,0,0,0,0],"id":1,"left_children":[1,3,5,7,9,11,13,15,17,-1,19,21,23,25,27,-1,-1,-1,-1,-1,-1,-1,-1,-1,-1,-1,-1,-1,-1],"loss_changes":[2.3012976E7,4.709044E6,3.849414E6,5.3988695E6,1.6679315E6,3.2489E5,7.331765E5,9.209595E5,1.529803E6,0E0,6.34856E5,3.8667E4,1.26866E5,1.6004794E5,2.0304175E5,0E0,0E0,0E0,0E0,0E0,0E0,0E0,0E0,0E0,0E0,0E0,0E0,0E0,0E0],"parents":[2147483647,0,0,1,1,2,2,3,3,4,4,5,5,6,6,7,7,8,8,10,10,11,11,12,12,13,13,14,14],"right_children":[2,4,6,8,10,12,14,16,18,-1,20,22,24,26,28,-1,-1,-1,-1,-1,-1,-1,-1,-1,-1,-1,-1,-1,-1],"split_conditions":[1.0256E3,9E0,3.31E1,7.7E1,2E1,1.5E2,4.89E1,3.51E1,1.004E3,-9.5827085E-1,1.7E1,5E0,3.09E1,6E0,3.09E1,1.1863983E-1,-2.720111E-2,-4.016922E-3,-2.2597215E-1,-2.627962E-1,-1.3438052E-1,1.0739511E0,9.3092513E-1,7.6172596E-1,9.766484E-1,2.182687E-1,-7.954986E-2,6.6643274E-1,3.9109734E-1],"split_indices":[14,22,7,111,101,28,84,33,14,0,62,0,8,0,8,0,0,0,0,0,0,0,0,0,0,0,0,0,0],"split_type":[0,0,0,0,0,0,0,0,0,0,0,0,0,0,0,0,0,0,0,0,0,0,0,0,0,0,0,0,0],"sum_hessian":[6.6336E4,6.1296E4,5.04E3,4.1219E4,2.0077E4,2.88E3,2.16E3,2.7243E4,1.3976E4,2.7E2,1.9807E4,1.08E3,1.8E3,7.2E2,1.44E3,2.1843E4,5.4E3,4.657E3,9.319E3,5.234E3,1.4573E4,7.2E2,3.6E2,1.44E3,3.6E2,3.6E2,3.6E2,3.6E2,1.08E3],"tree_param":{"num_deleted":"0","num_feature":"125","num_nodes":"29","size_leaf_vector":"1"}},{"base_weights":[8.934317E-5,-5.287838E0,6.4299644E1,7.682727E-1,-1.772073E1,8.799138E1,3.2684578E1,8.883448E0,-1.5049899E1,-9.487234E-1,-1.6664297E1,1.0169279E2,7.971863E1,6.876308E0,4.5574986E1,-1.953762E-1,1.00573614E-1,-3.9766473E-3,-2.2371258E-1,-2.6016882E-1,-1.3303691E-1,1.0632267E0,9.216415E-1,7.5411403E-1,9.669089E-1,2.1609214E-1,-7.875647E-2,6.5978676E-1,3.8719013E-1],"categories":[],"categories_nodes":[],"categories_segments":[],"categories_sizes":[],"default_left":[0,0,0,0,0,0,0,0,0,0,1,0,0,0,0,0,0,0,0,0,0,0,0,0,0,0,0,0,0],"id":2,"left_children":[1,3,5,7,9,11,13,15,17,-1,19,21,23,25,27,-1,-1,-1,-1,-1,-1,-1,-1,-1,-1,-1,-1,-1,-1],"loss_changes":[2.2555676E7,4.615369E6,3.77291E6,5.291431E6,1.6348855E6,3.1845E5,7.1860625E5,9.0916225E5,1.499363E6,0E0,6.222265E5,3.7891E4,1.24367E5,1.5687173E5,1.9902275E5,0E0,0E0,0E0,0E0,0E0,0E0,0E0,0E0,0E0,0E0,0E0,0E0,0E0,0E0],"parents":[2147483647,0,0,1,1,2,2,3,3,4,4,5,5,6,6,7,7,8,8,10,10,11,11,12,12,13,13,14,14],"right_children":[2,4,6,8,10,12,14,16,18,-1,20,22,24,26,28,-1,-1,-1,-1,-1,-1,-1,-1,-1,-1,-1,-1,-1,-1],"split_conditions":[1.0256E3,9E0,3.31E1,7.7E1,2E1,1.5E2,4.89E1,1.6001E-1,1.004E3,-9.487234E-1,1.7E1,5E0,3.09E1,6E0,3.09E1,-1.953762E-1,1.00573614E-1,-3.9766473E-3,-2.2371258E-1,-2.6016882E-1,-1.3303691E-1,1.0632267E0,9.216415E-1,7.5411403E-1,9.669089E-1,2.1609214E-1,-7.875647E-2,6.5978676E-1,3.8719013E-1],"split_indices":[14,22,7,111,101,28,84,15,14,0,62,0,8,0,8,0,0,0,0,0,0,0,0,0,0,0,0,0,0],"split_type":[0,0,0,0,0,0,0,0,0,0,0,0,0,0,0,0,0,0,0,0,0,0,0,0,0,0,0,0,0],"sum_hessian":[6.6336E4,6.1296E4,5.04E3,4.1219E4,2.0077E4,2.88E3,2.16E3,2.7243E4,1.3976E4,2.7E2,1.9807E4,1.08E3,1.8E3,7.2E2,1.44E3,1.08E3,2.6163E4,4.657E3,9.319E3,5.234E3,1.4573E4,7.2E2,3.6E2,1.44E3,3.6E2,3.6E2,3.6E2,3.6E2,1.08E3],"tree_param":{"num_deleted":"0","num_feature":"125","num_nodes":"29","size_leaf_vector":"1"}},{"base_weights":[1.3037308E-4,-5.234994E0,6.3657623E1,7.6057583E-1,-1.7543598E1,8.711275E1,3.2358288E1,8.794598E0,-1.4899412E1,-9.392711E-1,-1.6497683E1,9.3178856E1,6.8810425E1,6.807739E0,4.5119972E1,1.1644755E-1,-2.7343113E-2,-3.936983E-3,-2.2147556E-1,-2.575677E-1,-1.3170674E-1,8.0401653E-1,9.9507225E-1,7.1965253E-1,6.5464973E-1,2.1393718E-1,-7.797099E-2,6.5320706E-1,3.8332194E-1],"categories":[],"categories_nodes":[],"categories_segments":[],"categories_sizes":[],"default_left":[0,0,0,0,0,1,0,0,0,0,1,0,0,0,0,0,0,0,0,0,0,0,0,0,0,0,0,0,0],"id":3,"left_children":[1,3,5,7,9,11,13,15,17,-1,19,21,23,25,27,-1,-1,-1,-1,-1,-1,-1,-1,-1,-1,-1,-1,-1,-1],"loss_changes":[2.2107464E7,4.523554E6,3.697926E6,5.1861295E6,1.6024945E6,3.1345E5,7.04326E5,8.95248E5,1.4695262E6,0E0,6.09847E5,1.66734E5,2.89875E3,1.5375847E5,1.95083E5,0E0,0E0,0E0,0E0,0E0,0E0,0E0,0E0,0E0,0E0,0E0,0E0,0E0,0E0],"parents":[2147483647,0,0,1,1,2,2,3,3,4,4,5,5,6,6,7,7,8,8,10,10,11,11,12,12,13,13,14,14],"right_children":[2,4,6,8,10,12,14,16,18,-1,20,22,24,26,28,-1,-1,-1,-1,-1,-1,-1,-1,-1,-1,-1,-1,-1,-1],"split_conditions":[1.0256E3,9E0,3.31E1,7.7E1,2E1,2.5E2,4.89E1,3.51E1,1.004E3,-9.392711E-1,1.7E1,1.0265E3,4E0,6E0,3.09E1,1.1644755E-1,-2.7343113E-2,-3.936983E-3,-2.2147556E-1,-2.575677E-1,-1.3170674E-1,8.0401653E-1,9.9507225E-1,7.1965253E-1,6.5464973E-1,2.1393718E-1,-7.797099E-2,6.5320706E-1,3.8332194E-1],"split_indices":[14,22,7,111,101,28,84,33,14,0,62,114,3,0,8,0,0,0,0,0,0,0,0,0,0,0,0,0,0],"split_type":[0,0,0,0,0,0,0,0,0,0,0,0,0,0,0,0,0,0,0,0,0,0,0,0,0,0,0,0,0],"sum_hessian":[6.6336E4,6.1296E4,5.04E3,4.1219E4,2.0077E4,2.88E3,2.16E3,2.7243E4,1.3976E4,2.7E2,1.9807E4,2.16E3,7.2E2,7.2E2,1.44E3,2.1843E4,5.4E3,4.657E3,9.319E3,5.234E3,1.4573E4,7.2E2,1.44E3,3.6E2,3.6E2,3.6E2,3.6E2,3.6E2,1.08E3],"tree_param":{"num_deleted":"0","num_feature":"125","num_nodes":"29","size_leaf_vector":"1"}},{"base_weights":[1.6983335E-4,-5.18267E0,6.30219E1,7.529607E-1,-1.7368223E1,8.624271E1,3.2035244E1,9.19043E0,-1.3871811E1,-9.299131E-1,-1.6332722E1,9.224789E1,6.8124214E1,6.7398553E0,4.4669487E1,1.1689044E-1,-5.8385838E-2,3.3038873E-2,-2.0769535E-1,-2.549925E-1,-1.3038969E-1,7.9598755E-1,9.851282E-1,7.124759E-1,6.4812124E-1,2.1180384E-1,-7.7193424E-2,6.4669317E-1,3.794922E-1],"categories":[],"categories_nodes":[],"categories_segments":[],"categories_sizes":[],"default_left":[0,0,0,0,0,1,0,1,0,0,1,0,0,0,0,0,0,0,0,0,0,0,0,0,0,0,0,0,0],"id":4,"left_children":[1,3,5,7,9,11,13,15,17,-1,19,21,23,25,27,-1,-1,-1,-1,-1,-1,-1,-1,-1,-1,-1,-1,-1,-1],"loss_changes":[2.1668084E7,4.43356E6,3.624416E6,5.086513E6,1.5707465E6,3.0718E5,6.903285E5,9.8167025E5,1.7867632E6,0E0,5.97716E5,1.6341E5,2.84125E3,1.5070719E5,1.912225E5,0E0,0E0,0E0,0E0,0E0,0E0,0E0,0E0,0E0,0E0,0E0,0E0,0E0,0E0],"parents":[2147483647,0,0,1,1,2,2,3,3,4,4,5,5,6,6,7,7,8,8,10,10,11,11,12,12,13,13,14,14],"right_children":[2,4,6,8,10,12,14,16,18,-1,20,22,24,26,28,-1,-1,-1,-1,-1,-1,-1,-1,-1,-1,-1,-1,-1,-1],"split_conditions":[1.0256E3,9E0,3.31E1,7.7E1,2E1,2.5E2,4.89E1,2.3E1,1.0002E3,-9.299131E-1,1.7E1,1.0265E3,4E0,6E0,3.09E1,1.1689044E-1,-5.8385838E-2,3.3038873E-2,-2.0769535E-1,-2.549925E-1,-1.3038969E-1,7.9598755E-1,9.851282E-1,7.124759E-1,6.4812124E-1,2.1180384E-1,-7.7193424E-2,6.4669317E-1,3.794922E-1],"split_indices":[14,22,7,36,101,28,84,51,14,0,62,114,3,0,8,0,0,0,0,0,0,0,0,0,0,0,0,0,0],"split_type":[0,0,0,0,0,0,0,0,0,0,0,0,0,0,0,0,0,0,0,0,0,0,0,0,0,0,0,0,0],"sum_hessian":[6.6336E4,6.1296E4,5.04E3,4.1219E4,2.0077E4,2.88E3,2.16E3,2.6139E4,1.508E4,2.7E2,1.9807E4,2.16E3,7.2E2,7.2E2,1.44E3,2.2413E4,3.726E3,4.321E3,1.0759E4,5.234E3,1.4573E4,7.2E2,1.44E3,3.6E2,3.6E2,3.6E2,3.6E2,3.6E2,1.08E3],"tree_param":{"num_deleted":"0","num_feature":"125","num_nodes":"29","size_leaf_vector":"1"}},{"base_weights":[2.1763229E-4,-5.13086E0,6.2392532E1,7.4543285E-1,-1.7194595E1,8.538136E1,3.1715431E1,8.633689E0,-1.4630426E1,-9.2064834E-1,-1.6169401E1,7.936898E1,1.0328343E0,6.672642E0,4.4223507E1,-1.91076E-1,9.779526E-2,-4.085569E-3,-2.173674E-1,-2.5244296E-1,-1.2908578E-1,7.317511E-1,9.1638047E-1,2.0969176E-1,-7.642377E-2,6.402441E-1,3.7570083E-1],"categories":[],"categories_nodes":[],"categories_segments":[],"categories_sizes":[],"default_left":[0,0,0,0,0,0,0,0,0,0,1,0,0,0,0,0,0,0,0,0,0,0,0,0,0,0,0],"id":5,"left_children":[1,3,5,7,9,11,13,15,17,-1,19,21,-1,23,25,-1,-1,-1,-1,-1,-1,-1,-1,-1,-1,-1,-1],"loss_changes":[2.1237434E7,4.3453595E6,3.552362E6,4.9996475E6,1.539628E6,3.01896E5,6.7661025E5,8.6619225E5,1.4125778E6,0E0,5.85825E5,1.57515E5,0E0,1.4771666E5,1.874375E5,0E0,0E0,0E0,0E0,0E0,0E0,0E0,0E0,0E0,0E0,0E0,0E0],"parents":[2147483647,0,0,1,1,2,2,3,3,4,4,5,5,6,6,7,7,8,8,10,10,11,11,13,13,14,14],"right_children":[2,4,6,8,10,12,14,16,18,-1,20,22,-1,24,26,-1,-1,-1,-1,-1,-1,-1,-1,-1,-1,-1,-1],"split_conditions":[1.0256E3,9E0,3.31E1,7.7E1,2E1,3E0,4.89E1,1.6001E-1,1.004E3,-9.2064834E-1,1.7E1,5E0,1.0328343E0,6E0,3.09E1,-1.91076E-1,9.779526E-2,-4.085569E-3,-2.173674E-1,-2.5244296E-1,-1.2908578E-1,7.317511E-1,9.1638047E-1,2.0969176E-1,-7.642377E-2,6.402441E-1,3.7570083E-1],"split_indices":[14,22,7,111,101,24,84,15,14,0,62,97,0,0,8,0,0,0,0,0,0,0,0,0,0,0,0],"split_type":[0,0,0,0,0,0,0,0,0,0,0,0,0,0,0,0,0,0,0,0,0,0,0,0,0,0,0],"sum_hessian":[6.6336E4,6.1296E4,5.04E3,4.1219E4,2.0077E4,2.88E3,2.16E3,2.7243E4,1.3976E4,2.7E2,1.9807E4,2.16E3,7.2E2,7.2E2,1.44E3,1.08E3,2.6163E4,4.657E3,9.319E3,5.234E3,1.4573E4,1.44E3,7.2E2,3.6E2,3.6E2,3.6E2,1.08E3],"tree_param":{"num_deleted":"0","num_feature":"125","num_nodes":"27","size_leaf_vector":"1"}},{"base_weights":[2.455005E-4,-5.0795813E0,6.1769367E1,7.3796463E-1,-1.702271E1,8.452848E1,3.1398806E1,8.547336E0,-1.4484131E1,-9.1147584E-1,-1.6007725E1,9.043298E1,6.671412E1,6.6060996E0,4.378197E1,1.1323493E-1,-2.6822397E-2,-4.0446846E-3,-2.1519385E-1,-2.4991901E-1,-1.2779497E-1,7.807313E-1,9.6554434E-1,6.980737E-1,6.343607E-1,2.0760073E-1,-7.566173E-2,6.338593E-1,3.719473E-1],"categories":[],"categories_nodes":[],"categories_segments":[],"categories_sizes":[],"default_left":[0,0,0,0,0,1,0,0,0,0,1,0,0,0,0,0,0,0,0,0,0,0,0,0,0,0,0,0,0],"id":6,"left_children":[1,3,5,7,9,11,13,15,17,-1,19,21,23,25,27,-1,-1,-1,-1,-1,-1,-1,-1,-1,-1,-1,-1,-1,-1],"loss_changes":[2.0815302E7,4.25891E6,3.48172E6,4.900151E6,1.509125E6,2.97004E5,6.6316375E5,8.49364E5,1.3844695E6,0E0,5.741715E5,1.55964E5,2.8825E3,1.4478533E5,1.837275E5,0E0,0E0,0E0,0E0,0E0,0E0,0E0,0E0,0E0,0E0,0E0,0E0,0E0,0E0],"parents":[2147483647,0,0,1,1,2,2,3,3,4,4,5,5,6,6,7,7,8,8,10,10,11,11,12,12,13,13,14,14],"right_children":[2,4,6,8,10,12,14,16,18,-1,20,22,24,26,28,-1,-1,-1,-1,-1,-1,-1,-1,-1,-1,-1,-1,-1,-1],"split_conditions":[1.0256E3,9E0,3.31E1,7.7E1,2E1,2.5E2,4.89E1,3.51E1,1.004E3,-9.1147584E-1,1.7E1,1.0265E3,4E0,6E0,3.09E1,1.1323493E-1,-2.6822397E-2,-4.0446846E-3,-2.1519385E-1,-2.4991901E-1,-1.2779497E-1,7.807313E-1,9.6554434E-1,6.980737E-1,6.343607E-1,2.0760073E-1,-7.566173E-2,6.338593E-1,3.719473E-1],"split_indices":[14,22,7,111,101,28,84,33,14,0,62,114,3,0,8,0,0,0,0,0,0,0,0,0,0,0,0,0,0],"split_type":[0,0,0,0,0,0,0,0,0,0,0,0,0,0,0,0,0,0,0,0,0,0,0,0,0,0,0,0,0],"sum_hessian":[6.6336E4,6.1296E4,5.04E3,4.1219E4,2.0077E4,2.88E3,2.16E3,2.7243E4,1.3976E4,2.7E2,1.9807E4,2.16E3,7.2E2,7.2E2,1.44E3,2.1843E4,5.4E3,4.657E3,9.319E3,5.234E3,1.4573E4,7.2E2,1.44E3,3.6E2,3.6E2,3.6E2,3.6E2,3.6E2,1.08E3],"tree_param":{"num_deleted":"0","num_feature":"125","num_nodes":"29","size_leaf_vector":"1"}},{"base_weights":[2.9104433E-4,-5.0288024E0,6.1152508E1,7.3058826E-1,-1.6852543E1,8.3684265E1,3.1085342E1,8.461877E0,-1.433931E1,-9.023947E-1,-1.5847659E1,7.777226E1,1.0128782E0,6.5402117E0,4.3344852E1,-1.8889906E-1,9.5916286E-2,-4.0041045E-3,-2.1304229E-1,-2.474204E-1,-1.2651698E-1,7.172089E-1,8.9758724E-1,2.0553035E-1,-7.490729E-2,6.275383E-1,3.6823124E-1],"categories":[],"categories_nodes":[],"categories_segments":[],"categories_sizes":[],"default_left":[0,0,0,0,0,0,0,0,0,0,1,0,0,0,0,0,0,0,0,0,0,0,0,0,0,0,0],"id":7,"left_children":[1,3,5,7,9,11,13,15,17,-1,19,21,-1,23,25,-1,-1,-1,-1,-1,-1,-1,-1,-1,-1,-1,-1],"loss_changes":[2.04016E7,4.1741868E6,3.412506E6,4.802653E6,1.479227E6,2.91954E5,6.4998575E5,8.420404E5,1.3569252E6,0E0,5.62751E5,1.50309E5,0E0,1.41912E5,1.8009125E5,0E0,0E0,0E0,0E0,0E0,0E0,0E0,0E0,0E0,0E0,0E0,0E0],"parents":[2147483647,0,0,1,1,2,2,3,3,4,4,5,5,6,6,7,7,8,8,10,10,11,11,13,13,14,14],"right_children":[2,4,6,8,10,12,14,16,18,-1,20,22,-1,24,26,-1,-1,-1,-1,-1,-1,-1,-1,-1,-1,-1,-1],"split_conditions":[1.0256E3,9E0,3.31E1,7.7E1,2E1,3E0,4.89E1,1.6001E-1,1.004E3,-9.023947E-1,1.7E1,5E0,1.0128782E0,6E0,3.09E1,-1.8889906E-1,9.5916286E-2,-4.0041045E-3,-2.1304229E-1,-2.474204E-1,-1.2651698E-1,7.172089E-1,8.9758724E-1,2.0553035E-1,-7.490729E-2,6.275383E-1,3.6823124E-1],"split_indices":[14,22,7,111,101,24,84,15,14,0,62,97,0,0,8,0,0,0,0,0,0,0,0,0,0,0,0],"split_type":[0,0,0,0,0,0,0,0,0,0,0,0,0,0,0,0,0,0,0,0,0,0,0,0,0,0,0],"sum_hessian":[6.6336E4,6.1296E4,5.04E3,4.1219E4,2.0077E4,2.88E3,2.16E3,2.7243E4,1.3976E4,2.7E2,1.9807E4,2.16E3,7.2E2,7.2E2,1.44E3,1.08E3,2.6163E4,4.657E3,9.319E3,5.234E3,1.4573E4,1.44E3,7.2E2,3.6E2,3.6E2,3.6E2,1.08E3],"tree_param":{"num_deleted":"0","num_feature":"125","num_nodes":"27","size_leaf_vector":"1"}},{"base_weights":[3.2113682E-4,-4.9785395E0,6.0541725E1,7.232742E-1,-1.6684076E1,8.284833E1,3.0775015E1,8.846694E0,-1.3357152E1,-8.93404E-1,-1.5689199E1,8.865397E1,6.53326E1,6.4749947E0,4.29121E1,1.1292407E-1,-5.864082E-2,3.2382466E-2,-2.002183E-1,-2.4494682E-1,-1.252518E-1,7.657725E-1,9.463499E-1,6.839601E-1,6.2088215E-1,2.0348069E-1,-7.4160166E-2,6.212804E-1,3.645524E-1],"categories":[],"categories_nodes":[],"categories_segments":[],"categories_sizes":[],"default_left":[0,0,0,0,0,1,0,1,0,0,1,0,0,0,0,0,0,0,0,0,0,0,0,0,0,0,0,0,0],"id":8,"left_children":[1,3,5,7,9,11,13,15,17,-1,19,21,23,25,27,-1,-1,-1,-1,-1,-1,-1,-1,-1,-1,-1,-1,-1,-1],"loss_changes":[1.9996078E7,4.0911455E6,3.344644E6,4.714912E6,1.44992E6,2.87178E5,6.37069E5,9.4054E5,1.6680688E6,0E0,5.515585E5,1.48844E5,2.919E3,1.3909556E5,1.7652675E5,0E0,0E0,0E0,0E0,0E0,0E0,0E0,0E0,0E0,0E0,0E0,0E0,0E0,0E0],"parents":[2147483647,0,0,1,1,2,2,3,3,4,4,5,5,6,6,7,7,8,8,10,10,11,11,12,12,13,13,14,14],"right_children":[2,4,6,8,10,12,14,16,18,-1,20,22,24,26,28,-1,-1,-1,-1,-1,-1,-1,-1,-1,-1,-1,-1,-1,-1],"split_conditions":[1.0256E3,9E0,3.31E1,7.7E1,2E1,2.5E2,4.89E1,2.3E1,1.0002E3,-8.93404E-1,1.7E1,1.0265E3,4E0,6E0,3.09E1,1.1292407E-1,-5.864082E-2,3.2382466E-2,-2.002183E-1,-2.4494682E-1,-1.252518E-1,7.657725E-1,9.463499E-1,6.839601E-1,6.2088215E-1,2.0348069E-1,-7.4160166E-2,6.212804E-1,3.645524E-1],"split_indices":[14,22,7,36,101,28,84,51,14,0,62,114,3,0,8,0,0,0,0,0,0,0,0,0,0,0,0,0,0],"split_type":[0,0,0,0,0,0,0,0,0,0,0,0,0,0,0,0,0,0,0,0,0,0,0,0,0,0,0,0,0],"sum_hessian":[6.6336E4,6.1296E4,5.04E3,4.1219E4,2.0077E4,2.88E3,2.16E3,2.6139E4,1.508E4,2.7E2,1.9807E4,2.16E3,7.2E2,7.2E2,1.44E3,2.2413E4,3.726E3,4.321E3,1.0759E4,5.234E3,1.4573E4,7.2E2,1.44E3,3.6E2,3.6E2,3.6E2,3.6E2,3.6E2,1.08E3],"tree_param":{"num_deleted":"0","num_feature":"125","num_nodes":"29","size_leaf_vector":"1"}},{"base_weights":[3.617564E-4,-4.928774E0,5.9937126E1,7.1604717E-1,-1.651731E1,8.202089E1,3.0467775E1,8.3069105E0,-1.40801325E1,-8.8450295E-1,-1.5532334E1,7.620746E1,9.93313E-1,6.4104176E0,4.2483658E1,-1.8501134E-1,9.414203E-2,-4.1437205E-3,-2.0908569E-1,-2.4249795E-1,-1.2399945E-1,8.4492177E-1,6.785224E-1,2.014514E-1,-7.342064E-2,6.150848E-1,3.6091015E-1],"categories":[],"categories_nodes":[],"categories_segments":[],"categories_sizes":[],"default_left":[0,0,0,0,0,0,0,0,0,0,1,0,0,0,0,0,0,0,0,0,0,0,0,0,0,0,0],"id":9,"left_children":[1,3,5,7,9,11,13,15,17,-1,19,21,-1,23,25,-1,-1,-1,-1,-1,-1,-1,-1,-1,-1,-1,-1],"loss_changes":[1.9598662E7,4.0097675E6,3.278154E6,4.6297735E6,1.4211945E6,2.82354E5,6.24409E5,8.088944E5,1.3042662E6,0E0,5.40586E5,1.43853E5,0E0,1.363351E5,1.7303275E5,0E0,0E0,0E0,0E0,0E0,0E0,0E0,0E0,0E0,0E0,0E0,0E0],"parents":[2147483647,0,0,1,1,2,2,3,3,4,4,5,5,6,6,7,7,8,8,10,10,11,11,13,13,14,14],"right_children":[2,4,6,8,10,12,14,16,18,-1,20,22,-1,24,26,-1,-1,-1,-1,-1,-1,-1,-1,-1,-1,-1,-1],"split_conditions":[1.0256E3,9E0,3.31E1,7.7E1,2E1,3E0,4.89E1,1.6001E-1,1.004E3,-8.8450295E-1,1.7E1,8E0,9.93313E-1,6E0,3.09E1,-1.8501134E-1,9.414203E-2,-4.1437205E-3,-2.0908569E-1,-2.4249795E-1,-1.2399945E-1,8.4492177E-1,6.785224E-1,2.014514E-1,-7.342064E-2,6.150848E-1,3.6091015E-1],"split_indices":[14,22,7,111,101,24,84,15,14,0,62,75,0,0,8,0,0,0,0,0,0,0,0,0,0,0,0],"split_type":[0,0,0,0,0,0,0,0,0,0,0,0,0,0,0,0,0,0,0,0,0,0,0,0,0,0,0],"sum_hessian":[6.6336E4,6.1296E4,5.04E3,4.1219E4,2.0077E4,2.88E3,2.16E3,2.7243E4,1.3976E4,2.7E2,1.9807E4,2.16E3,7.2E2,7.2E2,1.44E3,1.08E3,2.6163E4,4.657E3,9.319E3,5.234E3,1.4573E4,1.08E3,1.08E3,3.6E2,3.6E2,3.6E2,1.08E3],"tree_param":{"num_deleted":"0","num_feature":"125","num_nodes":"27","size_leaf_vector":"1"}},{"base_weights":[3.8468424E-4,-4.8795166E0,5.9338478E1,7.088745E-1,-1.6352203E1,8.120156E1,3.0163614E1,-1.1793091E1,9.517036E0,-8.756907E-1,-1.5377036E1,8.690197E1,6.40035E1,6.346496E0,4.2059505E1,2.0216722E-2,-1.8806392E-1,1.19996496E-1,4.3396363E-3,-2.4007349E-1,-1.227596E-1,7.505188E-1,9.2770827E-1,6.703729E-1,6.0792404E-1,1.9944254E-1,-7.268842E-2,6.0895103E-1,3.5730448E-1],"categories":[],"categories_nodes":[],"categories_segments":[],"categories_sizes":[],"default_left":[0,0,0,0,0,1,0,0,1,0,1,0,0,0,0,0,0,0,0,0,0,0,0,0,0,0,0,0,0],"id":10,"left_children":[1,3,5,7,9,11,13,15,17,-1,19,21,23,25,27,-1,-1,-1,-1,-1,-1,-1,-1,-1,-1,-1,-1,-1,-1],"loss_changes":[1.92091E7,3.9299992E6,3.212964E6,4.539231E6,1.3930375E6,2.76878E5,6.120001E5,1.6508E6,5.4531575E5,0E0,5.29832E5,1.43328E5,2.9485E3,1.3362952E5,1.6960825E5,0E0,0E0,0E0,0E0,0E0,0E0,0E0,0E0,0E0,0E0,0E0,0E0,0E0,0E0],"parents":[2147483647,0,0,1,1,2,2,3,3,4,4,5,5,6,6,7,7,8,8,10,10,11,11,12,12,13,13,14,14],"right_children":[2,4,6,8,10,12,14,16,18,-1,20,22,24,26,28,-1,-1,-1,-1,-1,-1,-1,-1,-1,-1,-1,-1,-1,-1],"split_conditions":[1.0256E3,9E0,3.31E1,4.5E1,2E1,2.5E2,4.89E1,1.0008E3,1.4E1,-8.756907E-1,1.7E1,1.0265E3,4E0,6E0,3.09E1,2.0216722E-2,-1.8806392E-1,1.19996496E-1,4.3396363E-3,-2.4007349E-1,-1.227596E-1,7.505188E-1,9.2770827E-1,6.703729E-1,6.0792404E-1,1.9944254E-1,-7.268842E-2,6.0895103E-1,3.5730448E-1],"split_indices":[14,22,7,3,101,28,84,14,75,0,62,114,3,0,8,0,0,0,0,0,0,0,0,0,0,0,0,0,0],"split_type":[0,0,0,0,0,0,0,0,0,0,0,0,0,0,0,0,0,0,0,0,0,0,0,0,0,0,0,0,0],"sum_hessian":[6.6336E4,6.1296E4,5.04E3,4.1219E4,2.0077E4,2.88E3,2.16E3,1.7037E4,2.4182E4,2.7E2,1.9807E4,2.16E3,7.2E2,7.2E2,1.44E3,5.737E3,1.13E4,1.8991E4,5.191E3,5.234E3,1.4573E4,7.2E2,1.44E3,3.6E2,3.6E2,3.6E2,3.6E2,3.6E2,1.08E3],"tree_param":{"num_deleted":"0","num_feature":"125","num_nodes":"29","size_leaf_vector":"1"}},{"base_weights":[4.2594003E-4,-4.830739E0,5.87459E1,7.017841E-1,-1.6188732E1,8.039057E1,2.986249E1,8.155887E0,-1.3827819E1,-8.6696595E-1,-1.5223272E1,7.4673996E1,9.7412956E-1,6.283214E0,4.1639584E1,1.0822569E-1,-2.6308494E-2,-4.279679E-3,-2.0523386E-1,-2.3767312E-1,-1.2153197E-1,8.278021E-1,6.6498697E-1,1.9745374E-1,-7.1963504E-2,6.0287845E-1,3.5373476E-1],"categories":[],"categories_nodes":[],"categories_segments":[],"categories_sizes":[],"default_left":[0,0,0,0,0,0,0,0,0,0,1,0,0,0,0,0,0,0,0,0,0,0,0,0,0,0,0],"id":11,"left_children":[1,3,5,7,9,11,13,15,17,-1,19,21,-1,23,25,-1,-1,-1,-1,-1,-1,-1,-1,-1,-1,-1,-1],"loss_changes":[1.8827328E7,3.8518142E6,3.149092E6,4.464451E6,1.36544E6,2.73074E5,5.9983825E5,7.836965E5,1.254002E6,0E0,5.19292E5,1.37707E5,0E0,1.3097767E5,1.66251E5,0E0,0E0,0E0,0E0,0E0,0E0,0E0,0E0,0E0,0E0,0E0,0E0],"parents":[2147483647,0,0,1,1,2,2,3,3,4,4,5,5,6,6,7,7,8,8,10,10,11,11,13,13,14,14],"right_children":[2,4,6,8,10,12,14,16,18,-1,20,22,-1,24,26,-1,-1,-1,-1,-1,-1,-1,-1,-1,-1,-1,-1],"split_conditions":[1.0256E3,9E0,3.31E1,7.7E1,2E1,3E0,4.89E1,3.51E1,1.004E3,-8.6696595E-1,1.7E1,8E0,9.7412956E-1,6E0,3.09E1,1.0822569E-1,-2.6308494E-2,-4.279679E-3,-2.0523386E-1,-2.3767312E-1,-1.2153197E-1,8.278021E-1,6.6498697E-1,1.9745374E-1,-7.1963504E-2,6.0287845E-1,3.5373476E-1],"split_indices":[14,22,7,111,101,24,84,33,14,0,62,75,0,0,8,0,0,0,0,0,0,0,0,0,0,0,0],"split_type":[0,0,0,0,0,0,0,0,0,0,0,0,0,0,0,0,0,0,0,0,0,0,0,0,0,0,0],"sum_hessian":[6.6336E4,6.1296E4,5.04E3,4.1219E4,2.0077E4,2.88E3,2.16E3,2.7243E4,1.3976E4,2.7E2,1.9807E4,2.16E3,7.2E2,7.2E2,1.44E3,2.1843E4,5.4E3,4.657E3,9.319E3,5.234E3,1.4573E4,1.08E3,1.08E3,3.6E2,3.6E2,3.6E2,1.08E3],"tree_param":{"num_deleted":"0","num_feature":"125","num_nodes":"27","size_leaf_vector":"1"}},{"base_weights":[4.5505358E-4,-4.782454E0,5.8159153E1,6.947668E-1,-1.6026915E1,7.958753E1,2.956437E1,8.074338E0,-1.368956E1,-8.583282E-1,-1.5071067E1,7.3927956E1,9.6440184E-1,6.2205567E0,4.1223858E1,-1.8102151E-1,9.155546E-2,-4.2369636E-3,-2.0318176E-1,-2.3529688E-1,-1.2031685E-1,6.81764E-1,8.5320556E-1,1.9548471E-1,-7.1245894E-2,5.968664E-1,3.5020077E-1],"categories":[],"categories_nodes":[],"categories_segments":[],"categories_sizes":[],"default_left":[0,0,0,0,0,0,0,0,0,0,1,0,0,0,0,0,0,0,0,0,0,0,0,0,0,0,0],"id":12,"left_children":[1,3,5,7,9,11,13,15,17,-1,19,21,-1,23,25,-1,-1,-1,-1,-1,-1,-1,-1,-1,-1,-1,-1],"loss_changes":[1.8453092E7,3.775195E6,3.08647E6,4.3756205E6,1.3383865E6,2.67656E5,5.879179E5,7.712314E5,1.2290495E6,0E0,5.089605E5,1.35783E5,0E0,1.283785E5,1.6296075E5,0E0,0E0,0E0,0E0,0E0,0E0,0E0,0E0,0E0,0E0,0E0,0E0],"parents":[2147483647,0,0,1,1,2,2,3,3,4,4,5,5,6,6,7,7,8,8,10,10,11,11,13,13,14,14],"right_children":[2,4,6,8,10,12,14,16,18,-1,20,22,-1,24,26,-1,-1,-1,-1,-1,-1,-1,-1,-1,-1,-1,-1],"split_conditions":[1.0256E3,9E0,3.31E1,7.7E1,2E1,3E0,4.89E1,1.6001E-1,1.004E3,-8.583282E-1,1.7E1,5E0,9.6440184E-1,6E0,3.09E1,-1.8102151E-1,9.155546E-2,-4.2369636E-3,-2.0318176E-1,-2.3529688E-1,-1.2031685E-1,6.81764E-1,8.5320556E-1,1.9548471E-1,-7.1245894E-2,5.968664E-1,3.5020077E-1],"split_indices":[14,22,7,111,101,24,84,15,14,0,62,97,0,0,8,0,0,0,0,0,0,0,0,0,0,0,0],"split_type":[0,0,0,0,0,0,0,0,0,0,0,0,0,0,0,0,0,0,0,0,0,0,0,0,0,0,0],"sum_hessian":[6.6336E4,6.1296E4,5.04E3,4.1219E4,2.0077E4,2.88E3,2.16E3,2.7243E4,1.3976E4,2.7E2,1.9807E4,2.16E3,7.2E2,7.2E2,1.44E3,1.08E3,2.6163E4,4.657E3,9.319E3,5.234E3,1.4573E4,1.44E3,7.2E2,3.6E2,3.6E2,3.6E2,1.08E3],"tree_param":{"num_deleted":"0","num_feature":"125","num_nodes":"27","size_leaf_vector":"1"}},{"base_weights":[4.8635644E-4,-4.734649E0,5.757827E1,6.878154E-1,-1.5866697E1,7.879252E1,2.9269228E1,7.9935946E0,-1.3552675E1,-8.497765E-1,-1.4920365E1,8.435195E1,6.202037E1,6.1585245E0,4.0812286E1,1.0622809E-1,-2.6415775E-2,-4.1945535E-3,-2.0115012E-1,-2.3294441E-1,-1.19113624E-1,7.287623E-1,9.0035254E-1,6.5025765E-1,5.884317E-1,1.9353516E-1,-7.053528E-2,5.909143E-1,3.467021E-1],"categories":[],"categories_nodes":[],"categories_segments":[],"categories_sizes":[],"default_left":[0,0,0,0,0,1,0,0,0,0,1,0,0,0,0,0,0,0,0,0,0,0,0,0,0,0,0,0,0],"id":13,"left_children":[1,3,5,7,9,11,13,15,17,-1,19,21,23,25,27,-1,-1,-1,-1,-1,-1,-1,-1,-1,-1,-1,-1,-1,-1],"loss_changes":[1.80863E7,3.70009E6,3.025091E6,4.2885495E6,1.311871E6,2.63404E5,5.762349E5,7.61829E5,1.204594E6,0E0,4.98837E5,1.34379E5,3.05825E3,1.2583056E5,1.59735E5,0E0,0E0,0E0,0E0,0E0,0E0,0E0,0E0,0E0,0E0,0E0,0E0,0E0,0E0],"parents":[2147483647,0,0,1,1,2,2,3,3,4,4,5,5,6,6,7,7,8,8,10,10,11,11,12,12,13,13,14,14],"right_children":[2,4,6,8,10,12,14,16,18,-1,20,22,24,26,28,-1,-1,-1,-1,-1,-1,-1,-1,-1,-1,-1,-1,-1,-1],"split_conditions":[1.0256E3,9E0,3.31E1,7.7E1,2E1,2.5E2,4.89E1,3.51E1,1.004E3,-8.497765E-1,1.7E1,1.0265E3,4E0,6E0,3.09E1,1.0622809E-1,-2.6415775E-2,-4.1945535E-3,-2.0115012E-1,-2.3294441E-1,-1.19113624E-1,7.287623E-1,9.0035254E-1,6.5025765E-1,5.884317E-1,1.9353516E-1,-7.053528E-2,5.909143E-1,3.467021E-1],"split_indices":[14,22,7,111,101,28,84,33,14,0,62,114,3,0,8,0,0,0,0,0,0,0,0,0,0,0,0,0,0],"split_type":[0,0,0,0,0,0,0,0,0,0,0,0,0,0,0,0,0,0,0,0,0,0,0,0,0,0,0,0,0],"sum_hessian":[6.6336E4,6.1296E4,5.04E3,4.1219E4,2.0077E4,2.88E3,2.16E3,2.7243E4,1.3976E4,2.7E2,1.9807E4,2.16E3,7.2E2,7.2E2,1.44E3,2.1843E4,5.4E3,4.657E3,9.319E3,5.234E3,1.4573E4,7.2E2,1.44E3,3.6E2,3.6E2,3.6E2,3.6E2,3.6E2,1.08E3],"tree_param":{"num_deleted":"0","num_feature":"125","num_nodes":"29","size_leaf_vector":"1"}},{"base_weights":[5.1676773E-4,-4.687328E0,5.7003258E1,6.8093044E-1,-1.5708094E1,7.8005585E1,2.897702E1,8.353752E0,-1.2618469E1,-8.4131026E-1,-1.4771183E1,7.244024E1,9.457799E-1,6.0971017E0,4.0404808E1,1.072243E-1,-5.893602E-2,3.1650834E-2,-1.895712E-1,-2.3061545E-1,-1.179226E-1,8.031548E-1,6.4497983E-1,1.916051E-1,-6.9831975E-2,5.8502156E-1,3.432382E-1],"categories":[],"categories_nodes":[],"categories_segments":[],"categories_sizes":[],"default_left":[0,0,0,0,0,0,0,1,0,0,1,0,0,0,0,0,0,0,0,0,0,0,0,0,0,0,0],"id":14,"left_children":[1,3,5,7,9,11,13,15,17,-1,19,21,-1,23,25,-1,-1,-1,-1,-1,-1,-1,-1,-1,-1,-1,-1],"loss_changes":[1.7726842E7,3.6264835E6,2.964954E6,4.206356E6,1.285881E6,2.58868E5,5.647836E5,8.822199E5,1.5088605E6,0E0,4.889135E5,1.29984E5,0E0,1.2333347E5,1.5657375E5,0E0,0E0,0E0,0E0,0E0,0E0,0E0,0E0,0E0,0E0,0E0,0E0],"parents":[2147483647,0,0,1,1,2,2,3,3,4,4,5,5,6,6,7,7,8,8,10,10,11,11,13,13,14,14],"right_children":[2,4,6,8,10,12,14,16,18,-1,20,22,-1,24,26,-1,-1,-1,-1,-1,-1,-1,-1,-1,-1,-1,-1],"split_conditions":[1.0256E3,9E0,3.31E1,7.7E1,2E1,3E0,4.89E1,2.3E1,1.0002E3,-8.4131026E-1,1.7E1,8E0,9.457799E-1,6E0,3.09E1,1.072243E-1,-5.893602E-2,3.1650834E-2,-1.895712E-1,-2.3061545E-1,-1.179226E-1,8.031548E-1,6.4497983E-1,1.916051E-1,-6.9831975E-2,5.8502156E-1,3.432382E-1],"split_indices":[14,22,7,36,101,24,84,51,14,0,62,75,0,0,8,0,0,0,0,0,0,0,0,0,0,0,0],"split_type":[0,0,0,0,0,0,0,0,0,0,0,0,0,0,0,0,0,0,0,0,0,0,0,0,0,0,0],"sum_hessian":[6.6336E4,6.1296E4,5.04E3,4.1219E4,2.0077E4,2.88E3,2.16E3,2.6139E4,1.508E4,2.7E2,1.9807E4,2.16E3,7.2E2,7.2E2,1.44E3,2.2413E4,3.726E3,4.321E3,1.0759E4,5.234E3,1.4573E4,1.08E3,1.08E3,3.6E2,3.6E2,3.6E2,1.08E3],"tree_param":{"num_deleted":"0","num_feature":"125","num_nodes":"27","size_leaf_vector":"1"}}]},"name":"gbtree"},"learner_model_param":{"base_score":"[4.1300577E2]","boost_from_average":"1","num_class":"0","num_feature":"125","num_target":"1"},"objective":{"name":"reg:squarederror","reg_loss_param":{"scale_pos_weight":"1"}}},"version":[3,1,3]}