{"learner":{"attributes":{"scikit_learn":"{\"_estimator_type\": \"regressor\"}"},"feature_names":["Prevailing Wind Magnitude (MPH)_current","Gust Wind Magnitude (MPH)_current","Vis (MI)_current","Cloud Height 1 (100s of ft)_current","Cloud Height 2 (100s of ft)_current","Cloud Height 3 (100s of ft)_current","Cloud Height 4 (100s of ft)_current","Air Temp (F)_current","Dewpoint (F)_current","6hr Max (F)_current","6hr Min (F)_current","Rel Hum_current","Wind Chill (F)_current","Heat Index (F)_current","Sea Level Pressure (MB)_current","Precip 1hr_current","Precip 3hr_current","Precip 6hr_current","cloud_code_1_current","cloud_code_2_current","cloud_code_3_current","cloud_code_4_current","prevailing_wind_dir_code_current","gust_wind_dir_code_current","weather_code_current","Prevailing Wind Magnitude (MPH)_h1","Gust Wind Magnitude (MPH)_h1","Vis (MI)_h1","Cloud Height 1 (100s of ft)_h1","Cloud Height 2 (100s of ft)_h1","Cloud Height 3 (100s of ft)_h1","Cloud Height 4 (100s of ft)_h1","Air Temp (F)_h1","Dewpoint (F)_h1","6hr Max (F)_h1","6hr Min (F)_h1","Rel Hum_h1","Wind Chill (F)_h1","Heat Index (F)_h1","Sea Level Pressure (MB)_h1","Precip 1hr_h1","Precip 3hr_h1","Precip 6hr_h1","cloud_code_1_h1","cloud_code_2_h1","cloud_code_3_h1","cloud_code_4_h1","prevailing_wind_dir_code_h1","gust_wind_dir_code_h1","weather_code_h1","Prevailing Wind Magnitude (MPH)_h2","Gust Wind Magnitude (MPH)_h2","Vis (MI)_h2","Cloud Height 1 (100s of ft)_h2","Cloud Height 2 (100s of ft)_h2","Cloud Height 3 (100s of ft)_h2","Cloud Height 4 (100s of ft)_h2","Air Temp (F)_h2","Dewpoint (F)_h2","6hr Max (F)_h2","6hr Min (F)_h2","Rel Hum_h2","Wind Chill (F)_h2","Heat Index (F)_h2","Sea Level Pressure (MB)_h2","Precip 1hr_h2","Precip 3hr_h2","Precip 6hr_h2","cloud_code_1_h2","cloud_code_2_h2","cloud_code_3_h2","cloud_code_4_h2","prevailing_wind_dir_code_h2","gust_wind_dir_code_h2","weather_code_h2","Prevailing Wind Magnitude (MPH)_h3","Gust Wind Magnitude (MPH)_h3","Vis (MI)_h3","Cloud Height 1 (100s of ft)_h3","Cloud Height 2 (100s of ft)_h3","Cloud Height 3 (100s of ft)_h3","Cloud Height 4 (100s of ft)_h3","Air Temp (F)_h3","Dewpoint (F)_h3","6hr Max (F)_h3","6hr Min (F)_h3","Rel Hum_h3","Wind Chill (F)_h3","Heat Index (F)_h3","Sea Level Pressure (MB)_h3","Precip 1hr_h3","Precip 3hr_h3","Precip 6hr_h3","cloud_code_1_h3","cloud_code_2_h3","cloud_code_3_h3","cloud_code_4_h3","prevailing_wind_dir_code_h3","gust_wind_dir_code_h3","weather_code_h3"],"feature_types":["float","float","float","float","float","float","float","float","float","float","float","float","float","float","float","float","float","float","float","float","float","float","float","float","float","float","float","float","float","float","float","float","float","float","float","float","float","float","float","float","float","float","float","float","float","float","float","float","float","float","float","float","float","float","float","float","float","float","float","float","float","float","float","float","float","float","float","float","float","float","float","float","float","float","float","float","float","float","float","float","float","float","float","float","float","float","float","float","float","float","float","float","float","float","float","float","float","float","float","float"],"gradient_booster":{"model":{"cats":{"enc":[],"feature_segments":[],"sorted_idx":[]},"gbtree_model_param":{"num_parallel_tree":"1","num_trees":"20"},"iteration_indptr":[0,1,2,3,4,5,6,7,8,9,10,11,12,13,14,15,16,17,18,19,20],"tree_info":[0,0,0,0,0,0,0,0,0,0,0,0,0,0,0,0,0,0,0,0],"trees":[{"base_weights":[-2.784334E-5,4.1206357E2,-3.684517E2,1.3290528E1,1.0849725E3,-5.9962573E2,-5.30213E1,2.6050623E2,-5.0762927E2,8.0481726E2,2.8571626E3,7.7909865E0,-6.3677966E2,5.926985E1,-4.6407278E2,9.857125E1,8.7951044E2,-6.102967E2,-2.754078E2,7.1396014E2,2.4339884E1,3.8169758E1,2.3726277E3,-1.12844986E2,-7.182106E2,3.106343E2,-9.47753E0,-2.8286517E2,-5.544174E2,3.4038186E0,-1.5308253E0,7.856233E0,1.1849916E1,-5.423013E0,-6.7340174E0,-1.1586055E0,-3.1072278E0,5.07704E0,9.200596E0,2.0612514E1,2.6774315E1,-7.4219875E0,4.4899333E-1,-7.4650497E0,1.631801E0,2.4596782E0,4.0347123E0,-5.7148165E-1,2.1688957E0,-3.2973251E0,-2.3521423E0,-5.0542574E0,-5.702653E0],"categories":[],"categories_nodes":[],"categories_segments":[],"categories_sizes":[],"default_left":[1,0,0,0,0,0,0,0,0,0,0,0,0,0,0,0,0,0,0,0,0,0,0,0,1,0,0,0,0,0,0,0,0,0,0,0,0,0,0,0,0,0,0,0,0,0,0,0,0,0,0,0,0],"id":0,"left_children":[1,3,5,7,9,11,13,15,17,19,21,-1,23,25,27,29,31,33,35,37,-1,-1,39,41,43,45,47,49,51,-1,-1,-1,-1,-1,-1,-1,-1,-1,-1,-1,-1,-1,-1,-1,-1,-1,-1,-1,-1,-1,-1,-1,-1],"loss_changes":[6.847331E9,5.7128996E9,1.7361772E9,1.721786E9,3.930883E9,7.043282E8,4.648791E8,9.0877523E8,1.0242227E8,1.01102694E9,4.9367654E8,0E0,5.707699E8,1.3671014E8,3.5221184E7,4.3746032E8,5.29888E7,1.2434432E7,7.407048E6,2.7507814E8,0E0,0E0,6.2910464E7,1.7883118E8,2.8890982E8,1.0100608E7,6.705728E7,1.532628E6,8.30624E5,0E0,0E0,0E0,0E0,0E0,0E0,0E0,0E0,0E0,0E0,0E0,0E0,0E0,0E0,0E0,0E0,0E0,0E0,0E0,0E0,0E0,0E0,0E0,0E0],"parents":[2147483647,0,0,1,1,2,2,3,3,4,4,5,5,6,6,7,7,8,8,9,9,10,10,12,12,13,13,14,14,15,15,16,16,17,17,18,18,19,19,22,22,23,23,24,24,25,25,26,26,27,27,28,28],"right_children":[2,4,6,8,10,12,14,16,18,20,22,-1,24,26,28,30,32,34,36,38,-1,-1,40,42,44,46,48,50,52,-1,-1,-1,-1,-1,-1,-1,-1,-1,-1,-1,-1,-1,-1,-1,-1,-1,-1,-1,-1,-1,-1,-1,-1],"split_conditions":[1.2E1,1.6E2,4.1E1,3.51E1,2E0,1E0,1.0173E3,1.0241E3,1.0147E3,4.5E1,1.3E1,7.7909865E0,1E1,5.9E1,1.5E1,1.0169E3,4E0,9E0,2.5E1,7.1E1,2.4339884E1,3.8169758E1,1.4E1,8E0,4.5E1,9E0,5.2E1,2E1,2.6E1,3.4038186E0,-1.5308253E0,7.856233E0,1.1849916E1,-5.423013E0,-6.7340174E0,-1.1586055E0,-3.1072278E0,5.07704E0,9.200596E0,2.0612514E1,2.6774315E1,-7.4219875E0,4.4899333E-1,-7.4650497E0,1.631801E0,2.4596782E0,4.0347123E0,-5.7148165E-1,2.1688957E0,-3.2973251E0,-2.3521423E0,-5.0542574E0,-5.702653E0],"split_indices":[75,28,7,33,20,18,64,14,14,32,0,0,50,11,3,89,28,3,1,86,0,0,0,3,59,0,32,0,1,0,0,0,0,0,0,0,0,0,0,0,0,0,0,0,0,0,0,0,0,0,0,0,0],"split_type":[0,0,0,0,0,0,0,0,0,0,0,0,0,0,0,0,0,0,0,0,0,0,0,0,0,0,0,0,0,0,0,0,0,0,0,0,0,0,0,0,0,0,0,0,0,0,0,0,0,0,0,0,0],"sum_hessian":[4.5098E4,2.1289E4,2.3809E4,1.3368E4,7.921E3,1.3739E4,1.007E4,9.066E3,4.302E3,6.841E3,1.08E3,3.6E2,1.3379E4,7.91E3,2.16E3,7.187E3,1.879E3,2.982E3,1.32E3,6.481E3,3.6E2,3.6E2,7.2E2,1.8E3,1.1579E4,1.698E3,6.212E3,7.2E2,1.44E3,3.665E3,3.522E3,1.44E3,4.39E2,1.44E3,1.542E3,2.4E2,1.08E3,3.241E3,3.24E3,3.6E2,3.6E2,3.6E2,1.44E3,1.1219E4,3.6E2,1.003E3,6.95E2,5.132E3,1.08E3,3.6E2,3.6E2,3.6E2,1.08E3],"tree_param":{"num_deleted":"0","num_feature":"100","num_nodes":"53","size_leaf_vector":"1"}},{"base_weights":[2.5379772E-3,4.07949E2,-3.6476776E2,1.3158011E1,1.0741384E3,-5.936298E2,-5.2491917E1,2.5790353E2,-5.025568E2,7.967747E2,2.8286702E3,7.7132926E0,-6.3041284E2,5.8678173E1,-4.5943967E2,9.758581E1,8.707258E2,-6.041978E2,-2.7265695E2,7.0682275E2,2.409716E1,3.7789116E1,2.3489673E3,-1.117204E2,-7.1102893E2,3.075318E2,-9.382503E0,-2.8004434E2,-5.4888074E2,3.36979E0,-1.5155215E0,7.7777257E0,1.1731688E1,-5.36882E0,-6.6667204E0,-1.1470672E0,-3.076184E0,5.0262856E0,9.108618E0,2.0406961E1,2.6507315E1,-7.3479733E0,4.445067E-1,-7.390406E0,1.6155283E0,2.435106E0,3.9944232E0,-5.6576806E-1,2.147227E0,-3.2644434E0,-2.3286858E0,-5.0038548E0,-5.64568E0],"categories":[],"categories_nodes":[],"categories_segments":[],"categories_sizes":[],"default_left":[1,0,0,0,0,0,0,0,0,0,0,0,0,0,0,0,0,0,0,0,0,0,0,0,1,0,0,0,0,0,0,0,0,0,0,0,0,0,0,0,0,0,0,0,0,0,0,0,0,0,0,0,0],"id":1,"left_children":[1,3,5,7,9,11,13,15,17,19,21,-1,23,25,27,29,31,33,35,37,-1,-1,39,41,43,45,47,49,51,-1,-1,-1,-1,-1,-1,-1,-1,-1,-1,-1,-1,-1,-1,-1,-1,-1,-1,-1,-1,-1,-1,-1,-1],"loss_changes":[6.7111844E9,5.5993743E9,1.7016243E9,1.6875498E9,3.8529362E9,6.903342E8,4.556432E8,8.90714E8,1.0038464E8,9.909837E8,4.8387994E8,0E0,5.5940506E8,1.3399265E8,3.452019E7,4.2875725E8,5.1940096E7,1.2187136E7,7.259504E6,2.696059E8,0E0,0E0,6.1661696E7,1.7528184E8,2.8316314E8,9.900016E6,6.5723876E7,1.502216E6,8.1376E5,0E0,0E0,0E0,0E0,0E0,0E0,0E0,0E0,0E0,0E0,0E0,0E0,0E0,0E0,0E0,0E0,0E0,0E0,0E0,0E0,0E0,0E0,0E0,0E0],"parents":[2147483647,0,0,1,1,2,2,3,3,4,4,5,5,6,6,7,7,8,8,9,9,10,10,12,12,13,13,14,14,15,15,16,16,17,17,18,18,19,19,22,22,23,23,24,24,25,25,26,26,27,27,28,28],"right_children":[2,4,6,8,10,12,14,16,18,20,22,-1,24,26,28,30,32,34,36,38,-1,-1,40,42,44,46,48,50,52,-1,-1,-1,-1,-1,-1,-1,-1,-1,-1,-1,-1,-1,-1,-1,-1,-1,-1,-1,-1,-1,-1,-1,-1],"split_conditions":[1.2E1,1.6E2,4.1E1,3.51E1,2E0,1E0,1.0173E3,1.0241E3,1.0147E3,4.5E1,1.3E1,7.7132926E0,1E1,5.9E1,1.5E1,1.0169E3,4E0,9E0,2.5E1,7.1E1,2.409716E1,3.7789116E1,1.4E1,8E0,4.5E1,9E0,5.2E1,2E1,2.6E1,3.36979E0,-1.5155215E0,7.7777257E0,1.1731688E1,-5.36882E0,-6.6667204E0,-1.1470672E0,-3.076184E0,5.0262856E0,9.108618E0,2.0406961E1,2.6507315E1,-7.3479733E0,4.445067E-1,-7.390406E0,1.6155283E0,2.435106E0,3.9944232E0,-5.6576806E-1,2.147227E0,-3.2644434E0,-2.3286858E0,-5.0038548E0,-5.64568E0],"split_indices":[75,28,7,33,20,18,64,14,14,32,0,0,50,11,3,89,28,3,1,86,0,0,0,3,59,0,32,0,1,0,0,0,0,0,0,0,0,0,0,0,0,0,0,0,0,0,0,0,0,0,0,0,0],"split_type":[0,0,0,0,0,0,0,0,0,0,0,0,0,0,0,0,0,0,0,0,0,0,0,0,0,0,0,0,0,0,0,0,0,0,0,0,0,0,0,0,0,0,0,0,0,0,0,0,0,0,0,0,0],"sum_hessian":[4.5098E4,2.1289E4,2.3809E4,1.3368E4,7.921E3,1.3739E4,1.007E4,9.066E3,4.302E3,6.841E3,1.08E3,3.6E2,1.3379E4,7.91E3,2.16E3,7.187E3,1.879E3,2.982E3,1.32E3,6.481E3,3.6E2,3.6E2,7.2E2,1.8E3,1.1579E4,1.698E3,6.212E3,7.2E2,1.44E3,3.665E3,3.522E3,1.44E3,4.39E2,1.44E3,1.542E3,2.4E2,1.08E3,3.241E3,3.24E3,3.6E2,3.6E2,3.6E2,1.44E3,1.1219E4,3.6E2,1.003E3,6.95E2,5.132E3,1.08E3,3.6E2,3.6E2,3.6E2,1.08E3],"tree_param":{"num_deleted":"0","num_feature":"100","num_nodes":"53","size_leaf_vector":"1"}},{"base_weights":[5.049583E-3,4.0387552E2,-3.6112064E2,1.3026808E1,1.0634126E3,-5.876939E2,-5.19678E1,2.5532684E2,-4.9753497E2,7.888125E2,2.800462E3,7.636373E0,-6.241097E2,5.809242E1,-4.5485278E2,9.661018E1,8.6202893E2,-5.9815985E2,-2.6993356E2,6.9975665E2,2.3856857E1,3.7412273E1,2.3255427E3,-1.1060703E2,-7.039192E2,3.0446024E2,-9.288399E0,-2.7725165E2,-5.433993E2,3.336101E0,-1.5003707E0,7.700002E0,1.1614637E1,-5.315169E0,-6.600096E0,-1.1356438E0,-3.0454507E0,4.976038E0,9.01756E0,2.0203457E1,2.6242975E1,-7.2746973E0,4.400646E-1,-7.3165092E0,1.5994177E0,2.410779E0,3.954536E0,-5.6011117E-1,2.1257749E0,-3.2318892E0,-2.3054636E0,-4.9539547E0,-5.589275E0],"categories":[],"categories_nodes":[],"categories_segments":[],"categories_sizes":[],"default_left":[1,0,0,0,0,0,0,0,0,0,0,0,0,0,0,0,0,0,0,0,0,0,0,0,1,0,0,0,0,0,0,0,0,0,0,0,0,0,0,0,0,0,0,0,0,0,0,0,0,0,0,0,0],"id":2,"left_children":[1,3,5,7,9,11,13,15,17,19,21,-1,23,25,27,29,31,33,35,37,-1,-1,39,41,43,45,47,49,51,-1,-1,-1,-1,-1,-1,-1,-1,-1,-1,-1,-1,-1,-1,-1,-1,-1,-1,-1,-1,-1,-1,-1,-1],"loss_changes":[6.577745E9,5.4881055E9,1.6677594E9,1.6539944E9,3.7765366E9,6.7661926E8,4.4659075E8,8.7301203E8,9.838739E7,9.713375E8,4.7427738E8,0E0,5.482665E8,1.31329096E8,3.3833184E7,4.2022733E8,5.0912E7,1.194464E7,7.114896E6,2.6424218E8,0E0,0E0,6.043827E7,1.7180293E8,2.7753165E8,9.703424E6,6.441697E7,1.4724E6,7.97216E5,0E0,0E0,0E0,0E0,0E0,0E0,0E0,0E0,0E0,0E0,0E0,0E0,0E0,0E0,0E0,0E0,0E0,0E0,0E0,0E0,0E0,0E0,0E0,0E0],"parents":[2147483647,0,0,1,1,2,2,3,3,4,4,5,5,6,6,7,7,8,8,9,9,10,10,12,12,13,13,14,14,15,15,16,16,17,17,18,18,19,19,22,22,23,23,24,24,25,25,26,26,27,27,28,28],"right_children":[2,4,6,8,10,12,14,16,18,20,22,-1,24,26,28,30,32,34,36,38,-1,-1,40,42,44,46,48,50,52,-1,-1,-1,-1,-1,-1,-1,-1,-1,-1,-1,-1,-1,-1,-1,-1,-1,-1,-1,-1,-1,-1,-1,-1],"split_conditions":[1.2E1,1.6E2,4.1E1,3.51E1,2E0,1E0,1.0173E3,1.0241E3,1.0147E3,4.5E1,1.3E1,7.636373E0,1E1,5.9E1,1.5E1,1.0169E3,4E0,9E0,2.5E1,7.1E1,2.3856857E1,3.7412273E1,1.4E1,8E0,4.5E1,9E0,5.2E1,2E1,2.6E1,3.336101E0,-1.5003707E0,7.700002E0,1.1614637E1,-5.315169E0,-6.600096E0,-1.1356438E0,-3.0454507E0,4.976038E0,9.01756E0,2.0203457E1,2.6242975E1,-7.2746973E0,4.400646E-1,-7.3165092E0,1.5994177E0,2.410779E0,3.954536E0,-5.6011117E-1,2.1257749E0,-3.2318892E0,-2.3054636E0,-4.9539547E0,-5.589275E0],"split_indices":[75,28,7,33,20,18,64,14,14,32,0,0,50,11,3,89,28,3,1,86,0,0,0,3,59,0,32,0,1,0,0,0,0,0,0,0,0,0,0,0,0,0,0,0,0,0,0,0,0,0,0,0,0],"split_type":[0,0,0,0,0,0,0,0,0,0,0,0,0,0,0,0,0,0,0,0,0,0,0,0,0,0,0,0,0,0,0,0,0,0,0,0,0,0,0,0,0,0,0,0,0,0,0,0,0,0,0,0,0],"sum_hessian":[4.5098E4,2.1289E4,2.3809E4,1.3368E4,7.921E3,1.3739E4,1.007E4,9.066E3,4.302E3,6.841E3,1.08E3,3.6E2,1.3379E4,7.91E3,2.16E3,7.187E3,1.879E3,2.982E3,1.32E3,6.481E3,3.6E2,3.6E2,7.2E2,1.8E3,1.1579E4,1.698E3,6.212E3,7.2E2,1.44E3,3.665E3,3.522E3,1.44E3,4.39E2,1.44E3,1.542E3,2.4E2,1.08E3,3.241E3,3.24E3,3.6E2,3.6E2,3.6E2,1.44E3,1.1219E4,3.6E2,1.003E3,6.95E2,5.132E3,1.08E3,3.6E2,3.6E2,3.6E2,1.08E3],"tree_param":{"num_deleted":"0","num_feature":"100","num_nodes":"53","size_leaf_vector":"1"}},{"base_weights":[7.5273886E-3,3.998427E2,-3.5750995E2,1.2896912E1,1.0527938E3,-5.818173E2,-5.1448925E1,2.5277588E2,-4.9256335E2,7.8092993E2,2.772535E3,7.5602207E0,-6.178695E2,5.75125E1,-4.5031168E2,9.5644325E1,8.534189E2,-5.921822E2,-2.672374E2,6.927613E2,2.3618948E1,3.7039185E1,2.3023518E3,-1.0950475E2,-6.968805E2,3.014194E2,-9.195259E0,-2.7448682E2,-5.379726E2,3.302749E0,-1.4853714E0,7.623056E0,1.14987545E1,-5.2620544E0,-6.534138E0,-1.1243348E0,-3.0150244E0,4.9262934E0,8.927412E0,2.0001982E1,2.5981274E1,-7.202152E0,4.3566704E-1,-7.24335E0,1.5834677E0,2.3866954E0,3.9150474E0,-5.545111E-1,2.1045365E0,-3.19966E0,-2.2824726E0,-4.904552E0,-5.533434E0],"categories":[],"categories_nodes":[],"categories_segments":[],"categories_sizes":[],"default_left":[1,0,0,0,0,0,0,0,0,0,0,0,0,0,0,0,0,0,0,0,0,0,0,0,1,0,0,0,0,0,0,0,0,0,0,0,0,0,0,0,0,0,0,0,0,0,0,0,0,0,0,0,0],"id":3,"left_children":[1,3,5,7,9,11,13,15,17,19,21,-1,23,25,27,29,31,33,35,37,-1,-1,39,41,43,45,47,49,51,-1,-1,-1,-1,-1,-1,-1,-1,-1,-1,-1,-1,-1,-1,-1,-1,-1,-1,-1,-1,-1,-1,-1,-1],"loss_changes":[6.4469586E9,5.3790484E9,1.634568E9,1.6211064E9,3.7016504E9,6.631752E8,4.377181E8,8.556616E8,9.642989E7,9.5208115E8,4.6486528E8,0E0,5.373496E8,1.2871856E8,3.3159808E7,4.118671E8,4.9904384E7,1.1707136E7,6.973176E6,2.5898522E8,0E0,0E0,5.9238656E7,1.6839306E8,2.720123E8,9.510752E6,6.3136044E7,1.443184E6,7.81088E5,0E0,0E0,0E0,0E0,0E0,0E0,0E0,0E0,0E0,0E0,0E0,0E0,0E0,0E0,0E0,0E0,0E0,0E0,0E0,0E0,0E0,0E0,0E0,0E0],"parents":[2147483647,0,0,1,1,2,2,3,3,4,4,5,5,6,6,7,7,8,8,9,9,10,10,12,12,13,13,14,14,15,15,16,16,17,17,18,18,19,19,22,22,23,23,24,24,25,25,26,26,27,27,28,28],"right_children":[2,4,6,8,10,12,14,16,18,20,22,-1,24,26,28,30,32,34,36,38,-1,-1,40,42,44,46,48,50,52,-1,-1,-1,-1,-1,-1,-1,-1,-1,-1,-1,-1,-1,-1,-1,-1,-1,-1,-1,-1,-1,-1,-1,-1],"split_conditions":[1.2E1,1.6E2,4.1E1,3.51E1,2E0,1E0,1.0173E3,1.0241E3,1.0147E3,4.5E1,1.3E1,7.5602207E0,1E1,5.9E1,1.5E1,1.0169E3,4E0,9E0,2.5E1,7.1E1,2.3618948E1,3.7039185E1,1.4E1,8E0,4.5E1,9E0,5.2E1,2E1,2.6E1,3.302749E0,-1.4853714E0,7.623056E0,1.14987545E1,-5.2620544E0,-6.534138E0,-1.1243348E0,-3.0150244E0,4.9262934E0,8.927412E0,2.0001982E1,2.5981274E1,-7.202152E0,4.3566704E-1,-7.24335E0,1.5834677E0,2.3866954E0,3.9150474E0,-5.545111E-1,2.1045365E0,-3.19966E0,-2.2824726E0,-4.904552E0,-5.533434E0],"split_indices":[75,28,7,33,20,18,64,14,14,32,0,0,50,11,3,89,28,3,1,86,0,0,0,3,59,0,32,0,1,0,0,0,0,0,0,0,0,0,0,0,0,0,0,0,0,0,0,0,0,0,0,0,0],"split_type":[0,0,0,0,0,0,0,0,0,0,0,0,0,0,0,0,0,0,0,0,0,0,0,0,0,0,0,0,0,0,0,0,0,0,0,0,0,0,0,0,0,0,0,0,0,0,0,0,0,0,0,0,0],"sum_hessian":[4.5098E4,2.1289E4,2.3809E4,1.3368E4,7.921E3,1.3739E4,1.007E4,9.066E3,4.302E3,6.841E3,1.08E3,3.6E2,1.3379E4,7.91E3,2.16E3,7.187E3,1.879E3,2.982E3,1.32E3,6.481E3,3.6E2,3.6E2,7.2E2,1.8E3,1.1579E4,1.698E3,6.212E3,7.2E2,1.44E3,3.665E3,3.522E3,1.44E3,4.39E2,1.44E3,1.542E3,2.4E2,1.08E3,3.241E3,3.24E3,3.6E2,3.6E2,3.6E2,1.44E3,1.1219E4,3.6E2,1.003E3,6.95E2,5.132E3,1.08E3,3.6E2,3.6E2,3.6E2,1.08E3],"tree_param":{"num_deleted":"0","num_feature":"100","num_nodes":"53","size_leaf_vector":"1"}},{"base_weights":[9.946692E-3,3.958502E2,-3.539354E2,1.2768315E1,1.0422811E3,-5.759995E2,-5.0935246E1,2.5025043E2,-4.8764142E2,7.731261E2,2.7448865E3,7.4848275E0,-6.116918E2,5.6938362E1,-4.4581592E2,9.468813E1,8.448949E2,-5.8626434E2,-2.6456815E2,6.858358E2,2.3383413E1,3.6669823E1,2.2793918E3,-1.0841347E2,-6.899122E2,2.984089E2,-9.1030655E0,-2.7174957E2,-5.326001E2,3.2697306E0,-1.4705222E0,7.546878E0,1.1384028E1,-5.2094703E0,-6.468839E0,-1.1131381E0,-2.984902E0,4.8770456E0,8.838165E0,1.9802517E1,2.572218E1,-7.1303296E0,4.3131337E-1,-7.170923E0,1.5676767E0,2.362852E0,3.8759532E0,-5.489671E-1,2.0835104E0,-3.167752E0,-2.2597113E0,-4.855643E0,-5.4781504E0],"categories":[],"categories_nodes":[],"categories_segments":[],"categories_sizes":[],"default_left":[1,0,0,0,0,0,0,0,0,0,0,0,0,0,0,0,0,0,0,0,0,0,0,0,1,0,0,0,0,0,0,0,0,0,0,0,0,0,0,0,0,0,0,0,0,0,0,0,0,0,0,0,0],"id":4,"left_children":[1,3,5,7,9,11,13,15,17,19,21,-1,23,25,27,29,31,33,35,37,-1,-1,39,41,43,45,47,49,51,-1,-1,-1,-1,-1,-1,-1,-1,-1,-1,-1,-1,-1,-1,-1,-1,-1,-1,-1,-1,-1,-1,-1,-1],"loss_changes":[6.318772E9,5.2721567E9,1.6020378E9,1.5888721E9,3.6282511E9,6.4999885E8,4.290218E8,8.3865626E8,9.451149E7,9.33206E8,4.5563955E8,0E0,5.2665088E8,1.2615989E8,3.2499776E7,4.0367328E8,4.891661E7,1.1474176E7,6.834256E6,2.5383296E8,0E0,0E0,5.8063104E7,1.6505088E8,2.6660147E8,9.321888E6,6.18806E7,1.414544E6,7.65248E5,0E0,0E0,0E0,0E0,0E0,0E0,0E0,0E0,0E0,0E0,0E0,0E0,0E0,0E0,0E0,0E0,0E0,0E0,0E0,0E0,0E0,0E0,0E0,0E0],"parents":[2147483647,0,0,1,1,2,2,3,3,4,4,5,5,6,6,7,7,8,8,9,9,10,10,12,12,13,13,14,14,15,15,16,16,17,17,18,18,19,19,22,22,23,23,24,24,25,25,26,26,27,27,28,28],"right_children":[2,4,6,8,10,12,14,16,18,20,22,-1,24,26,28,30,32,34,36,38,-1,-1,40,42,44,46,48,50,52,-1,-1,-1,-1,-1,-1,-1,-1,-1,-1,-1,-1,-1,-1,-1,-1,-1,-1,-1,-1,-1,-1,-1,-1],"split_conditions":[1.2E1,1.6E2,4.1E1,3.51E1,2E0,1E0,1.0173E3,1.0241E3,1.0147E3,4.5E1,1.3E1,7.4848275E0,1E1,5.9E1,1.5E1,1.0169E3,4E0,9E0,2.5E1,7.1E1,2.3383413E1,3.6669823E1,1.4E1,8E0,4.5E1,9E0,5.2E1,2E1,2.6E1,3.2697306E0,-1.4705222E0,7.546878E0,1.1384028E1,-5.2094703E0,-6.468839E0,-1.1131381E0,-2.984902E0,4.8770456E0,8.838165E0,1.9802517E1,2.572218E1,-7.1303296E0,4.3131337E-1,-7.170923E0,1.5676767E0,2.362852E0,3.8759532E0,-5.489671E-1,2.0835104E0,-3.167752E0,-2.2597113E0,-4.855643E0,-5.4781504E0],"split_indices":[75,28,7,33,20,18,64,14,14,32,0,0,50,11,3,89,28,3,1,86,0,0,0,3,59,0,32,0,1,0,0,0,0,0,0,0,0,0,0,0,0,0,0,0,0,0,0,0,0,0,0,0,0],"split_type":[0,0,0,0,0,0,0,0,0,0,0,0,0,0,0,0,0,0,0,0,0,0,0,0,0,0,0,0,0,0,0,0,0,0,0,0,0,0,0,0,0,0,0,0,0,0,0,0,0,0,0,0,0],"sum_hessian":[4.5098E4,2.1289E4,2.3809E4,1.3368E4,7.921E3,1.3739E4,1.007E4,9.066E3,4.302E3,6.841E3,1.08E3,3.6E2,1.3379E4,7.91E3,2.16E3,7.187E3,1.879E3,2.982E3,1.32E3,6.481E3,3.6E2,3.6E2,7.2E2,1.8E3,1.1579E4,1.698E3,6.212E3,7.2E2,1.44E3,3.665E3,3.522E3,1.44E3,4.39E2,1.44E3,1.542E3,2.4E2,1.08E3,3.241E3,3.24E3,3.6E2,3.6E2,3.6E2,1.44E3,1.1219E4,3.6E2,1.003E3,6.95E2,5.132E3,1.08E3,3.6E2,3.6E2,3.6E2,1.08E3],"tree_param":{"num_deleted":"0","num_feature":"100","num_nodes":"53","size_leaf_vector":"1"}},{"base_weights":[1.2310008E-2,3.9189752E2,-3.503966E2,1.2641006E1,1.0318734E3,-5.7023987E2,-5.0426693E1,2.4775023E2,-4.8276868E2,7.6540027E2,2.7175134E3,7.4101872E0,-6.0557574E2,5.636995E1,-4.4136505E2,9.374151E1,8.36456E2,-5.8040564E2,-2.6192557E2,6.7897955E2,2.3150227E1,3.630414E1,2.2566611E3,-1.0733308E2,-6.8301355E2,2.9542847E2,-9.011799E0,-2.690396E2,-5.272813E2,3.2370422E0,-1.455821E0,7.471462E0,1.1270447E1,-5.1574116E0,-6.404193E0,-1.1020527E0,-2.9550803E0,4.82829E0,8.749811E0,1.960504E1,2.5465672E1,-7.059224E0,4.2700297E-1,-7.0992203E0,1.5520431E0,2.339247E0,3.8372493E0,-5.4347867E-1,2.0626948E0,-3.1361628E0,-2.2371767E0,-4.8072205E0,-5.4234195E0],"categories":[],"categories_nodes":[],"categories_segments":[],"categories_sizes":[],"default_left":[1,0,0,0,0,0,0,0,0,0,0,0,0,0,0,0,0,0,0,0,0,0,0,0,1,0,0,0,0,0,0,0,0,0,0,0,0,0,0,0,0,0,0,0,0,0,0,0,0,0,0,0,0],"id":5,"left_children":[1,3,5,7,9,11,13,15,17,19,21,-1,23,25,27,29,31,33,35,37,-1,-1,39,41,43,45,47,49,51,-1,-1,-1,-1,-1,-1,-1,-1,-1,-1,-1,-1,-1,-1,-1,-1,-1,-1,-1,-1,-1,-1,-1,-1],"loss_changes":[6.1931356E9,5.1673897E9,1.5701548E9,1.557279E9,3.5563054E9,6.370847E8,4.2049824E8,8.2198854E8,9.26313E7,9.1470515E8,4.4659712E8,0E0,5.161646E8,1.236521E8,3.185296E7,3.9564237E8,4.7948416E7,1.1245952E7,6.69812E6,2.487831E8,0E0,0E0,5.6911104E7,1.6177502E8,2.612992E8,9.136768E6,6.0650136E7,1.386472E6,7.49696E5,0E0,0E0,0E0,0E0,0E0,0E0,0E0,0E0,0E0,0E0,0E0,0E0,0E0,0E0,0E0,0E0,0E0,0E0,0E0,0E0,0E0,0E0,0E0,0E0],"parents":[2147483647,0,0,1,1,2,2,3,3,4,4,5,5,6,6,7,7,8,8,9,9,10,10,12,12,13,13,14,14,15,15,16,16,17,17,18,18,19,19,22,22,23,23,24,24,25,25,26,26,27,27,28,28],"right_children":[2,4,6,8,10,12,14,16,18,20,22,-1,24,26,28,30,32,34,36,38,-1,-1,40,42,44,46,48,50,52,-1,-1,-1,-1,-1,-1,-1,-1,-1,-1,-1,-1,-1,-1,-1,-1,-1,-1,-1,-1,-1,-1,-1,-1],"split_conditions":[1.2E1,1.6E2,4.1E1,3.51E1,2E0,1E0,1.0173E3,1.0241E3,1.0147E3,4.5E1,1.3E1,7.4101872E0,1E1,5.9E1,1.5E1,1.0169E3,4E0,9E0,2.5E1,7.1E1,2.3150227E1,3.630414E1,1.4E1,8E0,4.5E1,9E0,5.2E1,2E1,2.6E1,3.2370422E0,-1.455821E0,7.471462E0,1.1270447E1,-5.1574116E0,-6.404193E0,-1.1020527E0,-2.9550803E0,4.82829E0,8.749811E0,1.960504E1,2.5465672E1,-7.059224E0,4.2700297E-1,-7.0992203E0,1.5520431E0,2.339247E0,3.8372493E0,-5.4347867E-1,2.0626948E0,-3.1361628E0,-2.2371767E0,-4.8072205E0,-5.4234195E0],"split_indices":[75,28,7,33,20,18,64,14,14,32,0,0,50,11,3,89,28,3,1,86,0,0,0,3,59,0,32,0,1,0,0,0,0,0,0,0,0,0,0,0,0,0,0,0,0,0,0,0,0,0,0,0,0],"split_type":[0,0,0,0,0,0,0,0,0,0,0,0,0,0,0,0,0,0,0,0,0,0,0,0,0,0,0,0,0,0,0,0,0,0,0,0,0,0,0,0,0,0,0,0,0,0,0,0,0,0,0,0,0],"sum_hessian":[4.5098E4,2.1289E4,2.3809E4,1.3368E4,7.921E3,1.3739E4,1.007E4,9.066E3,4.302E3,6.841E3,1.08E3,3.6E2,1.3379E4,7.91E3,2.16E3,7.187E3,1.879E3,2.982E3,1.32E3,6.481E3,3.6E2,3.6E2,7.2E2,1.8E3,1.1579E4,1.698E3,6.212E3,7.2E2,1.44E3,3.665E3,3.522E3,1.44E3,4.39E2,1.44E3,1.542E3,2.4E2,1.08E3,3.241E3,3.24E3,3.6E2,3.6E2,3.6E2,1.44E3,1.1219E4,3.6E2,1.003E3,6.95E2,5.132E3,1.08E3,3.6E2,3.6E2,3.6E2,1.08E3],"tree_param":{"num_deleted":"0","num_feature":"100","num_nodes":"53","size_leaf_vector":"1"}},{"base_weights":[1.4631472E-2,3.879843E2,-3.4689316E2,1.2514957E1,1.0215695E3,-5.6453784E2,-4.992322E1,2.4527498E2,-4.7794464E2,7.5775165E2,2.6904136E3,7.33629E0,-5.9952094E2,5.5807213E1,-4.3695865E2,9.280433E1,8.2810144E2,-5.7460547E2,-2.593094E2,6.7219183E2,2.2919365E1,3.59421E1,2.234157E3,-1.0626343E2,-6.761839E2,2.9247784E2,-8.9214525E0,-2.6635666E2,-5.220156E2,3.2046804E0,-1.441267E0,7.396799E0,1.1157999E1,-5.105873E0,-6.340193E0,-1.0910779E0,-2.925557E0,4.7800217E0,8.66234E0,1.9409533E1,2.5211718E1,-6.988827E0,4.2273593E-1,-7.0282345E0,1.5365655E0,2.3158782E0,3.798932E0,-5.3804517E-1,2.042087E0,-3.104888E0,-2.2148669E0,-4.7592816E0,-5.3692355E0],"categories":[],"categories_nodes":[],"categories_segments":[],"categories_sizes":[],"default_left":[1,0,0,0,0,0,0,0,0,0,0,0,0,0,0,0,0,0,0,0,0,0,0,0,1,0,0,0,0,0,0,0,0,0,0,0,0,0,0,0,0,0,0,0,0,0,0,0,0,0,0,0,0],"id":6,"left_children":[1,3,5,7,9,11,13,15,17,19,21,-1,23,25,27,29,31,33,35,37,-1,-1,39,41,43,45,47,49,51,-1,-1,-1,-1,-1,-1,-1,-1,-1,-1,-1,-1,-1,-1,-1,-1,-1,-1,-1,-1,-1,-1,-1,-1],"loss_changes":[6.069996E9,5.064705E9,1.5389053E9,1.5263141E9,3.4857876E9,6.244265E8,4.1214403E8,8.0565235E8,9.078829E7,8.9657165E8,4.377344E8,0E0,5.0588723E8,1.2119417E8,3.1219008E7,3.8777123E8,4.699955E7,1.1022336E7,6.564688E6,2.4383386E8,0E0,0E0,5.578163E7,1.5856422E8,2.561024E8,8.955344E6,5.944414E7,1.35896E6,7.34496E5,0E0,0E0,0E0,0E0,0E0,0E0,0E0,0E0,0E0,0E0,0E0,0E0,0E0,0E0,0E0,0E0,0E0,0E0,0E0,0E0,0E0,0E0,0E0,0E0],"parents":[2147483647,0,0,1,1,2,2,3,3,4,4,5,5,6,6,7,7,8,8,9,9,10,10,12,12,13,13,14,14,15,15,16,16,17,17,18,18,19,19,22,22,23,23,24,24,25,25,26,26,27,27,28,28],"right_children":[2,4,6,8,10,12,14,16,18,20,22,-1,24,26,28,30,32,34,36,38,-1,-1,40,42,44,46,48,50,52,-1,-1,-1,-1,-1,-1,-1,-1,-1,-1,-1,-1,-1,-1,-1,-1,-1,-1,-1,-1,-1,-1,-1,-1],"split_conditions":[1.2E1,1.6E2,4.1E1,3.51E1,2E0,1E0,1.0173E3,1.0241E3,1.0147E3,4.5E1,1.3E1,7.33629E0,1E1,5.9E1,1.5E1,1.0169E3,4E0,9E0,2.5E1,7.1E1,2.2919365E1,3.59421E1,1.4E1,8E0,4.5E1,9E0,5.2E1,2E1,2.6E1,3.2046804E0,-1.441267E0,7.396799E0,1.1157999E1,-5.105873E0,-6.340193E0,-1.0910779E0,-2.925557E0,4.7800217E0,8.66234E0,1.9409533E1,2.5211718E1,-6.988827E0,4.2273593E-1,-7.0282345E0,1.5365655E0,2.3158782E0,3.798932E0,-5.3804517E-1,2.042087E0,-3.104888E0,-2.2148669E0,-4.7592816E0,-5.3692355E0],"split_indices":[75,28,7,33,20,18,64,14,14,32,0,0,50,11,3,89,28,3,1,86,0,0,0,3,59,0,32,0,1,0,0,0,0,0,0,0,0,0,0,0,0,0,0,0,0,0,0,0,0,0,0,0,0],"split_type":[0,0,0,0,0,0,0,0,0,0,0,0,0,0,0,0,0,0,0,0,0,0,0,0,0,0,0,0,0,0,0,0,0,0,0,0,0,0,0,0,0,0,0,0,0,0,0,0,0,0,0,0,0],"sum_hessian":[4.5098E4,2.1289E4,2.3809E4,1.3368E4,7.921E3,1.3739E4,1.007E4,9.066E3,4.302E3,6.841E3,1.08E3,3.6E2,1.3379E4,7.91E3,2.16E3,7.187E3,1.879E3,2.982E3,1.32E3,6.481E3,3.6E2,3.6E2,7.2E2,1.8E3,1.1579E4,1.698E3,6.212E3,7.2E2,1.44E3,3.665E3,3.522E3,1.44E3,4.39E2,1.44E3,1.542E3,2.4E2,1.08E3,3.241E3,3.24E3,3.6E2,3.6E2,3.6E2,1.44E3,1.1219E4,3.6E2,1.003E3,6.95E2,5.132E3,1.08E3,3.6E2,3.6E2,3.6E2,1.08E3],"tree_param":{"num_deleted":"0","num_feature":"100","num_nodes":"53","size_leaf_vector":"1"}},{"base_weights":[1.692081E-2,3.8411023E2,-3.4342477E2,1.2390188E1,1.0113686E3,-5.5889276E2,-4.9424778E1,2.428245E2,-4.7316876E2,7.5017944E2,2.663584E3,7.26313E0,-5.9352655E2,5.5250088E1,-4.325962E2,9.187656E1,8.198303E2,-5.688632E2,-2.5671933E2,6.6547205E2,2.2690807E1,3.5583675E1,2.2118774E3,-1.0520444E2,-6.694225E2,2.8955667E2,-8.832017E0,-2.637005E2,-5.168024E2,3.1726427E0,-1.4268583E0,7.3228827E0,1.1046672E1,-5.0548496E0,-6.2768316E0,-1.0802125E0,-2.8963287E0,4.7322364E0,8.575744E0,1.9215977E1,2.4960302E1,-6.919133E0,4.1851157E-1,-6.957958E0,1.5212425E0,2.2927425E0,3.7609973E0,-5.3266597E-1,2.0216846E0,-3.0739255E0,-2.1927798E0,-4.711821E0,-5.315593E0],"categories":[],"categories_nodes":[],"categories_segments":[],"categories_sizes":[],"default_left":[1,0,0,0,0,0,0,0,0,0,0,0,0,0,0,0,0,0,0,0,0,0,0,0,1,0,0,0,0,0,0,0,0,0,0,0,0,0,0,0,0,0,0,0,0,0,0,0,0,0,0,0,0],"id":7,"left_children":[1,3,5,7,9,11,13,15,17,19,21,-1,23,25,27,29,31,33,35,37,-1,-1,39,41,43,45,47,49,51,-1,-1,-1,-1,-1,-1,-1,-1,-1,-1,-1,-1,-1,-1,-1,-1,-1,-1,-1,-1,-1,-1,-1,-1],"loss_changes":[5.949306E9,4.96406E9,1.5082783E9,1.4959648E9,3.4166687E9,6.1202E8,4.0395578E8,7.896408E8,8.898208E7,8.7879706E8,4.290478E8,0E0,4.9581414E8,1.187851E8,3.0597632E7,3.8005677E8,4.606925E7,1.0803072E7,6.433928E6,2.3898317E8,0E0,0E0,5.467469E7,1.554171E8,2.5100954E8,8.777504E6,5.8262108E7,1.331992E6,7.19616E5,0E0,0E0,0E0,0E0,0E0,0E0,0E0,0E0,0E0,0E0,0E0,0E0,0E0,0E0,0E0,0E0,0E0,0E0,0E0,0E0,0E0,0E0,0E0,0E0],"parents":[2147483647,0,0,1,1,2,2,3,3,4,4,5,5,6,6,7,7,8,8,9,9,10,10,12,12,13,13,14,14,15,15,16,16,17,17,18,18,19,19,22,22,23,23,24,24,25,25,26,26,27,27,28,28],"right_children":[2,4,6,8,10,12,14,16,18,20,22,-1,24,26,28,30,32,34,36,38,-1,-1,40,42,44,46,48,50,52,-1,-1,-1,-1,-1,-1,-1,-1,-1,-1,-1,-1,-1,-1,-1,-1,-1,-1,-1,-1,-1,-1,-1,-1],"split_conditions":[1.2E1,1.6E2,4.1E1,3.51E1,2E0,1E0,1.0173E3,1.0241E3,1.0147E3,4.5E1,1.3E1,7.26313E0,1E1,5.9E1,1.5E1,1.0169E3,4E0,9E0,2.5E1,7.1E1,2.2690807E1,3.5583675E1,1.4E1,8E0,4.5E1,9E0,5.2E1,2E1,2.6E1,3.1726427E0,-1.4268583E0,7.3228827E0,1.1046672E1,-5.0548496E0,-6.2768316E0,-1.0802125E0,-2.8963287E0,4.7322364E0,8.575744E0,1.9215977E1,2.4960302E1,-6.919133E0,4.1851157E-1,-6.957958E0,1.5212425E0,2.2927425E0,3.7609973E0,-5.3266597E-1,2.0216846E0,-3.0739255E0,-2.1927798E0,-4.711821E0,-5.315593E0],"split_indices":[75,28,7,33,20,18,64,14,14,32,0,0,50,11,3,89,28,3,1,86,0,0,0,3,59,0,32,0,1,0,0,0,0,0,0,0,0,0,0,0,0,0,0,0,0,0,0,0,0,0,0,0,0],"split_type":[0,0,0,0,0,0,0,0,0,0,0,0,0,0,0,0,0,0,0,0,0,0,0,0,0,0,0,0,0,0,0,0,0,0,0,0,0,0,0,0,0,0,0,0,0,0,0,0,0,0,0,0,0],"sum_hessian":[4.5098E4,2.1289E4,2.3809E4,1.3368E4,7.921E3,1.3739E4,1.007E4,9.066E3,4.302E3,6.841E3,1.08E3,3.6E2,1.3379E4,7.91E3,2.16E3,7.187E3,1.879E3,2.982E3,1.32E3,6.481E3,3.6E2,3.6E2,7.2E2,1.8E3,1.1579E4,1.698E3,6.212E3,7.2E2,1.44E3,3.665E3,3.522E3,1.44E3,4.39E2,1.44E3,1.542E3,2.4E2,1.08E3,3.241E3,3.24E3,3.6E2,3.6E2,3.6E2,1.44E3,1.1219E4,3.6E2,1.003E3,6.95E2,5.132E3,1.08E3,3.6E2,3.6E2,3.6E2,1.08E3],"tree_param":{"num_deleted":"0","num_feature":"100","num_nodes":"53","size_leaf_vector":"1"}},{"base_weights":[1.9148795E-2,3.8027478E2,-3.3999103E2,1.2266643E1,1.0012696E3,-5.533042E2,-4.89313E1,2.4039845E2,-4.6844064E2,7.426829E2,2.637022E3,7.1907005E0,-5.875922E2,5.469854E1,-4.282773E2,9.095802E1,8.116418E2,-5.6317834E2,-2.5415518E2,6.588194E2,2.2464529E1,3.5228825E1,2.1898198E3,-1.04156006E2,-6.6272876E2,2.8666467E2,-8.743464E0,-2.6107077E2,-5.116414E2,3.1409247E0,-1.4125935E0,7.249704E0,1.0936458E1,-5.004336E0,-6.2141037E0,-1.0694554E0,-2.8673925E0,4.6849284E0,8.490013E0,1.902435E1,2.471139E1,-6.8501334E0,4.143293E-1,-6.888385E0,1.5060722E0,2.269838E0,3.7234414E0,-5.273405E-1,2.0014868E0,-3.0432713E0,-2.1709125E0,-4.6648335E0,-5.262486E0],"categories":[],"categories_nodes":[],"categories_segments":[],"categories_sizes":[],"default_left":[1,0,0,0,0,0,0,0,0,0,0,0,0,0,0,0,0,0,0,0,0,0,0,0,1,0,0,0,0,0,0,0,0,0,0,0,0,0,0,0,0,0,0,0,0,0,0,0,0,0,0,0,0],"id":8,"left_children":[1,3,5,7,9,11,13,15,17,19,21,-1,23,25,27,29,31,33,35,37,-1,-1,39,41,43,45,47,49,51,-1,-1,-1,-1,-1,-1,-1,-1,-1,-1,-1,-1,-1,-1,-1,-1,-1,-1,-1,-1,-1,-1,-1,-1],"loss_changes":[5.831015E9,4.865416E9,1.478261E9,1.4662189E9,3.3489178E9,5.9986074E8,3.959302E8,7.739474E8,8.721178E7,8.613747E8,4.2053274E8,0E0,4.8594176E8,1.1642391E8,2.998864E7,3.724956E8,4.5157376E7,1.058816E7,6.30576E6,2.34229E8,0E0,0E0,5.3589504E7,1.5233248E8,2.4601702E8,8.6032E6,5.7103596E7,1.305556E6,7.05056E5,0E0,0E0,0E0,0E0,0E0,0E0,0E0,0E0,0E0,0E0,0E0,0E0,0E0,0E0,0E0,0E0,0E0,0E0,0E0,0E0,0E0,0E0,0E0,0E0],"parents":[2147483647,0,0,1,1,2,2,3,3,4,4,5,5,6,6,7,7,8,8,9,9,10,10,12,12,13,13,14,14,15,15,16,16,17,17,18,18,19,19,22,22,23,23,24,24,25,25,26,26,27,27,28,28],"right_children":[2,4,6,8,10,12,14,16,18,20,22,-1,24,26,28,30,32,34,36,38,-1,-1,40,42,44,46,48,50,52,-1,-1,-1,-1,-1,-1,-1,-1,-1,-1,-1,-1,-1,-1,-1,-1,-1,-1,-1,-1,-1,-1,-1,-1],"split_conditions":[1.2E1,1.6E2,4.1E1,3.51E1,2E0,1E0,1.0173E3,1.0241E3,1.0147E3,4.5E1,1.3E1,7.1907005E0,1E1,5.9E1,1.5E1,1.0169E3,4E0,9E0,2.5E1,7.1E1,2.2464529E1,3.5228825E1,1.4E1,8E0,4.5E1,9E0,5.2E1,2E1,2.6E1,3.1409247E0,-1.4125935E0,7.249704E0,1.0936458E1,-5.004336E0,-6.2141037E0,-1.0694554E0,-2.8673925E0,4.6849284E0,8.490013E0,1.902435E1,2.471139E1,-6.8501334E0,4.143293E-1,-6.888385E0,1.5060722E0,2.269838E0,3.7234414E0,-5.273405E-1,2.0014868E0,-3.0432713E0,-2.1709125E0,-4.6648335E0,-5.262486E0],"split_indices":[75,28,7,33,20,18,64,14,14,32,0,0,50,11,3,89,28,3,1,86,0,0,0,3,59,0,32,0,1,0,0,0,0,0,0,0,0,0,0,0,0,0,0,0,0,0,0,0,0,0,0,0,0],"split_type":[0,0,0,0,0,0,0,0,0,0,0,0,0,0,0,0,0,0,0,0,0,0,0,0,0,0,0,0,0,0,0,0,0,0,0,0,0,0,0,0,0,0,0,0,0,0,0,0,0,0,0,0,0],"sum_hessian":[4.5098E4,2.1289E4,2.3809E4,1.3368E4,7.921E3,1.3739E4,1.007E4,9.066E3,4.302E3,6.841E3,1.08E3,3.6E2,1.3379E4,7.91E3,2.16E3,7.187E3,1.879E3,2.982E3,1.32E3,6.481E3,3.6E2,3.6E2,7.2E2,1.8E3,1.1579E4,1.698E3,6.212E3,7.2E2,1.44E3,3.665E3,3.522E3,1.44E3,4.39E2,1.44E3,1.542E3,2.4E2,1.08E3,3.241E3,3.24E3,3.6E2,3.6E2,3.6E2,1.44E3,1.1219E4,3.6E2,1.003E3,6.95E2,5.132E3,1.08E3,3.6E2,3.6E2,3.6E2,1.08E3],"tree_param":{"num_deleted":"0","num_feature":"100","num_nodes":"53","size_leaf_vector":"1"}},{"base_weights":[2.1329606E-2,3.7647766E2,-3.3659164E2,1.2144327E1,9.9127136E2,-5.477715E2,-4.844274E1,2.3799666E2,-4.6375977E2,7.3526135E2,2.6107249E3,7.1189923E0,-5.8171716E2,5.41525E1,-4.2400153E2,9.004868E1,8.03535E2,-5.5755035E2,-2.5161662E2,6.522332E2,2.2240505E1,3.487751E1,2.1679824E3,-1.03118E2,-6.561019E2,2.8380154E2,-8.655786E0,-2.5846732E2,-5.0653183E2,3.1095238E0,-1.3984716E0,7.177257E0,1.0827342E1,-4.954327E0,-6.152003E0,-1.0588051E0,-2.838745E0,4.638094E0,8.40514E0,1.8834633E1,2.446496E1,-6.7818217E0,4.101891E-1,-6.819507E0,1.4910536E0,2.2471623E0,3.6862607E0,-5.22068E-1,1.9814906E0,-3.012923E0,-2.1492636E0,-4.6183143E0,-5.2099094E0],"categories":[],"categories_nodes":[],"categories_segments":[],"categories_sizes":[],"default_left":[1,0,0,0,0,0,0,0,0,0,0,0,0,0,0,0,0,0,0,0,0,0,0,0,1,0,0,0,0,0,0,0,0,0,0,0,0,0,0,0,0,0,0,0,0,0,0,0,0,0,0,0,0],"id":9,"left_children":[1,3,5,7,9,11,13,15,17,19,21,-1,23,25,27,29,31,33,35,37,-1,-1,39,41,43,45,47,49,51,-1,-1,-1,-1,-1,-1,-1,-1,-1,-1,-1,-1,-1,-1,-1,-1,-1,-1,-1,-1,-1,-1,-1,-1],"loss_changes":[5.7150756E9,4.768731E9,1.4488415E9,1.4370646E9,3.282512E9,5.8794214E8,3.880641E8,7.5856576E8,8.547661E7,8.4429875E8,4.1218765E8,0E0,4.76267E8,1.1410964E8,2.9391744E7,3.65085E8,4.426381E7,1.03776E7,6.180152E6,2.2956902E8,0E0,0E0,5.2525824E7,1.4930906E8,2.4112435E8,8.432352E6,5.596812E7,1.279652E6,6.90752E5,0E0,0E0,0E0,0E0,0E0,0E0,0E0,0E0,0E0,0E0,0E0,0E0,0E0,0E0,0E0,0E0,0E0,0E0,0E0,0E0,0E0,0E0,0E0,0E0],"parents":[2147483647,0,0,1,1,2,2,3,3,4,4,5,5,6,6,7,7,8,8,9,9,10,10,12,12,13,13,14,14,15,15,16,16,17,17,18,18,19,19,22,22,23,23,24,24,25,25,26,26,27,27,28,28],"right_children":[2,4,6,8,10,12,14,16,18,20,22,-1,24,26,28,30,32,34,36,38,-1,-1,40,42,44,46,48,50,52,-1,-1,-1,-1,-1,-1,-1,-1,-1,-1,-1,-1,-1,-1,-1,-1,-1,-1,-1,-1,-1,-1,-1,-1],"split_conditions":[1.2E1,1.6E2,4.1E1,3.51E1,2E0,1E0,1.0173E3,1.0241E3,1.0147E3,4.5E1,1.3E1,7.1189923E0,1E1,5.9E1,1.5E1,1.0169E3,4E0,9E0,2.5E1,7.1E1,2.2240505E1,3.487751E1,1.4E1,8E0,4.5E1,9E0,5.2E1,2E1,2.6E1,3.1095238E0,-1.3984716E0,7.177257E0,1.0827342E1,-4.954327E0,-6.152003E0,-1.0588051E0,-2.838745E0,4.638094E0,8.40514E0,1.8834633E1,2.446496E1,-6.7818217E0,4.101891E-1,-6.819507E0,1.4910536E0,2.2471623E0,3.6862607E0,-5.22068E-1,1.9814906E0,-3.012923E0,-2.1492636E0,-4.6183143E0,-5.2099094E0],"split_indices":[75,28,7,33,20,18,64,14,14,32,0,0,50,11,3,89,28,3,1,86,0,0,0,3,59,0,32,0,1,0,0,0,0,0,0,0,0,0,0,0,0,0,0,0,0,0,0,0,0,0,0,0,0],"split_type":[0,0,0,0,0,0,0,0,0,0,0,0,0,0,0,0,0,0,0,0,0,0,0,0,0,0,0,0,0,0,0,0,0,0,0,0,0,0,0,0,0,0,0,0,0,0,0,0,0,0,0,0,0],"sum_hessian":[4.5098E4,2.1289E4,2.3809E4,1.3368E4,7.921E3,1.3739E4,1.007E4,9.066E3,4.302E3,6.841E3,1.08E3,3.6E2,1.3379E4,7.91E3,2.16E3,7.187E3,1.879E3,2.982E3,1.32E3,6.481E3,3.6E2,3.6E2,7.2E2,1.8E3,1.1579E4,1.698E3,6.212E3,7.2E2,1.44E3,3.665E3,3.522E3,1.44E3,4.39E2,1.44E3,1.542E3,2.4E2,1.08E3,3.241E3,3.24E3,3.6E2,3.6E2,3.6E2,1.44E3,1.1219E4,3.6E2,1.003E3,6.95E2,5.132E3,1.08E3,3.6E2,3.6E2,3.6E2,1.08E3],"tree_param":{"num_deleted":"0","num_feature":"100","num_nodes":"53","size_leaf_vector":"1"}},{"base_weights":[2.3470372E-2,3.727184E2,-3.3322623E2,1.2023249E1,9.813729E2,-5.422941E2,-4.7959064E1,2.356189E2,-4.5912564E2,7.279139E2,2.58469E3,7.047999E0,-5.759009E2,5.361192E1,-4.1976846E2,8.914847E1,7.955092E2,-5.519786E2,-2.4910342E2,6.457129E2,2.2018715E1,3.45297E1,2.1463628E3,-1.0209038E2,-6.495414E2,2.80967E2,-8.568974E0,-2.5588979E2,-5.0147336E2,3.0784373E0,-1.3844906E0,7.105534E0,1.0719314E1,-4.9048185E0,-6.090523E0,-1.0482613E0,-2.810384E0,4.591727E0,8.321115E0,1.8646809E1,2.4220987E1,-6.714191E0,4.0608978E-1,-6.751318E0,1.4761845E0,2.2247128E0,3.6494505E0,-5.1684815E-1,1.9616939E0,-2.9828768E0,-2.1278303E0,-4.5722594E0,-5.157859E0],"categories":[],"categories_nodes":[],"categories_segments":[],"categories_sizes":[],"default_left":[1,0,0,0,0,0,0,0,0,0,0,0,0,0,0,0,0,0,0,0,0,0,0,0,1,0,0,0,0,0,0,0,0,0,0,0,0,0,0,0,0,0,0,0,0,0,0,0,0,0,0,0,0],"id":10,"left_children":[1,3,5,7,9,11,13,15,17,19,21,-1,23,25,27,29,31,33,35,37,-1,-1,39,41,43,45,47,49,51,-1,-1,-1,-1,-1,-1,-1,-1,-1,-1,-1,-1,-1,-1,-1,-1,-1,-1,-1,-1,-1,-1,-1,-1],"loss_changes":[5.601442E9,4.6739686E9,1.4200072E9,1.4084901E9,3.2174228E9,5.7626035E8,3.8035424E8,7.4349005E8,8.377606E7,8.275602E8,4.0400742E8,0E0,4.6678374E8,1.1184134E8,2.8806816E7,3.5782176E8,4.338765E7,1.0171136E7,6.057032E6,2.2500224E8,0E0,0E0,5.148339E7,1.4634563E8,2.3632845E8,8.264912E6,5.485519E7,1.254256E6,6.76736E5,0E0,0E0,0E0,0E0,0E0,0E0,0E0,0E0,0E0,0E0,0E0,0E0,0E0,0E0,0E0,0E0,0E0,0E0,0E0,0E0,0E0,0E0,0E0,0E0],"parents":[2147483647,0,0,1,1,2,2,3,3,4,4,5,5,6,6,7,7,8,8,9,9,10,10,12,12,13,13,14,14,15,15,16,16,17,17,18,18,19,19,22,22,23,23,24,24,25,25,26,26,27,27,28,28],"right_children":[2,4,6,8,10,12,14,16,18,20,22,-1,24,26,28,30,32,34,36,38,-1,-1,40,42,44,46,48,50,52,-1,-1,-1,-1,-1,-1,-1,-1,-1,-1,-1,-1,-1,-1,-1,-1,-1,-1,-1,-1,-1,-1,-1,-1],"split_conditions":[1.2E1,1.6E2,4.1E1,3.51E1,2E0,1E0,1.0173E3,1.0241E3,1.0147E3,4.5E1,1.3E1,7.047999E0,1E1,5.9E1,1.5E1,1.0169E3,4E0,9E0,2.5E1,7.1E1,2.2018715E1,3.45297E1,1.4E1,8E0,4.5E1,9E0,5.2E1,2E1,2.6E1,3.0784373E0,-1.3844906E0,7.105534E0,1.0719314E1,-4.9048185E0,-6.090523E0,-1.0482613E0,-2.810384E0,4.591727E0,8.321115E0,1.8646809E1,2.4220987E1,-6.714191E0,4.0608978E-1,-6.751318E0,1.4761845E0,2.2247128E0,3.6494505E0,-5.1684815E-1,1.9616939E0,-2.9828768E0,-2.1278303E0,-4.5722594E0,-5.157859E0],"split_indices":[75,28,7,33,20,18,64,14,14,32,0,0,50,11,3,89,28,3,1,86,0,0,0,3,59,0,32,0,1,0,0,0,0,0,0,0,0,0,0,0,0,0,0,0,0,0,0,0,0,0,0,0,0],"split_type":[0,0,0,0,0,0,0,0,0,0,0,0,0,0,0,0,0,0,0,0,0,0,0,0,0,0,0,0,0,0,0,0,0,0,0,0,0,0,0,0,0,0,0,0,0,0,0,0,0,0,0,0,0],"sum_hessian":[4.5098E4,2.1289E4,2.3809E4,1.3368E4,7.921E3,1.3739E4,1.007E4,9.066E3,4.302E3,6.841E3,1.08E3,3.6E2,1.3379E4,7.91E3,2.16E3,7.187E3,1.879E3,2.982E3,1.32E3,6.481E3,3.6E2,3.6E2,7.2E2,1.8E3,1.1579E4,1.698E3,6.212E3,7.2E2,1.44E3,3.665E3,3.522E3,1.44E3,4.39E2,1.44E3,1.542E3,2.4E2,1.08E3,3.241E3,3.24E3,3.6E2,3.6E2,3.6E2,1.44E3,1.1219E4,3.6E2,1.003E3,6.95E2,5.132E3,1.08E3,3.6E2,3.6E2,3.6E2,1.08E3],"tree_param":{"num_deleted":"0","num_feature":"100","num_nodes":"53","size_leaf_vector":"1"}},{"base_weights":[2.5560195E-2,3.689967E2,-3.2989447E2,1.1903352E1,9.7157336E2,-5.3687146E2,-4.7480225E1,2.3326483E2,-4.5453784E2,7.2063983E2,2.5589146E3,6.9777145E0,-5.701427E2,5.3076725E1,-4.1557767E2,8.82572E1,7.8756354E2,-5.4646246E2,-2.4661533E2,6.3925775E2,2.179914E1,3.4185364E1,2.1249585E3,-1.0107297E2,-6.430464E2,2.7816077E2,-8.483049E0,-2.53338E2,-4.964654E2,3.0476618E0,-1.3706498E0,7.0345273E0,1.0612364E1,-4.8558035E0,-6.0296574E0,-1.037822E0,-2.7823064E0,4.5458236E0,8.237928E0,1.8460857E1,2.3979448E1,-6.6472354E0,4.0203193E-1,-6.6838107E0,1.4614635E0,2.2024877E0,3.6130083E0,-5.1168066E-1,1.9420953E0,-2.953131E0,-2.106611E0,-4.5266633E0,-5.106328E0],"categories":[],"categories_nodes":[],"categories_segments":[],"categories_sizes":[],"default_left":[1,0,0,0,0,0,0,0,0,0,0,0,0,0,0,0,0,0,0,0,0,0,0,0,1,0,0,0,0,0,0,0,0,0,0,0,0,0,0,0,0,0,0,0,0,0,0,0,0,0,0,0,0],"id":11,"left_children":[1,3,5,7,9,11,13,15,17,19,21,-1,23,25,27,29,31,33,35,37,-1,-1,39,41,43,45,47,49,51,-1,-1,-1,-1,-1,-1,-1,-1,-1,-1,-1,-1,-1,-1,-1,-1,-1,-1,-1,-1,-1,-1,-1,-1],"loss_changes":[5.490067E9,4.581088E9,1.3917466E9,1.3804835E9,3.153625E9,5.64811E8,3.7279766E8,7.287137E8,8.210944E7,8.111542E8,3.9599053E8,0E0,4.574894E8,1.0961815E8,2.8233472E7,3.5070314E8,4.2528896E7,9.968768E6,5.936392E6,2.2052608E8,0E0,0E0,5.046195E7,1.4344107E8,2.316288E8,8.100776E6,5.3764424E7,1.229368E6,6.63008E5,0E0,0E0,0E0,0E0,0E0,0E0,0E0,0E0,0E0,0E0,0E0,0E0,0E0,0E0,0E0,0E0,0E0,0E0,0E0,0E0,0E0,0E0,0E0,0E0],"parents":[2147483647,0,0,1,1,2,2,3,3,4,4,5,5,6,6,7,7,8,8,9,9,10,10,12,12,13,13,14,14,15,15,16,16,17,17,18,18,19,19,22,22,23,23,24,24,25,25,26,26,27,27,28,28],"right_children":[2,4,6,8,10,12,14,16,18,20,22,-1,24,26,28,30,32,34,36,38,-1,-1,40,42,44,46,48,50,52,-1,-1,-1,-1,-1,-1,-1,-1,-1,-1,-1,-1,-1,-1,-1,-1,-1,-1,-1,-1,-1,-1,-1,-1],"split_conditions":[1.2E1,1.6E2,4.1E1,3.51E1,2E0,1E0,1.0173E3,1.0241E3,1.0147E3,4.5E1,1.3E1,6.9777145E0,1E1,5.9E1,1.5E1,1.0169E3,4E0,9E0,2.5E1,7.1E1,2.179914E1,3.4185364E1,1.4E1,8E0,4.5E1,9E0,5.2E1,2E1,2.6E1,3.0476618E0,-1.3706498E0,7.0345273E0,1.0612364E1,-4.8558035E0,-6.0296574E0,-1.037822E0,-2.7823064E0,4.5458236E0,8.237928E0,1.8460857E1,2.3979448E1,-6.6472354E0,4.0203193E-1,-6.6838107E0,1.4614635E0,2.2024877E0,3.6130083E0,-5.1168066E-1,1.9420953E0,-2.953131E0,-2.106611E0,-4.5266633E0,-5.106328E0],"split_indices":[75,28,7,33,20,18,64,14,14,32,0,0,50,11,3,89,28,3,1,86,0,0,0,3,59,0,32,0,1,0,0,0,0,0,0,0,0,0,0,0,0,0,0,0,0,0,0,0,0,0,0,0,0],"split_type":[0,0,0,0,0,0,0,0,0,0,0,0,0,0,0,0,0,0,0,0,0,0,0,0,0,0,0,0,0,0,0,0,0,0,0,0,0,0,0,0,0,0,0,0,0,0,0,0,0,0,0,0,0],"sum_hessian":[4.5098E4,2.1289E4,2.3809E4,1.3368E4,7.921E3,1.3739E4,1.007E4,9.066E3,4.302E3,6.841E3,1.08E3,3.6E2,1.3379E4,7.91E3,2.16E3,7.187E3,1.879E3,2.982E3,1.32E3,6.481E3,3.6E2,3.6E2,7.2E2,1.8E3,1.1579E4,1.698E3,6.212E3,7.2E2,1.44E3,3.665E3,3.522E3,1.44E3,4.39E2,1.44E3,1.542E3,2.4E2,1.08E3,3.241E3,3.24E3,3.6E2,3.6E2,3.6E2,1.44E3,1.1219E4,3.6E2,1.003E3,6.95E2,5.132E3,1.08E3,3.6E2,3.6E2,3.6E2,1.08E3],"tree_param":{"num_deleted":"0","num_feature":"100","num_nodes":"53","size_leaf_vector":"1"}},{"base_weights":[2.761151E-2,3.653122E2,-3.26596E2,1.1784663E1,9.6187164E2,-5.3150305E2,-4.7006176E1,2.3093433E2,-4.4999588E2,7.134385E2,2.5333962E3,6.9081316E0,-5.6444214E2,5.2546856E1,-4.1142868E2,8.737487E1,7.796973E2,-5.4100146E2,-2.4415207E2,6.328671E2,2.1581753E1,3.3844456E1,2.1037678E3,-1.0006571E2,-6.3661633E2,2.7538257E2,-8.398005E0,-2.5081163E2,-4.9150742E2,3.0171933E0,-1.3569472E0,6.964231E0,1.0506482E1,-4.8072796E0,-5.9694E0,-1.0274867E0,-2.7545092E0,4.500379E0,8.155574E0,1.827676E1,2.3740316E1,-6.580948E0,3.9801434E-1,-6.6169786E0,1.4468892E0,2.1804845E0,3.5769298E0,-5.065651E-1,1.9226925E0,-2.9236815E0,-2.0856032E0,-4.481522E0,-5.055312E0],"categories":[],"categories_nodes":[],"categories_segments":[],"categories_sizes":[],"default_left":[1,0,0,0,0,0,0,0,0,0,0,0,0,0,0,0,0,0,0,0,0,0,0,0,1,0,0,0,0,0,0,0,0,0,0,0,0,0,0,0,0,0,0,0,0,0,0,0,0,0,0,0,0],"id":12,"left_children":[1,3,5,7,9,11,13,15,17,19,21,-1,23,25,27,29,31,33,35,37,-1,-1,39,41,43,45,47,49,51,-1,-1,-1,-1,-1,-1,-1,-1,-1,-1,-1,-1,-1,-1,-1,-1,-1,-1,-1,-1,-1,-1,-1,-1],"loss_changes":[5.380907E9,4.4900536E9,1.3640484E9,1.3530341E9,3.091091E9,5.5358874E8,3.653911E8,7.142311E8,8.047571E7,7.95073E8,3.8813133E8,0E0,4.483804E8,1.0743916E8,2.767152E7,3.43726E8,4.168717E7,9.77056E6,5.818136E6,2.16139E8,0E0,0E0,4.9460224E7,1.4059413E8,2.2702131E8,7.93992E6,5.269535E7,1.204964E6,6.49568E5,0E0,0E0,0E0,0E0,0E0,0E0,0E0,0E0,0E0,0E0,0E0,0E0,0E0,0E0,0E0,0E0,0E0,0E0,0E0,0E0,0E0,0E0,0E0,0E0],"parents":[2147483647,0,0,1,1,2,2,3,3,4,4,5,5,6,6,7,7,8,8,9,9,10,10,12,12,13,13,14,14,15,15,16,16,17,17,18,18,19,19,22,22,23,23,24,24,25,25,26,26,27,27,28,28],"right_children":[2,4,6,8,10,12,14,16,18,20,22,-1,24,26,28,30,32,34,36,38,-1,-1,40,42,44,46,48,50,52,-1,-1,-1,-1,-1,-1,-1,-1,-1,-1,-1,-1,-1,-1,-1,-1,-1,-1,-1,-1,-1,-1,-1,-1],"split_conditions":[1.2E1,1.6E2,4.1E1,3.51E1,2E0,1E0,1.0173E3,1.0241E3,1.0147E3,4.5E1,1.3E1,6.9081316E0,1E1,5.9E1,1.5E1,1.0169E3,4E0,9E0,2.5E1,7.1E1,2.1581753E1,3.3844456E1,1.4E1,8E0,4.5E1,9E0,5.2E1,2E1,2.6E1,3.0171933E0,-1.3569472E0,6.964231E0,1.0506482E1,-4.8072796E0,-5.9694E0,-1.0274867E0,-2.7545092E0,4.500379E0,8.155574E0,1.827676E1,2.3740316E1,-6.580948E0,3.9801434E-1,-6.6169786E0,1.4468892E0,2.1804845E0,3.5769298E0,-5.065651E-1,1.9226925E0,-2.9236815E0,-2.0856032E0,-4.481522E0,-5.055312E0],"split_indices":[75,28,7,33,20,18,64,14,14,32,0,0,50,11,3,89,28,3,1,86,0,0,0,3,59,0,32,0,1,0,0,0,0,0,0,0,0,0,0,0,0,0,0,0,0,0,0,0,0,0,0,0,0],"split_type":[0,0,0,0,0,0,0,0,0,0,0,0,0,0,0,0,0,0,0,0,0,0,0,0,0,0,0,0,0,0,0,0,0,0,0,0,0,0,0,0,0,0,0,0,0,0,0,0,0,0,0,0,0],"sum_hessian":[4.5098E4,2.1289E4,2.3809E4,1.3368E4,7.921E3,1.3739E4,1.007E4,9.066E3,4.302E3,6.841E3,1.08E3,3.6E2,1.3379E4,7.91E3,2.16E3,7.187E3,1.879E3,2.982E3,1.32E3,6.481E3,3.6E2,3.6E2,7.2E2,1.8E3,1.1579E4,1.698E3,6.212E3,7.2E2,1.44E3,3.665E3,3.522E3,1.44E3,4.39E2,1.44E3,1.542E3,2.4E2,1.08E3,3.241E3,3.24E3,3.6E2,3.6E2,3.6E2,1.44E3,1.1219E4,3.6E2,1.003E3,6.95E2,5.132E3,1.08E3,3.6E2,3.6E2,3.6E2,1.08E3],"tree_param":{"num_deleted":"0","num_feature":"100","num_nodes":"53","size_leaf_vector":"1"}},{"base_weights":[2.962447E-2,3.6166446E2,-3.2333054E2,1.166715E1,9.5226685E2,-5.2618835E2,-4.6536827E1,2.2862708E2,-4.4549933E2,7.063091E2,2.5081326E3,6.839242E0,-5.587985E2,5.2022316E1,-4.073211E2,8.6501335E1,7.719096E2,-5.355951E2,-2.4171341E2,6.265404E2,2.136653E1,3.350695E1,2.0827883E3,-9.906849E1,-6.302506E2,2.7263214E2,-8.31377E0,-2.4831042E2,-4.8659897E2,2.9870293E0,-1.3433816E0,6.8946366E0,1.0401656E1,-4.7592406E0,-5.9097447E0,-1.0172547E0,-2.7269897E0,4.4553885E0,8.074044E0,1.80945E1,2.350357E1,-6.5153203E0,3.9403698E-1,-6.550814E0,1.4324602E0,2.1587014E0,3.541212E0,-4.1351566E-1,2.4339902E0,-2.8945253E0,-2.0648046E0,-4.436831E0,-5.0048056E0],"categories":[],"categories_nodes":[],"categories_segments":[],"categories_sizes":[],"default_left":[1,0,0,0,0,0,0,0,0,0,0,0,0,0,0,0,0,0,0,0,0,0,0,0,1,0,0,0,0,0,0,0,0,0,0,0,0,0,0,0,0,0,0,0,0,0,0,0,0,0,0,0,0],"id":13,"left_children":[1,3,5,7,9,11,13,15,17,19,21,-1,23,25,27,29,31,33,35,37,-1,-1,39,41,43,45,47,49,51,-1,-1,-1,-1,-1,-1,-1,-1,-1,-1,-1,-1,-1,-1,-1,-1,-1,-1,-1,-1,-1,-1,-1,-1],"loss_changes":[5.2739174E9,4.4008284E9,1.3369014E9,1.3261303E9,3.0297974E9,5.4258995E8,3.5813178E8,7.0003654E8,7.887462E7,7.7931034E8,3.804288E8,0E0,4.3945267E8,1.0530347E8,2.7120768E7,3.3688778E8,4.086195E7,9.576256E6,5.70224E6,2.1183949E8,0E0,0E0,4.8478976E7,1.3780368E8,2.2250598E8,7.782248E6,5.16776E7,1.181052E6,6.36416E5,0E0,0E0,0E0,0E0,0E0,0E0,0E0,0E0,0E0,0E0,0E0,0E0,0E0,0E0,0E0,0E0,0E0,0E0,0E0,0E0,0E0,0E0,0E0,0E0],"parents":[2147483647,0,0,1,1,2,2,3,3,4,4,5,5,6,6,7,7,8,8,9,9,10,10,12,12,13,13,14,14,15,15,16,16,17,17,18,18,19,19,22,22,23,23,24,24,25,25,26,26,27,27,28,28],"right_children":[2,4,6,8,10,12,14,16,18,20,22,-1,24,26,28,30,32,34,36,38,-1,-1,40,42,44,46,48,50,52,-1,-1,-1,-1,-1,-1,-1,-1,-1,-1,-1,-1,-1,-1,-1,-1,-1,-1,-1,-1,-1,-1,-1,-1],"split_conditions":[1.2E1,1.6E2,4.1E1,3.51E1,2E0,1E0,1.0173E3,1.0241E3,1.0147E3,4.5E1,1.3E1,6.839242E0,1E1,5.9E1,1.5E1,1.0169E3,4E0,9E0,2.5E1,7.1E1,2.136653E1,3.350695E1,1.4E1,8E0,4.5E1,9E0,4.8E1,2E1,2.6E1,2.9870293E0,-1.3433816E0,6.8946366E0,1.0401656E1,-4.7592406E0,-5.9097447E0,-1.0172547E0,-2.7269897E0,4.4553885E0,8.074044E0,1.80945E1,2.350357E1,-6.5153203E0,3.9403698E-1,-6.550814E0,1.4324602E0,2.1587014E0,3.541212E0,-4.1351566E-1,2.4339902E0,-2.8945253E0,-2.0648046E0,-4.436831E0,-5.0048056E0],"split_indices":[75,28,7,33,20,18,64,14,14,32,0,0,50,11,3,89,28,3,1,86,0,0,0,3,59,0,33,0,1,0,0,0,0,0,0,0,0,0,0,0,0,0,0,0,0,0,0,0,0,0,0,0,0],"split_type":[0,0,0,0,0,0,0,0,0,0,0,0,0,0,0,0,0,0,0,0,0,0,0,0,0,0,0,0,0,0,0,0,0,0,0,0,0,0,0,0,0,0,0,0,0,0,0,0,0,0,0,0,0],"sum_hessian":[4.5098E4,2.1289E4,2.3809E4,1.3368E4,7.921E3,1.3739E4,1.007E4,9.066E3,4.302E3,6.841E3,1.08E3,3.6E2,1.3379E4,7.91E3,2.16E3,7.187E3,1.879E3,2.982E3,1.32E3,6.481E3,3.6E2,3.6E2,7.2E2,1.8E3,1.1579E4,1.698E3,6.212E3,7.2E2,1.44E3,3.665E3,3.522E3,1.44E3,4.39E2,1.44E3,1.542E3,2.4E2,1.08E3,3.241E3,3.24E3,3.6E2,3.6E2,3.6E2,1.44E3,1.1219E4,3.6E2,1.003E3,6.95E2,5.492E3,7.2E2,3.6E2,3.6E2,3.6E2,1.08E3],"tree_param":{"num_deleted":"0","num_feature":"100","num_nodes":"53","size_leaf_vector":"1"}},{"base_weights":[3.160138E-2,3.5805313E2,-3.200977E2,1.1550821E1,9.427579E2,-5.2092676E2,-4.6072117E1,2.2634291E2,-4.410477E2,6.992509E2,2.4831208E3,6.7710395E0,-5.5321136E2,5.150307E1,-4.0325458E2,8.5636566E1,7.641997E2,-5.3024274E2,-2.392991E2,6.2027686E2,2.1153456E1,3.3172806E1,2.0620183E3,-9.808121E1,-6.239485E2,2.6990918E2,-8.230307E0,-2.458342E2,-4.8173953E2,2.9571676E0,-1.3299516E0,6.8257384E0,1.0297877E1,-4.7116814E0,-5.850685E0,-1.0071242E0,-2.6997447E0,4.410848E0,7.993328E0,1.7914055E1,2.326919E1,-6.450348E0,3.900993E-1,-6.4853115E0,1.4181755E0,2.137136E0,3.505851E0,-4.9736583E-1,1.8886493E0,-2.8656604E0,-2.0442138E0,-4.3925858E0,-4.954804E0],"categories":[],"categories_nodes":[],"categories_segments":[],"categories_sizes":[],"default_left":[1,0,0,0,0,0,0,0,0,0,0,0,0,0,0,0,0,0,0,0,0,0,0,0,1,0,0,0,0,0,0,0,0,0,0,0,0,0,0,0,0,0,0,0,0,0,0,0,0,0,0,0,0],"id":14,"left_children":[1,3,5,7,9,11,13,15,17,19,21,-1,23,25,27,29,31,33,35,37,-1,-1,39,41,43,45,47,49,51,-1,-1,-1,-1,-1,-1,-1,-1,-1,-1,-1,-1,-1,-1,-1,-1,-1,-1,-1,-1,-1,-1,-1,-1],"loss_changes":[5.1690537E9,4.3133763E9,1.310295E9,1.2997615E9,2.9697198E9,5.318098E8,3.510167E8,6.861239E8,7.730547E7,7.6386125E8,3.7287936E8,0E0,4.3070285E8,1.0321019E8,2.6581024E7,3.301856E8,4.0053376E7,9.385728E6,5.588648E6,2.076247E8,0E0,0E0,4.751667E7,1.3506862E8,2.1808026E8,7.627712E6,5.083602E7,1.15762E6,6.2352E5,0E0,0E0,0E0,0E0,0E0,0E0,0E0,0E0,0E0,0E0,0E0,0E0,0E0,0E0,0E0,0E0,0E0,0E0,0E0,0E0,0E0,0E0,0E0,0E0],"parents":[2147483647,0,0,1,1,2,2,3,3,4,4,5,5,6,6,7,7,8,8,9,9,10,10,12,12,13,13,14,14,15,15,16,16,17,17,18,18,19,19,22,22,23,23,24,24,25,25,26,26,27,27,28,28],"right_children":[2,4,6,8,10,12,14,16,18,20,22,-1,24,26,28,30,32,34,36,38,-1,-1,40,42,44,46,48,50,52,-1,-1,-1,-1,-1,-1,-1,-1,-1,-1,-1,-1,-1,-1,-1,-1,-1,-1,-1,-1,-1,-1,-1,-1],"split_conditions":[1.2E1,1.6E2,4.1E1,3.51E1,2E0,1E0,1.0173E3,1.0241E3,1.0147E3,4.5E1,1.3E1,6.7710395E0,1E1,5.9E1,1.5E1,1.0169E3,4E0,9E0,2.5E1,7.1E1,2.1153456E1,3.3172806E1,1.4E1,8E0,4.5E1,9E0,5.2E1,2E1,2.6E1,2.9571676E0,-1.3299516E0,6.8257384E0,1.0297877E1,-4.7116814E0,-5.850685E0,-1.0071242E0,-2.6997447E0,4.410848E0,7.993328E0,1.7914055E1,2.326919E1,-6.450348E0,3.900993E-1,-6.4853115E0,1.4181755E0,2.137136E0,3.505851E0,-4.9736583E-1,1.8886493E0,-2.8656604E0,-2.0442138E0,-4.3925858E0,-4.954804E0],"split_indices":[75,28,7,33,20,18,64,14,14,32,0,0,50,11,3,89,28,3,1,86,0,0,0,3,59,0,32,0,1,0,0,0,0,0,0,0,0,0,0,0,0,0,0,0,0,0,0,0,0,0,0,0,0],"split_type":[0,0,0,0,0,0,0,0,0,0,0,0,0,0,0,0,0,0,0,0,0,0,0,0,0,0,0,0,0,0,0,0,0,0,0,0,0,0,0,0,0,0,0,0,0,0,0,0,0,0,0,0,0],"sum_hessian":[4.5098E4,2.1289E4,2.3809E4,1.3368E4,7.921E3,1.3739E4,1.007E4,9.066E3,4.302E3,6.841E3,1.08E3,3.6E2,1.3379E4,7.91E3,2.16E3,7.187E3,1.879E3,2.982E3,1.32E3,6.481E3,3.6E2,3.6E2,7.2E2,1.8E3,1.1579E4,1.698E3,6.212E3,7.2E2,1.44E3,3.665E3,3.522E3,1.44E3,4.39E2,1.44E3,1.542E3,2.4E2,1.08E3,3.241E3,3.24E3,3.6E2,3.6E2,3.6E2,1.44E3,1.1219E4,3.6E2,1.003E3,6.95E2,5.132E3,1.08E3,3.6E2,3.6E2,3.6E2,1.08E3],"tree_param":{"num_deleted":"0","num_feature":"100","num_nodes":"53","size_leaf_vector":"1"}},{"base_weights":[3.352164E-2,3.5447787E2,-3.168972E2,1.1435663E1,9.3334393E2,-5.1571783E2,-4.561211E1,2.2408156E2,-4.366405E2,6.922633E2,2.4583584E3,6.7035165E0,-5.476801E2,5.0988934E1,-3.992286E2,8.478044E1,7.565669E2,-5.2494385E2,-2.369089E2,6.1407605E2,2.0942509E1,3.2842E1,2.0414551E3,-9.710374E1,-6.177095E2,2.672134E2,-8.147775E0,-2.4338268E2,-4.769286E2,2.927604E0,-1.3166559E0,6.7575283E0,1.0195132E1,-4.6645975E0,-5.792216E0,-9.970946E-1,-2.6727722E0,4.3667526E0,7.91342E0,1.773541E1,2.303714E1,-6.386023E0,3.8620123E-1,-6.4204645E0,1.4040333E0,2.1157858E0,3.4708428E0,-4.059722E-1,2.3908238E0,-2.837083E0,-2.0238283E0,-4.3487816E0,-4.9053016E0],"categories":[],"categories_nodes":[],"categories_segments":[],"categories_sizes":[],"default_left":[1,0,0,0,0,0,0,0,0,0,0,0,0,0,0,0,0,0,0,0,0,0,0,0,1,0,0,0,0,0,0,0,0,0,0,0,0,0,0,0,0,0,0,0,0,0,0,0,0,0,0,0,0],"id":15,"left_children":[1,3,5,7,9,11,13,15,17,19,21,-1,23,25,27,29,31,33,35,37,-1,-1,39,41,43,45,47,49,51,-1,-1,-1,-1,-1,-1,-1,-1,-1,-1,-1,-1,-1,-1,-1,-1,-1,-1,-1,-1,-1,-1,-1,-1],"loss_changes":[5.0662774E9,4.227662E9,1.2842181E9,1.273917E9,2.9108326E9,5.2124365E8,3.4404294E8,6.7248794E8,7.576755E7,7.487176E8,3.6547942E8,0E0,4.2212685E8,1.0115858E8,2.6051968E7,3.236167E8,3.9260544E7,9.198976E6,5.477312E6,2.0349466E8,0E0,0E0,4.6573824E7,1.3238784E8,2.137431E8,7.47624E6,4.985339E7,1.13464E6,6.10848E5,0E0,0E0,0E0,0E0,0E0,0E0,0E0,0E0,0E0,0E0,0E0,0E0,0E0,0E0,0E0,0E0,0E0,0E0,0E0,0E0,0E0,0E0,0E0,0E0],"parents":[2147483647,0,0,1,1,2,2,3,3,4,4,5,5,6,6,7,7,8,8,9,9,10,10,12,12,13,13,14,14,15,15,16,16,17,17,18,18,19,19,22,22,23,23,24,24,25,25,26,26,27,27,28,28],"right_children":[2,4,6,8,10,12,14,16,18,20,22,-1,24,26,28,30,32,34,36,38,-1,-1,40,42,44,46,48,50,52,-1,-1,-1,-1,-1,-1,-1,-1,-1,-1,-1,-1,-1,-1,-1,-1,-1,-1,-1,-1,-1,-1,-1,-1],"split_conditions":[1.2E1,1.6E2,4.1E1,3.51E1,2E0,1E0,1.0173E3,1.0241E3,1.0147E3,4.5E1,1.3E1,6.7035165E0,1E1,5.9E1,1.5E1,1.0169E3,4E0,9E0,2.5E1,7.1E1,2.0942509E1,3.2842E1,1.4E1,8E0,4.5E1,9E0,4.8E1,2E1,2.6E1,2.927604E0,-1.3166559E0,6.7575283E0,1.0195132E1,-4.6645975E0,-5.792216E0,-9.970946E-1,-2.6727722E0,4.3667526E0,7.91342E0,1.773541E1,2.303714E1,-6.386023E0,3.8620123E-1,-6.4204645E0,1.4040333E0,2.1157858E0,3.4708428E0,-4.059722E-1,2.3908238E0,-2.837083E0,-2.0238283E0,-4.3487816E0,-4.9053016E0],"split_indices":[75,28,7,33,20,18,64,14,14,32,0,0,50,11,3,89,28,3,1,86,0,0,0,3,59,0,33,0,1,0,0,0,0,0,0,0,0,0,0,0,0,0,0,0,0,0,0,0,0,0,0,0,0],"split_type":[0,0,0,0,0,0,0,0,0,0,0,0,0,0,0,0,0,0,0,0,0,0,0,0,0,0,0,0,0,0,0,0,0,0,0,0,0,0,0,0,0,0,0,0,0,0,0,0,0,0,0,0,0],"sum_hessian":[4.5098E4,2.1289E4,2.3809E4,1.3368E4,7.921E3,1.3739E4,1.007E4,9.066E3,4.302E3,6.841E3,1.08E3,3.6E2,1.3379E4,7.91E3,2.16E3,7.187E3,1.879E3,2.982E3,1.32E3,6.481E3,3.6E2,3.6E2,7.2E2,1.8E3,1.1579E4,1.698E3,6.212E3,7.2E2,1.44E3,3.665E3,3.522E3,1.44E3,4.39E2,1.44E3,1.542E3,2.4E2,1.08E3,3.241E3,3.24E3,3.6E2,3.6E2,3.6E2,1.44E3,1.1219E4,3.6E2,1.003E3,6.95E2,5.492E3,7.2E2,3.6E2,3.6E2,3.6E2,1.08E3],"tree_param":{"num_deleted":"0","num_feature":"100","num_nodes":"53","size_leaf_vector":"1"}},{"base_weights":[3.5412274E-2,3.5093832E2,-3.137287E2,1.1321634E1,9.24024E2,-5.1056094E2,-4.515666E1,2.2184277E2,-4.3227737E2,6.853455E2,2.4338428E3,6.6366673E0,-5.422041E2,5.0479984E1,-3.9524286E2,8.393285E1,7.490102E2,-5.196979E2,-2.3454257E2,6.079372E2,2.0733664E1,3.251449E1,2.0210972E3,-9.613605E1,-6.1153284E2,2.6454456E2,-8.066E0,-2.409556E2,-4.7216577E2,2.8983357E0,-1.303493E0,6.69E0,1.0093411E1,-4.617984E0,-5.7343316E0,-9.871652E-1,-2.646069E0,4.323099E0,7.83431E0,1.7558548E1,2.280741E1,-6.3223395E0,3.823416E-1,-6.3562655E0,1.3900317E0,2.094649E0,3.4361846E0,-4.8833442E-1,1.855208E0,-2.808791E0,-2.0036464E0,-4.3054147E0,-4.8562937E0],"categories":[],"categories_nodes":[],"categories_segments":[],"categories_sizes":[],"default_left":[1,0,0,0,0,0,0,0,0,0,0,0,0,0,0,0,0,0,0,0,0,0,0,0,1,0,0,0,0,0,0,0,0,0,0,0,0,0,0,0,0,0,0,0,0,0,0,0,0,0,0,0,0],"id":16,"left_children":[1,3,5,7,9,11,13,15,17,19,21,-1,23,25,27,29,31,33,35,37,-1,-1,39,41,43,45,47,49,51,-1,-1,-1,-1,-1,-1,-1,-1,-1,-1,-1,-1,-1,-1,-1,-1,-1,-1,-1,-1,-1,-1,-1,-1],"loss_changes":[4.9655434E9,4.1436508E9,1.2586604E9,1.2485864E9,2.8531133E9,5.108869E8,3.3720784E8,6.591228E8,7.426003E7,7.338739E8,3.5822694E8,0E0,4.1372237E8,9.9147704E7,2.553344E7,3.1717853E8,3.848352E7,9.016E6,5.368208E6,1.9944627E8,0E0,0E0,4.5649664E7,1.2976025E8,2.0949197E8,7.327792E6,4.9042296E7,1.112124E6,5.98464E5,0E0,0E0,0E0,0E0,0E0,0E0,0E0,0E0,0E0,0E0,0E0,0E0,0E0,0E0,0E0,0E0,0E0,0E0,0E0,0E0,0E0,0E0,0E0,0E0],"parents":[2147483647,0,0,1,1,2,2,3,3,4,4,5,5,6,6,7,7,8,8,9,9,10,10,12,12,13,13,14,14,15,15,16,16,17,17,18,18,19,19,22,22,23,23,24,24,25,25,26,26,27,27,28,28],"right_children":[2,4,6,8,10,12,14,16,18,20,22,-1,24,26,28,30,32,34,36,38,-1,-1,40,42,44,46,48,50,52,-1,-1,-1,-1,-1,-1,-1,-1,-1,-1,-1,-1,-1,-1,-1,-1,-1,-1,-1,-1,-1,-1,-1,-1],"split_conditions":[1.2E1,1.6E2,4.1E1,3.51E1,2E0,1E0,1.0173E3,1.0241E3,1.0147E3,4.5E1,1.3E1,6.6366673E0,1E1,5.9E1,1.5E1,1.0169E3,4E0,9E0,2.5E1,7.1E1,2.0733664E1,3.251449E1,1.4E1,8E0,4.5E1,9E0,5.2E1,2E1,2.6E1,2.8983357E0,-1.303493E0,6.69E0,1.0093411E1,-4.617984E0,-5.7343316E0,-9.871652E-1,-2.646069E0,4.323099E0,7.83431E0,1.7558548E1,2.280741E1,-6.3223395E0,3.823416E-1,-6.3562655E0,1.3900317E0,2.094649E0,3.4361846E0,-4.8833442E-1,1.855208E0,-2.808791E0,-2.0036464E0,-4.3054147E0,-4.8562937E0],"split_indices":[75,28,7,33,20,18,64,14,14,32,0,0,50,11,3,89,28,3,1,86,0,0,0,3,59,0,32,0,1,0,0,0,0,0,0,0,0,0,0,0,0,0,0,0,0,0,0,0,0,0,0,0,0],"split_type":[0,0,0,0,0,0,0,0,0,0,0,0,0,0,0,0,0,0,0,0,0,0,0,0,0,0,0,0,0,0,0,0,0,0,0,0,0,0,0,0,0,0,0,0,0,0,0,0,0,0,0,0,0],"sum_hessian":[4.5098E4,2.1289E4,2.3809E4,1.3368E4,7.921E3,1.3739E4,1.007E4,9.066E3,4.302E3,6.841E3,1.08E3,3.6E2,1.3379E4,7.91E3,2.16E3,7.187E3,1.879E3,2.982E3,1.32E3,6.481E3,3.6E2,3.6E2,7.2E2,1.8E3,1.1579E4,1.698E3,6.212E3,7.2E2,1.44E3,3.665E3,3.522E3,1.44E3,4.39E2,1.44E3,1.542E3,2.4E2,1.08E3,3.241E3,3.24E3,3.6E2,3.6E2,3.6E2,1.44E3,1.1219E4,3.6E2,1.003E3,6.95E2,5.132E3,1.08E3,3.6E2,3.6E2,3.6E2,1.08E3],"tree_param":{"num_deleted":"0","num_feature":"100","num_nodes":"53","size_leaf_vector":"1"}},{"base_weights":[3.7244383E-2,3.474341E2,-3.105919E2,1.1208748E1,9.1479706E2,-5.0545566E2,-4.470579E1,2.1962639E2,-4.2795786E2,6.784968E2,2.4095718E3,6.5704846E0,-5.367829E2,4.9976055E1,-3.912969E2,8.309374E1,7.4152905E2,-5.145044E2,-2.321999E2,6.018596E2,2.0526901E1,3.2190243E1,2.0009421E3,-9.517797E1,-6.054179E2,2.6190234E2,-7.9851165E0,-2.3855272E2,-4.6745044E2,2.8693607E0,-1.2904621E0,6.623147E0,9.992707E0,-4.571836E0,-5.677026E0,-9.773343E-1,-2.6196327E0,4.2798815E0,7.7559905E0,1.738345E1,2.2579966E1,-6.259291E0,3.7852103E-1,-6.2927084E0,1.37617E0,2.0737233E0,3.4018717E0,-3.9856687E-1,2.3484225E0,-2.7807808E0,-1.9836652E0,-4.2624793E0,-4.807776E0],"categories":[],"categories_nodes":[],"categories_segments":[],"categories_sizes":[],"default_left":[1,0,0,0,0,0,0,0,0,0,0,0,0,0,0,0,0,0,0,0,0,0,0,0,1,0,0,0,0,0,0,0,0,0,0,0,0,0,0,0,0,0,0,0,0,0,0,0,0,0,0,0,0],"id":17,"left_children":[1,3,5,7,9,11,13,15,17,19,21,-1,23,25,27,29,31,33,35,37,-1,-1,39,41,43,45,47,49,51,-1,-1,-1,-1,-1,-1,-1,-1,-1,-1,-1,-1,-1,-1,-1,-1,-1,-1,-1,-1,-1,-1,-1,-1],"loss_changes":[4.8668124E9,4.061309E9,1.2336108E9,1.2237595E9,2.7965404E9,5.007365E8,3.3050832E8,6.4602336E8,7.278266E7,7.193249E8,3.511173E8,0E0,4.054843E8,9.717683E7,2.502528E7,3.1086845E8,3.7721856E7,8.836736E6,5.26128E6,1.9547853E8,0E0,0E0,4.474368E7,1.27184856E8,2.0532582E8,7.182264E6,4.8093572E7,1.090052E6,5.86336E5,0E0,0E0,0E0,0E0,0E0,0E0,0E0,0E0,0E0,0E0,0E0,0E0,0E0,0E0,0E0,0E0,0E0,0E0,0E0,0E0,0E0,0E0,0E0,0E0],"parents":[2147483647,0,0,1,1,2,2,3,3,4,4,5,5,6,6,7,7,8,8,9,9,10,10,12,12,13,13,14,14,15,15,16,16,17,17,18,18,19,19,22,22,23,23,24,24,25,25,26,26,27,27,28,28],"right_children":[2,4,6,8,10,12,14,16,18,20,22,-1,24,26,28,30,32,34,36,38,-1,-1,40,42,44,46,48,50,52,-1,-1,-1,-1,-1,-1,-1,-1,-1,-1,-1,-1,-1,-1,-1,-1,-1,-1,-1,-1,-1,-1,-1,-1],"split_conditions":[1.2E1,1.6E2,4.1E1,3.51E1,2E0,1E0,1.0173E3,1.0241E3,1.0147E3,4.5E1,1.3E1,6.5704846E0,1E1,5.9E1,1.5E1,1.0169E3,4E0,9E0,2.5E1,7.1E1,2.0526901E1,3.2190243E1,1.4E1,8E0,4.5E1,9E0,4.8E1,2E1,2.6E1,2.8693607E0,-1.2904621E0,6.623147E0,9.992707E0,-4.571836E0,-5.677026E0,-9.773343E-1,-2.6196327E0,4.2798815E0,7.7559905E0,1.738345E1,2.2579966E1,-6.259291E0,3.7852103E-1,-6.2927084E0,1.37617E0,2.0737233E0,3.4018717E0,-3.9856687E-1,2.3484225E0,-2.7807808E0,-1.9836652E0,-4.2624793E0,-4.807776E0],"split_indices":[75,28,7,33,20,18,64,14,14,32,0,0,50,11,3,89,28,3,1,86,0,0,0,3,59,0,33,0,1,0,0,0,0,0,0,0,0,0,0,0,0,0,0,0,0,0,0,0,0,0,0,0,0],"split_type":[0,0,0,0,0,0,0,0,0,0,0,0,0,0,0,0,0,0,0,0,0,0,0,0,0,0,0,0,0,0,0,0,0,0,0,0,0,0,0,0,0,0,0,0,0,0,0,0,0,0,0,0,0],"sum_hessian":[4.5098E4,2.1289E4,2.3809E4,1.3368E4,7.921E3,1.3739E4,1.007E4,9.066E3,4.302E3,6.841E3,1.08E3,3.6E2,1.3379E4,7.91E3,2.16E3,7.187E3,1.879E3,2.982E3,1.32E3,6.481E3,3.6E2,3.6E2,7.2E2,1.8E3,1.1579E4,1.698E3,6.212E3,7.2E2,1.44E3,3.665E3,3.522E3,1.44E3,4.39E2,1.44E3,1.542E3,2.4E2,1.08E3,3.241E3,3.24E3,3.6E2,3.6E2,3.6E2,1.44E3,1.1219E4,3.6E2,1.003E3,6.95E2,5.492E3,7.2E2,3.6E2,3.6E2,3.6E2,1.08E3],"tree_param":{"num_deleted":"0","num_feature":"100","num_nodes":"53","size_leaf_vector":"1"}},{"base_weights":[3.905379E-2,3.4396487E2,-3.074864E2,1.1096977E1,9.0566235E2,-5.004014E2,-4.4259377E1,2.1743211E2,-4.2368152E2,6.717166E2,2.385543E3,6.504962E0,-5.3141583E2,4.9477226E1,-3.8739032E2,8.2263016E1,7.341226E2,-5.093628E2,-2.2988063E2,5.958429E2,2.03222E1,3.1869232E1,1.9809882E3,-9.422948E1,-5.9936414E2,2.5928656E2,-7.904961E0,-2.3617381E2,-4.6278223E2,2.8406746E0,-1.2775611E0,6.5569615E0,9.893007E0,-4.5261493E0,-5.620292E0,-9.676013E-1,-2.593461E0,4.2370954E0,7.678455E0,1.7210096E1,2.2354792E1,-6.1968718E0,3.7473828E-1,-6.229787E0,1.3624465E0,2.0530066E0,3.367902E0,-4.7946712E-1,1.8223584E0,-2.75305E0,-1.9638838E0,-4.219973E0,-4.759742E0],"categories":[],"categories_nodes":[],"categories_segments":[],"categories_sizes":[],"default_left":[1,0,0,0,0,0,0,0,0,0,0,0,0,0,0,0,0,0,0,0,0,0,0,0,1,0,0,0,0,0,0,0,0,0,0,0,0,0,0,0,0,0,0,0,0,0,0,0,0,0,0,0,0],"id":18,"left_children":[1,3,5,7,9,11,13,15,17,19,21,-1,23,25,27,29,31,33,35,37,-1,-1,39,41,43,45,47,49,51,-1,-1,-1,-1,-1,-1,-1,-1,-1,-1,-1,-1,-1,-1,-1,-1,-1,-1,-1,-1,-1,-1,-1,-1],"loss_changes":[4.7700444E9,3.9806034E9,1.2090604E9,1.1994262E9,2.7410862E9,4.9078784E8,3.2394208E8,6.3318426E8,7.133466E7,7.050647E8,3.441495E8,0E0,3.974108E8,9.5245096E7,2.45272E7,3.0468384E8,3.697523E7,8.660864E6,5.156472E6,1.9158963E8,0E0,0E0,4.3855616E7,1.2466055E8,2.0124186E8,7.03964E6,4.7311852E7,1.068428E6,5.74464E5,0E0,0E0,0E0,0E0,0E0,0E0,0E0,0E0,0E0,0E0,0E0,0E0,0E0,0E0,0E0,0E0,0E0,0E0,0E0,0E0,0E0,0E0,0E0,0E0],"parents":[2147483647,0,0,1,1,2,2,3,3,4,4,5,5,6,6,7,7,8,8,9,9,10,10,12,12,13,13,14,14,15,15,16,16,17,17,18,18,19,19,22,22,23,23,24,24,25,25,26,26,27,27,28,28],"right_children":[2,4,6,8,10,12,14,16,18,20,22,-1,24,26,28,30,32,34,36,38,-1,-1,40,42,44,46,48,50,52,-1,-1,-1,-1,-1,-1,-1,-1,-1,-1,-1,-1,-1,-1,-1,-1,-1,-1,-1,-1,-1,-1,-1,-1],"split_conditions":[1.2E1,1.6E2,4.1E1,3.51E1,2E0,1E0,1.0173E3,1.0241E3,1.0147E3,4.5E1,1.3E1,6.504962E0,1E1,5.9E1,1.5E1,1.0169E3,4E0,9E0,2.5E1,7.1E1,2.03222E1,3.1869232E1,1.4E1,8E0,4.5E1,9E0,5.2E1,2E1,2.6E1,2.8406746E0,-1.2775611E0,6.5569615E0,9.893007E0,-4.5261493E0,-5.620292E0,-9.676013E-1,-2.593461E0,4.2370954E0,7.678455E0,1.7210096E1,2.2354792E1,-6.1968718E0,3.7473828E-1,-6.229787E0,1.3624465E0,2.0530066E0,3.367902E0,-4.7946712E-1,1.8223584E0,-2.75305E0,-1.9638838E0,-4.219973E0,-4.759742E0],"split_indices":[75,28,7,33,20,18,64,14,14,32,0,0,50,11,3,89,28,3,1,86,0,0,0,3,59,0,32,0,1,0,0,0,0,0,0,0,0,0,0,0,0,0,0,0,0,0,0,0,0,0,0,0,0],"split_type":[0,0,0,0,0,0,0,0,0,0,0,0,0,0,0,0,0,0,0,0,0,0,0,0,0,0,0,0,0,0,0,0,0,0,0,0,0,0,0,0,0,0,0,0,0,0,0,0,0,0,0,0,0],"sum_hessian":[4.5098E4,2.1289E4,2.3809E4,1.3368E4,7.921E3,1.3739E4,1.007E4,9.066E3,4.302E3,6.841E3,1.08E3,3.6E2,1.3379E4,7.91E3,2.16E3,7.187E3,1.879E3,2.982E3,1.32E3,6.481E3,3.6E2,3.6E2,7.2E2,1.8E3,1.1579E4,1.698E3,6.212E3,7.2E2,1.44E3,3.665E3,3.522E3,1.44E3,4.39E2,1.44E3,1.542E3,2.4E2,1.08E3,3.241E3,3.24E3,3.6E2,3.6E2,3.6E2,1.44E3,1.1219E4,3.6E2,1.003E3,6.95E2,5.132E3,1.08E3,3.6E2,3.6E2,3.6E2,1.08E3],"tree_param":{"num_deleted":"0","num_feature":"100","num_nodes":"53","size_leaf_vector":"1"}},{"base_weights":[4.081587E-2,3.405303E2,-3.04412E2,1.09863205E1,8.9661884E2,-4.9539767E2,-4.3817455E1,2.1525978E2,-4.194479E2,6.650042E2,2.3617534E3,6.440092E0,-5.261025E2,4.8983322E1,-3.8352277E2,8.1440605E1,7.267901E2,-5.0427258E2,-2.2758453E2,5.898863E2,2.0119543E1,3.1551422E1,1.9612333E3,-9.329042E1,-5.933709E2,2.566969E2,-7.82568E0,-2.3381863E2,-4.581606E2,2.8122754E0,-1.2647889E0,6.4914365E0,9.794302E0,-4.4809194E0,-5.564126E0,-9.579656E-1,-2.5675502E0,4.194738E0,7.6016936E0,1.7038473E1,2.2131865E1,-6.135074E0,3.709933E-1,-6.1674943E0,1.34886E0,2.0324972E0,3.3342712E0,-3.9129657E-1,2.306772E0,-2.725596E0,-1.9442995E0,-4.1778903E0,-4.7121887E0],"categories":[],"categories_nodes":[],"categories_segments":[],"categories_sizes":[],"default_left":[1,0,0,0,0,0,0,0,0,0,0,0,0,0,0,0,0,0,0,0,0,0,0,0,1,0,0,0,0,0,0,0,0,0,0,0,0,0,0,0,0,0,0,0,0,0,0,0,0,0,0,0,0],"id":19,"left_children":[1,3,5,7,9,11,13,15,17,19,21,-1,23,25,27,29,31,33,35,37,-1,-1,39,41,43,45,47,49,51,-1,-1,-1,-1,-1,-1,-1,-1,-1,-1,-1,-1,-1,-1,-1,-1,-1,-1,-1,-1,-1,-1,-1,-1],"loss_changes":[4.675201E9,3.9015027E9,1.1849976E9,1.1755768E9,2.6867333E9,4.8103654E8,3.1750624E8,6.2060026E8,6.991546E7,6.910871E8,3.3731994E8,0E0,3.8949786E8,9.335181E7,2.4038976E7,2.986222E8,3.624339E7,8.48864E6,5.05376E6,1.8777805E8,0E0,0E0,4.298547E7,1.2218634E8,1.972398E8,6.89984E6,4.639583E7,1.04722E6,5.62784E5,0E0,0E0,0E0,0E0,0E0,0E0,0E0,0E0,0E0,0E0,0E0,0E0,0E0,0E0,0E0,0E0,0E0,0E0,0E0,0E0,0E0,0E0,0E0,0E0],"parents":[2147483647,0,0,1,1,2,2,3,3,4,4,5,5,6,6,7,7,8,8,9,9,10,10,12,12,13,13,14,14,15,15,16,16,17,17,18,18,19,19,22,22,23,23,24,24,25,25,26,26,27,27,28,28],"right_children":[2,4,6,8,10,12,14,16,18,20,22,-1,24,26,28,30,32,34,36,38,-1,-1,40,42,44,46,48,50,52,-1,-1,-1,-1,-1,-1,-1,-1,-1,-1,-1,-1,-1,-1,-1,-1,-1,-1,-1,-1,-1,-1,-1,-1],"split_conditions":[1.2E1,1.6E2,4.1E1,3.51E1,2E0,1E0,1.0173E3,1.0241E3,1.0147E3,4.5E1,1.3E1,6.440092E0,1E1,5.9E1,1.5E1,1.0169E3,4E0,9E0,2.5E1,7.1E1,2.0119543E1,3.1551422E1,1.4E1,8E0,4.5E1,9E0,4.8E1,2E1,2.6E1,2.8122754E0,-1.2647889E0,6.4914365E0,9.794302E0,-4.4809194E0,-5.564126E0,-9.579656E-1,-2.5675502E0,4.194738E0,7.6016936E0,1.7038473E1,2.2131865E1,-6.135074E0,3.709933E-1,-6.1674943E0,1.34886E0,2.0324972E0,3.3342712E0,-3.9129657E-1,2.306772E0,-2.725596E0,-1.9442995E0,-4.1778903E0,-4.7121887E0],"split_indices":[75,28,7,33,20,18,64,14,14,32,0,0,50,11,3,89,28,3,1,86,0,0,0,3,59,0,33,0,1,0,0,0,0,0,0,0,0,0,0,0,0,0,0,0,0,0,0,0,0,0,0,0,0],"split_type":[0,0,0,0,0,0,0,0,0,0,0,0,0,0,0,0,0,0,0,0,0,0,0,0,0,0,0,0,0,0,0,0,0,0,0,0,0,0,0,0,0,0,0,0,0,0,0,0,0,0,0,0,0],"sum_hessian":[4.5098E4,2.1289E4,2.3809E4,1.3368E4,7.921E3,1.3739E4,1.007E4,9.066E3,4.302E3,6.841E3,1.08E3,3.6E2,1.3379E4,7.91E3,2.16E3,7.187E3,1.879E3,2.982E3,1.32E3,6.481E3,3.6E2,3.6E2,7.2E2,1.8E3,1.1579E4,1.698E3,6.212E3,7.2E2,1.44E3,3.665E3,3.522E3,1.44E3,4.39E2,1.44E3,1.542E3,2.4E2,1.08E3,3.241E3,3.24E3,3.6E2,3.6E2,3.6E2,1.44E3,1.1219E4,3.6E2,1.003E3,6.95E2,5.492E3,7.2E2,3.6E2,3.6E2,3.6E2,1.08E3],"tree_param":{"num_deleted":"0","num_feature":"100","num_nodes":"53","size_leaf_vector":"1"}}]},"name":"gbtree"},"learner_model_param":{"base_score":"[9.6348926E2]","boost_from_average":"1","num_class":"0","num_feature":"100","num_target":"1"},"objective":{"name":"reg:squarederror","reg_loss_param":{"scale_pos_weight":"1"}}},"version":[3,1,3]}