{"learner":{"attributes":{"scikit_learn":"{\"_estimator_type\": \"regressor\"}"},"feature_names":["Prevailing Wind Magnitude (MPH)_current","Gust Wind Magnitude (MPH)_current","Vis (MI)_current","Cloud Height 1 (100s of ft)_current","Cloud Height 2 (100s of ft)_current","Cloud Height 3 (100s of ft)_current","Cloud Height 4 (100s of ft)_current","Air Temp (F)_current","Dewpoint (F)_current","6hr Max (F)_current","6hr Min (F)_current","Rel Hum_current","Wind Chill (F)_current","Heat Index (F)_current","Sea Level Pressure (MB)_current","Precip 1hr_current","Precip 3hr_current","Precip 6hr_current","cloud_code_1_current","cloud_code_2_current","cloud_code_3_current","cloud_code_4_current","prevailing_wind_dir_code_current","gust_wind_dir_code_current","weather_code_current","Prevailing Wind Magnitude (MPH)_h1","Gust Wind Magnitude (MPH)_h1","Vis (MI)_h1","Cloud Height 1 (100s of ft)_h1","Cloud Height 2 (100s of ft)_h1","Cloud Height 3 (100s of ft)_h1","Cloud Height 4 (100s of ft)_h1","Air Temp (F)_h1","Dewpoint (F)_h1","6hr Max (F)_h1","6hr Min (F)_h1","Rel Hum_h1","Wind Chill (F)_h1","Heat Index (F)_h1","Sea Level Pressure (MB)_h1","Precip 1hr_h1","Precip 3hr_h1","Precip 6hr_h1","cloud_code_1_h1","cloud_code_2_h1","cloud_code_3_h1","cloud_code_4_h1","prevailing_wind_dir_code_h1","gust_wind_dir_code_h1","weather_code_h1","Prevailing Wind Magnitude (MPH)_h2","Gust Wind Magnitude (MPH)_h2","Vis (MI)_h2","Cloud Height 1 (100s of ft)_h2","Cloud Height 2 (100s of ft)_h2","Cloud Height 3 (100s of ft)_h2","Cloud Height 4 (100s of ft)_h2","Air Temp (F)_h2","Dewpoint (F)_h2","6hr Max (F)_h2","6hr Min (F)_h2","Rel Hum_h2","Wind Chill (F)_h2","Heat Index (F)_h2","Sea Level Pressure (MB)_h2","Precip 1hr_h2","Precip 3hr_h2","Precip 6hr_h2","cloud_code_1_h2","cloud_code_2_h2","cloud_code_3_h2","cloud_code_4_h2","prevailing_wind_dir_code_h2","gust_wind_dir_code_h2","weather_code_h2","Prevailing Wind Magnitude (MPH)_h3","Gust Wind Magnitude (MPH)_h3","Vis (MI)_h3","Cloud Height 1 (100s of ft)_h3","Cloud Height 2 (100s of ft)_h3","Cloud Height 3 (100s of ft)_h3","Cloud Height 4 (100s of ft)_h3","Air Temp (F)_h3","Dewpoint (F)_h3","6hr Max (F)_h3","6hr Min (F)_h3","Rel Hum_h3","Wind Chill (F)_h3","Heat Index (F)_h3","Sea Level Pressure (MB)_h3","Precip 1hr_h3","Precip 3hr_h3","Precip 6hr_h3","cloud_code_1_h3","cloud_code_2_h3","cloud_code_3_h3","cloud_code_4_h3","prevailing_wind_dir_code_h3","gust_wind_dir_code_h3","weather_code_h3"],"feature_types":["float","float","float","float","float","float","float","float","float","float","float","float","float","float","float","float","float","float","c","c","c","c","c","c","c","float","float","float","float","float","float","float","float","float","float","float","float","float","float","float","float","float","float","c","c","c","c","c","c","c","float","float","float","float","float","float","float","float","float","float","float","float","float","float","float","float","float","float","c","c","c","c","c","c","c","float","float","float","float","float","float","float","float","float","float","float","float","float","float","float","float","float","float","c","c","c","c","c","c","c"],"gradient_booster":{"model":{"cats":{"enc":[{"offsets":[],"values":[]},{"offsets":[],"values":[]},{"offsets":[],"values":[]},{"offsets":[],"values":[]},{"offsets":[],"values":[]},{"offsets":[],"values":[]},{"offsets":[],"values":[]},{"offsets":[],"values":[]},{"offsets":[],"values":[]},{"offsets":[],"values":[]},{"offsets":[],"values":[]},{"offsets":[],"values":[]},{"offsets":[],"values":[]},{"offsets":[],"values":[]},{"offsets":[],"values":[]},{"offsets":[],"values":[]},{"offsets":[],"values":[]},{"offsets":[],"values":[]},{"type":15,"values":[0,1,2,3,4]},{"type":15,"values":[-1,0,1,2,3]},{"type":15,"values":[-1,0,1,2]},{"type":15,"values":[-1,0,1]},{"type":15,"values":[0,1,2,3,4,5,6,7,8,9]},{"type":15,"values":[-1,0]},{"type":15,"values":[0,1,2,3,4,5,6,7,8,9,10,11,12,13,14,15]},{"offsets":[],"values":[]},{"offsets":[],"values":[]},{"offsets":[],"values":[]},{"offsets":[],"values":[]},{"offsets":[],"values":[]},{"offsets":[],"values":[]},{"offsets":[],"values":[]},{"offsets":[],"values":[]},{"offsets":[],"values":[]},{"offsets":[],"values":[]},{"offsets":[],"values":[]},{"offsets":[],"values":[]},{"offsets":[],"values":[]},{"offsets":[],"values":[]},{"offsets":[],"values":[]},{"offsets":[],"values":[]},{"offsets":[],"values":[]},{"offsets":[],"values":[]},{"type":15,"values":[0,1,2,3,4]},{"type":15,"values":[-1,0,1,2,3]},{"type":15,"values":[-1,0,1,2]},{"type":15,"values":[-1,1]},{"type":15,"values":[0,1,2,3,4,5,6,7,8,9]},{"type":15,"values":[-1,0]},{"type":15,"values":[0,1,2,3,4,5,6,7,9,10,11,12,13,14,15]},{"offsets":[],"values":[]},{"offsets":[],"values":[]},{"offsets":[],"values":[]},{"offsets":[],"values":[]},{"offsets":[],"values":[]},{"offsets":[],"values":[]},{"offsets":[],"values":[]},{"offsets":[],"values":[]},{"offsets":[],"values":[]},{"offsets":[],"values":[]},{"offsets":[],"values":[]},{"offsets":[],"values":[]},{"offsets":[],"values":[]},{"offsets":[],"values":[]},{"offsets":[],"values":[]},{"offsets":[],"values":[]},{"offsets":[],"values":[]},{"offsets":[],"values":[]},{"type":15,"values":[0,1,2,3,4]},{"type":15,"values":[-1,0,1,2,3]},{"type":15,"values":[-1,0,1,2]},{"type":15,"values":[-1,1]},{"type":15,"values":[0,1,2,3,4,5,6,7,8,9]},{"type":15,"values":[-1,0]},{"type":15,"values":[0,1,2,3,4,5,6,7,9,10,11,12,13,14,15]},{"offsets":[],"values":[]},{"offsets":[],"values":[]},{"offsets":[],"values":[]},{"offsets":[],"values":[]},{"offsets":[],"values":[]},{"offsets":[],"values":[]},{"offsets":[],"values":[]},{"offsets":[],"values":[]},{"offsets":[],"values":[]},{"offsets":[],"values":[]},{"offsets":[],"values":[]},{"offsets":[],"values":[]},{"offsets":[],"values":[]},{"offsets":[],"values":[]},{"offsets":[],"values":[]},{"offsets":[],"values":[]},{"offsets":[],"values":[]},{"offsets":[],"values":[]},{"type":15,"values":[0,1,2,3,4]},{"type":15,"values":[-1,0,1,2,3]},{"type":15,"values":[-1,0,1,2]},{"type":15,"values":[-1,0,1]},{"type":15,"values":[0,1,2,3,4,5,6,7,8,9]},{"type":15,"values":[-1,0]},{"type":15,"values":[0,1,2,3,4,5,6,7,8,9,10,11,12,13,14,15]}],"feature_segments":[0,0,0,0,0,0,0,0,0,0,0,0,0,0,0,0,0,0,0,5,10,14,17,27,29,45,45,45,45,45,45,45,45,45,45,45,45,45,45,45,45,45,45,45,50,55,59,61,71,73,88,88,88,88,88,88,88,88,88,88,88,88,88,88,88,88,88,88,88,93,98,102,104,114,116,131,131,131,131,131,131,131,131,131,131,131,131,131,131,131,131,131,131,131,136,141,145,148,158,160,176],"sorted_idx":[0,1,2,3,4,0,1,2,3,4,0,1,2,3,0,1,2,0,1,2,3,4,5,6,7,8,9,0,1,0,1,2,3,4,5,6,7,8,9,10,11,12,13,14,15,0,1,2,3,4,0,1,2,3,4,0,1,2,3,0,1,0,1,2,3,4,5,6,7,8,9,0,1,0,1,2,3,4,5,6,7,8,9,10,11,12,13,14,0,1,2,3,4,0,1,2,3,4,0,1,2,3,0,1,0,1,2,3,4,5,6,7,8,9,0,1,0,1,2,3,4,5,6,7,8,9,10,11,12,13,14,0,1,2,3,4,0,1,2,3,4,0,1,2,3,0,1,2,0,1,2,3,4,5,6,7,8,9,0,1,0,1,2,3,4,5,6,7,8,9,10,11,12,13,14,15]},"gbtree_model_param":{"num_parallel_tree":"1","num_trees":"75"},"iteration_indptr":[0,1,2,3,4,5,6,7,8,9,10,11,12,13,14,15,16,17,18,19,20,21,22,23,24,25,26,27,28,29,30,31,32,33,34,35,36,37,38,39,40,41,42,43,44,45,46,47,48,49,50,51,52,53,54,55,56,57,58,59,60,61,62,63,64,65,66,67,68,69,70,71,72,73,74,75],"tree_info":[0,0,0,0,0,0,0,0,0,0,0,0,0,0,0,0,0,0,0,0,0,0,0,0,0,0,0,0,0,0,0,0,0,0,0,0,0,0,0,0,0,0,0,0,0,0,0,0,0,0,0,0,0,0,0,0,0,0,0,0,0,0,0,0,0,0,0,0,0,0,0,0,0,0,0],"trees":[{"base_weights":[5.4562543E-6,-2.8761694E0,8.589658E-1,6.040757E0,-1.611485E1,-8.636671E0,1.1551306E1,-1.7792107E1,4.099034E1,6.1373076E0,-1.7169018E1,1.0548349E1,7.795888E-1,-7.6942616E0,-2.0645813E1,2.5039843E-1,5.108508E-1,3.1416698E0,1.833906E1,-1.9172766E0,-2.1170387E1,1.2495664E1,-6.6363792E0,-2.9287033E0,-2.130192E1,-1.9773212E1,-5.8957994E-1,8.326554E0,3.9425164E-1,1.1035078E-1,2.3023176E-1,-6.384181E-1,-5.1145673E-2,-1.8010734E-1,-2.670485E-1,2.338143E1,1.10553E1,-1.3543619E-1,-4.03015E0,3.879923E0,-7.769139E0,-2.6150537E-1,-5.0982535E-2,-1.6711283E1,-2.6388827E-1,6.537778E-2,1.0459059E-1,3.0414093E0,-2.273656E0,4.041312E-3,-1.1506817E-2,3.1963077E-1,1.3864525E1,1.2016083E1,-3.0300403E0,-3.146697E-2,-5.419086E-2,1.0223682E-1,-6.647499E-1,-5.0530996E0,-1.3648222E-1,-1.9007233E1,-9.102147E0,5.8065098E-2,1.3185541E-2,-2.696795E-3,-3.1778235E0,7.957012E-2,1.8705535E-1,1.2517853E1,-1.4717299E-1,-3.1648496E-1,-9.9625416E-2,-2.8815918E-2,5.800687E-1,-2.8711054E0,-6.28009E-2,-9.055084E0,-2.0090567E1,2.3017446E-2,-1.0545517E1,-2.1268267E-2,-3.7748456E-2,1.1296675E1,1.6548504E1,1.0621432E0,-2.8315822E-2,1.0320216E-2,4.5248846E-4,-3.4363445E-2,-1.8957082E-2,-1.1533966E-1,-7.023757E-2,-2.0640415E1,-1.2412222E-1,-7.297722E-2,-1.140162E-1,1.0433584E-1,1.6473147E-1,1.8997042E-1,7.816432E-2,1.3041294E-2,6.6842213E-3,-1.5112166E-1,-2.1612033E-1],"categories":[2,3,4,9,0,1,2,4,0,2,3,4,5,6,7,2,3,0,3,1,0,1,3,4,0,1,2,3,4,6,7,8,9,10,12,13,14],"categories_nodes":[1,5,21,23,25,53,61,84],"categories_segments":[0,4,8,15,17,19,20,24],"categories_sizes":[4,4,7,2,2,1,4,13],"default_left":[0,1,0,0,0,1,0,0,0,0,0,1,0,1,1,0,0,0,0,0,0,1,0,1,0,1,0,0,0,0,0,0,0,0,0,0,1,0,1,0,0,0,0,1,0,0,0,0,0,0,0,0,0,1,1,0,0,0,0,0,0,1,0,0,0,0,0,0,0,0,0,0,0,0,0,0,0,0,0,0,0,0,0,0,1,0,0,0,0,0,0,0,0,0,0,0,0,0,0,0,0,0,0,0,0],"id":0,"left_children":[1,3,-1,5,7,9,11,13,15,17,19,21,-1,23,25,-1,-1,27,29,31,33,35,37,39,41,43,-1,45,47,-1,-1,49,-1,-1,-1,51,53,-1,55,57,59,-1,-1,61,-1,-1,-1,63,65,-1,-1,-1,67,69,71,-1,-1,-1,73,75,-1,77,79,-1,-1,-1,81,-1,-1,83,-1,85,-1,-1,87,89,-1,91,93,-1,95,-1,-1,97,99,101,-1,-1,-1,-1,-1,-1,-1,103,-1,-1,-1,-1,-1,-1,-1,-1,-1,-1,-1],"loss_changes":[2.821352E5,1.3054076E5,0E0,5.3561895E4,4.335146E4,2.292164E4,3.1214152E4,1.2318594E4,8.140469E2,2.391371E3,6.9776094E3,1.5978355E4,0E0,6.227878E3,1.0100547E4,0E0,0E0,7.8019476E2,1.9070215E2,9.895682E1,1.1103438E3,6.4366484E3,8.2750806E2,2.435984E3,1.8308135E3,6.2639375E3,0E0,4.0977783E0,2.6822287E2,0E0,0E0,1.0612167E1,0E0,0E0,0E0,3.558711E3,5.1654023E3,0E0,2.8348999E1,9.0053595E2,6.176504E2,0E0,0E0,3.827664E3,0E0,0E0,0E0,8.2857285E1,3.3569687E1,0E0,0E0,0E0,5.6611816E2,4.9461953E3,4.6714017E2,0E0,0E0,0E0,5.410328E1,6.496503E1,0E0,1.7048438E3,9.295747E2,0E0,0E0,0E0,1.2864685E-1,0E0,0E0,1.5308828E3,0E0,6.888784E1,0E0,0E0,3.0955768E0,6.530304E-1,0E0,1.4661133E1,4.0664453E2,0E0,5.3036133E1,0E0,0E0,1.0388906E3,1.5405938E3,3.6686802E-1,0E0,0E0,0E0,0E0,0E0,0E0,0E0,4.522422E2,0E0,0E0,0E0,0E0,0E0,0E0,0E0,0E0,0E0,0E0,0E0],"parents":[2147483647,0,0,1,1,3,3,4,4,5,5,6,6,7,7,8,8,9,9,10,10,11,11,13,13,14,14,17,17,18,18,19,19,20,20,21,21,22,22,23,23,24,24,25,25,27,27,28,28,31,31,35,35,36,36,38,38,39,39,40,40,43,43,47,47,48,48,52,52,53,53,54,54,58,58,59,59,61,61,62,62,66,66,69,69,71,71,74,74,75,75,77,77,78,78,80,80,83,83,84,84,85,85,93,93],"right_children":[2,4,-1,6,8,10,12,14,16,18,20,22,-1,24,26,-1,-1,28,30,32,34,36,38,40,42,44,-1,46,48,-1,-1,50,-1,-1,-1,52,54,-1,56,58,60,-1,-1,62,-1,-1,-1,64,66,-1,-1,-1,68,70,72,-1,-1,-1,74,76,-1,78,80,-1,-1,-1,82,-1,-1,84,-1,86,-1,-1,88,90,-1,92,94,-1,96,-1,-1,98,100,102,-1,-1,-1,-1,-1,-1,-1,104,-1,-1,-1,-1,-1,-1,-1,-1,-1,-1,-1],"split_conditions":[1.0267E3,1E-45,8.589658E-1,3.2E1,4.8000008E1,1E-45,9.3E1,1.9E2,6E0,1.7E2,1.0056E3,2.2E1,7.795888E-1,3.99E1,3.9E1,2.5039843E-1,5.108508E-1,6E0,1E1,1.5E1,4.1E1,1E-45,2.8E1,1E-45,1.7E1,1E-45,-5.8957994E-1,1.2E1,1.5E1,1.1035078E-1,2.3023176E-1,7E0,-5.1145673E-2,-1.8010734E-1,-2.670485E-1,7.1E1,2.2E1,-1.3543619E-1,2E2,1E1,3.3E1,-2.6150537E-1,-5.0982535E-2,8E1,-2.6388827E-1,6.537778E-2,1.0459059E-1,6E0,7E0,4.041312E-3,-1.1506817E-2,3.1963077E-1,1.3E1,1E-45,2.2E2,-3.146697E-2,-5.419086E-2,1.0223682E-1,1.0167E3,1.6E2,-1.3648222E-1,1E-45,1E1,5.8065098E-2,1.3185541E-2,-2.696795E-3,1.6E1,7.957012E-2,1.8705535E-1,4.4E1,-1.4717299E-1,1.3E1,-9.9625416E-2,-2.8815918E-2,1.3E1,1.7E1,-6.28009E-2,2.6E1,2.3E1,2.3017446E-2,2.3E1,-2.1268267E-2,-3.7748456E-2,8.6E1,1E-45,1E1,-2.8315822E-2,1.0320216E-2,4.5248846E-4,-3.4363445E-2,-1.8957082E-2,-1.1533966E-1,-7.023757E-2,1.0620001E2,-1.2412222E-1,-7.297722E-2,-1.140162E-1,1.0433584E-1,1.6473147E-1,1.8997042E-1,7.816432E-2,1.3041294E-2,6.6842213E-3,-1.5112166E-1,-2.1612033E-1],"split_indices":[39,22,0,28,25,94,11,29,0,4,14,51,0,9,37,0,0,25,2,0,33,97,7,94,0,93,0,3,3,0,0,0,0,0,0,36,76,0,4,0,1,0,0,78,0,0,0,0,0,0,0,0,0,22,4,0,0,0,14,4,0,94,0,0,0,0,0,0,0,62,0,0,0,0,0,0,0,1,75,0,1,0,0,86,24,0,0,0,0,0,0,0,0,34,0,0,0,0,0,0,0,0,0,0,0],"split_type":[0,1,0,0,0,1,0,0,0,0,0,0,0,0,0,0,0,0,0,0,0,1,0,1,0,1,0,0,0,0,0,0,0,0,0,0,0,0,0,0,0,0,0,0,0,0,0,0,0,0,0,0,0,1,0,0,0,0,0,0,0,1,0,0,0,0,0,0,0,0,0,0,0,0,0,0,0,0,0,0,0,0,0,0,1,0,0,0,0,0,0,0,0,0,0,0,0,0,0,0,0,0,0,0,0],"sum_hessian":[1.14E3,1.104E3,3.6E1,6.6E2,4.44E2,1.8E2,4.8E2,4.32E2,1.2E1,6.6E1,1.14E2,4.74E2,6E0,9.6E1,3.36E2,6E0,6E0,5.4E1,1.2E1,2.4E1,9E1,4.26E2,4.8E1,7.2E1,2.4E1,3.3E2,6E0,1.8E1,3.6E1,6E0,6E0,1.8E1,6E0,6E1,3E1,4.8E1,3.78E2,1.2E1,3.6E1,3E1,4.2E1,1.8E1,6E0,2.28E2,1.02E2,1.2E1,6E0,1.8E1,1.8E1,6E0,1.2E1,2.4E1,2.4E1,3.54E2,2.4E1,2.4E1,1.2E1,1.2E1,1.8E1,3E1,1.2E1,1.74E2,5.4E1,6E0,1.2E1,6E0,1.2E1,1.2E1,1.2E1,3.48E2,6E0,1.8E1,6E0,6E0,1.2E1,1.2E1,1.8E1,1.8E1,1.56E2,6E0,4.8E1,6E0,6E0,2.7E2,7.8E1,1.2E1,6E0,6E0,6E0,6E0,6E0,6E0,1.2E1,1.44E2,1.2E1,1.2E1,3.6E1,2.34E2,3.6E1,6E1,1.8E1,6E0,6E0,2.4E1,1.2E2],"tree_param":{"num_deleted":"0","num_feature":"100","num_nodes":"105","size_leaf_vector":"1"}},{"base_weights":[7.8168866E-4,-2.8473833E0,8.5060817E-1,5.98253E0,-1.5956878E1,-8.5502205E0,1.1438757E1,-1.761921E1,4.0638992E1,6.0836987E0,-1.7001719E1,1.0444226E1,7.7290654E-1,-7.6222763E0,-2.0444382E1,2.4825215E-1,5.0647193E-1,3.1135182E0,1.8181871E1,-1.9004456E0,-2.0963589E1,1.2372739E1,-6.5745273E0,-2.901724E0,-2.1101398E1,-1.9578817E1,-5.845265E-1,8.252242E0,3.905648E-1,1.0940491E-1,2.282584E-1,-6.324238E-1,-5.0707266E-2,-1.7833573E-1,-2.6446405E-1,2.315958E1,1.0945488E1,-1.34186E-1,-3.9921627E0,3.8438396E0,-7.6973233E0,-2.5902796E-1,-5.0545435E-2,-1.654784E1,-2.6127502E-1,6.477438E-2,1.0369415E-1,3.014743E0,-2.2541697E0,4.0067835E-3,-1.1400616E0,3.165622E-1,1.3736556E1,1.1897018E1,-3.0040612E0,-3.1164918E-2,-5.369056E-2,1.01293124E-1,-6.590544E-1,-5.0063133E0,-1.3522245E-1,-1.8821024E1,-9.014111E0,5.7567313E-2,1.3063848E-2,-2.673776E-3,-3.150583E0,-7.6458305E-3,-1.3526742E-2,7.8835726E-2,1.853288E-1,1.2394211E1,-1.4591138E-1,-3.1376728E-1,-9.877136E-2,-2.8568987E-2,5.750967E-1,-2.846499E0,-6.2205903E-2,-8.974297E0,-1.9892788E1,2.2820218E-2,-1.0443882E1,-2.1085946E-2,-3.7424885E-2,1.1184697E1,1.6386414E1,1.0530442E0,-2.8073076E-2,1.0231802E-2,4.485648E-4,-3.406891E-2,-1.8794643E-2,-1.14351146E-1,-6.9589086E-2,-2.0436539E1,-1.2297654E-1,-7.2303675E-2,-1.1290687E-1,1.0329689E-1,1.6312866E-1,1.8810184E-1,7.742389E-2,1.29296E-2,6.6269357E-3,-1.4967088E-1,-2.1397693E-1],"categories":[2,3,4,9,0,1,2,4,0,2,3,4,5,6,7,2,3,0,3,1,0,1,3,4,0,1,2,3,4,6,7,8,9,10,12,13,14],"categories_nodes":[1,5,21,23,25,53,61,86],"categories_segments":[0,4,8,15,17,19,20,24],"categories_sizes":[4,4,7,2,2,1,4,13],"default_left":[0,1,0,0,0,1,0,0,0,0,0,1,0,1,1,0,0,0,0,0,0,1,0,1,0,1,0,0,0,0,0,0,0,0,0,0,1,0,1,0,0,0,0,1,0,0,0,0,0,0,0,0,0,1,1,0,0,0,0,0,0,1,0,0,0,0,0,0,0,0,0,0,0,0,0,0,0,0,0,0,0,0,0,0,0,0,1,0,0,0,0,0,0,0,0,0,0,0,0,0,0,0,0,0,0,0,0],"id":1,"left_children":[1,3,-1,5,7,9,11,13,15,17,19,21,-1,23,25,-1,-1,27,29,31,33,35,37,39,41,43,-1,45,47,-1,-1,49,-1,-1,-1,51,53,-1,55,57,59,-1,-1,61,-1,-1,-1,63,65,-1,67,-1,69,71,73,-1,-1,-1,75,77,-1,79,81,-1,-1,-1,83,-1,-1,-1,-1,85,-1,87,-1,-1,89,91,-1,93,95,-1,97,-1,-1,99,101,103,-1,-1,-1,-1,-1,-1,-1,105,-1,-1,-1,-1,-1,-1,-1,-1,-1,-1,-1],"loss_changes":[2.7666656E5,1.280055E5,0E0,5.2511133E4,4.258211E4,2.248925E4,3.0694285E4,1.2073406E4,8.001504E2,2.3509521E3,6.8405273E3,1.5671258E4,0E0,6.110772E3,9.942422E3,0E0,0E0,7.663648E2,1.8744775E2,9.729278E1,1.090043E3,6.3203945E3,8.124514E2,2.391066E3,1.7952568E3,6.1376406E3,0E0,4.2265625E0,2.6358517E2,0E0,0E0,1.042119E1,0E0,0E0,0E0,3.488291E3,5.0663633E3,0E0,2.7878479E1,8.840631E2,6.063252E2,0E0,0E0,3.7520977E3,0E0,0E0,0E0,8.1481155E1,3.2996376E1,0E0,3.578186E-3,0E0,5.5571484E2,4.8560938E3,4.5916565E2,0E0,0E0,0E0,5.3179962E1,6.3594116E1,0E0,1.6683125E3,9.1213184E2,0E0,0E0,0E0,1.2646484E-1,0E0,0E0,0E0,0E0,1.5019141E3,0E0,6.771202E1,0E0,0E0,3.042799E0,6.417999E-1,0E0,1.4654663E1,3.970703E2,0E0,5.1703613E1,0E0,0E0,1.01972656E3,1.5095039E3,3.60631E-1,0E0,0E0,0E0,0E0,0E0,0E0,0E0,4.420039E2,0E0,0E0,0E0,0E0,0E0,0E0,0E0,0E0,0E0,0E0,0E0],"parents":[2147483647,0,0,1,1,3,3,4,4,5,5,6,6,7,7,8,8,9,9,10,10,11,11,13,13,14,14,17,17,18,18,19,19,20,20,21,21,22,22,23,23,24,24,25,25,27,27,28,28,31,31,35,35,36,36,38,38,39,39,40,40,43,43,47,47,48,48,50,50,52,52,53,53,54,54,58,58,59,59,61,61,62,62,66,66,71,71,73,73,76,76,77,77,79,79,80,80,82,82,85,85,86,86,87,87,95,95],"right_children":[2,4,-1,6,8,10,12,14,16,18,20,22,-1,24,26,-1,-1,28,30,32,34,36,38,40,42,44,-1,46,48,-1,-1,50,-1,-1,-1,52,54,-1,56,58,60,-1,-1,62,-1,-1,-1,64,66,-1,68,-1,70,72,74,-1,-1,-1,76,78,-1,80,82,-1,-1,-1,84,-1,-1,-1,-1,86,-1,88,-1,-1,90,92,-1,94,96,-1,98,-1,-1,100,102,104,-1,-1,-1,-1,-1,-1,-1,106,-1,-1,-1,-1,-1,-1,-1,-1,-1,-1,-1],"split_conditions":[1.0267E3,1E-45,8.5060817E-1,3.2E1,4.8000008E1,1E-45,9.3E1,1.9E2,6E0,1.7E2,1.0056E3,2.2E1,7.7290654E-1,3.99E1,3.9E1,2.4825215E-1,5.0647193E-1,6E0,1E1,1.5E1,4.1E1,1E-45,2.8E1,1E-45,1.7E1,1E-45,-5.845265E-1,1.2E1,1.5E1,1.0940491E-1,2.282584E-1,7E0,-5.0707266E-2,-1.7833573E-1,-2.6446405E-1,7.1E1,2.2E1,-1.34186E-1,2E2,1E1,3.3E1,-2.5902796E-1,-5.0545435E-2,8E1,-2.6127502E-1,6.477438E-2,1.0369415E-1,6E0,7E0,4.0067835E-3,2.4E1,3.165622E-1,1.3E1,1E-45,2.2E2,-3.1164918E-2,-5.369056E-2,1.01293124E-1,1.0167E3,1.6E2,-1.3522245E-1,1E-45,1E1,5.7567313E-2,1.3063848E-2,-2.673776E-3,1.6E1,-7.6458305E-3,-1.3526742E-2,7.8835726E-2,1.853288E-1,4.4E1,-1.4591138E-1,1.3E1,-9.877136E-2,-2.8568987E-2,1.3E1,1.7E1,-6.2205903E-2,2.6E1,2.3E1,2.2820218E-2,2.3E1,-2.1085946E-2,-3.7424885E-2,8.6E1,1E-45,1E1,-2.8073076E-2,1.0231802E-2,4.485648E-4,-3.406891E-2,-1.8794643E-2,-1.14351146E-1,-6.9589086E-2,1.0620001E2,-1.2297654E-1,-7.2303675E-2,-1.1290687E-1,1.0329689E-1,1.6312866E-1,1.8810184E-1,7.742389E-2,1.29296E-2,6.6269357E-3,-1.4967088E-1,-2.1397693E-1],"split_indices":[39,22,0,28,25,94,11,29,0,4,14,51,0,9,37,0,0,25,2,0,33,97,7,94,0,93,0,3,3,0,0,0,0,0,0,36,76,0,4,0,1,0,0,78,0,0,0,0,0,0,1,0,0,22,4,0,0,0,14,4,0,94,0,0,0,0,0,0,0,0,0,62,0,0,0,0,0,0,0,1,75,0,1,0,0,86,24,0,0,0,0,0,0,0,0,34,0,0,0,0,0,0,0,0,0,0,0],"split_type":[0,1,0,0,0,1,0,0,0,0,0,0,0,0,0,0,0,0,0,0,0,1,0,1,0,1,0,0,0,0,0,0,0,0,0,0,0,0,0,0,0,0,0,0,0,0,0,0,0,0,0,0,0,1,0,0,0,0,0,0,0,1,0,0,0,0,0,0,0,0,0,0,0,0,0,0,0,0,0,0,0,0,0,0,0,0,1,0,0,0,0,0,0,0,0,0,0,0,0,0,0,0,0,0,0,0,0],"sum_hessian":[1.14E3,1.104E3,3.6E1,6.6E2,4.44E2,1.8E2,4.8E2,4.32E2,1.2E1,6.6E1,1.14E2,4.74E2,6E0,9.6E1,3.36E2,6E0,6E0,5.4E1,1.2E1,2.4E1,9E1,4.26E2,4.8E1,7.2E1,2.4E1,3.3E2,6E0,1.8E1,3.6E1,6E0,6E0,1.8E1,6E0,6E1,3E1,4.8E1,3.78E2,1.2E1,3.6E1,3E1,4.2E1,1.8E1,6E0,2.28E2,1.02E2,1.2E1,6E0,1.8E1,1.8E1,6E0,1.2E1,2.4E1,2.4E1,3.54E2,2.4E1,2.4E1,1.2E1,1.2E1,1.8E1,3E1,1.2E1,1.74E2,5.4E1,6E0,1.2E1,6E0,1.2E1,6E0,6E0,1.2E1,1.2E1,3.48E2,6E0,1.8E1,6E0,6E0,1.2E1,1.2E1,1.8E1,1.8E1,1.56E2,6E0,4.8E1,6E0,6E0,2.7E2,7.8E1,1.2E1,6E0,6E0,6E0,6E0,6E0,6E0,1.2E1,1.44E2,1.2E1,1.2E1,3.6E1,2.34E2,3.6E1,6E1,1.8E1,6E0,6E0,2.4E1,1.2E2],"tree_param":{"num_deleted":"0","num_feature":"100","num_nodes":"107","size_leaf_vector":"1"}},{"base_weights":[1.5336889E-3,-2.8188944E0,8.423319E-1,5.924849E0,-1.5800457E1,-8.464687E0,1.1327305E1,-1.7447996E1,4.0290653E1,6.0305543E0,-1.6836136E1,1.034113E1,7.6628155E-1,-7.550967E0,-2.024492E1,2.4612422E-1,5.0213075E-1,3.0856164E0,1.802602E1,-1.8841492E0,-2.0758812E1,1.2251021E1,-6.5132575E0,-2.8749957E0,-2.0902765E1,-1.9386335E1,-5.7951623E-1,8.178576E0,3.8691753E-1,1.0846715E-1,2.2630177E-1,-6.269981E-1,-5.027252E-2,-1.7658152E-1,-2.6190472E-1,2.2939838E1,1.0836765E1,-1.3294737E-1,-3.954542E0,3.8080926E0,-7.626176E0,-2.5657395E-1,-5.0112262E-2,-1.6385994E1,-2.586878E-1,6.417633E-2,1.0280531E-1,2.9883182E0,-2.2348473E0,3.9725164E-3,-1.1302866E0,3.1352323E-1,1.3609759E1,1.1779132E1,-2.9783094E0,-3.346589E-2,-6.08197E-2,1.0035816E-1,-6.5340704E-1,-4.95997E0,-1.3397424E-1,-1.8636639E1,-8.926919E0,5.7073973E-2,1.2943279E-2,-2.6507569E-3,-3.1235821E0,-7.580174E-3,-1.3410863E-2,7.8108095E-2,1.8361804E-1,1.227179E1,-1.4466077E-1,-3.1107852E-1,-9.792463E-2,-2.8324148E-2,5.7016695E-1,-2.8221037E0,-6.1616693E-2,-8.89424E0,-1.969695E1,2.2624554E-2,-1.0343219E1,-2.0905193E-2,-3.7104186E-2,1.1073831E1,1.6225904E1,1.0440158E0,-2.7832424E-2,1.0144174E-2,4.446411E-4,-3.3776987E-2,-1.8633509E-2,-1.13371015E-1,-6.8946816E-2,-2.0234674E1,-1.2184128E-1,-7.163633E-2,-1.1180824E-1,1.0226826E-1,1.6154157E-1,1.8625158E-1,7.669041E-2,1.281869E-2,6.570173E-3,-1.4823416E-1,-2.1185473E-1],"categories":[2,3,4,9,0,1,2,4,0,2,3,4,5,6,7,2,3,0,3,14,1,0,1,3,4,0,1,2,3,4,6,7,8,9,10,12,13,14],"categories_nodes":[1,5,21,23,25,38,53,61,86],"categories_segments":[0,4,8,15,17,19,20,21,25],"categories_sizes":[4,4,7,2,2,1,1,4,13],"default_left":[0,1,0,0,0,1,0,0,0,0,0,1,0,1,1,0,0,0,0,0,0,1,0,1,0,1,0,0,0,0,0,0,0,0,0,0,1,0,1,0,0,0,0,1,0,0,0,0,0,0,0,0,0,1,1,0,0,0,0,0,0,1,0,0,0,0,0,0,0,0,0,0,0,0,0,0,0,0,0,0,0,0,0,0,0,0,1,0,0,0,0,0,0,0,0,0,0,0,0,0,0,0,0,0,0,0,0],"id":2,"left_children":[1,3,-1,5,7,9,11,13,15,17,19,21,-1,23,25,-1,-1,27,29,31,33,35,37,39,41,43,-1,45,47,-1,-1,49,-1,-1,-1,51,53,-1,55,57,59,-1,-1,61,-1,-1,-1,63,65,-1,67,-1,69,71,73,-1,-1,-1,75,77,-1,79,81,-1,-1,-1,83,-1,-1,-1,-1,85,-1,87,-1,-1,89,91,-1,93,95,-1,97,-1,-1,99,101,103,-1,-1,-1,-1,-1,-1,-1,105,-1,-1,-1,-1,-1,-1,-1,-1,-1,-1,-1],"loss_changes":[2.7130403E5,1.2551934E5,0E0,5.1481254E4,4.182643E4,2.2065188E4,3.0183055E4,1.1833125E4,7.8649414E2,2.3112146E3,6.705842E3,1.5370078E4,0E0,5.995869E3,9.786703E3,0E0,0E0,7.527755E2,1.8424756E2,9.563181E1,1.0701211E3,6.206246E3,7.9766724E2,2.3469778E3,1.7603857E3,6.0139062E3,0E0,4.350464E0,2.5902808E2,0E0,0E0,1.0243379E1,0E0,0E0,0E0,3.4192715E3,4.9692305E3,0E0,2.7501038E1,8.6789197E2,5.952046E2,0E0,0E0,3.6780273E3,0E0,0E0,0E0,8.012854E1,3.2433502E1,0E0,3.5972595E-3,0E0,5.4550146E2,4.7676367E3,4.5132672E2,0E0,0E0,0E0,5.227232E1,6.225238E1,0E0,1.6325547E3,8.9501416E2,0E0,0E0,0E0,1.2440491E-1,0E0,0E0,0E0,0E0,1.4734844E3,0E0,6.655603E1,0E0,0E0,2.990963E0,6.3098145E-1,0E0,1.4642578E1,3.8770703E2,0E0,5.040381E1,0E0,0E0,1.0009258E3,1.4790391E3,3.5442448E-1,0E0,0E0,0E0,0E0,0E0,0E0,0E0,4.3198828E2,0E0,0E0,0E0,0E0,0E0,0E0,0E0,0E0,0E0,0E0,0E0],"parents":[2147483647,0,0,1,1,3,3,4,4,5,5,6,6,7,7,8,8,9,9,10,10,11,11,13,13,14,14,17,17,18,18,19,19,20,20,21,21,22,22,23,23,24,24,25,25,27,27,28,28,31,31,35,35,36,36,38,38,39,39,40,40,43,43,47,47,48,48,50,50,52,52,53,53,54,54,58,58,59,59,61,61,62,62,66,66,71,71,73,73,76,76,77,77,79,79,80,80,82,82,85,85,86,86,87,87,95,95],"right_children":[2,4,-1,6,8,10,12,14,16,18,20,22,-1,24,26,-1,-1,28,30,32,34,36,38,40,42,44,-1,46,48,-1,-1,50,-1,-1,-1,52,54,-1,56,58,60,-1,-1,62,-1,-1,-1,64,66,-1,68,-1,70,72,74,-1,-1,-1,76,78,-1,80,82,-1,-1,-1,84,-1,-1,-1,-1,86,-1,88,-1,-1,90,92,-1,94,96,-1,98,-1,-1,100,102,104,-1,-1,-1,-1,-1,-1,-1,106,-1,-1,-1,-1,-1,-1,-1,-1,-1,-1,-1],"split_conditions":[1.0267E3,1E-45,8.423319E-1,3.2E1,4.8000008E1,1E-45,9.3E1,1.9E2,6E0,1.7E2,1.0056E3,2.2E1,7.6628155E-1,3.99E1,3.9E1,2.4612422E-1,5.0213075E-1,6E0,1E1,1.5E1,4.1E1,1E-45,2.8E1,1E-45,1.7E1,1E-45,-5.7951623E-1,1.2E1,1.5E1,1.0846715E-1,2.2630177E-1,7E0,-5.027252E-2,-1.7658152E-1,-2.6190472E-1,7.1E1,2.2E1,-1.3294737E-1,1E-45,1E1,3.3E1,-2.5657395E-1,-5.0112262E-2,8E1,-2.586878E-1,6.417633E-2,1.0280531E-1,6E0,7E0,3.9725164E-3,2.4E1,3.1352323E-1,1.3E1,1E-45,2.2E2,-3.346589E-2,-6.08197E-2,1.0035816E-1,1.0167E3,1.6E2,-1.3397424E-1,1E-45,1E1,5.7073973E-2,1.2943279E-2,-2.6507569E-3,1.6E1,-7.580174E-3,-1.3410863E-2,7.8108095E-2,1.8361804E-1,4.4E1,-1.4466077E-1,1.3E1,-9.792463E-2,-2.8324148E-2,1.3E1,1.7E1,-6.1616693E-2,2.6E1,2.3E1,2.2624554E-2,2.3E1,-2.0905193E-2,-3.7104186E-2,8.6E1,1E-45,1E1,-2.7832424E-2,1.0144174E-2,4.446411E-4,-3.3776987E-2,-1.8633509E-2,-1.13371015E-1,-6.8946816E-2,1.0620001E2,-1.2184128E-1,-7.163633E-2,-1.1180824E-1,1.0226826E-1,1.6154157E-1,1.8625158E-1,7.669041E-2,1.281869E-2,6.570173E-3,-1.4823416E-1,-2.1185473E-1],"split_indices":[39,22,0,28,25,94,11,29,0,4,14,51,0,9,37,0,0,25,2,0,33,97,7,94,0,93,0,3,3,0,0,0,0,0,0,36,76,0,24,0,1,0,0,78,0,0,0,0,0,0,1,0,0,22,4,0,0,0,14,4,0,94,0,0,0,0,0,0,0,0,0,62,0,0,0,0,0,0,0,1,75,0,1,0,0,86,24,0,0,0,0,0,0,0,0,34,0,0,0,0,0,0,0,0,0,0,0],"split_type":[0,1,0,0,0,1,0,0,0,0,0,0,0,0,0,0,0,0,0,0,0,1,0,1,0,1,0,0,0,0,0,0,0,0,0,0,0,0,1,0,0,0,0,0,0,0,0,0,0,0,0,0,0,1,0,0,0,0,0,0,0,1,0,0,0,0,0,0,0,0,0,0,0,0,0,0,0,0,0,0,0,0,0,0,0,0,1,0,0,0,0,0,0,0,0,0,0,0,0,0,0,0,0,0,0,0,0],"sum_hessian":[1.14E3,1.104E3,3.6E1,6.6E2,4.44E2,1.8E2,4.8E2,4.32E2,1.2E1,6.6E1,1.14E2,4.74E2,6E0,9.6E1,3.36E2,6E0,6E0,5.4E1,1.2E1,2.4E1,9E1,4.26E2,4.8E1,7.2E1,2.4E1,3.3E2,6E0,1.8E1,3.6E1,6E0,6E0,1.8E1,6E0,6E1,3E1,4.8E1,3.78E2,1.2E1,3.6E1,3E1,4.2E1,1.8E1,6E0,2.28E2,1.02E2,1.2E1,6E0,1.8E1,1.8E1,6E0,1.2E1,2.4E1,2.4E1,3.54E2,2.4E1,3E1,6E0,1.2E1,1.8E1,3E1,1.2E1,1.74E2,5.4E1,6E0,1.2E1,6E0,1.2E1,6E0,6E0,1.2E1,1.2E1,3.48E2,6E0,1.8E1,6E0,6E0,1.2E1,1.2E1,1.8E1,1.8E1,1.56E2,6E0,4.8E1,6E0,6E0,2.7E2,7.8E1,1.2E1,6E0,6E0,6E0,6E0,6E0,6E0,1.2E1,1.44E2,1.2E1,1.2E1,3.6E1,2.34E2,3.6E1,6E1,1.8E1,6E0,6E0,2.4E1,1.2E2],"tree_param":{"num_deleted":"0","num_feature":"100","num_nodes":"107","size_leaf_vector":"1"}},{"base_weights":[2.2643455E-3,-2.7906969E0,8.341361E-1,5.867713E0,-1.5645569E1,-8.380014E0,1.1216925E1,-1.7278446E1,3.9945305E1,5.97788E0,-1.6672178E1,1.0239035E1,7.597133E-1,-7.480328E0,-2.0047405E1,2.4401458E-1,4.9782676E-1,3.0579674E0,1.7871521E1,-1.8680066E0,-2.0556047E1,1.2130507E1,-6.4527583E0,-2.8485134E0,-2.0706015E1,-1.9195744E1,-5.7454884E-1,8.105575E0,3.833049E-1,1.07537486E-1,2.2436218E-1,-6.216302E-1,-4.98417E-2,-1.7484471E-1,-2.5937018E-1,2.2722176E1,1.072913E1,-1.3172027E-1,-3.9175348E0,3.7726705E0,-7.5556803E0,-2.541434E-1,-4.9682744E-2,-1.6225739E1,-2.5612593E-1,6.358391E-2,1.0192405E-1,2.9621246E0,-2.2156887E0,3.938511E-3,-1.1206101E0,3.105133E-1,1.3484135E1,1.1662421E1,-2.9527771E0,-3.054441E-2,-5.2759822E-2,9.943165E-2,-6.478079E-1,-4.914046E0,-1.3273756E-1,-1.8454073E1,-8.8405695E0,5.658482E-2,1.2823838E-2,-2.6279995E-3,-3.0968065E0,-7.515302E-3,-1.32960295E-2,7.738723E-2,1.8192305E-1,1.2150585E1,-1.4342089E-1,-3.0840904E-1,-9.7085215E-2,-2.8081402E-2,5.652794E-1,-2.7979054E0,-6.103297E-2,-8.8148985E0,-1.9503056E1,2.2430725E-2,-1.0243527E1,-2.0726012E-2,-3.6786105E-2,1.096407E1,1.6066975E1,1.0350717E0,-2.7593862E-2,1.0057328E-2,4.407174E-4,-3.3487417E-2,-1.8473685E-2,-1.1239924E-1,-6.831045E-2,-2.0034813E1,-1.2071674E-1,-7.097518E-2,-1.107203E-1,1.0124997E-1,1.5996994E-1,1.844196E-1,7.596387E-2,1.2708827E-2,6.513933E-3,-1.4681122E-1,-2.0975369E-1],"categories":[2,3,4,9,0,1,2,4,0,2,3,4,5,6,7,2,3,0,3,1,0,1,3,4,0,1,2,3,4,6,7,8,9,10,12,13,14],"categories_nodes":[1,5,21,23,25,53,61,86],"categories_segments":[0,4,8,15,17,19,20,24],"categories_sizes":[4,4,7,2,2,1,4,13],"default_left":[0,1,0,0,0,1,0,0,0,0,0,1,0,1,1,0,0,0,0,0,0,1,0,1,0,1,0,0,0,0,0,0,0,0,0,0,1,0,1,0,0,0,0,1,0,0,0,0,0,0,0,0,0,1,1,0,0,0,0,0,0,1,0,0,0,0,0,0,0,0,0,0,0,0,0,0,0,0,0,0,0,0,0,0,0,0,1,0,0,0,0,0,0,0,0,0,0,0,0,0,0,0,0,0,0,0,0],"id":3,"left_children":[1,3,-1,5,7,9,11,13,15,17,19,21,-1,23,25,-1,-1,27,29,31,33,35,37,39,41,43,-1,45,47,-1,-1,49,-1,-1,-1,51,53,-1,55,57,59,-1,-1,61,-1,-1,-1,63,65,-1,67,-1,69,71,73,-1,-1,-1,75,77,-1,79,81,-1,-1,-1,83,-1,-1,-1,-1,85,-1,87,-1,-1,89,91,-1,93,95,-1,97,-1,-1,99,101,103,-1,-1,-1,-1,-1,-1,-1,105,-1,-1,-1,-1,-1,-1,-1,-1,-1,-1,-1],"loss_changes":[2.6604547E5,1.2308135E5,0E0,5.0471523E4,4.1084203E4,2.1649164E4,2.9680336E4,1.1597594E4,7.7306836E2,2.272152E3,6.5738105E3,1.5075008E4,0E0,5.8831357E3,9.633406E3,0E0,0E0,7.3942865E2,1.8110254E2,9.3999504E1,1.0505586E3,6.0941484E3,7.8310583E2,2.3036975E3,1.7261934E3,5.8926406E3,0E0,4.4681396E0,2.5454955E2,0E0,0E0,1.0068745E1,0E0,0E0,0E0,3.3516074E3,4.873965E3,0E0,2.7266113E1,8.520138E2,5.842903E2,0E0,0E0,3.6054219E3,0E0,0E0,0E0,7.8798096E1,3.1879929E1,0E0,3.5190582E-3,0E0,5.354741E2,4.680801E3,4.4362265E2,0E0,0E0,0E0,5.138015E1,6.093878E1,0E0,1.5975664E3,8.782202E2,0E0,0E0,0E0,1.2223816E-1,0E0,0E0,0E0,0E0,1.4455898E3,0E0,6.542014E1,0E0,0E0,2.9400563E0,6.2031555E-1,0E0,1.4626587E1,3.785664E2,0E0,4.913379E1,0E0,0E0,9.8246484E2,1.4491914E3,3.4833813E-1,0E0,0E0,0E0,0E0,0E0,0E0,0E0,4.221953E2,0E0,0E0,0E0,0E0,0E0,0E0,0E0,0E0,0E0,0E0,0E0],"parents":[2147483647,0,0,1,1,3,3,4,4,5,5,6,6,7,7,8,8,9,9,10,10,11,11,13,13,14,14,17,17,18,18,19,19,20,20,21,21,22,22,23,23,24,24,25,25,27,27,28,28,31,31,35,35,36,36,38,38,39,39,40,40,43,43,47,47,48,48,50,50,52,52,53,53,54,54,58,58,59,59,61,61,62,62,66,66,71,71,73,73,76,76,77,77,79,79,80,80,82,82,85,85,86,86,87,87,95,95],"right_children":[2,4,-1,6,8,10,12,14,16,18,20,22,-1,24,26,-1,-1,28,30,32,34,36,38,40,42,44,-1,46,48,-1,-1,50,-1,-1,-1,52,54,-1,56,58,60,-1,-1,62,-1,-1,-1,64,66,-1,68,-1,70,72,74,-1,-1,-1,76,78,-1,80,82,-1,-1,-1,84,-1,-1,-1,-1,86,-1,88,-1,-1,90,92,-1,94,96,-1,98,-1,-1,100,102,104,-1,-1,-1,-1,-1,-1,-1,106,-1,-1,-1,-1,-1,-1,-1,-1,-1,-1,-1],"split_conditions":[1.0267E3,1E-45,8.341361E-1,3.2E1,4.8000008E1,1E-45,9.3E1,1.9E2,6E0,1.7E2,1.0056E3,2.2E1,7.597133E-1,3.99E1,3.9E1,2.4401458E-1,4.9782676E-1,6E0,1E1,1.5E1,4.1E1,1E-45,2.8E1,1E-45,1.7E1,1E-45,-5.7454884E-1,1.2E1,1.5E1,1.07537486E-1,2.2436218E-1,7E0,-4.98417E-2,-1.7484471E-1,-2.5937018E-1,7.1E1,2.2E1,-1.3172027E-1,2E2,1E1,3.3E1,-2.541434E-1,-4.9682744E-2,8E1,-2.5612593E-1,6.358391E-2,1.0192405E-1,6E0,7E0,3.938511E-3,2.4E1,3.105133E-1,1.3E1,1E-45,2.2E2,-3.054441E-2,-5.2759822E-2,9.943165E-2,1.0167E3,1.6E2,-1.3273756E-1,1E-45,1E1,5.658482E-2,1.2823838E-2,-2.6279995E-3,1.6E1,-7.515302E-3,-1.32960295E-2,7.738723E-2,1.8192305E-1,4.4E1,-1.4342089E-1,1.3E1,-9.7085215E-2,-2.8081402E-2,1.3E1,1.7E1,-6.103297E-2,2.6E1,2.3E1,2.2430725E-2,2.3E1,-2.0726012E-2,-3.6786105E-2,8.6E1,1E-45,1E1,-2.7593862E-2,1.0057328E-2,4.407174E-4,-3.3487417E-2,-1.8473685E-2,-1.1239924E-1,-6.831045E-2,1.0620001E2,-1.2071674E-1,-7.097518E-2,-1.107203E-1,1.0124997E-1,1.5996994E-1,1.844196E-1,7.596387E-2,1.2708827E-2,6.513933E-3,-1.4681122E-1,-2.0975369E-1],"split_indices":[39,22,0,28,25,94,11,29,0,4,14,51,0,9,37,0,0,25,2,0,33,97,7,94,0,93,0,3,3,0,0,0,0,0,0,36,76,0,4,0,1,0,0,78,0,0,0,0,0,0,1,0,0,22,4,0,0,0,14,4,0,94,0,0,0,0,0,0,0,0,0,62,0,0,0,0,0,0,0,1,75,0,1,0,0,86,24,0,0,0,0,0,0,0,0,34,0,0,0,0,0,0,0,0,0,0,0],"split_type":[0,1,0,0,0,1,0,0,0,0,0,0,0,0,0,0,0,0,0,0,0,1,0,1,0,1,0,0,0,0,0,0,0,0,0,0,0,0,0,0,0,0,0,0,0,0,0,0,0,0,0,0,0,1,0,0,0,0,0,0,0,1,0,0,0,0,0,0,0,0,0,0,0,0,0,0,0,0,0,0,0,0,0,0,0,0,1,0,0,0,0,0,0,0,0,0,0,0,0,0,0,0,0,0,0,0,0],"sum_hessian":[1.14E3,1.104E3,3.6E1,6.6E2,4.44E2,1.8E2,4.8E2,4.32E2,1.2E1,6.6E1,1.14E2,4.74E2,6E0,9.6E1,3.36E2,6E0,6E0,5.4E1,1.2E1,2.4E1,9E1,4.26E2,4.8E1,7.2E1,2.4E1,3.3E2,6E0,1.8E1,3.6E1,6E0,6E0,1.8E1,6E0,6E1,3E1,4.8E1,3.78E2,1.2E1,3.6E1,3E1,4.2E1,1.8E1,6E0,2.28E2,1.02E2,1.2E1,6E0,1.8E1,1.8E1,6E0,1.2E1,2.4E1,2.4E1,3.54E2,2.4E1,2.4E1,1.2E1,1.2E1,1.8E1,3E1,1.2E1,1.74E2,5.4E1,6E0,1.2E1,6E0,1.2E1,6E0,6E0,1.2E1,1.2E1,3.48E2,6E0,1.8E1,6E0,6E0,1.2E1,1.2E1,1.8E1,1.8E1,1.56E2,6E0,4.8E1,6E0,6E0,2.7E2,7.8E1,1.2E1,6E0,6E0,6E0,6E0,6E0,6E0,1.2E1,1.44E2,1.2E1,1.2E1,3.6E1,2.34E2,3.6E1,6E1,1.8E1,6E0,6E0,2.4E1,1.2E2],"tree_param":{"num_deleted":"0","num_feature":"100","num_nodes":"107","size_leaf_vector":"1"}},{"base_weights":[2.987941E-3,-2.7627742E0,8.260202E-1,5.8111396E0,-1.54922E1,-8.296187E0,1.1107636E1,-1.7110546E1,3.960291E1,5.9256597E0,-1.6509819E1,1.0137962E1,7.532015E-1,-7.410344E0,-1.985182E1,2.41923E-1,4.935596E-1,3.0305614E0,1.7718332E1,-1.8519958E0,-2.0355267E1,1.2011172E1,-6.392617E0,-2.8222716E0,-2.0511103E1,-1.9007029E1,-5.6962407E-1,8.033219E0,3.7972197E-1,1.06615685E-1,2.2243905E-1,-6.163009E-1,-4.941454E-2,-1.7312503E-1,-2.5686017E-1,2.2506582E1,1.0622554E1,-1.3050446E-1,-3.880607E0,3.7375853E0,-7.4858365E0,-2.5173566E-1,-4.9256895E-2,-1.6067053E1,-2.5358945E-1,6.299685E-2,1.0105036E-1,2.936162E0,-2.1967034E0,3.9047676E-3,-1.1110041E0,3.075323E-1,1.3359667E1,1.1546858E1,-2.9274645E0,-3.2803286E-2,-5.9846103E-2,9.851386E-2,-6.422569E-1,-4.8685527E0,-1.3151217E-1,-1.8273296E1,-8.755059E0,5.609985E-2,1.27055235E-2,-2.6055034E-3,-3.0702703E0,-7.4509536E-3,-1.3181981E-2,7.667283E-2,1.8024383E-1,1.2030569E1,-1.4219147E-1,-3.0575883E-1,-9.6253134E-2,-2.784075E-2,5.604342E-1,-2.773933E0,-6.0454745E-2,-8.736269E0,-1.9311068E1,2.2238463E-2,-1.0144799E1,-2.05484E-2,-3.6470905E-2,1.0855387E1,1.5909604E1,1.0262122E0,-2.7357394E-2,9.971008E-3,4.370553E-4,-3.3200465E-2,-1.8315429E-2,-1.1143585E-1,-6.768E-2,-1.9836927E1,-1.1960234E-1,-7.031994E-2,-1.09643035E-1,1.00241706E-1,1.5841344E-1,1.8260567E-1,7.524427E-2,1.260001E-2,6.458217E-3,-1.4540175E-1,-2.0767356E-1],"categories":[2,3,4,9,0,1,2,4,0,2,3,4,5,6,7,2,3,0,3,14,1,0,1,3,4,0,1,2,3,4,6,7,8,9,10,12,13,14],"categories_nodes":[1,5,21,23,25,38,53,61,86],"categories_segments":[0,4,8,15,17,19,20,21,25],"categories_sizes":[4,4,7,2,2,1,1,4,13],"default_left":[0,1,0,0,0,1,0,0,0,0,0,1,0,1,1,0,0,0,0,0,0,1,0,1,0,1,0,0,0,0,0,0,0,0,0,0,1,0,1,0,0,0,0,1,0,0,0,0,0,0,0,0,0,1,1,0,0,0,0,0,0,1,0,0,0,0,0,0,0,0,0,0,0,0,0,0,0,0,0,0,0,0,0,0,0,0,1,0,0,0,0,0,0,0,0,0,0,0,0,0,0,0,0,0,0,0,0],"id":4,"left_children":[1,3,-1,5,7,9,11,13,15,17,19,21,-1,23,25,-1,-1,27,29,31,33,35,37,39,41,43,-1,45,47,-1,-1,49,-1,-1,-1,51,53,-1,55,57,59,-1,-1,61,-1,-1,-1,63,65,-1,67,-1,69,71,73,-1,-1,-1,75,77,-1,79,81,-1,-1,-1,83,-1,-1,-1,-1,85,-1,87,-1,-1,89,91,-1,93,95,-1,97,-1,-1,99,101,103,-1,-1,-1,-1,-1,-1,-1,105,-1,-1,-1,-1,-1,-1,-1,-1,-1,-1,-1],"loss_changes":[2.6088881E5,1.2069084E5,0E0,4.948168E4,4.035515E4,2.1240984E4,2.9185977E4,1.1366758E4,7.598711E2,2.233747E3,6.444377E3,1.4785273E4,0E0,5.7725137E3,9.4825E3,0E0,0E0,7.263178E2,1.7801172E2,9.239527E1,1.0313516E3,5.9840664E3,7.688584E2,2.2612183E3,1.6926631E3,5.7738125E3,0E0,4.581299E0,2.5014954E2,0E0,0E0,9.896889E0,0E0,0E0,0E0,3.285287E3,4.7805273E3,0E0,2.709906E1,8.3642914E2,5.7357275E2,0E0,0E0,3.5342578E3,0E0,0E0,0E0,7.748959E1,3.1335861E1,0E0,3.3988953E-3,0E0,5.2563525E2,4.595535E3,4.3605176E2,0E0,0E0,0E0,5.0503254E1,5.965149E1,0E0,1.5633086E3,8.617412E2,0E0,0E0,0E0,1.2017822E-1,0E0,0E0,0E0,0E0,1.4182383E3,0E0,6.430406E1,0E0,0E0,2.889717E0,6.096649E-1,0E0,1.4606812E1,3.696328E2,0E0,4.7895996E1,0E0,0E0,9.643379E2,1.4199453E3,3.4236717E-1,0E0,0E0,0E0,0E0,0E0,0E0,0E0,4.1263672E2,0E0,0E0,0E0,0E0,0E0,0E0,0E0,0E0,0E0,0E0,0E0],"parents":[2147483647,0,0,1,1,3,3,4,4,5,5,6,6,7,7,8,8,9,9,10,10,11,11,13,13,14,14,17,17,18,18,19,19,20,20,21,21,22,22,23,23,24,24,25,25,27,27,28,28,31,31,35,35,36,36,38,38,39,39,40,40,43,43,47,47,48,48,50,50,52,52,53,53,54,54,58,58,59,59,61,61,62,62,66,66,71,71,73,73,76,76,77,77,79,79,80,80,82,82,85,85,86,86,87,87,95,95],"right_children":[2,4,-1,6,8,10,12,14,16,18,20,22,-1,24,26,-1,-1,28,30,32,34,36,38,40,42,44,-1,46,48,-1,-1,50,-1,-1,-1,52,54,-1,56,58,60,-1,-1,62,-1,-1,-1,64,66,-1,68,-1,70,72,74,-1,-1,-1,76,78,-1,80,82,-1,-1,-1,84,-1,-1,-1,-1,86,-1,88,-1,-1,90,92,-1,94,96,-1,98,-1,-1,100,102,104,-1,-1,-1,-1,-1,-1,-1,106,-1,-1,-1,-1,-1,-1,-1,-1,-1,-1,-1],"split_conditions":[1.0267E3,1E-45,8.260202E-1,3.2E1,4.8000008E1,1E-45,9.3E1,1.9E2,6E0,1.7E2,1.0056E3,2.2E1,7.532015E-1,3.99E1,3.9E1,2.41923E-1,4.935596E-1,6E0,1E1,1.5E1,4.1E1,1E-45,2.8E1,1E-45,1.7E1,1E-45,-5.6962407E-1,1.2E1,1.5E1,1.06615685E-1,2.2243905E-1,7E0,-4.941454E-2,-1.7312503E-1,-2.5686017E-1,7.1E1,2.2E1,-1.3050446E-1,1E-45,1E1,3.3E1,-2.5173566E-1,-4.9256895E-2,8E1,-2.5358945E-1,6.299685E-2,1.0105036E-1,6E0,7E0,3.9047676E-3,2.4E1,3.075323E-1,1.3E1,1E-45,2.2E2,-3.2803286E-2,-5.9846103E-2,9.851386E-2,1.0167E3,1.6E2,-1.3151217E-1,1E-45,1E1,5.609985E-2,1.27055235E-2,-2.6055034E-3,1.6E1,-7.4509536E-3,-1.3181981E-2,7.667283E-2,1.8024383E-1,4.4E1,-1.4219147E-1,1.3E1,-9.6253134E-2,-2.784075E-2,1.3E1,1.7E1,-6.0454745E-2,2.6E1,2.3E1,2.2238463E-2,2.3E1,-2.05484E-2,-3.6470905E-2,8.6E1,1E-45,1E1,-2.7357394E-2,9.971008E-3,4.370553E-4,-3.3200465E-2,-1.8315429E-2,-1.1143585E-1,-6.768E-2,1.0620001E2,-1.1960234E-1,-7.031994E-2,-1.09643035E-1,1.00241706E-1,1.5841344E-1,1.8260567E-1,7.524427E-2,1.260001E-2,6.458217E-3,-1.4540175E-1,-2.0767356E-1],"split_indices":[39,22,0,28,25,94,11,29,0,4,14,51,0,9,37,0,0,25,2,0,33,97,7,94,0,93,0,3,3,0,0,0,0,0,0,36,76,0,24,0,1,0,0,78,0,0,0,0,0,0,1,0,0,22,4,0,0,0,14,4,0,94,0,0,0,0,0,0,0,0,0,62,0,0,0,0,0,0,0,1,75,0,1,0,0,86,24,0,0,0,0,0,0,0,0,34,0,0,0,0,0,0,0,0,0,0,0],"split_type":[0,1,0,0,0,1,0,0,0,0,0,0,0,0,0,0,0,0,0,0,0,1,0,1,0,1,0,0,0,0,0,0,0,0,0,0,0,0,1,0,0,0,0,0,0,0,0,0,0,0,0,0,0,1,0,0,0,0,0,0,0,1,0,0,0,0,0,0,0,0,0,0,0,0,0,0,0,0,0,0,0,0,0,0,0,0,1,0,0,0,0,0,0,0,0,0,0,0,0,0,0,0,0,0,0,0,0],"sum_hessian":[1.14E3,1.104E3,3.6E1,6.6E2,4.44E2,1.8E2,4.8E2,4.32E2,1.2E1,6.6E1,1.14E2,4.74E2,6E0,9.6E1,3.36E2,6E0,6E0,5.4E1,1.2E1,2.4E1,9E1,4.26E2,4.8E1,7.2E1,2.4E1,3.3E2,6E0,1.8E1,3.6E1,6E0,6E0,1.8E1,6E0,6E1,3E1,4.8E1,3.78E2,1.2E1,3.6E1,3E1,4.2E1,1.8E1,6E0,2.28E2,1.02E2,1.2E1,6E0,1.8E1,1.8E1,6E0,1.2E1,2.4E1,2.4E1,3.54E2,2.4E1,3E1,6E0,1.2E1,1.8E1,3E1,1.2E1,1.74E2,5.4E1,6E0,1.2E1,6E0,1.2E1,6E0,6E0,1.2E1,1.2E1,3.48E2,6E0,1.8E1,6E0,6E0,1.2E1,1.2E1,1.8E1,1.8E1,1.56E2,6E0,4.8E1,6E0,6E0,2.7E2,7.8E1,1.2E1,6E0,6E0,6E0,6E0,6E0,6E0,1.2E1,1.44E2,1.2E1,1.2E1,3.6E1,2.34E2,3.6E1,6E1,1.8E1,6E0,6E0,2.4E1,1.2E2],"tree_param":{"num_deleted":"0","num_feature":"100","num_nodes":"107","size_leaf_vector":"1"}},{"base_weights":[3.689551E-3,-2.7351387E0,8.179832E-1,5.7550974E0,-1.5340332E1,-8.21319E0,1.0999391E1,-1.6944279E1,3.9263462E1,5.873901E0,-1.6349033E1,1.0037863E1,7.467455E-1,-7.3410187E0,-1.9658142E1,2.3984945E-1,4.893291E-1,3.0034084E0,1.7566454E1,-1.8361243E0,-2.0156435E1,1.1893007E1,-6.333246E0,-2.7962756E0,-2.031803E1,-1.8820166E1,-5.647417E-1,7.961529E0,3.7617368E-1,1.0570173E-1,2.2053239E-1,-6.1101973E-1,-4.8991043E-2,-1.7142215E-1,-2.5437436E-1,2.2293043E1,1.0517032E1,-1.2929991E-1,-3.8443027E0,3.7028248E0,-7.4166436E0,-2.4935073E-1,-4.8834708E-2,-1.5909915E1,-2.5107807E-1,6.2415417E-2,1.0018428E-1,2.910431E0,-2.1778822E0,3.8712856E-3,-1.1014826E0,3.045801E-1,1.3236356E1,1.1432435E1,-2.902379E0,-3.2485805E-2,-5.9333146E-2,9.760453E-2,-6.367541E-1,-4.8234797E0,-1.3029832E-1,-1.8094286E1,-8.670375E0,5.5619072E-2,1.2588336E-2,-2.5832695E-3,-3.0439594E0,-7.387128E-3,-1.3068979E-2,7.5965196E-2,1.785801E-1,1.1911735E1,-1.4097276E-1,-3.0314717E-1,-9.542811E-2,-2.760219E-2,5.556312E-1,-2.7501574E0,-5.988201E-2,-8.658323E0,-1.9120966E1,2.2047771E-2,-1.0047021E1,-2.0372357E-2,-3.6158316E-2,1.2899256E1,7.562777E0,1.0174091E0,-2.712302E-2,9.885472E-3,4.3339317E-4,-3.2915864E-2,-1.8158482E-2,-1.1048056E-1,-6.7055196E-2,-2.1942785E-1,-1.742853E1,-6.96709E-2,-1.0857618E-1,1.1586351E-1,1.6517386E-1,8.941049E-2,3.610242E-2,1.2491978E-2,6.4027626E-3,-1.3836855E-1,-1.9674651E-1],"categories":[2,3,4,9,0,1,2,4,0,2,3,4,5,6,7,2,3,0,3,14,1,0,1,3,4,0,1,2,3,5,6,8,10,12,13,14,15,0,6,9,13],"categories_nodes":[1,5,21,23,25,38,53,61,71,96],"categories_segments":[0,4,8,15,17,19,20,21,25,37],"categories_sizes":[4,4,7,2,2,1,1,4,12,4],"default_left":[0,1,0,0,0,1,0,0,0,0,0,1,0,1,1,0,0,0,0,0,0,1,0,1,0,1,0,0,0,0,0,0,0,0,0,0,1,0,1,0,0,0,0,1,0,0,0,0,0,0,0,0,0,1,1,0,0,0,0,0,0,1,0,0,0,0,0,0,0,0,0,1,0,0,0,0,0,0,0,0,1,0,0,0,0,0,0,0,0,0,0,0,0,0,0,0,1,0,0,0,0,0,0,0,0,0,0],"id":5,"left_children":[1,3,-1,5,7,9,11,13,15,17,19,21,-1,23,25,-1,-1,27,29,31,33,35,37,39,41,43,-1,45,47,-1,-1,49,-1,-1,-1,51,53,-1,55,57,59,-1,-1,61,-1,-1,-1,63,65,-1,67,-1,69,71,73,-1,-1,-1,75,77,-1,79,81,-1,-1,-1,83,-1,-1,-1,-1,85,-1,87,-1,-1,89,91,-1,93,95,-1,97,-1,-1,99,101,103,-1,-1,-1,-1,-1,-1,-1,-1,105,-1,-1,-1,-1,-1,-1,-1,-1,-1,-1],"loss_changes":[2.558322E5,1.1834657E5,0E0,4.85111E4,3.9639086E4,2.0840508E4,2.8699852E4,1.1140516E4,7.469004E2,2.1959873E3,6.3174883E3,1.4501434E4,0E0,5.6639717E3,9.33393E3,0E0,0E0,7.134431E2,1.7497412E2,9.081832E1,1.0124883E3,5.875996E3,7.5482043E2,2.219524E3,1.6597832E3,5.657375E3,0E0,4.6884766E0,2.4582603E2,0E0,0E0,9.727957E0,0E0,0E0,0E0,3.2202754E3,4.688883E3,0E0,2.6770569E1,8.211293E2,5.630554E2,0E0,0E0,3.4644883E3,0E0,0E0,0E0,7.620274E1,3.0800842E1,0E0,3.3159256E-3,0E0,5.159756E2,4.51184E3,4.2860782E2,0E0,0E0,0E0,4.9641445E1,5.83916E1,0E0,1.5297969E3,8.455698E2,0E0,0E0,0E0,1.1802673E-1,0E0,0E0,0E0,0E0,1.4012891E3,0E0,6.3206585E1,0E0,0E0,2.840289E0,5.9918976E-1,0E0,1.4583862E1,3.6735938E2,0E0,4.6686523E1,0E0,0E0,1.1529492E3,3.3271436E2,3.3656502E-1,0E0,0E0,0E0,0E0,0E0,0E0,0E0,0E0,5.587012E2,0E0,0E0,0E0,0E0,0E0,0E0,0E0,0E0,0E0,0E0],"parents":[2147483647,0,0,1,1,3,3,4,4,5,5,6,6,7,7,8,8,9,9,10,10,11,11,13,13,14,14,17,17,18,18,19,19,20,20,21,21,22,22,23,23,24,24,25,25,27,27,28,28,31,31,35,35,36,36,38,38,39,39,40,40,43,43,47,47,48,48,50,50,52,52,53,53,54,54,58,58,59,59,61,61,62,62,66,66,71,71,73,73,76,76,77,77,79,79,80,80,82,82,85,85,86,86,87,87,96,96],"right_children":[2,4,-1,6,8,10,12,14,16,18,20,22,-1,24,26,-1,-1,28,30,32,34,36,38,40,42,44,-1,46,48,-1,-1,50,-1,-1,-1,52,54,-1,56,58,60,-1,-1,62,-1,-1,-1,64,66,-1,68,-1,70,72,74,-1,-1,-1,76,78,-1,80,82,-1,-1,-1,84,-1,-1,-1,-1,86,-1,88,-1,-1,90,92,-1,94,96,-1,98,-1,-1,100,102,104,-1,-1,-1,-1,-1,-1,-1,-1,106,-1,-1,-1,-1,-1,-1,-1,-1,-1,-1],"split_conditions":[1.0267E3,1E-45,8.179832E-1,3.2E1,4.8000008E1,1E-45,9.3E1,1.9E2,6E0,1.7E2,1.0056E3,2.2E1,7.467455E-1,3.99E1,3.9E1,2.3984945E-1,4.893291E-1,6E0,1E1,1.5E1,4.1E1,1E-45,2.8E1,1E-45,1.7E1,1E-45,-5.647417E-1,1.2E1,1.5E1,1.0570173E-1,2.2053239E-1,7E0,-4.8991043E-2,-1.7142215E-1,-2.5437436E-1,7.1E1,2.2E1,-1.2929991E-1,1E-45,1E1,3.3E1,-2.4935073E-1,-4.8834708E-2,8E1,-2.5107807E-1,6.2415417E-2,1.0018428E-1,6E0,7E0,3.8712856E-3,2.4E1,3.045801E-1,1.3E1,1E-45,2.2E2,-3.2485805E-2,-5.9333146E-2,9.760453E-2,1.0167E3,1.6E2,-1.3029832E-1,1E-45,1E1,5.5619072E-2,1.2588336E-2,-2.5832695E-3,1.6E1,-7.387128E-3,-1.3068979E-2,7.5965196E-2,1.785801E-1,1E-45,-1.4097276E-1,1.3E1,-9.542811E-2,-2.760219E-2,1.3E1,1.7E1,-5.988201E-2,2.6E1,1.1E1,2.2047771E-2,2.3E1,-2.0372357E-2,-3.6158316E-2,4.4E1,1.2E1,1E1,-2.712302E-2,9.885472E-3,4.3339317E-4,-3.2915864E-2,-1.8158482E-2,-1.1048056E-1,-6.7055196E-2,-2.1942785E-1,1E-45,-6.96709E-2,-1.0857618E-1,1.1586351E-1,1.6517386E-1,8.941049E-2,3.610242E-2,1.2491978E-2,6.4027626E-3,-1.3836855E-1,-1.9674651E-1],"split_indices":[39,22,0,28,25,94,11,29,0,4,14,51,0,9,37,0,0,25,2,0,33,97,7,94,0,93,0,3,3,0,0,0,0,0,0,36,76,0,24,0,1,0,0,78,0,0,0,0,0,0,1,0,0,22,4,0,0,0,14,4,0,94,0,0,0,0,0,0,0,0,0,99,0,0,0,0,0,0,0,1,87,0,1,0,0,62,25,0,0,0,0,0,0,0,0,0,99,0,0,0,0,0,0,0,0,0,0],"split_type":[0,1,0,0,0,1,0,0,0,0,0,0,0,0,0,0,0,0,0,0,0,1,0,1,0,1,0,0,0,0,0,0,0,0,0,0,0,0,1,0,0,0,0,0,0,0,0,0,0,0,0,0,0,1,0,0,0,0,0,0,0,1,0,0,0,0,0,0,0,0,0,1,0,0,0,0,0,0,0,0,0,0,0,0,0,0,0,0,0,0,0,0,0,0,0,0,1,0,0,0,0,0,0,0,0,0,0],"sum_hessian":[1.14E3,1.104E3,3.6E1,6.6E2,4.44E2,1.8E2,4.8E2,4.32E2,1.2E1,6.6E1,1.14E2,4.74E2,6E0,9.6E1,3.36E2,6E0,6E0,5.4E1,1.2E1,2.4E1,9E1,4.26E2,4.8E1,7.2E1,2.4E1,3.3E2,6E0,1.8E1,3.6E1,6E0,6E0,1.8E1,6E0,6E1,3E1,4.8E1,3.78E2,1.2E1,3.6E1,3E1,4.2E1,1.8E1,6E0,2.28E2,1.02E2,1.2E1,6E0,1.8E1,1.8E1,6E0,1.2E1,2.4E1,2.4E1,3.54E2,2.4E1,3E1,6E0,1.2E1,1.8E1,3E1,1.2E1,1.74E2,5.4E1,6E0,1.2E1,6E0,1.2E1,6E0,6E0,1.2E1,1.2E1,3.48E2,6E0,1.8E1,6E0,6E0,1.2E1,1.2E1,1.8E1,1.8E1,1.56E2,6E0,4.8E1,6E0,6E0,2.82E2,6.6E1,1.2E1,6E0,6E0,6E0,6E0,6E0,6E0,1.2E1,5.4E1,1.02E2,1.2E1,3.6E1,2.1E2,7.2E1,4.8E1,1.8E1,6E0,6E0,4.2E1,6E1],"tree_param":{"num_deleted":"0","num_feature":"100","num_nodes":"107","size_leaf_vector":"1"}},{"base_weights":[4.207895E-3,-2.707954E0,8.100244E-1,5.699439E0,-1.5190153E1,-8.131024E0,1.0891985E1,-1.6779835E1,3.8926926E1,5.8225985E0,-1.6189821E1,9.938533E0,7.403449E-1,-7.2723393E0,-1.9466621E1,2.3779371E-1,4.8513493E-1,2.976502E0,1.7415884E1,-1.8203919E0,-1.9959557E1,1.1775763E1,-6.274436E0,-2.7705154E0,-2.0126772E1,-1.863541E1,-5.599012E-1,7.890474E0,3.72665E-1,1.0479561E-1,2.1864223E-1,-6.057868E-1,-4.857121E-2,-1.6973607E-1,-2.5191277E-1,2.208153E1,1.0412284E1,-1.2810634E-1,-3.8083546E0,3.668389E0,-7.3480854E0,-2.4698839E-1,-4.841618E-2,-1.5754696E1,-2.4859177E-1,6.1839342E-2,9.9325515E-2,2.8849213E0,-2.1592054E0,3.8380648E-3,-1.0920457E0,3.0165625E-1,1.3114174E1,1.1318853E1,-2.8774989E0,-2.9624488E-2,-5.142146E-2,9.670365E-2,-6.312995E-1,-4.7788253E0,-1.2909545E-1,-1.7917528E1,-8.586506E0,5.514221E-2,1.2472276E-2,-2.561035E-3,-3.01786E0,-7.323826E-3,-1.2957022E-2,7.5264044E-2,1.7693159E-1,1.17937765E1,-1.3976453E-1,-3.0054513E-1,-9.4610155E-2,-2.7365722E-2,5.508705E-1,-2.726579E0,-5.9314765E-2,-8.581092E0,-1.8933292E1,2.1858914E-2,-9.950185E0,-2.0197622E-2,-3.5848346E-2,1.2771251E1,7.4890184E0,1.0086905E0,-2.6890475E-2,9.80072E-3,4.2973107E-4,-3.2633625E-2,-1.8002842E-2,-1.0953364E-1,-6.64363E-2,-2.1727353E-1,-1.7257498E1,-6.902778E-2,-1.0751971E-1,1.1471025E-1,1.6354486E-1,8.853458E-2,3.5760403E-2,1.2384993E-2,6.347831E-3,-1.3701706E-1,-1.948113E-1],"categories":[2,3,4,9,0,1,2,4,0,2,3,4,5,6,7,2,3,0,3,1,0,1,3,4,0,1,2,3,5,6,8,10,12,13,14,15,0,6,9,13],"categories_nodes":[1,5,21,23,25,53,61,71,96],"categories_segments":[0,4,8,15,17,19,20,24,36],"categories_sizes":[4,4,7,2,2,1,4,12,4],"default_left":[0,1,0,0,0,1,0,0,0,0,0,1,0,1,1,0,0,0,0,0,0,1,0,1,0,1,0,0,0,0,0,0,0,0,0,0,1,0,1,0,0,0,0,1,0,0,0,0,0,0,0,0,0,1,1,0,0,0,0,0,0,1,0,0,0,0,0,0,0,0,0,1,0,0,0,0,0,0,0,0,1,0,0,0,0,0,0,0,0,0,0,0,0,0,0,0,1,0,0,0,0,0,0,0,0,0,0],"id":6,"left_children":[1,3,-1,5,7,9,11,13,15,17,19,21,-1,23,25,-1,-1,27,29,31,33,35,37,39,41,43,-1,45,47,-1,-1,49,-1,-1,-1,51,53,-1,55,57,59,-1,-1,61,-1,-1,-1,63,65,-1,67,-1,69,71,73,-1,-1,-1,75,77,-1,79,81,-1,-1,-1,83,-1,-1,-1,-1,85,-1,87,-1,-1,89,91,-1,93,95,-1,97,-1,-1,99,101,103,-1,-1,-1,-1,-1,-1,-1,-1,105,-1,-1,-1,-1,-1,-1,-1,-1,-1,-1],"loss_changes":[2.508746E5,1.1604832E5,0E0,4.7558484E4,3.8936047E4,2.0447613E4,2.8222008E4,1.0919258E4,7.3414844E2,2.1588674E3,6.1930938E3,1.4222684E4,0E0,5.557472E3,9.1875E3,0E0,0E0,7.0079456E2,1.7198926E2,8.926829E1,9.939844E2,5.7701562E3,7.4103357E2,2.178597E3,1.6275371E3,5.5428125E3,0E0,4.7905273E0,2.4157532E2,0E0,0E0,9.561909E0,0E0,0E0,0E0,3.1565586E3,4.5988086E3,0E0,2.651239E1,8.061105E2,5.527278E2,0E0,0E0,3.3964727E3,0E0,0E0,0E0,7.493628E1,3.0275146E1,0E0,3.2701492E-3,0E0,5.064922E2,4.4295703E3,4.21292E2,0E0,0E0,0E0,4.879451E1,5.715863E1,0E0,1.4971641E3,8.297051E2,0E0,0E0,0E0,1.16127014E-1,0E0,0E0,0E0,0E0,1.372875E3,0E0,6.2127556E1,0E0,0E0,2.7917578E0,5.888748E-1,0E0,1.4557495E1,3.6015625E2,0E0,4.5506836E1,0E0,0E0,1.1308984E3,3.2605444E2,3.3087444E-1,0E0,0E0,0E0,0E0,0E0,0E0,0E0,0E0,5.4747266E2,0E0,0E0,0E0,0E0,0E0,0E0,0E0,0E0,0E0,0E0],"parents":[2147483647,0,0,1,1,3,3,4,4,5,5,6,6,7,7,8,8,9,9,10,10,11,11,13,13,14,14,17,17,18,18,19,19,20,20,21,21,22,22,23,23,24,24,25,25,27,27,28,28,31,31,35,35,36,36,38,38,39,39,40,40,43,43,47,47,48,48,50,50,52,52,53,53,54,54,58,58,59,59,61,61,62,62,66,66,71,71,73,73,76,76,77,77,79,79,80,80,82,82,85,85,86,86,87,87,96,96],"right_children":[2,4,-1,6,8,10,12,14,16,18,20,22,-1,24,26,-1,-1,28,30,32,34,36,38,40,42,44,-1,46,48,-1,-1,50,-1,-1,-1,52,54,-1,56,58,60,-1,-1,62,-1,-1,-1,64,66,-1,68,-1,70,72,74,-1,-1,-1,76,78,-1,80,82,-1,-1,-1,84,-1,-1,-1,-1,86,-1,88,-1,-1,90,92,-1,94,96,-1,98,-1,-1,100,102,104,-1,-1,-1,-1,-1,-1,-1,-1,106,-1,-1,-1,-1,-1,-1,-1,-1,-1,-1],"split_conditions":[1.0267E3,1E-45,8.100244E-1,3.2E1,4.8000008E1,1E-45,9.3E1,1.9E2,6E0,1.7E2,1.0056E3,2.2E1,7.403449E-1,3.99E1,3.9E1,2.3779371E-1,4.8513493E-1,6E0,1E1,1.5E1,4.1E1,1E-45,2.8E1,1E-45,1.7E1,1E-45,-5.599012E-1,1.2E1,1.5E1,1.0479561E-1,2.1864223E-1,7E0,-4.857121E-2,-1.6973607E-1,-2.5191277E-1,7.1E1,2.2E1,-1.2810634E-1,2E2,1E1,3.3E1,-2.4698839E-1,-4.841618E-2,8E1,-2.4859177E-1,6.1839342E-2,9.9325515E-2,6E0,7E0,3.8380648E-3,2.4E1,3.0165625E-1,1.3E1,1E-45,2.2E2,-2.9624488E-2,-5.142146E-2,9.670365E-2,1.0167E3,1.6E2,-1.2909545E-1,1E-45,1E1,5.514221E-2,1.2472276E-2,-2.561035E-3,1.6E1,-7.323826E-3,-1.2957022E-2,7.5264044E-2,1.7693159E-1,1E-45,-1.3976453E-1,1.3E1,-9.4610155E-2,-2.7365722E-2,1.3E1,1.7E1,-5.9314765E-2,2.6E1,1.1E1,2.1858914E-2,2.3E1,-2.0197622E-2,-3.5848346E-2,4.4E1,1.2E1,1E1,-2.6890475E-2,9.80072E-3,4.2973107E-4,-3.2633625E-2,-1.8002842E-2,-1.0953364E-1,-6.64363E-2,-2.1727353E-1,1E-45,-6.902778E-2,-1.0751971E-1,1.1471025E-1,1.6354486E-1,8.853458E-2,3.5760403E-2,1.2384993E-2,6.347831E-3,-1.3701706E-1,-1.948113E-1],"split_indices":[39,22,0,28,25,94,11,29,0,4,14,51,0,9,37,0,0,25,2,0,33,97,7,94,0,93,0,3,3,0,0,0,0,0,0,36,76,0,4,0,1,0,0,78,0,0,0,0,0,0,1,0,0,22,4,0,0,0,14,4,0,94,0,0,0,0,0,0,0,0,0,99,0,0,0,0,0,0,0,1,87,0,1,0,0,62,25,0,0,0,0,0,0,0,0,0,99,0,0,0,0,0,0,0,0,0,0],"split_type":[0,1,0,0,0,1,0,0,0,0,0,0,0,0,0,0,0,0,0,0,0,1,0,1,0,1,0,0,0,0,0,0,0,0,0,0,0,0,0,0,0,0,0,0,0,0,0,0,0,0,0,0,0,1,0,0,0,0,0,0,0,1,0,0,0,0,0,0,0,0,0,1,0,0,0,0,0,0,0,0,0,0,0,0,0,0,0,0,0,0,0,0,0,0,0,0,1,0,0,0,0,0,0,0,0,0,0],"sum_hessian":[1.14E3,1.104E3,3.6E1,6.6E2,4.44E2,1.8E2,4.8E2,4.32E2,1.2E1,6.6E1,1.14E2,4.74E2,6E0,9.6E1,3.36E2,6E0,6E0,5.4E1,1.2E1,2.4E1,9E1,4.26E2,4.8E1,7.2E1,2.4E1,3.3E2,6E0,1.8E1,3.6E1,6E0,6E0,1.8E1,6E0,6E1,3E1,4.8E1,3.78E2,1.2E1,3.6E1,3E1,4.2E1,1.8E1,6E0,2.28E2,1.02E2,1.2E1,6E0,1.8E1,1.8E1,6E0,1.2E1,2.4E1,2.4E1,3.54E2,2.4E1,2.4E1,1.2E1,1.2E1,1.8E1,3E1,1.2E1,1.74E2,5.4E1,6E0,1.2E1,6E0,1.2E1,6E0,6E0,1.2E1,1.2E1,3.48E2,6E0,1.8E1,6E0,6E0,1.2E1,1.2E1,1.8E1,1.8E1,1.56E2,6E0,4.8E1,6E0,6E0,2.82E2,6.6E1,1.2E1,6E0,6E0,6E0,6E0,6E0,6E0,1.2E1,5.4E1,1.02E2,1.2E1,3.6E1,2.1E2,7.2E1,4.8E1,1.8E1,6E0,6E0,4.2E1,6E1],"tree_param":{"num_deleted":"0","num_feature":"100","num_nodes":"107","size_leaf_vector":"1"}},{"base_weights":[4.7296095E-3,-2.681025E0,8.02143E-1,5.644338E0,-1.5041439E1,-8.049672E0,1.0785651E1,-1.6616982E1,3.8593266E1,5.771742E0,-1.603215E1,9.840208E0,7.33999E-1,-7.204305E0,-1.9276958E1,2.3575547E-1,4.8097658E-1,2.949832E0,1.7266611E1,-1.8047839E0,-1.976459E1,1.1659674E1,-6.2159543E0,-2.7449934E0,-1.9937323E1,-1.845246E1,-5.5510193E-1,7.8200555E0,3.6918104E-1,1.0389735E-1,2.1676828E-1,-6.005924E-1,-4.815478E-2,-1.7195737E-1,-2.5858527E-1,2.1872013E1,1.030858E1,-1.2692375E-1,-3.772456E0,3.6342723E0,-7.280162E0,-2.4464859E-1,-4.8001055E-2,-1.5600985E1,-2.4612994E-1,6.1268613E-2,9.847407E-2,2.859624E0,-2.1406925E0,3.8051058E-3,-1.0826792E0,2.9876026E1,1.2993119E1,1.1206403E1,-2.852838E0,-3.184263E-2,-5.8383875E-2,9.581094E-2,-6.258834E-1,-4.7345786E0,-1.2790386E-1,-1.7742487E1,-8.503456E0,5.4669537E-2,1.2357061E-2,-2.5390624E-3,-2.9919856E0,-7.261047E-3,-1.2845851E-2,3.222627E-1,1.9228786E-1,7.4569374E-2,1.7529829E-1,1.167699E1,-1.385665E-1,-2.9797202E-1,-9.379926E-2,-2.7131084E-2,5.46152E-1,-2.7032118E0,-5.875273E-2,-8.504544E0,-1.8747446E1,2.1671621E-2,-9.85429E0,-2.0024456E-2,-3.5540987E-2,1.2644518E1,7.4159837E0,1.0000422E0,-2.6660025E-2,9.716753E-3,4.2606896E-4,-3.2353994E-2,-1.784851E-2,-1.08594835E-1,-6.582303E-2,-2.1514018E-1,-1.7088135E1,-6.839057E-2,-1.0647363E-1,1.1356853E-1,1.6193184E-1,8.766733E-2,3.5421558E-2,1.22787915E-2,6.2934216E-3,-1.356787E-1,-1.9289501E-1],"categories":[2,3,4,9,0,1,2,4,0,2,3,4,5,6,7,2,3,0,3,14,1,0,1,3,4,0,1,2,3,5,6,8,10,12,13,14,15,0,6,9,13],"categories_nodes":[1,5,21,23,25,38,53,61,73,98],"categories_segments":[0,4,8,15,17,19,20,21,25,37],"categories_sizes":[4,4,7,2,2,1,1,4,12,4],"default_left":[0,1,0,0,0,1,0,0,0,0,0,1,0,1,1,0,0,0,0,0,0,1,0,1,0,1,0,0,0,0,0,0,0,0,0,0,1,0,1,0,0,0,0,1,0,0,0,0,0,0,0,0,0,1,1,0,0,0,0,0,0,1,0,0,0,0,0,0,0,0,0,0,0,1,0,0,0,0,0,0,0,0,1,0,0,0,0,0,0,0,0,0,0,0,0,0,0,0,1,0,0,0,0,0,0,0,0,0,0],"id":7,"left_children":[1,3,-1,5,7,9,11,13,15,17,19,21,-1,23,25,-1,-1,27,29,31,33,35,37,39,41,43,-1,45,47,-1,-1,49,-1,-1,-1,51,53,-1,55,57,59,-1,-1,61,-1,-1,-1,63,65,-1,67,69,71,73,75,-1,-1,-1,77,79,-1,81,83,-1,-1,-1,85,-1,-1,-1,-1,-1,-1,87,-1,89,-1,-1,91,93,-1,95,97,-1,99,-1,-1,101,103,105,-1,-1,-1,-1,-1,-1,-1,-1,107,-1,-1,-1,-1,-1,-1,-1,-1,-1,-1],"loss_changes":[2.4601297E5,1.1379486E5,0E0,4.6624645E4,3.824546E4,2.0062105E4,2.7752066E4,1.0702367E4,7.216172E2,2.122378E3,6.0711523E3,1.3948949E4,0E0,5.4529795E3,9.043344E3,0E0,0E0,6.88372E2,1.6905396E2,8.774416E1,9.7989453E2,5.6661953E3,7.275499E2,2.1384246E3,1.5959238E3,5.4305547E3,0E0,4.8876953E0,2.3739734E2,0E0,0E0,9.398531E0,0E0,0E0,0E0,3.0940918E3,4.5104688E3,0E0,2.6370178E1,7.913627E2,5.425923E2,0E0,0E0,3.3297812E3,0E0,0E0,0E0,7.3692154E1,2.9758278E1,0E0,3.1843185E-3,5.9160156E0,4.9718262E2,4.348801E3,4.1410098E2,0E0,0E0,0E0,4.7961502E1,5.5950073E1,0E0,1.4652188E3,8.141382E2,0E0,0E0,0E0,1.1413574E-1,0E0,0E0,0E0,0E0,0E0,0E0,1.3450312E3,0E0,6.1067127E1,0E0,0E0,2.744112E0,5.789108E-1,0E0,1.4528076E1,3.5309375E2,0E0,4.435547E1,0E0,0E0,1.1092578E3,3.195293E2,3.2521248E-1,0E0,0E0,0E0,0E0,0E0,0E0,0E0,0E0,5.3646875E2,0E0,0E0,0E0,0E0,0E0,0E0,0E0,0E0,0E0,0E0],"parents":[2147483647,0,0,1,1,3,3,4,4,5,5,6,6,7,7,8,8,9,9,10,10,11,11,13,13,14,14,17,17,18,18,19,19,20,20,21,21,22,22,23,23,24,24,25,25,27,27,28,28,31,31,35,35,36,36,38,38,39,39,40,40,43,43,47,47,48,48,50,50,51,51,52,52,53,53,54,54,58,58,59,59,61,61,62,62,66,66,73,73,75,75,78,78,79,79,81,81,82,82,84,84,87,87,88,88,89,89,98,98],"right_children":[2,4,-1,6,8,10,12,14,16,18,20,22,-1,24,26,-1,-1,28,30,32,34,36,38,40,42,44,-1,46,48,-1,-1,50,-1,-1,-1,52,54,-1,56,58,60,-1,-1,62,-1,-1,-1,64,66,-1,68,70,72,74,76,-1,-1,-1,78,80,-1,82,84,-1,-1,-1,86,-1,-1,-1,-1,-1,-1,88,-1,90,-1,-1,92,94,-1,96,98,-1,100,-1,-1,102,104,106,-1,-1,-1,-1,-1,-1,-1,-1,108,-1,-1,-1,-1,-1,-1,-1,-1,-1,-1],"split_conditions":[1.0267E3,1E-45,8.02143E-1,3.2E1,4.8000008E1,1E-45,9.3E1,1.9E2,6E0,1.7E2,1.0056E3,2.2E1,7.33999E-1,3.99E1,3.9E1,2.3575547E-1,4.8097658E-1,6E0,1E1,1.5E1,4.21E1,1E-45,2.8E1,1E-45,1.7E1,1E-45,-5.5510193E-1,1.2E1,1.5E1,1.0389735E-1,2.1676828E-1,7E0,-4.815478E-2,-1.7195737E-1,-2.5858527E-1,7.1E1,2.2E1,-1.2692375E-1,1E-45,1E1,3.3E1,-2.4464859E-1,-4.8001055E-2,8E1,-2.4612994E-1,6.1268613E-2,9.847407E-2,6E0,7E0,3.8051058E-3,2.4E1,9E0,1.3E1,1E-45,2.2E2,-3.184263E-2,-5.8383875E-2,9.581094E-2,1.0167E3,1.6E2,-1.2790386E-1,1E-45,1E1,5.4669537E-2,1.2357061E-2,-2.5390624E-3,1.6E1,-7.261047E-3,-1.2845851E-2,3.222627E-1,1.9228786E-1,7.4569374E-2,1.7529829E-1,1E-45,-1.385665E-1,1.3E1,-9.379926E-2,-2.7131084E-2,1.3E1,1.7E1,-5.875273E-2,2.6E1,1.1E1,2.1671621E-2,2.3E1,-2.0024456E-2,-3.5540987E-2,4.4E1,1.2E1,1E1,-2.6660025E-2,9.716753E-3,4.2606896E-4,-3.2353994E-2,-1.784851E-2,-1.08594835E-1,-6.582303E-2,-2.1514018E-1,1E-45,-6.839057E-2,-1.0647363E-1,1.1356853E-1,1.6193184E-1,8.766733E-2,3.5421558E-2,1.22787915E-2,6.2934216E-3,-1.356787E-1,-1.9289501E-1],"split_indices":[39,22,0,28,25,94,11,29,0,4,14,51,0,9,37,0,0,25,2,0,8,97,7,94,0,93,0,3,3,0,0,0,0,0,0,36,76,0,24,0,1,0,0,78,0,0,0,0,0,0,1,0,0,22,4,0,0,0,14,4,0,94,0,0,0,0,0,0,0,0,0,0,0,99,0,0,0,0,0,0,0,1,87,0,1,0,0,62,25,0,0,0,0,0,0,0,0,0,99,0,0,0,0,0,0,0,0,0,0],"split_type":[0,1,0,0,0,1,0,0,0,0,0,0,0,0,0,0,0,0,0,0,0,1,0,1,0,1,0,0,0,0,0,0,0,0,0,0,0,0,1,0,0,0,0,0,0,0,0,0,0,0,0,0,0,1,0,0,0,0,0,0,0,1,0,0,0,0,0,0,0,0,0,0,0,1,0,0,0,0,0,0,0,0,0,0,0,0,0,0,0,0,0,0,0,0,0,0,0,0,1,0,0,0,0,0,0,0,0,0,0],"sum_hessian":[1.14E3,1.104E3,3.6E1,6.6E2,4.44E2,1.8E2,4.8E2,4.32E2,1.2E1,6.6E1,1.14E2,4.74E2,6E0,9.6E1,3.36E2,6E0,6E0,5.4E1,1.2E1,2.4E1,9E1,4.26E2,4.8E1,7.2E1,2.4E1,3.3E2,6E0,1.8E1,3.6E1,6E0,6E0,1.8E1,6E0,6.6E1,2.4E1,4.8E1,3.78E2,1.2E1,3.6E1,3E1,4.2E1,1.8E1,6E0,2.28E2,1.02E2,1.2E1,6E0,1.8E1,1.8E1,6E0,1.2E1,2.4E1,2.4E1,3.54E2,2.4E1,3E1,6E0,1.2E1,1.8E1,3E1,1.2E1,1.74E2,5.4E1,6E0,1.2E1,6E0,1.2E1,6E0,6E0,1.8E1,6E0,1.2E1,1.2E1,3.48E2,6E0,1.8E1,6E0,6E0,1.2E1,1.2E1,1.8E1,1.8E1,1.56E2,6E0,4.8E1,6E0,6E0,2.82E2,6.6E1,1.2E1,6E0,6E0,6E0,6E0,6E0,6E0,1.2E1,5.4E1,1.02E2,1.2E1,3.6E1,2.1E2,7.2E1,4.8E1,1.8E1,6E0,6E0,4.2E1,6E1],"tree_param":{"num_deleted":"0","num_feature":"100","num_nodes":"109","size_leaf_vector":"1"}},{"base_weights":[5.4114806E-3,-2.6541874E0,7.943383E1,5.590068E0,-1.4894184E1,9.013206E-1,6.455487E-1,-7.9692054E0,1.0680792E1,-1.6455713E1,3.8262466E1,5.721325E0,-1.587613E1,9.743297E0,7.277075E-1,-7.136909E0,-1.9089151E1,2.3373477E-1,4.7685385E-1,2.923398E0,1.7118605E1,-1.7893152E0,-1.957167E1,1.1545244E1,-6.158235E0,-2.7197123E0,-1.9749647E1,-1.8271309E1,-5.503439E-1,7.7502537E0,3.6573172E-1,1.03006676E-1,2.1491027E-1,-5.954461E-1,-4.7742E-2,-1.7026338E-1,-2.5610295E-1,2.1668898E1,1.0205919E1,-1.2575217E-1,-3.737181E0,3.6004689E0,-7.212873E0,-2.4233077E-1,-4.7589593E-2,-1.5448774E1,-2.4369258E-1,6.070296E-2,9.762996E-2,2.8345578E0,-2.1223433E0,3.7724085E-3,-1.0733972E0,2.9597845E1,1.2873192E1,1.10950775E1,-2.8283753E0,-3.15346E-2,-5.7883475E-2,9.49264E-2,-6.205155E-1,-4.6907516E0,-1.2672326E-1,-1.756916E1,-8.421205E0,5.4201048E-2,1.2242971E-2,-2.5173514E-3,-2.9663367E0,-7.1987915E-3,-1.2735726E-2,3.1920967E-1,1.9063964E-1,7.388118E-2,1.736802E-1,1.1561369E1,-1.3737868E-1,-2.9540855E-1,-9.299517E-2,-2.689854E-2,5.414757E-1,-2.680042E0,-5.8196187E-2,-8.42868E0,-1.8563429E1,2.14859E-2,-9.759315E0,-1.985286E-2,-3.5236247E-2,1.2519056E1,7.343652E0,9.9147856E-1,-2.6431404E-2,9.633571E-3,4.2240685E-4,-3.207672E-2,-1.7695487E-2,-1.0766414E-1,-6.52154E-2,-1.9071333E1,-1.14703834E-1,-6.7759275E-2,-1.0543765E-1,1.1243835E-1,1.6033475E-1,8.680846E-2,3.5085898E-2,1.2173636E-2,6.2395367E-3,-1.16890274E-1,-1.9649516E-1],"categories":[2,3,4,9,0,1,2,3,4,7,8,9,0,1,2,4,0,2,3,4,5,6,7,2,3,0,3,14,1,0,1,3,4,0,1,2,3,5,6,8,10,12,13,14,15],"categories_nodes":[1,2,7,23,25,27,40,55,63,75],"categories_segments":[0,4,12,16,23,25,27,28,29,33],"categories_sizes":[4,8,4,7,2,2,1,1,4,12],"default_left":[0,1,1,0,0,0,0,1,0,0,0,0,0,1,0,1,1,0,0,0,0,0,0,1,0,1,0,1,0,0,0,0,0,0,0,0,0,0,1,0,1,0,0,0,0,1,0,0,0,0,0,0,0,0,0,1,1,0,0,0,0,0,0,1,0,0,0,0,0,0,0,0,0,0,0,1,0,0,0,0,0,0,0,0,0,0,0,0,0,0,0,0,0,0,0,0,0,0,0,0,0,0,0,0,0,0,0,0,0,0,0],"id":8,"left_children":[1,3,5,7,9,-1,-1,11,13,15,17,19,21,23,-1,25,27,-1,-1,29,31,33,35,37,39,41,43,45,-1,47,49,-1,-1,51,-1,-1,-1,53,55,-1,57,59,61,-1,-1,63,-1,-1,-1,65,67,-1,69,71,73,75,77,-1,-1,-1,79,81,-1,83,85,-1,-1,-1,87,-1,-1,-1,-1,-1,-1,89,-1,91,-1,-1,93,95,-1,97,99,-1,101,-1,-1,103,105,107,-1,-1,-1,-1,-1,-1,-1,109,-1,-1,-1,-1,-1,-1,-1,-1,-1,-1,-1],"loss_changes":[2.4124452E5,1.1158842E5,7.1125E1,4.571165E4,3.7567164E4,0E0,0E0,1.968408E4,2.7289535E4,1.0489789E4,7.092988E2,2.086502E3,5.951699E3,1.3681625E4,0E0,5.350443E3,8.901422E3,0E0,0E0,6.7616724E2,1.6616992E2,8.624627E1,9.6264844E2,5.5684844E3,7.1426135E2,2.0989934E3,1.564918E3,5.320578E3,0E0,4.980957E0,2.3329301E2,0E0,0E0,9.237967E0,0E0,0E0,0E0,3.0362754E3,4.4238203E3,0E0,2.604712E1,7.7688403E2,5.3264185E2,0E0,0E0,3.264418E3,0E0,0E0,0E0,7.246889E1,2.9250107E1,0E0,3.1347275E-3,3.2460938E0,4.8804443E2,4.269508E3,4.0703253E2,0E0,0E0,0E0,4.7143005E1,5.476776E1,0E0,1.4339453E3,7.988633E2,0E0,0E0,0E0,1.12068176E-1,0E0,0E0,0E0,0E0,0E0,0E0,1.3177656E3,0E0,6.0024673E1,0E0,0E0,2.6973405E0,5.6910706E-1,0E0,1.4495728E1,3.4685156E2,0E0,4.3231934E1,0E0,0E0,1.0880312E3,3.1313306E2,3.196602E-1,0E0,0E0,0E0,0E0,0E0,0E0,0E0,3.8922266E2,0E0,0E0,0E0,0E0,0E0,0E0,0E0,0E0,0E0,0E0,0E0],"parents":[2147483647,0,0,1,1,2,2,3,3,4,4,7,7,8,8,9,9,10,10,11,11,12,12,13,13,15,15,16,16,19,19,20,20,21,21,22,22,23,23,24,24,25,25,26,26,27,27,29,29,30,30,33,33,37,37,38,38,40,40,41,41,42,42,45,45,49,49,50,50,52,52,53,53,54,54,55,55,56,56,60,60,61,61,63,63,64,64,68,68,75,75,77,77,80,80,81,81,83,83,84,84,86,86,89,89,90,90,91,91,99,99],"right_children":[2,4,6,8,10,-1,-1,12,14,16,18,20,22,24,-1,26,28,-1,-1,30,32,34,36,38,40,42,44,46,-1,48,50,-1,-1,52,-1,-1,-1,54,56,-1,58,60,62,-1,-1,64,-1,-1,-1,66,68,-1,70,72,74,76,78,-1,-1,-1,80,82,-1,84,86,-1,-1,-1,88,-1,-1,-1,-1,-1,-1,90,-1,92,-1,-1,94,96,-1,98,100,-1,102,-1,-1,104,106,108,-1,-1,-1,-1,-1,-1,-1,110,-1,-1,-1,-1,-1,-1,-1,-1,-1,-1,-1],"split_conditions":[1.0267E3,1E-45,1E-45,3.2E1,4.8000008E1,9.013206E-1,6.455487E-1,1E-45,9.3E1,1.9E2,6E0,1.7E2,1.0056E3,2.2E1,7.277075E-1,3.99E1,3.9E1,2.3373477E-1,4.7685385E-1,6E0,1E1,1.5E1,4.21E1,1E-45,2.8E1,1E-45,1.7E1,1E-45,-5.503439E-1,1.2E1,1.5E1,1.03006676E-1,2.1491027E-1,7E0,-4.7742E-2,-1.7026338E-1,-2.5610295E-1,7.1E1,2.2E1,-1.2575217E-1,1E-45,1E1,3.3E1,-2.4233077E-1,-4.7589593E-2,8E1,-2.4369258E-1,6.070296E-2,9.762996E-2,6E0,7E0,3.7724085E-3,2.4E1,9E0,1.3E1,1E-45,2.2E2,-3.15346E-2,-5.7883475E-2,9.49264E-2,1.0167E3,1.6E2,-1.2672326E-1,1E-45,1E1,5.4201048E-2,1.2242971E-2,-2.5173514E-3,1.6E1,-7.1987915E-3,-1.2735726E-2,3.1920967E-1,1.9063964E-1,7.388118E-2,1.736802E-1,1E-45,-1.3737868E-1,1.3E1,-9.299517E-2,-2.689854E-2,1.3E1,1.7E1,-5.8196187E-2,2.6E1,2.3E1,2.14859E-2,2.3E1,-1.985286E-2,-3.5236247E-2,4.4E1,1.2E1,1E1,-2.6431404E-2,9.633571E-3,4.2240685E-4,-3.207672E-2,-1.7695487E-2,-1.0766414E-1,-6.52154E-2,3E1,-1.14703834E-1,-6.7759275E-2,-1.0543765E-1,1.1243835E-1,1.6033475E-1,8.680846E-2,3.5085898E-2,1.2173636E-2,6.2395367E-3,-1.16890274E-1,-1.9649516E-1],"split_indices":[39,22,22,28,25,0,0,94,11,29,0,4,14,51,0,9,37,0,0,25,2,0,8,97,7,94,0,93,0,3,3,0,0,0,0,0,0,36,76,0,24,0,1,0,0,78,0,0,0,0,0,0,1,0,0,22,4,0,0,0,14,4,0,94,0,0,0,0,0,0,0,0,0,0,0,99,0,0,0,0,0,0,0,1,75,0,1,0,0,62,25,0,0,0,0,0,0,0,0,34,0,0,0,0,0,0,0,0,0,0,0],"split_type":[0,1,1,0,0,0,0,1,0,0,0,0,0,0,0,0,0,0,0,0,0,0,0,1,0,1,0,1,0,0,0,0,0,0,0,0,0,0,0,0,1,0,0,0,0,0,0,0,0,0,0,0,0,0,0,1,0,0,0,0,0,0,0,1,0,0,0,0,0,0,0,0,0,0,0,1,0,0,0,0,0,0,0,0,0,0,0,0,0,0,0,0,0,0,0,0,0,0,0,0,0,0,0,0,0,0,0,0,0,0,0],"sum_hessian":[1.14E3,1.104E3,3.6E1,6.6E2,4.44E2,1.8E1,1.8E1,1.8E2,4.8E2,4.32E2,1.2E1,6.6E1,1.14E2,4.74E2,6E0,9.6E1,3.36E2,6E0,6E0,5.4E1,1.2E1,2.4E1,9E1,4.26E2,4.8E1,7.2E1,2.4E1,3.3E2,6E0,1.8E1,3.6E1,6E0,6E0,1.8E1,6E0,6.6E1,2.4E1,4.8E1,3.78E2,1.2E1,3.6E1,3E1,4.2E1,1.8E1,6E0,2.28E2,1.02E2,1.2E1,6E0,1.8E1,1.8E1,6E0,1.2E1,2.4E1,2.4E1,3.54E2,2.4E1,3E1,6E0,1.2E1,1.8E1,3E1,1.2E1,1.74E2,5.4E1,6E0,1.2E1,6E0,1.2E1,6E0,6E0,1.8E1,6E0,1.2E1,1.2E1,3.48E2,6E0,1.8E1,6E0,6E0,1.2E1,1.2E1,1.8E1,1.8E1,1.56E2,6E0,4.8E1,6E0,6E0,2.82E2,6.6E1,1.2E1,6E0,6E0,6E0,6E0,6E0,6E0,1.2E1,1.44E2,1.2E1,1.2E1,3.6E1,2.1E2,7.2E1,4.8E1,1.8E1,6E0,6E0,1.2E1,1.32E2],"tree_param":{"num_deleted":"0","num_feature":"100","num_nodes":"111","size_leaf_vector":"1"}},{"base_weights":[6.8350816E-3,-2.62752E0,7.868131E1,5.5363183E0,-1.4748126E1,8.927819E-1,6.394331E-1,-7.8895435E0,1.0576951E1,-1.6295761E1,3.7934494E1,5.671356E0,-1.5721637E1,9.647336E0,7.214699E-1,-7.0701475E0,-1.890285E1,2.3173136E-1,4.727664E-1,2.8972073E0,1.6971882E1,-1.7739856E0,-1.9380644E1,1.1431934E1,-6.101046E0,-2.694667E0,-1.9563744E1,-1.8091606E1,-5.456265E-1,7.681088E0,3.6231706E-1,1.0212385E-1,2.1306823E-1,-5.9034806E-1,-4.733289E-2,-1.6470037E-1,-2.4482782E-1,2.1467665E1,1.0104276E1,-1.2459127E-1,-3.7022326E0,3.5669723E0,-7.1462054E0,-2.4003492E-1,-4.7181785E-2,-1.5297569E1,-2.4127942E-1,6.014266E-2,9.679316E-2,2.8097134E0,-2.1041484E0,3.7399726E-3,-1.0641996E0,2.9322258E1,1.2754364E1,1.0984856E1,-2.804132E0,-2.873181E-2,-5.011775E-2,9.4050035E-2,-6.1520547E-1,-4.647326E0,-1.2555364E-1,-1.7396898E1,-8.339753E0,5.3736486E-2,1.213001E-2,-2.495902E-3,-2.9408991E0,-7.137059E-3,-1.2626648E-2,3.1618553E-1,1.8900557E-1,7.319918E-2,1.7207704E-1,1.144689E1,-1.3620104E-1,-2.9287398E-1,-9.219813E-2,-2.666809E-2,5.368277E-1,-2.6570692E0,-5.7644844E-2,-8.353492E0,-1.8380514E1,2.1301748E-2,-9.665257E0,-1.9682573E-2,-3.4934126E-2,1.2394837E1,7.272022E0,9.8298526E-1,-2.6204877E-2,9.550911E-3,4.1874475E-4,-3.18018E-2,-1.754377E-2,-1.0674128E-1,-6.461341E-2,-2.110985E-1,-1.6744648E1,-6.71339E-2,-1.0441177E-1,1.11319415E-1,1.5875332E-1,8.595795E-2,3.4753416E-2,1.2069265E-2,6.1861747E-3,-1.3277344E-1,-1.8914312E-1],"categories":[2,3,4,9,0,1,2,3,4,7,8,9,0,1,2,4,0,2,3,4,5,6,7,2,3,0,3,1,0,1,3,4,0,1,2,3,5,6,8,10,12,13,14,15,0,6,9,13],"categories_nodes":[1,2,7,23,25,27,55,63,75,100],"categories_segments":[0,4,12,16,23,25,27,28,32,44],"categories_sizes":[4,8,4,7,2,2,1,4,12,4],"default_left":[0,1,1,0,0,0,0,1,0,0,0,0,0,1,0,1,1,0,0,0,0,0,0,1,0,1,0,1,0,0,0,0,0,0,0,0,0,0,1,0,1,0,0,0,0,1,0,0,0,0,0,0,0,0,0,1,1,0,0,0,0,0,0,1,0,0,0,0,0,0,0,0,0,0,0,1,0,0,0,0,0,0,0,0,1,0,0,0,0,0,0,0,0,0,0,0,0,0,0,0,1,0,0,0,0,0,0,0,0,0,0],"id":9,"left_children":[1,3,5,7,9,-1,-1,11,13,15,17,19,21,23,-1,25,27,-1,-1,29,31,33,35,37,39,41,43,45,-1,47,49,-1,-1,51,-1,-1,-1,53,55,-1,57,59,61,-1,-1,63,-1,-1,-1,65,67,-1,69,71,73,75,77,-1,-1,-1,79,81,-1,83,85,-1,-1,-1,87,-1,-1,-1,-1,-1,-1,89,-1,91,-1,-1,93,95,-1,97,99,-1,101,-1,-1,103,105,107,-1,-1,-1,-1,-1,-1,-1,-1,109,-1,-1,-1,-1,-1,-1,-1,-1,-1,-1],"loss_changes":[2.3668642E5,1.09422125E5,6.9796875E1,4.481652E4,3.690058E4,0E0,0E0,1.9313217E4,2.68347E4,1.0280859E4,6.9718945E2,2.0512349E3,5.83459E3,1.3419402E4,0E0,5.249835E3,8.761875E3,0E0,0E0,6.641808E2,1.6333301E2,8.4774284E1,9.4814844E2,5.4724414E3,7.012141E2,2.060287E3,1.5345107E3,5.213453E3,0E0,5.069092E0,2.2925954E2,0E0,0E0,9.080181E0,0E0,0E0,0E0,2.9795469E3,4.3388516E3,0E0,2.5770325E1,7.6267224E2,5.22875E2,0E0,0E0,3.1998594E3,0E0,0E0,0E0,7.126523E1,2.8750237E1,0E0,3.1194687E-3,6.738281E-1,4.790774E2,4.191664E3,4.000855E2,0E0,0E0,0E0,4.6338406E1,5.360974E1,0E0,1.403125E3,7.8387573E2,0E0,0E0,0E0,1.1022949E-1,0E0,0E0,0E0,0E0,0E0,0E0,1.2910508E3,0E0,5.9000347E1,0E0,0E0,2.6512775E0,5.5947113E-1,0E0,1.4459717E1,3.475E2,0E0,4.2134277E1,0E0,0E0,1.0671992E3,3.0686475E2,3.1413555E-1,0E0,0E0,0E0,0E0,0E0,0E0,0E0,0E0,5.237246E2,0E0,0E0,0E0,0E0,0E0,0E0,0E0,0E0,0E0,0E0],"parents":[2147483647,0,0,1,1,2,2,3,3,4,4,7,7,8,8,9,9,10,10,11,11,12,12,13,13,15,15,16,16,19,19,20,20,21,21,22,22,23,23,24,24,25,25,26,26,27,27,29,29,30,30,33,33,37,37,38,38,40,40,41,41,42,42,45,45,49,49,50,50,52,52,53,53,54,54,55,55,56,56,60,60,61,61,63,63,64,64,68,68,75,75,77,77,80,80,81,81,83,83,84,84,86,86,89,89,90,90,91,91,100,100],"right_children":[2,4,6,8,10,-1,-1,12,14,16,18,20,22,24,-1,26,28,-1,-1,30,32,34,36,38,40,42,44,46,-1,48,50,-1,-1,52,-1,-1,-1,54,56,-1,58,60,62,-1,-1,64,-1,-1,-1,66,68,-1,70,72,74,76,78,-1,-1,-1,80,82,-1,84,86,-1,-1,-1,88,-1,-1,-1,-1,-1,-1,90,-1,92,-1,-1,94,96,-1,98,100,-1,102,-1,-1,104,106,108,-1,-1,-1,-1,-1,-1,-1,-1,110,-1,-1,-1,-1,-1,-1,-1,-1,-1,-1],"split_conditions":[1.0267E3,1E-45,1E-45,3.2E1,4.8000008E1,8.927819E-1,6.394331E-1,1E-45,9.3E1,1.9E2,6E0,1.7E2,1.0056E3,2.2E1,7.214699E-1,3.99E1,3.9E1,2.3173136E-1,4.727664E-1,6E0,1E1,1.5E1,4.1E1,1E-45,2.8E1,1E-45,1.7E1,1E-45,-5.456265E-1,1.2E1,1.5E1,1.0212385E-1,2.1306823E-1,7E0,-4.733289E-2,-1.6470037E-1,-2.4482782E-1,7.1E1,2.2E1,-1.2459127E-1,2E2,1E1,3.3E1,-2.4003492E-1,-4.7181785E-2,8E1,-2.4127942E-1,6.014266E-2,9.679316E-2,6E0,7E0,3.7399726E-3,2.4E1,9E0,1.3E1,1E-45,2.2E2,-2.873181E-2,-5.011775E-2,9.4050035E-2,1.0167E3,1.6E2,-1.2555364E-1,1E-45,1E1,5.3736486E-2,1.213001E-2,-2.495902E-3,1.6E1,-7.137059E-3,-1.2626648E-2,3.1618553E-1,1.8900557E-1,7.319918E-2,1.7207704E-1,1E-45,-1.3620104E-1,1.3E1,-9.219813E-2,-2.666809E-2,1.3E1,1.7E1,-5.7644844E-2,2.6E1,1.1E1,2.1301748E-2,2.3E1,-1.9682573E-2,-3.4934126E-2,4.4E1,1.2E1,1E1,-2.6204877E-2,9.550911E-3,4.1874475E-4,-3.18018E-2,-1.754377E-2,-1.0674128E-1,-6.461341E-2,-2.110985E-1,1E-45,-6.71339E-2,-1.0441177E-1,1.11319415E-1,1.5875332E-1,8.595795E-2,3.4753416E-2,1.2069265E-2,6.1861747E-3,-1.3277344E-1,-1.8914312E-1],"split_indices":[39,22,22,28,25,0,0,94,11,29,0,4,14,51,0,9,37,0,0,25,2,0,33,97,7,94,0,93,0,3,3,0,0,0,0,0,0,36,76,0,4,0,1,0,0,78,0,0,0,0,0,0,1,0,0,22,4,0,0,0,14,4,0,94,0,0,0,0,0,0,0,0,0,0,0,99,0,0,0,0,0,0,0,1,87,0,1,0,0,62,25,0,0,0,0,0,0,0,0,0,99,0,0,0,0,0,0,0,0,0,0],"split_type":[0,1,1,0,0,0,0,1,0,0,0,0,0,0,0,0,0,0,0,0,0,0,0,1,0,1,0,1,0,0,0,0,0,0,0,0,0,0,0,0,0,0,0,0,0,0,0,0,0,0,0,0,0,0,0,1,0,0,0,0,0,0,0,1,0,0,0,0,0,0,0,0,0,0,0,1,0,0,0,0,0,0,0,0,0,0,0,0,0,0,0,0,0,0,0,0,0,0,0,0,1,0,0,0,0,0,0,0,0,0,0],"sum_hessian":[1.14E3,1.104E3,3.6E1,6.6E2,4.44E2,1.8E1,1.8E1,1.8E2,4.8E2,4.32E2,1.2E1,6.6E1,1.14E2,4.74E2,6E0,9.6E1,3.36E2,6E0,6E0,5.4E1,1.2E1,2.4E1,9E1,4.26E2,4.8E1,7.2E1,2.4E1,3.3E2,6E0,1.8E1,3.6E1,6E0,6E0,1.8E1,6E0,6E1,3E1,4.8E1,3.78E2,1.2E1,3.6E1,3E1,4.2E1,1.8E1,6E0,2.28E2,1.02E2,1.2E1,6E0,1.8E1,1.8E1,6E0,1.2E1,2.4E1,2.4E1,3.54E2,2.4E1,2.4E1,1.2E1,1.2E1,1.8E1,3E1,1.2E1,1.74E2,5.4E1,6E0,1.2E1,6E0,1.2E1,6E0,6E0,1.8E1,6E0,1.2E1,1.2E1,3.48E2,6E0,1.8E1,6E0,6E0,1.2E1,1.2E1,1.8E1,1.8E1,1.56E2,6E0,4.8E1,6E0,6E0,2.82E2,6.6E1,1.2E1,6E0,6E0,6E0,6E0,6E0,6E0,1.2E1,5.4E1,1.02E2,1.2E1,3.6E1,2.1E2,7.2E1,4.8E1,1.8E1,6E0,6E0,4.2E1,6E1],"tree_param":{"num_deleted":"0","num_feature":"100","num_nodes":"111","size_leaf_vector":"1"}},{"base_weights":[8.151483E-3,-2.6012015E0,7.7935905E1,5.4831166E0,-1.4603747E1,8.8432384E-1,6.333753E-1,-7.8106E0,1.0474134E1,-1.6137619E1,3.760934E1,5.621822E0,-1.5568527E1,9.552334E0,7.1528584E-1,-7.00401E0,-1.8718695E1,2.2974518E-1,4.6871403E-1,2.8712497E0,1.6826412E1,-1.7587805E0,-1.919133E1,1.1319728E1,-6.0441937E0,-2.6698475E0,-1.9379606E1,-1.7914003E1,-5.4094976E-1,7.6125298E0,3.5893703E-1,1.0124861E-1,2.1124189E-1,-5.852886E-1,-4.6927184E-2,-1.66892E1,-2.5129387E-1,2.1268295E1,1.0003634E1,-1.2344109E-1,-3.6673534E0,3.5337949E0,-7.080151E0,-2.3776104E-1,-4.6777386E-2,-1.5148327E1,-2.3889013E-1,5.9587426E-2,9.596344E-2,2.7850904E0,-2.0861077E0,3.7077984E-3,-1.0550725E0,-1.7128555E-1,-1.0476371E-1,2.904924E-1,1.263662E1,1.0875717E1,-2.780094E0,-3.091021E-2,-5.6957744E-2,9.3181826E-2,-6.09934E-1,-4.6043024E0,-1.2439472E-1,-1.7226952E1,-8.259093E0,5.3275842E-2,1.2018174E-2,-2.4744524E-3,-2.915687E0,-7.075849E-3,-1.2518355E-2,7.252338E-2,1.7048855E-1,1.1333533E1,-1.3503361E-1,-2.903587E-1,-9.140791E-2,-2.6439471E-2,5.3222185E-1,-2.6342938E0,-5.7098705E-2,-8.278977E0,-1.8200102E1,2.1119168E-2,-9.572113E0,-1.9513855E-2,-3.4634616E-2,1.2271837E1,7.2010946E0,9.745624E-1,-2.5980182E-2,9.469038E-3,4.1508264E-4,-3.1529237E-2,-1.7393362E-2,-1.0582628E-1,-6.401705E-2,-2.09026E-1,-1.6580322E1,-6.6514164E-2,-1.03395976E-1,1.1021141E-1,1.5718755E-1,8.511581E-2,3.4424115E-2,1.1965943E-2,6.133074E-3,-1.314765E-1,-1.8728264E-1],"categories":[2,3,4,9,0,1,2,3,4,7,8,9,0,1,2,4,0,2,3,4,5,6,7,2,3,0,3,14,1,0,1,3,4,0,1,2,3,5,6,8,10,12,13,14,15,0,6,9,13],"categories_nodes":[1,2,7,23,25,27,40,57,65,75,100],"categories_segments":[0,4,12,16,23,25,27,28,29,33,45],"categories_sizes":[4,8,4,7,2,2,1,1,4,12,4],"default_left":[0,1,1,0,0,0,0,1,0,0,0,0,0,1,0,1,1,0,0,0,0,0,0,1,0,1,0,1,0,0,0,0,0,0,0,0,0,0,1,0,1,0,0,0,0,1,0,0,0,0,0,0,0,0,0,0,0,1,1,0,0,0,0,0,0,1,0,0,0,0,0,0,0,0,0,1,0,0,0,0,0,0,0,0,1,0,0,0,0,0,0,0,0,0,0,0,0,0,0,0,1,0,0,0,0,0,0,0,0,0,0],"id":10,"left_children":[1,3,5,7,9,-1,-1,11,13,15,17,19,21,23,-1,25,27,-1,-1,29,31,33,35,37,39,41,43,45,-1,47,49,-1,-1,51,-1,53,-1,55,57,-1,59,61,63,-1,-1,65,-1,-1,-1,67,69,-1,71,-1,-1,-1,73,75,77,-1,-1,-1,79,81,-1,83,85,-1,-1,-1,87,-1,-1,-1,-1,89,-1,91,-1,-1,93,95,-1,97,99,-1,101,-1,-1,103,105,107,-1,-1,-1,-1,-1,-1,-1,-1,109,-1,-1,-1,-1,-1,-1,-1,-1,-1,-1],"loss_changes":[2.3221481E5,1.07300875E5,6.846875E1,4.393861E4,3.6246164E4,0E0,0E0,1.8949129E4,2.6387434E4,1.0076672E4,6.8528516E2,2.0165625E3,5.7196953E3,1.3161895E4,0E0,5.1511313E3,8.624305E3,0E0,0E0,6.524044E2,1.6054346E2,8.332722E1,9.326719E2,5.3780547E3,6.8845056E2,2.022296E3,1.5046992E3,5.107875E3,0E0,5.1531982E0,2.2529597E2,0E0,0E0,8.924965E0,0E0,3.4414062E0,0E0,2.9238828E3,4.255508E3,0E0,2.5648926E1,7.4872046E2,5.132864E2,0E0,0E0,3.1370352E3,0E0,0E0,0E0,7.008101E1,2.8259537E1,0E0,3.0651093E-3,0E0,0E0,0E0,4.7027393E2,4.115246E3,3.9325714E2,0E0,0E0,0E0,4.5547203E1,5.247589E1,0E0,1.3731719E3,7.691692E2,0E0,0E0,0E0,1.08306885E-1,0E0,0E0,0E0,0E0,1.2648711E3,0E0,5.7993065E1,0E0,0E0,2.6060662E0,5.4998016E-1,0E0,1.4420166E1,3.406875E2,0E0,4.106494E1,0E0,0E0,1.0467852E3,3.0072192E2,3.088503E-1,0E0,0E0,0E0,0E0,0E0,0E0,0E0,0E0,5.132051E2,0E0,0E0,0E0,0E0,0E0,0E0,0E0,0E0,0E0,0E0],"parents":[2147483647,0,0,1,1,2,2,3,3,4,4,7,7,8,8,9,9,10,10,11,11,12,12,13,13,15,15,16,16,19,19,20,20,21,21,22,22,23,23,24,24,25,25,26,26,27,27,29,29,30,30,33,33,35,35,37,37,38,38,40,40,41,41,42,42,45,45,49,49,50,50,52,52,56,56,57,57,58,58,62,62,63,63,65,65,66,66,70,70,75,75,77,77,80,80,81,81,83,83,84,84,86,86,89,89,90,90,91,91,100,100],"right_children":[2,4,6,8,10,-1,-1,12,14,16,18,20,22,24,-1,26,28,-1,-1,30,32,34,36,38,40,42,44,46,-1,48,50,-1,-1,52,-1,54,-1,56,58,-1,60,62,64,-1,-1,66,-1,-1,-1,68,70,-1,72,-1,-1,-1,74,76,78,-1,-1,-1,80,82,-1,84,86,-1,-1,-1,88,-1,-1,-1,-1,90,-1,92,-1,-1,94,96,-1,98,100,-1,102,-1,-1,104,106,108,-1,-1,-1,-1,-1,-1,-1,-1,110,-1,-1,-1,-1,-1,-1,-1,-1,-1,-1],"split_conditions":[1.0267E3,1E-45,1E-45,3.2E1,4.8000008E1,8.8432384E-1,6.333753E-1,1E-45,9.3E1,1.9E2,6E0,1.7E2,1.0056E3,2.2E1,7.1528584E-1,3.99E1,3.9E1,2.2974518E-1,4.6871403E-1,6E0,1E1,1.5E1,4.21E1,1E-45,2.8E1,1E-45,1.7E1,1E-45,-5.4094976E-1,1.2E1,1.5E1,1.0124861E-1,2.1124189E-1,7E0,-4.6927184E-2,4.69E1,-2.5129387E-1,7.1E1,2.2E1,-1.2344109E-1,1E-45,1E1,3.3E1,-2.3776104E-1,-4.6777386E-2,8E1,-2.3889013E-1,5.9587426E-2,9.596344E-2,6E0,7E0,3.7077984E-3,2.4E1,-1.7128555E-1,-1.0476371E-1,2.904924E-1,1.3E1,1E-45,2.2E2,-3.091021E-2,-5.6957744E-2,9.3181826E-2,1.0167E3,1.6E2,-1.2439472E-1,1E-45,1E1,5.3275842E-2,1.2018174E-2,-2.4744524E-3,1.6E1,-7.075849E-3,-1.2518355E-2,7.252338E-2,1.7048855E-1,1E-45,-1.3503361E-1,1.3E1,-9.140791E-2,-2.6439471E-2,1.3E1,1.7E1,-5.7098705E-2,2.6E1,1.1E1,2.1119168E-2,2.3E1,-1.9513855E-2,-3.4634616E-2,4.4E1,1.2E1,1E1,-2.5980182E-2,9.469038E-3,4.1508264E-4,-3.1529237E-2,-1.7393362E-2,-1.0582628E-1,-6.401705E-2,-2.09026E-1,1E-45,-6.6514164E-2,-1.03395976E-1,1.1021141E-1,1.5718755E-1,8.511581E-2,3.4424115E-2,1.1965943E-2,6.133074E-3,-1.314765E-1,-1.8728264E-1],"split_indices":[39,22,22,28,25,0,0,94,11,29,0,4,14,51,0,9,37,0,0,25,2,0,8,97,7,94,0,93,0,3,3,0,0,0,0,7,0,36,76,0,24,0,1,0,0,78,0,0,0,0,0,0,1,0,0,0,0,22,4,0,0,0,14,4,0,94,0,0,0,0,0,0,0,0,0,99,0,0,0,0,0,0,0,1,87,0,1,0,0,62,25,0,0,0,0,0,0,0,0,0,99,0,0,0,0,0,0,0,0,0,0],"split_type":[0,1,1,0,0,0,0,1,0,0,0,0,0,0,0,0,0,0,0,0,0,0,0,1,0,1,0,1,0,0,0,0,0,0,0,0,0,0,0,0,1,0,0,0,0,0,0,0,0,0,0,0,0,0,0,0,0,1,0,0,0,0,0,0,0,1,0,0,0,0,0,0,0,0,0,1,0,0,0,0,0,0,0,0,0,0,0,0,0,0,0,0,0,0,0,0,0,0,0,0,1,0,0,0,0,0,0,0,0,0,0],"sum_hessian":[1.14E3,1.104E3,3.6E1,6.6E2,4.44E2,1.8E1,1.8E1,1.8E2,4.8E2,4.32E2,1.2E1,6.6E1,1.14E2,4.74E2,6E0,9.6E1,3.36E2,6E0,6E0,5.4E1,1.2E1,2.4E1,9E1,4.26E2,4.8E1,7.2E1,2.4E1,3.3E2,6E0,1.8E1,3.6E1,6E0,6E0,1.8E1,6E0,6.6E1,2.4E1,4.8E1,3.78E2,1.2E1,3.6E1,3E1,4.2E1,1.8E1,6E0,2.28E2,1.02E2,1.2E1,6E0,1.8E1,1.8E1,6E0,1.2E1,6E1,6E0,2.4E1,2.4E1,3.54E2,2.4E1,3E1,6E0,1.2E1,1.8E1,3E1,1.2E1,1.74E2,5.4E1,6E0,1.2E1,6E0,1.2E1,6E0,6E0,1.2E1,1.2E1,3.48E2,6E0,1.8E1,6E0,6E0,1.2E1,1.2E1,1.8E1,1.8E1,1.56E2,6E0,4.8E1,6E0,6E0,2.82E2,6.6E1,1.2E1,6E0,6E0,6E0,6E0,6E0,6E0,1.2E1,5.4E1,1.02E2,1.2E1,3.6E1,2.1E2,7.2E1,4.8E1,1.8E1,6E0,6E0,4.2E1,6E1],"tree_param":{"num_deleted":"0","num_feature":"100","num_nodes":"111","size_leaf_vector":"1"}},{"base_weights":[9.148052E-3,-2.5754497E0,7.719756E1,5.4299173E0,-1.446078E1,8.759459E-1,6.27375E-1,-7.733121E0,1.0371871E1,-1.5981011E1,3.728698E1,5.5727115E0,-1.541797E1,9.457814E0,7.09155E-1,-6.938489E0,-1.8536333E1,2.27776E-1,4.646964E-1,2.845515E0,1.668218E1,-1.7436999E0,-1.9005209E1,1.1208142E1,-5.988063E0,-2.645256E0,-1.919719E1,-1.7738144E1,-5.36313E-1,7.544578E0,3.555768E-1,1.0038069E-1,2.0943125E-1,-5.8026767E-1,-4.6524875E-2,-1.614609E-1,-2.4018145E-1,2.1066498E1,9.904006E0,-1.22301616E-1,-3.6330533E0,3.5009303E0,-7.01471E0,-2.3550855E-1,-4.6376385E-2,-1.5000542E1,-2.365244E-1,5.9037264E-2,9.514077E-2,2.76067E0,-2.0682309E0,3.6761474E-3,-1.0460299E0,2.8770363E1,1.2519975E1,1.0767676E1,-2.7562683E0,-3.061104E-2,-5.6469638E-2,9.232179E-2,-6.0471064E-1,-4.56168E0,-1.23246506E-1,-1.7058672E1,-8.179206E0,5.2819125E-2,1.1907184E-2,-2.4532643E-3,-2.8907E0,-7.0151626E-3,-1.2411106E-2,3.1043795E-1,1.8489562E-1,7.185406E-2,1.6891468E-1,1.1221313E1,-1.3387612E-1,-2.878723E-1,-9.0624474E-2,-2.6212942E-2,5.2765834E-1,-2.6117156E0,-5.655778E-2,-8.205118E0,-1.8021467E1,2.0938152E-2,-9.479857E0,-1.9346705E-2,-3.4337725E-2,1.2150071E1,7.1308694E0,9.6621E-1,-2.5757577E-2,9.387948E-3,4.1142054E-4,-3.1259023E-2,-1.7244263E-2,-1.0491913E-1,-6.342605E-2,-2.0697385E-1,-1.6417614E1,-6.590006E-2,-1.02389984E-1,1.0911465E-1,1.5563712E-1,8.4282055E-2,3.4097996E-2,1.1863403E-2,6.0804966E-3,-1.3019238E-1,-1.8544048E-1],"categories":[2,3,4,9,0,1,2,3,4,7,8,9,0,1,2,4,0,2,3,4,5,6,7,2,3,0,3,14,1,0,1,3,4,0,1,2,3,5,6,8,10,12,13,14,15,0,6,9,13],"categories_nodes":[1,2,7,23,25,27,40,55,63,75,100],"categories_segments":[0,4,12,16,23,25,27,28,29,33,45],"categories_sizes":[4,8,4,7,2,2,1,1,4,12,4],"default_left":[0,1,1,0,0,0,0,1,0,0,0,0,0,1,0,1,1,0,0,0,0,0,0,1,0,1,0,1,0,0,0,0,0,0,0,0,0,0,1,0,1,0,0,0,0,1,0,0,0,0,0,0,0,0,0,1,1,0,0,0,0,0,0,1,0,0,0,0,0,0,0,0,0,0,0,1,0,0,0,0,0,0,0,0,1,0,0,0,0,0,0,0,0,0,0,0,0,0,0,0,1,0,0,0,0,0,0,0,0,0,0],"id":11,"left_children":[1,3,5,7,9,-1,-1,11,13,15,17,19,21,23,-1,25,27,-1,-1,29,31,33,35,37,39,41,43,45,-1,47,49,-1,-1,51,-1,-1,-1,53,55,-1,57,59,61,-1,-1,63,-1,-1,-1,65,67,-1,69,71,73,75,77,-1,-1,-1,79,81,-1,83,85,-1,-1,-1,87,-1,-1,-1,-1,-1,-1,89,-1,91,-1,-1,93,95,-1,97,99,-1,101,-1,-1,103,105,107,-1,-1,-1,-1,-1,-1,-1,-1,109,-1,-1,-1,-1,-1,-1,-1,-1,-1,-1],"loss_changes":[2.2782947E5,1.0521533E5,6.71875E1,4.3079008E4,3.560339E4,0E0,0E0,1.8593773E4,2.5948E4,9.876523E3,6.7358594E2,1.9824768E3,5.6079395E3,1.2908906E4,0E0,5.0542744E3,8.488883E3,0E0,0E0,6.4083813E2,1.5780371E2,8.1904755E1,9.1646484E2,5.2811445E3,6.7587683E2,1.9850079E3,1.4754658E3,5.004422E3,0E0,5.23291E0,2.2140059E2,0E0,0E0,8.772804E0,0E0,0E0,0E0,2.8660156E3,4.1737773E3,0E0,2.5332672E1,7.35027E2,5.0387305E2,0E0,0E0,3.0754531E3,0E0,0E0,0E0,6.891707E1,2.7777206E1,0E0,3.0460358E-3,1.0332031E1,4.6162842E2,4.0402227E3,3.8654486E2,0E0,0E0,0E0,4.476997E1,5.1365723E1,0E0,1.3438594E3,7.547385E2,0E0,0E0,0E0,1.06300354E-1,0E0,0E0,0E0,0E0,0E0,0E0,1.2392188E3,0E0,5.7003456E1,0E0,0E0,2.5616956E0,5.4063416E-1,0E0,1.4378662E1,3.340078E2,0E0,4.0021484E1,0E0,0E0,1.0267461E3,2.9470215E2,3.0359173E-1,0E0,0E0,0E0,0E0,0E0,0E0,0E0,0E0,5.0289062E2,0E0,0E0,0E0,0E0,0E0,0E0,0E0,0E0,0E0,0E0],"parents":[2147483647,0,0,1,1,2,2,3,3,4,4,7,7,8,8,9,9,10,10,11,11,12,12,13,13,15,15,16,16,19,19,20,20,21,21,22,22,23,23,24,24,25,25,26,26,27,27,29,29,30,30,33,33,37,37,38,38,40,40,41,41,42,42,45,45,49,49,50,50,52,52,53,53,54,54,55,55,56,56,60,60,61,61,63,63,64,64,68,68,75,75,77,77,80,80,81,81,83,83,84,84,86,86,89,89,90,90,91,91,100,100],"right_children":[2,4,6,8,10,-1,-1,12,14,16,18,20,22,24,-1,26,28,-1,-1,30,32,34,36,38,40,42,44,46,-1,48,50,-1,-1,52,-1,-1,-1,54,56,-1,58,60,62,-1,-1,64,-1,-1,-1,66,68,-1,70,72,74,76,78,-1,-1,-1,80,82,-1,84,86,-1,-1,-1,88,-1,-1,-1,-1,-1,-1,90,-1,92,-1,-1,94,96,-1,98,100,-1,102,-1,-1,104,106,108,-1,-1,-1,-1,-1,-1,-1,-1,110,-1,-1,-1,-1,-1,-1,-1,-1,-1,-1],"split_conditions":[1.0267E3,1E-45,1E-45,3.2E1,4.8000008E1,8.759459E-1,6.27375E-1,1E-45,9.3E1,1.9E2,6E0,1.7E2,1.0056E3,2.2E1,7.09155E-1,3.99E1,3.9E1,2.27776E-1,4.646964E-1,6E0,1E1,1.5E1,4.1E1,1E-45,2.8E1,1E-45,1.7E1,1E-45,-5.36313E-1,1.2E1,1.5E1,1.0038069E-1,2.0943125E-1,7E0,-4.6524875E-2,-1.614609E-1,-2.4018145E-1,7.1E1,2.2E1,-1.22301616E-1,1E-45,1E1,3.3E1,-2.3550855E-1,-4.6376385E-2,8E1,-2.365244E-1,5.9037264E-2,9.514077E-2,6E0,7E0,3.6761474E-3,2.4E1,9E0,1.3E1,1E-45,2.2E2,-3.061104E-2,-5.6469638E-2,9.232179E-2,1.0167E3,1.6E2,-1.23246506E-1,1E-45,1E1,5.2819125E-2,1.1907184E-2,-2.4532643E-3,1.6E1,-7.0151626E-3,-1.2411106E-2,3.1043795E-1,1.8489562E-1,7.185406E-2,1.6891468E-1,1E-45,-1.3387612E-1,1.3E1,-9.0624474E-2,-2.6212942E-2,1.3E1,1.7E1,-5.655778E-2,2.6E1,1.1E1,2.0938152E-2,2.3E1,-1.9346705E-2,-3.4337725E-2,4.4E1,1.2E1,1E1,-2.5757577E-2,9.387948E-3,4.1142054E-4,-3.1259023E-2,-1.7244263E-2,-1.0491913E-1,-6.342605E-2,-2.0697385E-1,1E-45,-6.590006E-2,-1.02389984E-1,1.0911465E-1,1.5563712E-1,8.4282055E-2,3.4097996E-2,1.1863403E-2,6.0804966E-3,-1.3019238E-1,-1.8544048E-1],"split_indices":[39,22,22,28,25,0,0,94,11,29,0,4,14,51,0,9,37,0,0,25,2,0,33,97,7,94,0,93,0,3,3,0,0,0,0,0,0,36,76,0,24,0,1,0,0,78,0,0,0,0,0,0,1,0,0,22,4,0,0,0,14,4,0,94,0,0,0,0,0,0,0,0,0,0,0,99,0,0,0,0,0,0,0,1,87,0,1,0,0,62,25,0,0,0,0,0,0,0,0,0,99,0,0,0,0,0,0,0,0,0,0],"split_type":[0,1,1,0,0,0,0,1,0,0,0,0,0,0,0,0,0,0,0,0,0,0,0,1,0,1,0,1,0,0,0,0,0,0,0,0,0,0,0,0,1,0,0,0,0,0,0,0,0,0,0,0,0,0,0,1,0,0,0,0,0,0,0,1,0,0,0,0,0,0,0,0,0,0,0,1,0,0,0,0,0,0,0,0,0,0,0,0,0,0,0,0,0,0,0,0,0,0,0,0,1,0,0,0,0,0,0,0,0,0,0],"sum_hessian":[1.14E3,1.104E3,3.6E1,6.6E2,4.44E2,1.8E1,1.8E1,1.8E2,4.8E2,4.32E2,1.2E1,6.6E1,1.14E2,4.74E2,6E0,9.6E1,3.36E2,6E0,6E0,5.4E1,1.2E1,2.4E1,9E1,4.26E2,4.8E1,7.2E1,2.4E1,3.3E2,6E0,1.8E1,3.6E1,6E0,6E0,1.8E1,6E0,6E1,3E1,4.8E1,3.78E2,1.2E1,3.6E1,3E1,4.2E1,1.8E1,6E0,2.28E2,1.02E2,1.2E1,6E0,1.8E1,1.8E1,6E0,1.2E1,2.4E1,2.4E1,3.54E2,2.4E1,3E1,6E0,1.2E1,1.8E1,3E1,1.2E1,1.74E2,5.4E1,6E0,1.2E1,6E0,1.2E1,6E0,6E0,1.8E1,6E0,1.2E1,1.2E1,3.48E2,6E0,1.8E1,6E0,6E0,1.2E1,1.2E1,1.8E1,1.8E1,1.56E2,6E0,4.8E1,6E0,6E0,2.82E2,6.6E1,1.2E1,6E0,6E0,6E0,6E0,6E0,6E0,1.2E1,5.4E1,1.02E2,1.2E1,3.6E1,2.1E2,7.2E1,4.8E1,1.8E1,6E0,6E0,4.2E1,6E1],"tree_param":{"num_deleted":"0","num_feature":"100","num_nodes":"111","size_leaf_vector":"1"}},{"base_weights":[1.0412619E-2,-2.5496554E0,7.646622E1,5.377733E0,-1.4319216E1,8.6764747E-1,6.214314E-1,-7.655741E0,1.0271041E1,-1.5825928E1,3.6967373E1,5.5240326E0,-1.526782E1,9.364668E0,7.0307636E-1,-6.873581E0,-1.8355755E1,2.2582357E-1,4.607134E-1,2.8200135E0,1.6539188E1,-1.7287439E0,-1.8819569E1,1.1098145E1,-5.9324546E0,-2.6208906E0,-1.9016493E1,-1.7564013E1,-5.31716E-1,7.477234E0,3.522512E-1,9.952035E-2,2.0763601E-1,-5.7528526E-1,-4.6125967E-2,-1.6360313E1,-2.465759E-1,2.0870855E1,9.805371E0,-1.2117255E-1,-3.5990798E0,3.468373E0,-6.949874E0,-2.3327745E-1,-4.5978785E-2,-1.4854197E1,-2.3418225E-1,5.8492173E-2,9.432517E-2,2.7364712E0,-2.0505083E0,3.6447577E-3,-1.0370578E0,-1.6793504E-1,-1.02481686E-1,2.850248E1,1.2404398E1,1.0660709E1,-2.7326403E0,-2.7865503E-2,-4.8847843E-2,9.146966E-2,-5.9952587E-1,-4.5194592E0,-1.2210871E-1,-1.689203E1,-8.100098E0,5.236633E-2,1.1797321E-2,-2.4323382E-3,-2.8659246E0,-6.9549996E-3,-1.2304643E-2,3.0749708E-1,1.8331072E-1,7.119065E-2,1.6735546E-1,1.1110206E1,-1.3272858E-1,-2.8540522E-1,-8.984758E-2,-2.5988247E-2,5.2313703E-1,-2.5893342E0,-5.6022048E-2,-8.131934E0,-1.7844578E1,2.0758709E-2,-9.388499E0,-1.9180864E-2,-3.4043446E-2,2.1031879E-1,1.0694502E1,9.57928E-1,-2.5536804E-2,9.307382E-3,4.0802002E-4,-3.0991167E-2,-1.7096471E-2,-1.0401982E-1,-6.284067E-2,-2.0494178E-1,-1.6256495E1,-6.529187E-2,-1.0139379E-1,2.9573878E-2,1.1121808E-1,1.1761649E-2,6.028442E-3,-1.2892078E-1,-1.8361633E-1],"categories":[2,3,4,9,0,1,2,3,4,7,8,9,0,1,2,4,0,2,3,4,5,6,7,2,3,0,3,1,0,1,3,4,0,1,2,3,5,6,8,9,10,11,12,13,14,0,6,9,13],"categories_nodes":[1,2,7,23,25,27,57,65,77,102],"categories_segments":[0,4,12,16,23,25,27,28,32,45],"categories_sizes":[4,8,4,7,2,2,1,4,13,4],"default_left":[0,1,1,0,0,0,0,1,0,0,0,0,0,1,0,1,1,0,0,0,0,0,0,1,0,1,0,1,0,0,0,0,0,0,0,0,0,0,1,0,1,0,0,0,0,1,0,0,0,0,0,0,0,0,0,0,0,1,1,0,0,0,0,0,0,1,0,0,0,0,0,0,0,0,0,0,0,1,0,0,0,0,0,0,0,0,1,0,0,0,0,0,1,0,0,0,0,0,0,0,0,0,1,0,0,0,0,0,0,0,0],"id":12,"left_children":[1,3,5,7,9,-1,-1,11,13,15,17,19,21,23,-1,25,27,-1,-1,29,31,33,35,37,39,41,43,45,-1,47,49,-1,-1,51,-1,53,-1,55,57,-1,59,61,63,-1,-1,65,-1,-1,-1,67,69,-1,71,-1,-1,73,75,77,79,-1,-1,-1,81,83,-1,85,87,-1,-1,-1,89,-1,-1,-1,-1,-1,-1,91,-1,93,-1,-1,95,97,-1,99,101,-1,103,-1,-1,-1,105,107,-1,-1,-1,-1,-1,-1,-1,-1,109,-1,-1,-1,-1,-1,-1,-1,-1],"loss_changes":[2.2352522E5,1.0317558E5,6.590625E1,4.22351E4,3.497203E4,0E0,0E0,1.8243254E4,2.551548E4,9.680375E3,6.6208984E2,1.9489673E3,5.4975156E3,1.2661512E4,0E0,4.959244E3,8.355555E3,0E0,0E0,6.294763E2,1.5510938E2,8.050657E1,9.030996E2,5.1900273E3,6.635305E2,1.9484082E3,1.4467998E3,4.9030703E3,0E0,5.3085938E0,2.1757332E2,0E0,0E0,8.623142E0,0E0,5.294922E0,0E0,2.8124727E3,4.0936172E3,0E0,2.5041199E1,7.2158203E2,4.946289E2,0E0,0E0,3.0150703E3,0E0,0E0,0E0,6.777208E1,2.7302849E1,0E0,2.9859543E-3,0E0,0E0,7.7617188E0,4.5314746E2,3.9665703E3,3.799458E2,0E0,0E0,0E0,4.400577E1,5.027887E1,0E0,1.3151602E3,7.4057935E2,0E0,0E0,0E0,1.04530334E-1,0E0,0E0,0E0,0E0,0E0,0E0,1.2145156E3,0E0,5.6030457E1,0E0,0E0,2.5178277E0,5.3144073E-1,0E0,1.4333496E1,3.2745703E2,0E0,3.9001953E1,0E0,0E0,0E0,1.0812656E3,2.98357E-1,0E0,0E0,0E0,0E0,0E0,0E0,0E0,0E0,4.9278516E2,0E0,0E0,0E0,0E0,0E0,0E0,0E0,0E0],"parents":[2147483647,0,0,1,1,2,2,3,3,4,4,7,7,8,8,9,9,10,10,11,11,12,12,13,13,15,15,16,16,19,19,20,20,21,21,22,22,23,23,24,24,25,25,26,26,27,27,29,29,30,30,33,33,35,35,37,37,38,38,40,40,41,41,42,42,45,45,49,49,50,50,52,52,55,55,56,56,57,57,58,58,62,62,63,63,65,65,66,66,70,70,77,77,79,79,82,82,83,83,85,85,86,86,88,88,92,92,93,93,102,102],"right_children":[2,4,6,8,10,-1,-1,12,14,16,18,20,22,24,-1,26,28,-1,-1,30,32,34,36,38,40,42,44,46,-1,48,50,-1,-1,52,-1,54,-1,56,58,-1,60,62,64,-1,-1,66,-1,-1,-1,68,70,-1,72,-1,-1,74,76,78,80,-1,-1,-1,82,84,-1,86,88,-1,-1,-1,90,-1,-1,-1,-1,-1,-1,92,-1,94,-1,-1,96,98,-1,100,102,-1,104,-1,-1,-1,106,108,-1,-1,-1,-1,-1,-1,-1,-1,110,-1,-1,-1,-1,-1,-1,-1,-1],"split_conditions":[1.0267E3,1E-45,1E-45,3.2E1,4.8000008E1,8.6764747E-1,6.214314E-1,1E-45,9.3E1,1.9E2,6E0,1.7E2,1.0056E3,2.2E1,7.0307636E-1,3.99E1,3.9E1,2.2582357E-1,4.607134E-1,6E0,1E1,1.5E1,4.21E1,1E-45,2.8E1,1E-45,1.7E1,1E-45,-5.31716E-1,1.2E1,1.5E1,9.952035E-2,2.0763601E-1,7E0,-4.6125967E-2,4.69E1,-2.465759E-1,7.1E1,2.2E1,-1.2117255E-1,2E2,1E1,3.3E1,-2.3327745E-1,-4.5978785E-2,8E1,-2.3418225E-1,5.8492173E-2,9.432517E-2,6E0,7E0,3.6447577E-3,2.4E1,-1.6793504E-1,-1.02481686E-1,9E0,1.3E1,1E-45,2.2E2,-2.7865503E-2,-4.8847843E-2,9.146966E-2,1.0167E3,1.6E2,-1.2210871E-1,1E-45,1E1,5.236633E-2,1.1797321E-2,-2.4323382E-3,1.6E1,-6.9549996E-3,-1.2304643E-2,3.0749708E-1,1.8331072E-1,7.119065E-2,1.6735546E-1,1E-45,-1.3272858E-1,1.3E1,-8.984758E-2,-2.5988247E-2,1.3E1,1.7E1,-5.6022048E-2,2.6E1,1.1E1,2.0758709E-2,2.3E1,-1.9180864E-2,-3.4043446E-2,2.1031879E-1,3.2E1,1E1,-2.5536804E-2,9.307382E-3,4.0802002E-4,-3.0991167E-2,-1.7096471E-2,-1.0401982E-1,-6.284067E-2,-2.0494178E-1,1E-45,-6.529187E-2,-1.0139379E-1,2.9573878E-2,1.1121808E-1,1.1761649E-2,6.028442E-3,-1.2892078E-1,-1.8361633E-1],"split_indices":[39,22,22,28,25,0,0,94,11,29,0,4,14,51,0,9,37,0,0,25,2,0,8,97,7,94,0,93,0,3,3,0,0,0,0,7,0,36,76,0,4,0,1,0,0,78,0,0,0,0,0,0,1,0,0,0,0,22,4,0,0,0,14,4,0,94,0,0,0,0,0,0,0,0,0,0,0,74,0,0,0,0,0,0,0,1,87,0,1,0,0,0,53,0,0,0,0,0,0,0,0,0,99,0,0,0,0,0,0,0,0],"split_type":[0,1,1,0,0,0,0,1,0,0,0,0,0,0,0,0,0,0,0,0,0,0,0,1,0,1,0,1,0,0,0,0,0,0,0,0,0,0,0,0,0,0,0,0,0,0,0,0,0,0,0,0,0,0,0,0,0,1,0,0,0,0,0,0,0,1,0,0,0,0,0,0,0,0,0,0,0,1,0,0,0,0,0,0,0,0,0,0,0,0,0,0,0,0,0,0,0,0,0,0,0,0,1,0,0,0,0,0,0,0,0],"sum_hessian":[1.14E3,1.104E3,3.6E1,6.6E2,4.44E2,1.8E1,1.8E1,1.8E2,4.8E2,4.32E2,1.2E1,6.6E1,1.14E2,4.74E2,6E0,9.6E1,3.36E2,6E0,6E0,5.4E1,1.2E1,2.4E1,9E1,4.26E2,4.8E1,7.2E1,2.4E1,3.3E2,6E0,1.8E1,3.6E1,6E0,6E0,1.8E1,6E0,6.6E1,2.4E1,4.8E1,3.78E2,1.2E1,3.6E1,3E1,4.2E1,1.8E1,6E0,2.28E2,1.02E2,1.2E1,6E0,1.8E1,1.8E1,6E0,1.2E1,6E1,6E0,2.4E1,2.4E1,3.54E2,2.4E1,2.4E1,1.2E1,1.2E1,1.8E1,3E1,1.2E1,1.74E2,5.4E1,6E0,1.2E1,6E0,1.2E1,6E0,6E0,1.8E1,6E0,1.2E1,1.2E1,3.48E2,6E0,1.8E1,6E0,6E0,1.2E1,1.2E1,1.8E1,1.8E1,1.56E2,6E0,4.8E1,6E0,6E0,1.2E1,3.36E2,1.2E1,6E0,6E0,6E0,6E0,6E0,6E0,1.2E1,5.4E1,1.02E2,1.2E1,3.6E1,1.8E1,3.18E2,6E0,6E0,4.2E1,6E1],"tree_param":{"num_deleted":"0","num_feature":"100","num_nodes":"111","size_leaf_vector":"1"}},{"base_weights":[1.1535163E-2,-2.5242398E0,7.57418E1,5.3258457E0,-1.4179031E1,8.594277E-1,6.155442E-1,-7.5797915E0,1.0171157E1,-1.5672345E1,3.6650505E1,5.4757833E0,-1.5120172E1,9.272403E0,6.9705015E-1,-6.8092766E0,-1.8176931E1,2.2388789E-1,4.5676428E-1,2.794745E0,1.6397423E1,-1.713927E0,-1.863705E1,1.0989162E1,-5.8771644E0,-2.5967457E0,-1.8837496E1,-1.7391584E1,-5.271585E-1,7.4104967E0,3.4896025E-1,9.8667346E-2,2.0585622E-1,-5.7035106E-1,-4.5730717E-2,-1.6200743E1,-2.4420871E-1,2.0677029E1,9.707646E0,-1.2005392E-1,-3.5651608E0,3.4361227E0,-6.8856335E0,-2.3106746E-1,-4.5584586E-2,-1.470928E1,-2.3186307E-1,5.795215E-2,9.3516625E-2,2.7124746E0,-2.0329204E0,3.6136298E-3,-1.0281701E0,-1.6628319E-1,-1.0160331E-1,2.8237085E1,1.2289891E1,1.0554728E1,-2.7092175E0,-3.0004548E-2,-5.556693E-2,9.06254E-2,-5.943796E-1,-4.477617E0,-1.2098163E-1,-1.6727018E1,-8.021762E0,5.191746E-2,1.1688302E-2,-2.4114118E-3,-2.8413463E0,-6.8953596E-3,-1.2199228E-2,3.0458397E-1,1.817394E-1,7.053345E-2,1.6581061E-1,1.100012E1,-1.3159096E-1,-2.8295738E-1,-8.90775E-2,-2.576538E-2,5.18658E-1,-2.5671363E0,-5.5491235E-2,-8.059395E0,-1.7669424E1,2.0580838E-2,-9.29803E0,-1.9016331E-2,-3.3751525E-2,1.191623E1,6.9663997E0,9.4971645E-1,-2.531786E-2,9.2276E-3,4.046195E-4,-3.0725403E-2,-1.6949985E-2,-1.031281E-1,-6.2260646E-2,-1.8156147E1,-1.0881404E-1,-6.468931E-2,-1.004074E-1,1.2926307E-1,8.028303E-2,8.236699E-2,3.323711E-2,1.166094E-2,5.9766495E-3,-1.0995509E-1,-1.8719546E-1],"categories":[2,3,4,9,0,1,2,3,4,7,8,9,0,1,2,4,0,2,3,4,5,6,7,2,3,0,3,14,1,0,1,3,4,0,1,2,3,5,6,8,10,12,13,14,15,1,2,3,6,7,9,10,12,14],"categories_nodes":[1,2,7,23,25,27,40,57,65,77,91],"categories_segments":[0,4,12,16,23,25,27,28,29,33,45],"categories_sizes":[4,8,4,7,2,2,1,1,4,12,9],"default_left":[0,1,1,0,0,0,0,1,0,0,0,0,0,1,0,1,1,0,0,0,0,0,0,1,0,1,0,1,0,0,0,0,0,0,0,0,0,0,1,0,1,0,0,0,0,1,0,0,0,0,0,0,0,0,0,0,0,1,1,0,0,0,0,0,0,1,0,0,0,0,0,0,0,0,0,0,0,1,0,0,0,0,0,0,0,0,0,0,0,0,0,1,0,0,0,0,0,0,0,0,0,0,0,0,0,0,0,0,0,0,0,0,0],"id":13,"left_children":[1,3,5,7,9,-1,-1,11,13,15,17,19,21,23,-1,25,27,-1,-1,29,31,33,35,37,39,41,43,45,-1,47,49,-1,-1,51,-1,53,-1,55,57,-1,59,61,63,-1,-1,65,-1,-1,-1,67,69,-1,71,-1,-1,73,75,77,79,-1,-1,-1,81,83,-1,85,87,-1,-1,-1,89,-1,-1,-1,-1,-1,-1,91,-1,93,-1,-1,95,97,-1,99,101,-1,103,-1,-1,105,107,109,-1,-1,-1,-1,-1,-1,-1,111,-1,-1,-1,-1,-1,-1,-1,-1,-1,-1,-1],"loss_changes":[2.1930302E5,1.011732E5,6.46875E1,4.141063E4,3.4351875E4,0E0,0E0,1.790116E4,2.5090195E4,9.488102E3,6.5078516E2,1.916023E3,5.3900957E3,1.2418465E4,0E0,4.866001E3,8.224305E3,0E0,0E0,6.1831647E2,1.5246094E2,7.913298E1,8.8665625E2,5.100547E3,6.514546E2,1.9124835E3,1.4186885E3,4.80375E3,0E0,5.380127E0,2.1380978E2,0E0,0E0,8.476114E0,0E0,4.09375E0,0E0,2.7599238E3,4.0149492E3,0E0,2.4938751E1,7.0838245E2,4.8555908E2,0E0,0E0,2.955871E3,0E0,0E0,0E0,6.664688E1,2.6836723E1,0E0,2.9611588E-3,0E0,0E0,5.2851562E0,4.448208E2,3.89425E3,3.734608E2,0E0,0E0,0E0,4.3254463E1,4.9214478E1,0E0,1.2870703E3,7.2668823E2,0E0,0E0,0E0,1.0282135E-1,0E0,0E0,0E0,0E0,0E0,0E0,1.2066562E3,0E0,5.5073853E1,0E0,0E0,2.4747834E0,5.222168E-1,0E0,1.4285645E1,3.2114453E2,0E0,3.800586E1,0E0,0E0,1.00759766E3,2.8265308E2,2.9335594E-1,0E0,0E0,0E0,0E0,0E0,0E0,0E0,3.7914062E2,0E0,0E0,0E0,0E0,0E0,0E0,0E0,0E0,0E0,0E0,0E0],"parents":[2147483647,0,0,1,1,2,2,3,3,4,4,7,7,8,8,9,9,10,10,11,11,12,12,13,13,15,15,16,16,19,19,20,20,21,21,22,22,23,23,24,24,25,25,26,26,27,27,29,29,30,30,33,33,35,35,37,37,38,38,40,40,41,41,42,42,45,45,49,49,50,50,52,52,55,55,56,56,57,57,58,58,62,62,63,63,65,65,66,66,70,70,77,77,79,79,82,82,83,83,85,85,86,86,88,88,91,91,92,92,93,93,101,101],"right_children":[2,4,6,8,10,-1,-1,12,14,16,18,20,22,24,-1,26,28,-1,-1,30,32,34,36,38,40,42,44,46,-1,48,50,-1,-1,52,-1,54,-1,56,58,-1,60,62,64,-1,-1,66,-1,-1,-1,68,70,-1,72,-1,-1,74,76,78,80,-1,-1,-1,82,84,-1,86,88,-1,-1,-1,90,-1,-1,-1,-1,-1,-1,92,-1,94,-1,-1,96,98,-1,100,102,-1,104,-1,-1,106,108,110,-1,-1,-1,-1,-1,-1,-1,112,-1,-1,-1,-1,-1,-1,-1,-1,-1,-1,-1],"split_conditions":[1.0267E3,1E-45,1E-45,3.2E1,4.8000008E1,8.594277E-1,6.155442E-1,1E-45,9.3E1,1.9E2,6E0,1.7E2,1.0056E3,2.2E1,6.9705015E-1,3.99E1,3.9E1,2.2388789E-1,4.5676428E-1,6E0,1E1,1.5E1,4.21E1,1E-45,2.8E1,1E-45,1.7E1,1E-45,-5.271585E-1,1.2E1,1.5E1,9.8667346E-2,2.0585622E-1,7E0,-4.5730717E-2,4.69E1,-2.4420871E-1,7.1E1,2.2E1,-1.2005392E-1,1E-45,1E1,3.3E1,-2.3106746E-1,-4.5584586E-2,8E1,-2.3186307E-1,5.795215E-2,9.3516625E-2,6E0,7E0,3.6136298E-3,2.4E1,-1.6628319E-1,-1.0160331E-1,9E0,1.3E1,1E-45,2.2E2,-3.0004548E-2,-5.556693E-2,9.06254E-2,1.0167E3,1.6E2,-1.2098163E-1,1E-45,1E1,5.191746E-2,1.1688302E-2,-2.4114118E-3,1.6E1,-6.8953596E-3,-1.2199228E-2,3.0458397E-1,1.817394E-1,7.053345E-2,1.6581061E-1,1E-45,-1.3159096E-1,1.3E1,-8.90775E-2,-2.576538E-2,1.3E1,1.7E1,-5.5491235E-2,2.6E1,2.3E1,2.0580838E-2,2.3E1,-1.9016331E-2,-3.3751525E-2,1E-45,1.2E1,1E1,-2.531786E-2,9.2276E-3,4.046195E-4,-3.0725403E-2,-1.6949985E-2,-1.031281E-1,-6.2260646E-2,3E1,-1.0881404E-1,-6.468931E-2,-1.004074E-1,1.2926307E-1,8.028303E-2,8.236699E-2,3.323711E-2,1.166094E-2,5.9766495E-3,-1.0995509E-1,-1.8719546E-1],"split_indices":[39,22,22,28,25,0,0,94,11,29,0,4,14,51,0,9,37,0,0,25,2,0,8,97,7,94,0,93,0,3,3,0,0,0,0,7,0,36,76,0,24,0,1,0,0,78,0,0,0,0,0,0,1,0,0,0,0,22,4,0,0,0,14,4,0,94,0,0,0,0,0,0,0,0,0,0,0,99,0,0,0,0,0,0,0,1,75,0,1,0,0,24,25,0,0,0,0,0,0,0,0,34,0,0,0,0,0,0,0,0,0,0,0],"split_type":[0,1,1,0,0,0,0,1,0,0,0,0,0,0,0,0,0,0,0,0,0,0,0,1,0,1,0,1,0,0,0,0,0,0,0,0,0,0,0,0,1,0,0,0,0,0,0,0,0,0,0,0,0,0,0,0,0,1,0,0,0,0,0,0,0,1,0,0,0,0,0,0,0,0,0,0,0,1,0,0,0,0,0,0,0,0,0,0,0,0,0,1,0,0,0,0,0,0,0,0,0,0,0,0,0,0,0,0,0,0,0,0,0],"sum_hessian":[1.14E3,1.104E3,3.6E1,6.6E2,4.44E2,1.8E1,1.8E1,1.8E2,4.8E2,4.32E2,1.2E1,6.6E1,1.14E2,4.74E2,6E0,9.6E1,3.36E2,6E0,6E0,5.4E1,1.2E1,2.4E1,9E1,4.26E2,4.8E1,7.2E1,2.4E1,3.3E2,6E0,1.8E1,3.6E1,6E0,6E0,1.8E1,6E0,6.6E1,2.4E1,4.8E1,3.78E2,1.2E1,3.6E1,3E1,4.2E1,1.8E1,6E0,2.28E2,1.02E2,1.2E1,6E0,1.8E1,1.8E1,6E0,1.2E1,6E1,6E0,2.4E1,2.4E1,3.54E2,2.4E1,3E1,6E0,1.2E1,1.8E1,3E1,1.2E1,1.74E2,5.4E1,6E0,1.2E1,6E0,1.2E1,6E0,6E0,1.8E1,6E0,1.2E1,1.2E1,3.48E2,6E0,1.8E1,6E0,6E0,1.2E1,1.2E1,1.8E1,1.8E1,1.56E2,6E0,4.8E1,6E0,6E0,2.82E2,6.6E1,1.2E1,6E0,6E0,6E0,6E0,6E0,6E0,1.2E1,1.44E2,1.2E1,1.2E1,3.6E1,2.22E2,6E1,4.8E1,1.8E1,6E0,6E0,1.2E1,1.32E2],"tree_param":{"num_deleted":"0","num_feature":"100","num_nodes":"113","size_leaf_vector":"1"}},{"base_weights":[1.2695259E-2,-2.499015E0,7.502425E1,5.2744026E0,-1.4039982E1,8.512857E-1,6.097127E-1,-7.504592E0,1.00721655E1,-1.5520011E1,3.6336365E1,5.42796E0,-1.4973951E1,9.180965E0,6.9107544E-1,-6.7455807E0,-1.7999535E1,2.2196895E-1,4.5284924E-1,2.769706E0,1.6256884E1,-1.6992273E0,-1.8456305E1,1.0881184E1,-5.8225913E0,-2.5728343E0,-1.8660177E1,-1.722053E1,-5.2264E-1,7.3443666E0,3.45699E-1,9.782165E-2,2.0409189E-1,-5.654554E-1,-4.5338616E-2,-1.5671322E-1,-2.3341067E-1,2.0485008E1,9.610819E0,-1.1894571E-1,-3.5318258E0,3.404162E0,-6.821998E0,-2.288783E-1,-4.5193784E-2,-1.4565313E1,-2.2956686E-1,5.74172E-2,9.2715144E-2,2.6886997E0,-2.0154965E0,3.5827635E-3,-1.0193528E0,2.7974161E1,1.2176454E1,1.0449718E1,-2.6859925E0,-2.9714236E-2,-5.509059E-2,8.978875E-2,-5.8928156E-1,-4.436176E0,-1.1986496E-1,-1.6563013E1,-7.944172E0,5.1472515E-2,1.1580411E-2,-2.390747E-3,-2.8169932E0,-6.8362425E-3,-1.20945955E-2,3.0169833E-1,1.8018171E-1,6.988244E-2,1.6428013E-1,1.0891044E1,-1.3046303E-1,-2.805288E-1,-8.831395E-2,-2.5544606E-2,5.142212E-1,-2.5451355E0,-5.496563E-2,-7.987512E0,-1.7495316E1,2.040453E-2,-9.208421E0,-1.8853366E-2,-3.346222E-2,9.813214E0,1.4450545E1,9.415753E-1,-2.510075E-2,9.148603E-3,4.0121895E-4,-3.0461993E-2,-1.6804809E-2,-1.0224421E-1,-6.1685976E-2,-2.0109157E-1,-1.5929717E1,-6.40921E-2,-9.943051E-2,9.006576E-2,1.467123E-1,1.6730502E-1,6.37013E-2,1.1561018E-2,5.9253797E-3,-1.2615976E-1,-1.8004489E-1],"categories":[2,3,4,9,0,1,2,3,4,7,8,9,0,1,2,4,0,2,3,4,5,6,7,2,3,0,3,14,1,0,1,3,4,0,1,2,3,4,6,7,8,9,10,12,13,14,0,6,9,13],"categories_nodes":[1,2,7,23,25,27,40,55,63,90,100],"categories_segments":[0,4,12,16,23,25,27,28,29,33,46],"categories_sizes":[4,8,4,7,2,2,1,1,4,13,4],"default_left":[0,1,1,0,0,0,0,1,0,0,0,0,0,1,0,1,1,0,0,0,0,0,0,1,0,1,0,1,0,0,0,0,0,0,0,0,0,0,1,0,1,0,0,0,0,1,0,0,0,0,0,0,0,0,0,1,1,0,0,0,0,0,0,1,0,0,0,0,0,0,0,0,0,0,0,0,0,0,0,0,0,0,0,0,1,0,0,0,0,0,1,0,0,0,0,0,0,0,0,0,1,0,0,0,0,0,0,0,0,0,0],"id":14,"left_children":[1,3,5,7,9,-1,-1,11,13,15,17,19,21,23,-1,25,27,-1,-1,29,31,33,35,37,39,41,43,45,-1,47,49,-1,-1,51,-1,-1,-1,53,55,-1,57,59,61,-1,-1,63,-1,-1,-1,65,67,-1,69,71,73,75,77,-1,-1,-1,79,81,-1,83,85,-1,-1,-1,87,-1,-1,-1,-1,-1,-1,89,-1,91,-1,-1,93,95,-1,97,99,-1,101,-1,-1,103,105,107,-1,-1,-1,-1,-1,-1,-1,-1,109,-1,-1,-1,-1,-1,-1,-1,-1,-1,-1],"loss_changes":[2.151602E5,9.920664E4,6.3453125E1,4.060188E4,3.374246E4,0E0,0E0,1.7565494E4,2.467205E4,9.299102E3,6.3967773E2,1.883637E3,5.2847754E3,1.2180289E4,0E0,4.7744995E3,8.0952656E3,0E0,0E0,6.0735657E2,1.4985889E2,7.778202E1,8.7217773E2,5.0126797E3,6.3955505E2,1.8772217E3,1.3911211E3,4.707E3,0E0,5.447754E0,2.1011354E2,0E0,0E0,8.33152E0,0E0,0E0,0E0,2.7083516E3,3.93775E3,0E0,2.46279E1,6.9542236E2,4.7665356E2,0E0,0E0,2.897414E3,0E0,0E0,0E0,6.5540146E1,2.6378654E1,0E0,2.9001236E-3,2.8984375E0,4.3664673E2,3.8232188E3,3.6708606E2,0E0,0E0,0E0,4.251659E1,4.817267E1,0E0,1.259375E3,7.130569E2,0E0,0E0,0E0,1.0102081E-1,0E0,0E0,0E0,0E0,0E0,0E0,1.1971445E3,0E0,5.413344E1,0E0,0E0,2.4325495E0,5.131302E-1,0E0,1.4235718E1,3.2214844E2,0E0,3.7035645E1,0E0,0E0,9.2981836E2,1.3488398E3,2.8837776E-1,0E0,0E0,0E0,0E0,0E0,0E0,0E0,0E0,4.8100977E2,0E0,0E0,0E0,0E0,0E0,0E0,0E0,0E0,0E0,0E0],"parents":[2147483647,0,0,1,1,2,2,3,3,4,4,7,7,8,8,9,9,10,10,11,11,12,12,13,13,15,15,16,16,19,19,20,20,21,21,22,22,23,23,24,24,25,25,26,26,27,27,29,29,30,30,33,33,37,37,38,38,40,40,41,41,42,42,45,45,49,49,50,50,52,52,53,53,54,54,55,55,56,56,60,60,61,61,63,63,64,64,68,68,75,75,77,77,80,80,81,81,83,83,84,84,86,86,89,89,90,90,91,91,100,100],"right_children":[2,4,6,8,10,-1,-1,12,14,16,18,20,22,24,-1,26,28,-1,-1,30,32,34,36,38,40,42,44,46,-1,48,50,-1,-1,52,-1,-1,-1,54,56,-1,58,60,62,-1,-1,64,-1,-1,-1,66,68,-1,70,72,74,76,78,-1,-1,-1,80,82,-1,84,86,-1,-1,-1,88,-1,-1,-1,-1,-1,-1,90,-1,92,-1,-1,94,96,-1,98,100,-1,102,-1,-1,104,106,108,-1,-1,-1,-1,-1,-1,-1,-1,110,-1,-1,-1,-1,-1,-1,-1,-1,-1,-1],"split_conditions":[1.0267E3,1E-45,1E-45,3.2E1,4.8000008E1,8.512857E-1,6.097127E-1,1E-45,9.3E1,1.9E2,6E0,1.7E2,1.0056E3,2.2E1,6.9107544E-1,3.99E1,3.9E1,2.2196895E-1,4.5284924E-1,6E0,1E1,1.5E1,4.1E1,1E-45,2.8E1,1E-45,1.7E1,1E-45,-5.2264E-1,1.2E1,1.5E1,9.782165E-2,2.0409189E-1,7E0,-4.5338616E-2,-1.5671322E-1,-2.3341067E-1,7.1E1,2.2E1,-1.1894571E-1,1E-45,1E1,3.3E1,-2.288783E-1,-4.5193784E-2,8E1,-2.2956686E-1,5.74172E-2,9.2715144E-2,6E0,7E0,3.5827635E-3,2.4E1,9E0,1.3E1,1E-45,2.2E2,-2.9714236E-2,-5.509059E-2,8.978875E-2,1.0167E3,1.6E2,-1.1986496E-1,1E-45,1E1,5.1472515E-2,1.1580411E-2,-2.390747E-3,1.6E1,-6.8362425E-3,-1.20945955E-2,3.0169833E-1,1.8018171E-1,6.988244E-2,1.6428013E-1,4.4E1,-1.3046303E-1,1.3E1,-8.831395E-2,-2.5544606E-2,1.3E1,1.7E1,-5.496563E-2,2.6E1,1.1E1,2.040453E-2,2.3E1,-1.8853366E-2,-3.346222E-2,8.6E1,1E-45,1E1,-2.510075E-2,9.148603E-3,4.0121895E-4,-3.0461993E-2,-1.6804809E-2,-1.0224421E-1,-6.1685976E-2,-2.0109157E-1,1E-45,-6.40921E-2,-9.943051E-2,9.006576E-2,1.467123E-1,1.6730502E-1,6.37013E-2,1.1561018E-2,5.9253797E-3,-1.2615976E-1,-1.8004489E-1],"split_indices":[39,22,22,28,25,0,0,94,11,29,0,4,14,51,0,9,37,0,0,25,2,0,33,97,7,94,0,93,0,3,3,0,0,0,0,0,0,36,76,0,24,0,1,0,0,78,0,0,0,0,0,0,1,0,0,22,4,0,0,0,14,4,0,94,0,0,0,0,0,0,0,0,0,0,0,62,0,0,0,0,0,0,0,1,87,0,1,0,0,86,24,0,0,0,0,0,0,0,0,0,99,0,0,0,0,0,0,0,0,0,0],"split_type":[0,1,1,0,0,0,0,1,0,0,0,0,0,0,0,0,0,0,0,0,0,0,0,1,0,1,0,1,0,0,0,0,0,0,0,0,0,0,0,0,1,0,0,0,0,0,0,0,0,0,0,0,0,0,0,1,0,0,0,0,0,0,0,1,0,0,0,0,0,0,0,0,0,0,0,0,0,0,0,0,0,0,0,0,0,0,0,0,0,0,1,0,0,0,0,0,0,0,0,0,1,0,0,0,0,0,0,0,0,0,0],"sum_hessian":[1.14E3,1.104E3,3.6E1,6.6E2,4.44E2,1.8E1,1.8E1,1.8E2,4.8E2,4.32E2,1.2E1,6.6E1,1.14E2,4.74E2,6E0,9.6E1,3.36E2,6E0,6E0,5.4E1,1.2E1,2.4E1,9E1,4.26E2,4.8E1,7.2E1,2.4E1,3.3E2,6E0,1.8E1,3.6E1,6E0,6E0,1.8E1,6E0,6E1,3E1,4.8E1,3.78E2,1.2E1,3.6E1,3E1,4.2E1,1.8E1,6E0,2.28E2,1.02E2,1.2E1,6E0,1.8E1,1.8E1,6E0,1.2E1,2.4E1,2.4E1,3.54E2,2.4E1,3E1,6E0,1.2E1,1.8E1,3E1,1.2E1,1.74E2,5.4E1,6E0,1.2E1,6E0,1.2E1,6E0,6E0,1.8E1,6E0,1.2E1,1.2E1,3.48E2,6E0,1.8E1,6E0,6E0,1.2E1,1.2E1,1.8E1,1.8E1,1.56E2,6E0,4.8E1,6E0,6E0,2.7E2,7.8E1,1.2E1,6E0,6E0,6E0,6E0,6E0,6E0,1.2E1,5.4E1,1.02E2,1.2E1,3.6E1,2.34E2,3.6E1,6E1,1.8E1,6E0,6E0,4.2E1,6E1],"tree_param":{"num_deleted":"0","num_feature":"100","num_nodes":"111","size_leaf_vector":"1"}},{"base_weights":[1.3973146E-2,-2.4738965E0,7.431349E1,5.223864E0,-1.3902539E1,8.4322083E-1,6.0393655E-1,-7.4294953E0,9.974455E0,-1.5369409E1,3.6024918E1,5.3805547E0,-1.4828137E1,9.090751E0,6.8515193E-1,-6.682477E0,-1.7824194E1,2.2006649E-1,4.4896767E-1,2.7448936E0,1.611754E1,-1.6846595E0,-1.8276037E1,1.0774622E1,-5.7685156E0,-2.549136E0,-1.8484535E1,-1.7051485E1,-5.1816016E-1,7.2788343E0,3.4246743E-1,9.698329E-2,2.0234244E-1,-5.606079E-1,-4.4949908E-2,-1.5881492E1,-2.3962376E-1,2.0294773E1,9.515356E0,-1.17847644E-1,-3.4987924E0,3.3725026E0,-6.7589417E0,-2.2670995E-1,-4.4806387E-2,-1.4423219E1,-2.2729363E-1,5.6887325E-2,9.192047E-2,2.665137E0,-1.9982268E0,3.5521586E-3,-1.0106201E0,-1.6303073E-1,-9.938929E-2,2.7713697E1,1.2064056E1,1.034618E1,-2.662965E0,-2.702468E-2,-4.7610473E-2,8.895998E-2,-5.8423173E-1,-4.395113E0,-1.1875845E-1,-1.640122E1,-7.867337E0,5.1031232E-2,1.1473647E-2,-2.370344E-3,-2.7928514E0,-6.777649E-3,-1.1991011E-2,2.9884017E-1,1.7863734E-1,6.9237344E-2,1.6276374E-1,1.0783483E1,-1.2934479E-1,-2.7811953E-1,-8.7556936E-2,-2.5325665E-2,5.098126E-1,-2.5233178E0,-5.444493E-2,-7.916274E0,-1.7323595E1,2.0229535E-2,-9.1196785E0,-1.8691711E-2,-3.3175528E-2,2.0573482E-1,1.0373828E1,9.335045E-1,-2.488547E-2,9.070129E-3,3.9781842E-4,-3.0200936E-2,-1.666068E-2,-1.0136793E-1,-6.1116662E-2,-1.9911733E-1,-1.5773388E1,-6.350052E-2,-9.846311E-2,2.7822426E-2,1.0793471E-1,1.1461879E-2,5.874634E-3,-1.249275E-1,-1.7827389E-1],"categories":[2,3,4,9,0,1,2,3,4,7,8,9,0,1,2,4,0,2,3,4,5,6,7,2,3,0,3,1,0,1,3,4,0,1,2,3,5,6,8,9,10,11,12,13,14,0,6,9,13],"categories_nodes":[1,2,7,