{"learner":{"attributes":{"scikit_learn":"{\"_estimator_type\": \"regressor\"}"},"feature_names":["Prevailing Wind Magnitude (MPH)_current","Gust Wind Magnitude (MPH)_current","Vis (MI)_current","Cloud Height 1 (100s of ft)_current","Cloud Height 2 (100s of ft)_current","Cloud Height 3 (100s of ft)_current","Cloud Height 4 (100s of ft)_current","Air Temp (F)_current","Dewpoint (F)_current","6hr Max (F)_current","6hr Min (F)_current","Rel Hum_current","Wind Chill (F)_current","Heat Index (F)_current","Sea Level Pressure (MB)_current","Precip 1hr_current","Precip 3hr_current","Precip 6hr_current","cloud_code_1_current","cloud_code_2_current","cloud_code_3_current","cloud_code_4_current","prevailing_wind_dir_code_current","gust_wind_dir_code_current","weather_code_current","Prevailing Wind Magnitude (MPH)_h1","Gust Wind Magnitude (MPH)_h1","Vis (MI)_h1","Cloud Height 1 (100s of ft)_h1","Cloud Height 2 (100s of ft)_h1","Cloud Height 3 (100s of ft)_h1","Cloud Height 4 (100s of ft)_h1","Air Temp (F)_h1","Dewpoint (F)_h1","6hr Max (F)_h1","6hr Min (F)_h1","Rel Hum_h1","Wind Chill (F)_h1","Heat Index (F)_h1","Sea Level Pressure (MB)_h1","Precip 1hr_h1","Precip 3hr_h1","Precip 6hr_h1","cloud_code_1_h1","cloud_code_2_h1","cloud_code_3_h1","cloud_code_4_h1","prevailing_wind_dir_code_h1","gust_wind_dir_code_h1","weather_code_h1","Prevailing Wind Magnitude (MPH)_h2","Gust Wind Magnitude (MPH)_h2","Vis (MI)_h2","Cloud Height 1 (100s of ft)_h2","Cloud Height 2 (100s of ft)_h2","Cloud Height 3 (100s of ft)_h2","Cloud Height 4 (100s of ft)_h2","Air Temp (F)_h2","Dewpoint (F)_h2","6hr Max (F)_h2","6hr Min (F)_h2","Rel Hum_h2","Wind Chill (F)_h2","Heat Index (F)_h2","Sea Level Pressure (MB)_h2","Precip 1hr_h2","Precip 3hr_h2","Precip 6hr_h2","cloud_code_1_h2","cloud_code_2_h2","cloud_code_3_h2","cloud_code_4_h2","prevailing_wind_dir_code_h2","gust_wind_dir_code_h2","weather_code_h2","Prevailing Wind Magnitude (MPH)_h3","Gust Wind Magnitude (MPH)_h3","Vis (MI)_h3","Cloud Height 1 (100s of ft)_h3","Cloud Height 2 (100s of ft)_h3","Cloud Height 3 (100s of ft)_h3","Cloud Height 4 (100s of ft)_h3","Air Temp (F)_h3","Dewpoint (F)_h3","6hr Max (F)_h3","6hr Min (F)_h3","Rel Hum_h3","Wind Chill (F)_h3","Heat Index (F)_h3","Sea Level Pressure (MB)_h3","Precip 1hr_h3","Precip 3hr_h3","Precip 6hr_h3","cloud_code_1_h3","cloud_code_2_h3","cloud_code_3_h3","cloud_code_4_h3","prevailing_wind_dir_code_h3","gust_wind_dir_code_h3","weather_code_h3"],"feature_types":["float","float","float","float","float","float","float","float","float","float","float","float","float","float","float","float","float","float","float","float","float","float","float","float","float","float","float","float","float","float","float","float","float","float","float","float","float","float","float","float","float","float","float","float","float","float","float","float","float","float","float","float","float","float","float","float","float","float","float","float","float","float","float","float","float","float","float","float","float","float","float","float","float","float","float","float","float","float","float","float","float","float","float","float","float","float","float","float","float","float","float","float","float","float","float","float","float","float","float","float"],"gradient_booster":{"model":{"cats":{"enc":[],"feature_segments":[],"sorted_idx":[]},"gbtree_model_param":{"num_parallel_tree":"1","num_trees":"11"},"iteration_indptr":[0,1,2,3,4,5,6,7,8,9,10,11],"tree_info":[0,0,0,0,0,0,0,0,0,0,0],"trees":[{"base_weights":[-4.2962507E-5,2.1395398E3,-1.4594904E2,2.8635132E3,1.4989852E3,2.65327E2,-5.1256757E2,2.6189646E3,3.5878723E1,1.00649207E3,1.886692E3,-1.3695105E2,9.408688E2,-7.437372E2,-1.9712894E2,2.917829E1,2.4656926E3,1.0512462E1,9.589498E0,2.2680527E1,1.6338698E3,1.09125145E2,-6.517177E2,6.607164E2,2.713174E3,6.35376E0,-7.8089087E2,-8.483388E1,-6.0812805E2,2.3191383E1,2.6054165E1,1.7279432E1,1.5793102E1,-5.6202435E-1,7.3546515E0,-7.5437026E0,-4.194206E0,5.698604E0,2.2902658E1,3.673253E1,2.2287058E1,-2.5688689E0,-8.6232E0,1.6659718E0,-1.5357628E0,-4.2678723E0,-6.9843936E0],"categories":[],"categories_nodes":[],"categories_segments":[],"categories_sizes":[],"default_left":[0,0,1,0,0,0,0,0,0,0,0,0,0,0,0,0,0,0,0,0,0,0,0,0,0,0,0,0,0,0,0,0,0,0,0,0,0,0,0,0,0,0,0,0,0,0,0],"id":0,"left_children":[1,3,5,7,9,11,13,15,-1,17,19,21,23,25,27,-1,29,-1,-1,-1,31,33,35,37,39,-1,41,43,45,-1,-1,-1,-1,-1,-1,-1,-1,-1,-1,-1,-1,-1,-1,-1,-1,-1,-1],"loss_changes":[1.5021757E10,1.42033E9,6.7904266E9,2.4586342E8,3.097198E8,5.7681423E9,1.7360748E9,4.2323456E7,0E0,5.26016E5,8.42263E7,1.685313E9,3.9316035E9,7.045217E8,4.6475696E8,0E0,8.721408E6,0E0,0E0,0E0,1.04192E5,9.3221E8,1.0229248E8,1.01168205E9,4.9461658E8,0E0,5.706931E8,1.367591E8,3.5092864E7,0E0,0E0,0E0,0E0,0E0,0E0,0E0,0E0,0E0,0E0,0E0,0E0,0E0,0E0,0E0,0E0,0E0,0E0],"parents":[2147483647,0,0,1,1,2,2,3,3,4,4,5,5,6,6,7,7,9,9,10,10,11,11,12,12,13,13,14,14,16,16,20,20,21,21,22,22,23,23,24,24,26,26,27,27,28,28],"right_children":[2,4,6,8,10,12,14,16,-1,18,20,22,24,26,28,-1,30,-1,-1,-1,32,34,36,38,40,-1,42,44,46,-1,-1,-1,-1,-1,-1,-1,-1,-1,-1,-1,-1,-1,-1,-1,-1,-1,-1],"split_conditions":[1.0008E3,4E0,1.2E1,4.21E1,5E1,1.6E2,4.1E1,6E0,3.5878723E1,5E0,6E0,3.51E1,2E0,1E0,1.0173E3,2.917829E1,1E1,1.0512462E1,9.589498E0,2.2680527E1,2.5E1,1.0241E3,1.0147E3,4.5E1,1.3E1,6.35376E0,1E1,5.9E1,1.3E1,2.3191383E1,2.6054165E1,1.7279432E1,1.5793102E1,-5.6202435E-1,7.3546515E0,-7.5437026E0,-4.194206E0,5.698604E0,2.2902658E1,3.673253E1,2.2287058E1,-2.5688689E0,-8.6232E0,1.6659718E0,-1.5357628E0,-4.2678723E0,-6.9843936E0],"split_indices":[14,22,75,7,4,28,7,0,0,0,0,33,20,18,64,0,2,0,0,0,3,14,14,32,0,0,50,11,3,0,0,0,0,0,0,0,0,0,0,0,0,0,0,0,0,0,0],"split_type":[0,0,0,0,0,0,0,0,0,0,0,0,0,0,0,0,0,0,0,0,0,0,0,0,0,0,0,0,0,0,0,0,0,0,0,0,0,0,0,0,0,0,0,0,0,0,0],"sum_hessian":[4.8104E4,3.071E3,4.5033E4,1.44E3,1.631E3,2.1224E4,2.3809E4,1.08E3,3.6E2,7.2E2,9.11E2,1.3303E4,7.921E3,1.3739E4,1.007E4,3.6E2,7.2E2,3.6E2,3.6E2,3.6E2,5.51E2,9.001E3,4.302E3,6.841E3,1.08E3,3.6E2,1.3379E4,7.91E3,2.16E3,3.6E2,3.6E2,1.91E2,3.6E2,7.122E3,1.879E3,2.982E3,1.32E3,6.481E3,3.6E2,3.6E2,7.2E2,1.8E3,1.1579E4,1.698E3,6.212E3,7.2E2,1.44E3],"tree_param":{"num_deleted":"0","num_feature":"100","num_nodes":"47","size_leaf_vector":"1"}},{"base_weights":[5.2851867E-3,2.1182063E3,-1.4448807E2,2.8349575E3,1.4840419E3,2.626776E2,-5.074426E2,2.5928474E3,3.552093E1,9.96455E2,1.8678862E3,-1.3558192E2,9.314711E2,-7.363002E2,-1.9515877E2,2.8887316E1,2.441104E3,1.0407629E1,9.493869E0,2.245435E1,1.6175911E3,1.08034645E2,-6.4520325E2,6.5411334E2,2.686097E3,6.2903976E0,-7.730828E2,-8.3985535E1,-6.02052E2,2.2960112E1,2.5794342E1,1.7107538E1,1.5635609E1,-5.5640507E-1,7.281144E0,-7.4682913E0,-4.152296E0,5.641627E0,2.2674265E1,3.6366222E1,2.2064495E1,-2.5431948E0,-8.536976E0,1.6493214E0,-1.5204076E0,-4.225253E0,-6.9145985E0],"categories":[],"categories_nodes":[],"categories_segments":[],"categories_sizes":[],"default_left":[0,0,1,0,0,0,0,0,0,0,0,0,0,0,0,0,0,0,0,0,0,0,0,0,0,0,0,0,0,0,0,0,0,0,0,0,0,0,0,0,0,0,0,0,0,0,0],"id":1,"left_children":[1,3,5,7,9,11,13,15,-1,17,19,21,23,25,27,-1,29,-1,-1,-1,31,33,35,37,39,-1,41,43,45,-1,-1,-1,-1,-1,-1,-1,-1,-1,-1,-1,-1,-1,-1,-1,-1,-1,-1],"loss_changes":[1.4723611E10,1.3921331E9,6.6553764E9,2.4098509E8,3.0357965E8,5.653478E9,1.7015214E9,4.148429E7,0E0,5.15584E5,8.255053E7,1.6517906E9,3.8535562E9,6.9051955E8,4.5551747E8,0E0,8.548352E6,0E0,0E0,0E0,1.0368E5,9.136684E8,1.0025651E8,9.9162214E8,4.848215E8,0E0,5.593349E8,1.3403861E8,3.4394304E7,0E0,0E0,0E0,0E0,0E0,0E0,0E0,0E0,0E0,0E0,0E0,0E0,0E0,0E0,0E0,0E0,0E0,0E0],"parents":[2147483647,0,0,1,1,2,2,3,3,4,4,5,5,6,6,7,7,9,9,10,10,11,11,12,12,13,13,14,14,16,16,20,20,21,21,22,22,23,23,24,24,26,26,27,27,28,28],"right_children":[2,4,6,8,10,12,14,16,-1,18,20,22,24,26,28,-1,30,-1,-1,-1,32,34,36,38,40,-1,42,44,46,-1,-1,-1,-1,-1,-1,-1,-1,-1,-1,-1,-1,-1,-1,-1,-1,-1,-1],"split_conditions":[1.0008E3,4E0,1.2E1,4.21E1,5E1,1.6E2,4.1E1,6E0,3.552093E1,5E0,6E0,3.51E1,2E0,1E0,1.0173E3,2.8887316E1,1E1,1.0407629E1,9.493869E0,2.245435E1,2.5E1,1.0241E3,1.0147E3,4.5E1,1.3E1,6.2903976E0,1E1,5.9E1,1.3E1,2.2960112E1,2.5794342E1,1.7107538E1,1.5635609E1,-5.5640507E-1,7.281144E0,-7.4682913E0,-4.152296E0,5.641627E0,2.2674265E1,3.6366222E1,2.2064495E1,-2.5431948E0,-8.536976E0,1.6493214E0,-1.5204076E0,-4.225253E0,-6.9145985E0],"split_indices":[14,22,75,7,4,28,7,0,0,0,0,33,20,18,64,0,2,0,0,0,3,14,14,32,0,0,50,11,3,0,0,0,0,0,0,0,0,0,0,0,0,0,0,0,0,0,0],"split_type":[0,0,0,0,0,0,0,0,0,0,0,0,0,0,0,0,0,0,0,0,0,0,0,0,0,0,0,0,0,0,0,0,0,0,0,0,0,0,0,0,0,0,0,0,0,0,0],"sum_hessian":[4.8104E4,3.071E3,4.5033E4,1.44E3,1.631E3,2.1224E4,2.3809E4,1.08E3,3.6E2,7.2E2,9.11E2,1.3303E4,7.921E3,1.3739E4,1.007E4,3.6E2,7.2E2,3.6E2,3.6E2,3.6E2,5.51E2,9.001E3,4.302E3,6.841E3,1.08E3,3.6E2,1.3379E4,7.91E3,2.16E3,3.6E2,3.6E2,1.91E2,3.6E2,7.122E3,1.879E3,2.982E3,1.32E3,6.481E3,3.6E2,3.6E2,7.2E2,1.8E3,1.1579E4,1.698E3,6.212E3,7.2E2,1.44E3],"tree_param":{"num_deleted":"0","num_feature":"100","num_nodes":"47","size_leaf_vector":"1"}},{"base_weights":[1.0523493E-2,2.0970857E3,-1.4304172E2,2.8066865E3,1.4692474E3,2.6005472E2,-5.0236884E2,2.5669907E3,3.516671E1,9.865181E2,1.849268E3,-1.3422647E2,9.221674E2,-7.289375E2,-1.9320828E2,2.8599243E1,2.4167605E3,1.0303842E1,9.399193E0,2.2230429E1,1.6014744E3,1.0695504E2,-6.3875397E2,6.475764E2,2.65929E3,6.2276683E0,-7.653528E2,-8.314567E1,-5.960367E2,2.2731148E1,2.5537117E1,1.6937353E1,1.5479686E1,-5.5084187E-1,7.208372E0,-7.393634E0,-4.110804E0,5.5852194E0,2.2448149E1,3.6003567E1,2.1844158E1,-2.517777E0,-8.451613E0,1.6328382E0,-1.5052061E0,-4.1830597E0,-6.845501E0],"categories":[],"categories_nodes":[],"categories_segments":[],"categories_sizes":[],"default_left":[0,0,1,0,0,0,0,0,0,0,0,0,0,0,0,0,0,0,0,0,0,0,0,0,0,0,0,0,0,0,0,0,0,0,0,0,0,0,0,0,0,0,0,0,0,0,0],"id":2,"left_children":[1,3,5,7,9,11,13,15,-1,17,19,21,23,25,27,-1,29,-1,-1,-1,31,33,35,37,39,-1,41,43,45,-1,-1,-1,-1,-1,-1,-1,-1,-1,-1,-1,-1,-1,-1,-1,-1,-1,-1],"loss_changes":[1.4431382E10,1.3644974E9,6.523012E9,2.3620198E8,2.975611E8,5.541092E9,1.6676567E9,4.065997E7,0E0,5.05344E5,8.090829E7,1.6189348E9,3.7770578E9,6.767959E8,4.4646176E8,0E0,8.379136E6,0E0,0E0,0E0,1.03168E5,8.954957E8,9.826125E7,9.7196006E8,4.752215E8,0E0,5.482025E8,1.3137227E8,3.370957E7,0E0,0E0,0E0,0E0,0E0,0E0,0E0,0E0,0E0,0E0,0E0,0E0,0E0,0E0,0E0,0E0,0E0,0E0],"parents":[2147483647,0,0,1,1,2,2,3,3,4,4,5,5,6,6,7,7,9,9,10,10,11,11,12,12,13,13,14,14,16,16,20,20,21,21,22,22,23,23,24,24,26,26,27,27,28,28],"right_children":[2,4,6,8,10,12,14,16,-1,18,20,22,24,26,28,-1,30,-1,-1,-1,32,34,36,38,40,-1,42,44,46,-1,-1,-1,-1,-1,-1,-1,-1,-1,-1,-1,-1,-1,-1,-1,-1,-1,-1],"split_conditions":[1.0008E3,4E0,1.2E1,4.21E1,5E1,1.6E2,4.1E1,6E0,3.516671E1,5E0,6E0,3.51E1,2E0,1E0,1.0173E3,2.8599243E1,1E1,1.0303842E1,9.399193E0,2.2230429E1,2.5E1,1.0241E3,1.0147E3,4.5E1,1.3E1,6.2276683E0,1E1,5.9E1,1.3E1,2.2731148E1,2.5537117E1,1.6937353E1,1.5479686E1,-5.5084187E-1,7.208372E0,-7.393634E0,-4.110804E0,5.5852194E0,2.2448149E1,3.6003567E1,2.1844158E1,-2.517777E0,-8.451613E0,1.6328382E0,-1.5052061E0,-4.1830597E0,-6.845501E0],"split_indices":[14,22,75,7,4,28,7,0,0,0,0,33,20,18,64,0,2,0,0,0,3,14,14,32,0,0,50,11,3,0,0,0,0,0,0,0,0,0,0,0,0,0,0,0,0,0,0],"split_type":[0,0,0,0,0,0,0,0,0,0,0,0,0,0,0,0,0,0,0,0,0,0,0,0,0,0,0,0,0,0,0,0,0,0,0,0,0,0,0,0,0,0,0,0,0,0,0],"sum_hessian":[4.8104E4,3.071E3,4.5033E4,1.44E3,1.631E3,2.1224E4,2.3809E4,1.08E3,3.6E2,7.2E2,9.11E2,1.3303E4,7.921E3,1.3739E4,1.007E4,3.6E2,7.2E2,3.6E2,3.6E2,3.6E2,5.51E2,9.001E3,4.302E3,6.841E3,1.08E3,3.6E2,1.3379E4,7.91E3,2.16E3,3.6E2,3.6E2,1.91E2,3.6E2,7.122E3,1.879E3,2.982E3,1.32E3,6.481E3,3.6E2,3.6E2,7.2E2,1.8E3,1.1579E4,1.698E3,6.212E3,7.2E2,1.44E3],"tree_param":{"num_deleted":"0","num_feature":"100","num_nodes":"47","size_leaf_vector":"1"}},{"base_weights":[1.5666306E-2,2.0761755E3,-1.4160983E2,2.7786973E3,1.4546006E3,2.5745798E2,-4.9734576E2,2.5413918E3,3.4816013E1,9.7668024E2,1.8308351E3,-1.3288458E2,9.129566E2,-7.2164844E2,-1.9127725E2,2.8314043E1,2.39266E3,1.0201089E1,9.305461E0,2.200874E1,1.5855183E3,1.05886185E2,-6.32369E2,6.4110474E2,2.6327507E3,6.165564E0,-7.577E2,-8.2314156E1,-5.900814E2,2.2504465E1,2.5282454E1,1.6768862E1,1.5325317E1,-5.453348E-1,7.136327E0,-7.3197217E0,-4.069727E0,5.529376E0,2.2224289E1,3.564453E1,2.1626019E1,-2.4926126E0,-8.367105E0,1.6165197E0,-1.490156E0,-4.1412864E0,-6.7770934E0],"categories":[],"categories_nodes":[],"categories_segments":[],"categories_sizes":[],"default_left":[0,0,1,0,0,0,0,0,0,0,0,0,0,0,0,0,0,0,0,0,0,0,0,0,0,0,0,0,0,0,0,0,0,0,0,0,0,0,0,0,0,0,0,0,0,0,0],"id":3,"left_children":[1,3,5,7,9,11,13,15,-1,17,19,21,23,25,27,-1,29,-1,-1,-1,31,33,35,37,39,-1,41,43,45,-1,-1,-1,-1,-1,-1,-1,-1,-1,-1,-1,-1,-1,-1,-1,-1,-1,-1],"loss_changes":[1.4144951E10,1.3374085E9,6.393279E9,2.3151411E8,2.9166208E8,5.4309407E9,1.6344658E9,3.985408E7,0E0,4.9536E5,7.929856E7,1.5867325E9,3.7020785E9,6.6334566E8,4.375861E8,0E0,8.212736E6,0E0,0E0,0E0,1.02528E5,8.776842E8,9.630528E7,9.526884E8,4.6581197E8,0E0,5.372918E8,1.2875898E8,3.30384E7,0E0,0E0,0E0,0E0,0E0,0E0,0E0,0E0,0E0,0E0,0E0,0E0,0E0,0E0,0E0,0E0,0E0,0E0],"parents":[2147483647,0,0,1,1,2,2,3,3,4,4,5,5,6,6,7,7,9,9,10,10,11,11,12,12,13,13,14,14,16,16,20,20,21,21,22,22,23,23,24,24,26,26,27,27,28,28],"right_children":[2,4,6,8,10,12,14,16,-1,18,20,22,24,26,28,-1,30,-1,-1,-1,32,34,36,38,40,-1,42,44,46,-1,-1,-1,-1,-1,-1,-1,-1,-1,-1,-1,-1,-1,-1,-1,-1,-1,-1],"split_conditions":[1.0008E3,4E0,1.2E1,4.21E1,5E1,1.6E2,4.1E1,6E0,3.4816013E1,5E0,6E0,3.51E1,2E0,1E0,1.0173E3,2.8314043E1,1E1,1.0201089E1,9.305461E0,2.200874E1,2.5E1,1.0241E3,1.0147E3,4.5E1,1.3E1,6.165564E0,1E1,5.9E1,1.3E1,2.2504465E1,2.5282454E1,1.6768862E1,1.5325317E1,-5.453348E-1,7.136327E0,-7.3197217E0,-4.069727E0,5.529376E0,2.2224289E1,3.564453E1,2.1626019E1,-2.4926126E0,-8.367105E0,1.6165197E0,-1.490156E0,-4.1412864E0,-6.7770934E0],"split_indices":[14,22,75,7,4,28,7,0,0,0,0,33,20,18,64,0,2,0,0,0,3,14,14,32,0,0,50,11,3,0,0,0,0,0,0,0,0,0,0,0,0,0,0,0,0,0,0],"split_type":[0,0,0,0,0,0,0,0,0,0,0,0,0,0,0,0,0,0,0,0,0,0,0,0,0,0,0,0,0,0,0,0,0,0,0,0,0,0,0,0,0,0,0,0,0,0,0],"sum_hessian":[4.8104E4,3.071E3,4.5033E4,1.44E3,1.631E3,2.1224E4,2.3809E4,1.08E3,3.6E2,7.2E2,9.11E2,1.3303E4,7.921E3,1.3739E4,1.007E4,3.6E2,7.2E2,3.6E2,3.6E2,3.6E2,5.51E2,9.001E3,4.302E3,6.841E3,1.08E3,3.6E2,1.3379E4,7.91E3,2.16E3,3.6E2,3.6E2,1.91E2,3.6E2,7.122E3,1.879E3,2.982E3,1.32E3,6.481E3,3.6E2,3.6E2,7.2E2,1.8E3,1.1579E4,1.698E3,6.212E3,7.2E2,1.44E3],"tree_param":{"num_deleted":"0","num_feature":"100","num_nodes":"47","size_leaf_vector":"1"}},{"base_weights":[2.065671E-2,2.0554736E3,-1.4019234E2,2.7509873E3,1.4400996E3,2.5488715E2,-4.9237302E2,2.5160483E3,3.446882E1,9.6694055E2,1.812586E3,-1.3155614E2,9.038377E2,-7.144323E2,-1.893656E2,2.8031687E1,2.3687996E3,1.009936E1,9.212665E0,2.1789259E1,1.5697213E3,1.0482801E2,-6.2604803E2,6.346977E2,2.6064763E3,6.1040792E0,-7.501239E2,-8.149105E1,-5.8418567E2,2.2280043E1,2.5030327E1,1.6602045E1,1.5172488E1,-5.398827E-1,7.065001E0,-7.2465496E0,-4.0290604E0,5.4740906E0,2.2002663E1,3.528907E1,2.1410059E1,-2.467701E0,-8.283441E0,1.6003634E0,-1.4752574E0,-4.0999317E0,-6.709369E0],"categories":[],"categories_nodes":[],"categories_segments":[],"categories_sizes":[],"default_left":[0,0,1,0,0,0,0,0,0,0,0,0,0,0,0,0,0,0,0,0,0,0,0,0,0,0,0,0,0,0,0,0,0,0,0,0,0,0,0,0,0,0,0,0,0,0,0],"id":4,"left_children":[1,3,5,7,9,11,13,15,-1,17,19,21,23,25,27,-1,29,-1,-1,-1,31,33,35,37,39,-1,41,43,45,-1,-1,-1,-1,-1,-1,-1,-1,-1,-1,-1,-1,-1,-1,-1,-1,-1,-1],"loss_changes":[1.3864208E10,1.3108562E9,6.2661274E9,2.2692045E8,2.858798E8,5.3229793E9,1.6019354E9,3.906304E7,0E0,4.8544E5,7.772134E7,1.5551708E9,3.6285875E9,6.501622E8,4.2888672E8,0E0,8.049664E6,0E0,0E0,0E0,1.01888E5,8.602272E8,9.438835E7,9.337984E8,4.5658726E8,0E0,5.2659866E8,1.2619763E8,3.2380736E7,0E0,0E0,0E0,0E0,0E0,0E0,0E0,0E0,0E0,0E0,0E0,0E0,0E0,0E0,0E0,0E0,0E0,0E0],"parents":[2147483647,0,0,1,1,2,2,3,3,4,4,5,5,6,6,7,7,9,9,10,10,11,11,12,12,13,13,14,14,16,16,20,20,21,21,22,22,23,23,24,24,26,26,27,27,28,28],"right_children":[2,4,6,8,10,12,14,16,-1,18,20,22,24,26,28,-1,30,-1,-1,-1,32,34,36,38,40,-1,42,44,46,-1,-1,-1,-1,-1,-1,-1,-1,-1,-1,-1,-1,-1,-1,-1,-1,-1,-1],"split_conditions":[1.0008E3,4E0,1.2E1,4.21E1,5E1,1.6E2,4.1E1,6E0,3.446882E1,5E0,6E0,3.51E1,2E0,1E0,1.0173E3,2.8031687E1,1E1,1.009936E1,9.212665E0,2.1789259E1,2.5E1,1.0241E3,1.0147E3,4.5E1,1.3E1,6.1040792E0,1E1,5.9E1,1.3E1,2.2280043E1,2.5030327E1,1.6602045E1,1.5172488E1,-5.398827E-1,7.065001E0,-7.2465496E0,-4.0290604E0,5.4740906E0,2.2002663E1,3.528907E1,2.1410059E1,-2.467701E0,-8.283441E0,1.6003634E0,-1.4752574E0,-4.0999317E0,-6.709369E0],"split_indices":[14,22,75,7,4,28,7,0,0,0,0,33,20,18,64,0,2,0,0,0,3,14,14,32,0,0,50,11,3,0,0,0,0,0,0,0,0,0,0,0,0,0,0,0,0,0,0],"split_type":[0,0,0,0,0,0,0,0,0,0,0,0,0,0,0,0,0,0,0,0,0,0,0,0,0,0,0,0,0,0,0,0,0,0,0,0,0,0,0,0,0,0,0,0,0,0,0],"sum_hessian":[4.8104E4,3.071E3,4.5033E4,1.44E3,1.631E3,2.1224E4,2.3809E4,1.08E3,3.6E2,7.2E2,9.11E2,1.3303E4,7.921E3,1.3739E4,1.007E4,3.6E2,7.2E2,3.6E2,3.6E2,3.6E2,5.51E2,9.001E3,4.302E3,6.841E3,1.08E3,3.6E2,1.3379E4,7.91E3,2.16E3,3.6E2,3.6E2,1.91E2,3.6E2,7.122E3,1.879E3,2.982E3,1.32E3,6.481E3,3.6E2,3.6E2,7.2E2,1.8E3,1.1579E4,1.698E3,6.212E3,7.2E2,1.44E3],"tree_param":{"num_deleted":"0","num_feature":"100","num_nodes":"47","size_leaf_vector":"1"}},{"base_weights":[2.5581645E-2,2.0349785E3,-1.3878899E2,2.7235537E3,1.4257433E3,2.5234203E2,-4.8744992E2,2.4909575E3,3.4125084E1,9.572979E2,1.7945189E3,-1.302409E2,8.9480994E2,-7.072883E2,-1.8747302E2,2.7752146E1,2.3451772E3,9.998647E0,9.120794E0,2.1571972E1,1.5540817E3,1.03780495E2,-6.1979016E2,6.2835474E2,2.5804639E3,6.043207E0,-7.426235E2,-8.067615E1,-5.783488E2,2.2057861E1,2.4780718E1,1.643689E1,1.5021185E1,-5.344843E-1,6.994389E0,-7.1741076E0,-3.9888005E0,5.419358E0,2.1783247E1,3.4937157E1,2.1196255E1,-2.4430382E0,-8.200613E0,1.5843694E0,-1.4605076E0,-4.0589886E0,-6.642323E0],"categories":[],"categories_nodes":[],"categories_segments":[],"categories_sizes":[],"default_left":[0,0,1,0,0,0,0,0,0,0,0,0,0,0,0,0,0,0,0,0,0,0,0,0,0,0,0,0,0,0,0,0,0,0,0,0,0,0,0,0,0,0,0,0,0,0,0],"id":5,"left_children":[1,3,5,7,9,11,13,15,-1,17,19,21,23,25,27,-1,29,-1,-1,-1,31,33,35,37,39,-1,41,43,45,-1,-1,-1,-1,-1,-1,-1,-1,-1,-1,-1,-1,-1,-1,-1,-1,-1,-1],"loss_changes":[1.3589036E10,1.2848343E9,6.1415045E9,2.224169E8,2.8021197E8,5.217164E9,1.5700526E9,3.828736E7,0E0,4.7584E5,7.61751E7,1.5242369E9,3.5565558E9,6.372403E8,4.2036035E8,0E0,7.88992E6,0E0,0E0,0E0,1.01248E5,8.431173E8,9.25097E7,9.152832E8,4.4754534E8,0E0,5.1611853E8,1.236873E8,3.1736128E7,0E0,0E0,0E0,0E0,0E0,0E0,0E0,0E0,0E0,0E0,0E0,0E0,0E0,0E0,0E0,0E0,0E0,0E0],"parents":[2147483647,0,0,1,1,2,2,3,3,4,4,5,5,6,6,7,7,9,9,10,10,11,11,12,12,13,13,14,14,16,16,20,20,21,21,22,22,23,23,24,24,26,26,27,27,28,28],"right_children":[2,4,6,8,10,12,14,16,-1,18,20,22,24,26,28,-1,30,-1,-1,-1,32,34,36,38,40,-1,42,44,46,-1,-1,-1,-1,-1,-1,-1,-1,-1,-1,-1,-1,-1,-1,-1,-1,-1,-1],"split_conditions":[1.0008E3,4E0,1.2E1,4.21E1,5E1,1.6E2,4.1E1,6E0,3.4125084E1,5E0,6E0,3.51E1,2E0,1E0,1.0173E3,2.7752146E1,1E1,9.998647E0,9.120794E0,2.1571972E1,2.5E1,1.0241E3,1.0147E3,4.5E1,1.3E1,6.043207E0,1E1,5.9E1,1.3E1,2.2057861E1,2.4780718E1,1.643689E1,1.5021185E1,-5.344843E-1,6.994389E0,-7.1741076E0,-3.9888005E0,5.419358E0,2.1783247E1,3.4937157E1,2.1196255E1,-2.4430382E0,-8.200613E0,1.5843694E0,-1.4605076E0,-4.0589886E0,-6.642323E0],"split_indices":[14,22,75,7,4,28,7,0,0,0,0,33,20,18,64,0,2,0,0,0,3,14,14,32,0,0,50,11,3,0,0,0,0,0,0,0,0,0,0,0,0,0,0,0,0,0,0],"split_type":[0,0,0,0,0,0,0,0,0,0,0,0,0,0,0,0,0,0,0,0,0,0,0,0,0,0,0,0,0,0,0,0,0,0,0,0,0,0,0,0,0,0,0,0,0,0,0],"sum_hessian":[4.8104E4,3.071E3,4.5033E4,1.44E3,1.631E3,2.1224E4,2.3809E4,1.08E3,3.6E2,7.2E2,9.11E2,1.3303E4,7.921E3,1.3739E4,1.007E4,3.6E2,7.2E2,3.6E2,3.6E2,3.6E2,5.51E2,9.001E3,4.302E3,6.841E3,1.08E3,3.6E2,1.3379E4,7.91E3,2.16E3,3.6E2,3.6E2,1.91E2,3.6E2,7.122E3,1.879E3,2.982E3,1.32E3,6.481E3,3.6E2,3.6E2,7.2E2,1.8E3,1.1579E4,1.698E3,6.212E3,7.2E2,1.44E3],"tree_param":{"num_deleted":"0","num_feature":"100","num_nodes":"47","size_leaf_vector":"1"}},{"base_weights":[3.0374762E-2,2.0146875E3,-1.3739972E2,2.6963936E3,1.41153E3,2.498223E2,-4.825761E2,2.466117E3,3.378478E1,9.4775146E2,1.7766318E3,-1.2893889E2,8.8587244E2,-7.002159E2,-1.8559938E2,2.7475393E1,2.3217903E3,9.898937E0,9.029838E0,2.1356848E1,1.5385978E3,-3.474108E2,3.8646896E2,6.220752E2,2.5547112E3,5.982943E0,-7.3519806E2,-7.986941E1,-5.725703E2,2.1837893E1,2.4533598E1,1.6273376E1,1.48713875E1,-1.436844E0,-6.5772057E0,5.481897E-1,6.6269073E0,5.3651733E0,2.1566017E1,3.4588753E1,2.0984587E1,-2.4186218E0,-8.118615E0,1.5685353E0,-1.4459054E0,-4.0184555E0,-6.5759454E0],"categories":[],"categories_nodes":[],"categories_segments":[],"categories_sizes":[],"default_left":[0,0,1,0,0,0,0,0,0,0,0,0,0,0,0,0,0,0,0,0,0,0,0,0,0,0,0,0,0,0,0,0,0,0,0,0,0,0,0,0,0,0,0,0,0,0,0],"id":6,"left_children":[1,3,5,7,9,11,13,15,-1,17,19,21,23,25,27,-1,29,-1,-1,-1,31,33,35,37,39,-1,41,43,45,-1,-1,-1,-1,-1,-1,-1,-1,-1,-1,-1,-1,-1,-1,-1,-1,-1,-1],"loss_changes":[1.3319325E10,1.2593265E9,6.0193603E9,2.1800346E8,2.7465677E8,5.1134525E9,1.5388042E9,3.752704E7,0E0,4.66432E5,7.465984E7,1.4981932E9,3.485952E9,6.245755E8,4.1200336E8,0E0,7.733504E6,0E0,0E0,0E0,1.00608E5,5.906171E8,3.6282662E8,8.9713485E8,4.3868416E8,0E0,5.058468E8,1.2122691E8,3.110432E7,0E0,0E0,0E0,0E0,0E0,0E0,0E0,0E0,0E0,0E0,0E0,0E0,0E0,0E0,0E0,0E0,0E0,0E0],"parents":[2147483647,0,0,1,1,2,2,3,3,4,4,5,5,6,6,7,7,9,9,10,10,11,11,12,12,13,13,14,14,16,16,20,20,21,21,22,22,23,23,24,24,26,26,27,27,28,28],"right_children":[2,4,6,8,10,12,14,16,-1,18,20,22,24,26,28,-1,30,-1,-1,-1,32,34,36,38,40,-1,42,44,46,-1,-1,-1,-1,-1,-1,-1,-1,-1,-1,-1,-1,-1,-1,-1,-1,-1,-1],"split_conditions":[1.0008E3,4E0,1.2E1,4.21E1,5E1,1.6E2,4.1E1,6E0,3.378478E1,5E0,6E0,4.4E1,2E0,1E0,1.0173E3,2.7475393E1,1E1,9.898937E0,9.029838E0,2.1356848E1,2.5E1,3.51E1,6.2E1,4.5E1,1.3E1,5.982943E0,1E1,5.9E1,1.3E1,2.1837893E1,2.4533598E1,1.6273376E1,1.48713875E1,-1.436844E0,-6.5772057E0,5.481897E-1,6.6269073E0,5.3651733E0,2.1566017E1,3.4588753E1,2.0984587E1,-2.4186218E0,-8.118615E0,1.5685353E0,-1.4459054E0,-4.0184555E0,-6.5759454E0],"split_indices":[14,22,75,7,4,28,7,0,0,0,0,87,20,18,64,0,2,0,0,0,3,58,11,32,0,0,50,11,3,0,0,0,0,0,0,0,0,0,0,0,0,0,0,0,0,0,0],"split_type":[0,0,0,0,0,0,0,0,0,0,0,0,0,0,0,0,0,0,0,0,0,0,0,0,0,0,0,0,0,0,0,0,0,0,0,0,0,0,0,0,0,0,0,0,0,0,0],"sum_hessian":[4.8104E4,3.071E3,4.5033E4,1.44E3,1.631E3,2.1224E4,2.3809E4,1.08E3,3.6E2,7.2E2,9.11E2,1.3303E4,7.921E3,1.3739E4,1.007E4,3.6E2,7.2E2,3.6E2,3.6E2,3.6E2,5.51E2,9.343E3,3.96E3,6.841E3,1.08E3,3.6E2,1.3379E4,7.91E3,2.16E3,3.6E2,3.6E2,1.91E2,3.6E2,5.641E3,3.702E3,1.8E3,2.16E3,6.481E3,3.6E2,3.6E2,7.2E2,1.8E3,1.1579E4,1.698E3,6.212E3,7.2E2,1.44E3],"tree_param":{"num_deleted":"0","num_feature":"100","num_nodes":"47","size_leaf_vector":"1"}},{"base_weights":[3.517794E-2,1.9945989E3,-1.3602425E2,2.6695042E3,1.3974585E3,2.473279E2,-4.7775095E2,2.4415242E3,3.3447865E1,9.3830023E2,1.7589231E3,-1.27649574E2,8.7702405E2,-6.93214E2,-1.837444E2,2.7201399E1,2.2986367E3,9.800222E0,8.93979E0,2.1143871E1,1.5232682E3,-3.4393756E2,3.8260605E2,6.1585834E2,2.5292153E3,5.9232793E0,-7.2784686E2,-7.907068E1,-5.668495E2,2.162012E1,2.428894E1,1.611149E1,1.4723086E1,-1.4224775E0,-6.5114517E0,5.4271054E-1,6.560668E0,5.3115287E0,2.1350954E1,3.4243824E1,2.0775032E1,-2.3944495E0,-8.037436E0,1.5528597E0,-1.4314485E0,-3.9783266E0,-6.510232E0],"categories":[],"categories_nodes":[],"categories_segments":[],"categories_sizes":[],"default_left":[0,0,1,0,0,0,0,0,0,0,0,0,0,0,0,0,0,0,0,0,0,0,0,0,0,0,0,0,0,0,0,0,0,0,0,0,0,0,0,0,0,0,0,0,0,0,0],"id":7,"left_children":[1,3,5,7,9,11,13,15,-1,17,19,21,23,25,27,-1,29,-1,-1,-1,31,33,35,37,39,-1,41,43,45,-1,-1,-1,-1,-1,-1,-1,-1,-1,-1,-1,-1,-1,-1,-1,-1,-1,-1],"loss_changes":[1.3054968E10,1.2343255E9,5.899647E9,2.1367706E8,2.692114E8,5.011799E9,1.5081779E9,3.6783104E7,0E0,4.57152E5,7.317478E7,1.4683899E9,3.416751E9,6.121631E8,4.038128E8,0E0,7.579904E6,0E0,0E0,0E0,9.9968E4,5.788677E8,3.556096E8,8.793467E8,4.2999706E8,0E0,4.957783E8,1.1881547E8,3.0484992E7,0E0,0E0,0E0,0E0,0E0,0E0,0E0,0E0,0E0,0E0,0E0,0E0,0E0,0E0,0E0,0E0,0E0,0E0],"parents":[2147483647,0,0,1,1,2,2,3,3,4,4,5,5,6,6,7,7,9,9,10,10,11,11,12,12,13,13,14,14,16,16,20,20,21,21,22,22,23,23,24,24,26,26,27,27,28,28],"right_children":[2,4,6,8,10,12,14,16,-1,18,20,22,24,26,28,-1,30,-1,-1,-1,32,34,36,38,40,-1,42,44,46,-1,-1,-1,-1,-1,-1,-1,-1,-1,-1,-1,-1,-1,-1,-1,-1,-1,-1],"split_conditions":[1.0008E3,4E0,1.2E1,4.21E1,5E1,1.6E2,4.1E1,6E0,3.3447865E1,5E0,6E0,4.4E1,2E0,1E0,1.0173E3,2.7201399E1,1E1,9.800222E0,8.93979E0,2.1143871E1,2.5E1,3.51E1,6.2E1,4.5E1,1.3E1,5.9232793E0,1E1,5.9E1,1.3E1,2.162012E1,2.428894E1,1.611149E1,1.4723086E1,-1.4224775E0,-6.5114517E0,5.4271054E-1,6.560668E0,5.3115287E0,2.1350954E1,3.4243824E1,2.0775032E1,-2.3944495E0,-8.037436E0,1.5528597E0,-1.4314485E0,-3.9783266E0,-6.510232E0],"split_indices":[14,22,75,7,4,28,7,0,0,0,0,87,20,18,64,0,2,0,0,0,3,58,11,32,0,0,50,11,3,0,0,0,0,0,0,0,0,0,0,0,0,0,0,0,0,0,0],"split_type":[0,0,0,0,0,0,0,0,0,0,0,0,0,0,0,0,0,0,0,0,0,0,0,0,0,0,0,0,0,0,0,0,0,0,0,0,0,0,0,0,0,0,0,0,0,0,0],"sum_hessian":[4.8104E4,3.071E3,4.5033E4,1.44E3,1.631E3,2.1224E4,2.3809E4,1.08E3,3.6E2,7.2E2,9.11E2,1.3303E4,7.921E3,1.3739E4,1.007E4,3.6E2,7.2E2,3.6E2,3.6E2,3.6E2,5.51E2,9.343E3,3.96E3,6.841E3,1.08E3,3.6E2,1.3379E4,7.91E3,2.16E3,3.6E2,3.6E2,1.91E2,3.6E2,5.641E3,3.702E3,1.8E3,2.16E3,6.481E3,3.6E2,3.6E2,7.2E2,1.8E3,1.1579E4,1.698E3,6.212E3,7.2E2,1.44E3],"tree_param":{"num_deleted":"0","num_feature":"100","num_nodes":"47","size_leaf_vector":"1"}},{"base_weights":[3.9888084E-2,1.9747107E3,-1.3466252E2,2.642883E3,1.3835272E3,2.4485843E2,-4.7297406E2,2.4171765E3,3.3114315E1,9.2894324E2,1.7413909E3,-1.2637313E2,8.682641E2,-6.8628217E2,-1.8190802E2,2.6930138E1,2.275714E3,9.702492E0,8.850639E0,2.093302E1,1.5080914E3,-3.4049902E2,3.7878177E2,6.097036E2,2.503974E3,5.86421E0,-7.2056915E2,-7.827999E1,-5.6118585E2,2.1404516E1,2.4046726E1,1.5951216E1,1.4576263E1,-1.4082552E0,-6.4463544E0,5.372863E-1,6.495092E0,5.258422E0,2.1138037E1,3.3902336E1,2.0567568E1,-2.3705187E0,-7.9570675E0,1.5373402E0,-1.4171368E0,-3.938599E0,-6.445174E0],"categories":[],"categories_nodes":[],"categories_segments":[],"categories_sizes":[],"default_left":[0,0,1,0,0,0,0,0,0,0,0,0,0,0,0,0,0,0,0,0,0,0,0,0,0,0,0,0,0,0,0,0,0,0,0,0,0,0,0,0,0,0,0,0,0,0,0],"id":8,"left_children":[1,3,5,7,9,11,13,15,-1,17,19,21,23,25,27,-1,29,-1,-1,-1,31,33,35,37,39,-1,41,43,45,-1,-1,-1,-1,-1,-1,-1,-1,-1,-1,-1,-1,-1,-1,-1,-1,-1,-1],"loss_changes":[1.2795856E10,1.2098212E9,5.782316E9,2.0943667E8,2.638743E8,4.9121664E9,1.4781604E9,3.605299E7,0E0,4.48E5,7.171917E7,1.4391794E9,3.3489244E9,5.999964E8,3.9578477E8,0E0,7.429376E6,0E0,0E0,0E0,9.92E4,5.6735155E8,3.4853626E8,8.619108E8,4.2148147E8,0E0,4.8591155E8,1.1645198E8,2.9878144E7,0E0,0E0,0E0,0E0,0E0,0E0,0E0,0E0,0E0,0E0,0E0,0E0,0E0,0E0,0E0,0E0,0E0,0E0],"parents":[2147483647,0,0,1,1,2,2,3,3,4,4,5,5,6,6,7,7,9,9,10,10,11,11,12,12,13,13,14,14,16,16,20,20,21,21,22,22,23,23,24,24,26,26,27,27,28,28],"right_children":[2,4,6,8,10,12,14,16,-1,18,20,22,24,26,28,-1,30,-1,-1,-1,32,34,36,38,40,-1,42,44,46,-1,-1,-1,-1,-1,-1,-1,-1,-1,-1,-1,-1,-1,-1,-1,-1,-1,-1],"split_conditions":[1.0008E3,4E0,1.2E1,4.21E1,5E1,1.6E2,4.1E1,6E0,3.3114315E1,5E0,6E0,4.4E1,2E0,1E0,1.0173E3,2.6930138E1,1E1,9.702492E0,8.850639E0,2.093302E1,2.5E1,3.51E1,6.2E1,4.5E1,1.3E1,5.86421E0,1E1,5.9E1,1.3E1,2.1404516E1,2.4046726E1,1.5951216E1,1.4576263E1,-1.4082552E0,-6.4463544E0,5.372863E-1,6.495092E0,5.258422E0,2.1138037E1,3.3902336E1,2.0567568E1,-2.3705187E0,-7.9570675E0,1.5373402E0,-1.4171368E0,-3.938599E0,-6.445174E0],"split_indices":[14,22,75,7,4,28,7,0,0,0,0,87,20,18,64,0,2,0,0,0,3,58,11,32,0,0,50,11,3,0,0,0,0,0,0,0,0,0,0,0,0,0,0,0,0,0,0],"split_type":[0,0,0,0,0,0,0,0,0,0,0,0,0,0,0,0,0,0,0,0,0,0,0,0,0,0,0,0,0,0,0,0,0,0,0,0,0,0,0,0,0,0,0,0,0,0,0],"sum_hessian":[4.8104E4,3.071E3,4.5033E4,1.44E3,1.631E3,2.1224E4,2.3809E4,1.08E3,3.6E2,7.2E2,9.11E2,1.3303E4,7.921E3,1.3739E4,1.007E4,3.6E2,7.2E2,3.6E2,3.6E2,3.6E2,5.51E2,9.343E3,3.96E3,6.841E3,1.08E3,3.6E2,1.3379E4,7.91E3,2.16E3,3.6E2,3.6E2,1.91E2,3.6E2,5.641E3,3.702E3,1.8E3,2.16E3,6.481E3,3.6E2,3.6E2,7.2E2,1.8E3,1.1579E4,1.698E3,6.212E3,7.2E2,1.44E3],"tree_param":{"num_deleted":"0","num_feature":"100","num_nodes":"47","size_leaf_vector":"1"}},{"base_weights":[4.448061E-2,1.9550206E3,-1.3331447E2,2.6165276E3,1.3697349E3,2.4241362E2,-4.6824496E2,2.3930718E3,3.278409E1,9.1967957E2,1.7240333E3,-1.2510947E2,8.595917E2,-6.794197E2,-1.8008998E2,2.6661583E1,2.25302E3,9.605736E0,8.762379E0,2.072427E1,1.4930658E3,1.0008478E2,-5.9619324E2,6.036105E2,2.4789849E3,5.80573E0,-7.1336426E2,-7.74972E1,-5.555788E2,2.1191065E1,2.3806923E1,1.5792534E1,1.4430904E1,-5.1347435E-1,6.737824E0,-6.9071064E0,-3.8230855E0,5.205846E0,2.092724E1,3.356425E1,2.0362179E1,-2.3468268E0,-7.877504E0,1.5219756E0,-1.4029679E0,-3.899268E0,-6.380767E0],"categories":[],"categories_nodes":[],"categories_segments":[],"categories_sizes":[],"default_left":[0,0,1,0,0,0,0,0,0,0,0,0,0,0,0,0,0,0,0,0,0,0,0,0,0,0,0,0,0,0,0,0,0,0,0,0,0,0,0,0,0,0,0,0,0,0,0],"id":9,"left_children":[1,3,5,7,9,11,13,15,-1,17,19,21,23,25,27,-1,29,-1,-1,-1,31,33,35,37,39,-1,41,43,45,-1,-1,-1,-1,-1,-1,-1,-1,-1,-1,-1,-1,-1,-1,-1,-1,-1,-1],"loss_changes":[1.2541886E10,1.1858053E9,5.6673183E9,2.0527923E8,2.5864346E8,4.8145147E9,1.4487409E9,3.5337216E7,0E0,4.39168E5,7.029222E7,1.4114191E9,3.2824438E9,5.8807194E8,3.8791648E8,0E0,7.28192E6,0E0,0E0,0E0,9.856E4,7.820951E8,8.672461E7,8.4482074E8,4.1313587E8,0E0,4.762414E8,1.1413548E8,2.9283264E7,0E0,0E0,0E0,0E0,0E0,0E0,0E0,0E0,0E0,0E0,0E0,0E0,0E0,0E0,0E0,0E0,0E0,0E0],"parents":[2147483647,0,0,1,1,2,2,3,3,4,4,5,5,6,6,7,7,9,9,10,10,11,11,12,12,13,13,14,14,16,16,20,20,21,21,22,22,23,23,24,24,26,26,27,27,28,28],"right_children":[2,4,6,8,10,12,14,16,-1,18,20,22,24,26,28,-1,30,-1,-1,-1,32,34,36,38,40,-1,42,44,46,-1,-1,-1,-1,-1,-1,-1,-1,-1,-1,-1,-1,-1,-1,-1,-1,-1,-1],"split_conditions":[1.0008E3,4E0,1.2E1,4.21E1,5E1,1.6E2,4.1E1,6E0,3.278409E1,5E0,6E0,3.51E1,2E0,1E0,1.0173E3,2.6661583E1,1E1,9.605736E0,8.762379E0,2.072427E1,2.5E1,1.0241E3,1.0147E3,4.5E1,1.3E1,5.80573E0,1E1,5.9E1,1.3E1,2.1191065E1,2.3806923E1,1.5792534E1,1.4430904E1,-5.1347435E-1,6.737824E0,-6.9071064E0,-3.8230855E0,5.205846E0,2.092724E1,3.356425E1,2.0362179E1,-2.3468268E0,-7.877504E0,1.5219756E0,-1.4029679E0,-3.899268E0,-6.380767E0],"split_indices":[14,22,75,7,4,28,7,0,0,0,0,33,20,18,64,0,2,0,0,0,3,14,14,32,0,0,50,11,3,0,0,0,0,0,0,0,0,0,0,0,0,0,0,0,0,0,0],"split_type":[0,0,0,0,0,0,0,0,0,0,0,0,0,0,0,0,0,0,0,0,0,0,0,0,0,0,0,0,0,0,0,0,0,0,0,0,0,0,0,0,0,0,0,0,0,0,0],"sum_hessian":[4.8104E4,3.071E3,4.5033E4,1.44E3,1.631E3,2.1224E4,2.3809E4,1.08E3,3.6E2,7.2E2,9.11E2,1.3303E4,7.921E3,1.3739E4,1.007E4,3.6E2,7.2E2,3.6E2,3.6E2,3.6E2,5.51E2,9.001E3,4.302E3,6.841E3,1.08E3,3.6E2,1.3379E4,7.91E3,2.16E3,3.6E2,3.6E2,1.91E2,3.6E2,7.122E3,1.879E3,2.982E3,1.32E3,6.481E3,3.6E2,3.6E2,7.2E2,1.8E3,1.1579E4,1.698E3,6.212E3,7.2E2,1.44E3],"tree_param":{"num_deleted":"0","num_feature":"100","num_nodes":"47","size_leaf_vector":"1"}},{"base_weights":[4.892643E-2,1.9355271E3,-1.3197997E2,2.5904348E3,1.3560801E3,2.3999304E2,-4.635631E2,2.3692073E3,3.2457153E1,9.1050824E2,1.7068489E3,-1.2385873E2,8.510059E2,-6.726258E2,-1.782901E2,2.6395704E1,2.2305522E3,9.509945E0,8.674998E0,2.05176E1,1.4781898E3,-3.341348E2,3.7221387E2,5.975782E2,2.4542449E3,-7.184213E1,-7.4295557E2,-7.672222E1,-5.500278E2,2.097974E1,2.3569513E1,1.5635432E1,1.4286994E1,-1.386538E0,-6.318852E0,5.370484E-1,6.374903E0,5.1537957E0,2.071855E1,3.322954E1,2.0158838E1,1.7396139E0,-8.076919E0,-2.5141387E0,-8.081092E0,1.506765E0,-1.3889407E0,-3.860329E0,-6.317004E0],"categories":[],"categories_nodes":[],"categories_segments":[],"categories_sizes":[],"default_left":[0,0,1,0,0,0,0,0,0,0,0,0,0,0,0,0,0,0,0,0,0,0,0,0,0,0,0,0,0,0,0,0,0,0,0,0,0,0,0,0,0,0,0,0,0,0,0,0,0],"id":10,"left_children":[1,3,5,7,9,11,13,15,-1,17,19,21,23,25,27,-1,29,-1,-1,-1,31,33,35,37,39,41,43,45,47,-1,-1,-1,-1,-1,-1,-1,-1,-1,-1,-1,-1,-1,-1,-1,-1,-1,-1,-1,-1],"loss_changes":[1.229296E10,1.1622625E9,5.554604E9,2.0120678E8,2.5351552E8,4.7188076E9,1.4199071E9,3.4635776E7,0E0,4.30464E5,6.88937E7,1.387894E9,3.2172826E9,5.805025E8,3.802046E8,0E0,7.137536E6,0E0,0E0,0E0,9.7792E4,5.4377555E8,3.3464237E8,8.280696E8,4.0495514E8,2.6078062E8,3.9371366E8,1.1186507E8,2.8700288E7,0E0,0E0,0E0,0E0,0E0,0E0,0E0,0E0,0E0,0E0,0E0,0E0,0E0,0E0,0E0,0E0,0E0,0E0,0E0,0E0],"parents":[2147483647,0,0,1,1,2,2,3,3,4,4,5,5,6,6,7,7,9,9,10,10,11,11,12,12,13,13,14,14,16,16,20,20,21,21,22,22,23,23,24,24,25,25,26,26,27,27,28,28],"right_children":[2,4,6,8,10,12,14,16,-1,18,20,22,24,26,28,-1,30,-1,-1,-1,32,34,36,38,40,42,44,46,48,-1,-1,-1,-1,-1,-1,-1,-1,-1,-1,-1,-1,-1,-1,-1,-1,-1,-1,-1,-1],"split_conditions":[1.0008E3,4E0,1.2E1,4.21E1,5E1,1.6E2,4.1E1,6E0,3.2457153E1,5E0,6E0,4.4E1,2E0,1E0,1.0173E3,2.6395704E1,1E1,9.509945E0,8.674998E0,2.05176E1,2.5E1,3.51E1,6.2E1,4.5E1,1.3E1,1.6E1,1E1,5.9E1,1.3E1,2.097974E1,2.3569513E1,1.5635432E1,1.4286994E1,-1.386538E0,-6.318852E0,5.370484E-1,6.374903E0,5.1537957E0,2.071855E1,3.322954E1,2.0158838E1,1.7396139E0,-8.076919E0,-2.5141387E0,-8.081092E0,1.506765E0,-1.3889407E0,-3.860329E0,-6.317004E0],"split_indices":[14,22,75,7,4,28,7,0,0,0,0,87,20,43,64,0,2,0,0,0,3,58,11,32,0,0,50,11,3,0,0,0,0,0,0,0,0,0,0,0,0,0,0,0,0,0,0,0,0],"split_type":[0,0,0,0,0,0,0,0,0,0,0,0,0,0,0,0,0,0,0,0,0,0,0,0,0,0,0,0,0,0,0,0,0,0,0,0,0,0,0,0,0,0,0,0,0,0,0,0,0],"sum_hessian":[4.8104E4,3.071E3,4.5033E4,1.44E3,1.631E3,2.1224E4,2.3809E4,1.08E3,3.6E2,7.2E2,9.11E2,1.3303E4,7.921E3,1.3739E4,1.007E4,3.6E2,7.2E2,3.6E2,3.6E2,3.6E2,5.51E2,9.343E3,3.96E3,6.841E3,1.08E3,1.44E3,1.2299E4,7.91E3,2.16E3,3.6E2,3.6E2,1.91E2,3.6E2,5.641E3,3.702E3,1.8E3,2.16E3,6.481E3,3.6E2,3.6E2,7.2E2,1.08E3,3.6E2,1.44E3,1.0859E4,1.698E3,6.212E3,7.2E2,1.44E3],"tree_param":{"num_deleted":"0","num_feature":"100","num_nodes":"49","size_leaf_vector":"1"}}]},"name":"gbtree"},"learner_model_param":{"base_score":"[1.1076112E3]","boost_from_average":"1","num_class":"0","num_feature":"100","num_target":"1"},"objective":{"name":"reg:squarederror","reg_loss_param":{"scale_pos_weight":"1"}}},"version":[3,1,3]}